tree
version=v4
num_class=1
num_tree_per_iteration=1
label_index=0
max_feature_idx=29
objective=binary sigmoid:1
feature_names=rsi_14 rsi_7 rsi_slope macd_hist macd_hist_delta macd_signal bb_position bb_width momentum_1bar momentum_3bar momentum_5bar momentum_10bar volume_ratio volume_trend volatility_5bar volatility_20bar vol_ratio atr_14 atr_ratio candle_body_ratio upper_wick_ratio lower_wick_ratio consec_direction close_vs_open hour_sin hour_cos returns_std_10 returns_skew_10 high_low_range close_position_in_range
feature_infos=[-2.710525819156083:2.361910466678077] [-2.2493773548204348:2.1008075868285592] [-3.0942761382107911:2.4692463514264533] [-3.8596369611043113:3.6341616425685115] [-4.4625351170159417:12.934049347172522] [-2.3551332285743496:3.7259063232961438] [-2.5036745189000689:2.6535036139840584] [-1.2405023175129068:4.0043987695770316] [-5.2894587682735592:5.0340079649677989] [-5.3214359756955725:3.7744319022684998] [-4.3275232223146265:5.5746562626659593] [-3.5511360581044111:7.2206044683364734] [-1.0534111549777687:6.5755322614143168] [-1.651326553241707:3.0378387115573142] [-1.3664836463718504:4.9701256532834304] [-1.0705836042701142:6.0400844377049232] [-1.8437290615899338:2.8639948729872891] [-1.1946406040431514:5.6632002833543584] [-2.5672285156113936:3.2294854039994014] [-1.7531799824296688:2.1480740467300379] [-1.309765839231626:3.3347214839262524] [-1.2702277688143095:2.893956764469134] [-3.5827782847178242:4.3021569431627293] [-1.0362107502308611:0.9650546472107161] [-1.4119461339384931:1.4158860046946951] [-1.4085935339229878:1.4204844469504554] [-1.1377370517858858:9.0207010259046339] [-3.2296959215681547:2.9600345329611097] [-1.2910968403634824:4.557044956484857] [-1.825520513384761:1.7093728978951817]
tree_sizes=1611 1713 1291 1819 1825 1606 1401 1616 1828 1396 1720 1399 1507 1496 1407

Tree=0
num_leaves=14
num_cat=0
split_feature=9 3 20 22 13 24 24 11 1 11 0 0 7
split_gain=24.492 22.7945 22.0735 26.8361 21.9506 28.4151 29.6096 24.0898 32.9351 13.9853 9.69461 4.24674 3.18236
threshold=0.25325953209506963 2.224847502474804 -0.85286696966392606 0.57871530777469016 -0.31571820296368663 1.396253880302653 -1.0904167755369956 -0.39752916884329642 -0.49417496484154866 -0.3555418020348774 -0.95764686322479009 1.4753294066132545 -0.3114134491186093
decision_type=2 2 2 2 2 2 2 2 2 2 2 2 2
left_child=4 2 3 -2 7 6 -6 10 -9 -4 -1 -3 -7
right_child=1 11 9 -5 5 12 -8 8 -10 -11 -12 -13 -14
leaf_value=-0.03952011640061584 -0.023775188657196564 -0.090335290491602632 -0.048023034297123457 -0.078357859580208272 -0.0092656224223071973 -0.030309211105398973 -0.049347115553111637 -0.013246746379033725 -0.058947137307518813 -0.019646182875020821 -0.084294661301319268 -0.047000167198925774 0.0067652470586801183
leaf_weight=4.7292290925979641 15.168564438819887 5.2476927042007429 17.186368823051453 15.224614500999449 18.66558963060379 3.9795587062835684 104.68034961819649 18.676155090332031 49.724096596240997 118.42690289020538 27.144567370414734 3.9024897813796997 11.497281432151793
leaf_count=6 19 7 22 20 24 5 139 24 69 148 38 5 14
internal_value=-0.0396004 -0.0311003 -0.0284754 -0.051215 -0.0458216 -0.0381326 -0.0430195 -0.0564581 -0.046149 -0.0233046 -0.0775974 -0.0747643 -0.00111947
internal_weight=414.253 175.157 166.006 30.3932 239.097 138.823 123.346 100.274 68.4003 135.613 31.8738 9.15018 15.4768
internal_count=540 221 209 39 319 182 163 137 93 170 44 12 19
is_linear=0
shrinkage=1


Tree=1
num_leaves=15
num_cat=0
split_feature=2 7 18 7 19 19 7 14 20 24 15 9 5 2
split_gain=24.2915 31.6543 27.4055 28.6281 18.2204 22.7244 24.6865 19.2761 18.1118 16.7018 16.1499 17.5126 12.3893 12.0857
threshold=0.28704187993256386 -0.30283180046275099 -0.4384772328069439 1.1036153930472319 0.58981343733788061 0.14657376054500998 -0.16714917862224807 -0.97113777085444342 -1.259789952003046 1.4083242292860059 -0.70378168881082115 0.068503738704251846 -0.061012913928340386 0.37346441923622808
decision_type=2 2 2 2 2 2 2 2 2 2 2 2 2 2
left_child=4 10 13 -4 5 9 -7 -6 -9 -1 12 -12 -2 -3
right_child=1 2 3 -5 7 6 -8 8 -10 -11 11 -13 -14 -15
leaf_value=-0.0063743478527406843 0.013395564579068299 -0.038653618756520694 -0.030491907600105596 0.021585382883820128 0.046014278647422371 0.00044260181340989449 0.04910459744839292 0.015719541579000663 -0.025662356020436893 0.039471471317245543 -0.00085046429740647672 0.038119128442939375 -0.045088788632321471 0.022002658479377043
leaf_weight=132.64176803827286 9.30073434114456 2.2481405138969413 34.581733912229538 12.014164805412291 3.3056329488754264 21.527763843536377 16.010640919208527 10.361201465129851 61.003901243209839 6.5391865968704215 12.403889209032057 53.379025340080261 3.7474491596221915 35.151455968618393
leaf_count=174 12 3 46 15 4 29 20 13 80 8 19 66 5 46
internal_value=0.00226332 0.0112634 -0.00150789 -0.016767 -0.00356384 0.00167103 0.0220889 -0.0158906 -0.0194372 -0.00391135 0.024795 0.0307786 -0.00498802 0.0172886
internal_weight=414.217 162.827 83.9955 46.5959 251.39 176.719 37.5384 74.6707 71.3651 139.181 78.8311 65.7829 13.0482 37.3996
internal_count=540 212 110 61 328 231 49 97 93 182 102 85 17 49
is_linear=0
shrinkage=0.03


Tree=2
num_leaves=11
num_cat=0
split_feature=2 3 21 13 9 17 13 29 17 11
split_gain=22.7901 27.8567 24.7332 16.3292 23.0283 19.3613 14.355 22.556 13.5981 8.2365
threshold=0.28704187993256386 1.9208358001162307 -1.2693840719332423 -0.31571820296368663 0.32648767790708927 -0.77333519812744156 -1.0164834275820451 1.4418750711343333 1.5988771486191071 -0.21915159607820775
decision_type=2 2 2 2 2 2 2 2 2 2
left_child=2 6 -1 4 -4 -5 9 -8 -3 -2
right_child=1 8 3 5 -6 -7 7 -9 -10 -11
leaf_value=-0.045029279766250166 -0.00011866995522624741 -0.051127782039444826 -0.01822399266861037 0.041167193765023938 0.014853888257256883 0.0018259904726950862 0.015046305737051548 -0.025402070738388106 0.011720465438325131 0.049491273474636423
leaf_weight=11.254489123821257 3.474626392126086 8.2381363511085492 78.141916036605835 11.419915795326231 23.875164330005646 126.64024075865746 120.51951348781586 12.810244083404539 3.9779072999954215 13.790071129798887
leaf_count=15 5 11 104 14 30 165 157 17 5 17
internal_value=0.00220368 0.0109216 -0.00344085 -0.00128766 -0.0103555 0.00539596 0.0145326 0.0109552 -0.0308702 0.0397186
internal_weight=414.142 162.81 251.332 240.077 102.017 138.06 150.594 133.33 12.216 17.2647
internal_count=540 212 328 313 134 179 196 174 16 22
is_linear=0
shrinkage=0.03


Tree=3
num_leaves=16
num_cat=0
split_feature=9 21 28 12 13 24 24 11 1 5 15 24 28 8 6
split_gain=21.4791 27.7258 23.0253 20.6066 19.5457 25.6768 27.8803 22.0629 30.8156 17.5538 24.4041 19.4468 15.8261 4.73177 3.28135
threshold=0.25325953209506963 -0.33962501367407477 0.69844885468212392 0.55993502215215873 -0.31571820296368663 1.396253880302653 -1.0904167755369956 -0.39752916884329642 -0.49417496484154866 0.1158268465130549 -0.17588337129245937 1.3542788224636995 1.4615225274113217 -0.68391795147045698 -1.1989312699278087
decision_type=2 2 2 2 2 2 2 2 2 2 2 2 2 2 2
left_child=4 2 3 -2 7 6 -6 13 -9 11 -11 -3 -4 -1 -7
right_child=1 9 12 -5 5 14 -8 8 -10 10 -12 -13 -14 -15 -16
leaf_value=-0.017356462657873106 0.01683228099166157 0.040183060572473804 -0.036901838907185153 -0.031457359098047116 0.031664802649955803 0.009919376332560393 -0.0072251213850368316 0.027942639085723475 -0.016266854768961388 -0.047777291553562758 0.016632435410466002 -0.024609028002987542 0.0072997820393977909 -0.043866978178371978 0.046653667942910051
leaf_weight=13.094897508621218 50.226340651512146 43.127194702625275 20.523856818675998 8.4001197218894941 18.670427650213242 3.9796417355537406 104.64518657326698 18.678155660629272 49.672012329101562 5.2423078417778006 33.491608381271362 3.8238469362258902 10.281561672687529 18.70276290178299 11.497245907783507
leaf_count=17 63 53 27 11 24 5 139 24 69 7 42 5 13 27 14
internal_value=0.00213748 0.0100986 -0.00154109 0.00940108 -0.0036899 0.00356241 -0.00108143 -0.0137359 -0.00387043 0.0221941 0.00678108 0.0343779 -0.0221949 -0.0339944 0.0387474
internal_weight=414.057 175.117 89.4319 58.6265 238.94 138.793 123.316 100.148 68.3502 85.685 38.7339 46.951 30.8054 31.7977 15.4769
internal_count=540 221 114 74 319 182 163 137 93 107 49 58 40 44 19
is_linear=0
shrinkage=0.03


Tree=4
num_leaves=16
num_cat=0
split_feature=2 7 6 5 13 14 24 19 9 18 15 27 9 28 18
split_gain=20.726 28.0779 25.4375 21.0495 16.9964 24.5458 25.3374 20.909 20.1704 15.0799 14.7479 25.1768 16.1901 11.529 10.8493
threshold=0.28704187993256386 -0.30283180046275099 1.2049798856509486 1.9927422918944562 -0.31571820296368663 -0.59333139980335303 -1.1197651011056726 0.6525171616119384 0.50982699306424284 -0.42584682685663094 -0.70378168881082115 -1.0000000180025095e-35 0.068503738704251846 -0.91561938841731771 0.36669612769922877
decision_type=2 2 2 2 2 2 2 2 2 2 2 2 2 2 2
left_child=4 10 9 -4 7 14 -7 8 -1 -3 11 -2 -12 -9 -6
right_child=1 2 3 -5 5 6 -8 13 -10 -11 12 -13 -14 -15 -16
leaf_value=-0.010434605522482664 0.0296729614094812 0.022525593354602552 -0.040089832517854911 0.028912628212778329 0.038644508764411799 0.027934678355702174 -0.0087955953350328832 0.012693240568465174 0.029336724529980238 -0.0070448396311395484 -0.0014937836566424642 -0.048315466192780224 0.035921031555171942 -0.038356813217634622 -0.0080039528484789138
leaf_weight=63.759891629219055 7.2845666408538818 31.982719212770462 19.673589169979099 4.0573707818984976 20.794102221727375 19.420278161764145 96.547794014215469 3.9125288724899283 12.921426832675932 28.199912309646606 12.401840180158613 5.7505396008491498 53.350805997848511 28.79221522808075 5.013589769601821
leaf_count=85 9 42 26 5 26 25 126 5 16 37 19 8 66 38 7
internal_value=0.00207171 0.0103888 -0.00164087 -0.0273576 -0.00331208 0.00350573 -0.00240713 -0.0121547 -0.00336419 0.00868296 0.0231363 -0.00529585 0.0288575 -0.0318762 0.0293979
internal_weight=413.863 162.701 83.9136 23.731 251.162 141.776 115.968 109.386 76.6813 60.1826 78.7878 13.0351 65.7526 32.7047 25.8077
internal_count=540 212 110 31 328 184 151 144 101 79 102 17 85 43 33
is_linear=0
shrinkage=0.03


Tree=5
num_leaves=14
num_cat=0
split_feature=8 19 13 18 2 25 0 19 13 25 16 2 18
split_gain=17.7798 22.203 24.4201 19.5599 19.6507 17.8354 21.3749 14.6473 13.22 13.1999 12.4391 10.282 7.77838
threshold=-0.23075041386573295 1.3183911430326098 -0.045122138843600355 -0.58092813918155417 -1.0448679052267711 -1.3172211487831593 -1.2714795835735047 -0.57176765970318333 -0.39657638790642702 -0.404453687237051 -0.6822080926938302 1.3383282157846643 -0.27085077045959599
decision_type=2 2 2 2 2 2 2 2 2 2 2 2 2
left_child=3 5 12 4 -1 6 -2 9 -7 -5 -9 -6 -3
right_child=1 2 -4 7 11 8 -8 10 -10 -11 -12 -13 -14
leaf_value=0.032043765413631645 0.0464574053615966 0.020779195696894678 -0.052382772441690026 0.00022331203459490881 -0.037458433477020152 0.0037877841870765203 -0.02368818673143256 -0.025273968009731595 0.01976441279908777 -0.044401702571673536 0.0083268603472344167 0.010392683576564064 -0.02510071188795349
leaf_weight=4.0438358783721915 3.6590870916843441 9.5995546579360944 10.469665586948393 11.762949883937837 30.965414941310883 83.533955276012421 23.361282557249069 10.070755332708357 109.36306837201118 10.557247936725615 91.331743359565735 3.9770615100860587 3.810307681560519
leaf_count=5 5 12 14 15 43 109 32 14 141 14 118 5 5
internal_value=0.00157107 0.0066975 -0.0201493 -0.00606751 -0.024309 0.0097178 -0.012656 -0.00012251 0.0129319 -0.0216255 0.00471699 -0.0317076 0.00648917
internal_weight=406.506 243.797 23.8795 162.709 38.9863 219.917 27.0204 123.723 192.897 22.3202 101.402 34.9425 13.4099
internal_count=532 318 31 214 53 287 37 161 250 29 132 48 17
is_linear=0
shrinkage=0.03


Tree=6
num_leaves=12
num_cat=0
split_feature=22 1 1 12 14 12 12 24 4 24 4
split_gain=27.0746 26.554 25.8905 23.7968 22.6724 17.7893 18.3749 17.0094 14.9208 14.4981 11.3388
threshold=-0.73544056353873544 -0.73413722401937076 -1.5257278823205205 0.48300100922351469 0.57745598322532465 -0.69982458827244687 -0.61893809568337621 -1.1197651011056726 0.10594809479337346 -1.3503389517074968 -0.12647220803512296
decision_type=2 2 2 2 2 2 2 2 2 2 2
left_child=5 2 10 4 -3 -1 -7 -5 -8 -4 -2
right_child=1 3 9 7 -6 6 8 -9 -10 -11 -12
leaf_value=-0.050191133312080922 0.0094905328149999663 0.0099677878699535854 -0.021080002514445067 0.023168048412266651 -0.013697741752878032 0.043556754279108711 -0.015365048947900702 -0.030232129440079816 0.034307248892103397 0.040061101065368733 -0.046062175430116079
leaf_weight=9.2720567882060987 7.1150166392326355 181.56169328093529 3.0725001692771903 5.6235598325729361 44.419422745704651 4.8013649880886069 71.968916326761246 29.225087821483612 4.8795812726020804 39.860577672719955 4.5991281270980817
leaf_count=13 9 236 4 7 58 7 94 40 6 51 7
internal_value=0.00151969 0.00569222 0.0245148 0.00164717 0.00524974 -0.0127971 -0.00792222 -0.0210416 -0.0117338 0.0351687 -0.0137557
internal_weight=406.399 315.477 54.6472 260.83 225.981 90.9219 81.6499 34.8486 76.8485 42.9331 11.7141
internal_count=532 412 71 341 294 120 107 47 100 55 16
is_linear=0
shrinkage=0.03


Tree=7
num_leaves=14
num_cat=0
split_feature=22 1 1 28 13 20 18 15 26 4 16 16 0
split_gain=25.465 24.9685 24.4577 19.9576 19.8385 18.0474 14.0278 11.6206 15.0625 10.8106 10.2579 8.12811 5.63369
threshold=-0.73544056353873544 -0.73413722401937076 -1.5257278823205205 0.38101251324251278 -1.1752142307128961 0.17040444054344109 -0.424923668887146 -0.84968793823553634 0.093954679623881751 -0.12647220803512296 -1.2805376247313622 -0.9231992768085312 0.2280143061633573
decision_type=2 2 2 2 2 2 2 2 2 2 2 2 2
left_child=6 2 9 5 -5 -3 10 -8 -9 -2 -1 -4 -12
right_child=1 3 11 4 -6 -7 7 8 -10 -11 12 -13 -14
leaf_value=0.0020797490508210727 0.0092384070615977587 1.7953289866889954e-05 -0.00045462029494069527 0.025651792056700994 -0.01537533471355575 0.020091765818712366 -0.046524270454543777 0.011630270808400806 -0.018170102219151937 -0.045026452843692451 -0.051196245523201366 0.038782989078138361 -0.012251977823068312
leaf_weight=6.1243637800216701 7.1171733736991882 108.40339738130569 5.0436954498291007 11.250681877136229 77.383455574512482 63.741647183895111 4.4916436672210684 35.290082216262817 25.316007196903229 4.5869494378566724 13.708926498889925 37.879439383745193 5.9142675995826712
leaf_count=8 9 142 7 14 101 84 6 45 33 7 19 48 9
internal_value=0.00147286 0.00551936 0.0237751 0.00159607 -0.00987258 0.00755862 -0.012418 -0.00471417 -0.000813248 -0.0134264 -0.0307669 0.0341304 -0.0409129
internal_weight=406.252 315.406 54.6273 260.779 88.6341 172.145 90.8453 65.0977 60.6061 11.7041 25.7476 42.9231 19.6232
internal_count=532 412 71 341 115 226 120 84 78 16 36 55 28
is_linear=0
shrinkage=0.03


Tree=8
num_leaves=16
num_cat=0
split_feature=22 1 1 14 27 1 4 9 13 22 4 26 16 14 21
split_gain=24.0977 23.5081 23.1366 18.8666 22.6613 19.8878 13.6756 22.9246 25.5926 17.7468 10.316 9.82425 7.68881 7.44429 4.36443
threshold=-0.73544056353873544 -0.73413722401937076 -1.5257278823205205 0.57745598322532465 -0.60579539802519033 0.21864225798651088 -0.96062861178813674 -0.60069386790243762 -0.65414174822463467 -1.6115444777476857 -0.12647220803512296 -0.12438016097020282 -0.9231992768085312 -0.73805653591772391 -1.0000000180025095e-35
decision_type=2 2 2 2 2 2 2 2 2 2 2 2 2 2 2
left_child=6 2 10 5 -5 -3 9 13 -9 14 -2 -11 -4 -8 -1
right_child=1 3 12 4 -6 -7 7 8 -10 11 -12 -13 -14 -15 -16
leaf_value=-0.0033216425053490123 0.0089933803116844409 0.017386609010675486 -0.00044323698802183146 0.01332395075615017 -0.025509677215751654 -0.0017384981753376309 -0.0044700054327664242 -0.048327808956729584 0.0086344630674215009 0.050512359380407816 -0.044049691209519619 0.0054066761476200932 0.0376905143061914 -0.053252231572073212 -0.046624282275480086
leaf_weight=3.8830506205558777 7.1189670562744141 80.891131997108459 5.0437204837799063 19.000331521034241 40.849898219108582 119.99162709712982 3.8873960375785854 8.4845665097236616 27.046013712882996 4.7952725291252163 4.5704168677329999 20.275377154350281 37.837626934051514 17.161488234996796 5.2273078560829145
leaf_count=5 9 106 7 24 54 157 5 12 36 6 7 26 48 23 7
internal_value=0.00142275 0.00535923 0.0230836 0.00155262 -0.0130664 0.00598102 -0.0120966 -0.0210351 -0.00575425 0.00270596 -0.01311 0.0158708 0.0331606 -0.0451264 -0.0309152
internal_weight=406.064 315.304 54.5707 260.733 59.8502 200.883 90.7605 56.5795 35.5306 34.181 11.6894 25.0706 42.8813 21.0489 9.11036
internal_count=532 412 71 341 78 263 120 76 48 44 16 32 55 28 12
is_linear=0
shrinkage=0.03


Tree=9
num_leaves=12
num_cat=0
split_feature=22 1 12 28 1 24 12 12 24 4 4
split_gain=22.783 22.1586 22.0083 26.1382 21.9015 16.4817 16.1232 16.9753 13.7896 13.6921 9.85226
threshold=-0.73544056353873544 -0.73413722401937076 0.48300100922351469 0.81446769424505716 -1.5257278823205205 -1.1197651011056726 -0.69982458827244687 -0.61893809568337621 -1.3503389517074968 0.10594809479337346 -0.12647220803512296
decision_type=2 2 2 2 2 2 2 2 2 2 2
left_child=6 4 3 -3 10 -4 -1 -8 -6 -9 -2
right_child=1 2 5 -5 8 -7 7 9 -10 -11 -12
leaf_value=-0.047573271672077956 0.0087552142925316559 0.0097915416611610798 0.023149932843180794 -0.016425430246800821 -0.022377846281352778 -0.029398595412239006 0.042307069729963835 -0.014325432596776193 0.03704089393583427 0.033249394252184018 -0.043126787771400207
leaf_weight=9.167111933231352 7.120422899723053 185.02771770954132 5.6232985258102408 40.866097748279572 3.0641962289810172 29.174000412225723 4.8011479377746573 71.800584048032761 39.749515980482101 4.8779050707817069 4.5498794913291913
leaf_count=13 9 241 7 53 4 40 7 94 51 6 7
internal_value=0.001373 0.00520055 0.00150592 0.00497074 0.0224244 -0.0203296 -0.0117813 -0.00715369 0.0322376 -0.0108326 -0.0128057
internal_weight=405.822 315.175 260.691 225.894 54.484 34.7973 90.6467 81.4796 42.8137 76.6785 11.6703
internal_count=532 412 341 294 71 47 120 107 55 100 16
is_linear=0
shrinkage=0.03


Tree=10
num_leaves=15
num_cat=0
split_feature=2 7 18 21 13 15 28 7 5 6 8 15 2 29
split_gain=18.324 23.4127 25.0313 17.2092 16.9755 14.8639 14.2832 16.7043 13.9856 22.7184 12.6719 8.94993 8.9004 2.94874
threshold=0.014049947358617669 -0.30283180046275099 -0.51992070746385843 1.2501499805981406 0.27815757617152376 -0.71226419050244838 -0.67589676327986925 -0.73222206119807409 1.9927422918944562 1.2049798856509486 -2.3992760725638518 -0.89640732908231613 0.30688212935377773 -1.1690301755027619
decision_type=2 2 2 2 2 2 2 2 2 2 2 2 2 2
left_child=5 2 3 -2 -4 11 7 -7 9 -3 -8 -1 -10 -13
right_child=1 8 4 -5 -6 6 10 -9 12 -11 -12 13 -14 -15
leaf_value=0.0033603780047781829 -0.011532543459663053 0.0026788428175465772 0.040629065692001406 0.046936464243800512 0.0098896601802240646 -0.0069752727796718924 0.028010152856714036 0.051259992248228949 -0.0042110735812880612 -0.030053444761541624 -0.00701597702992295 -0.01173847287291617 0.049765447971638593 -0.051262149676838321
leaf_weight=4.7018406987190273 29.920613795518875 76.527832686901093 40.222501397132874 4.2976458072662345 28.956704348325729 7.8030963540077236 8.8477209806442243 8.2529870867729169 3.8843498826026899 24.257084906101227 156.32360973954201 3.4103208482265481 6.2534670233726501 9.3919795155525172
leaf_count=6 41 101 51 6 37 10 11 10 5 32 204 5 8 13
internal_value=0.00162254 0.00770099 0.0179042 -0.00289454 0.0281721 -0.00490841 -0.00224466 0.0238568 -0.00183139 -0.00535814 -0.00494636 -0.0305513 0.0300242 -0.0427817
internal_weight=413.052 214.32 103.397 34.2183 69.1792 198.732 181.227 16.0561 110.923 100.785 165.171 17.5041 10.1378 12.8023
internal_count=540 281 135 47 88 259 235 20 146 133 215 24 13 18
is_linear=0
shrinkage=0.03


Tree=11
num_leaves=12
num_cat=0
split_feature=20 21 2 28 15 14 15 21 15 29 0
split_gain=22.111 29.9472 24.1459 24.0618 21.6379 19.8351 22.5911 14.8934 11.2071 3.87714 1.05713
threshold=-0.67819016259556775 1.3117044381075187 0.014049947358617669 0.17712189952389099 -0.74006795701297112 -0.95858327950624289 1.0000000180025095e-35 0.75068321682521877 0.6753741476366828 1.0234710862978071 0.47344420666231685
decision_type=2 2 2 2 2 2 2 2 2 2 2
left_child=4 2 7 -4 -1 10 -7 -2 9 -3 -6
right_child=1 8 3 -5 5 6 -8 -9 -10 -11 -12
leaf_value=-0.050601916674904088 -0.0029632859613923975 0.05557735171448782 0.02183143847245652 -0.0031059331582640203 0.0147271777705556 -0.023624647177482548 0.004217907271975508 -0.039399093162710945 -0.0048762520897448446 0.013968665685917644 0.047332389946708658
leaf_weight=9.4147753715515119 117.91685432195663 14.35049849748612 84.409283757209778 57.7784044444561 3.3604265749454481 48.34288227558136 54.823962718248367 10.13356229662895 3.897340476512908 3.7423242926597586 4.6513383984565735
leaf_count=13 154 18 111 75 5 63 71 14 5 5 6
internal_value=0.00158272 0.00605164 0.00321861 0.0117052 -0.00915796 -0.00517514 -0.00887276 -0.00617617 0.0389516 0.0484676 0.0374741
internal_weight=412.822 292.228 270.238 142.188 120.593 111.179 103.167 128.05 21.9902 18.0928 8.01176
internal_count=540 382 354 186 158 145 134 168 28 23 11
is_linear=0
shrinkage=0.03


Tree=12
num_leaves=13
num_cat=0
split_feature=20 2 9 25 27 15 14 25 3 13 8 0
split_gain=20.8213 21.2869 25.1364 21.5474 21.1385 20.6006 18.8694 27.2184 18.737 12.6493 11.7667 0.994735
threshold=-0.67819016259556775 -0.21842192030101412 1.7426893076452981 0.098460732906342441 0.4003107743607538 -0.74006795701297112 -0.95858327950624289 -0.81755081035579302 1.0400351921848596 -0.16640936475393289 1.5063022695681927 0.47344420666231685
decision_type=2 2 2 2 2 2 2 2 2 2 2 2
left_child=5 3 4 8 -3 -1 11 -8 -2 -5 -4 -7
right_child=1 2 10 9 -6 6 7 -9 -10 -11 -12 -13
leaf_value=-0.049400884075150954 -0.022931592816199213 0.0090266085605618974 -0.048405043070195719 -0.0012348240186950705 0.033543523641645687 0.014387952486132657 -0.035016837994832829 0.00021716778287500399 0.028007555476119238 0.027427055963681505 0.0045430963408175382 0.04622525744141491
leaf_weight=9.3791856169700605 51.741766273975372 117.40897914767265 7.4200346469879133 39.237162917852402 43.569962292909622 3.36004790663719 25.27478364109993 77.869473546743393 6.4517598748207083 20.055780112743378 6.221756637096405 4.6439111232757568
leaf_count=13 69 154 10 52 56 5 34 100 8 25 8 6
internal_value=0.00153787 0.00587555 0.0124991 -0.00394083 0.0158654 -0.00888729 -0.00500506 -0.0086124 -0.016805 0.00865462 -0.0251856 0.0366087
internal_weight=412.635 292.107 174.621 117.486 160.979 120.527 111.148 103.144 58.1935 59.2929 13.6418 8.00396
internal_count=540 382 228 154 210 158 145 134 77 77 18 11
is_linear=0
shrinkage=0.03


Tree=13
num_leaves=13
num_cat=0
split_feature=20 21 2 7 25 7 10 13 27 24 18 25
split_gain=19.6252 28.0067 21.7064 24.6401 23.4493 15.2338 13.9741 15.5639 17.456 12.5093 4.38231 0.147023
threshold=-0.67819016259556775 1.3117044381075187 0.014049947358617669 0.059570484315119202 -1.2408986248460947 0.77526602463356997 -0.8537760139874595 -0.98802981326562878 -0.98076595298024449 1.1506515766114918 -1.1201321927275123 -0.086569819878875034
decision_type=2 2 2 2 2 2 2 2 2 2 2 2
left_child=6 2 4 -4 -2 -3 9 10 -9 11 -8 -1
right_child=1 5 3 -5 -6 -7 7 8 -10 -11 -12 -13
leaf_value=-0.023457810016247822 -0.038691010691761105 0.051225447935430865 0.020844391382196834 -0.0046219604466622953 -0.00088140411943351496 -0.0044752272415729492 0 0.023339219266747556 -0.013181189324983168 0.0029303675728540556 0.044151125159105853 -0.051891587254367717
leaf_weight=3.7876781821250942 16.081494092941284 16.507963508367542 87.262085407972336 54.774410784244537 111.89043790102005 5.4522879719734183 3.1359965205192566 12.790884494781492 78.611780047416687 6.2765181660652152 6.1129593849182111 9.684554457664488
leaf_count=5 22 21 115 71 146 7 4 16 104 8 8 13
internal_value=0.00149383 0.00570559 0.00296515 0.011018 -0.0059424 0.0375422 -0.00863304 -0.00390186 -0.00780832 -0.0311066 0.0311133 -0.0464854
internal_weight=412.369 291.969 270.008 142.036 127.972 21.9603 120.4 100.652 91.4027 19.7488 9.24896 13.4722
internal_count=540 382 354 186 168 28 158 132 120 26 12 18
is_linear=0
shrinkage=0.03


Tree=14
num_leaves=12
num_cat=0
split_feature=20 15 2 20 28 10 0 27 8 5 20
split_gain=18.4851 19.5711 19.0544 20.6208 23.8872 18.667 16.5825 11.807 9.29808 14.3317 7.98656
threshold=-0.67819016259556775 -0.74006795701297112 -0.21842192030101412 1.8255603610684477 0.17712189952389099 -0.8537760139874595 1.3676925813526715 -0.60783541509926187 1.6771507678046058 -0.49657529283092855 2.3580621046346231
decision_type=2 2 2 2 2 2 2 2 2 2 2
left_child=1 -1 8 4 -4 7 -7 -3 9 -2 -5
right_child=2 5 3 10 -6 6 -8 -9 -10 -11 -12
leaf_value=-0.047987258505290044 -0.027916329743011638 0.0027471336729887053 0.024439954708422456 -0.037282922482177697 0.00094149898618550297 0.0059508373157178976 -0.032489131188897895 -0.045279470300884465 0.03300247679784224 -0.00048798764765060275 0.0099188309422945306
leaf_weight=9.3191043138504011 20.202139794826508 6.2692006826400783 94.433464199304581 9.1872601211070997 66.826446652412415 80.771006494760513 10.512226581573485 13.448577105998991 4.8632221817970267 92.315650761127472 3.9487380385398856
leaf_count=13 28 8 124 13 86 105 14 18 6 120 5
internal_value=0.0014494 -0.0083816 0.00553869 0.0118106 0.0148049 -0.00460416 0.00115496 -0.0303244 -0.00374994 -0.00566804 -0.0229715
internal_weight=412.097 120.32 291.777 174.396 161.26 111.001 91.2832 19.7178 117.381 112.518 13.136
internal_count=540 158 382 228 210 145 119 26 154 148 18
is_linear=0
shrinkage=0.03


end of trees

feature_importances:
rsi_slope=12
volume_trend=12
hour_sin=12
rsi_7=11
volatility_20bar=11
bb_width=9
upper_wick_ratio=9
momentum_3bar=8
atr_ratio=8
high_low_range=8
rsi_14=7
macd_hist_delta=7
volume_ratio=7
volatility_5bar=7
lower_wick_ratio=7
consec_direction=6
hour_cos=6
macd_signal=5
momentum_1bar=5
candle_body_ratio=5
returns_skew_10=5
momentum_10bar=4
vol_ratio=4
macd_hist=3
bb_position=3
close_position_in_range=3
momentum_5bar=2
atr_14=2
returns_std_10=2

parameters:
[boosting: gbdt]
[objective: binary]
[metric: binary_logloss]
[tree_learner: serial]
[device_type: cpu]
[data_sample_strategy: bagging]
[data: ]
[valid: ]
[num_iterations: 500]
[learning_rate: 0.03]
[num_leaves: 31]
[num_threads: 0]
[seed: 0]
[deterministic: 0]
[force_col_wise: 0]
[force_row_wise: 0]
[histogram_pool_size: -1]
[max_depth: 4]
[min_data_in_leaf: 5]
[min_sum_hessian_in_leaf: 0.001]
[bagging_fraction: 0.75]
[pos_bagging_fraction: 1]
[neg_bagging_fraction: 1]
[bagging_freq: 5]
[bagging_seed: 3]
[bagging_by_query: 0]
[feature_fraction: 0.75]
[feature_fraction_bynode: 1]
[feature_fraction_seed: 2]
[extra_trees: 0]
[extra_seed: 6]
[early_stopping_round: 0]
[early_stopping_min_delta: 0]
[first_metric_only: 0]
[max_delta_step: 0]
[lambda_l1: 0.2]
[lambda_l2: 1]
[linear_lambda: 0]
[min_gain_to_split: 0.01]
[drop_rate: 0.1]
[max_drop: 50]
[skip_drop: 0.5]
[xgboost_dart_mode: 0]
[uniform_drop: 0]
[drop_seed: 4]
[top_rate: 0.2]
[other_rate: 0.1]
[min_data_per_group: 100]
[max_cat_threshold: 32]
[cat_l2: 10]
[cat_smooth: 10]
[max_cat_to_onehot: 4]
[top_k: 20]
[monotone_constraints: ]
[monotone_constraints_method: basic]
[monotone_penalty: 0]
[feature_contri: ]
[forcedsplits_filename: ]
[refit_decay_rate: 0.9]
[cegb_tradeoff: 1]
[cegb_penalty_split: 0]
[cegb_penalty_feature_lazy: ]
[cegb_penalty_feature_coupled: ]
[path_smooth: 0]
[interaction_constraints: ]
[verbosity: -1]
[saved_feature_importance_type: 0]
[use_quantized_grad: 0]
[num_grad_quant_bins: 4]
[quant_train_renew_leaf: 0]
[stochastic_rounding: 1]
[linear_tree: 0]
[max_bin: 255]
[max_bin_by_feature: ]
[min_data_in_bin: 3]
[bin_construct_sample_cnt: 200000]
[data_random_seed: 1]
[is_enable_sparse: 1]
[enable_bundle: 1]
[use_missing: 1]
[zero_as_missing: 0]
[feature_pre_filter: 1]
[pre_partition: 0]
[two_round: 0]
[header: 0]
[label_column: ]
[weight_column: ]
[group_column: ]
[ignore_column: ]
[categorical_feature: ]
[forcedbins_filename: ]
[precise_float_parser: 0]
[parser_config_file: ]
[objective_seed: 5]
[num_class: 1]
[is_unbalance: 0]
[scale_pos_weight: 1.1028]
[sigmoid: 1]
[boost_from_average: 1]
[reg_sqrt: 0]
[alpha: 0.9]
[fair_c: 1]
[poisson_max_delta_step: 0.7]
[tweedie_variance_power: 1.5]
[lambdarank_truncation_level: 30]
[lambdarank_norm: 1]
[label_gain: ]
[lambdarank_position_bias_regularization: 0]
[eval_at: ]
[multi_error_top_k: 1]
[auc_mu_weights: ]
[num_machines: 1]
[local_listen_port: 12400]
[time_out: 120]
[machine_list_filename: ]
[machines: ]
[gpu_platform_id: -1]
[gpu_device_id: -1]
[gpu_use_dp: 0]
[num_gpu: 1]

end of parameters

pandas_categorical:null
