tree
version=v4
num_class=1
num_tree_per_iteration=1
label_index=0
max_feature_idx=29
objective=binary sigmoid:1
feature_names=rsi_14 rsi_7 rsi_slope macd_hist macd_hist_delta macd_signal bb_position bb_width momentum_1bar momentum_3bar momentum_5bar momentum_10bar volume_ratio volume_trend volatility_5bar volatility_20bar vol_ratio atr_14 atr_ratio candle_body_ratio upper_wick_ratio lower_wick_ratio consec_direction close_vs_open hour_sin hour_cos returns_std_10 returns_skew_10 high_low_range close_position_in_range
feature_infos=[-2.385742791048147:2.4509555457827701] [-2.3777144383783009:2.2123763759914796] [-3.4990834932166082:3.5984850640839747] [-4.3993579201516475:3.6664020527059238] [-6.6006028026047971:3.5280655191947683] [-2.860164998936543:3.1519359178842046] [-3.0520909852188907:2.6532725795798395] [-1.1207918818935281:3.8318100654897358] [-6.528851072927595:4.9600059159684626] [-5.2232556294509047:4.0738945850888895] [-4.9418049563728284:4.0917870907193414] [-4.5173686004160203:4.8215687790242781] [-0.9018791084355664:9.6233736747694678] [-1.754432362816182:4.243299692814241] [-1.4704286114141341:4.7682578125547765] [-1.4903144482623536:2.9009108306037463] [-2.1291043994213443:2.8339896365487429] [-1.5116722096786332:3.9893816578041346] [-2.5416502934879608:3.826293502343217] [-1.7981940059980801:1.6989736757126221] [-1.047864146602689:3.1309295750348847] [-0.98814531241235115:3.1552961292379016] [-3.2399664311586238:5.1139300661296074] [-1.1048995066104503:0.90505968553441973] [-1.3295198611860646:1.5772117666187164] [-1.2712671571668879:1.5265860263329993] [-1.4535309587045673:3.2070862718068183] [-3.1904350924043561:3.1345575387777314] [-1.285470183740566:4.0286579638224636] [-1.8198557606457284:1.5771510273147036]
tree_sizes=1393

Tree=0
num_leaves=12
num_cat=0
split_feature=1 14 4 8 9 0 5 29 26 8 7
split_gain=27.7432 26.6762 26.5356 32.6508 21.2921 15.0164 13.9911 10.659 9.55721 9.30711 6.38417
threshold=-1.3931566891068379 1.6011437726135351 -1.3223886494857753 -0.45503730983058782 2.9499919980831293 0.024466296202921223 0.78526844867584422 -0.70798638012219051 3.0352522833641267 -0.16740964868211083 -0.66429074573712954
decision_type=2 2 2 2 2 2 2 2 2 2 2
left_child=6 2 5 -4 8 -2 7 9 -3 -1 -9
right_child=1 4 3 -5 -6 -7 -8 10 -10 -11 -12
leaf_value=-0.058309039252820008 0.01692027030422482 0.002026902706493118 -0.057337246824631455 -0.035711036883993685 -0.069394903596091295 -0.031475659784334295 -0.017132529827994191 -0.056695182012067136 -0.035205819823398321 -0.092756493532868203 -0.0076561125964086617
leaf_weight=20.460395812988281 10.941817760467531 29.703485727310181 74.689170449972153 368.23800045251846 4.4946337938308707 12.460922837257383 5.2296053767204276 4.2477095425128937 8.4747058749198896 12.677639394998549 3.3414776325225821
leaf_count=26 12 36 102 485 6 14 7 5 8 18 5
internal_value=-0.0376403 -0.0356001 -0.0377151 -0.0393782 -0.0131743 -0.00725316 -0.0596925 -0.0656856 -0.00578628 -0.0728627 -0.0347091
internal_weight=554.96 509.003 466.33 442.927 42.6728 23.4027 45.9568 40.7272 38.1782 33.138 7.58919
internal_count=724 663 613 587 50 26 61 54 44 44 10
is_linear=0
shrinkage=1


end of trees

feature_importances:
momentum_1bar=2
rsi_14=1
rsi_7=1
macd_hist_delta=1
macd_signal=1
bb_width=1
momentum_3bar=1
volatility_5bar=1
returns_std_10=1
close_position_in_range=1

parameters:
[boosting: gbdt]
[objective: binary]
[metric: binary_logloss]
[tree_learner: serial]
[device_type: cpu]
[data_sample_strategy: bagging]
[data: ]
[valid: ]
[num_iterations: 500]
[learning_rate: 0.03]
[num_leaves: 31]
[num_threads: 0]
[seed: 0]
[deterministic: 0]
[force_col_wise: 0]
[force_row_wise: 0]
[histogram_pool_size: -1]
[max_depth: 4]
[min_data_in_leaf: 5]
[min_sum_hessian_in_leaf: 0.001]
[bagging_fraction: 0.75]
[pos_bagging_fraction: 1]
[neg_bagging_fraction: 1]
[bagging_freq: 5]
[bagging_seed: 3]
[bagging_by_query: 0]
[feature_fraction: 0.75]
[feature_fraction_bynode: 1]
[feature_fraction_seed: 2]
[extra_trees: 0]
[extra_seed: 6]
[early_stopping_round: 0]
[early_stopping_min_delta: 0]
[first_metric_only: 0]
[max_delta_step: 0]
[lambda_l1: 0.2]
[lambda_l2: 1]
[linear_lambda: 0]
[min_gain_to_split: 0.01]
[drop_rate: 0.1]
[max_drop: 50]
[skip_drop: 0.5]
[xgboost_dart_mode: 0]
[uniform_drop: 0]
[drop_seed: 4]
[top_rate: 0.2]
[other_rate: 0.1]
[min_data_per_group: 100]
[max_cat_threshold: 32]
[cat_l2: 10]
[cat_smooth: 10]
[max_cat_to_onehot: 4]
[top_k: 20]
[monotone_constraints: ]
[monotone_constraints_method: basic]
[monotone_penalty: 0]
[feature_contri: ]
[forcedsplits_filename: ]
[refit_decay_rate: 0.9]
[cegb_tradeoff: 1]
[cegb_penalty_split: 0]
[cegb_penalty_feature_lazy: ]
[cegb_penalty_feature_coupled: ]
[path_smooth: 0]
[interaction_constraints: ]
[verbosity: -1]
[saved_feature_importance_type: 0]
[use_quantized_grad: 0]
[num_grad_quant_bins: 4]
[quant_train_renew_leaf: 0]
[stochastic_rounding: 1]
[linear_tree: 0]
[max_bin: 255]
[max_bin_by_feature: ]
[min_data_in_bin: 3]
[bin_construct_sample_cnt: 200000]
[data_random_seed: 1]
[is_enable_sparse: 1]
[enable_bundle: 1]
[use_missing: 1]
[zero_as_missing: 0]
[feature_pre_filter: 1]
[pre_partition: 0]
[two_round: 0]
[header: 0]
[label_column: ]
[weight_column: ]
[group_column: ]
[ignore_column: ]
[categorical_feature: ]
[forcedbins_filename: ]
[precise_float_parser: 0]
[parser_config_file: ]
[objective_seed: 5]
[num_class: 1]
[is_unbalance: 0]
[scale_pos_weight: 0.995082]
[sigmoid: 1]
[boost_from_average: 1]
[reg_sqrt: 0]
[alpha: 0.9]
[fair_c: 1]
[poisson_max_delta_step: 0.7]
[tweedie_variance_power: 1.5]
[lambdarank_truncation_level: 30]
[lambdarank_norm: 1]
[label_gain: ]
[lambdarank_position_bias_regularization: 0]
[eval_at: ]
[multi_error_top_k: 1]
[auc_mu_weights: ]
[num_machines: 1]
[local_listen_port: 12400]
[time_out: 120]
[machine_list_filename: ]
[machines: ]
[gpu_platform_id: -1]
[gpu_device_id: -1]
[gpu_use_dp: 0]
[num_gpu: 1]

end of parameters

pandas_categorical:null
