tree
version=v4
num_class=1
num_tree_per_iteration=1
label_index=0
max_feature_idx=29
objective=binary sigmoid:1
feature_names=rsi_14 rsi_7 rsi_slope macd_hist macd_hist_delta macd_signal bb_position bb_width momentum_1bar momentum_3bar momentum_5bar momentum_10bar volume_ratio volume_trend volatility_5bar volatility_20bar vol_ratio atr_14 atr_ratio candle_body_ratio upper_wick_ratio lower_wick_ratio consec_direction close_vs_open hour_sin hour_cos returns_std_10 returns_skew_10 high_low_range close_position_in_range
feature_infos=[-2.4108771689347708:2.3994642661273473] [-2.353011587186209:2.2173512105088102] [-3.5015347257297491:3.5995853284214623] [-3.102927527107592:3.6656815141693428] [-4.2492980475683888:3.2417780754591599] [-2.9167975672637714:3.1842018218521746] [-3.0772121801181198:2.6593630075211578] [-1.1219382501504507:3.8879193111464394] [-4.3847383475061017:4.6615262526883754] [-4.6929724187080106:4.0939131865631273] [-3.8971348094042257:4.1184198698861847] [-3.5193029369025983:4.8579424437460181] [-0.81675159401047825:9.6909943975032196] [-1.7549379202148419:4.2383123272581447] [-1.4701154249246555:4.2057911247134561] [-1.4959156552653925:2.9436706591302135] [-2.1409987863220543:2.835418092347763] [-1.5086265626081041:4.0153327755253727] [-2.5471824294469756:3.8274774727840555] [-1.7858475777738838:1.6970263251519686] [-1.0443724397161285:3.1347173940782986] [-0.98869288423807389:3.1476099080460984] [-2.7954069414870828:2.9137980915798529] [-1.1034266057255639:0.90626779779562083] [-1.3405351500374236:1.5635349632726954] [-1.2727091929176781:1.5229185715917923] [-1.4703578065510481:3.2950193307777695] [-2.5068169022894904:3.1815964335623095] [-1.2824423535530589:4.0648545968915055] [-1.8296438323595179:1.5723969885395328]
tree_sizes=865 882 874 884 873 887 994 889 987 886 777 780 781 860 676 981 982 774 977 777 882 873 966 778 979 881 876 882 870 883 892 883

Tree=0
num_leaves=7
num_cat=0
split_feature=0 22 22 4 17 14
split_gain=12.1781 6.22035 8.93636 4.27332 2.06412 1.20454
threshold=-1.0265785285173863 -1.2583132787382925 0.49836519297461079 -1.4242563364516754 -0.72784416246862393 0.63890321503459957
decision_type=2 2 2 2 2 2
left_child=3 4 -3 -1 -2 -5
right_child=1 2 -4 5 -6 -7
leaf_value=-0.73687311179592152 -0.74402684985917911 -0.73183969711109997 -0.75281899841195499 -0.78602342801099312 -0.77766465011675845 -0.75684163679028349
leaf_weight=1.9633633196353901 1.7452118396759031 51.483749270439148 27.050783514976501 7.6353017985820753 4.5811810791492453 3.0541207194328308
leaf_count=9 8 236 124 35 21 14
internal_value=-0.745773 -0.741555 -0.73913 -0.772243 -0.768284 -0.779494
internal_weight=97.5137 84.8609 78.5345 12.6528 6.32639 10.6894
internal_count=447 389 360 58 29 49
is_linear=0
shrinkage=1


Tree=1
num_leaves=7
num_cat=0
split_feature=0 22 22 4 17 14
split_gain=11.5839 5.90092 8.37285 4.1295 1.99731 1.16609
threshold=-1.0265785285173863 -1.2583132787382925 0.49836519297461079 -1.4242563364516754 -0.72784416246862393 0.63890321503459957
decision_type=2 2 2 2 2 2
left_child=3 4 -3 -1 -2 -5
right_child=1 2 -4 5 -6 -7
leaf_value=0.0096036017809721218 0.0026268168712379738 0.014355916847944654 -0.0059432008389446785 -0.038753215632522889 -0.030458109804579796 -0.009919152733644571
leaf_weight=1.9702276289463032 1.7468816041946409 51.755240023136139 26.991652011871338 7.5263879448175413 4.5299024730920783 3.0430290102958679
leaf_count=9 8 236 124 35 21 14
internal_value=0.000889244 0.00498299 0.00733287 -0.0250524 -0.0211464 -0.0322615
internal_weight=97.5633 85.0237 78.7469 12.5396 6.27678 10.5694
internal_count=447 389 360 58 29 49
is_linear=0
shrinkage=0.03


Tree=2
num_leaves=7
num_cat=0
split_feature=0 16 16 4 17 24
split_gain=11.0221 5.80419 8.46005 3.99203 0.775485 0.197763
threshold=-1.0265785285173863 1.8235303749932508 1.107972736379319 -1.4242563364516754 1.0291854680588222 0.37921052075673162
decision_type=2 2 2 2 2 2
left_child=3 2 -2 -1 -5 -3
right_child=1 5 -4 4 -6 -7
leaf_value=0.0093758638882487626 0.0065256640296417825 0.014015380922449897 -0.022589690176556668 -0.035767654374708004 -0.0065209848995038799 0.049215579594361132
leaf_weight=1.9768710583448399 72.263351246714592 1.7568037509918206 9.3974732905626279 8.5221000015735608 1.9256961792707432 1.7568037509918211
leaf_count=9 330 8 43 40 9 8
internal_value=0.000842792 0.00481653 0.00291568 -0.024588 -0.0317577 0.0388698
internal_weight=97.5991 85.1744 81.6608 12.4247 10.4478 3.51361
internal_count=447 389 373 58 49 16
is_linear=0
shrinkage=0.03


Tree=3
num_leaves=7
num_cat=0
split_feature=6 21 27 8 2 15
split_gain=8.3924 5.39023 5.1269 4.92423 6.0098 2.27059
threshold=-0.90415758995210371 1.7969661664458985 -0.011367309916097381 -1.7093737246644516 -0.047588383668503799 -0.23948873399245632
decision_type=2 2 2 2 2 2
left_child=3 2 -2 -1 -5 -3
right_child=1 5 -4 4 -6 -7
leaf_value=0.016262756467896967 0.016785063622602854 -0.027320286371380821 0.00047987699091893887 -0.033324711638090712 0.0068680430759669089 0.0022700243473970736
leaf_weight=2.6435874104499844 31.549011513590813 5.2225073575973511 39.253120332956314 11.984901592135429 3.9013837575912449 3.0551656484603864
leaf_count=12 144 24 179 56 18 14
internal_value=0.000819572 0.00516295 0.00793553 -0.0168528 -0.0232385 -0.0165004
internal_weight=97.6097 79.0798 70.8021 18.5299 15.8863 8.27767
internal_count=447 361 323 86 74 38
is_linear=0
shrinkage=0.03


Tree=4
num_leaves=7
num_cat=0
split_feature=0 16 16 4 14 24
split_gain=10.1523 5.55055 7.99552 3.80063 1.18155 0.157667
threshold=-1.0265785285173863 1.8235303749932508 1.107972736379319 -1.4242563364516754 0.63890321503459957 0.37921052075673162
decision_type=2 2 2 2 2 2
left_child=3 2 -2 -1 -5 -3
right_child=1 5 -4 4 -6 -7
leaf_value=0.0091589392330016714 0.0062041102700462515 0.01368182208178893 -0.022179700970641505 -0.037524561718416415 -0.0088225434169467813 0.047559827019466899
leaf_weight=1.9829463064670552 72.514524906873703 1.7651377767324441 9.3279635161161405 7.2607918977737409 2.9839102774858475 1.7877901494503019
leaf_count=9 330 8 43 35 14 8
internal_value=0.000792642 0.0045755 0.00271309 -0.0238241 -0.0309525 0.037715
internal_weight=97.6231 85.3954 81.8425 12.2276 10.2447 3.55293
internal_count=447 389 373 58 49 16
is_linear=0
shrinkage=0.03


Tree=5
num_leaves=7
num_cat=0
split_feature=11 19 25 2 7 12
split_gain=8.8054 7.11409 6.50022 6.09415 5.84075 4.91969
threshold=-0.37748876825060346 0.12368536628385156 0.4868855435732749 -0.83119909439578099 0.47933237296197512 -0.62122752956116323
decision_type=2 2 2 2 2 2
left_child=2 5 4 -3 -1 -2
right_child=1 3 -4 -5 -6 -7
leaf_value=0.010744455517262762 -0.030740704037415044 -0.014136749019036072 -0.034028925381182899 0.020869832828061003 -0.026498984862333347 0.00016759806787055767
leaf_weight=9.5635114461183566 4.3941682428121558 4.5668118596076992 9.8159064501523954 26.212209343910217 5.1272714436054221 39.591687962412834
leaf_count=44 20 21 46 119 24 181
internal_value=-0.000719446 0.00435345 -0.0160813 0.0152592 -0.00256387 -0.00328012
internal_weight=99.2716 74.7649 24.5067 30.779 14.6908 43.9859
internal_count=455 341 114 140 68 201
is_linear=0
shrinkage=0.03


Tree=6
num_leaves=8
num_cat=0
split_feature=11 12 22 29 10 6 24
split_gain=8.35577 6.93919 7.56532 4.11801 3.83416 7.66501 1.54394
threshold=-0.37748876825060346 -0.41384201330678055 0.49836519297461079 -0.17587265274402339 -0.39569927999861948 -0.97206835498799127 -1.2359068776871067
decision_type=2 2 2 2 2 2 2
left_child=4 3 -3 -2 5 -1 -6
right_child=1 2 -4 -5 6 -7 -8
leaf_value=-0.017223485477787508 0.012779380848639754 0.016975435860042021 -0.0057413389068951487 -0.019294303728997417 -0.00076890743208945568 0.032585539687345712 -0.031576789840415752
leaf_weight=8.8648799955844861 3.921173661947253 38.113236486911774 18.975428640842438 13.872916027903555 2.2027341425418845 3.0819743275642422 10.213355898857115
leaf_count=42 18 173 87 63 10 14 48
internal_value=-0.000717475 0.00420521 0.00934607 -0.011658 -0.0157391 -0.00266471 -0.0269426
internal_weight=99.2457 74.8828 57.0887 17.7941 24.3629 11.9469 12.4161
internal_count=455 341 260 81 114 56 58
is_linear=0
shrinkage=0.03


Tree=7
num_leaves=7
num_cat=0
split_feature=11 16 17 10 6 0
split_gain=7.92013 6.84778 6.82934 3.71785 8.20799 0.963955
threshold=-0.37748876825060346 -1.3805281695848695 -0.67134438367598082 -0.35084199513519343 -0.97206835498799127 -0.66467705241604702
decision_type=2 2 2 2 2 2
left_child=3 -2 -3 4 -1 -5
right_child=1 2 -4 5 -6 -7
leaf_value=-0.01836449336565053 -0.029907696407293287 0.02030494401016875 0.00013631099423688618 -0.036608312555234161 0.030705506478518833 -0.013305539708521316
leaf_weight=9.4161337018012983 4.1533261090517035 21.354508832097054 49.480748608708382 5.8165188282728195 3.5569591969251659 5.4220934957265836
leaf_count=45 19 97 225 28 16 25
internal_value=-0.000702819 0.00407129 0.00645911 -0.0153864 -0.00347282 -0.0274955
internal_weight=99.2003 74.9886 70.8353 24.2117 12.9731 11.2386
internal_count=455 341 322 114 61 53
is_linear=0
shrinkage=0.03


Tree=8
num_leaves=8
num_cat=0
split_feature=11 19 25 19 7 4 22
split_gain=7.52164 6.50867 6.20999 6.00653 5.4453 4.22742 0.926266
threshold=-0.37748876825060346 0.12368536628385156 0.4868855435732749 0.2522396195290848 0.47933237296197512 -0.34731671594433028 -1.2583132787382925
decision_type=2 2 2 2 2 2 2
left_child=2 5 4 -3 -1 -2 -4
right_child=1 3 6 -5 -6 -7 -8
leaf_value=0.010863691167374885 -0.020171987831083614 0.048456429131278025 -0.0071051451564882514 0.0087173882697766866 -0.025383957935010585 0.001500836508860882 -0.037845945648013767
leaf_weight=9.5416248738765734 9.6060344576835615 3.3594199866056469 2.0431036800146103 27.70698980987072 4.9953231662511817 34.421477571129799 7.483692601323126
leaf_count=44 44 15 10 125 24 157 36
internal_value=-0.000694859 0.00393982 -0.0150607 0.0143115 -0.00187521 -0.00336955 -0.0328955
internal_weight=99.1577 75.0939 24.0637 31.0664 14.5369 44.0275 9.5268
internal_count=455 341 114 140 68 201 46
is_linear=0
shrinkage=0.03


Tree=9
num_leaves=7
num_cat=0
split_feature=11 16 28 25 7 22
split_gain=7.17225 6.49678 6.47333 5.99108 5.1942 0.896411
threshold=-0.37748876825060346 -1.3805281695848695 -0.1652696728904455 0.4868855435732749 0.47933237296197512 -1.2583132787382925
decision_type=2 2 2 2 2 2
left_child=3 -2 -3 4 -1 -5
right_child=1 2 -4 5 -6 -7
leaf_value=0.010524684989614733 -0.029426441762587144 0.013024157103816722 -0.0054316981271297256 -0.0069672933809602489 -0.024954947491649986 -0.037353286154776372
leaf_weight=9.5786905437707919 4.1080680340528479 44.833317071199417 26.23308664560318 2.0369442403316498 4.9433084875345221 7.3672391474246961
leaf_count=44 19 203 119 10 24 36
internal_value=-0.000679251 0.00383119 0.00614334 -0.0147589 -0.00183341 -0.0324219
internal_weight=99.1007 75.1745 71.0664 23.9262 14.522 9.40418
internal_count=455 341 322 114 68 46
is_linear=0
shrinkage=0.03


Tree=10
num_leaves=6
num_cat=0
split_feature=22 9 24 8 17
split_gain=6.48888 7.66162 8.05499 6.92425 2.52138
threshold=-1.2583132787382925 -0.85201641018444618 0.3167084549176597 -1.2275465347081924 -0.72784416246862393
decision_type=2 2 2 2 2
left_child=4 3 -3 -2 -1
right_child=1 2 -4 -5 -6
leaf_value=0.00090504331647510373 0.058509110580610167 -0.0053519505862940717 0.013465588459642502 0.0027331277178940547 -0.031927959180494347
leaf_weight=2.5490845590829849 3.5468943268060684 51.827465087175369 32.55650919675827 4.315015420317649 5.6476629078388196
leaf_count=12 16 238 147 20 27
internal_value=0.00236055 0.00474839 0.00189596 0.0316689 -0.0218779
internal_weight=100.443 92.2459 84.384 7.86191 8.19675
internal_count=460 421 385 36 39
is_linear=0
shrinkage=0.03


Tree=11
num_leaves=6
num_cat=0
split_feature=22 9 24 20 17
split_gain=6.18085 7.2271 7.59296 7.35136 2.44215
threshold=-1.2583132787382925 -0.85201641018444618 0.095661917704094698 -0.43140997881277182 -0.72784416246862393
decision_type=2 2 2 2 2
left_child=4 3 -3 -2 -1
right_child=1 2 -4 -5 -6
leaf_value=0.00088414284965927553 0.051628668871660038 -0.0061217169134122592 0.011776025932686365 -0.0031615625017391907 -0.031451289117379003
leaf_weight=2.5499621033668518 4.7450390011072159 46.718059465289116 37.712966397404671 3.18834364414215 5.5744953453540784
leaf_count=12 21 215 170 15 27
internal_value=0.00229825 0.00461884 0.0018378 0.0306495 -0.0214606
internal_weight=100.489 92.3644 84.431 7.93338 8.12446
internal_count=460 421 385 36 39
is_linear=0
shrinkage=0.03


Tree=12
num_leaves=6
num_cat=0
split_feature=22 9 11 20 17
split_gain=5.88489 6.78502 7.19225 6.85297 2.36622
threshold=-1.2583132787382925 -0.85201641018444618 -0.39208816627410165 -0.43140997881277182 -0.72784416246862393
decision_type=2 2 2 2 2
left_child=4 3 -3 -2 -1
right_child=1 2 -4 -5 -6
leaf_value=0.00086372833676389555 0.049637550001017515 -0.016828005920098716 0.0058517929518364003 -0.0030887701252735257 -0.030988450850517497
leaf_weight=2.5508186817169189 4.8182522654533386 14.448563098907469 70.026453346014023 3.1844902485609037 5.5010854750871641
leaf_count=12 21 69 316 15 27
internal_value=0.00223095 0.00448583 0.00178081 0.0296009 -0.0210539
internal_weight=100.53 92.4778 84.475 8.00274 8.0519
internal_count=460 421 385 36 39
is_linear=0
shrinkage=0.03


Tree=13
num_leaves=7
num_cat=0
split_feature=22 24 7 4 12 21
split_gain=5.602 5.30232 8.42948 6.70535 1.48238 1.11066
threshold=-1.2583132787382925 0.3167084549176597 0.45402479810600066 0.47684456719442037 -0.37877348610032086 -0.057918187842639246
decision_type=2 2 2 2 2 2
left_child=4 3 -3 -2 -1 -6
right_child=1 2 -4 -5 5 -7
leaf_value=0 0.0047546861946340174 0.019161183570816111 -0.023575675564268161 -0.018139305854563931 -0.03450193153349982 -0.0011815654893715492
leaf_weight=2.0428312420845032 43.649687528610229 30.251074209809303 3.9835364371538153 14.69573102891445 4.3046998083591461 1.6316878795623768
leaf_count=10 200 135 18 68 21 8
internal_value=0.00216172 0.00435278 0.0135923 -0.00107764 -0.0206571 -0.0274621
internal_weight=100.559 92.58 34.2346 58.3454 7.97922 5.93639
internal_count=460 421 153 268 39 29
is_linear=0
shrinkage=0.03


Tree=14
num_leaves=5
num_cat=0
split_feature=16 0 27 8
split_gain=5.42069 4.26841 5.6111 2.2151
threshold=-1.4972074536418301 -1.0265785285173863 -0.011367309916097381 0.044316839385710211
decision_type=2 2 2 2
left_child=-1 3 -3 -2
right_child=1 2 -4 -5
leaf_value=-0.028472568317716399 -0.002372981164722367 0.014192329411074352 -0.00096208976218754426 -0.03181426338826026
leaf_weight=4.1388826519250861 6.9402844756841642 39.176423937082291 47.156004905700684 3.2087683975696564
leaf_count=20 34 177 213 16
internal_value=0.00207744 0.00367302 0.00591308 -0.0138737
internal_weight=100.62 96.4815 86.3324 10.1491
internal_count=460 440 390 50
is_linear=0
shrinkage=0.03


Tree=15
num_leaves=8
num_cat=0
split_feature=29 1 29 2 29 26 20
split_gain=8.15486 6.04236 7.03225 5.0601 5.03941 4.21085 3.43094
threshold=-0.99612614368637586 1.0396719527648426 1.1813411984047753 -0.32999076877092931 -1.5441766052663237 -0.35705954772799403 1.4886469130214379
decision_type=2 2 2 2 2 2 2
left_child=4 3 -3 -2 5 -1 -6
right_child=1 2 -4 -5 6 -7 -8
leaf_value=-0.020157725581142281 -0.00094719916564824915 -0.026510440914756829 0.011496871271199768 0.01529945924696364 -0.035571655121864373 0.026291026561974552 0.0059955664942027264
leaf_weight=2.402226909995079 27.476821348071098 9.6998215317726153 6.6451077908277503 42.389590620994568 9.2500375211238843 3.0019712448120144 1.6323906481266011
leaf_count=12 125 44 30 191 45 14 8
internal_value=0.00123651 0.00500204 -0.010893 0.00888673 -0.0176457 0.00474003 -0.0288393
internal_weight=102.498 86.2113 16.3449 69.8664 16.2866 5.4042 10.8824
internal_count=469 390 74 316 79 26 53
is_linear=0
shrinkage=0.03


Tree=16
num_leaves=8
num_cat=0
split_feature=29 21 29 29 26 20 0
split_gain=7.72851 8.01903 5.08707 4.83631 4.00855 3.33104 2.15615
threshold=-0.99612614368637586 1.7969661664458985 -0.17587265274402339 -1.5441766052663237 -0.35705954772799403 1.4886469130214379 0.64659865393285698
decision_type=2 2 2 2 2 2 2
left_child=3 2 -2 4 -1 -5 -3
right_child=1 6 -4 5 -6 -7 -8
leaf_value=-0.01983776356582747 0.020878207399173069 -0.032318481180462828 0.0031776285490565368 -0.035076148895431543 0.025481215895673304 0.0058649260701285032 0.0015972733854552599
leaf_weight=2.38096983730793 19.207365572452545 5.3624608069658271 60.007334187626839 9.1126719266176206 3.0294522941112545 1.6364474892616261 1.7749672532081602
leaf_count=12 87 25 270 45 14 8 8
internal_value=0.00119018 0.00484088 0.00771035 -0.0172725 0.00458516 -0.0283492 -0.0238173
internal_weight=102.512 86.3521 79.2147 16.1595 5.41042 10.7491 7.13743
internal_count=469 390 357 79 26 53 33
is_linear=0
shrinkage=0.03


Tree=17
num_leaves=6
num_cat=0
split_feature=21 6 27 28 0
split_gain=6.52838 6.00163 9.204 5.07493 2.1999
threshold=1.7969661664458985 -0.90415758995210371 -0.79799030621924716 -0.16385331386893953 0.64659865393285698
decision_type=2 2 2 2 2
left_child=1 2 -1 -3 -2
right_child=4 3 -4 -5 -6
leaf_value=0.01862743064725193 -0.032498888328213106 0.013739068485082526 -0.025631513561939837 -0.0015463930044110914 0.0015636600063384603
leaf_weight=5.3649146556854275 5.7098293602466574 43.694592252373695 12.506842896342276 33.461366817355156 1.7759125679731367
leaf_count=25 27 195 62 152 8
internal_value=0.00114758 0.00340293 -0.0117952 0.00708519 -0.024323
internal_weight=102.513 95.0277 17.8718 77.156 7.48574
internal_count=469 434 87 347 35
is_linear=0
shrinkage=0.03


Tree=18
num_leaves=8
num_cat=0
split_feature=29 21 1 29 20 2 4
split_gain=7.027 7.24196 4.86718 4.63386 3.22149 2.59652 2.15737
threshold=-0.99612614368637586 1.7969661664458985 1.0286687399501921 -1.5441766052663237 1.4886469130214379 -0.65117594673674495 -0.0065298676297687068
decision_type=2 2 2 2 2 2 2
left_child=3 2 -2 5 -5 -1 -3
right_child=1 6 -4 4 -6 -7 -8
leaf_value=0.02330698483102641 0.01092293788397194 0.0024454457487330088 -0.0073266777572123416 -0.034389158561019893 0.0058837597033862135 -0.012952925789506561 -0.03152913363565861
leaf_weight=2.6652901768684387 64.084461942315102 1.7451028674840925 15.484830513596533 8.9085213094949705 1.6350416094064701 2.7247028946876517 5.262346923351287
leaf_count=12 287 8 70 45 8 14 25
internal_value=0.00110413 0.00456069 0.00725918 -0.016639 -0.0276404 0.00470279 -0.0229161
internal_weight=102.51 86.5767 79.5693 15.9336 10.5436 5.38999 7.00745
internal_count=469 390 357 79 53 26 33
is_linear=0
shrinkage=0.03


Tree=19
num_leaves=6
num_cat=0
split_feature=22 21 24 6 0
split_gain=6.20981 6.69733 4.82435 3.92289 2.08067
threshold=-1.2583132787382925 1.7969661664458985 -0.72135318663536252 -0.92916066874892367 0.64659865393285698
decision_type=2 2 2 2 2
left_child=2 3 -1 -2 -3
right_child=1 4 -4 -5 -6
leaf_value=0.014884005864712878 -0.0085179181323718454 -0.031223436002559227 -0.032971841561040154 0.0086087349994024287 0.0020109403293583406
leaf_weight=1.8016927689313886 13.362684234976767 5.3648933917284003 6.8896845281124097 73.317466273903847 1.7625951319932935
leaf_count=9 65 26 34 327 8
internal_value=0.00105776 0.00342557 -0.022001 0.00584614 -0.0228743
internal_weight=102.499 93.8076 8.69138 86.6802 7.12749
internal_count=469 426 43 392 34
is_linear=0
shrinkage=0.03


Tree=20
num_leaves=7
num_cat=0
split_feature=16 16 27 4 5 24
split_gain=7.72327 7.70593 8.7305 7.42103 2.50216 0.834013
threshold=1.6547410774590323 1.0866953518045193 -0.34783093922341507 -0.30641879951358775 0.46582079415222805 -0.65522750565779597
decision_type=2 2 2 2 2 2
left_child=1 2 -1 -2 -5 -3
right_child=3 5 -4 4 -6 -7
leaf_value=0.01477345399997336 -0.013384791989060377 -0.0041778089434623645 -0.00673280967597213 0.054379513239550675 0.0071851447439415456 -0.034412753059742014
leaf_weight=23.418453305959702 2.5168768316507339 1.7354171127080915 56.028302386403084 4.0040966272354108 2.0306368172168732 6.4588151872158033
leaf_count=108 12 8 255 18 9 30
internal_value=-0.000495141 -0.00329273 -0.000234576 0.0253633 0.0420767 -0.0296177
internal_weight=96.1926 87.641 79.4468 8.55161 6.03473 8.19423
internal_count=440 401 363 39 27 38
is_linear=0
shrinkage=0.03


Tree=21
num_leaves=7
num_cat=0
split_feature=16 16 27 2 7 5
split_gain=7.29566 7.39383 8.20654 6.58465 3.94835 0.821864
threshold=1.6547410774590323 1.0866953518045193 -0.34783093922341507 0.54322351327446305 0.086620845732052032 0.49765514175854547
decision_type=2 2 2 2 2 2
left_child=1 2 -1 4 -2 -3
right_child=3 5 -4 -5 -6 -7
leaf_value=0.014273299457998276 0.01995603146835432 -0.033910195323835143 -0.0065486219911836873 0.04979436388208295 -0.028009718297543802 -0.0039358014854675759
leaf_weight=23.538065075874329 2.8571856468915922 6.3836603909730893 55.900507003068924 3.8803641051054001 1.8729705810546873 1.7268852293491361
leaf_count=108 13 30 255 17 9 8
internal_value=-0.000477527 -0.00320852 -0.000223405 0.024565 0 -0.0291278
internal_weight=96.1596 87.5491 79.4386 8.61052 4.73016 8.11055
internal_count=440 401 363 39 22 38
is_linear=0
shrinkage=0.03


Tree=22
num_leaves=8
num_cat=0
split_feature=6 25 11 25 24 4 9
split_gain=5.39847 5.78553 5.35111 7.05464 3.37262 2.22942 0.80441
threshold=1.2696343005905335 -0.76160629206751629 0.92976388210183347 -0.30971695462638366 1.3920043115188101 1.2200409246942334 0.16926431240139936
decision_type=2 2 2 2 2 2 2
left_child=2 5 3 -1 -3 -2 -4
right_child=1 4 6 -5 -6 -7 -8
leaf_value=0.0097842738878142366 0.011010234942350473 0.048735970350963186 -0.0046399324177477524 -0.0080888945801732681 0 -0.027952524887785806 -0.036032455128884533
leaf_weight=32.609527409076691 1.8273025155067446 4.2757965028285962 1.7422165423631657 48.089634522795677 1.8492698967456815 1.7433883994817732 3.9780700653791428
leaf_count=149 8 19 8 222 8 8 18
internal_value=-0.000461911 0.0197956 -0.00296421 -0.000767801 0.0360917 -0.00827487 -0.0291339
internal_weight=96.1152 9.69576 86.4194 80.6992 6.12507 3.57069 5.72029
internal_count=440 43 397 371 27 16 26
is_linear=0
shrinkage=0.03


Tree=23
num_leaves=6
num_cat=0
split_feature=16 25 13 16 9
split_gain=6.93319 4.83779 7.26469 4.7812 2.16462
threshold=1.9460832910853127 -1.2124402144703501 -0.35212632040053532 -0.458543567047423 0.74132844291385813
decision_type=2 2 2 2 2
left_child=1 2 -1 -3 -2
right_child=4 3 -4 -5 -6
leaf_value=0.047286186802147107 0.0064538662803288504 -0.013901618323232766 -0.00230258566468192 0.00076755435049890523 0.048972826509072115
leaf_weight=3.3876496702432632 2.6549763083457938 32.021384820342064 6.5238247662782651 49.174908027052879 2.3206589370965958
leaf_count=15 12 148 30 225 10
internal_value=-0.000450358 -0.00251075 0.016352 -0.00502354 0.0313603
internal_weight=96.0834 91.1078 9.91147 81.1963 4.97564
internal_count=440 418 45 373 22
is_linear=0
shrinkage=0.03


Tree=24
num_leaves=8
num_cat=0
split_feature=14 26 3 6 12 17 28
split_gain=5.92245 5.81297 5.80553 5.73408 2.76523 1.6265 0.330943
threshold=1.3174235370199208 0.25582404493955685 -0.31739132658972719 1.5827353916016242 0.30234001587227616 1.2496174129616688 0.43260563781162836
decision_type=2 2 2 2 2 2 2
left_child=1 3 -3 -1 6 -6 -2
right_child=4 2 -4 -5 5 -7 -8
leaf_value=-0.00085133990816758985 0.013488697698050642 0.0030629908374744442 -0.030600111651459424 0.036075953007769113 0.018523082564550427 -0.014563882927424989 0.049736050770641707
leaf_weight=67.578799694776535 1.7480221837759011 6.8934770971536663 10.897209256887434 3.1957655549049369 1.9968830347061159 1.6770402193069456 2.0260194838047028
leaf_count=309 8 33 50 14 9 8 9
internal_value=-0.000410866 -0.00271284 -0.0176632 0.00111684 0.023843 0.00217518 0.0395546
internal_weight=96.0132 88.5653 17.7907 70.7746 7.44796 3.67392 3.77404
internal_count=440 406 83 323 34 17 17
is_linear=0
shrinkage=0.03


Tree=25
num_leaves=7
num_cat=0
split_feature=22 13 22 8 14 16
split_gain=4.90967 5.16181 5.81294 4.67856 1.47022 2.69326
threshold=-1.2583132787382925 -1.0240249604554461 0.49836519297461079 0.07555789520438165 -0.19063260474999602 -0.79192394960243406
decision_type=2 2 2 2 2 2
left_child=4 3 -3 -2 5 -1
right_child=1 2 -4 -5 -6 -7
leaf_value=-0.027134643124455356 0.00360011914472239 0.012345601366131954 -0.005233078704047967 -0.030408982456650933 -0.032173643285621709 0.013471356363245902
leaf_weight=1.8371575325727461 6.71448005735874 52.532379627227783 23.695849046111107 6.1927947998046875 3.6729681044816962 2.4048240780830383
leaf_count=9 31 237 108 28 19 12
internal_value=0.00163867 0.00376537 0.00680571 -0.0131019 -0.0197702 -0.00443972
internal_weight=97.0505 89.1355 76.2282 12.9073 7.91495 4.24198
internal_count=444 404 345 59 40 21
is_linear=0
shrinkage=0.03


Tree=26
num_leaves=7
num_cat=0
split_feature=1 11 7 13 5 1
split_gain=4.32193 5.6061 6.54715 3.83427 2.94981 1.13654
threshold=-1.3380068563317844 -0.60271377256560188 0.54409856376054666 -1.0240249604554461 0.63377059164720884 -1.8726521271463705
decision_type=2 2 2 2 2 2
left_child=4 2 -2 -3 5 -1
right_child=1 3 -4 -5 -6 -7
leaf_value=-0.0012052558782381783 0.039503182423545981 -0.014444675014936089 -0.011802311993570907 0.0036660013752381499 0.0089001032122656837 -0.03490054992777452
leaf_weight=1.6161424964666355 6.6125615984201414 11.568297177553175 2.5472473502159119 68.298044294118881 1.9742780327796934 4.4795683771371833
leaf_count=8 30 53 13 309 9 22
internal_value=0.0015679 0.00358439 0.0248313 0.000851129 -0.018318 -0.0280133
internal_weight=97.0961 89.0262 9.15981 79.8663 8.06999 6.09571
internal_count=444 405 43 362 39 30
is_linear=0
shrinkage=0.03


Tree=27
num_leaves=7
num_cat=0
split_feature=22 22 24 3 24 9
split_gain=4.64251 4.49058 5.05078 4.54155 2.19434 1.13352
threshold=-1.2583132787382925 0.49836519297461079 1.1493207224458339 -0.31084356882096881 -0.75977273079355967 -0.49071239382596038
decision_type=2 2 2 2 2 2
left_child=4 2 -2 -3 -1 -6
right_child=1 3 -4 -5 5 -7
leaf_value=0.0066529160792432032 0.0036957434262888905 0.015344538666482468 0.025626292266853475 -0.012965974115979044 -0.033649298426585775 -0.0005194852680160631
leaf_weight=1.6136198490858076 51.189133256673813 5.7511832118034389 11.204787090420721 21.138713166117668 4.6228907555341712 1.6066836863756178
leaf_count=8 232 27 49 96 24 8
internal_value=0.00151312 0.00357273 0.00800357 -0.00642588 -0.019399 -0.0269898
internal_weight=97.127 89.2838 62.3939 26.8899 7.84319 6.22957
internal_count=444 404 281 123 40 32
is_linear=0
shrinkage=0.03


Tree=28
num_leaves=7
num_cat=0
split_feature=7 25 14 28 14 18
split_gain=4.12064 5.62045 5.50677 4.20005 2.89923 4.23892
threshold=1.0402137093606214 1.2246515241443283 0.013324390880541786 -0.79757004766534345 0.97214106951654478 0.93393556349932072
decision_type=2 2 2 2 2 2
left_child=1 2 -1 -3 -2 -6
right_child=4 3 -4 -5 5 -7
leaf_value=0.0014853616340406407 -0.034090803554863575 0.010953145074306034 0.019574567249339779 -0.018910294856363429 0.024869295658017404 -0.026795328046810091
leaf_weight=48.006443858146667 3.9057595580816251 5.0520256161689785 22.012837752699852 14.031155526638029 2.1999389231204987 1.9293158650398252
leaf_count=218 19 23 98 66 10 10
internal_value=0.00146761 0.00343353 0.00741389 -0.01058 -0.0179909 0
internal_weight=97.1375 89.1025 70.0193 19.0832 8.03501 4.12925
internal_count=444 405 316 89 39 20
is_linear=0
shrinkage=0.03


Tree=29
num_leaves=7
num_cat=0
split_feature=22 13 22 8 24 9
split_gain=4.3723 4.66991 5.17064 4.43379 2.12553 1.12345
threshold=-1.2583132787382925 -1.0240249604554461 0.49836519297461079 0.07555789520438165 -0.75977273079355967 -0.49071239382596038
decision_type=2 2 2 2 2 2
left_child=4 3 -3 -2 -1 -6
right_child=1 2 -4 -5 5 -7
leaf_value=0.0065476206473224167 0.0034847406643624371 0.011477181890600872 -0.0050886456236002419 -0.029705540845536605 -0.033237593518685951 -0.00028488361734143669
leaf_weight=1.617895573377609 6.7210935801267606 52.919708058238029 23.639927804470062 6.1052673161029816 4.5451480746269217 1.5984338372945783
leaf_count=8 31 237 108 28 24 8
internal_value=0.00141665 0.00340706 0.00628473 -0.0126898 -0.0189817 -0.0265487
internal_weight=97.1475 89.386 76.5596 12.8264 7.76148 6.14358
internal_count=444 404 345 59 40 32
is_linear=0
shrinkage=0.03


Tree=30
num_leaves=7
num_cat=0
split_feature=13 17 12 17 13 24
split_gain=7.55292 4.52421 8.4128 5.66364 3.06014 0.699811
threshold=-1.0630843492465718 -0.41675044574428349 -0.35454063967677146 -0.13261691939728287 -1.4815219024932296 -0.82185023663072843
decision_type=2 2 2 2 2 2
left_child=4 2 -2 -3 -1 -6
right_child=1 3 -4 -5 5 -7
leaf_value=0.0037466007749288243 0.036759252907924471 -0.019235979774383839 0.0015354597046318094 0.0021229980622362952 -0.012213112391698894 -0.038076335689366081
leaf_weight=2.3426085710525504 7.1815900206565848 15.082610577344893 28.000853031873703 35.980331987142563 3.2713219672441474 5.8679454773664466
leaf_count=11 32 70 128 164 15 27
internal_value=-0.00172189 0.00133478 0.00954965 -0.00426958 -0.0237619 -0.0311506
internal_weight=97.7273 86.2454 35.1824 51.0629 11.4819 9.13927
internal_count=447 394 160 234 53 42
is_linear=0
shrinkage=0.03


Tree=31
num_leaves=7
num_cat=0
split_feature=13 0 0 16 14 20
split_gain=7.24467 6.12227 5.01492 4.09899 6.59807 0.761988
threshold=-1.0240249604554461 0.32513951915027456 0.55161790802918975 -1.3521849844329075 -0.78490364221467024 0.52364500246597723
decision_type=2 2 2 2 2 2
left_child=1 -1 -3 5 -5 -2
right_child=3 2 -4 4 -6 -7
leaf_value=-0.036170652700198723 -0.001686593800408425 0.036763420257087634 -0.017265257456550075 0.019589891648657223 -0.0011272749908381953 -0.031692686180846995
leaf_weight=8.3786222487688047 1.6436277180910099 1.7687948346137989 3.0053250342607498 16.731670424342155 63.237453818321228 2.8857561200857162
leaf_count=39 8 8 14 76 288 14
internal_value=-0.00167531 -0.0217347 0.00407917 0.00155129 0.00328412 -0.0238176
internal_weight=97.6513 13.1527 4.77412 84.4985 79.9691 4.52938
internal_count=447 61 22 386 364 22
is_linear=0
shrinkage=0.03


end of trees

feature_importances:
consec_direction=18
vol_ratio=15
hour_sin=13
rsi_14=11
atr_14=10
macd_hist_delta=9
close_position_in_range=9
momentum_10bar=8
volatility_5bar=8
bb_position=7
bb_width=7
momentum_3bar=7
volume_trend=7
hour_cos=7
upper_wick_ratio=6
lower_wick_ratio=6
rsi_slope=5
momentum_1bar=5
volume_ratio=5
returns_skew_10=5
rsi_7=4
high_low_range=4
macd_signal=3
candle_body_ratio=3
returns_std_10=3
macd_hist=2
momentum_5bar=2
volatility_20bar=1
atr_ratio=1

parameters:
[boosting: gbdt]
[objective: binary]
[metric: binary_logloss]
[tree_learner: serial]
[device_type: cpu]
[data_sample_strategy: bagging]
[data: ]
[valid: ]
[num_iterations: 300]
[learning_rate: 0.03]
[num_leaves: 20]
[num_threads: 0]
[seed: 0]
[deterministic: 0]
[force_col_wise: 0]
[force_row_wise: 0]
[histogram_pool_size: -1]
[max_depth: 3]
[min_data_in_leaf: 8]
[min_sum_hessian_in_leaf: 0.001]
[bagging_fraction: 0.7]
[pos_bagging_fraction: 1]
[neg_bagging_fraction: 1]
[bagging_freq: 5]
[bagging_seed: 3]
[bagging_by_query: 0]
[feature_fraction: 0.7]
[feature_fraction_bynode: 1]
[feature_fraction_seed: 2]
[extra_trees: 0]
[extra_seed: 6]
[early_stopping_round: 0]
[early_stopping_min_delta: 0]
[first_metric_only: 0]
[max_delta_step: 0]
[lambda_l1: 0.2]
[lambda_l2: 0.8]
[linear_lambda: 0]
[min_gain_to_split: 0]
[drop_rate: 0.1]
[max_drop: 50]
[skip_drop: 0.5]
[xgboost_dart_mode: 0]
[uniform_drop: 0]
[drop_seed: 4]
[top_rate: 0.2]
[other_rate: 0.1]
[min_data_per_group: 100]
[max_cat_threshold: 32]
[cat_l2: 10]
[cat_smooth: 10]
[max_cat_to_onehot: 4]
[top_k: 20]
[monotone_constraints: ]
[monotone_constraints_method: basic]
[monotone_penalty: 0]
[feature_contri: ]
[forcedsplits_filename: ]
[refit_decay_rate: 0.9]
[cegb_tradeoff: 1]
[cegb_penalty_split: 0]
[cegb_penalty_feature_lazy: ]
[cegb_penalty_feature_coupled: ]
[path_smooth: 0]
[interaction_constraints: ]
[verbosity: -1]
[saved_feature_importance_type: 0]
[use_quantized_grad: 0]
[num_grad_quant_bins: 4]
[quant_train_renew_leaf: 0]
[stochastic_rounding: 1]
[linear_tree: 0]
[max_bin: 255]
[max_bin_by_feature: ]
[min_data_in_bin: 3]
[bin_construct_sample_cnt: 200000]
[data_random_seed: 1]
[is_enable_sparse: 1]
[enable_bundle: 1]
[use_missing: 1]
[zero_as_missing: 0]
[feature_pre_filter: 1]
[pre_partition: 0]
[two_round: 0]
[header: 0]
[label_column: ]
[weight_column: ]
[group_column: ]
[ignore_column: ]
[categorical_feature: ]
[forcedbins_filename: ]
[precise_float_parser: 0]
[parser_config_file: ]
[objective_seed: 5]
[num_class: 1]
[is_unbalance: 0]
[scale_pos_weight: 1]
[sigmoid: 1]
[boost_from_average: 1]
[reg_sqrt: 0]
[alpha: 0.9]
[fair_c: 1]
[poisson_max_delta_step: 0.7]
[tweedie_variance_power: 1.5]
[lambdarank_truncation_level: 30]
[lambdarank_norm: 1]
[label_gain: ]
[lambdarank_position_bias_regularization: 0]
[eval_at: ]
[multi_error_top_k: 1]
[auc_mu_weights: ]
[num_machines: 1]
[local_listen_port: 12400]
[time_out: 120]
[machine_list_filename: ]
[machines: ]
[gpu_platform_id: -1]
[gpu_device_id: -1]
[gpu_use_dp: 0]
[num_gpu: 1]

end of parameters

pandas_categorical:null
