tree
version=v4
num_class=1
num_tree_per_iteration=1
label_index=0
max_feature_idx=29
objective=binary sigmoid:1
feature_names=rsi_14 rsi_7 rsi_slope macd_hist macd_hist_delta macd_signal bb_position bb_width momentum_1bar momentum_3bar momentum_5bar momentum_10bar volume_ratio volume_trend volatility_5bar volatility_20bar vol_ratio atr_14 atr_ratio candle_body_ratio upper_wick_ratio lower_wick_ratio consec_direction close_vs_open hour_sin hour_cos returns_std_10 returns_skew_10 high_low_range close_position_in_range
feature_infos=[-2.6845928464576274:2.437279166973398] [-2.2210788391310956:2.2061559446924006] [-3.0599748445357671:2.9220012260052441] [-3.644815266653036:2.7918821361347002] [-4.6282627791920978:3.9816821782605336] [-2.6319305767038936:2.9931698339663741] [-2.8203669063172314:2.731781944505645] [-1.4940613338528643:4.2825966532510487] [-4.6720971872259422:4.8718191554839994] [-5.1892256361897928:4.3707450467854452] [-5.0878932591213433:3.9874903327039894] [-4.0712639145629739:3.5738686952865506] [-1.1282035422325651:9.8268832391316554] [-1.8048784237511832:3.9998388531881166] [-1.4799692924483241:5.302285197502421] [-1.9034934093713776:3.8127977430239994] [-1.9511045291359512:2.7829547361820373] [-1.8251877221065416:4.4348676418523691] [-2.3476299147851951:3.2389609341412449] [-1.79065524315028:2.0894398561762597] [-1.284317059378717:3.3690134782537564] [-1.2499894465491417:3.0834000204295031] [-3.4328221021791681:4.1866224865473383] [-1.0180601501130848:0.98226023274647078] [-1.4108414126143733:1.4171088884816019] [-1.4095884623912773:1.4193634146972245] [-1.6449181523380683:4.875791610971004] [-3.0280425437017029:2.7308748644148251] [-1.7488301897427969:3.230825797966419] [-1.7303258662665251:1.7702873731536426]
tree_sizes=1809

Tree=0
num_leaves=16
num_cat=0
split_feature=9 13 29 14 17 1 0 20 20 16 1 5 15 15 7
split_gain=27.1197 42.4057 27.5806 21.8025 29.2989 23.5849 17.6148 16.7889 25.5212 20.3293 11.8267 10.2541 13.8488 0.269141 0.0174913
threshold=-0.4914030853108764 -0.33780500522144769 1.4855400712361331 0.34119484076113366 0.46368756722569088 -0.06852940850061974 1.2090722293241623 0.25279239603845044 -0.56312896033010873 -0.27499424003377321 1.1506276746484125 0.94773687419686781 0.61360542403047436 -0.70880935373834686 -0.53020324600988455
decision_type=2 2 2 2 2 2 2 2 2 2 2 2 2 2 2
left_child=1 11 3 4 -2 -5 10 8 -3 -9 -4 14 -13 -8 -1
right_child=2 7 6 5 -6 -7 13 9 -10 -11 -12 12 -14 -15 -16
leaf_value=-0.10517778724624458 -0.072340098301656719 -0.088181209827401588 -0.10972761102167158 -0.076643256545256735 -0.11118528195807278 -0.041551755158285034 -0.10343395847145127 -0.045725645059739681 -0.048151098932678195 -0.10725627420034492 -0.052086996086173225 -0.12745750974929426 -0.064620405837343006 -0.13267183845498356 -0.13137375129039525
leaf_weight=3.8250296711921719 175.82865890860558 29.671352088451385 4.5737889409065264 31.324511051177979 18.362575799226761 39.423143655061722 3.5887659788131705 4.8987222313880947 25.909896373748779 26.107681751251221 6.4774740934371948 4.492555618286131 6.396240770816803 8.9851112365722638 20.29773360490799
leaf_count=5 236 38 6 40 25 49 5 6 32 34 8 6 8 12 27
internal_value=-0.0787044 -0.0905168 -0.0736917 -0.0708868 -0.0761778 -0.0567226 -0.104051 -0.079228 -0.069369 -0.0965369 -0.0768124 -0.117887 -0.0917354 -0.127008 -0.128571
internal_weight=410.163 121.599 288.564 264.939 194.191 70.7477 23.6251 86.5877 55.5812 31.0064 11.0513 35.0116 10.8888 12.5739 24.1228
internal_count=537 156 381 350 261 89 31 110 70 40 14 46 14 17 32
is_linear=0
shrinkage=1


end of trees

feature_importances:
rsi_7=2
volatility_20bar=2
upper_wick_ratio=2
rsi_14=1
macd_signal=1
bb_width=1
momentum_3bar=1
volume_trend=1
volatility_5bar=1
vol_ratio=1
atr_14=1
close_position_in_range=1

parameters:
[boosting: gbdt]
[objective: binary]
[metric: binary_logloss]
[tree_learner: serial]
[device_type: cpu]
[data_sample_strategy: bagging]
[data: ]
[valid: ]
[num_iterations: 500]
[learning_rate: 0.03]
[num_leaves: 31]
[num_threads: 0]
[seed: 0]
[deterministic: 0]
[force_col_wise: 0]
[force_row_wise: 0]
[histogram_pool_size: -1]
[max_depth: 4]
[min_data_in_leaf: 5]
[min_sum_hessian_in_leaf: 0.001]
[bagging_fraction: 0.75]
[pos_bagging_fraction: 1]
[neg_bagging_fraction: 1]
[bagging_freq: 5]
[bagging_seed: 3]
[bagging_by_query: 0]
[feature_fraction: 0.75]
[feature_fraction_bynode: 1]
[feature_fraction_seed: 2]
[extra_trees: 0]
[extra_seed: 6]
[early_stopping_round: 0]
[early_stopping_min_delta: 0]
[first_metric_only: 0]
[max_delta_step: 0]
[lambda_l1: 0.2]
[lambda_l2: 1]
[linear_lambda: 0]
[min_gain_to_split: 0.01]
[drop_rate: 0.1]
[max_drop: 50]
[skip_drop: 0.5]
[xgboost_dart_mode: 0]
[uniform_drop: 0]
[drop_seed: 4]
[top_rate: 0.2]
[other_rate: 0.1]
[min_data_per_group: 100]
[max_cat_threshold: 32]
[cat_l2: 10]
[cat_smooth: 10]
[max_cat_to_onehot: 4]
[top_k: 20]
[monotone_constraints: ]
[monotone_constraints_method: basic]
[monotone_penalty: 0]
[feature_contri: ]
[forcedsplits_filename: ]
[refit_decay_rate: 0.9]
[cegb_tradeoff: 1]
[cegb_penalty_split: 0]
[cegb_penalty_feature_lazy: ]
[cegb_penalty_feature_coupled: ]
[path_smooth: 0]
[interaction_constraints: ]
[verbosity: -1]
[saved_feature_importance_type: 0]
[use_quantized_grad: 0]
[num_grad_quant_bins: 4]
[quant_train_renew_leaf: 0]
[stochastic_rounding: 1]
[linear_tree: 0]
[max_bin: 255]
[max_bin_by_feature: ]
[min_data_in_bin: 3]
[bin_construct_sample_cnt: 200000]
[data_random_seed: 1]
[is_enable_sparse: 1]
[enable_bundle: 1]
[use_missing: 1]
[zero_as_missing: 0]
[feature_pre_filter: 1]
[pre_partition: 0]
[two_round: 0]
[header: 0]
[label_column: ]
[weight_column: ]
[group_column: ]
[ignore_column: ]
[categorical_feature: ]
[forcedbins_filename: ]
[precise_float_parser: 0]
[parser_config_file: ]
[objective_seed: 5]
[num_class: 1]
[is_unbalance: 0]
[scale_pos_weight: 1.10849]
[sigmoid: 1]
[boost_from_average: 1]
[reg_sqrt: 0]
[alpha: 0.9]
[fair_c: 1]
[poisson_max_delta_step: 0.7]
[tweedie_variance_power: 1.5]
[lambdarank_truncation_level: 30]
[lambdarank_norm: 1]
[label_gain: ]
[lambdarank_position_bias_regularization: 0]
[eval_at: ]
[multi_error_top_k: 1]
[auc_mu_weights: ]
[num_machines: 1]
[local_listen_port: 12400]
[time_out: 120]
[machine_list_filename: ]
[machines: ]
[gpu_platform_id: -1]
[gpu_device_id: -1]
[gpu_use_dp: 0]
[num_gpu: 1]

end of parameters

pandas_categorical:null
