tree
version=v4
num_class=1
num_tree_per_iteration=1
label_index=0
max_feature_idx=29
objective=binary sigmoid:1
feature_names=rsi_14 rsi_7 rsi_slope macd_hist macd_hist_delta macd_signal bb_position bb_width momentum_1bar momentum_3bar momentum_5bar momentum_10bar volume_ratio volume_trend volatility_5bar volatility_20bar vol_ratio atr_14 atr_ratio candle_body_ratio upper_wick_ratio lower_wick_ratio consec_direction close_vs_open hour_sin hour_cos returns_std_10 returns_skew_10 high_low_range close_position_in_range
feature_infos=[-2.7116129119962222:2.31494153570975] [-2.2343949241947221:2.1274630827504857] [-3.049743295468117:2.9405555781280039] [-3.9529800353966675:3.029294436032111] [-4.9340446844434975:6.9218227105037435] [-2.372505766807373:3.9130088214467933] [-2.4657125819713679:2.6580404580532684] [-1.3172037942650354:4.6346905823635147] [-5.4652320201553115:5.2319824258012275] [-5.4434057977807777:3.9045363807481825] [-4.5158040366518453:3.4710266989789678] [-3.794093373600671:4.4407116160034095] [-1.0582426487215868:6.3798630807898036] [-1.6645900751069653:2.9390280519357632] [-1.3786287237703747:4.7094029913501592] [-1.8885975500113283:3.2434393274750382] [-1.8564265581823145:2.7716147791855086] [-1.7657902483117924:3.4942513373228086] [-2.5847377069541495:3.1586160309011029] [-1.7526738390324283:2.1300540015225389] [-1.311550284449654:3.3098337186867175] [-1.2535492825666834:3.0841273710246537] [-3.5610227042274771:4.2916882086146702] [-1.0316820324557192:0.96929089442384009] [-1.3963681620408839:1.4339818046481356] [-1.3898084377664128:1.4380196367676359] [-1.5693742260835326:4.222165896764146] [-3.122120007628177:2.9028247310833279] [-1.5574311813805761:4.1252604921569187] [-1.7859742629072275:1.7389142355007834]
tree_sizes=858 776 756 675 838 651 649 656 670 654 986 988 673 985 986 987 988 667 990 986 983 995 967 874 866 886 883 981 991 980 777 779 776 785 882 679 990 982 673 675 683 884 778 887 655 875 958 985 885 885 981 675 670 669 861 777 880 781 985 781 877 986 777 979 995 664 864 977 861 661

Tree=0
num_leaves=7
num_cat=0
split_feature=16 7 7 3 24 9
split_gain=9.05821 6.7002 6.08768 5.81266 5.0542 4.48459
threshold=-1.2255734446873263 2.3278280617238987 0.71914709232136853 0.47315776348456029 -1.358661607691297 -0.082145186091874434
decision_type=2 2 2 2 2 2
left_child=3 2 -2 5 -3 -1
right_child=1 4 -4 -5 -6 -7
leaf_value=-0.5822079464170431 -0.61355176343868412 -0.62274195188486958 -0.63299328928467224 -0.55496327746317708 -0.57276759679734313 -0.62972938632419861
leaf_weight=2.7352463006973267 80.917703062295914 2.051434725522995 17.095289379358292 2.9631834924221039 4.7866810262203208 2.7352463006973249
leaf_count=12 355 9 75 13 21 12
internal_value=-0.612576 -0.615014 -0.617141 -0.584031 -0.588037 -0.606078
internal_weight=113.285 104.851 98.013 8.43368 6.83812 5.47049
internal_count=497 460 430 37 30 24
is_linear=0
shrinkage=1


Tree=1
num_leaves=6
num_cat=0
split_feature=5 24 29 9 2
split_gain=5.22556 6.69973 9.47241 8.07025 2.12619
threshold=2.1272695707072438 0.51703537629370377 1.0252987743347022 -0.6096971465621156 -0.26115211631575391
decision_type=2 2 2 2 2
left_child=1 3 -3 -1 -2
right_child=4 2 -4 -5 -6
leaf_value=-0.026896615345212586 8.2562418539657413e-05 0.002001854454858969 0.042772214609366109 -0.0016010636424346057 0.043995371838186581
leaf_weight=13.880971297621725 1.8178125917911527 36.491058379411697 5.2629235535860053 53.288368985056877 2.5242104828357688
leaf_count=61 8 160 23 234 11
internal_value=4.36117e-05 -0.00128953 0.00798929 -0.00717187 0.029651
internal_weight=113.265 108.923 41.754 67.1693 4.34202
internal_count=497 478 183 295 19
is_linear=0
shrinkage=0.03


Tree=2
num_leaves=6
num_cat=0
split_feature=16 8 9 11 18
split_gain=8.42103 5.64327 6.87853 5.52005 3.81587
threshold=-1.2255734446873263 -2.2292104606801231 0.28578156167724772 -0.33347385906358068 -1.0444083674828424
decision_type=2 2 2 2 2
left_child=3 -2 -3 -1 -5
right_child=1 2 -4 4 -6
leaf_value=-0.010316545628554861 0.036218164343526281 -0.010141427896683056 0.0054686329274967107 0 0.052801711989109414
leaf_weight=2.0568325519561768 2.4942413270473471 59.573909014463425 42.664031207561493 1.8312629610300062 4.6220364570617658
leaf_count=9 11 262 187 8 20
internal_value=5.56382e-05 -0.00230524 -0.00357721 0.0274564 0.0401328
internal_weight=113.242 104.732 102.238 8.51013 6.4533
internal_count=497 460 449 37 28
is_linear=0
shrinkage=0.03


Tree=3
num_leaves=5
num_cat=0
split_feature=27 5 1 2
split_gain=5.66608 5.42384 4.56305 1.96058
threshold=-1.9029143210580379 2.1272695707072438 -1.4242776341223504 -0.26115211631575391
decision_type=2 2 2 2
left_child=-1 2 -2 -3
right_child=1 3 -4 -5
leaf_value=0.035037505099749337 -0.020758121480475088 0.00013015841735687205 -0.00045073511037456649 0.042419782004312546
leaf_weight=3.2350310236215583 10.422574847936628 1.8164742290973661 95.180425316095352 2.5587679445743552
leaf_count=14 46 8 418 11
internal_value=6.99468e-05 -0.00115007 -0.00265238 0.0287559
internal_weight=113.213 109.978 105.603 4.37524
internal_count=497 483 464 19
is_linear=0
shrinkage=0.03


Tree=4
num_leaves=7
num_cat=0
split_feature=16 28 28 11 14 18
split_gain=7.9197 5.93035 6.31663 5.11095 3.59124 3.50172
threshold=-1.2255734446873263 2.0084128270457402 0.64815013003808064 -0.33347385906358068 0.57791387008406592 -1.0444083674828424
decision_type=2 2 2 2 2 2
left_child=3 2 -2 -1 -3 -5
right_child=1 4 -4 5 -6 -7
leaf_value=-0.0098887048128547209 0 -0.0080236991601411334 -0.018002295386476328 0 0.034871189500722072 0.050639525392176823
leaf_weight=2.043352335691452 75.494569957256317 1.8504348248243321 22.202054560184479 1.8310236185789106 5.077985092997551 4.6919628232717496
leaf_count=9 332 8 98 8 22 20
internal_value=7.92526e-05 -0.00221756 -0.00423865 0.0265654 0.0229938 0.0386369
internal_weight=113.191 104.625 97.6966 8.56634 6.92842 6.52299
internal_count=497 460 430 37 30 28
is_linear=0
shrinkage=0.03


Tree=5
num_leaves=5
num_cat=0
split_feature=5 16 0 16
split_gain=11.5743 7.84046 6.762 6.17436
threshold=2.1272695707072438 -1.3134482758569217 -1.3336224238116703 -1.5523397951840598
decision_type=2 2 2 2
left_child=1 3 -3 -1
right_child=-2 2 -4 -5
leaf_value=0 0.049750734017041935 0.018516407858462217 -0.0052740308122269991 0.053993801868484979
leaf_weight=3.2489519119262695 3.5160048902034751 11.316675513982771 91.345907896757126 3.3131063580512992
leaf_count=14 15 50 402 14
internal_value=0.00155666 -0.000290662 -0.00247068 0.0295628
internal_weight=112.741 109.225 102.663 6.56206
internal_count=495 480 452 28
is_linear=0
shrinkage=0.03


Tree=6
num_leaves=5
num_cat=0
split_feature=5 22 0 3
split_gain=10.8975 7.66586 6.89026 6.01236
threshold=2.1272695707072438 -0.72532154125670145 -0.8324126737361609 -1.0654810021701913
decision_type=2 2 2 2
left_child=1 3 -3 -1
right_child=-2 2 -4 -5
leaf_value=0.015850798431273593 0.048066349073350542 0.02224834782196013 0 -0.020945909201395229
leaf_weight=4.071344435214999 3.5574214458465567 14.558537051081656 69.25784333050251 21.293684512376785
leaf_count=18 15 64 304 94
internal_value=0.00153431 -0.000265875 0.00406915 -0.0145063
internal_weight=112.739 109.181 83.8164 25.365
internal_count=495 480 368 112
is_linear=0
shrinkage=0.03


Tree=7
num_leaves=5
num_cat=0
split_feature=5 16 22 16
split_gain=10.2761 7.45933 7.05268 5.74987
threshold=2.1272695707072438 -1.3134482758569217 -0.72532154125670145 -1.5523397951840598
decision_type=2 2 2 2
left_child=1 3 -3 -1
right_child=-2 2 -4 -5
leaf_value=0 0.046493756495165121 -0.016585976854277783 0.0018620913439830193 0.052184346065417699
leaf_weight=3.2426250576972961 3.5938983112573615 23.403337180614471 79.160701557993889 3.3521521836519232
leaf_count=14 15 104 348 14
internal_value=0.00150322 -0.000250947 -0.00238518 0.0287971
internal_weight=112.753 109.159 102.564 6.59478
internal_count=495 480 452 28
is_linear=0
shrinkage=0.03


Tree=8
num_leaves=5
num_cat=0
split_feature=5 22 3 3
split_gain=9.69932 6.83925 6.40706 5.75616
threshold=2.1272695707072438 -0.72532154125670145 1.1683321724138283 -1.0654810021701913
decision_type=2 2 2 2
left_child=1 3 -3 -1
right_child=-2 2 -4 -5
leaf_value=0.015872234592047865 0.045021646870927225 0.0071253683827843493 -0.01670428457660713 -0.020142576479756549
leaf_weight=4.0704220980405834 3.625724956393241 73.095772430300713 10.891166076064108 21.055398210883141
leaf_count=18 15 320 48 94
internal_value=0.00147594 -0.000233617 0.00383599 -0.013767
internal_weight=112.738 109.113 83.9869 25.1258
internal_count=495 480 368 112
is_linear=0
shrinkage=0.03


Tree=9
num_leaves=5
num_cat=0
split_feature=5 16 22 16
split_gain=9.16898 7.06739 6.33975 5.33661
threshold=2.1272695707072438 -1.3134482758569217 -0.72532154125670145 -1.5523397951840598
decision_type=2 2 2 2
left_child=1 3 -3 -1
right_child=-2 2 -4 -5
leaf_value=0 0.043640137419844127 -0.015860023634274932 0.001689232276053888 0.050345980133960494
leaf_weight=3.2362429946660995 3.6531807482242575 23.171920388936996 79.293454304337502 3.3885015100240699
leaf_count=14 15 104 348 14
internal_value=0.00143735 -0.000228737 -0.00231345 0.0279825
internal_weight=112.743 109.09 102.465 6.62474
internal_count=495 480 452 28
is_linear=0
shrinkage=0.03


Tree=10
num_leaves=8
num_cat=0
split_feature=18 26 12 13 3 26 1
split_gain=9.29081 7.83568 7.81273 6.63399 8.00273 4.26906 2.85948
threshold=-0.58197360966668987 1.5750972379791117 -0.48542845708470644 -1.0413287575640133 0.55081169235891336 -1.1590845722942631 0.63743468743238763
decision_type=2 2 2 2 2 2 2
left_child=3 2 -2 4 -1 -5 -3
right_child=1 6 -4 5 -6 -7 -8
leaf_value=-0.0089777948721493517 0.017958723925949428 0.04261863502124922 -0.0044891361087546515 0.011176073899898645 0.049137309402550976 -0.026993398284308471 0.0025045237689583178
leaf_weight=7.5288635194301587 17.351757809519768 5.1504665017127982 59.246727615594864 2.3074316829443005 2.0438087731599808 21.797722801566124 2.7857931554317474
leaf_count=33 76 22 261 10 9 96 12
internal_value=-0.00145608 0.0038086 0.000651492 -0.0146267 0.00568439 -0.0228571 0.0307433
internal_weight=118.213 84.5347 76.5985 33.6778 9.57267 24.1052 7.93626
internal_count=519 371 337 148 42 106 34
is_linear=0
shrinkage=0.03


Tree=11
num_leaves=8
num_cat=0
split_feature=18 4 10 13 0 0 6
split_gain=8.7761 7.75702 13.67 6.37219 6.13807 3.81553 3.1913
threshold=-0.58197360966668987 0.39553354256993833 0.97665832551519682 -0.70034774773396713 -0.43125298668872863 0.49389950004192912 0.96252477698541761
decision_type=2 2 2 2 2 2 2
left_child=3 4 -3 5 -2 -1 -5
right_child=1 2 -4 6 -6 -7 -8
leaf_value=-0.011993998400394777 -0.014447501444956419 0.031533518838728319 -0.012242532400591534 -0.035193954913978046 0.0052650904659634666 0.01509206844345407 -0.00048255603508715061
leaf_weight=11.816972121596338 22.566632986068726 17.949905261397365 8.9893697649240476 11.714049890637396 35.090236380696297 6.5731094777584067 3.4103801697492591
leaf_count=52 100 78 39 52 154 29 15
internal_value=-0.00139368 0.00370953 0.0167778 -0.0142361 -0.00243982 -0.00177448 -0.0281612
internal_weight=118.111 84.5961 26.9393 33.5145 57.6569 18.3901 15.1244
internal_count=519 371 117 148 254 81 67
is_linear=0
shrinkage=0.03


Tree=12
num_leaves=5
num_cat=0
split_feature=27 1 1 27
split_gain=5.70253 6.05116 5.79838 0.751489
threshold=-1.9029143210580379 1.753750156404299 -1.4242776341223504 -2.4548875805959569
decision_type=2 2 2 2
left_child=3 2 -2 -1
right_child=1 -3 -4 -5
leaf_value=0.0080849068835672933 -0.022108668052296786 -0.036992896857434669 0.00093069879206044402 0.043425452680213313
leaf_weight=1.8811902999877932 10.054614692926405 3.6650631576776496 100.58291424810886 1.8588803410530079
leaf_count=8 45 16 442 8
internal_value=-0.00136028 -0.0027002 -0.00125294 0.0315282
internal_weight=118.043 114.303 110.638 3.74007
internal_count=519 503 487 16
is_linear=0
shrinkage=0.03


Tree=13
num_leaves=8
num_cat=0
split_feature=18 4 10 13 3 8 20
split_gain=8.30921 7.22651 12.6714 6.18431 7.47651 5.91842 4.10441
threshold=-0.58197360966668987 0.39553354256993833 0.97665832551519682 -1.0413287575640133 0.55081169235891336 -0.58445675210701564 -1.0268878209371695
decision_type=2 2 2 2 2 2 2
left_child=3 5 -3 4 -1 -2 -5
right_child=1 2 -4 6 -6 -7 -8
leaf_value=-0.0085847022962511534 0.010851142547395125 0.030293957486077491 -0.011840739208045917 0.0011691323158166756 0.047363707388110195 -0.0091554974597148116 -0.02808076335467443
leaf_weight=7.4946940988302213 19.22621876001358 18.114133268594745 8.9455087929964048 4.9598187655210522 2.0768938213586807 38.34297126531601 18.821277275681496
leaf_count=33 85 78 39 22 9 169 84
internal_value=-0.00131897 0.00363488 0.0162095 -0.0138552 0.00569372 -0.002314 -0.0218968
internal_weight=117.982 84.6288 27.0596 33.3527 9.57159 57.5692 23.7811
internal_count=519 371 117 148 42 254 106
is_linear=0
shrinkage=0.03


Tree=14
num_leaves=8
num_cat=0
split_feature=18 26 12 0 19 0 11
split_gain=7.84238 7.25841 7.16652 5.98197 5.41312 2.60866 1.56777
threshold=-0.58197360966668987 1.5750972379791117 -0.48542845708470644 0.49389950004192912 0.64762674629432482 0.73711957157922814 -0.15233617615314785
decision_type=2 2 2 2 2 2 2
left_child=3 2 -2 6 -5 -3 -1
right_child=1 5 -4 4 -6 -7 -8
leaf_value=-0.032302361517245491 0.016979986800051521 0.043101296802823666 -0.0044608073552264401 -0.008469154870186275 0.033624735467527762 0.0058984718768736177 -0.013054487932753888
leaf_weight=9.5404951572418213 17.491287395358086 4.4612220078706724 59.191964343190193 9.199019789695738 2.9621714651584616 3.5533977299928665 11.488674029707909
leaf_count=43 76 19 261 41 13 15 51
internal_value=-0.001274 0.00352543 0.000477177 -0.0134928 0.00276354 0.0293199 -0.0229255
internal_weight=117.888 84.6979 76.6833 33.1904 12.1612 8.01462 21.0292
internal_count=519 371 337 148 54 34 94
is_linear=0
shrinkage=0.03


Tree=15
num_leaves=8
num_cat=0
split_feature=2 9 16 29 6 14 14
split_gain=7.57377 5.47275 5.71041 5.27989 6.89385 5.1551 2.18429
threshold=-0.24405385007782757 0.10525137003535524 -0.24164131716399237 0.77859101872851999 -0.48934609882725416 1.0000000180025095e-35 0.47910624986539591
decision_type=2 2 2 2 2 2 2
left_child=3 2 -2 4 -1 -3 -5
right_child=1 5 -4 6 -6 -7 -8
leaf_value=-0.015024169528220771 0.0072184558608361848 0.0015778757529559804 -0.02237719065007018 -0.039666991838265504 0.011911383520693854 0.021190203447820587 -0.0016864783184575203
leaf_weight=21.266364291310307 11.676432132720949 25.89109693467617 10.097913026809691 5.8833359777927381 13.022594273090364 23.278880029916763 2.231168732047081
leaf_count=95 52 113 45 26 57 101 10
internal_value=-0.0002852 0.00563874 -0.00654744 -0.0102562 -0.00458499 0.0111737 -0.0309854
internal_weight=113.348 70.9443 21.7743 42.4035 34.289 49.17 8.1145
internal_count=499 311 97 188 152 214 36
is_linear=0
shrinkage=0.03


Tree=16
num_leaves=8
num_cat=0
split_feature=2 21 9 29 5 1 14
split_gain=7.17 5.46714 7.65219 5.08106 4.95192 3.34579 2.10542
threshold=-0.24405385007782757 -1.0372814737524678 0.10525137003535524 0.77859101872851999 -0.21087598374689479 1.0217146172914588 0.47910624986539591
decision_type=2 2 2 2 2 2 2
left_child=3 5 -3 4 -1 -2 -5
right_child=1 2 -4 6 -6 -7 -8
leaf_value=-0.021629499651081588 -0.025238905885200679 -0.0059946989613363791 0.016193147443494777 -0.039049361650241241 0.0026879417977715451 0.0092337052554132167 -0.0016499143955554126
leaf_weight=9.8216056823730451 6.8406619876623136 19.961917281150818 41.265976801514626 5.8108485639095289 24.4082011282444 2.9717580080032349 2.2299450635910034
leaf_count=44 30 89 179 26 108 13 10
internal_value=-0.000284162 0.00546635 0.00887857 -0.0100099 -0.00445283 -0.0143242 -0.0304439
internal_weight=113.311 71.0403 61.2279 42.2706 34.2298 9.81242 8.04079
internal_count=499 311 268 188 152 43 36
is_linear=0
shrinkage=0.03


Tree=17
num_leaves=5
num_cat=0
split_feature=27 19 19 12
split_gain=4.86426 4.08347 5.05034 0.34658
threshold=-2.3693656763907645 1.6788264674834972 1.4424565025150877 0.30913211219297271
decision_type=2 2 2 2
left_child=-1 2 -2 -3
right_child=1 3 -4 -5
leaf_value=0.039309805225460591 -0.0016223540009713245 -0.033920106915119909 0.026183260111757586 -0.0069662685648334798
leaf_weight=1.9162050038576115 101.39171779155731 2.7202821075916281 5.4377010464668265 1.8176287561655042
leaf_count=8 447 12 24 8
internal_value=-0.000292222 -0.00130262 0 -0.0269101
internal_weight=113.284 111.367 106.829 4.53791
internal_count=499 491 471 20
is_linear=0
shrinkage=0.03


Tree=18
num_leaves=8
num_cat=0
split_feature=2 21 4 29 6 1 18
split_gain=6.76508 5.14766 5.08649 4.90083 6.41919 3.17904 0.67984
threshold=-0.24405385007782757 -1.0372814737524678 -0.29434186117050182 0.77859101872851999 -0.48934609882725416 1.0217146172914588 -0.94109838924690481
decision_type=2 2 2 2 2 2 2
left_child=3 5 -3 4 -1 -2 -5
right_child=1 2 -4 6 -6 -7 -8
leaf_value=-0.014450592763181671 -0.024673157471988907 -0.0090970815495599634 0.012653810356669733 -0.0055347970138669537 0.011552068796007791 0.0089197649059502785 -0.034627041591569985
leaf_weight=21.10378897190094 6.7856793403625471 10.991452172398565 50.369542077183723 1.7767568677663801 13.063027545809744 2.9802486151456833 6.1878052651882163
leaf_count=95 30 49 219 8 57 13 28
internal_value=-0.00027904 0.00529396 0.00859417 -0.00975056 -0.00430054 -0.0139546 -0.0299192
internal_weight=113.258 71.1269 61.361 42.1314 34.1668 9.76593 7.96456
internal_count=499 311 268 188 152 43 36
is_linear=0
shrinkage=0.03


Tree=19
num_leaves=8
num_cat=0
split_feature=9 9 14 16 27 24 21
split_gain=5.48735 9.92274 7.66093 4.5903 3.82382 3.8073 2.21996
threshold=0.29944023813006776 0.39793661122195123 1.0000000180025095e-35 -1.2135594979177751 -0.60279267382552049 0.64472271111776636 -0.022252086705883651
decision_type=2 2 2 2 2 2 2
left_child=3 6 -3 5 -5 -1 -2
right_child=1 2 -4 4 -6 -7 -8
leaf_value=-0.00042047370483584825 0.011990255639098437 -0.011045416084284977 0.014407591494802205 0.005248277152985547 -0.012336661079598592 0.043167587740852054 0.05982316088265769
leaf_weight=3.9330938607454291 2.2908157706260681 19.559204503893852 21.349057823419571 13.401164218783377 47.713425487279892 2.1473131328821182 2.82606416940689
leaf_count=17 10 85 92 60 214 9 12
internal_value=-0.000285062 0.00756476 0.00211562 -0.00577577 -0.00836575 0.0173301 0.0439391
internal_weight=113.22 46.0251 40.9083 67.195 61.1146 6.08041 5.11688
internal_count=499 199 177 300 274 26 22
is_linear=0
shrinkage=0.03


Tree=20
num_leaves=8
num_cat=0
split_feature=4 0 4 4 14 20 20
split_gain=9.51872 9.91477 6.64424 5.3392 9.20931 5.73852 0.143095
threshold=0.2245945741402702 -1.1931335927684865 0.95117044516308691 -0.87666782939419152 -0.40642527233152254 -1.2649797894423045 0.054236820081365822
decision_type=2 2 2 2 2 2 2
left_child=3 6 -3 4 -1 -5 -2
right_child=1 2 -4 5 -6 -7 -8
leaf_value=0.054076373178484245 0.060491220342000905 0.015130484822708691 -0.0087862769772031994 0.019253084112625669 -0.0011590766778433565 -0.014536117551388774 0.020364347429463487
leaf_weight=2.4920005500316647 2.8106531351804724 32.296514421701431 14.313163399696348 4.2728624045848838 14.286167353391646 38.380660846829414 1.8598219305276869
leaf_count=11 12 140 62 19 64 172 8
internal_value=0.00300617 0.0124146 0.00763511 -0.00506931 0.00879121 -0.010721 0.050924
internal_weight=110.712 51.2802 46.6097 59.4317 16.7782 42.6535 4.67048
internal_count=488 222 202 266 75 191 20
is_linear=0
shrinkage=0.03


Tree=21
num_leaves=8
num_cat=0
split_feature=2 24 17 25 25 16 13
split_gain=8.29665 9.64164 8.40181 7.8079 6.73556 6.11685 4.56977
threshold=-0.061807540309534219 1.0000000180025095e-35 0.89616064915810523 0.25430247962285812 -0.29678881340741298 -0.87494584938819309 -0.15291415078305814
decision_type=2 2 2 2 2 2 2
left_child=4 2 -2 -3 6 -6 -1
right_child=1 3 -4 -5 5 -7 -8
leaf_value=0.0010651857328477933 -0.014799031067297968 0.032582405175030346 0.015597656548425654 0.0027618792703687231 -0.022749688993833443 0.0093325944207340254 -0.031543385891566952
leaf_weight=5.0713126361370113 18.636913850903515 19.725029662251472 13.26975107192993 13.870606228709219 6.0986720174551037 22.616006180644035 11.44514626264572
leaf_count=23 82 85 57 61 27 101 52
internal_value=0.00294684 0.00975955 -0.00190152 0.0207955 -0.00678693 0.00188345 -0.0215979
internal_weight=110.733 65.5023 31.9067 33.5956 45.2311 28.7147 16.5165
internal_count=488 285 139 146 203 128 75
is_linear=0
shrinkage=0.03


Tree=22
num_leaves=8
num_cat=0
split_feature=4 0 15 7 11 20 20
split_gain=8.69868 9.24322 7.49939 6.36181 5.14163 2.12276 0.0691921
threshold=0.2245945741402702 -1.1931335927684865 -0.69656547156636861 0.14578503879975005 -0.59674924241576088 -1.0741843582894657 0.054236820081365822
decision_type=2 2 2 2 2 2 2
left_child=2 6 5 -3 -4 -1 -2
right_child=1 3 4 -5 -6 -7 -8
leaf_value=0 0.057683287548926224 0.014085334602618266 -0.014251973498449186 -0.0098606185582024788 0.0072470650411979509 -0.030100902229369311 0.019679945362539596
leaf_weight=2.6699885278940192 2.8636045902967444 33.655478239059448 13.403136953711508 13.104966565966604 32.896097913384438 10.30981959402561 1.8697925657033918
leaf_count=12 12 145 61 57 146 47 8
internal_value=0.00285565 0.0118193 -0.00488461 0.00719517 0.000759568 -0.0243282 0.0487711
internal_weight=110.773 51.4938 59.279 46.7604 46.2992 12.9798 4.7334
internal_count=488 222 266 202 207 59 20
is_linear=0
shrinkage=0.03


Tree=23
num_leaves=7
num_cat=0
split_feature=22 15 20 6 5 20
split_gain=7.12631 5.73774 7.50036 5.08253 3.96001 1.06171
threshold=-1.1615832586368207 -0.87214804770486376 -1.2763459079920574 1.371433738322767 0.59932991238100797 1.279782221489886
decision_type=2 2 2 2 2 2
left_child=4 3 -3 -2 5 -1
right_child=1 2 -4 -5 -6 -7
leaf_value=-0.037082490986615729 -0.018632438780227828 0.04053016732287025 0.0057177208880370553 0.02483424975948122 0.0078217101357387023 -0.0038463733016090049
leaf_weight=5.5542344599962217 12.979400873184202 5.3254739195108405 80.481071576476097 2.1104001402854911 2.6216460019350052 1.724482327699661
leaf_count=26 58 23 352 9 12 8
internal_value=0.00277755 0.00525626 0.00830202 -0.0112315 -0.0204271 -0.0311115
internal_weight=110.797 100.896 85.8065 15.0898 9.90036 7.27872
internal_count=488 442 375 67 46 34
is_linear=0
shrinkage=0.03


Tree=24
num_leaves=7
num_cat=0
split_feature=4 11 4 4 14 29
split_gain=8.06144 5.44305 6.29018 4.97137 8.61053 4.61955
threshold=0.2245945741402702 -1.1569252764592675 0.95117044516308691 -0.87666782939419152 -0.40642527233152254 -0.090732629729193381
decision_type=2 2 2 2 2 2
left_child=3 -2 -3 4 -1 -5
right_child=1 2 -4 5 -6 -7
leaf_value=0.052015882942731281 0.044844862006242457 0.015232636437553203 -0.0077391161022634537 -0.019404081891300776 -0.0011042024211189464 0
leaf_weight=2.5354005843400982 3.3370004296302787 33.768687680363655 14.578130587935446 22.315548375248909 14.262185618281363 20.041785836219788
leaf_count=11 14 145 63 102 64 89
internal_value=0.00269633 0.0113003 0.0081706 -0.00477137 0.00857289 -0.0102631
internal_weight=110.839 51.6838 48.3468 59.1549 16.7976 42.3573
internal_count=488 222 208 266 75 191
is_linear=0
shrinkage=0.03


Tree=25
num_leaves=7
num_cat=0
split_feature=2 21 13 16 14 11
split_gain=5.47777 5.8702 5.86039 3.76085 4.18773 2.50062
threshold=-0.32942161208518134 -1.0459903769025649 -1.0413287575640133 -1.3134482758569217 0.62840997517370323 0.60914490838001722
decision_type=2 2 2 2 2 2
left_child=3 5 -3 -1 -5 -2
right_child=1 2 -4 4 -6 -7
leaf_value=0.019650255425361304 -0.00062981007821848818 0.032846582287861012 0.0056858501696306083 -0.016146245294739809 0.0072343413334104018 -0.030962219762103314
leaf_weight=3.225721299648284 6.0774699300527555 7.6824508458375922 56.809457272291183 28.043665796518326 8.1435637176036817 3.8851536065340042
leaf_count=14 27 33 247 128 36 17
internal_value=0.00117622 0.00599012 0.00937602 -0.00770671 -0.0106798 -0.0144383
internal_weight=113.867 74.4545 64.4919 39.413 36.1872 9.96262
internal_count=502 324 280 178 164 44
is_linear=0
shrinkage=0.03


Tree=26
num_leaves=7
num_cat=0
split_feature=9 1 20 1 29 3
split_gain=5.15699 7.62025 6.63499 6.27725 3.76831 5.52527
threshold=-0.61619334853444629 0.68704250919794274 -0.67577649684473762 1.3464093166380848 0.37316324528963007 -0.2352096176500845
decision_type=2 2 2 2 2 2
left_child=4 2 -2 -3 5 -1
right_child=1 3 -4 -5 -6 -7
leaf_value=-0.0050980402817041469 -0.0029496024572272742 -0.019036666512553861 0.018232894087491913 0.0074058953906023933 0.017456845007088228 -0.038484725719345698
leaf_weight=17.005665376782424 19.234946027398109 17.05934523046017 38.158559918403625 13.742716133594511 2.9438185244798651 5.7059028446674338
leaf_count=78 84 75 167 59 13 26
internal_value=0.00114395 0.00464014 0.0110877 -0.00716031 -0.010425 -0.0147652
internal_weight=113.851 88.1956 57.3935 30.8021 25.6554 22.7116
internal_count=502 385 251 134 117 104
is_linear=0
shrinkage=0.03


Tree=27
num_leaves=8
num_cat=0
split_feature=2 0 0 20 6 2 2
split_gain=5.09777 5.82707 6.90972 5.37995 3.52008 11.3268 4.6138
threshold=-0.32942161208518134 -0.69949417247925016 0.60088741182158012 0.28101298077133996 -0.28491608283655395 -0.69611746458477641 -0.59802311348527859
decision_type=2 2 2 2 2 2 2
left_child=4 3 -3 -2 6 -6 -1
right_child=1 2 -4 -5 5 -7 -8
leaf_value=-0.022034101040359438 0.036518943775104742 -0.0064839765465444076 0.01300297078197025 -0.011694016001612705 0.020289948512283953 -0.02543691171771641 0.013196264975621699
leaf_weight=17.318247884511951 8.0986483693122846 35.703846409916878 28.70631605386734 2.0758607387542716 11.311108842492105 7.3348076790571204 3.3132930397987357
leaf_count=80 35 156 124 9 50 33 15
internal_value=0.00110053 0.00573483 0.00216193 0.0260001 -0.00748874 0.00168721 -0.015815
internal_weight=113.862 74.5847 64.4102 10.1745 39.2775 18.6459 20.6315
internal_count=502 324 280 44 178 83 95
is_linear=0
shrinkage=0.03


Tree=28
num_leaves=8
num_cat=0
split_feature=2 21 0 4 4 21 11
split_gain=4.81027 5.51346 5.94289 5.01798 6.04022 2.79195 2.4294
threshold=-0.32942161208518134 -1.0459903769025649 -0.59615394053776605 -0.44952701534456901 -0.73007489829837724 0.48742618981805658 0.60914490838001722
decision_type=2 2 2 2 2 2 2
left_child=3 6 -3 4 -1 -5 -2
right_child=1 2 -4 5 -6 -7 -8
leaf_value=-0.0063042769242804856 -0.0006453173233500946 0.028771994758315159 0.0045082235019023205 -0.026991534589735335 0.029206364061609619 -0.00015455462346507351 -0.03061035557434446
leaf_weight=17.182786196470264 6.0744999051094037 10.486771449446676 54.25896717607975 11.640256673097612 4.8408679068088523 5.4939094781875601 3.8608377724885941
leaf_count=78 27 45 235 53 22 25 17
internal_value=0.00106841 0.00556239 0.00883293 -0.00729203 0.00198832 -0.0191118 -0.0142619
internal_weight=113.839 74.6811 64.7457 39.1578 22.0237 17.1342 9.93534
internal_count=502 324 280 178 100 78 44
is_linear=0
shrinkage=0.03


Tree=29
num_leaves=8
num_cat=0
split_feature=9 1 20 1 21 18 6
split_gain=4.71079 7.13617 6.12068 5.94656 4.5631 7.59641 1.61685
threshold=-0.61619334853444629 0.68704250919794274 -0.67577649684473762 1.3464093166380848 -0.27239135940016057 0.23303275167757739 -1.3067139323267889
decision_type=2 2 2 2 2 2 2
left_child=4 2 -2 -3 5 -1 -6
right_child=1 3 -4 -5 6 -7 -8
leaf_value=-0.017474272721841252 -0.0029118583427025823 -0.018682241027692 0.017412721038416155 0.0070630358530947993 -0.035746005739831617 0.028009404434967154 -0.011530094955678163
leaf_weight=6.3087275028228778 19.207689955830574 16.97309194505215 38.380838096141815 13.77101221680641 4.4694824367761603 5.3222471177577972 9.4048653095960599
leaf_count=29 84 75 167 59 21 24 43
internal_value=0.00103015 0.00436271 0.010584 -0.00707345 -0.0100651 0.00331918 -0.0212634
internal_weight=113.838 88.3326 57.5885 30.7441 25.5053 11.631 13.8743
internal_count=502 385 251 134 117 53 64
is_linear=0
shrinkage=0.03


Tree=30
num_leaves=6
num_cat=0
split_feature=20 25 24 29 2
split_gain=5.13082 4.73705 4.70299 6.08918 6.04358
threshold=1.5566391218130795 0.60732543173842102 -0.21159535125181561 0.24786491172051892 1.2018911065161602
decision_type=2 2 2 2 2
left_child=2 -2 3 -1 -4
right_child=1 -3 4 -5 -6
leaf_value=-0.018268791949336009 -0.035089950229642265 0.006384444697075364 0.011368335331728568 0.003451576042757734 -0.015647138406821283
leaf_weight=19.24229334294796 6.2040097862482053 3.1654756218194962 46.823590457439423 26.325405135750771 7.9489545822143546
leaf_count=86 28 14 207 115 34
internal_value=-0.00074628 -0.0210879 0.00124561 -0.00574803 0.00717089
internal_weight=109.71 9.36949 100.34 45.5677 54.7725
internal_count=484 42 442 201 241
is_linear=0
shrinkage=0.03


Tree=31
num_leaves=6
num_cat=0
split_feature=20 25 24 0 2
split_gain=4.88005 4.56406 4.42105 7.63924 5.70407
threshold=1.5566391218130795 0.60732543173842102 -0.21159535125181561 0.49389950004192912 1.2018911065161602
decision_type=2 2 2 2 2
left_child=2 -2 3 -1 -4
right_child=1 -3 4 -5 -6
leaf_value=-0.016452223387827227 -0.034518667673302819 0.0062223608712495496 0.010996690423001238 0.0077792736900393076 -0.015275977045103785
leaf_weight=25.240138962864876 6.1318198144435865 3.1712443381547928 46.978491231799126 20.240978598594666 7.917743355035781
leaf_count=113 28 14 207 88 34
internal_value=-0.000733778 -0.0206439 0.00120085 -0.0055905 0.00693464
internal_weight=109.68 9.30306 100.377 45.4811 54.8962
internal_count=484 42 442 201 241
is_linear=0
shrinkage=0.03


Tree=32
num_leaves=6
num_cat=0
split_feature=20 25 24 0 2
split_gain=4.64318 4.39921 4.1545 7.23732 5.38455
threshold=1.5566391218130795 0.60732543173842102 -0.21159535125181561 0.49389950004192912 1.2018911065161602
decision_type=2 2 2 2 2
left_child=2 -2 3 -1 -4
right_child=1 -3 4 -5 -6
leaf_value=-0.016056657792945062 -0.033967506248448666 0.0060646463388803942 0.010638907314344217 0.0075399515248804738 -0.014913973178432106
leaf_weight=25.107823193073273 6.0584693104028684 3.1768214106559753 47.126220360398293 20.281698346138 7.8865273594856253
leaf_count=113 28 14 207 88 34
internal_value=-0.000720345 -0.0202134 0.001159 -0.00543496 0.00670693
internal_weight=109.638 9.23529 100.402 45.3895 55.0127
internal_count=484 42 442 201 241
is_linear=0
shrinkage=0.03


Tree=33
num_leaves=6
num_cat=0
split_feature=20 25 25 15 2
split_gain=4.41876 4.24194 3.9791 5.66646 4.36155
threshold=1.5566391218130795 0.60732543173842102 0.0703428007504555 -0.82744997612667925 -0.15367181583374412
decision_type=2 2 2 2 2
left_child=2 -2 4 -4 -1
right_child=1 -3 3 -5 -6
leaf_value=-0.0049834098434850269 -0.033435076546936615 0.0059111687062820993 -0.028459242752415143 -0.00038385189207444512 0.013198647642617623
leaf_weight=16.969660192728043 5.9841644018888456 3.1822138726711273 6.9297464936971656 42.735676184296608 33.784611776471138
leaf_count=78 28 14 31 188 145
internal_value=-0.000707217 -0.0197955 0.00111858 -0.00480911 0.00702011
internal_weight=109.586 9.16638 100.42 49.6654 50.7543
internal_count=484 42 442 219 223
is_linear=0
shrinkage=0.03


Tree=34
num_leaves=7
num_cat=0
split_feature=11 0 24 2 15 16
split_gain=4.22137 6.44601 6.16697 4.45865 3.88616 2.16152
threshold=1.1266926975895553 0.60088741182158012 -0.84269712385457052 -0.28088449508780006 1.6746398494508592 1.4328964692302348
decision_type=2 2 2 2 2 2
left_child=1 2 -1 -3 5 -2
right_child=4 3 -4 -5 -6 -7
leaf_value=-0.017667546545142614 -0.030814353932511116 -0.006706839098995737 0.0021561471813981823 0.02207778402534296 0.014113251298049729 -0.00065508047016388184
leaf_weight=18.117194756865501 8.0757661461830121 5.7237915992736843 53.835387796163559 17.948530077934265 2.4137818217277518 3.4111071676015845
leaf_count=82 36 26 238 77 10 15
internal_value=-0.000699287 0.00153232 -0.00289225 0.014881 -0.015707 -0.0229725
internal_weight=109.526 95.6249 71.9526 23.6723 13.9007 11.4869
internal_count=484 423 320 103 61 51
is_linear=0
shrinkage=0.03


Tree=35
num_leaves=5
num_cat=0
split_feature=4 13 12 13
split_gain=4.11307 4.0226 6.33017 4.85249
threshold=1.765569724630764 -0.34461455476577024 -0.41708762660735749 0.13138501770225205
decision_type=2 2 2 2
left_child=1 2 -1 -3
right_child=-2 3 -4 -5
leaf_value=0.0023653844643917619 -0.029224806782002972 0.016484702508298206 -0.020357871938353825 -0.00010371423037269032
leaf_weight=34.341607347130775 3.219897896051406 25.653620675206184 15.124527513980864 37.878557369112968
leaf_count=151 14 113 68 167
internal_value=0.000525745 0.0016257 -0.00467643 0.00662295
internal_weight=116.218 112.998 49.4661 63.5322
internal_count=513 499 219 280
is_linear=0
shrinkage=0.03


Tree=36
num_leaves=8
num_cat=0
split_feature=20 20 18 20 12 22 15
split_gain=4.39529 9.89485 5.3678 4.97929 4.97874 2.97951 2.8203
threshold=-0.61672789073166467 -1.0506844347873103 -0.61410206337334117 -0.38424049536150867 -0.39585753966131726 0.58346361088365628 2.197757860560785
decision_type=2 2 2 2 2 2 2
left_child=1 4 5 -4 -1 -2 -3
right_child=2 6 3 -5 -6 -7 -8
leaf_value=0.025744780684578628 0.00065388957918880233 -0.024388086963597063 0.030081316317794076 0.0054570642537123508 -0.0051189803662826279 -0.02107042423392284 0.0090695940390735363
leaf_weight=7.68689797818661 14.178773730993273 19.540341436862949 8.3802199661731702 46.951025307178497 9.5256976783275586 8.1095234751701337 1.8605105876922596
leaf_count=33 64 88 36 206 42 36 8
internal_value=0.000499898 -0.00761912 0.00465191 0.00966901 0.00886248 -0.00744676 -0.0209871
internal_weight=116.233 38.6134 77.6195 55.3312 17.2126 22.2883 21.4009
internal_count=513 171 342 242 75 100 96
is_linear=0
shrinkage=0.03


Tree=37
num_leaves=8
num_cat=0
split_feature=20 20 8 0 12 3 6
split_gain=4.14145 9.39042 7.32796 6.16114 5.94876 4.84 4.83582
threshold=-0.61672789073166467 -1.0506844347873103 -0.61336950207963403 -1.1096762665918807 -0.70884480324388444 0.063047502483613641 -1.2787135910186349
decision_type=2 2 2 2 2 2 2
left_child=1 5 4 -3 -2 -1 -4
right_child=2 3 6 -5 -6 -7 -8
leaf_value=-0.0051856199785678013 -0.017885916856647623 0.023830406315414734 -0.032594407673394603 -0.02566698302590506 0.033479220979275817 0.025208195039457832 0.0023641857577691699
leaf_weight=9.5276534706354159 1.7761644423007954 1.7923106849193597 2.9700968712568274 19.458496764302254 10.546743318438528 7.717015713453292 62.406183376908302
leaf_count=42 8 8 14 88 47 33 273
internal_value=0.000489721 -0.00740684 0.00451406 -0.0205071 0.0249795 0.00859774 0.00031049
internal_weight=116.195 38.4955 77.6992 21.2508 12.3229 17.2447 65.3763
internal_count=513 171 342 96 55 75 287
is_linear=0
shrinkage=0.03


Tree=38
num_leaves=5
num_cat=0
split_feature=4 20 20 8
split_gain=3.91935 4.21841 8.91954 5.98704
threshold=1.765569724630764 -0.61672789073166467 -1.0741843582894657 -0.61336950207963403
decision_type=2 2 2 2
left_child=1 2 -1 -3
right_child=-2 3 -4 -5
leaf_value=0.0096912102700566216 -0.028686639288026238 0.024061567309043193 -0.01905200767571642 0.001686823924437864
leaf_weight=16.343465611338615 3.1884287148714057 12.420511245727537 21.345841467380524 62.875515177845955
leaf_count=71 14 55 97 276
internal_value=0.00047292 0.00154443 -0.00648964 0.00567067
internal_weight=116.174 112.985 37.6893 75.296
internal_count=513 499 168 331
is_linear=0
shrinkage=0.03


Tree=39
num_leaves=5
num_cat=0
split_feature=4 2 25 29
split_gain=3.75591 3.92875 7.03187 5.5564
threshold=1.765569724630764 -0.24405385007782757 0.60732543173842102 -1.6807294466952161
decision_type=2 2 2 2
left_child=1 3 -3 -1
right_child=-2 2 -4 -5
leaf_value=0.033269488020071888 -0.028185254715308139 0.013090497034077178 -0.0061206371830674674 -0.0085715686015521899
leaf_weight=2.2445032447576514 3.162418693304061 44.377997577190399 26.538107186555862 39.846791610121727
leaf_count=10 14 191 116 182
internal_value=0.000455471 0.00150217 0.00582959 -0.0056216
internal_weight=116.17 113.007 70.9161 42.0913
internal_count=513 499 307 192
is_linear=0
shrinkage=0.03


Tree=40
num_leaves=5
num_cat=0
split_feature=8 24 9 20
split_gain=4.72991 5.17408 7.10251 5.20579
threshold=-2.4704140115451145 1.0000000180025095e-35 0.23495595614371301 -0.67577649684473762
decision_type=2 2 2 2
left_child=-1 3 -3 -2
right_child=1 2 -4 -5
leaf_value=0.036189643877346141 -0.022603204640280865 -0.0051384887334417241 0.016035982051676535 -0.0027653871272351398
leaf_weight=2.0801960825920096 16.951637610793114 33.153599426150322 23.556705549359322 39.673443794250488
leaf_count=9 77 148 100 176
internal_value=-0.00165917 -0.00265523 0.00365349 -0.0090408
internal_weight=115.416 113.335 56.7103 56.6251
internal_count=510 501 248 253
is_linear=0
shrinkage=0.03


Tree=41
num_leaves=7
num_cat=0
split_feature=16 29 26 28 6 6
split_gain=6.17778 5.53913 5.30273 4.97695 4.64126 2.18096
threshold=-1.2135594979177751 -0.60999578422730116 -0.44026526493625262 0.64815013003808064 1.1399857405036879 0.75572580847719861
decision_type=2 2 2 2 2 2
left_child=1 -1 4 -4 -2 -3
right_child=2 5 3 -5 -6 -7
leaf_value=-0.011660546093786145 -0.020261426601391609 0.042794763930030615 0.0060478895207287135 -0.0098353058479995082 0.0083876770352643727 0.00413126462230088
leaf_weight=2.9531294405460358 23.777125164866451 5.013243690133093 48.695409744977951 26.851838558912277 5.6055641323328009 2.4081230610609055
leaf_count=13 108 21 215 119 24 10
internal_value=-0.00160713 0.0195326 -0.00388595 0.000280016 -0.0145196 0.0326016
internal_weight=115.304 10.3745 104.93 75.5472 29.3827 7.42137
internal_count=510 44 466 334 132 31
is_linear=0
shrinkage=0.03


Tree=42
num_leaves=6
num_cat=0
split_feature=16 18 8 9 8
split_gain=5.84217 5.47345 5.09701 4.97621 3.61794
threshold=-1.2135594979177751 -0.46289481818010153 -2.4704140115451145 0.23495595614371301 -0.16169002769663321
decision_type=2 2 2 2 2
left_child=1 4 -2 -4 -1
right_child=2 -3 3 -5 -6
leaf_value=-0.028607891265994598 0.035296735175897674 0.043708969649195351 -0.010834835184315477 0.0022757486461890243 0.014489264031131445
leaf_weight=1.7519684582948682 2.0970009565353385 3.8886936306953412 56.436146065592766 46.256555467844009 4.7632130980491638
leaf_count=8 9 16 257 200 20
internal_value=-0.00155407 0.0189701 -0.00377689 -0.00489943 0.000218782
internal_weight=115.194 10.4039 104.79 102.693 6.51518
internal_count=510 44 466 457 28
is_linear=0
shrinkage=0.03


Tree=43
num_leaves=7
num_cat=0
split_feature=16 18 26 28 8 8
split_gain=5.51965 5.18558 4.99568 4.7428 4.19409 3.47039
threshold=-1.2135594979177751 -0.46289481818010153 -0.44026526493625262 0.64815013003808064 -0.61336950207963403 -0.16169002769663321
decision_type=2 2 2 2 2 2
left_child=1 5 4 -4 -2 -1
right_child=2 -3 3 -5 -6 -7
leaf_value=-0.02821076157276739 0.014509713863194558 0.042440203571442396 0.0059978627951052261 -0.0095226744272751962 -0.018168369039824658 0.014084921619307689
leaf_weight=1.7348534464836118 3.2592224478721645 3.9084021300077421 48.704422265291214 26.750684648752213 25.913529098033905 4.7757259160280228
leaf_count=8 15 16 215 119 117 20
internal_value=-0.00149361 0.0184374 -0.00366012 0.000374592 -0.0140275 0.000140005
internal_weight=115.047 10.419 104.628 75.4551 29.1728 6.51058
internal_count=510 44 466 334 132 28
is_linear=0
shrinkage=0.03


Tree=44
num_leaves=5
num_cat=0
split_feature=14 8 15 25
split_gain=4.83764 4.65812 3.99303 1.87785
threshold=-1.2303377609036914 -2.4704140115451145 -0.83565841307972843 0.64946378712570396
decision_type=2 2 2 2
left_child=3 -2 -3 -1
right_child=1 2 -4 -5
leaf_value=0.038245321544088072 0.034437993239652846 -0.017905244368955572 -0.0014354454346019343 0
leaf_weight=2.8821627497673026 2.1125901043415061 14.912166222929953 93.182898834347725 1.8414273709058759
leaf_count=12 9 68 413 8
internal_value=-0.00144347 -0.00284605 -0.00387747 0.025867
internal_weight=114.931 110.208 108.095 4.72359
internal_count=510 490 481 20
is_linear=0
shrinkage=0.03


Tree=45
num_leaves=7
num_cat=0
split_feature=18 3 8 29 20 5
split_gain=5.10027 6.59672 6.50341 3.89147 3.76824 3.39147
threshold=-0.58197360966668987 1.6461226660837807 1.0342192615069721 1.5665066311735998 -1.2649797894423045 1.1345457629476854
decision_type=2 2 2 2 2 2
left_child=2 3 4 -2 -1 -3
right_child=1 5 -4 -5 -6 -7
leaf_value=0.020487206772962906 0.009010516717862389 -0.036329897710574488 0.029060235810548882 -0.024814350899350843 -0.016968830724922779 0.0031543203345750608
leaf_weight=1.8436449319124282 74.169342547655106 4.16169150173664 2.7556730508804312 2.3487437069416037 26.115129321813583 2.610431507229805
leaf_count=8 327 19 12 10 119 11
internal_value=0.0011206 0.00501697 -0.00911419 0.00764864 -0.0137891 -0.0215924
internal_weight=114.005 83.2902 30.7144 76.5181 27.9588 6.77212
internal_count=506 367 139 337 127 30
is_linear=0
shrinkage=0.03


Tree=46
num_leaves=8
num_cat=0
split_feature=10 9 13 29 13 1 21
split_gain=6.6677 8.38878 5.80064 4.93426 3.8248 4.45282 3.762
threshold=0.89894760338032287 0.29251004222120081 -0.43273103840164823 -0.2325702065236385 -0.60845761059032333 1.5438569494607646 -0.50941100778361503
decision_type=2 2 2 2 2 2 2
left_child=1 2 -1 -3 6 -6 -2
right_child=4 3 -4 -5 5 -7 -8
leaf_value=-0.013201297432298583 0.027400615975546893 0.035277859058149272 0.0051548204778141659 0.00835755816560068 -0.033306555905702799 0 -0.019605335122303624
leaf_weight=23.66420516371727 2.7900818884372711 9.0303887277841586 41.082696944475174 20.602909609675407 9.4562284201383573 5.5660411715507498 1.8120661377906824
leaf_count=108 12 38 186 88 42 24 8
internal_value=0.00108261 0.00446111 -0.00154182 0.01747 -0.0144103 -0.0215823 0.0076192
internal_weight=114.005 94.3802 64.7469 29.6333 19.6244 15.0223 4.60215
internal_count=506 420 294 126 86 66 20
is_linear=0
shrinkage=0.03


Tree=47
num_leaves=8
num_cat=0
split_feature=16 16 3 6 22 12 11
split_gain=4.89483 9.05151 6.096 6.05488 5.16412 3.18764 2.56502
threshold=-0.65294391630580251 -1.2135594979177751 1.4891067958351785 1.0115276278661163 -0.72532154125670145 0.52740040551487832 -0.19934187314830812
decision_type=2 2 2 2 2 2 2
left_child=1 6 4 -3 -2 -4 -1
right_child=2 3 5 -5 -6 -7 -8
leaf_value=-0.0090697099461810541 -0.005588852520479741 -0.027580255996377378 -0.032398650663437195 0.006269708783319926 0.012139099002198171 0.0043889494480836002 0.024744969614451055
leaf_weight=2.0008452832698822 18.891897529363632 16.867049485445026 4.8353209048509589 5.7945279330015174 56.345366358757019 2.7076893299818039 6.5367137193679827
leaf_count=9 88 77 22 25 246 12 27
internal_value=0.00105145 -0.00886812 0.00491092 -0.0187505 0.00759678 -0.0193194 0.0160796
internal_weight=113.979 31.1991 82.7803 22.6616 75.2373 7.54301 8.53756
internal_count=506 138 368 102 334 34 36
is_linear=0
shrinkage=0.03


Tree=48
num_leaves=7
num_cat=0
split_feature=10 9 17 13 16 13
split_gain=6.27054 6.9201 5.49672 5.36119 5.29887 4.09531
threshold=0.84605474659462154 0.29251004222120081 -0.57962748550025511 -0.43273103840164823 -0.52595166141650662 -0.94714198621076962
decision_type=2 2 2 2 2 2
left_child=1 3 -2 -1 -3 -4
right_child=2 4 5 -5 -6 -7
leaf_value=-0.012253044946815112 0.019812030624315975 -0.0047896818772084548 0.010764652854836939 0.005569259739249645 0.024153367656278187 -0.024762702299081344
leaf_weight=23.086680337786674 3.0900434553623226 6.9617959260940578 2.7846483439207139 40.685521095991135 20.935699969530106 16.392466634511944
leaf_count=106 13 30 12 184 88 73
internal_value=0.00101186 0.0045439 -0.012922 -0.000861685 0.0167894 -0.0190791
internal_weight=113.937 91.6697 22.2672 63.7722 27.8975 19.1771
internal_count=506 408 98 290 118 85
is_linear=0
shrinkage=0.03


Tree=49
num_leaves=7
num_cat=0
split_feature=10 9 19 13 17 13
split_gain=5.93948 7.34338 5.81136 5.06909 4.42941 4.91777
threshold=0.89894760338032287 0.29251004222120081 -1.3792130272947734 -0.43273103840164823 -0.57962748550025511 -0.94714198621076962
decision_type=2 2 2 2 2 2
left_child=1 3 -3 -1 -2 -6
right_child=4 2 -4 -5 5 -7
leaf_value=-0.012459804289347048 0.016496628785815159 -0.023097940717383386 0.020320153578896872 0.004743580889511545 0.013609956342433574 -0.026770438980328125
leaf_weight=23.40316416323185 2.8515439778566387 2.2854095548391369 27.539780303835869 41.240325793623924 2.5895792096853318 13.987849175930018
leaf_count=108 12 10 116 186 11 63
internal_value=0.000984763 0.00416146 0.0162808 -0.00146913 -0.0137183 -0.0197811
internal_weight=113.898 94.4687 29.8252 64.6435 19.429 16.5774
internal_count=506 420 126 294 86 74
is_linear=0
shrinkage=0.03


Tree=50
num_leaves=8
num_cat=0
split_feature=1 18 20 17 28 19 1
split_gain=6.12419 6.37623 7.1499 5.19803 5.09079 4.89003 4.59461
threshold=0.7200859488470539 -0.57538287296519586 -0.65630126250368714 -0.62122528996671444 1.8756764498980238 -0.22783681074000267 0.55131703236450547
decision_type=2 2 2 2 2 2 2
left_child=1 6 -3 5 -5 -2 -1
right_child=3 2 -4 4 -6 -7 -8
leaf_value=-0.013950739467508286 0.036754568289651582 -0.0040015248119574269 0.01774414830162788 -0.023322664042198155 0.013251777820920376 -0.010182459615173922 0.023421984872294625
leaf_weight=18.278046533465389 2.882820725440979 19.35893177986145 40.339028254151344 18.762779697775844 3.3826659917831412 3.4992402195930508 2.6598144173622122
leaf_count=85 12 87 175 85 14 15 12
internal_value=0.00135453 0.00562644 0.0106336 -0.0103399 -0.0172073 0.0119163 -0.00823987
internal_weight=109.163 80.6358 59.698 28.5275 22.1454 6.38206 20.9379
internal_count=485 359 262 126 99 27 97
is_linear=0
shrinkage=0.03


Tree=51
num_leaves=5
num_cat=0
split_feature=27 10 6 13
split_gain=6.54434 6.43 8.72647 5.25962
threshold=-1.9029143210580379 0.27809228422955373 0.65839574074840146 -0.83970660536840491
decision_type=2 2 2 2
left_child=-1 2 -2 -3
right_child=1 3 -4 -5
leaf_value=0.037945504644946428 0.0015702248934458143 0.012624732450910127 0.036732137893496594 -0.015313856329428888
leaf_weight=3.4231449365615836 62.002636671066284 6.6322418898344031 6.3522136509418479 30.693635791540146
leaf_count=14 278 29 28 136
internal_value=0.00132043 -8.57299e-05 0.00531171 -0.0100315
internal_weight=109.104 105.681 68.3549 37.3259
internal_count=485 471 306 165
is_linear=0
shrinkage=0.03


Tree=52
num_leaves=5
num_cat=0
split_feature=27 1 1 9
split_gain=6.21244 7.0814 5.55586 4.33091
threshold=-1.9029143210580379 0.7200859488470539 0.5797113063620033 1.0656917762444389
decision_type=2 2 2 2
left_child=-1 2 -2 -3
right_child=1 3 -4 -5
leaf_value=0.03694513841685132 0.0023029316128143659 -0.021886625518808191 0.036188177057104601 0.0025650791491991635
leaf_weight=3.4318797439336768 75.167324990034103 17.292157337069515 3.8853503167629233 9.3143962472677213
leaf_count=14 335 78 17 41
internal_value=0.00129962 -7.07332e-05 0.00438936 -0.0132827
internal_weight=109.091 105.659 79.0527 26.6066
internal_count=485 471 352 119
is_linear=0
shrinkage=0.03


Tree=53
num_leaves=5
num_cat=0
split_feature=27 1 1 9
split_gain=5.90198 6.70216 5.23438 4.13267
threshold=-1.9029143210580379 0.7200859488470539 0.5797113063620033 1.0656917762444389
decision_type=2 2 2 2
left_child=-1 2 -2 -3
right_child=1 3 -4 -5
leaf_value=0.035992128892111959 0.0022330915031731099 -0.02140487557195795 0.035006123519855235 0.0024926504942053497
leaf_weight=3.43814793229103 75.216890558600426 17.170764148235325 3.9224835187196723 9.3206409215927106
leaf_count=14 335 78 17 41
internal_value=0.00127583 -5.98157e-05 0.00426659 -0.0129504
internal_weight=109.069 105.631 79.1394 26.4914
internal_count=485 471 352 119
is_linear=0
shrinkage=0.03


Tree=54
num_leaves=7
num_cat=0
split_feature=1 1 20 0 7 21
split_gain=5.00921 6.44991 5.91228 5.13232 8.59491 2.37856
threshold=0.68704250919794274 0.5797113063620033 -0.67577649684473762 0.64536846075469023 0.14578503879975005 -0.81512963167370323
decision_type=2 2 2 2 2 2
left_child=1 2 -1 5 -5 -2
right_child=3 -3 -4 4 -6 -7
leaf_value=-0.0085828656435258232 0 0.040913894069578925 0.0088643857052042811 0.02176869261170342 -0.017716786319019552 -0.033242224350456435
leaf_weight=25.238946378231049 2.7988104075193405 3.528225138783454 51.505093395709991 8.3946768939495104 9.9647956490516645 7.6090215593576449
leaf_count=114 13 15 227 36 45 35
internal_value=0.00125247 0.00514662 0.00301975 -0.00925607 0.000179468 -0.0252605
internal_weight=109.04 80.2723 76.744 28.7673 18.3595 10.4078
internal_count=485 356 341 129 81 48
is_linear=0
shrinkage=0.03


Tree=55
num_leaves=6
num_cat=0
split_feature=21 26 7 19 1
split_gain=4.19738 8.0504 5.77419 5.65964 4.62644
threshold=-1.0459903769025649 -0.071270007631967211 -0.68801682852981261 1.6051988285895387 1.5118618293133144
decision_type=2 2 2 2 2
left_child=1 2 -1 4 -2
right_child=3 -3 -4 -5 -6
leaf_value=-0.025375575840602824 0.00023171222142867183 -0.035684673229574249 0.021776766099578786 0.038066420948906124 0.022708354081456272
leaf_weight=2.6833485066890708 88.166231647133827 6.5933741629123679 6.1287812739610663 3.4298417866230002 8.3626492321491224
leaf_count=12 392 30 27 15 36
internal_value=0.00167317 -0.0124239 0.00587741 0.00398673 0.00241124
internal_weight=115.364 15.4055 8.81213 99.9587 96.5289
internal_count=512 69 39 443 428
is_linear=0
shrinkage=0.03


Tree=56
num_leaves=7
num_cat=0
split_feature=21 27 7 2 27 24
split_gain=3.99865 8.02274 5.66196 5.5125 4.35752 4.30969
threshold=-1.0459903769025649 -0.17775093368876468 0.12968841701341202 -0.43669626254632343 -0.41912624715966984 1.3723197689872835
decision_type=2 2 2 2 2 2
left_child=1 -1 -3 4 -2 -5
right_child=3 2 -4 5 -6 -7
leaf_value=-0.036053404462143758 0.0088974373093271206 0.02370519246824097 -0.020846911500858659 0.010843241766139497 -0.01484692993779861 -0.013320065491129048
leaf_weight=6.3496524393558493 9.5607149004936236 5.5359039008617383 3.4559825509786606 64.325309321284294 19.650666952133179 6.5037447959184638
leaf_count=29 43 24 16 281 91 28
internal_value=0.00162794 -0.0121611 0.00566487 0.00388175 -0.0068456 0.00841674
internal_weight=115.382 15.3415 8.99189 100.04 29.2114 70.8291
internal_count=512 69 40 443 134 309
is_linear=0
shrinkage=0.03


Tree=57
num_leaves=6
num_cat=0
split_feature=21 27 28 19 2
split_gain=3.79526 7.68579 5.66966 5.31442 5.76559
threshold=-1.0459903769025649 -0.17775093368876468 -0.24754927890401476 1.6051988285895387 -0.43669626254632343
decision_type=2 2 2 2 2
left_child=1 -1 -3 4 -2
right_child=3 2 -4 -5 -6
leaf_value=-0.035461489246207512 -0.0090476392504764847 0.027945440274447435 -0.015763286321694561 0.036621393836059217 0.0069155367839501018
leaf_weight=6.2764336168766013 27.797542750835419 4.3883060663938513 4.6122809797525397 3.4691175222396842 68.847873330116272
leaf_count=29 128 19 21 15 300
internal_value=0.00156626 -0.0118969 0.00547663 0.00375816 0.00222599
internal_weight=115.392 15.277 9.00059 100.115 96.6454
internal_count=512 69 40 443 428
is_linear=0
shrinkage=0.03


Tree=58
num_leaves=8
num_cat=0
split_feature=20 27 2 11 27 12 3
split_gain=3.27137 4.65325 7.11925 4.90351 4.17794 5.38384 2.1735
threshold=-1.0459610767630994 0.56908129133363505 0.082798592072012789 1.151359989164038 0.54763190500069336 -0.23420077303063627 0.38786011539956594
decision_type=2 2 2 2 2 2 2
left_child=4 3 -3 -2 5 -1 -6
right_child=1 2 -4 -5 6 -7 -8
leaf_value=0.039442815661439895 -0.0024542040543784967 -0.0061952468265993469 0.023866625344128579 -0.032464166857056637 -0.021359190916900767 0.0011772478104893132 0.010159637256448691
leaf_weight=6.5583962649106988 64.724661469459534 12.593121632933618 14.060088843107222 4.595276713371276 3.3535417318344107 6.71714110672474 2.7852856665849686
leaf_count=28 287 58 61 21 15 30 12
internal_value=0.00151924 -0.000726209 0.00967779 -0.00487684 0.0125057 0.0216749 -0.00667131
internal_weight=115.388 95.9731 26.6532 69.3199 19.4144 13.2755 6.13883
internal_count=512 427 119 308 85 58 27
is_linear=0
shrinkage=0.03


Tree=59
num_leaves=6
num_cat=0
split_feature=21 27 17 19 2
split_gain=3.59959 7.32613 7.17567 4.93179 5.33831
threshold=-1.0459903769025649 -0.17775093368876468 -0.066089502967848837 1.6051988285895387 -0.43669626254632343
decision_type=2 2 2 2 2
left_child=1 -1 -3 4 -2
right_child=3 2 -4 -5 -6
leaf_value=-0.034862641324479367 -0.0087535767623494638 0.024502339673543719 -0.026225574833957727 0.035112088777198187 0.0066230202911403994
leaf_weight=6.1986280381679526 27.684498742222786 5.8163610696792594 3.2019704878330222 3.5092795044183722 68.972043186426163
leaf_count=29 128 25 15 15 300
internal_value=0.00147388 -0.0116644 0.0052109 0.00360586 0.00212157
internal_weight=115.383 15.217 9.01833 100.166 96.6565
internal_count=512 69 40 443 428
is_linear=0
shrinkage=0.03


Tree=60
num_leaves=7
num_cat=0
split_feature=16 26 25 24 11 15
split_gain=3.68536 4.83717 4.52207 4.37677 3.38167 2.6999
threshold=-1.2135594979177751 2.1195669339838745 1.4304578722265664 0.64472271111776636 -0.19934187314830812 2.1487214536348893
decision_type=2 2 2 2 2 2
left_child=3 2 -2 4 -1 -3
right_child=1 5 -4 -5 -6 -7
leaf_value=-0.027310840366077966 -0.0051459597080714906 0.039889620571256751 0.02718722658290379 0.042591583184878851 0.013544610037340119 0.0013899436504913171
leaf_weight=1.7091707885265348 96.052453681826591 2.8220069259405127 3.2204153090715399 2.9422318935394287 5.7122329920530301 3.7326548993587494
leaf_count=8 430 12 14 12 24 16
internal_value=-0.000301293 -0.0020662 -0.00382816 0.0160401 0.00166372 0.0213172
internal_weight=116.191 105.828 99.2729 10.3636 7.4214 6.55466
internal_count=516 472 444 44 32 28
is_linear=0
shrinkage=0.03


Tree=61
num_leaves=8
num_cat=0
split_feature=12 6 3 19 28 9 18
split_gain=4.86078 4.78604 7.31439 6.11274 3.01704 4.00235 0.412129
threshold=-0.72968941130184473 -1.3067139323267889 -0.99921583963175498 0.8336699785498386 0.22768458635639513 0.47032713333387588 -0.87979245535869988
decision_type=2 2 2 2 2 2 2
left_child=4 3 -3 -2 6 -6 -1
right_child=1 2 -4 -5 5 -7 -8
leaf_value=-0.012452743846488373 -0.030771810760972487 0.028127300708153846 0.0012114508154466295 0.014896519123079034 -0.018981258496761008 0.022437178404166445 -0.036681652913067263
leaf_weight=3.2553137540817261 7.2766276001930219 9.5213856250047666 81.961808159947395 3.1323413550853729 4.1431152373552322 2.8280893862247467 3.970893666148184
leaf_count=15 35 41 362 14 19 12 18
internal_value=-0.000267827 0.00201204 0.00429737 -0.0164113 -0.0162646 -0.000826443 -0.0288435
internal_weight=116.09 101.892 91.4832 10.409 14.1974 6.9712 7.22621
internal_count=516 452 403 49 64 31 33
is_linear=0
shrinkage=0.03


Tree=62
num_leaves=6
num_cat=0
split_feature=6 6 19 19 25
split_gain=3.38626 6.6245 5.8711 3.15426 0.802198
threshold=-1.3067139323267889 -1.2382922385964978 0.8336699785498386 1.8653008418520896 -0.83663073032155177
decision_type=2 2 2 2 2
left_child=2 -2 4 -3 -1
right_child=1 3 -4 -5 -6
leaf_value=-0.0056573871050275611 0.046221835574156024 0.00096681694632026142 0.014488554929295095 -0.030385473730056047 -0.036052209441965674
leaf_weight=1.8634789735078809 2.0787482261657706 101.43051137030125 3.1462358832359314 2.1713061630725852 5.3241084367036802
leaf_count=9 9 448 14 10 26
internal_value=-0.000265944 0.00132996 -0.0160485 2.44598e-05 -0.030279
internal_weight=116.014 105.681 10.3338 103.602 7.18759
internal_count=516 467 49 458 35
is_linear=0
shrinkage=0.03


Tree=63
num_leaves=8
num_cat=0
split_feature=12 20 18 9 0 0 27
split_gain=4.65488 3.98179 6.6887 3.89206 2.54895 3.5206 2.36597
threshold=-0.72968941130184473 -0.5877040160775967 -0.73172416106985272 -0.61619334853444629 0.51298420851291304 0.74677859130170932 -0.14643035103676766
decision_type=2 2 2 2 2 2 2
left_child=4 2 -2 -3 6 -6 -1
right_child=1 3 -4 -5 5 -7 -8
leaf_value=0.0025331226269115167 0.020419163676267404 -0.0073538589558865873 -0.012101534160082018 0.010056104154766944 0.027410114999393567 -0.016572674559839018 -0.032196974585838478
leaf_weight=1.7320103645324696 6.1548967957496634 13.710422113537787 29.34687739610672 52.636295765638351 1.8884762376546849 3.3821719437837601 7.1173981875181189
leaf_count=8 27 63 133 229 8 15 33
internal_value=-0.000259296 0.00196635 -0.00597244 0.00632426 -0.0159598 0 -0.0251313
internal_weight=115.969 101.848 35.5018 66.3467 14.1201 5.27065 8.84941
internal_count=516 452 160 292 64 23 41
is_linear=0
shrinkage=0.03


Tree=64
num_leaves=8
num_cat=0
split_feature=12 16 4 26 28 9 27
split_gain=4.41344 4.4342 6.34546 5.28323 2.88972 3.76534 0.509774
threshold=-0.72968941130184473 -0.26650937967689342 0.87904455587657093 2.1195669339838745 0.22768458635639513 0.47032713333387588 -1.0000000180025095e-35
decision_type=2 2 2 2 2 2 2
left_child=4 2 -2 -3 6 -6 -1
right_child=1 3 -4 -5 5 -7 -8
leaf_value=-0.0055712091634267562 0.015439657036020548 -0.0054646422243875325 -0.015969345644045375 0.025277247946554133 -0.018282726403864552 0.021988310511968114 -0.03270548304292481
leaf_weight=1.7558061927556989 31.801362380385399 59.225237607955933 6.1784861534833899 4.6564810276031485 4.095727726817131 2.8281804323196411 5.3557064533233625
leaf_count=8 141 264 27 20 19 12 25
internal_value=-0.000252565 0.00190744 0.00995135 -0.00284612 -0.0155907 -0.000482876 -0.0280053
internal_weight=115.897 101.862 37.9798 63.8817 14.0354 6.92391 7.11151
internal_count=516 452 168 284 64 31 33
is_linear=0
shrinkage=0.03


Tree=65
num_leaves=5
num_cat=0
split_feature=12 29 0 24
split_gain=4.51184 4.23963 4.51623 3.78595
threshold=2.4295675842536464 1.15176559319855 0.59229101633108072 0.60254677622243891
decision_type=2 2 2 2
left_child=1 2 -1 -3
right_child=-2 3 -4 -5
leaf_value=-0.00066025162698285891 -0.033833549589147825 -0.019684695493035788 0.015561178493362708 0.011111024776737095
leaf_weight=73.063706666231155 2.8658098876476279 14.664205834269525 18.570753887295723 3.8382133841514579
leaf_count=327 13 65 82 16
internal_value=-0.00109169 0 0.00266852 -0.0127897
internal_weight=113.003 110.137 91.6345 18.5024
internal_count=503 490 409 81
is_linear=0
shrinkage=0.03


Tree=66
num_leaves=7
num_cat=0
split_feature=22 1 21 21 17 13
split_gain=5.09397 4.12489 5.27343 2.81461 2.79588 0.403113
threshold=1.455987045643895 -1.4242776341223504 1.3296267039324114 0.078549824196896198 -0.62799685698648877 0.355256819926763
decision_type=2 2 2 2 2 2
left_child=1 3 -3 -1 -2 -6
right_child=4 2 -4 -5 5 -7
leaf_value=0.00027337117246652328 1.7575583034316047e-05 0 0.021771528560383068 -0.034116037088387223 -0.038585512864721179 -0.0092878750007151963
leaf_weight=3.1983015388250342 3.0810035318136215 86.099979221820831 10.579049572348593 4.0703213661909103 4.0998945534229261 1.8288585394620893
leaf_count=15 13 383 46 20 18 8
internal_value=-0.00106567 0.000822786 0.00257746 -0.0197138 -0.0217552 -0.0326184
internal_weight=112.957 103.948 96.679 7.26862 9.00976 5.92875
internal_count=503 464 429 35 39 26
is_linear=0
shrinkage=0.03


Tree=67
num_leaves=8
num_cat=0
split_feature=22 22 29 0 19 11 18
split_gain=4.94118 5.98662 6.61124 3.93271 3.91209 4.7306 2.75551
threshold=0.58346361088365628 -0.72532154125670145 1.1405504404227131 1.126152823238679 -0.22783681074000267 0.04548676117572991 -0.83230817294711679
decision_type=2 2 2 2 2 2 2
left_child=1 3 -3 -1 5 -2 -6
right_child=4 2 -4 -5 6 -7 -8
leaf_value=-0.01444280164670674 0.020654555210894335 0.012261616986766843 -0.014830333346465434 0.018919389535232242 0.0037711511387062712 -0.012557265031214649 -0.026441440332929195
leaf_weight=20.782134175300602 5.4379698485136059 49.633982285857201 8.7727372646331769 2.8784384429454795 2.7231011092662838 9.3237002789974195 13.349852189421652
leaf_count=98 23 219 39 13 12 41 58
internal_value=-0.00104499 0.00275528 0.00794564 -0.00965279 -0.0111631 0 -0.0210311
internal_weight=112.902 82.0673 58.4067 23.6606 30.8346 14.7617 16.073
internal_count=503 369 258 111 134 64 70
is_linear=0
shrinkage=0.03


Tree=68
num_leaves=7
num_cat=0
split_feature=22 1 21 14 21 21
split_gain=4.6781 3.89735 4.83154 3.67812 2.75924 2.01879
threshold=1.455987045643895 -1.4242776341223504 1.3296267039324114 -1.1800744366221749 0.078549824196896198 0.78165152501805546
decision_type=2 2 2 2 2 2
left_child=1 4 -3 -2 -1 -5
right_child=3 2 -4 5 -6 -7
leaf_value=0.00044964851943894463 0.010673492422661865 0 0.020799335498183764 -0.039158192932467709 -0.033667867891141283 -0.00020304431248095798
leaf_weight=3.1911391615867606 1.9011474847793577 86.062605768442154 10.643561795353888 5.1232818961143476 4.0101031810045242 1.9051620513200758
leaf_count=15 8 383 46 23 20 8
internal_value=-0.0010163 0.000784805 0.00248524 -0.0209324 -0.0192659 -0.0304651
internal_weight=112.837 103.907 96.7062 8.92959 7.20124 7.02844
internal_count=503 464 429 39 35 31
is_linear=0
shrinkage=0.03


Tree=69
num_leaves=5
num_cat=0
split_feature=12 29 16 3
split_gain=4.17304 3.67668 4.41915 2.87378
threshold=2.4295675842536464 1.15176559319855 -1.2135594979177751 0.33682641317488321
decision_type=2 2 2 2
left_child=1 2 -1 -3
right_child=-2 3 -4 -5
leaf_value=0.025577531622904319 -0.032827764210929498 -0.034731651292522606 0.00057687382867432717 -0.0051227222997934059
leaf_weight=6.134367734193801 2.7890131771564475 3.2545236498117474 85.514970362186432 15.07030865550041
leaf_count=26 13 15 383 66
internal_value=-0.00099312 0 0.002522 -0.0119279
internal_weight=112.763 109.974 91.6493 18.3248
internal_count=503 490 409 81
is_linear=0
shrinkage=0.03


end of trees

feature_importances:
upper_wick_ratio=27
vol_ratio=23
rsi_7=22
rsi_slope=21
rsi_14=20
momentum_3bar=19
lower_wick_ratio=18
macd_hist_delta=16
atr_ratio=16
returns_skew_10=16
volume_trend=15
bb_position=14
close_position_in_range=14
macd_hist=13
volume_ratio=13
momentum_10bar=12
candle_body_ratio=12
hour_sin=12
momentum_1bar=11
consec_direction=11
hour_cos=11
macd_signal=10
volatility_5bar=10
returns_std_10=8
high_low_range=8
volatility_20bar=7
bb_width=6
momentum_5bar=6
atr_14=6

parameters:
[boosting: gbdt]
[objective: binary]
[metric: binary_logloss]
[tree_learner: serial]
[device_type: cpu]
[data_sample_strategy: bagging]
[data: ]
[valid: ]
[num_iterations: 300]
[learning_rate: 0.03]
[num_leaves: 20]
[num_threads: 0]
[seed: 0]
[deterministic: 0]
[force_col_wise: 0]
[force_row_wise: 0]
[histogram_pool_size: -1]
[max_depth: 3]
[min_data_in_leaf: 8]
[min_sum_hessian_in_leaf: 0.001]
[bagging_fraction: 0.7]
[pos_bagging_fraction: 1]
[neg_bagging_fraction: 1]
[bagging_freq: 5]
[bagging_seed: 3]
[bagging_by_query: 0]
[feature_fraction: 0.7]
[feature_fraction_bynode: 1]
[feature_fraction_seed: 2]
[extra_trees: 0]
[extra_seed: 6]
[early_stopping_round: 0]
[early_stopping_min_delta: 0]
[first_metric_only: 0]
[max_delta_step: 0]
[lambda_l1: 0.2]
[lambda_l2: 0.8]
[linear_lambda: 0]
[min_gain_to_split: 0]
[drop_rate: 0.1]
[max_drop: 50]
[skip_drop: 0.5]
[xgboost_dart_mode: 0]
[uniform_drop: 0]
[drop_seed: 4]
[top_rate: 0.2]
[other_rate: 0.1]
[min_data_per_group: 100]
[max_cat_threshold: 32]
[cat_l2: 10]
[cat_smooth: 10]
[max_cat_to_onehot: 4]
[top_k: 20]
[monotone_constraints: ]
[monotone_constraints_method: basic]
[monotone_penalty: 0]
[feature_contri: ]
[forcedsplits_filename: ]
[refit_decay_rate: 0.9]
[cegb_tradeoff: 1]
[cegb_penalty_split: 0]
[cegb_penalty_feature_lazy: ]
[cegb_penalty_feature_coupled: ]
[path_smooth: 0]
[interaction_constraints: ]
[verbosity: -1]
[saved_feature_importance_type: 0]
[use_quantized_grad: 0]
[num_grad_quant_bins: 4]
[quant_train_renew_leaf: 0]
[stochastic_rounding: 1]
[linear_tree: 0]
[max_bin: 255]
[max_bin_by_feature: ]
[min_data_in_bin: 3]
[bin_construct_sample_cnt: 200000]
[data_random_seed: 1]
[is_enable_sparse: 1]
[enable_bundle: 1]
[use_missing: 1]
[zero_as_missing: 0]
[feature_pre_filter: 1]
[pre_partition: 0]
[two_round: 0]
[header: 0]
[label_column: ]
[weight_column: ]
[group_column: ]
[ignore_column: ]
[categorical_feature: ]
[forcedbins_filename: ]
[precise_float_parser: 0]
[parser_config_file: ]
[objective_seed: 5]
[num_class: 1]
[is_unbalance: 0]
[scale_pos_weight: 1]
[sigmoid: 1]
[boost_from_average: 1]
[reg_sqrt: 0]
[alpha: 0.9]
[fair_c: 1]
[poisson_max_delta_step: 0.7]
[tweedie_variance_power: 1.5]
[lambdarank_truncation_level: 30]
[lambdarank_norm: 1]
[label_gain: ]
[lambdarank_position_bias_regularization: 0]
[eval_at: ]
[multi_error_top_k: 1]
[auc_mu_weights: ]
[num_machines: 1]
[local_listen_port: 12400]
[time_out: 120]
[machine_list_filename: ]
[machines: ]
[gpu_platform_id: -1]
[gpu_device_id: -1]
[gpu_use_dp: 0]
[num_gpu: 1]

end of parameters

pandas_categorical:null
