tree
version=v4
num_class=1
num_tree_per_iteration=1
label_index=0
max_feature_idx=29
objective=binary sigmoid:1
feature_names=rsi_14 rsi_7 rsi_slope macd_hist macd_hist_delta macd_signal bb_position bb_width momentum_1bar momentum_3bar momentum_5bar momentum_10bar volume_ratio volume_trend volatility_5bar volatility_20bar vol_ratio atr_14 atr_ratio candle_body_ratio upper_wick_ratio lower_wick_ratio consec_direction close_vs_open hour_sin hour_cos returns_std_10 returns_skew_10 high_low_range close_position_in_range
feature_infos=[-2.3686226525279479:2.4773990540807849] [-2.320579735430182:2.2072563893664783] [-3.430153314534909:3.5268804733669574] [-4.6132114095040295:3.1972397226760916] [-6.8713094747385215:3.6846022693799636] [-2.9715187545734238:3.5566022216840225] [-3.0461755174620646:2.7105038356236761] [-1.2056836241989912:4.1778383361250988] [-6.9013393845149125:5.2856973148537225] [-5.4812058366001217:3.3843986693499581] [-5.1530234322693573:4.2317660662345142] [-4.8194170496093358:4.528932960844501] [-0.8845926077918711:10.037463527048851] [-1.819473064939934:4.4697462599968736] [-1.5613218874400692:5.2839110016921573] [-1.5085222763202897:3.2223096291770812] [-2.0875001083969251:2.8142753977982431] [-1.640874318427475:4.2711113723714584] [-2.5383883230013096:3.8322231719479687] [-1.8025366908723401:1.6423314543073502] [-1.0306261616027734:3.145921404450247] [-0.97978353577305499:3.2172740920189518] [-3.31403885283724:5.2772448338801912] [-1.0979738123739824:0.91076853448613149] [-1.3588371540690831:1.548276587478985] [-1.2847700837804292:1.497871391597825] [-1.5601800729315858:3.6431631962725555] [-3.0507254149061778:2.9814682007708324] [-1.4138953064611266:4.7137070002023735] [-1.7915739406417621:1.6021473518291798]
tree_sizes=1826 1705 1713 1601

Tree=0
num_leaves=16
num_cat=0
split_feature=5 3 7 14 13 20 1 20 8 9 13 12 4 18 15
split_gain=32.4635 26.9762 29.0573 24.1363 30.8298 23.9058 21.3232 20.9729 20.2938 16.589 16.2887 9.88649 8.45705 6.04209 1.48376
threshold=0.85928465786739039 0.8157535607845301 -0.31255422730970073 -0.46786457147957711 1.4047956146417711 -0.85609097094815667 -1.1845564234457091 -0.60294438976306752 0.47080985072056875 -0.84563174980184097 -0.83537594765237755 0.0059185871031908087 0.49601623383569565 -0.14364352206480693 -0.67175765172380908
decision_type=2 2 2 2 2 2 2 2 2 2 2 2 2 2 2
left_child=1 5 10 11 8 9 -7 -4 -5 -1 -3 13 -6 -2 -13
right_child=3 2 7 4 12 6 -8 -9 -10 -11 -12 14 -14 -15 -16
leaf_value=-0.016961875851550918 -0.014731647775815973 -0.025927582982327939 -0.054376778917729518 0.0073638025963997378 -0.073383968497393884 -0.044479597878192209 -0.024050178430767021 -0.012947395890742374 -0.025603073608764404 -0.047560123931028764 0.024318092571441147 -0.035585691872484282 -0.023401406514127802 -0.052459028680907384 -0.072552141832520262
leaf_weight=18.01059490442276 13.547436922788624 7.5039840340614345 15.51644906401634 72.011208891868591 5.811105012893675 54.228921949863434 278.75869047641754 31.765378296375275 21.24781209230423 103.97619551420212 20.705845952033997 2.7038115561008453 5.0667562484741211 4.1693493127822885 5.2673153281211844
leaf_count=21 15 9 21 76 8 71 342 41 24 130 25 5 4 6 8
internal_value=-0.0255918 -0.0288922 -0.0124192 -0.0122152 -0.00579007 -0.0316573 -0.0274475 -0.0267733 -0.000151703 -0.0429759 0.0111274 -0.0377316 -0.0515348 -0.0243532 -0.0634075
internal_weight=660.291 530.466 75.4917 129.825 104.137 454.974 332.988 47.2818 93.259 121.987 28.2098 25.6879 10.8779 17.7168 7.97113
internal_count=806 660 96 146 112 564 413 62 100 151 34 34 12 21 13
is_linear=0
shrinkage=1


Tree=1
num_leaves=15
num_cat=0
split_feature=2 4 20 22 10 29 5 8 5 10 18 20 8 0
split_gain=37.8665 32.4615 31.1214 35.4778 24.5914 22.4375 18.7919 16.2012 15.511 14.3973 13.0344 6.57929 4.70335 4.48952
threshold=0.99348989188080661 -1.3313413405587153 -0.85609097094815667 -1.2792611375620588 1.1703397589563622 0.41405931135342772 0.30351448058860248 0.30973019451232947 -0.33822086415908975 -1.6130319179246493 1.4325496477291593 0.76069931686212033 -1.2073436067836256 1.2886943319941715
decision_type=2 2 2 2 2 2 2 2 2 2 2 2 2 2
left_child=1 9 6 -4 5 8 -3 -6 -2 10 -1 -7 -11 -9
right_child=4 2 3 -5 7 11 -8 13 -10 12 -12 -13 -14 -15
leaf_value=0.010737915048729249 0.021810322415578984 -0.026076524555752434 -0.034866800417811705 0.00011311960992240886 0.028234256444306303 0.044746290391261892 -0.0020056257207851777 -0.006780554980167653 -0.016495139493678052 0.016674014929116528 -0.045193489624487743 0.013235474959203389 0.043485459096662495 -0.050833136350078939
leaf_weight=16.761710762977604 21.085762053728104 98.761484920978546 27.15965211391449 351.4112768471241 3.8303272724151602 30.646999627351761 42.302221894264221 3.789040267467497 15.639202654361723 14.241502165794374 3.7481415867805472 9.4047237634658796 14.6840882897377 6.7485564947128296
leaf_count=18 26 119 35 436 5 34 57 5 17 16 5 9 15 9
internal_value=-0.00186761 -0.00475722 -0.00698427 -0.00246587 0.0159646 0.0227193 -0.0189653 -0.0188689 0.00533418 0.0182075 -0.00083038 0.0379959 0.0314836 -0.0374736
internal_weight=660.215 569.07 519.635 378.571 91.1446 76.7767 141.064 14.3679 36.725 49.4354 20.5099 40.0517 28.9256 10.5376
internal_count=806 701 647 471 105 86 176 19 43 54 23 43 31 14
is_linear=0
shrinkage=0.03


Tree=2
num_leaves=15
num_cat=0
split_feature=2 4 20 22 10 29 0 8 10 18 29 20 8 29
split_gain=35.6832 30.6092 29.3224 33.4856 23.2467 21.1804 16.3317 15.4242 13.6493 12.4142 12.3427 6.18162 4.43952 4.39719
threshold=0.99348989188080661 -1.3313413405587153 -0.85609097094815667 -1.2792611375620588 1.1703397589563622 0.41405931135342772 0.77458856718481706 0.30973019451232947 -1.6130319179246493 1.4325496477291593 -0.29300757502293556 0.76069931686212033 -1.2073436067836256 1.4441841058148912
decision_type=2 2 2 2 2 2 2 2 2 2 2 2 2 2
left_child=1 8 6 -4 5 10 -3 -6 9 -1 -2 -7 -10 -9
right_child=4 2 3 -5 7 11 -8 13 12 -11 -12 -13 -14 -15
leaf_value=0.010434098699110647 0.023080766466477838 -0.02421545120697885 -0.033886458529384947 0.00010973627787472684 0.027560108187201785 0.043465856182742249 -0.00038003889333736065 -0.049754114515174093 0.016206007688664571 -0.044172548382874634 -0.010792666377836685 0.012877253346306954 0.042287304270945035 -0.0062931415500691607
leaf_weight=16.761394858360294 17.276919364929199 106.15830546617508 27.136272192001343 351.41175127029419 3.830751121044158 30.632914125919342 34.827439993619919 6.7415674328803998 14.242058634757997 3.7429105639457694 19.446590840816498 9.4041799306869489 14.675567388534544 3.7868384718894958
leaf_count=18 21 136 35 436 5 34 40 9 16 5 22 9 15 5
internal_value=-0.00181163 -0.00461713 -0.0067801 -0.00239434 0.0155009 0.022069 -0.0184138 -0.018371 0.0176849 -0.000845519 0.00517375 0.0369161 0.0306137 -0.0365444
internal_weight=660.075 568.956 519.534 378.548 91.1198 76.7606 140.986 14.3592 49.4219 20.5043 36.7235 40.0371 28.9176 10.5284
internal_count=806 701 647 471 105 86 176 19 54 23 43 43 31 14
is_linear=0
shrinkage=0.03


Tree=3
num_leaves=14
num_cat=0
split_feature=2 5 18 20 27 10 25 12 6 8 20 24 16
split_gain=33.6456 29.6592 26.5488 25.8583 22.5827 21.9886 17.0242 16.2268 15.6169 14.6931 7.03561 6.72563 4.27247
threshold=0.99348989188080661 0.85928465786739039 2.1866017717565751 -0.86126298342487484 -0.2190499677937853 1.1703397589563622 1.4739358285327866 -0.1193638712599568 0.50614419920572606 0.30973019451232947 0.23922433896248943 -0.47611395863071498 0.506478810011049
decision_type=2 2 2 2 2 2 2 2 2 2 2 2 2
left_child=1 2 3 -1 11 6 8 -6 -2 -7 -4 -3 -11
right_child=5 4 10 -5 7 9 -8 -9 -10 12 -12 -13 -14
leaf_value=-0.021252821002958878 0.013342941855417309 0.0054900759513775059 0.03360425790474119 -0.0048892134308689029 0.013431128806305146 0.026910424993721673 -0.025434235515733337 -0.012249533432619942 0.042555600411488627 -0.0059138132781612609 -0.0090239809874628311 0.045176952338316693 -0.048686861196280434
leaf_weight=119.75329506397247 42.86173015832901 5.7867309451103237 16.035730153322223 318.90046992897987 50.515768319368362 3.8296926617622367 5.5300688147544852 37.733096390962601 28.319864153862 3.7843831181526166 3.6631008982658377 16.394167691469193 6.727716326713562
leaf_count=150 49 6 16 400 55 5 6 49 31 5 5 20 9
internal_value=-0.00175712 -0.00448152 -0.00785021 -0.00940833 0.00939181 0.0150599 0.0214496 0.00236925 0.025477 -0.0178964 0.0253344 0.0357654 -0.0356609
internal_weight=659.836 568.782 458.353 438.654 110.43 91.0535 76.7117 88.2489 71.1816 14.3418 19.6988 22.1809 10.5121
internal_count=806 701 571 550 130 105 86 104 80 19 21 26 14
is_linear=0
shrinkage=0.03


end of trees

feature_importances:
upper_wick_ratio=8
momentum_1bar=6
momentum_5bar=5
macd_signal=4
atr_ratio=4
close_position_in_range=4
rsi_slope=3
macd_hist_delta=3
rsi_14=2
volume_ratio=2
volume_trend=2
consec_direction=2
rsi_7=1
macd_hist=1
bb_position=1
bb_width=1
momentum_3bar=1
volatility_5bar=1
volatility_20bar=1
vol_ratio=1
hour_sin=1
hour_cos=1
returns_skew_10=1

parameters:
[boosting: gbdt]
[objective: binary]
[metric: binary_logloss]
[tree_learner: serial]
[device_type: cpu]
[data_sample_strategy: bagging]
[data: ]
[valid: ]
[num_iterations: 500]
[learning_rate: 0.03]
[num_leaves: 31]
[num_threads: 0]
[seed: 0]
[deterministic: 0]
[force_col_wise: 0]
[force_row_wise: 0]
[histogram_pool_size: -1]
[max_depth: 4]
[min_data_in_leaf: 5]
[min_sum_hessian_in_leaf: 0.001]
[bagging_fraction: 0.75]
[pos_bagging_fraction: 1]
[neg_bagging_fraction: 1]
[bagging_freq: 5]
[bagging_seed: 3]
[bagging_by_query: 0]
[feature_fraction: 0.75]
[feature_fraction_bynode: 1]
[feature_fraction_seed: 2]
[extra_trees: 0]
[extra_seed: 6]
[early_stopping_round: 0]
[early_stopping_min_delta: 0]
[first_metric_only: 0]
[max_delta_step: 0]
[lambda_l1: 0.2]
[lambda_l2: 1]
[linear_lambda: 0]
[min_gain_to_split: 0.01]
[drop_rate: 0.1]
[max_drop: 50]
[skip_drop: 0.5]
[xgboost_dart_mode: 0]
[uniform_drop: 0]
[drop_seed: 4]
[top_rate: 0.2]
[other_rate: 0.1]
[min_data_per_group: 100]
[max_cat_threshold: 32]
[cat_l2: 10]
[cat_smooth: 10]
[max_cat_to_onehot: 4]
[top_k: 20]
[monotone_constraints: ]
[monotone_constraints_method: basic]
[monotone_penalty: 0]
[feature_contri: ]
[forcedsplits_filename: ]
[refit_decay_rate: 0.9]
[cegb_tradeoff: 1]
[cegb_penalty_split: 0]
[cegb_penalty_feature_lazy: ]
[cegb_penalty_feature_coupled: ]
[path_smooth: 0]
[interaction_constraints: ]
[verbosity: -1]
[saved_feature_importance_type: 0]
[use_quantized_grad: 0]
[num_grad_quant_bins: 4]
[quant_train_renew_leaf: 0]
[stochastic_rounding: 1]
[linear_tree: 0]
[max_bin: 255]
[max_bin_by_feature: ]
[min_data_in_bin: 3]
[bin_construct_sample_cnt: 200000]
[data_random_seed: 1]
[is_enable_sparse: 1]
[enable_bundle: 1]
[use_missing: 1]
[zero_as_missing: 0]
[feature_pre_filter: 1]
[pre_partition: 0]
[two_round: 0]
[header: 0]
[label_column: ]
[weight_column: ]
[group_column: ]
[ignore_column: ]
[categorical_feature: ]
[forcedbins_filename: ]
[precise_float_parser: 0]
[parser_config_file: ]
[objective_seed: 5]
[num_class: 1]
[is_unbalance: 0]
[scale_pos_weight: 1.02699]
[sigmoid: 1]
[boost_from_average: 1]
[reg_sqrt: 0]
[alpha: 0.9]
[fair_c: 1]
[poisson_max_delta_step: 0.7]
[tweedie_variance_power: 1.5]
[lambdarank_truncation_level: 30]
[lambdarank_norm: 1]
[label_gain: ]
[lambdarank_position_bias_regularization: 0]
[eval_at: ]
[multi_error_top_k: 1]
[auc_mu_weights: ]
[num_machines: 1]
[local_listen_port: 12400]
[time_out: 120]
[machine_list_filename: ]
[machines: ]
[gpu_platform_id: -1]
[gpu_device_id: -1]
[gpu_use_dp: 0]
[num_gpu: 1]

end of parameters

pandas_categorical:null
