tree
version=v4
num_class=1
num_tree_per_iteration=1
label_index=0
max_feature_idx=29
objective=binary sigmoid:1
feature_names=rsi_14 rsi_7 rsi_slope macd_hist macd_hist_delta macd_signal bb_position bb_width momentum_1bar momentum_3bar momentum_5bar momentum_10bar volume_ratio volume_trend volatility_5bar volatility_20bar vol_ratio atr_14 atr_ratio candle_body_ratio upper_wick_ratio lower_wick_ratio consec_direction close_vs_open hour_sin hour_cos returns_std_10 returns_skew_10 high_low_range close_position_in_range
feature_infos=[-2.735440362065964:2.4115261982852507] [-2.2529297967055739:2.191465019117635] [-3.0946559612277267:2.9538459230604563] [-3.5830085943552752:3.2940646034598196] [-4.3358050687290604:11.947728191443872] [-2.6493403665062765:2.9360681458294668] [-2.8624863048493334:2.6945663204379153] [-1.4760512869142075:4.259066694377065] [-4.6788790063457988:4.854915591114719] [-5.2356426102064288:4.3770375151991514] [-5.1742801791387434:4.0112094921905816] [-4.0842756504254654:3.5211669199431084] [-1.1430155387348635:10.075906000806697] [-1.6925949581981452:4.1433035717030577] [-1.4831127868086111:5.2894692385704962] [-1.9124552548561045:3.8237298444875965] [-1.942326179845987:2.75554586368184] [-1.8287423068090789:4.3455777207138526] [-2.3298592987361686:3.2185961789195976] [-1.7690490508811156:2.1103576027665127] [-1.3044648297161938:3.3745619717005177] [-1.266384470319154:3.0792124411894171] [-3.4712215903431036:4.2228414718884695] [-1.0249188824469666:0.97568697106305113] [-1.4109122023100105:1.4281409646556114] [-1.3825582359568604:1.4364886208390533] [-1.6481130675284823:4.8946613026239749] [-3.095034786552306:2.6853036561613037] [-1.7421814136280658:3.1438132103780925] [-1.7802329436294169:1.7560998632948104]
tree_sizes=965 979 970 989 961 856 873 881 880 879 990 977 776 989 779

Tree=0
num_leaves=8
num_cat=0
split_feature=9 5 24 12 29 5 5
split_gain=11.9923 8.77949 10.1515 6.9765 6.52603 3.63838 2.12329
threshold=-0.66223455281726273 0.050715300374185292 1.1053357561104507 -0.43560469452978284 -1.2928931679841542 -0.36631221213427873 0.94210817455615703
decision_type=2 2 2 2 2 2 2
left_child=4 3 -3 -2 5 -1 -6
right_child=1 2 -4 -5 6 -7 -8
leaf_value=-0.70109640139081031 -0.65445754322788718 -0.69654149015686029 -0.66235296019273671 -0.68168949731830097 -0.72370059365179651 -0.66300724185325821 -0.6883115623944952
leaf_weight=4.4537422060966492 13.138539507985113 42.755925178527832 8.6847973018884641 24.272895023226738 11.579729735851286 3.1176195442676571 2.2268711030483237
leaf_count=20 59 192 39 109 52 14 10
internal_value=-0.687255 -0.68242 -0.690368 -0.671491 -0.707053 -0.68535 -0.718796
internal_weight=110.23 88.8522 51.4407 37.4114 21.378 7.57136 13.8066
internal_count=495 399 231 168 96 34 62
is_linear=0
shrinkage=1


Tree=1
num_leaves=8
num_cat=0
split_feature=9 5 24 29 25 5 5
split_gain=11.3973 8.23669 9.55952 6.27548 5.68169 3.45298 2.04372
threshold=-0.66223455281726273 0.050715300374185292 1.1053357561104507 -1.2928931679841542 1.345440216776733 -0.36631221213427873 0.94210817455615703
decision_type=2 2 2 2 2 2 2
left_child=3 4 -3 5 -2 -1 -5
right_child=1 2 -4 6 -6 -7 -8
leaf_value=-0.01393976607348732 0.018872409880524407 -0.0094351382163774811 0.023649494779877701 -0.036242153317287674 -0.016594410285012719 0.023129256276841464 -0.0014285943073603553
leaf_weight=4.4326213002204895 33.78714182972908 42.61830997467041 8.7542348653078061 11.436100840568541 3.8039154857397071 3.1418884992599514 2.2257955372333518
leaf_count=20 151 192 39 52 17 14 10
internal_value=-0.000386624 0.0043073 -0.0034061 -0.0197652 0.0148562 0.00146056 -0.031378
internal_weight=110.2 88.9636 51.3725 21.2364 37.5911 7.57451 13.6619
internal_count=495 399 231 96 168 34 62
is_linear=0
shrinkage=0.03


Tree=2
num_leaves=8
num_cat=0
split_feature=9 12 12 29 21 8 27
split_gain=10.8227 6.25268 16.2105 6.03661 7.22832 3.98626 1.52048
threshold=-0.66223455281726273 -0.64727507800996387 -0.47366036716044652 -1.2928931679841542 -0.25774951238476773 0.30879347380439076 1.0000000180025095e-35
decision_type=2 2 2 2 2 2 2
left_child=3 5 -3 4 -1 -2 -5
right_child=1 2 -4 6 -6 -7 -8
leaf_value=0.025977867742245968 -0.020784923666582154 0.032840491989674092 0 -0.039477670897239456 -0.027472742031036952 0.0074452005621442382 -0.013701490212387597
leaf_weight=4.2513252049684525 12.026029571890833 17.234927773475647 53.783739730715752 8.0547024458646757 3.3251791745424297 6.0327821969985953 5.4600361734628668
leaf_count=19 54 77 241 37 15 27 25
internal_value=-0.000381122 0.00417401 0.0082272 -0.019343 0.00141977 -0.0111204 -0.0308308
internal_weight=110.169 89.0775 71.0187 21.0912 7.5765 18.0588 13.5147
internal_count=495 399 318 96 34 81 62
is_linear=0
shrinkage=0.03


Tree=3
num_leaves=8
num_cat=0
split_feature=2 25 11 5 19 21 20
split_gain=9.02256 15.1008 7.79608 5.94712 4.33882 9.26026 6.04513
threshold=-0.0071268135567094945 0.48004164959761475 1.7780115968442105 0.20122810739968719 0.9540589853650816 -1.0781956447984382 -0.61759687357629944
decision_type=2 2 2 2 2 2 2
left_child=4 2 -2 -3 6 -6 -1
right_child=1 3 -4 -5 5 -7 -8
leaf_value=-0.032757393304053965 0.023106704061904414 0.0017645010381138705 -0.017721783891979169 -0.029194129720417503 -0.031913304508635998 0.030268463005491842 -0.0065080086404744955
leaf_weight=10.333378553390501 34.694125920534134 11.245716124773027 4.0132974833250037 9.5243848562240583 2.4340051859617233 5.5661687105894071 32.329695552587509
leaf_count=47 155 50 18 43 11 25 146
internal_value=-0.000379727 0.00744382 0.0184485 -0.01271 -0.00965393 0.0094869 -0.0134898
internal_weight=110.141 59.4775 38.7074 20.7701 50.6632 8.00017 42.6631
internal_count=495 266 173 93 229 36 193
is_linear=0
shrinkage=0.03


Tree=4
num_leaves=8
num_cat=0
split_feature=9 5 24 25 19 13 4
split_gain=10.1087 7.22467 8.84642 5.2415 4.35611 5.26871 2.20438
threshold=-0.66223455281726273 0.050715300374185292 1.1053357561104507 1.345440216776733 0.69581237251906802 -0.331808854811457 -0.031826485098741551
decision_type=2 2 2 2 2 2 2
left_child=4 3 -3 -2 6 -6 -1
right_child=1 2 -4 -5 5 -7 -8
leaf_value=-0.031891005506161883 0.017627706745172857 -0.0091038423394632674 0.022621616938085606 -0.016413370939314786 -0.030074383524044214 0.020255388634604458 0
leaf_weight=12.549843043088913 34.16534312069416 42.430822372436523 8.8360838145017606 3.7920176833868018 2.1645515412092209 4.2382363229989997 1.9451372772455222
leaf_count=58 151 192 39 17 10 19 9
internal_value=-0.0003858 0.00399232 -0.00325702 0.0138035 -0.018813 0.000957181 -0.0275315
internal_weight=110.122 89.2243 51.2669 37.9574 20.8978 6.40279 14.495
internal_count=495 399 231 168 96 29 67
is_linear=0
shrinkage=0.03


Tree=5
num_leaves=7
num_cat=0
split_feature=11 2 0 6 10 8
split_gain=9.52358 7.71896 6.71649 4.195 2.63672 2.73096
threshold=1.3152960101862867 0.14467658772453698 0.63796275982709039 -1.0930682337263187 0.47704976575972852 -0.15147060190723202
decision_type=2 2 2 2 2 2
left_child=1 3 -3 -1 -2 -6
right_child=4 2 -4 -5 5 -7
leaf_value=-0.016628545972266148 0.0010600906873092038 0.0044798810940436425 0.029781726649714801 0.0015927493388570781 0 -0.03939559544456174
leaf_weight=14.54342272877693 2.4463621824979773 27.917444780468941 14.351489603519438 41.799015119671822 1.9997310936450947 6.8615737855434409
leaf_count=66 11 124 64 189 9 31
internal_value=0.000904583 0.00400959 0.0136035 -0.00317259 -0.0241537 -0.0312469
internal_weight=109.919 98.6114 42.2689 56.3424 11.3077 8.8613
internal_count=494 443 188 255 51 40
is_linear=0
shrinkage=0.03


Tree=6
num_leaves=7
num_cat=0
split_feature=11 1 21 2 4 2
split_gain=9.07402 9.72758 8.37081 2.0348 1.85464 1.55724
threshold=1.3429047830203904 -1.4099974161268307 1.3215081932613779 0.12106229093933472 -0.21086335316254304 -0.1497814648237836
decision_type=2 2 2 2 2 2
left_child=1 5 -3 4 -2 -1
right_child=3 2 -4 -5 -6 -7
leaf_value=-0.033461609253614806 -0.02086172250395699 0.0030027809796442893 0.029673719738449317 -0.03454725009493409 0.013438262601300445 -0.00097215945182340302
leaf_weight=5.866295799612999 2.2056597173213963 79.921592384576797 11.60388597846031 6.3660459816455841 1.769569069147108 2.2066692709922773
leaf_count=27 10 358 52 29 8 10
internal_value=0.000873498 0.00376969 0.00667702 -0.0247494 -0.00464327 -0.0261455
internal_weight=109.94 99.5984 91.5255 10.3413 3.97523 8.07297
internal_count=494 447 410 47 18 37
is_linear=0
shrinkage=0.03


Tree=7
num_leaves=7
num_cat=0
split_feature=11 1 21 10 22 11
split_gain=8.65045 9.3567 7.71011 2.54471 1.47012 1.25363
threshold=1.3152960101862867 -1.4099974161268307 1.3215081932613779 0.47704976575972852 -1.0000000180025095e-35 -1.5092944570465816
decision_type=2 2 2 2 2 2
left_child=1 5 -3 -2 -5 -1
right_child=3 2 -4 4 -6 -7
leaf_value=-0.0030284053802428264 0.0014317022446752674 0.0030527965438093886 0.028583329643293735 -0.0060667638570465433 -0.038010373652785791 -0.032823004192859932
leaf_weight=2.390287458896637 2.4327362924814215 79.124244973063469 11.713947042822836 2.6273589581251136 6.070840820670127 5.6104122251272184
leaf_count=11 11 354 52 12 28 26
internal_value=0.000833118 0.00376974 0.00663133 -0.0232444 -0.0303169 -0.0256878
internal_weight=109.97 98.8389 90.8382 11.1309 8.6982 8.0007
internal_count=494 443 406 51 40 37
is_linear=0
shrinkage=0.03


Tree=8
num_leaves=7
num_cat=0
split_feature=11 22 9 20 29 4
split_gain=8.26003 9.24979 7.60533 5.65997 1.31155 2.21394
threshold=1.3429047830203904 -0.69280992898170202 -0.73904112929502985 -1.3042437646354041 1.1770905577429558 -0.13310519093791523
decision_type=2 2 2 2 2 2
left_child=1 2 -1 -3 5 -2
right_child=4 3 -4 -5 -6 -7
leaf_value=-0.031561452695540559 -0.023205650125308609 0.040196079178528618 0.0019915448881380315 0.0063085239786214251 -0.032892664089678156 0.013245487744364305
leaf_weight=9.9003332704305667 2.6038987189531326 4.0788107812404624 13.167475312948225 72.670492112636566 5.7943408340215683 1.77429114282131
leaf_count=46 12 18 59 324 27 8
internal_value=0.000793403 0.00353517 -0.0127327 0.00858292 -0.0238593 -0.00751072
internal_weight=109.99 99.8171 23.0678 76.7493 10.1725 4.37819
internal_count=494 447 105 342 47 20
is_linear=0
shrinkage=0.03


Tree=9
num_leaves=7
num_cat=0
split_feature=11 22 5 26 29 4
split_gain=7.88343 8.74343 5.61648 4.22948 1.27034 2.12974
threshold=1.3429047830203904 -0.69280992898170202 0.66874042314122706 -0.97349431324212765 1.1770905577429558 -0.13310519093791523
decision_type=2 2 2 2 2 2
left_child=1 3 -3 -1 5 -2
right_child=4 2 -4 -5 -6 -7
leaf_value=0.016234851922773214 -0.022822529493917939 0.012969627442033492 -0.0053849453156772529 -0.017671005810861503 -0.03238641471064007 0.012931922347384033
leaf_weight=3.1113022267818478 2.5819452553987503 57.81398044526577 19.129113748669624 19.847877502441406 5.7219711989164352 1.7820718884468059
leaf_count=14 12 256 86 91 27 8
internal_value=0.000762701 0.00343105 0.00832079 -0.0124318 -0.0234261 -0.0073186
internal_weight=109.988 99.9023 76.9431 22.9592 10.086 4.36402
internal_count=494 447 342 105 47 20
is_linear=0
shrinkage=0.03


Tree=10
num_leaves=8
num_cat=0
split_feature=13 13 13 12 8 4 5
split_gain=8.04829 8.52402 7.79938 7.73179 6.30891 5.8641 4.26397
threshold=-0.331808854811457 0.15930600712823387 -1.0490392526243941 -0.82230985004311929 -0.67155648935317325 -0.59712269712785038 -0.67081445492986747
decision_type=2 2 2 2 2 2 2
left_child=2 5 3 -1 -3 -2 -4
right_child=1 4 6 -5 -6 -7 -8
leaf_value=-0.015433547929304313 -0.0021715883413699049 0.018235664729254659 0.0070941971578901428 0.026788967046583158 -0.0089458813708617191 0.028163633496533384 -0.020178883242649645
leaf_weight=5.7409696877002707 7.2401061505079296 9.6797041743993741 5.418105646967887 8.738638296723364 27.698968484997749 20.295207947492599 29.893992334604263
leaf_count=26 33 44 24 39 125 90 135
internal_value=0.000745727 0.00771242 -0.00819656 0.00972406 -0.00151509 0.0201395 -0.0157636
internal_weight=114.706 64.914 49.7917 14.4796 37.3787 27.5353 35.3121
internal_count=516 292 224 65 169 123 159
is_linear=0
shrinkage=0.03


Tree=11
num_leaves=8
num_cat=0
split_feature=13 6 11 13 8 29 20
split_gain=7.58204 8.10233 9.02476 7.38245 7.55904 5.65334 4.59803
threshold=-0.331808854811457 -1.3117761774879824 1.3429047830203904 -1.0490392526243941 0.36350177285776647 -1.5641669065346779 -0.98034008098331549
decision_type=2 2 2 2 2 2 2
left_child=3 5 -3 4 -1 -2 -5
right_child=1 2 -4 6 -6 -7 -8
leaf_value=-0.005079863658705888 0.019582424391902959 0.016075802618265616 -0.02028234908626925 0.005421762397679622 0.0384469690950816 -0.030477864264726019 -0.020674305959801468
leaf_weight=9.9905390292406064 1.9900902509689329 50.06601157784462 6.1584901958703986 6.8940307199954978 4.5318353772163382 6.8461966663598997 28.225990295410156
leaf_count=45 9 222 29 31 20 32 128
internal_value=0.000727044 0.00747295 0.0117595 -0.00797342 0.00940967 -0.017891 -0.015378
internal_weight=114.703 65.0608 56.2245 49.6424 14.5224 8.83629 35.12
internal_count=516 292 251 224 65 41 159
is_linear=0
shrinkage=0.03


Tree=12
num_leaves=6
num_cat=0
split_feature=11 0 15 29 11
split_gain=7.32626 9.21076 7.57915 6.76837 0.179416
threshold=1.6369271549692537 1.0127078369711056 -0.75931215818599929 1.4731767775394116 2.3469894033324823
decision_type=2 2 2 2 2
left_child=1 2 -1 -3 -2
right_child=4 3 -4 -5 -6
leaf_value=-0.016423104250251883 -0.03447064692389943 0.032492330988996031 0.0036432805829143067 -0.010024643232931936 -0.010717022544634372
leaf_weight=21.396644815802574 3.9788381308317176 13.018962264060976 70.196033701300621 3.7817502319812766 2.3100213259458542
leaf_count=96 19 58 315 17 11
internal_value=0.000702625 0.00266683 -0.00108103 0.0225604 -0.028786
internal_weight=114.682 108.393 91.5927 16.8007 6.28886
internal_count=516 486 411 75 30
is_linear=0
shrinkage=0.03


Tree=13
num_leaves=8
num_cat=0
split_feature=13 13 16 20 20 21 16
split_gain=7.10035 7.77059 7.04904 7.03112 6.56113 6.36426 5.22327
threshold=-0.331808854811457 0.15930600712823387 -1.208779221297301 1.5565650617487548 -0.64362374094255914 -0.88227489018032001 -1.499969508480572
decision_type=2 2 2 2 2 2 2
left_child=2 4 6 -3 -2 -4 -1
right_child=1 3 5 -5 -6 -7 -8
leaf_value=-0.010725534007163631 -0.0015253206895278421 0.0029762840443538518 0.0090750857332852694 -0.03591769543878362 0.028704082924944703 -0.018743864754897453 0.034711570100263524
leaf_weight=3.0800814032554626 8.9721014797687548 33.454270839691162 8.6257852017879468 3.9495380669832221 18.834534779191017 33.021792650222778 4.764983043074607
leaf_count=14 40 151 39 18 83 150 21
internal_value=0.000668257 0.00718134 -0.00777167 -0.00163968 0.0189706 -0.0127784 0.0168366
internal_weight=114.703 65.2104 49.4926 37.4038 27.8066 41.6476 7.84506
internal_count=516 292 224 169 123 189 35
is_linear=0
shrinkage=0.03


Tree=14
num_leaves=6
num_cat=0
split_feature=11 0 15 29 11
split_gain=6.98861 8.53648 7.16065 6.27353 0.171793
threshold=1.6369271549692537 1.0127078369711056 -0.75931215818599929 1.4731767775394116 2.3469894033324823
decision_type=2 2 2 2 2
left_child=1 2 -1 -3 -2
right_child=4 3 -4 -5 -6
leaf_value=-0.016029942960609507 -0.033957533664561168 0.031094642654268138 0.0035131509852202804 -0.0097893246099211052 -0.010480242745376222
leaf_weight=21.272292464971542 3.9161942303180686 13.163461312651636 70.271968483924866 3.7686635851860038 2.2986991107463837
leaf_count=96 19 58 315 17 11
internal_value=0.000646873 0.00255621 -0.00106267 0.0216254 -0.0283148
internal_weight=114.691 108.476 91.5443 16.9321 6.21489
internal_count=516 486 411 75 30
is_linear=0
shrinkage=0.03


end of trees

feature_importances:
momentum_10bar=12
macd_signal=10
volume_trend=8
close_position_in_range=8
macd_hist_delta=5
momentum_3bar=5
upper_wick_ratio=5
lower_wick_ratio=5
rsi_slope=4
momentum_1bar=4
volume_ratio=4
rsi_14=3
consec_direction=3
hour_sin=3
hour_cos=3
rsi_7=2
bb_position=2
momentum_5bar=2
volatility_20bar=2
vol_ratio=2
candle_body_ratio=2
returns_std_10=1
returns_skew_10=1

parameters:
[boosting: gbdt]
[objective: binary]
[metric: binary_logloss]
[tree_learner: serial]
[device_type: cpu]
[data_sample_strategy: bagging]
[data: ]
[valid: ]
[num_iterations: 300]
[learning_rate: 0.03]
[num_leaves: 20]
[num_threads: 0]
[seed: 0]
[deterministic: 0]
[force_col_wise: 0]
[force_row_wise: 0]
[histogram_pool_size: -1]
[max_depth: 3]
[min_data_in_leaf: 8]
[min_sum_hessian_in_leaf: 0.001]
[bagging_fraction: 0.7]
[pos_bagging_fraction: 1]
[neg_bagging_fraction: 1]
[bagging_freq: 5]
[bagging_seed: 3]
[bagging_by_query: 0]
[feature_fraction: 0.7]
[feature_fraction_bynode: 1]
[feature_fraction_seed: 2]
[extra_trees: 0]
[extra_seed: 6]
[early_stopping_round: 0]
[early_stopping_min_delta: 0]
[first_metric_only: 0]
[max_delta_step: 0]
[lambda_l1: 0.2]
[lambda_l2: 0.8]
[linear_lambda: 0]
[min_gain_to_split: 0]
[drop_rate: 0.1]
[max_drop: 50]
[skip_drop: 0.5]
[xgboost_dart_mode: 0]
[uniform_drop: 0]
[drop_seed: 4]
[top_rate: 0.2]
[other_rate: 0.1]
[min_data_per_group: 100]
[max_cat_threshold: 32]
[cat_l2: 10]
[cat_smooth: 10]
[max_cat_to_onehot: 4]
[top_k: 20]
[monotone_constraints: ]
[monotone_constraints_method: basic]
[monotone_penalty: 0]
[feature_contri: ]
[forcedsplits_filename: ]
[refit_decay_rate: 0.9]
[cegb_tradeoff: 1]
[cegb_penalty_split: 0]
[cegb_penalty_feature_lazy: ]
[cegb_penalty_feature_coupled: ]
[path_smooth: 0]
[interaction_constraints: ]
[verbosity: -1]
[saved_feature_importance_type: 0]
[use_quantized_grad: 0]
[num_grad_quant_bins: 4]
[quant_train_renew_leaf: 0]
[stochastic_rounding: 1]
[linear_tree: 0]
[max_bin: 255]
[max_bin_by_feature: ]
[min_data_in_bin: 3]
[bin_construct_sample_cnt: 200000]
[data_random_seed: 1]
[is_enable_sparse: 1]
[enable_bundle: 1]
[use_missing: 1]
[zero_as_missing: 0]
[feature_pre_filter: 1]
[pre_partition: 0]
[two_round: 0]
[header: 0]
[label_column: ]
[weight_column: ]
[group_column: ]
[ignore_column: ]
[categorical_feature: ]
[forcedbins_filename: ]
[precise_float_parser: 0]
[parser_config_file: ]
[objective_seed: 5]
[num_class: 1]
[is_unbalance: 0]
[scale_pos_weight: 1]
[sigmoid: 1]
[boost_from_average: 1]
[reg_sqrt: 0]
[alpha: 0.9]
[fair_c: 1]
[poisson_max_delta_step: 0.7]
[tweedie_variance_power: 1.5]
[lambdarank_truncation_level: 30]
[lambdarank_norm: 1]
[label_gain: ]
[lambdarank_position_bias_regularization: 0]
[eval_at: ]
[multi_error_top_k: 1]
[auc_mu_weights: ]
[num_machines: 1]
[local_listen_port: 12400]
[time_out: 120]
[machine_list_filename: ]
[machines: ]
[gpu_platform_id: -1]
[gpu_device_id: -1]
[gpu_use_dp: 0]
[num_gpu: 1]

end of parameters

pandas_categorical:null
