tree
version=v4
num_class=1
num_tree_per_iteration=1
label_index=0
max_feature_idx=29
objective=binary sigmoid:1
feature_names=rsi_14 rsi_7 rsi_slope macd_hist macd_hist_delta macd_signal bb_position bb_width momentum_1bar momentum_3bar momentum_5bar momentum_10bar volume_ratio volume_trend volatility_5bar volatility_20bar vol_ratio atr_14 atr_ratio candle_body_ratio upper_wick_ratio lower_wick_ratio consec_direction close_vs_open hour_sin hour_cos returns_std_10 returns_skew_10 high_low_range close_position_in_range
feature_infos=[-2.6207411923175865:2.5287696046135877] [-2.3120943722340748:2.2634720188825179] [-3.4060508856892087:4.1640249023523683] [-4.9430680812610186:3.9851057467408078] [-6.4333380173645169:5.0251338618651848] [-3.7591759363669368:2.3541366413590392] [-2.899960038600049:3.059641106756624] [-1.2918452379901626:5.0713621251939358] [-6.0940271198902227:7.0363172298198036] [-4.6521140190251034:4.5526540469087049] [-4.9694704531930061:3.5565703716385193] [-4.7839749828745077:4.9706629520504411] [-0.82191467455733347:13.614078392414344] [-1.6754445642181455:4.8824189687349033] [-1.3245831782658617:4.6470949776873036] [-1.4612266812795369:3.009177066564257] [-2.2630606097152923:3.1126056371467623] [-1.3964215502042905:3.6970101453549948] [-2.3884823009800642:3.526498788989354] [-1.7536282932917:1.5889692013746817] [-0.95496179437472284:3.2568556710342169] [-0.98844248119248601:3.0802994138935662] [-3.9175864935495892:4.6642463776009224] [-1.0289398079219256:0.98096557888172453] [-1.2780272040768093:1.6291403956624062] [-1.278567892310994:1.5399185013703107] [-1.4703433822197716:3.4935843363812689] [-2.9682310979952788:3.1772334800194471] [-1.3796313046908419:3.3291603185980296] [-1.8536175961384151:1.6452798750249626]
tree_sizes=1619

Tree=0
num_leaves=14
num_cat=0
split_feature=3 25 9 1 15 18 5 20 12 18 14 1 1
split_gain=54.8826 53.2429 43.5029 39.2394 35.2681 29.3048 33.0152 26.9136 26.0831 23.5928 20.8761 10.9457 0.78267
threshold=-0.53772185013530605 -0.66494582649327538 3.2842845714223681 -1.2851793417913069 -0.8820560616819223 1.0263319977146965 1.5480476945680592 1.8841698065634491 -0.57888973850841341 1.2547387121376394 -0.80751961684093265 -1.2317324700067227 -1.0733683455943874
decision_type=2 2 2 2 2 2 2 2 2 2 2 2 2
left_child=5 4 3 -3 10 6 7 -1 -6 -7 -2 -11 -8
right_child=1 2 -4 -5 8 9 12 -9 -10 11 -12 -13 -14
leaf_value=-0.0033109021115322029 -0.032072221811781224 -0.050975695476954921 -0.069800037118413538 -0.012340170756375318 -0.044324746645934651 -0.064054697203794725 -0.03143630554293312 0.027026138769016418 -0.025627206344782591 -0.028675795376010005 0.013913007736259331 -0.0063148905435163726 -0.051392844656215575
leaf_weight=321.18735238909721 11.993861019611357 23.332716673612595 11.499309062957762 835.54482463002205 86.362587034702301 9.5411107242107374 7.5663323402404776 28.168785274028778 310.28630614280701 34.292140752077103 27.316947191953659 43.523056238889694 8.2828958034515363
leaf_count=305 14 20 10 804 70 13 6 25 297 32 30 44 7
internal_value=-0.0154157 -0.0185319 -0.0142498 -0.0134368 -0.027078 -0.00642062 -0.00268774 -0.000733272 -0.0297756 -0.021927 -0.000329022 -0.016135 -0.0437328
internal_weight=1758.9 1306.34 870.377 858.878 435.96 452.562 365.205 349.356 396.649 87.3563 39.3108 77.8152 15.8492
internal_count=1677 1245 834 824 411 432 343 330 367 89 44 76 13
is_linear=0
shrinkage=1


end of trees

feature_importances:
rsi_7=3
atr_ratio=2
macd_hist=1
macd_signal=1
momentum_3bar=1
volume_ratio=1
volatility_5bar=1
volatility_20bar=1
upper_wick_ratio=1
hour_cos=1

parameters:
[boosting: gbdt]
[objective: binary]
[metric: binary_logloss]
[tree_learner: serial]
[device_type: cpu]
[data_sample_strategy: bagging]
[data: ]
[valid: ]
[num_iterations: 500]
[learning_rate: 0.03]
[num_leaves: 31]
[num_threads: 0]
[seed: 0]
[deterministic: 0]
[force_col_wise: 0]
[force_row_wise: 0]
[histogram_pool_size: -1]
[max_depth: 4]
[min_data_in_leaf: 5]
[min_sum_hessian_in_leaf: 0.001]
[bagging_fraction: 0.75]
[pos_bagging_fraction: 1]
[neg_bagging_fraction: 1]
[bagging_freq: 5]
[bagging_seed: 3]
[bagging_by_query: 0]
[feature_fraction: 0.75]
[feature_fraction_bynode: 1]
[feature_fraction_seed: 2]
[extra_trees: 0]
[extra_seed: 6]
[early_stopping_round: 0]
[early_stopping_min_delta: 0]
[first_metric_only: 0]
[max_delta_step: 0]
[lambda_l1: 0.2]
[lambda_l2: 1]
[linear_lambda: 0]
[min_gain_to_split: 0.01]
[drop_rate: 0.1]
[max_drop: 50]
[skip_drop: 0.5]
[xgboost_dart_mode: 0]
[uniform_drop: 0]
[drop_seed: 4]
[top_rate: 0.2]
[other_rate: 0.1]
[min_data_per_group: 100]
[max_cat_threshold: 32]
[cat_l2: 10]
[cat_smooth: 10]
[max_cat_to_onehot: 4]
[top_k: 20]
[monotone_constraints: ]
[monotone_constraints_method: basic]
[monotone_penalty: 0]
[feature_contri: ]
[forcedsplits_filename: ]
[refit_decay_rate: 0.9]
[cegb_tradeoff: 1]
[cegb_penalty_split: 0]
[cegb_penalty_feature_lazy: ]
[cegb_penalty_feature_coupled: ]
[path_smooth: 0]
[interaction_constraints: ]
[verbosity: -1]
[saved_feature_importance_type: 0]
[use_quantized_grad: 0]
[num_grad_quant_bins: 4]
[quant_train_renew_leaf: 0]
[stochastic_rounding: 1]
[linear_tree: 0]
[max_bin: 255]
[max_bin_by_feature: ]
[min_data_in_bin: 3]
[bin_construct_sample_cnt: 200000]
[data_random_seed: 1]
[is_enable_sparse: 1]
[enable_bundle: 1]
[use_missing: 1]
[zero_as_missing: 0]
[feature_pre_filter: 1]
[pre_partition: 0]
[two_round: 0]
[header: 0]
[label_column: ]
[weight_column: ]
[group_column: ]
[ignore_column: ]
[categorical_feature: ]
[forcedbins_filename: ]
[precise_float_parser: 0]
[parser_config_file: ]
[objective_seed: 5]
[num_class: 1]
[is_unbalance: 0]
[scale_pos_weight: 1.02671]
[sigmoid: 1]
[boost_from_average: 1]
[reg_sqrt: 0]
[alpha: 0.9]
[fair_c: 1]
[poisson_max_delta_step: 0.7]
[tweedie_variance_power: 1.5]
[lambdarank_truncation_level: 30]
[lambdarank_norm: 1]
[label_gain: ]
[lambdarank_position_bias_regularization: 0]
[eval_at: ]
[multi_error_top_k: 1]
[auc_mu_weights: ]
[num_machines: 1]
[local_listen_port: 12400]
[time_out: 120]
[machine_list_filename: ]
[machines: ]
[gpu_platform_id: -1]
[gpu_device_id: -1]
[gpu_use_dp: 0]
[num_gpu: 1]

end of parameters

pandas_categorical:null
