tree
version=v4
num_class=1
num_tree_per_iteration=1
label_index=0
max_feature_idx=29
objective=binary sigmoid:1
feature_names=rsi_14 rsi_7 rsi_slope macd_hist macd_hist_delta macd_signal bb_position bb_width momentum_1bar momentum_3bar momentum_5bar momentum_10bar volume_ratio volume_trend volatility_5bar volatility_20bar vol_ratio atr_14 atr_ratio candle_body_ratio upper_wick_ratio lower_wick_ratio consec_direction close_vs_open hour_sin hour_cos returns_std_10 returns_skew_10 high_low_range close_position_in_range
feature_infos=[-3.0672166537086301:2.397059297642405] [-2.4225127640125486:2.324965116126585] [-3.8155062236088035:2.8613454379720342] [-5.090815391792253:3.0473604009336834] [-5.045669341463781:4.4618632727702536] [-3.0916710245407613:1.7777082395021984] [-2.5393586223250106:2.4400601819626893] [-1.0426165940957877:4.8816634875451648] [-4.3448242048061605:4.7838307541863188] [-4.5594395161917456:4.499984561201134] [-4.4927661938075909:4.2521307532822661] [-5.7271363013052268:3.7008844178558755] [-1.0300657691565884:9.5530518948617438] [-1.6891805289248929:5.3289779141919444] [-1.5011079559349578:4.0675981724628256] [-1.1135296070107337:3.3054009244108071] [-2.1789499517515543:2.6848294902360936] [-1.0380373401935086:4.0058943258437001] [-2.6496045893757865:3.3246307153225216] [-1.7702459310468988:1.9076048928569911] [-1.2217559665302076:3.0468657346072692] [-1.0886495950160793:3.3235300316589895] [-4.8906651961095893:3.0765012015629227] [-1.0421777457715657:0.95952922047826927] [-1.1965176854561743:1.6441906667034858] [-1.5458115725186441:1.3555487859724451] [-1.431897039975399:3.5658664860422329] [-2.7778056657480077:3.430675358246805] [-1.0319590456080669:4.4015629074758742] [-1.7589172094505872:1.7169467794327302]
tree_sizes=758 776 780 778 778 959 883

Tree=0
num_leaves=6
num_cat=0
split_feature=0 18 5 7 7
split_gain=8.52238 9.06499 10.0612 4.25262 0.8423
threshold=1.5332477757419751 -1.3314830895769696 0.70017318856604149 0.25669693855857839 -0.024383099301779159
decision_type=2 2 2 2 2
left_child=1 3 -3 -1 -2
right_child=4 2 -4 -5 -6
leaf_value=-0.68030111784127056 -0.69439671354168442 -0.69222758627203407 -0.66372375731760891 -0.62485251808627917 -0.72626388004473386
leaf_weight=3.1155239939689627 1.7802994251251218 84.341685265302658 12.017021119594572 2.2253742814064026 4.6732859909534445
leaf_count=14 8 379 54 10 21
internal_value=-0.688514 -0.686239 -0.688557 -0.650889 -0.719878
internal_weight=108.153 101.7 96.3587 5.3409 6.45359
internal_count=486 457 433 24 29
is_linear=0
shrinkage=1


Tree=1
num_leaves=6
num_cat=0
split_feature=0 18 5 5 17
split_gain=8.17803 8.58794 9.43364 3.02776 0.855359
threshold=1.5332477757419751 -1.3314830895769696 0.70017318856604149 -0.18173202747124684 -0.71039229521076275
decision_type=2 2 2 2 2
left_child=1 3 -3 -1 -2
right_child=4 2 -4 -5 -6
leaf_value=0.05288904553002953 -0.0050978886081246748 -0.0032490331597586344 0.024261207128406782 0.0042058209006335329 -0.036916943047429603
leaf_weight=3.1597547680139542 1.7674354910850523 84.248026460409164 12.115934282541273 2.2356104999780646 4.6239158660173407
leaf_count=14 8 379 54 10 21
internal_value=0.00036626 0.00258609 0.000319381 0.0368332 -0.0304981
internal_weight=108.151 101.759 96.364 5.39537 6.39135
internal_count=486 457 433 24 29
is_linear=0
shrinkage=0.03


Tree=2
num_leaves=6
num_cat=0
split_feature=0 18 12 12 24
split_gain=7.84797 8.11395 8.90877 2.93838 0.845878
threshold=1.5332477757419751 -1.3314830895769696 -0.48313387265716262 -0.47840875356943757 0.89334697946845576
decision_type=2 2 2 2 2
left_child=1 3 -3 -1 -2
right_child=4 2 -4 -5 -6
leaf_value=0.0037538736664255085 -0.03642570606222463 0.017087287247547576 -0.0045223129533028834 0.051358143161105443 -0.0048446377344873327
leaf_weight=2.2492559254169464 4.5688761472702017 21.385420754551888 74.980133786797523 3.1996025741100302 1.7594697028398512
leaf_count=10 21 96 337 14 8
internal_value=0.000360566 0.00252641 0.000312736 0.0356639 -0.0300161
internal_weight=108.143 101.814 96.3656 5.44886 6.32835
internal_count=486 457 433 24 29
is_linear=0
shrinkage=0.03


Tree=3
num_leaves=6
num_cat=0
split_feature=13 15 10 18 21
split_gain=6.62737 7.24387 6.49796 3.35852 2.75781
threshold=-1.0340606528510914 2.2586945918520525 -1.0595743188284306 -0.19648936521432789 0.028083542013280973
decision_type=2 2 2 2 2
left_child=4 2 -2 -3 -1
right_child=1 3 -4 -5 -6
leaf_value=0.045500956885367823 -0.0225023172824684 0.00087298431739758536 -0.00027159504017833729 0.049642513756587202 0.003406759703973286
leaf_weight=3.1541612148284903 13.096188694238661 2.4557098597288132 83.844759583473206 2.6799799501895896 2.9040396213531494
leaf_count=14 59 11 377 12 13
internal_value=0.000352949 -0.0014978 -0.00349583 0.0305941 0.0289488
internal_weight=108.135 102.077 96.9409 5.13569 6.0582
internal_count=486 459 436 23 27
is_linear=0
shrinkage=0.03


Tree=4
num_leaves=6
num_cat=0
split_feature=0 5 18 17 18
split_gain=7.53311 7.70164 8.88191 6.68064 0.847708
threshold=1.5332477757419751 0.70017318856604149 -1.3314830895769696 0.56444485435860015 1.0005894414550209
decision_type=2 2 2 2 2
left_child=1 2 -1 -3 -2
right_child=4 3 -4 -5 -6
leaf_value=0.038213973718083542 -0.035969528141127409 0.034925172904873042 -0.0031088514690926811 -0.0093165627012902503 -0.0045181547957209882
leaf_weight=4.1485148072242728 4.515130326151847 9.9677646905183774 84.105075255036354 3.6322876363992682 1.7487999498844145
leaf_count=18 21 44 379 16 8
internal_value=0.000360079 0.00247354 -0.000773184 0.0228313 -0.0295443
internal_weight=108.118 101.854 88.2536 13.6001 6.26393
internal_count=486 457 397 60 29
is_linear=0
shrinkage=0.03


Tree=5
num_leaves=8
num_cat=0
split_feature=12 18 18 19 2 15 8
split_gain=8.43352 13.5832 11.0792 8.55155 6.19417 5.82783 5.20748
threshold=-0.50722054096486013 0.19718892152508158 -0.68558464474576863 -0.96707357148913242 0.38502787034316804 -0.2821695086664659 -0.55814809139739696
decision_type=2 2 2 2 2 2 2
left_child=1 4 6 -3 -1 -4 -2
right_child=2 3 5 -5 -6 -7 -8
leaf_value=0.013674163441537913 -0.011183328083057546 -0.0018382172038924375 -0.017269151517257237 0.062834263423690445 -0.022256798162122633 0 0.029142678988395981
leaf_weight=10.339755043387418 3.1056115180253974 2.239042192697525 35.591662049293518 5.8451777249574643 6.2489640712738028 33.279484137892723 10.816757366061209
leaf_count=46 14 10 161 26 28 150 48
internal_value=0.000602233 0.0157578 -0.00395002 0.0456943 0 -0.0089716 0.0196209
internal_weight=107.466 24.6729 82.7935 8.08422 16.5887 68.8711 13.9224
internal_count=483 110 373 36 74 311 62
is_linear=0
shrinkage=0.03


Tree=6
num_leaves=7
num_cat=0
split_feature=12 22 16 14 3 13
split_gain=7.93977 9.87281 6.6819 6.20191 5.63354 5.59879
threshold=-0.50722054096486013 1.0847096021447948 0.77992709004036309 -0.36635037774783907 0.22318568078748913 -0.75166636804804898
decision_type=2 2 2 2 2 2
left_child=1 5 3 -2 -4 -1
right_child=2 -3 4 -5 -6 -7
leaf_value=0.0059943574858976941 -0.0095955119774075708 -0.032423481831086398 -0.028141375740167122 0.0090934892912965231 0.0067033120694410427 0.036910890168587528
leaf_weight=11.326584056019787 27.494292408227921 2.6341383159160605 14.356074035167696 35.767526611685753 5.049917832016944 10.821451380848885
leaf_count=50 124 12 65 161 23 48
internal_value=0.000591517 0.0152568 -0.00383706 0.000858986 -0.0188706 0.0221217
internal_weight=107.45 24.7822 82.6678 63.2618 19.406 22.148
internal_count=483 110 373 285 88 98
is_linear=0
shrinkage=0.03


end of trees

feature_importances:
atr_ratio=8
rsi_14=4
macd_signal=4
volume_ratio=4
bb_width=2
volume_trend=2
volatility_20bar=2
atr_14=2
rsi_slope=1
macd_hist=1
momentum_1bar=1
momentum_5bar=1
volatility_5bar=1
vol_ratio=1
candle_body_ratio=1
lower_wick_ratio=1
consec_direction=1
hour_sin=1

parameters:
[boosting: gbdt]
[objective: binary]
[metric: binary_logloss]
[tree_learner: serial]
[device_type: cpu]
[data_sample_strategy: bagging]
[data: ]
[valid: ]
[num_iterations: 300]
[learning_rate: 0.03]
[num_leaves: 20]
[num_threads: 0]
[seed: 0]
[deterministic: 0]
[force_col_wise: 0]
[force_row_wise: 0]
[histogram_pool_size: -1]
[max_depth: 3]
[min_data_in_leaf: 8]
[min_sum_hessian_in_leaf: 0.001]
[bagging_fraction: 0.7]
[pos_bagging_fraction: 1]
[neg_bagging_fraction: 1]
[bagging_freq: 5]
[bagging_seed: 3]
[bagging_by_query: 0]
[feature_fraction: 0.7]
[feature_fraction_bynode: 1]
[feature_fraction_seed: 2]
[extra_trees: 0]
[extra_seed: 6]
[early_stopping_round: 0]
[early_stopping_min_delta: 0]
[first_metric_only: 0]
[max_delta_step: 0]
[lambda_l1: 0.2]
[lambda_l2: 0.8]
[linear_lambda: 0]
[min_gain_to_split: 0]
[drop_rate: 0.1]
[max_drop: 50]
[skip_drop: 0.5]
[xgboost_dart_mode: 0]
[uniform_drop: 0]
[drop_seed: 4]
[top_rate: 0.2]
[other_rate: 0.1]
[min_data_per_group: 100]
[max_cat_threshold: 32]
[cat_l2: 10]
[cat_smooth: 10]
[max_cat_to_onehot: 4]
[top_k: 20]
[monotone_constraints: ]
[monotone_constraints_method: basic]
[monotone_penalty: 0]
[feature_contri: ]
[forcedsplits_filename: ]
[refit_decay_rate: 0.9]
[cegb_tradeoff: 1]
[cegb_penalty_split: 0]
[cegb_penalty_feature_lazy: ]
[cegb_penalty_feature_coupled: ]
[path_smooth: 0]
[interaction_constraints: ]
[verbosity: -1]
[saved_feature_importance_type: 0]
[use_quantized_grad: 0]
[num_grad_quant_bins: 4]
[quant_train_renew_leaf: 0]
[stochastic_rounding: 1]
[linear_tree: 0]
[max_bin: 255]
[max_bin_by_feature: ]
[min_data_in_bin: 3]
[bin_construct_sample_cnt: 200000]
[data_random_seed: 1]
[is_enable_sparse: 1]
[enable_bundle: 1]
[use_missing: 1]
[zero_as_missing: 0]
[feature_pre_filter: 1]
[pre_partition: 0]
[two_round: 0]
[header: 0]
[label_column: ]
[weight_column: ]
[group_column: ]
[ignore_column: ]
[categorical_feature: ]
[forcedbins_filename: ]
[precise_float_parser: 0]
[parser_config_file: ]
[objective_seed: 5]
[num_class: 1]
[is_unbalance: 0]
[scale_pos_weight: 1]
[sigmoid: 1]
[boost_from_average: 1]
[reg_sqrt: 0]
[alpha: 0.9]
[fair_c: 1]
[poisson_max_delta_step: 0.7]
[tweedie_variance_power: 1.5]
[lambdarank_truncation_level: 30]
[lambdarank_norm: 1]
[label_gain: ]
[lambdarank_position_bias_regularization: 0]
[eval_at: ]
[multi_error_top_k: 1]
[auc_mu_weights: ]
[num_machines: 1]
[local_listen_port: 12400]
[time_out: 120]
[machine_list_filename: ]
[machines: ]
[gpu_platform_id: -1]
[gpu_device_id: -1]
[gpu_use_dp: 0]
[num_gpu: 1]

end of parameters

pandas_categorical:null
