tree
version=v4
num_class=1
num_tree_per_iteration=1
label_index=0
max_feature_idx=29
objective=binary sigmoid:1
feature_names=rsi_14 rsi_7 rsi_slope macd_hist macd_hist_delta macd_signal bb_position bb_width momentum_1bar momentum_3bar momentum_5bar momentum_10bar volume_ratio volume_trend volatility_5bar volatility_20bar vol_ratio atr_14 atr_ratio candle_body_ratio upper_wick_ratio lower_wick_ratio consec_direction close_vs_open hour_sin hour_cos returns_std_10 returns_skew_10 high_low_range close_position_in_range
feature_infos=[-2.4804548660414003:2.4847435681393333] [-2.4252291737245697:2.3028260511512935] [-3.5698288327583896:3.7986476545047285] [-3.3398554919160626:3.9290743320342028] [-4.8093494374049:3.681592107770931] [-3.2511213099547454:3.5126181400378469] [-3.1900245754120733:2.7313000227091391] [-1.0814686006179104:4.2529047064743004] [-5.0053885626850043:5.3417515981839685] [-5.1523389922471532:4.5344720443173756] [-4.4368614042430607:4.5691932270001256] [-3.8175294007759928:5.2587649254121507] [-0.99806220655408462:10.419964914766027] [-1.7941372362468235:4.3015374608116401] [-1.4184406500914166:4.449424053970942] [-1.4569309053702855:3.3466194666547548] [-2.1915510844012478:2.8712945014583071] [-1.4753930656062895:4.4297040528516156] [-2.5478529468986175:3.80839753030547] [-1.7655861663677592:1.7649007352409927] [-1.0547461289680709:3.2349806472904201] [-1.021627793953974:2.9554721857420461] [-2.8336275401087416:3.0305430074105324] [-1.0739335795724709:0.93115628286630436] [-1.4530622985588424:1.4260516190213544] [-1.2802982573395032:1.520196259195006] [-1.4227488681710563:3.6143890132740006] [-2.6112882083138453:3.3198244510755255] [-1.2460082093263833:4.4617418857104907] [-1.8982996830275538:1.6188746112581207]
tree_sizes=963 975 875 878 879 871 870 979 881 982 861 863 965 873 874 968 991 991 775 775 776 947 963 992 980 979 982 985 983 984 962

Tree=0
num_leaves=8
num_cat=0
split_feature=14 9 14 22 25 8 4
split_gain=64.2049 16.7663 15.2483 9.86761 7.7638 7.17252 3.635
threshold=-0.26553871840239135 -0.50017566430340998 0.34695839144278923 1.4517278600014969 1.0770902990983353 0.18211591129575408 0.77029764952507573
decision_type=2 2 2 2 2 2 2
left_child=3 5 -3 4 -1 -2 -5
right_child=1 2 -4 6 -6 -7 -8
leaf_value=-0.57011226316054142 -0.49322482094240755 -0.5435542197581209 -0.51282076507548435 -0.55303181884907027 -0.54799199654352015 -0.53816407153937684 -0.50710157836033198
leaf_weight=39.037473499774933 23.214422017335895 34.102229416370392 26.921602606773376 3.0155566930770865 20.800444096326828 5.2590235769748679 3.1726568341255188
leaf_count=153 66 121 84 11 75 18 9
internal_value=-0.53605 -0.51962 -0.529421 -0.558352 -0.562319 -0.500434 -0.525293
internal_weight=155.523 89.4973 61.0238 66.0261 59.8379 28.4734 6.18821
internal_count=537 289 205 248 228 84 20
is_linear=0
shrinkage=1


Tree=1
num_leaves=8
num_cat=0
split_feature=14 9 10 14 5 25 8
split_gain=59.8059 15.3825 15.1397 14.0937 7.7267 7.08905 6.46323
threshold=-0.26553871840239135 -0.50017566430340998 0.35638105534511627 0.34695839144278923 0.78183518448662304 1.4901478544579809 0.18211591129575408
decision_type=2 2 2 2 2 2 2
left_child=2 6 5 -3 -4 -1 -2
right_child=1 3 4 -5 -6 -7 -8
leaf_value=-0.017749648747972288 0.057227817203553438 0.009178389047978075 0.03021950850594458 0.038649605522276885 -0.014281910622878171 0.014332516331550147 0.014444099229238229
leaf_weight=43.619694650173187 23.572216942906383 34.188789874315262 12.400144815444948 27.204893946647644 3.7724611163139334 6.1179366111755362 5.27988077700138
leaf_count=172 66 121 40 84 15 21 18
internal_value=0.0164412 0.0321879 -0.00514391 0.0227921 0.0190877 -0.0134213 0.0504461
internal_weight=156.156 90.2458 65.9102 61.3937 16.1726 49.7376 28.8521
internal_count=537 289 248 205 55 193 84
is_linear=0
shrinkage=0.03


Tree=2
num_leaves=7
num_cat=0
split_feature=17 9 18 18 8 20
split_gain=44.4953 18.8204 11.3378 9.00462 5.99263 5.67349
threshold=-0.45605348759512032 -0.64132552547217159 0.42729697900088948 1.339452113823935 0.18211591129575408 -0.53557488390702279
decision_type=2 2 2 2 2 2
left_child=3 4 -3 5 -2 -1
right_child=1 2 -4 -5 -6 -7
leaf_value=-0.024006893205342817 0.054830251882838986 0.01050827919981993 0.034602900916341342 0.030585577990734036 0.0094663240495660196 -0.0021255771036761454
leaf_weight=18.799454033374786 22.003547340631489 54.87951497733593 27.252068519592285 3.9334078133106223 4.0524853914976111 25.793581187725067
leaf_count=76 61 193 85 12 14 96
internal_value=0.0159183 0.0265682 0.0189314 -0.00770062 0.0487181 -0.0118719
internal_weight=156.714 108.188 82.1316 48.5264 26.056 44.593
internal_count=537 353 278 184 75 172
is_linear=0
shrinkage=0.03


Tree=3
num_leaves=7
num_cat=0
split_feature=17 18 2 24 26 15
split_gain=41.6374 12.309 13.5181 10.3677 8.93006 6.81565
threshold=-0.45605348759512032 0.44632039825769942 1.325671245482696 0.71978572683837605 -0.16141172391467548 -1.3155730533577155
decision_type=2 2 2 2 2 2
left_child=4 2 -2 -3 5 -1
right_child=1 3 -4 -5 -6 -7
leaf_value=-0.038536593186999368 0.020747842273285175 0.047544430655753186 -0.034300791985579858 0.0065315494357228191 0.04049189138000972 -0.0056454446986945444
leaf_weight=5.9538479000329962 67.819249659776688 29.902209222316742 3.2609122246503821 7.8353120088577262 2.2317408621311179 40.22778008878231
leaf_count=26 226 86 14 27 6 152
internal_value=0.0154127 0.0256574 0.0176567 0.0396498 -0.00748517 -0.0108035
internal_weight=157.231 108.818 71.0802 37.7375 48.4134 46.1816
internal_count=537 353 240 113 184 178
is_linear=0
shrinkage=0.03


Tree=4
num_leaves=7
num_cat=0
split_feature=14 9 14 15 1 25
split_gain=50.6568 12.9625 11.9766 9.19684 6.63286 3.57865
threshold=-0.26553871840239135 -0.50017566430340998 0.34695839144278923 -1.3155730533577155 1.1023007301508827 0.97236552283606803
decision_type=2 2 2 2 2 2
left_child=3 5 -3 -1 -5 -2
right_child=1 2 -4 4 -6 -7
leaf_value=-0.037923820068603183 0.050664113345593495 0.0080551344544085163 0.03501441281556264 -0.0055326561961468075 0.021077397882200952 0.015350715042502672
leaf_weight=5.8857369422912589 24.632392466068271 34.499677732586861 27.816569864749908 50.897922798991203 9.0262330174446088 4.9715260863304129
leaf_count=26 68 121 84 192 30 16
internal_value=0.0149078 0.0291891 0.0205942 -0.00504326 -0.00109655 0.0457232
internal_weight=157.73 91.9202 62.3162 65.8099 59.9242 29.6039
internal_count=537 289 205 248 222 84
is_linear=0
shrinkage=0.03


Tree=5
num_leaves=7
num_cat=0
split_feature=14 25 10 26 14 11
split_gain=41.2823 17.2006 12.8798 14.3309 10.4839 10.1189
threshold=-0.38892605049644913 0.83321623169538539 -0.45234528507669164 -0.98017148387191178 0.34695839144278923 0.28483651243365027
decision_type=2 2 2 2 2 2
left_child=2 4 -1 -4 -2 -3
right_child=1 5 3 -5 -6 -7
leaf_value=-0.040047842595631392 0.019655358304163085 0.012179127555302467 -0.021733620173744105 0.010278032908087261 0.04326309124466212 -0.03723596849605465
leaf_weight=7.3487461358308783 39.181085929274559 11.885846570134165 17.605111747980118 37.903452545404434 37.757896229624748 4.2241753041744223
leaf_count=32 130 40 72 134 108 18
internal_value=0.0133208 0.0259223 -0.00530644 0 0.0317628 -0.00167088
internal_weight=155.906 93.049 62.8573 55.5086 76.939 16.11
internal_count=534 296 238 206 238 58
is_linear=0
shrinkage=0.03


Tree=6
num_leaves=7
num_cat=0
split_feature=14 10 17 17 10 19
split_gain=38.7019 12.3518 13.5291 10.5539 11.3724 3.20467
threshold=-0.38892605049644913 -0.45234528507669164 -1.0127059586848997 0.83408427727517254 -0.15274928093555257 0.23458393416989212
decision_type=2 2 2 2 2 2
left_child=1 -1 -3 4 -2 -5
right_child=3 2 -4 5 -6 -7
leaf_value=-0.039401876894194471 0.033718431200703537 -0.0265827488730307 0.0079083132340336398 0.052049975724120109 0.0080452865872227899 0.024053137688030413
leaf_weight=7.2628397196531287 25.617015451192856 12.321353137493132 43.175123319029808 14.45561169087887 42.484586089849472 10.939364567399023
leaf_count=32 77 52 154 39 146 34
internal_value=0.0128875 -0.00518103 0 0.0250377 0.0181809 0.041699
internal_weight=156.256 62.7593 55.4965 93.4966 68.1016 25.395
internal_count=534 238 206 296 223 73
is_linear=0
shrinkage=0.03


Tree=7
num_leaves=8
num_cat=0
split_feature=26 26 19 28 5 0 26
split_gain=36.8104 12.8369 10.2645 5.60998 14.6841 4.90007 2.13568
threshold=-0.16141172391467548 -0.98017148387191178 0.86881843939973236 1.1181754528707522 0.94927168962607789 0.6479915759583208 1.3515979746625171
decision_type=2 2 2 2 2 2 2
left_child=1 5 -3 4 -2 -1 -5
right_child=3 2 -4 6 -6 -7 -8
leaf_value=-0.029730045861398793 0.028499179505714692 0.010589536962048906 -0.020705153139968145 0.021165984137707667 -0.012099054415657848 0.0058402561985111765 0.054133252406473639
leaf_weight=15.172527179121973 50.53467646241188 52.827189728617668 10.338249593973158 5.8101748675107947 8.5760440677404386 3.5643789917230597 9.7289086729288083
leaf_count=65 155 185 41 18 32 13 25
internal_value=0.0124902 -0.00132575 0.00508443 0.0275846 0.022356 -0.0225543 0.0443758
internal_weight=156.552 81.9023 63.1654 74.6498 59.1107 18.7369 15.5391
internal_count=534 304 226 230 187 78 43
is_linear=0
shrinkage=0.03


Tree=8
num_leaves=7
num_cat=0
split_feature=14 25 11 15 4 14
split_gain=34.6577 15.5392 9.3895 9.28751 9.4772 8.9624
threshold=-0.38892605049644913 0.83321623169538539 0.28483651243365027 -1.3155730533577155 -0.37156269805996506 0.34695839144278923
decision_type=2 2 2 2 2 2
left_child=3 5 -3 -1 -5 -2
right_child=1 2 -4 4 -6 -7
leaf_value=-0.036873758953287705 0.017878834270967193 0.010663766099027064 -0.036910086243389886 -0.026818316824329176 0.0047577794479522944 0.039577242021612356
leaf_weight=6.3127952963113776 39.631898254156113 12.004804819822313 4.2010818123817435 9.3941552937030774 46.902197673916817 38.36314357817173
leaf_count=29 130 40 18 39 170 108
internal_value=0.0121066 0.0235296 -0.00257425 -0.00503852 -0.000730337 0.0290314
internal_weight=156.81 94.2009 16.2059 62.6091 56.2964 77.995
internal_count=534 296 58 238 209 238
is_linear=0
shrinkage=0.03


Tree=9
num_leaves=8
num_cat=0
split_feature=26 26 24 25 7 3 12
split_gain=32.6491 11.8228 11.1995 12.0907 9.07248 6.51086 5.29183
threshold=-0.16141172391467548 -0.98017148387191178 -0.15459820139163735 -0.37325881775347663 -0.34729610418481099 1.2404525257240335 0.78016497002079366
decision_type=2 2 2 2 2 2 2
left_child=1 6 3 -2 -4 -3 -1
right_child=2 5 4 -5 -6 -7 -8
leaf_value=-0.027609530964494002 0.044864180631792434 0.0071993847096944738 -0.034649694704463142 0.01374750050785976 0.015175103908512821 -0.033006163485993133 0.015646014502043764
leaf_weight=16.48558954894543 32.083984285593033 60.489480718970299 2.8589715212583569 20.361710414290428 19.901185378432274 2.8077358454465857 2.0347681939601889
leaf_count=71 88 214 12 66 64 12 7
internal_value=0.0117207 -0.00131952 0.0258566 0.033435 0.00734277 0.00479037 -0.0218381
internal_weight=157.023 81.8176 75.2059 52.4457 22.7602 63.2972 18.5204
internal_count=534 304 230 154 76 226 78
is_linear=0
shrinkage=0.03


Tree=10
num_leaves=7
num_cat=0
split_feature=17 17 24 11 2 2
split_gain=42.6469 15.3125 11.6922 11.0036 8.37286 7.88393
threshold=-0.44045338306031773 0.35483884756622025 -1.4221703329546715 -0.48293841662735654 1.6568873740157688 -1.0790732733883088
decision_type=2 2 2 2 2 2
left_child=4 3 -3 -2 5 -1
right_child=1 2 -4 -5 -6 -7
leaf_value=0.011489687709178936 0.033621896167162761 0 0.041549595890404974 0.0054615822993973233 0.027511175088985689 -0.020427159341921339
leaf_weight=7.3429215401411048 15.769324645400046 6.9305478036403647 37.342161312699318 55.739376410841942 3.4902994930744162 39.636677011847496
leaf_count=26 46 24 104 192 11 161
internal_value=0.0112259 0.0212299 0.0350664 0.0121738 -0.0115155 -0.0151155
internal_weight=166.251 115.781 44.2727 71.5087 50.4699 46.9796
internal_count=564 366 128 238 198 187
is_linear=0
shrinkage=0.03


Tree=11
num_leaves=7
num_cat=0
split_feature=17 17 24 11 9 15
split_gain=40.0378 14.2989 10.9403 10.3222 7.32326 5.03538
threshold=-0.44045338306031773 0.35483884756622025 -1.4221703329546715 -0.48293841662735654 0.71358448740149505 -1.3155730533577155
decision_type=2 2 2 2 2 2
left_child=4 3 -3 -2 5 -1
right_child=1 2 -4 -5 -6 -7
leaf_value=-0.036983163967885667 0.032530734200978899 0 0.040151790005885812 0.0052947948678691899 0.01840489832938428 -0.0099837337358535325
leaf_weight=7.4189116656780234 15.841717854142187 6.9305478036403647 37.514942571520805 55.800871595740318 5.526671275496482 37.329830721020699
leaf_count=35 46 24 104 192 18 145
internal_value=0.0109021 0.0205616 0.0339064 0.0118061 -0.0111927 -0.0153673
internal_weight=166.363 116.088 44.4455 71.6426 50.2754 44.7487
internal_count=564 366 128 238 198 180
is_linear=0
shrinkage=0.03


Tree=12
num_leaves=8
num_cat=0
split_feature=17 17 25 25 24 11 9
split_gain=37.696 13.375 10.3674 11.0524 10.2547 9.69267 6.78554
threshold=-0.44045338306031773 0.35483884756622025 0.058871073362142347 1.4683700841050384 -1.4221703329546715 -0.48293841662735654 0.17766936338141984
decision_type=2 2 2 2 2 2 2
left_child=2 5 6 -4 -3 -2 -1
right_child=1 4 3 -5 -6 -7 -8
leaf_value=-0.0094147799727268434 0.031494873840452214 0 -0.031244727692804564 0.0079463642391381199 0.038837640204905363 0.0051333396733116649 0.02491682086948099
leaf_weight=10.103212028741838 15.903774380683897 6.9305478036403647 23.617374032735828 7.8653391897678366 37.652435123920441 55.859797641634941 8.4963373541831952
leaf_count=40 46 24 102 28 104 192 28
internal_value=0.0105791 0.0199229 -0.0109163 -0.0212333 0.0328109 0.0114516 0.00627995
internal_weight=166.429 116.347 50.0823 31.4827 44.583 71.7636 18.5995
internal_count=564 366 198 130 128 238 68
is_linear=0
shrinkage=0.03


Tree=13
num_leaves=7
num_cat=0
split_feature=7 25 24 13 25 13
split_gain=34.094 18.9373 7.809 7.49024 4.28792 2.6168
threshold=-0.79428131343889385 -0.1681728313296543 -0.2324956189531526 0.94395247067436439 1.5014114265702736 0.83800712175345959
decision_type=2 2 2 2 2 2
left_child=4 2 -2 -3 5 -1
right_child=1 3 -4 -5 -6 -7
leaf_value=-0.031273447182562947 0.03442369326664442 -0.0009833704953859906 0.014599641679928516 0.027362899178269395 0.0094379527046601474 0.00034164135464246633
leaf_weight=18.037752017378814 41.676183238625526 54.662493288516998 38.924857199192047 8.7967505753040296 2.3202573210000983 2.0278060734271994
leaf_count=80 118 195 129 26 8 8
internal_value=0.0102737 0.0156782 0.0252565 0.00316992 -0.023305 -0.0277867
internal_weight=166.446 144.06 80.601 63.4592 22.3858 20.0656
internal_count=564 468 247 221 96 88
is_linear=0
shrinkage=0.03


Tree=14
num_leaves=7
num_cat=0
split_feature=17 17 6 2 2 10
split_gain=33.7504 12.4317 8.27343 7.63159 7.55151 2.20396
threshold=-0.44045338306031773 1.4418509404495212 -0.95922042237971483 1.6568873740157688 -1.0790732733883088 -0.36009527990722368
decision_type=2 2 2 2 2 2
left_child=3 2 -2 4 -1 -3
right_child=1 5 -4 -5 -6 -7
leaf_value=0.01206941314303399 0.032637548427070263 0.015546247111958875 0.0094836918992243033 0.026677335990633429 -0.019249496610724458 0.046561252974223789
leaf_weight=7.2984276115894309 16.976270824670792 5.0619400590658215 79.915829718112946 3.50213599205017 38.941860929131508 14.784072279930113
leaf_count=26 48 15 265 11 161 38
internal_value=0.00997519 0.0187726 0.0139243 -0.0104567 -0.0139649 0.0402075
internal_weight=166.481 116.738 96.8921 49.7424 46.2403 19.846
internal_count=564 366 313 198 187 53
is_linear=0
shrinkage=0.03


Tree=15
num_leaves=8
num_cat=0
split_feature=14 7 12 19 1 7 19
split_gain=22.9219 11.9251 12.713 9.66622 15.6605 7.59298 0.0731598
threshold=-0.26553871840239135 -0.90371577559493144 -0.14270893771171264 -0.21928931719685854 -0.83062540894402392 -0.45979260904641356 0.97483936213045086
decision_type=2 2 2 2 2 2 2
left_child=1 6 -3 5 -5 -2 -1
right_child=3 2 -4 4 -6 -7 -8
leaf_value=-0.035979178569845463 0 -0.005879917315526049 0.023230822993515404 0.040647800372523336 0.0031581875108966833 0.038486957563461523 -0.0093981853852634894
leaf_weight=6.4840342849493009 4.9302822798490515 38.540827453136444 19.351130470633507 12.771050497889517 39.99493995308876 33.462536469101906 2.0300878435373306
leaf_count=31 17 145 65 34 133 93 9
internal_value=0.0123073 -0.000986113 0.00392714 0.0219943 0.0129865 0.033502 -0.0322412
internal_weight=157.565 66.4061 57.892 91.1588 52.766 38.3928 8.51412
internal_count=527 250 210 277 167 110 40
is_linear=0
shrinkage=0.03


Tree=16
num_leaves=8
num_cat=0
split_feature=14 7 13 21 29 17 19
split_gain=21.6154 11.4489 9.87345 9.84003 13.4592 9.2822 0.0630743
threshold=-0.26553871840239135 -0.90371577559493144 -0.6076109632196357 -0.86579646607127347 0.48381734764426437 -0.31978727513234956 0.97483936213045086
decision_type=2 2 2 2 2 2 2
left_child=1 6 -3 4 -2 -5 -1
right_child=3 2 -4 5 -6 -7 -8
leaf_value=-0.035497964484340672 0.019920965061625814 -0.011263045603609906 0.01361387382865996 -0.0049969622054152141 -0.030245640676344502 0.029766655870943869 -0.0092325832345323301
leaf_weight=6.3897587805986387 12.250808015465738 22.419726774096489 35.530398845672607 6.9349683225154868 6.5337552130222312 65.565980210900307 2.0225573480129242
leaf_count=31 37 86 124 25 26 189 9
internal_value=0.0119397 -0.000975093 0.00380903 0.0213349 0.00137004 0.0262962 -0.031791
internal_weight=157.648 66.3624 57.9501 91.2855 18.7846 72.5009 8.41232
internal_count=527 250 210 277 63 214 40
is_linear=0
shrinkage=0.03


Tree=17
num_leaves=8
num_cat=0
split_feature=14 7 12 21 27 17 19
split_gain=20.3564 10.9909 11.6021 9.24336 11.7786 8.7379 0.0539967
threshold=-0.26553871840239135 -0.90371577559493144 -0.14270893771171264 -0.86579646607127347 0.23736153644783789 -0.31978727513234956 0.97483936213045086
decision_type=2 2 2 2 2 2 2
left_child=1 6 -3 4 -2 -5 -1
right_child=3 2 -4 5 -6 -7 -8
leaf_value=-0.035034125072978324 0.01990329889973216 -0.0057113449558720639 0.022023565245752476 -0.0048701994631257526 -0.026258417668995466 0.028837872022989 -0.0090699182180220637
leaf_weight=6.2948043048381788 11.565797612071039 38.482549250125885 19.526603728532791 6.9281421899795523 7.2034781873226157 65.677743583917618 2.0151145458221436
leaf_count=31 35 145 65 25 28 189 9
internal_value=0.0115668 -0.000970652 0.00368706 0.0206757 0.00129951 0.0254767 -0.0313552
internal_weight=157.694 66.3191 58.0092 91.3752 18.7693 72.6059 8.30992
internal_count=527 250 210 277 63 214 40
is_linear=0
shrinkage=0.03


Tree=18
num_leaves=6
num_cat=0
split_feature=7 13 16 7 17
split_gain=19.3535 9.77769 7.9198 6.12422 0.0501854
threshold=-0.90371577559493144 -0.99457947511110545 -1.0217521718100475 -0.47047953327824837 -1.3425949568259943
decision_type=2 2 2 2 2
left_child=4 3 -3 -2 -1
right_child=1 2 -4 -5 -6
leaf_value=-0.00939087479497378 -0.026282500988798661 -0.0024751195227301478 0.019785474817330291 0.0058717099009459039 -0.034814663150347085
leaf_weight=2.1292434334754944 6.6637929230928448 15.447987183928488 111.44225132465363 15.939183264970778 6.0778885483741742
leaf_count=10 28 57 349 53 30
internal_value=0.0112114 0.013775 0.0170069 -0.00393856 -0.0309326
internal_weight=157.7 149.493 126.89 22.603 8.20713
internal_count=527 487 406 81 40
is_linear=0
shrinkage=0.03


Tree=19
num_leaves=6
num_cat=0
split_feature=15 25 18 24 5
split_gain=20.973 9.21453 9.39092 8.13893 7.07081
threshold=-1.1669135599764022 -0.21287001813077863 2.1774307101425809 -0.2324956189531526 1.0000000180025095e-35
decision_type=2 2 2 2 2
left_child=4 3 -3 -2 -1
right_child=1 2 -4 -5 -6
leaf_value=-0.036999487900499825 0.030116767028956069 0.0022078819394792545 0.046245358892656789 0.010149539736206992 0.015863930460249365
leaf_weight=9.4549745023250562 41.359746694564819 62.918777853250504 3.7515207529067984 38.280002921819687 2.0292022228240958
leaf_count=47 117 220 9 127 7
internal_value=0.0108537 0.0139995 0.00546563 0.0208757 -0.0264153
internal_weight=157.794 146.31 66.6703 79.6397 11.4842
internal_count=527 473 229 244 54
is_linear=0
shrinkage=0.03


Tree=20
num_leaves=6
num_cat=0
split_feature=14 12 7 28 18
split_gain=15.9616 7.82301 7.65704 7.4975 9.29369
threshold=-0.38892605049644913 1.1024066246380453 0.030994229039252391 2.4451274082985672 0.70698311453892637
decision_type=2 2 2 2 2
left_child=1 2 -1 4 -2
right_child=3 -3 -4 -5 -6
leaf_value=-0.013982733821642671 0.0030452942869279901 0.036674909560378596 0.019300975549284068 0.043007533814671282 0.023136725921769685
leaf_weight=48.624027237296104 62.173107236623764 2.410421982407569 6.0177532583475104 6.0521648228168479 31.386445045471191
leaf_count=196 206 7 19 15 92
internal_value=0.00531916 -0.00715482 -0.00987442 0.0125531 0.0100539
internal_weight=156.664 57.0522 54.6418 99.6117 93.5596
internal_count=535 222 215 313 298
is_linear=0
shrinkage=0.03


Tree=21
num_leaves=8
num_cat=0
split_feature=25 27 17 18 20 18 2
split_gain=17.481 14.0737 9.46058 8.49121 6.96352 5.94588 4.90232
threshold=-0.21287001813077863 -1.0563604780439217 0.88902042279013904 -0.1841049805144315 -0.40478462368453244 0.70698311453892637 0.7681768660722198
decision_type=2 2 2 2 2 2 2
left_child=2 5 3 -1 -3 -2 -4
right_child=1 4 6 -5 -6 -7 -8
leaf_value=-0.0033134717154201386 0 -0.022070224276278486 0.040903332334170324 0.018233660246862009 -0.0017198946581811932 0.040206976631493259 0
leaf_weight=27.661348670721054 5.7725019007921201 27.727426618337631 14.333512812852861 36.716654285788536 34.607473850250244 6.5609918236732483 3.1375975608825675
leaf_count=99 20 112 37 113 127 17 10
internal_value=0.00519035 -0.00518797 0.0147151 0.00892875 -0.0111196 0.022702 0.0339119
internal_weight=156.518 74.6684 81.8491 64.378 62.3349 12.3335 17.4711
internal_count=535 276 259 212 239 37 47
is_linear=0
shrinkage=0.03


Tree=22
num_leaves=8
num_cat=0
split_feature=25 11 17 21 4 2 3
split_gain=16.477 12.5024 8.98554 13.0837 8.62495 4.65504 2.06718
threshold=-0.21287001813077863 -0.64153077451669127 0.88902042279013904 0.27771893490832583 -0.33799914765576355 0.7681768660722198 -0.80452047708715602
decision_type=2 2 2 2 2 2 2
left_child=2 6 3 -1 -3 -4 -2
right_child=1 4 5 -5 -6 -7 -8
leaf_value=-0.0013626714778699209 0.00427417703793924 0.0082288139138608062 0.039860742145647401 0.02622596801654585 -0.016469393158107276 0 0.034342260076080912
leaf_weight=41.275999501347542 4.4584383368492126 15.935122996568678 14.293900653719904 23.136471793055534 48.140739649534225 3.1375975608825675 5.9664332419633848
leaf_count=142 14 55 37 70 191 10 16
internal_value=0.00505153 -0.00503821 0.0142946 0.00865881 -0.0101568 0.0330318 0.0237704
internal_weight=156.345 74.5007 81.844 64.4125 64.0759 17.4315 10.4249
internal_count=535 276 259 212 246 47 30
is_linear=0
shrinkage=0.03


Tree=23
num_leaves=8
num_cat=0
split_feature=25 27 17 21 20 20 6
split_gain=15.5063 13.0581 8.54375 12.3075 6.65909 5.59397 1.81467
threshold=-0.21287001813077863 -1.0563604780439217 0.88902042279013904 0.30913256124758898 -0.40478462368453244 -0.046898698921966547 -0.28744691457257415
decision_type=2 2 2 2 2 2 2
left_child=2 5 3 -1 -3 -2 -4
right_child=1 4 6 -5 -6 -7 -8
leaf_value=-0.0011178660585393172 0.03696763497216371 -0.021386449998187979 0.011029400319520847 0.025774540092820972 -0.0014356112799313238 -0.0013588949643795723 0.038635500720906421
leaf_weight=41.927371308207512 7.3844606727361679 27.485833868384361 5.015395030379298 22.544104650616646 34.507313385605812 4.9457303583621961 12.366340309381483
leaf_count=144 20 112 15 68 127 17 32
internal_value=0.00492632 -0.00487646 0.0138874 0.00839834 -0.0106231 0.0219707 0.0321929
internal_weight=156.177 74.3233 81.8532 64.4715 61.9931 12.3302 17.3817
internal_count=535 276 259 212 239 37 47
is_linear=0
shrinkage=0.03


Tree=24
num_leaves=8
num_cat=0
split_feature=9 9 28 26 11 12 19
split_gain=13.7923 11.9238 7.57805 7.04898 6.89114 6.76245 2.483
threshold=-0.48140031487288243 0.17766936338141984 -0.36944602915788699 -0.74070170297338012 -0.39263517512751217 -0.70780373399014573 -0.22492760457458949
decision_type=2 2 2 2 2 2 2
left_child=2 3 4 -2 -1 -3 -4
right_child=1 5 6 -5 -6 -7 -8
leaf_value=0.024973039410283886 -0.024102311988921803 -0.017869142662124117 0.040810620411705668 -0.0020312857891304531 -0.024695780617509037 0.012696958089133849 0.018049856322472305
leaf_weight=3.3833111673593521 18.940390542149544 6.2549128532409659 10.847041472792625 41.199943318963051 4.7955890297889692 55.367956668138504 15.222331613302231
leaf_count=10 84 23 29 143 19 182 45
internal_value=0.00479816 0 0.021324 -0.00940999 -0.00268681 0.00921488 0.0290105
internal_weight=156.011 121.763 34.2483 60.1403 8.1789 61.6229 26.0694
internal_count=535 432 103 227 29 205 74
is_linear=0
shrinkage=0.03


Tree=25
num_leaves=8
num_cat=0
split_feature=26 5 25 1 3 7 28
split_gain=26.258 11.9115 12.7966 5.89281 9.93895 5.20174 4.68317
threshold=-0.24779948273557273 0.30934205610917964 1.4901478544579809 -0.45342038510316435 1.5420594759268125 0.51458109980822397 -0.6314299482622574
decision_type=2 2 2 2 2 2 2
left_child=1 2 -1 6 -5 -3 -2
right_child=3 5 -4 4 -6 -7 -8
leaf_value=-0.022244238323514895 -0.019898934449332068 0.018466862755927831 0.016626338416639023 0.0043182964619506272 0.038677667533983807 -0.020825545293530867 0.029175224816335013
leaf_weight=40.294728621840477 0.95228932797908683 16.684079900383953 8.3051398247480375 45.178935632109642 8.4204414337873441 2.5916200578212729 33.631412968039513
leaf_count=169 4 56 29 146 22 10 95
internal_value=0.00657218 -0.00730429 -0.015219 0.0173161 0.0104905 0.0119735 0.0270498
internal_weight=156.059 67.8756 48.5999 88.1831 53.5994 19.2757 34.5837
internal_count=531 264 198 267 168 66 99
is_linear=0
shrinkage=0.03


Tree=26
num_leaves=8
num_cat=0
split_feature=26 5 25 24 14 19 11
split_gain=24.7663 11.2344 12.168 9.48696 7.80432 6.94505 5.98276
threshold=-0.24779948273557273 0.30934205610917964 1.4901478544579809 -0.15459820139163735 0.44545804180058174 -1.3206755470182652 0.34676432052928957
decision_type=2 2 2 2 2 2 2
left_child=1 2 -1 6 -5 -3 -2
right_child=3 5 -4 4 -6 -7 -8
leaf_value=-0.021738170126744005 0.016096998691892416 0.04365475649609827 0.016111809136775252 -0.010725775737173031 0.02033799343419114 0.0012795981574038073 0.037839001688441024
leaf_weight=40.023243069648743 41.736102566123009 3.6919556409120586 8.3445750027894956 16.514577105641369 11.358229070901869 15.645406186580656 18.541307285428047
leaf_count=169 126 10 29 58 33 56 50
internal_value=0.00639279 -0.00710407 -0.0148318 0.0168236 0.00188704 0.0115613 0.0234401
internal_weight=155.855 67.7052 48.3678 88.1502 27.8728 19.3374 60.2774
internal_count=531 264 198 267 91 66 176
is_linear=0
shrinkage=0.03


Tree=27
num_leaves=8
num_cat=0
split_feature=26 24 26 14 19 25 11
split_gain=23.3158 8.94417 7.674 7.38097 6.99143 6.164 5.66064
threshold=-0.24779948273557273 -0.15459820139163735 -0.96626754588884844 0.44545804180058174 0.87806145910677758 1.5060582229633519 0.34676432052928957
decision_type=2 2 2 2 2 2 2
left_child=2 6 5 -3 -4 -1 -2
right_child=1 3 4 -5 -6 -7 -8
leaf_value=-0.031443053150553631 0.015627993561083003 -0.010434389677299373 0.0034646653092381941 0.019782090919588022 -0.027069421563934961 0.016064686362649648 0.036801745627018295
leaf_weight=14.047355443239214 41.729073971509933 16.494712531566623 44.530087858438492 11.355229556560515 6.8989881277084342 2.0276347100734702 18.520451217889786
leaf_count=70 126 58 158 33 29 7 50
internal_value=0.00623518 0.0163528 -0.00688384 0.00183243 -0.000897871 -0.0243336 0.0227782
internal_weight=155.604 88.0995 67.5041 27.8499 51.4291 16.075 60.2495
internal_count=531 267 264 91 187 77 176
is_linear=0
shrinkage=0.03


Tree=28
num_leaves=8
num_cat=0
split_feature=26 5 25 24 24 11 7
split_gain=22.0356 10.5642 11.3796 8.43619 7.28213 5.36448 4.91869
threshold=-0.24779948273557273 0.30934205610917964 1.4901478544579809 -0.15459820139163735 0.5082448603727906 0.34676432052928957 0.51458109980822397
decision_type=2 2 2 2 2 2 2
left_child=1 2 -1 5 -5 -2 -3
right_child=3 6 -4 4 -6 -7 -8
leaf_value=-0.021036085435149614 0.015174363510581636 0.017648735435676362 0.015518083017473948 -0.027465003112863338 0.0094391445301337581 0.035814419295538913 -0.020544740576099622
leaf_weight=39.553085371851921 41.717311188578606 16.767014563083652 8.3898114264011365 4.9947374910116222 22.829897090792656 18.488125205039978 2.5845300853252402
leaf_count=169 126 56 29 19 72 50 10
internal_value=0.00606436 -0.00671276 -0.014269 0.0158986 0.00177932 0.0221412 0.0113467
internal_weight=155.325 67.2944 47.9429 88.0301 27.8246 60.2054 19.3515
internal_count=531 264 198 267 91 176 66
is_linear=0
shrinkage=0.03


Tree=29
num_leaves=8
num_cat=0
split_feature=14 24 29 19 27 1 24
split_gain=20.8816 10.4156 9.09961 8.11999 7.47657 5.86503 2.39261
threshold=-0.38892605049644913 0.40435112555355807 -0.078110560856876052 1.4194097868921016 0.26855591079308927 -0.45342038510316435 1.4190345247638148
decision_type=2 2 2 2 2 2 2
left_child=1 2 -1 5 -5 -2 -3
right_child=3 6 -4 4 -6 -7 -8
leaf_value=0.018831847314408661 0.027778066716622581 -0.028603618778032951 -0.011506809087306089 0.00915037094979693 -0.040208247074977242 0.010922049444552327 0.0009843772809112136
leaf_weight=14.414697289466856 29.803202405571938 18.311075881123546 19.917648792266846 5.6872989386320096 3.6148384511470795 61.253226578235626 2.0791800767183295
leaf_count=49 84 84 78 18 15 194 9
internal_value=0.00589744 -0.00880691 0.00114886 0.0140119 -0.011198 0.0167787 -0.0252608
internal_weight=155.081 54.7226 34.3323 100.359 9.30214 91.0564 20.3903
internal_count=531 220 127 311 33 278 93
is_linear=0
shrinkage=0.03


Tree=30
num_leaves=8
num_cat=0
split_feature=9 17 21 28 9 27 14
split_gain=15.7667 12.6739 11.279 8.88099 7.38133 6.50795 5.22809
threshold=-0.51810236011197908 0.21817067501144227 1.3202874765310952 -0.36944602915788699 -0.21248238714787951 -0.85421711874213357 1.5702445517611807
decision_type=2 2 2 2 2 2 2
left_child=3 2 -2 5 -3 -1 -5
right_child=1 4 -4 6 -6 -7 -8
leaf_value=0.021517965260905408 -0.0097327260752684257 -0.017502698531190665 0.018380822908993111 0.03732971562883021 0.019819361221223884 -0.02885893376648967 0
leaf_weight=3.4369651228189468 71.955515444278717 4.422137737274169 14.469785153865812 23.177858054637912 36.58403280377388 3.7123881429433814 4.1180054992437354
leaf_count=10 279 16 50 63 109 15 13
internal_value=0.00668857 0.00167623 -0.00476645 0.0244076 0.0152594 -0.0038678 0.0320065
internal_weight=161.877 127.431 86.4253 34.4452 41.0062 7.14935 27.2959
internal_count=555 454 329 101 125 25 76
is_linear=0
shrinkage=0.03


end of trees

feature_importances:
volatility_5bar=19
atr_14=19
hour_cos=18
hour_sin=13
returns_std_10=13
bb_width=11
momentum_3bar=10
momentum_10bar=10
candle_body_ratio=10
rsi_slope=7
atr_ratio=7
macd_signal=6
momentum_5bar=5
volume_ratio=5
volatility_20bar=5
lower_wick_ratio=5
returns_skew_10=5
high_low_range=5
rsi_7=4
volume_trend=4
upper_wick_ratio=4
macd_hist=3
macd_hist_delta=3
momentum_1bar=3
bb_position=2
close_position_in_range=2
rsi_14=1
vol_ratio=1
consec_direction=1

parameters:
[boosting: gbdt]
[objective: binary]
[metric: auc]
[tree_learner: serial]
[device_type: cpu]
[data_sample_strategy: bagging]
[data: ]
[valid: ]
[num_iterations: 300]
[learning_rate: 0.03]
[num_leaves: 20]
[num_threads: 0]
[seed: 0]
[deterministic: 0]
[force_col_wise: 0]
[force_row_wise: 0]
[histogram_pool_size: -1]
[max_depth: 3]
[min_data_in_leaf: 10]
[min_sum_hessian_in_leaf: 0.001]
[bagging_fraction: 0.7]
[pos_bagging_fraction: 1]
[neg_bagging_fraction: 1]
[bagging_freq: 5]
[bagging_seed: 3]
[bagging_by_query: 0]
[feature_fraction: 0.7]
[feature_fraction_bynode: 1]
[feature_fraction_seed: 2]
[extra_trees: 0]
[extra_seed: 6]
[early_stopping_round: 0]
[early_stopping_min_delta: 0]
[first_metric_only: 0]
[max_delta_step: 0]
[lambda_l1: 0.3]
[lambda_l2: 1]
[linear_lambda: 0]
[min_gain_to_split: 0]
[drop_rate: 0.1]
[max_drop: 50]
[skip_drop: 0.5]
[xgboost_dart_mode: 0]
[uniform_drop: 0]
[drop_seed: 4]
[top_rate: 0.2]
[other_rate: 0.1]
[min_data_per_group: 100]
[max_cat_threshold: 32]
[cat_l2: 10]
[cat_smooth: 10]
[max_cat_to_onehot: 4]
[top_k: 20]
[monotone_constraints: ]
[monotone_constraints_method: basic]
[monotone_penalty: 0]
[feature_contri: ]
[forcedsplits_filename: ]
[refit_decay_rate: 0.9]
[cegb_tradeoff: 1]
[cegb_penalty_split: 0]
[cegb_penalty_feature_lazy: ]
[cegb_penalty_feature_coupled: ]
[path_smooth: 0]
[interaction_constraints: ]
[verbosity: -1]
[saved_feature_importance_type: 0]
[use_quantized_grad: 0]
[num_grad_quant_bins: 4]
[quant_train_renew_leaf: 0]
[stochastic_rounding: 1]
[linear_tree: 0]
[max_bin: 255]
[max_bin_by_feature: ]
[min_data_in_bin: 3]
[bin_construct_sample_cnt: 200000]
[data_random_seed: 1]
[is_enable_sparse: 1]
[enable_bundle: 1]
[use_missing: 1]
[zero_as_missing: 0]
[feature_pre_filter: 1]
[pre_partition: 0]
[two_round: 0]
[header: 0]
[label_column: ]
[weight_column: ]
[group_column: ]
[ignore_column: ]
[categorical_feature: ]
[forcedbins_filename: ]
[precise_float_parser: 0]
[parser_config_file: ]
[objective_seed: 5]
[num_class: 1]
[is_unbalance: 0]
[scale_pos_weight: 1.66942]
[sigmoid: 1]
[boost_from_average: 1]
[reg_sqrt: 0]
[alpha: 0.9]
[fair_c: 1]
[poisson_max_delta_step: 0.7]
[tweedie_variance_power: 1.5]
[lambdarank_truncation_level: 30]
[lambdarank_norm: 1]
[label_gain: ]
[lambdarank_position_bias_regularization: 0]
[eval_at: ]
[multi_error_top_k: 1]
[auc_mu_weights: ]
[num_machines: 1]
[local_listen_port: 12400]
[time_out: 120]
[machine_list_filename: ]
[machines: ]
[gpu_platform_id: -1]
[gpu_device_id: -1]
[gpu_use_dp: 0]
[num_gpu: 1]

end of parameters

pandas_categorical:null
