tree
version=v4
num_class=1
num_tree_per_iteration=1
label_index=0
max_feature_idx=29
objective=binary sigmoid:1
feature_names=rsi_14 rsi_7 rsi_slope macd_hist macd_hist_delta macd_signal bb_position bb_width momentum_1bar momentum_3bar momentum_5bar momentum_10bar volume_ratio volume_trend volatility_5bar volatility_20bar vol_ratio atr_14 atr_ratio candle_body_ratio upper_wick_ratio lower_wick_ratio consec_direction close_vs_open hour_sin hour_cos returns_std_10 returns_skew_10 high_low_range close_position_in_range
feature_infos=[-2.5277746027245969:2.3199434491070159] [-2.3241383406039762:2.15893375653076] [-3.0422916847898724:2.9359917318784188] [-4.1094089829665199:2.871966747880851] [-5.4675844273934642:3.8176620389851452] [-3.2607484506527058:3.4132553943899673] [-2.931178582581901:2.5841023371658371] [-1.3200069827185832:4.6817484922747958] [-5.3844357786418726:5.3114004104480026] [-5.7152623797658766:4.7574121164490464] [-5.5576300886741707:4.295119083949765] [-4.6120216270391685:3.9284863492422017] [-1.0342606853522385:8.9688388730951623] [-1.6530520293092026:3.6953314618636242] [-1.3527686516040629:5.5029506533414665] [-1.5440829406288306:3.8620312339901739] [-2.1008758181504876:2.7479659691650893] [-1.4304994865224776:4.5053917316335994] [-2.3059555144102788:3.0736811289865438] [-1.7564383237211154:2.0164652781052754] [-1.2345646587571417:3.2650353002192145] [-1.2455312977343838:3.0485173999487984] [-3.486194306489995:4.3019569680839442] [-1.0158560283424227:0.98439146109287878] [-1.3935611383106392:1.430420146720673] [-1.4085174629312671:1.4249565334306389] [-1.3774519950587321:4.9754614253634806] [-3.0090969404403642:2.8485541195737509] [-1.4831303585070339:3.4934579596651236] [-1.8950141120530564:1.6171112884177283]
tree_sizes=754 986 773 777 675 984 979 877 777 850 777 774 775 877 886 885 778 884 878 875 988 989 776 778 770 780 779 781 775 863 980

Tree=0
num_leaves=6
num_cat=0
split_feature=16 1 16 0 0
split_gain=8.74695 11.7863 7.60444 6.24516 1.1278
threshold=1.7605857141031342 -1.4448135684229053 -1.1481364469448159 0.16883010287199024 -1.6648472664047089
decision_type=2 2 2 2 2
left_child=1 4 -3 -2 -1
right_child=3 2 -4 -5 -6
leaf_value=-0.74235020423280318 -0.67938711903327731 -0.71432296963334785 -0.73808582418117175 -0.74235020423280318 -0.77632935269975345
leaf_weight=1.75074827671051 3.2826530188322058 13.349455609917639 81.190951332449913 1.75074827671051 6.3464625030755979
leaf_count=8 15 61 371 8 29
internal_value=-0.735674 -0.737764 -0.734625 -0.699938 -0.770728
internal_weight=107.671 102.638 94.5404 5.0334 8.09721
internal_count=492 469 432 23 37
is_linear=0
shrinkage=1


Tree=1
num_leaves=8
num_cat=0
split_feature=4 24 8 4 14 4 14
split_gain=7.14007 8.89965 6.92098 7.09884 4.68689 4.27184 3.62116
threshold=0.52488556031620326 0.018429504205016933 0.21942760454986157 -0.13356682825148822 0.39682134661550922 -0.40279031295355233 -1.0000000180025095e-35
decision_type=2 2 2 2 2 2 2
left_child=2 4 3 -1 -2 -4 -3
right_child=1 6 5 -5 -6 -7 -8
leaf_value=-0.0046268704111561308 -0.011608912413165955 0.01363761677578477 0.015702547434899159 0.017341462484297507 0.017641165597249049 -0.023288020167112337 0.050967154671979972
leaf_weight=40.268031880259514 10.523368507623678 5.9136039912700653 2.188427239656451 18.627083331346512 7.8929727971553794 16.847072258591652 5.4837545156478864
leaf_count=184 48 27 10 85 36 77 25
internal_value=0.00205043 0.0143637 -0.00268208 0.00235995 0.000827534 -0.0180504 0.0342552
internal_weight=107.744 29.8137 77.9306 58.8951 18.4163 19.0355 11.3974
internal_count=492 136 356 269 84 87 52
is_linear=0
shrinkage=0.03


Tree=2
num_leaves=6
num_cat=0
split_feature=1 11 11 27 9
split_gain=8.19745 7.12819 7.09967 6.62316 5.41543
threshold=-1.4448135684229053 0.8226718851252024 0.73989311435428573 -1.5687029273675739 0.81396118633932468
decision_type=2 2 2 2 2
left_child=3 2 -2 -1 -3
right_child=1 4 -4 -5 -6
leaf_value=0.015152391627987535 0.0061797768363930049 -0.027733580552965879 0.048243727109619723 -0.038292127190220689 0.0049567106898657986
leaf_weight=2.2044271677732468 79.184435620903969 8.956900894641878 3.0764663368463507 6.6843768805265409 7.6855117976665488
leaf_count=10 361 41 14 31 35
internal_value=0.00200474 0.00460133 0.00827467 -0.0242619 -0.0127582
internal_weight=107.792 98.9033 82.2609 8.8888 16.6424
internal_count=492 451 375 41 76
is_linear=0
shrinkage=0.03


Tree=3
num_leaves=6
num_cat=0
split_feature=1 11 25 15 27
split_gain=7.79301 6.80723 8.62117 6.50982 6.39636
threshold=-1.4448135684229053 0.081562107465904324 -0.70014896384079073 -1.0067534586680671 -1.5687029273675739
decision_type=2 2 2 2 2
left_child=4 3 -3 -2 -1
right_child=1 2 -4 -5 -6
leaf_value=0.014762058672995395 -0.022022462724912897 0.014766691160694153 -0.011639494319359043 0.01557359176703965 -0.037759338139569436
leaf_weight=2.2158119976520538 3.7291007190942755 15.382437676191328 34.373836651444435 45.563098430633545 6.5880792587995511
leaf_count=10 17 70 157 207 31
internal_value=0.00194569 0.0044653 -0.0032527 0.0123033 -0.0237872
internal_weight=107.852 99.0485 49.7563 49.2922 8.80389
internal_count=492 451 227 224 41
is_linear=0
shrinkage=0.03


Tree=4
num_leaves=5
num_cat=0
split_feature=16 1 16 11
split_gain=7.90342 10.2812 7.0708 5.73703
threshold=1.7605857141031342 -1.4767490844341886 -1.1481364469448159 0.010833549154696078
decision_type=2 2 2 2
left_child=1 -1 -3 -2
right_child=3 2 -4 -5
leaf_value=-0.033764306263790997 0.054893255415435362 0.022027037963329107 -0.00073835890579150923 -0.0048743215277055121
leaf_weight=6.7582280486822119 3.3810675442218772 13.534263923764227 82.483260169625282 1.7600098252296446
leaf_count=32 15 61 376 8
internal_value=0.00187721 -9.17095e-06 0.00256409 0.0355212
internal_weight=107.917 102.776 96.0175 5.14108
internal_count=492 469 437 23
is_linear=0
shrinkage=0.03


Tree=5
num_leaves=8
num_cat=0
split_feature=10 11 14 25 2 15 7
split_gain=5.35132 6.6241 7.56167 4.69315 8.25254 5.80827 4.5382
threshold=-0.41448506544217184 0.24377003273123288 -0.90257387230890773 1.1027856861405605 -0.39086937766758773 0.70873611405015635 0.72334713711026488
decision_type=2 2 2 2 2 2 2
left_child=3 2 -2 5 -5 -1 -3
right_child=1 6 -4 4 -6 -7 -8
leaf_value=-0.026475024993862176 -0.018225458331864834 -0.010153921799217902 0.017775608213145534 -0.015769049648671721 0.053119105746330948 0.0012358173364642748 0.015172718203161909
leaf_weight=15.320251986384397 5.2981397509574881 28.45836429297924 36.082141250371933 2.8011935502290726 1.9651733338832844 10.978342190384863 7.2408111393451682
leaf_count=71 24 130 163 13 9 50 33
internal_value=0.000378568 0.00466586 0.0127657 -0.00992099 0.0151079 -0.0149907 -0.0046326
internal_weight=108.144 77.0795 41.3803 31.065 4.76637 26.2986 35.6992
internal_count=493 350 187 143 22 121 163
is_linear=0
shrinkage=0.03


Tree=6
num_leaves=8
num_cat=0
split_feature=9 9 27 27 16 24 4
split_gain=5.34436 9.80113 8.09702 7.37655 5.90582 5.16729 4.67797
threshold=-0.70437332838405131 -0.44788207474422387 0.47235327372433505 0.7431561539219057 1.6645305071924135 -0.073919102259187006 -0.16213233838526259
decision_type=2 2 2 2 2 2 2
left_child=2 5 4 -4 -1 -2 -3
right_child=1 6 3 -5 -6 -7 -8
leaf_value=-0.032157618615972897 0.0034264481293220786 -0.01298063870976942 0.044838938698617103 -0.013143937948658648 0.011085375050417332 0.04915802718825335 0.0042413683483535896
leaf_weight=12.945050626993181 4.1840009093284607 17.841475427150726 2.8760799169540396 3.4521843194961548 2.9164508730173102 5.27603732049465 58.64455184340477
leaf_count=60 19 82 13 16 13 24 266
internal_value=0.00036758 0.00382624 -0.0124346 0.0144413 -0.0236959 0.0313608 5.36705e-05
internal_weight=108.136 85.9461 22.1898 6.32826 15.8615 9.46004 76.486
internal_count=493 391 102 29 73 43 348
is_linear=0
shrinkage=0.03


Tree=7
num_leaves=7
num_cat=0
split_feature=3 11 1 16 5 6
split_gain=4.94012 4.98529 6.17256 5.91149 4.3845 1.80934
threshold=-1.4480288863808826 0.25605765512627771 1.3678832140538482 1.644771374812082 -1.2762044014662446 -1.7921754503978442
decision_type=2 2 2 2 2 2
left_child=4 3 -3 -2 -1 -6
right_child=1 2 -4 -5 5 -7
leaf_value=0.014434640577110025 0.0047769397972762771 -0.013454595411308065 0.012553009725293506 0.037088257163681533 -0.00013274668879985742 -0.034230638498864478
leaf_weight=2.2246480137109748 54.483969241380692 26.83977372944355 10.758307069540022 4.9832239598035803 2.1736158728599539 6.647105172276496
leaf_count=10 248 123 49 22 10 31
internal_value=0.000368497 0.00263411 -0.00575004 0.00804049 -0.0178681 -0.0271616
internal_weight=108.111 97.0653 37.5981 59.4672 11.0454 8.82072
internal_count=493 442 172 270 51 41
is_linear=0
shrinkage=0.03


Tree=8
num_leaves=6
num_cat=0
split_feature=20 19 9 21 21
split_gain=5.65368 5.27718 5.30431 4.29 1.05557
threshold=1.5506678021571154 -1.546861338934163 -0.70437332838405131 -1.0063332559231593 0.021538580617293263
decision_type=2 2 2 2 2
left_child=1 -1 -3 -2 -5
right_child=3 2 -4 4 -6
leaf_value=-0.032705256258355887 0.0062802172173648928 -0.0091812694938791309 0.0078261679859061312 -0.037820973754164329 -0.004379022022744066
leaf_weight=2.8173343986272803 3.3110679984092712 20.124226734042168 74.627318412065506 5.4729780256748182 1.7445043027400968
leaf_count=13 15 93 339 25 8
internal_value=0.000361036 0.00272332 0.00410455 -0.0196472 -0.0317297
internal_weight=108.097 97.5689 94.7515 10.5286 7.21748
internal_count=493 445 432 48 33
is_linear=0
shrinkage=0.03


Tree=9
num_leaves=7
num_cat=0
split_feature=20 3 20 21 5 29
split_gain=5.38017 4.98622 5.8684 4.13815 4.10907 1.05
threshold=1.5506678021571154 -1.372657214607 0.21355376473081325 -1.0063332559231593 -1.0316036344280646 0.82101144261818959
decision_type=2 2 2 2 2 2
left_child=1 4 -3 -2 -1 -5
right_child=3 2 -4 5 -6 -7
leaf_value=0.011749796331459538 0.0061177906103852091 0 0.016865251811238036 -0.037327786164996733 -0.025790151953430939 -0.004073008090629604
leaf_weight=2.8936443924903861 3.3181382566690445 60.587669193744659 25.904628232121468 5.4064263701438886 8.2822338044643384 1.7345517873764036
leaf_count=13 15 276 117 25 39 8
internal_value=0.000328891 0.0026265 0.0051489 -0.0192556 -0.0154337 -0.0312298
internal_weight=108.127 97.6682 86.4923 10.4591 11.1759 7.14098
internal_count=493 445 393 48 52 33
is_linear=0
shrinkage=0.03


Tree=10
num_leaves=6
num_cat=0
split_feature=1 18 13 11 4
split_gain=8.28609 10.1901 6.00299 5.77786 2.45685
threshold=-1.4767490844341886 0.89508560169805451 0.95343214034517576 1.0309711954270651 -1.3659764035464923
decision_type=2 2 2 2 2
left_child=4 2 -2 -3 -1
right_child=1 3 -4 -5 -6
leaf_value=0.0042470965540385951 0.0015449803473552071 0.033488910648167218 -0.03476950151324603 -0.0069109096864528293 -0.030798424056968629
leaf_weight=1.6882533431053159 82.979666128754616 13.316055715084078 3.5055394619703284 3.5047579407691947 7.8293527513742429
leaf_count=8 377 60 16 16 38
internal_value=0.00142149 0.00400282 -0.000163413 0.0247992 -0.0241531
internal_weight=112.824 103.306 86.4852 16.8208 9.51761
internal_count=515 469 393 76 46
is_linear=0
shrinkage=0.03


Tree=11
num_leaves=6
num_cat=0
split_feature=1 18 13 11 4
split_gain=7.88108 9.52755 5.76853 5.3901 2.37987
threshold=-1.4767490844341886 0.89508560169805451 0.95343214034517576 1.0309711954270651 -1.3659764035464923
decision_type=2 2 2 2 2
left_child=4 2 -2 -3 -1
right_child=1 3 -4 -5 -6
leaf_value=0.004155994115196765 0.0014982722321500075 0.032205678771534574 -0.034271246340802364 -0.0067556849620513627 -0.030321694122573184
leaf_weight=1.6909983605146406 83.023789376020432 13.460837930440904 3.4620985090732566 3.496240258216857 7.7279935479164106
leaf_count=8 377 60 16 16 38
internal_value=0.00136852 0.00387344 -0.000165852 0.0238922 -0.023704
internal_weight=112.862 103.443 86.4859 16.9571 9.41899
internal_count=515 469 393 76 46
is_linear=0
shrinkage=0.03


Tree=12
num_leaves=6
num_cat=0
split_feature=1 9 12 9 25
split_gain=7.49705 7.45637 5.24263 2.34511 1.40405
threshold=-1.4767490844341886 -1.5774282226989855 -0.74819285243617706 -1.5097960313597916 1.2570010484973639
decision_type=2 2 2 2 2
left_child=3 -2 -3 -1 -5
right_child=1 2 -4 4 -6
leaf_value=0.004312450420405828 0.041901073468508916 -0.015900071190415171 0.0046050714934452548 -0.035926339180815739 -0.00045064740257601867
leaf_weight=1.6881957054138181 3.6325018703937522 11.981291294097899 87.953772187232971 6.0223520398139936 1.6097436398267744
leaf_count=8 16 54 399 30 8
internal_value=0.00131732 0.00374849 0.00198038 -0.0232659 -0.0299081
internal_weight=112.888 103.568 99.9351 9.32029 7.6321
internal_count=515 469 453 46 38
is_linear=0
shrinkage=0.03


Tree=13
num_leaves=7
num_cat=0
split_feature=18 20 5 22 5 25
split_gain=6.67301 10.5266 5.00622 4.76251 5.67034 5.35618
threshold=1.3001168575625417 1.1529791205444218 -0.77633300567087327 -0.67380634622718338 0.52340229655871151 -1.346787367125428
decision_type=2 2 2 2 2 2
left_child=3 2 -2 5 -5 -1
right_child=1 -3 -4 4 -6 -7
leaf_value=0.020719106275982724 -0.0060398542920653588 -0.029764934194154376 0.04390060443527153 0.0067348829409869708 -0.012312208893851965 -0.018448193878669687
leaf_weight=2.8628531545400646 1.7861983776092518 2.143508866429328 8.1798249483108503 59.935544356703758 17.397112980484962 20.607351690530777
leaf_count=13 8 10 36 273 80 95
internal_value=0.00127471 0.0216109 0.0346088 -0.00126016 0.00229098 -0.012898
internal_weight=112.912 12.1095 9.96602 100.803 77.3327 23.4702
internal_count=515 54 44 461 353 108
is_linear=0
shrinkage=0.03


Tree=14
num_leaves=7
num_cat=0
split_feature=26 2 26 5 5 26
split_gain=7.31062 8.6808 10.3642 8.62151 8.43637 6.45664
threshold=-0.38384547716418166 -1.0463277282356402 -0.16886043382036492 -0.96379440541669137 -0.13514463438384375 0.17116601935263959
decision_type=2 2 2 2 2 2
left_child=3 5 -3 -1 -5 -2
right_child=1 2 -4 4 -6 -7
leaf_value=-0.038125850365636801 -0.0057801354112532854 0.026714266475524467 -0.0042807404101366433 0.01964662554658483 -0.0099881313900667557 0.044621934019700348
leaf_weight=6.2562298327684394 2.6134495139121992 11.742146119475363 41.644088193774223 10.90012641251087 31.95158639550209 7.8248365819454193
leaf_count=29 12 53 189 50 147 35
internal_value=0.00123276 0.00793025 0.00271955 -0.00733919 -0.00209062 0.0319556
internal_weight=112.932 63.8245 53.3862 49.1079 42.8517 10.4383
internal_count=515 289 242 226 197 47
is_linear=0
shrinkage=0.03


Tree=15
num_leaves=7
num_cat=0
split_feature=16 1 7 11 1 8
split_gain=7.68616 6.91371 5.59135 5.20265 5.06774 0.0251147
threshold=1.7417151128252157 0.16768534215414485 -0.38538121363599814 0.010833549154696078 -0.33959101546057635 -0.57102908435373201
decision_type=2 2 2 2 2 2
left_child=1 4 -3 5 -1 -2
right_child=3 2 -4 -5 -6 -7
leaf_value=-0.0025059597450254279 0.019116577724470847 0.020322542636054038 -0.0012201164736815975 -0.0073478655180379158 -0.021500339293358366 0.056124541033213217
leaf_weight=37.615438148379326 1.8898813575506208 15.741637289524077 29.892975136637688 1.8284402340650556 19.145469516515732 2.3672810792922965
leaf_count=174 8 71 136 8 87 10
internal_value=-0.000151103 -0.00225187 0.0063039 0.0304796 -0.00922678 0.046505
internal_weight=108.481 102.396 45.6346 6.0856 56.7609 4.25716
internal_count=494 468 207 26 261 18
is_linear=0
shrinkage=0.03


Tree=16
num_leaves=6
num_cat=0
split_feature=16 1 21 1 29
split_gain=7.30859 6.53414 6.83961 4.83287 3.7035
threshold=1.7417151128252157 0.16768534215414485 1.2023187602319345 -0.33959101546057635 -0.3201778657651847
decision_type=2 2 2 2 2
left_child=1 3 -3 -1 -2
right_child=4 2 -4 -5 -6
leaf_value=-0.0024345334396080544 0.044091344225335997 0.001538146295212134 0.036338881223666977 -0.021034480837472423 -0.00083152698728741531
leaf_weight=37.58145746588707 4.0437286049127579 40.626264274120331 5.1017690002918235 19.002312526106834 2.0741935074329367
leaf_count=174 17 184 23 87 9
internal_value=-0.000133777 -0.00218975 0.00610779 -0.00899161 0.0296587
internal_weight=108.43 102.312 45.728 56.5838 6.11792
internal_count=494 468 207 261 26
is_linear=0
shrinkage=0.03


Tree=17
num_leaves=7
num_cat=0
split_feature=16 11 13 13 7 8
split_gain=6.89586 4.78956 4.60358 9.47613 4.91687 0.112327
threshold=1.7417151128252157 0.010833549154696078 0.13175804981785968 0.023244630848109026 -0.60630761497344388 -0.57102908435373201
decision_type=2 2 2 2 2 2
left_child=2 5 3 -1 -4 -2
right_child=1 -3 4 -5 -6 -7
leaf_value=-0.0010424962817552738 0.017608089037797384 -0.0074210346413304332 0.012288627198776053 0.03923493887550332 -0.017058468388167412 0.053448460204665801
leaf_weight=65.902958065271378 1.9153971970081327 1.8286556452512739 5.5041874200105694 4.8912292569875708 25.919671952724457 2.4096252024173728
leaf_count=302 8 8 25 22 119 10
internal_value=-0.000116461 0.0287409 -0.00212166 0.00206382 -0.0115544 0.043973
internal_weight=108.372 6.15368 102.218 70.7942 31.4239 4.32502
internal_count=494 26 468 324 144 18
is_linear=0
shrinkage=0.03


Tree=18
num_leaves=7
num_cat=0
split_feature=16 1 4 1 11 29
split_gain=6.55746 6.16588 6.54766 4.64463 4.55669 0.101262
threshold=1.7417151128252157 0.16768534215414485 0.8579713069642062 -0.33959101546057635 0.010833549154696078 -1.1387882953034552
decision_type=2 2 2 2 2 2
left_child=1 3 -3 -1 5 -2
right_child=4 2 -4 -5 -6 -7
leaf_value=-0.0022599764112750755 0.017100260717363314 0.012625884816520251 -0.012667540687092294 -0.020544962579441009 -0.0072771111403832738 0.051972674407951523
leaf_weight=37.494145333766937 1.9228661060333245 34.201151445508003 11.57688347995281 18.849764198064804 1.8247588425874708 2.4306492060422893
leaf_count=174 8 155 52 87 8 10
internal_value=-8.93231e-05 -0.00205118 0.00599286 -0.00868417 0.0279964 0.04278
internal_weight=108.3 102.122 45.778 56.3439 6.17827 4.35352
internal_count=494 468 207 261 26 18
is_linear=0
shrinkage=0.03


Tree=19
num_leaves=7
num_cat=0
split_feature=16 6 9 9 26 1
split_gain=6.2689 6.56232 6.3229 7.90443 4.46511 0.476043
threshold=1.644771374812082 0.31032342755622072 -0.76139674166949811 -0.44788207474422387 1.6511656946659363 -0.52807765351707059
decision_type=2 2 2 2 2 2
left_child=2 5 4 -4 -1 -2
right_child=1 -3 3 -5 -6 -7
leaf_value=-0.027906756389393304 0.013816400312005438 -0.018025911583059891 0.023570811776969409 -0.0026824022506069137 0.012357759726168217 0.046574266318367745
leaf_weight=11.609653592109678 2.1119188368320461 1.7979449331760404 11.120746135711668 75.382894217967987 2.3754156231880179 3.8468859493732448
leaf_count=55 9 8 51 344 11 16
internal_value=-7.9017e-05 0.0245218 -0.00221588 0.000808998 -0.0203633 0.0388615
internal_weight=108.245 7.75675 100.489 86.5036 13.9851 5.9588
internal_count=494 33 461 395 66 25
is_linear=0
shrinkage=0.03


Tree=20
num_leaves=8
num_cat=0
split_feature=6 11 12 16 16 20 18
split_gain=6.85653 8.5384 9.73141 6.95554 5.23827 4.01187 0.608587
threshold=-0.033447416978548014 0.8226718851252024 -0.74819285243617706 1.6645305071924135 0.035243129535567096 -0.70469270238459003 1.4619784104829086
decision_type=2 2 2 2 2 2 2
left_child=3 2 -2 4 -1 -3 -5
right_child=1 5 -4 6 -6 -7 -8
leaf_value=-0.0027643176956507315 -0.023837326790506801 0.017185651033647747 0.021405221921671977 0.0062461080108087387 -0.022628322286151973 -0.016917887273759622 0.03716846660794431
leaf_weight=29.287321373820305 4.1519099026918402 3.0786130577325848 30.797236055135727 1.9191689193248742 20.708179727196693 13.916843190789221 1.9456663280725477
leaf_count=136 19 14 139 8 96 64 8
internal_value=-0.00064579 0.00701464 0.0154495 -0.00813805 -0.0113369 -0.00990823 0.026804
internal_weight=105.805 51.9446 34.9491 53.8603 49.9955 16.9955 3.86484
internal_count=484 236 158 248 232 78 16
is_linear=0
shrinkage=0.03


Tree=21
num_leaves=8
num_cat=0
split_feature=5 20 5 26 12 16 5
split_gain=5.60637 4.73631 5.78106 3.68407 4.69737 3.5567 2.55165
threshold=-0.66504966087037864 1.5506678021571154 0.10952791910361701 -0.3550296627634843 -0.13477495916866647 -0.99024924710513873 -0.90469953861594965
decision_type=2 2 2 2 2 2 2
left_child=3 2 -2 6 -5 -3 -1
right_child=1 5 -4 4 -6 -7 -8
leaf_value=-0.037365727503011599 0.016343026133310359 0.01317842138799007 -0.00081420291662873286 0.0057986618577871383 -0.029066141708247683 -0.028472908732699264 -0.0015291604154207749
leaf_weight=6.1292050778865814 27.461835384368896 1.7760501801967619 45.370640143752098 12.145124465227129 3.9071854799985877 5.949019029736518 2.9917823821306246
leaf_count=29 124 8 208 55 18 28 14
internal_value=-0.000623225 0.0031967 0.0056808 -0.0128004 -0.00330847 -0.0178551 -0.0272869
internal_weight=105.731 80.5575 72.8325 25.1733 16.0523 7.72507 9.12099
internal_count=484 368 332 116 73 36 43
is_linear=0
shrinkage=0.03


Tree=22
num_leaves=6
num_cat=0
split_feature=1 5 20 28 4
split_gain=8.91692 6.06502 5.82244 2.51671 2.4913
threshold=-1.4448135684229053 -0.8678332195853683 1.5506678021571154 1.070079476923427 0.37174899750860096
decision_type=2 2 2 2 2
left_child=3 4 -3 -1 -2
right_child=1 2 -4 -5 -6
leaf_value=-0.033660611475745554 -0.028609921837167363 0.0084320335212174254 -0.017695103640112314 0.0012239800745274968 -0.0038839726637498908
leaf_weight=7.9062866866588575 5.7998393326997784 71.882134765386581 7.7055216878652564 1.8844912499189375 10.518626168370245
leaf_count=40 27 324 36 9 48
internal_value=-0.000621644 0.00218776 0.00567689 -0.0267944 -0.0139488
internal_weight=105.697 95.9061 79.5877 9.79078 16.3185
internal_count=484 435 360 49 75
is_linear=0
shrinkage=0.03


Tree=23
num_leaves=6
num_cat=0
split_feature=1 5 20 26 27
split_gain=8.50783 5.74955 5.51097 3.90832 2.46764
threshold=-1.4448135684229053 -0.8678332195853683 1.5506678021571154 -0.3550296627634843 -1.9026861231006376
decision_type=2 2 2 2 2
left_child=4 3 -3 -2 -1
right_child=1 2 -4 -5 -6
leaf_value=0.0022351959066478208 -0.032081879150452776 0.0081592082598586704 -0.017320682575110904 -0.0016705857914635577 -0.032955085763259652
leaf_weight=1.7447983026504514 5.671224623918536 72.080804750323296 7.6540102213621131 10.571291059255598 7.9272379130125028
leaf_count=8 27 324 36 48 41
internal_value=-0.00062287 0.00210395 0.00549105 -0.0136486 -0.0263481
internal_weight=105.649 95.9773 79.7348 16.2425 9.67204
internal_count=484 435 360 75 49
is_linear=0
shrinkage=0.03


Tree=24
num_leaves=6
num_cat=0
split_feature=1 12 7 27 28
split_gain=8.12 5.07877 5.66564 4.07027 2.41614
threshold=-1.4448135684229053 -0.74819285243617706 -0.38538121363599814 -0.6419216148682183 1.070079476923427
decision_type=2 2 2 2 2
left_child=4 3 -3 -2 -1
right_child=1 2 -4 -5 -6
leaf_value=-0.032815257876119969 0.015072766374198984 0.013215778180085264 -0.0021909107960149405 -0.024839267885362643 0.0013960941480730469
leaf_weight=7.6716156899929029 2.206132546067237 37.6018156260252 47.128216415643692 9.1016472131013852 1.877926707267761
leaf_count=40 10 169 214 42 9
internal_value=-0.000624088 0.0020226 0.00463584 -0.0160755 -0.0259199
internal_weight=105.587 96.0378 84.73 11.3078 9.54954
internal_count=484 435 383 52 49
is_linear=0
shrinkage=0.03


Tree=25
num_leaves=6
num_cat=0
split_feature=1 1 7 2 26
split_gain=10.4435 8.32848 6.54362 5.46638 1.07335
threshold=-1.4448135684229053 -0.33959101546057635 -0.38538121363599814 0.98900243719531145 0.7757872347459468
decision_type=2 2 2 2 2
left_child=4 3 -3 -2 -1
right_child=1 2 -4 -5 -6
leaf_value=-0.034805726834284047 0.0188853692571887 0.0087127255628416753 -0.010416148126165582 -0.022193232156095404 -0.0071499388925741082
leaf_weight=6.6646196246147138 31.361030429601669 25.704615712165833 39.694892793893814 2.4082945287227622 2.8447639495134354
leaf_count=36 141 115 181 11 14
internal_value=0.000378393 0.00339403 -0.00279267 0.0153364 -0.0283112
internal_weight=108.678 99.1688 65.3995 33.7693 9.50938
internal_count=498 448 296 152 50
is_linear=0
shrinkage=0.03


Tree=26
num_leaves=6
num_cat=0
split_feature=1 1 7 15 4
split_gain=10.0079 7.78805 6.17744 4.63261 2.90493
threshold=-1.4448135684229053 -0.33959101546057635 -0.38538121363599814 0.70873611405015635 -1.3659764035464923
decision_type=2 2 2 2 2
left_child=4 3 -3 -2 -1
right_child=1 2 -4 -5 -6
leaf_value=0.0034189084044236912 0.0079126764052424251 0.0084363529248285447 -0.010146073220123879 0.034197030257581959 -0.035216045842160933
leaf_weight=1.695818707346916 26.113677501678467 25.775400072336197 39.552457123994827 7.8260923177003852 7.6875343173742277
leaf_count=8 117 115 181 35 42
internal_value=0.000350495 0.00328504 -0.0027102 0.0147942 -0.0279244
internal_weight=108.651 99.2676 65.3279 33.9398 9.38335
internal_count=498 448 296 152 50
is_linear=0
shrinkage=0.03


Tree=27
num_leaves=6
num_cat=0
split_feature=1 1 27 7 15
split_gain=9.57677 7.32354 11.4133 5.83186 1.18032
threshold=-1.4448135684229053 -0.33959101546057635 0.107853193343487 -0.38538121363599814 0.88757885584232266
decision_type=2 2 2 2 2
left_child=4 2 -2 -3 -1
right_child=1 3 -4 -5 -6
leaf_value=-0.034292620126566427 -0.00015840381305299613 0.0081696865167522684 0.034241543039193509 -0.0098825484254011099 -0.0059514855495618104
leaf_weight=6.4665207266807538 20.02356444299221 25.843292236328125 14.064005985856054 39.412421628832817 2.77933269739151
leaf_count=36 90 115 62 181 14
internal_value=0.000342298 0.00319476 0.0143222 -0.00263011 -0.0275228
internal_weight=108.589 99.3433 34.0876 65.2557 9.24585
internal_count=498 448 152 296 50
is_linear=0
shrinkage=0.03


Tree=28
num_leaves=6
num_cat=0
split_feature=1 6 12 1 4
split_gain=9.18581 7.06444 5.86369 5.05041 2.83766
threshold=-1.4448135684229053 -0.46307836073781666 -0.65022957870381781 -1.1962385910771778 -1.3659764035464923
decision_type=2 2 2 2 2
left_child=4 3 -3 -2 -1
right_child=1 2 -4 -5 -6
leaf_value=0.0036910808995453477 0.037853415313607891 -0.021184088123216836 0.001588397297791581 0.0079439957209997188 -0.034557739256079127
leaf_weight=1.6873507648706434 5.9340789020061484 11.606645405292509 54.318830236792564 27.548229068517685 7.43500007688999
leaf_count=8 26 54 245 123 42
internal_value=0.000324076 0.00310189 -0.00253686 0.0141795 -0.027151
internal_weight=108.53 99.4078 65.9255 33.4823 9.12235
internal_count=498 448 299 149 50
is_linear=0
shrinkage=0.03


Tree=29
num_leaves=7
num_cat=0
split_feature=1 6 6 1 13 6
split_gain=8.79093 6.65556 4.85358 4.71925 1.10654 0.0186886
threshold=-1.4448135684229053 -0.46307836073781666 -0.033447416978548014 -1.1962385910771778 1.9431494875226563 -0.93430402321360173
decision_type=2 2 2 2 2 2
left_child=4 3 -3 -2 5 -1
right_child=1 2 -4 -5 -6 -7
leaf_value=-0.033891542869773666 0.036513668016176053 -0.018145852362440328 0.0015945545217313211 0.007693871560093663 0 -0.0086998383865483572
leaf_weight=6.0400808900594702 5.9956434071063986 13.287184983491896 52.574933677911758 27.615460202097893 1.5332774221897123 1.4131859391927708
leaf_count=34 26 61 238 123 8 8
internal_value=0.000313854 0.0030142 -0.00246789 0.0137386 -0.0267666 -0.0311483
internal_weight=108.46 99.4732 65.8621 33.6111 8.98654 7.45327
internal_count=498 448 299 149 50 42
is_linear=0
shrinkage=0.03


Tree=30
num_leaves=8
num_cat=0
split_feature=27 20 9 9 27 8 9
split_gain=4.16696 6.11926 3.95825 8.21861 6.89094 2.74234 1.22474
threshold=-1.3832462124609546 -0.16676660875356117 -0.73213344866558538 -0.50910518693448659 0.45695539026565252 0.14306546307556878 -0.34464961213142858
decision_type=2 2 2 2 2 2 2
left_child=1 6 4 -4 -2 -3 -1
right_child=2 5 3 -5 -6 -7 -8
leaf_value=0.011053285432262416 -0.026290803399209275 0.015350875437474111 0.030608036282788853 -0.0016593896075083974 0.011040148861566901 -0.022536005949924203 0.054699496937880746
leaf_weight=1.797687381505966 12.150735318660738 2.6500937938690168 7.0819434374570838 69.570329234004021 5.9550210684537879 2.5481727868318558 2.4852126389741898
leaf_count=8 59 12 32 318 27 12 11
internal_value=0.00048068 0.0186671 -0.00141725 0.0015297 -0.0137476 -0.00274954 0.0421831
internal_weight=104.239 9.48117 94.758 76.6523 18.1058 5.19827 4.2829
internal_count=479 43 436 350 86 24 19
is_linear=0
shrinkage=0.03


end of trees

feature_importances:
rsi_7=28
vol_ratio=14
momentum_10bar=12
macd_signal=11
momentum_3bar=11
macd_hist_delta=10
upper_wick_ratio=9
returns_skew_10=9
bb_position=7
bb_width=7
returns_std_10=7
volume_ratio=5
volume_trend=5
momentum_1bar=4
volatility_20bar=4
atr_ratio=4
lower_wick_ratio=4
hour_cos=4
rsi_slope=3
volatility_5bar=3
close_position_in_range=3
rsi_14=2
macd_hist=2
hour_sin=2
high_low_range=2
momentum_5bar=1
candle_body_ratio=1
consec_direction=1

parameters:
[boosting: gbdt]
[objective: binary]
[metric: binary_logloss]
[tree_learner: serial]
[device_type: cpu]
[data_sample_strategy: bagging]
[data: ]
[valid: ]
[num_iterations: 300]
[learning_rate: 0.03]
[num_leaves: 20]
[num_threads: 0]
[seed: 0]
[deterministic: 0]
[force_col_wise: 0]
[force_row_wise: 0]
[histogram_pool_size: -1]
[max_depth: 3]
[min_data_in_leaf: 8]
[min_sum_hessian_in_leaf: 0.001]
[bagging_fraction: 0.7]
[pos_bagging_fraction: 1]
[neg_bagging_fraction: 1]
[bagging_freq: 5]
[bagging_seed: 3]
[bagging_by_query: 0]
[feature_fraction: 0.7]
[feature_fraction_bynode: 1]
[feature_fraction_seed: 2]
[extra_trees: 0]
[extra_seed: 6]
[early_stopping_round: 0]
[early_stopping_min_delta: 0]
[first_metric_only: 0]
[max_delta_step: 0]
[lambda_l1: 0.2]
[lambda_l2: 0.8]
[linear_lambda: 0]
[min_gain_to_split: 0]
[drop_rate: 0.1]
[max_drop: 50]
[skip_drop: 0.5]
[xgboost_dart_mode: 0]
[uniform_drop: 0]
[drop_seed: 4]
[top_rate: 0.2]
[other_rate: 0.1]
[min_data_per_group: 100]
[max_cat_threshold: 32]
[cat_l2: 10]
[cat_smooth: 10]
[max_cat_to_onehot: 4]
[top_k: 20]
[monotone_constraints: ]
[monotone_constraints_method: basic]
[monotone_penalty: 0]
[feature_contri: ]
[forcedsplits_filename: ]
[refit_decay_rate: 0.9]
[cegb_tradeoff: 1]
[cegb_penalty_split: 0]
[cegb_penalty_feature_lazy: ]
[cegb_penalty_feature_coupled: ]
[path_smooth: 0]
[interaction_constraints: ]
[verbosity: -1]
[saved_feature_importance_type: 0]
[use_quantized_grad: 0]
[num_grad_quant_bins: 4]
[quant_train_renew_leaf: 0]
[stochastic_rounding: 1]
[linear_tree: 0]
[max_bin: 255]
[max_bin_by_feature: ]
[min_data_in_bin: 3]
[bin_construct_sample_cnt: 200000]
[data_random_seed: 1]
[is_enable_sparse: 1]
[enable_bundle: 1]
[use_missing: 1]
[zero_as_missing: 0]
[feature_pre_filter: 1]
[pre_partition: 0]
[two_round: 0]
[header: 0]
[label_column: ]
[weight_column: ]
[group_column: ]
[ignore_column: ]
[categorical_feature: ]
[forcedbins_filename: ]
[precise_float_parser: 0]
[parser_config_file: ]
[objective_seed: 5]
[num_class: 1]
[is_unbalance: 0]
[scale_pos_weight: 1]
[sigmoid: 1]
[boost_from_average: 1]
[reg_sqrt: 0]
[alpha: 0.9]
[fair_c: 1]
[poisson_max_delta_step: 0.7]
[tweedie_variance_power: 1.5]
[lambdarank_truncation_level: 30]
[lambdarank_norm: 1]
[label_gain: ]
[lambdarank_position_bias_regularization: 0]
[eval_at: ]
[multi_error_top_k: 1]
[auc_mu_weights: ]
[num_machines: 1]
[local_listen_port: 12400]
[time_out: 120]
[machine_list_filename: ]
[machines: ]
[gpu_platform_id: -1]
[gpu_device_id: -1]
[gpu_use_dp: 0]
[num_gpu: 1]

end of parameters

pandas_categorical:null
