tree
version=v4
num_class=1
num_tree_per_iteration=1
label_index=0
max_feature_idx=29
objective=binary sigmoid:1
feature_names=rsi_14 rsi_7 rsi_slope macd_hist macd_hist_delta macd_signal bb_position bb_width momentum_1bar momentum_3bar momentum_5bar momentum_10bar volume_ratio volume_trend volatility_5bar volatility_20bar vol_ratio atr_14 atr_ratio candle_body_ratio upper_wick_ratio lower_wick_ratio consec_direction close_vs_open hour_sin hour_cos returns_std_10 returns_skew_10 high_low_range close_position_in_range
feature_infos=[-2.5324624531867124:2.3283022774785307] [-2.3209457712475343:2.1649470786136864] [-2.83835301365135:2.9533333450180366] [-4.1427103267201364:2.8826604980963677] [-4.9173177402005148:3.8635982032798202] [-3.2563579369614826:3.4084302768918824] [-2.9434971785262865:2.497355189091524] [-1.3159517911363785:4.6980088825628732] [-5.5783919192059912:4.3249921543358276] [-5.8982400796362908:4.9155490896970742] [-5.6128944082451513:4.3513076547862148] [-4.6420718309877742:3.9613014510683393] [-1.0326769203907649:8.9863955819792007] [-1.6569170652364762:3.718655490495169] [-1.3932958364808052:5.59142998759887] [-1.5433246981759519:3.9015870127436303] [-2.1158137501674741:2.7807482874922953] [-1.4291719904863498:4.5483141231057918] [-2.3253298470566452:3.1188447678646365] [-1.7540244129301743:2.0176608939464611] [-1.2267754905177379:3.2596859605600499] [-1.2490979573620393:3.0355551873507851] [-3.4901235115479778:4.3100688231337472] [-1.0158560283424227:0.98439146109287878] [-1.3885239684065795:1.4294525052596205] [-1.4141313427849489:1.4255131138731756] [-1.3892522889197956:5.0858282871821077] [-3.0111863521244833:2.8671926393158325] [-1.482851265286748:3.5340384848034962] [-1.9001664850211299:1.6203537703408026]
tree_sizes=974 984 967 982 964 981 762 782 782 780 878 873 780 779 776 860 971 885 880 877 960 990 989 982 986 887 886 880 854 861 880 878 884 884 980 988 852 669 834 939 971 987 979 985 884 878 989 877 985 882 674 983 676 675 672 882 985 779 877

Tree=0
num_leaves=8
num_cat=0
split_feature=26 24 13 26 13 7 5
split_gain=9.91067 8.40299 10.2884 7.84855 8.43404 5.83711 2.91344
threshold=-0.37598919313098261 0.98312208560546666 -0.076749596427453562 -0.15820094525397524 0.82065840797694722 -0.37466709402382553 -0.95151518485210185
decision_type=2 2 2 2 2 2 2
left_child=1 6 -3 5 -5 -2 -1
right_child=3 2 -4 4 -6 -7 -8
leaf_value=-0.7893607118239967 -0.70006820680588888 -0.71945582646341244 -0.76786301560377623 -0.75719533892585511 -0.72817834422786121 -0.74284086176746145 -0.76580963844620731
leaf_weight=6.7531199455261257 4.5746941566467285 6.753119945526123 7.4066476821899396 38.558136463165283 10.892128944396971 7.8423328399658185 24.398368835449219
leaf_count=31 21 31 34 177 50 36 112
internal_value=-0.752775 -0.763358 -0.744743 -0.745056 -0.750667 -0.724519 -0.771944
internal_weight=107.179 45.3113 14.1598 61.8673 49.4503 12.417 31.1515
internal_count=492 208 65 284 227 57 143
is_linear=0
shrinkage=1


Tree=1
num_leaves=8
num_cat=0
split_feature=14 5 15 22 2 20 20
split_gain=9.53718 6.04881 6.89857 5.45944 5.06764 2.57406 1.70153
threshold=0.22722516069202911 -0.96837541253015724 -0.6116045372739799 1.0599886836830286 -1.0346542379831505 -1.04169185436523 -0.6508563096522747
decision_type=2 2 2 2 2 2 2
left_child=1 5 -3 4 -2 -1 -5
right_child=3 2 -4 6 -6 -7 -8
leaf_value=0.0029702963547442516 0.026943306767114896 -0.015299838109969552 0.0045591882102951871 0.0098563486894354905 -0.0012767699787390643 -0.032163719553023988 0.056205426428558289
leaf_weight=1.7364671826362599 6.7732953876256969 26.717315405607224 35.509688451886177 1.9627368003129957 21.817154750227928 10.380387932062147 2.1811890900135031
leaf_count=8 31 123 163 9 100 48 10
internal_value=-0.00203539 -0.00800513 -0.00395811 0.0112112 0.00575604 -0.026792 0.0406134
internal_weight=107.078 74.3439 62.227 32.7344 28.5905 12.1169 4.14393
internal_count=492 342 286 150 131 56 19
is_linear=0
shrinkage=0.03


Tree=2
num_leaves=8
num_cat=0
split_feature=27 12 1 20 17 1 20
split_gain=8.3631 9.66487 7.71532 6.74848 5.47585 5.14223 2.84759
threshold=-0.91916804387766082 -0.65168297167461853 -1.4730233370464896 0.15513088778186404 -0.45563124319867415 -0.43999592560561701 0.90531395035651085
decision_type=2 2 2 2 2 2 2
left_child=3 6 -3 4 -1 -5 -2
right_child=1 2 -4 5 -6 -7 -8
leaf_value=-0.0055140314771167723 -0.035109497826573029 -0.032950276657579658 0.0013525780161120153 -0.028377224257470857 0.040199189238323732 0.014486807013683075 0
leaf_weight=2.6057239025831214 10.792816936969755 5.639234483242034 67.831396400928497 3.7071754485368729 8.7669028490781802 4.8053576499223691 2.819962114095687
leaf_count=12 50 26 312 17 40 22 13
internal_value=-0.00196129 -0.00603607 -0.00152611 0.0151367 0.0295583 -0.00437017 -0.028525
internal_weight=106.969 87.0834 73.4706 19.8852 11.3726 8.51253 13.6128
internal_count=492 401 338 91 52 39 63
is_linear=0
shrinkage=0.03


Tree=3
num_leaves=8
num_cat=0
split_feature=26 24 13 26 2 5 5
split_gain=8.79483 7.86476 9.65439 7.46757 9.23384 5.54587 2.73658
threshold=-0.37598919313098261 0.98312208560546666 -0.076749596427453562 -0.15820094525397524 -1.0559000209116596 0.67203281258414649 -0.95151518485210185
decision_type=2 2 2 2 2 2 2
left_child=1 6 -3 5 -5 -2 -1
right_child=3 2 -4 4 -6 -7 -8
leaf_value=-0.037530087809517616 0.035538454953508609 0.030281398924586832 -0.016606430078679169 0.025368576164264741 -0.0064436002926603229 -0.0082502601590672374 -0.014440627954171045
leaf_weight=6.5440616011619595 9.6801318228244764 6.8141380250453949 7.3333706557750684 9.4767151623964292 40.065189480781555 2.8435033410787574 24.136969074606895
leaf_count=31 44 31 34 43 184 13 112
internal_value=-0.00191704 -0.0119712 0.00598765 0.00530934 0 0.0252475 -0.0203846
internal_weight=106.894 44.8285 14.1475 62.0655 49.5419 12.5236 30.681
internal_count=492 208 65 284 227 57 143
is_linear=0
shrinkage=0.03


Tree=4
num_leaves=8
num_cat=0
split_feature=14 16 25 15 4 2 14
split_gain=8.65495 7.69912 7.99472 5.92424 5.48467 10.1986 3.35091
threshold=0.22722516069202911 -1.0666042648024814 -1.0912589035888369 -0.20015479633164326 0.12740678593603735 -1.0346542379831505 0.79982691059403466
decision_type=2 2 2 2 2 2 2
left_child=1 2 -1 -3 5 -2 -6
right_child=4 3 -4 -5 6 -7 -8
leaf_value=0.051162260315391256 0.026687333498107441 -0.0064519842892772636 0 -0.028214178766557962 0.037473662525761509 -0.017956713653657388 0.0076710537350585207
leaf_weight=2.6413219720125189 6.7058790475130072 42.774255335330963 13.015116930007933 15.455230221152304 7.2450614869594556 11.096055969595911 7.85564786195755
leaf_count=12 30 198 60 72 33 51 36
internal_value=-0.0018634 -0.00759252 0.0104952 -0.0126338 0.0106987 -0.000392549 0.0235132
internal_weight=106.789 73.8859 15.6564 58.2295 32.9026 17.8019 15.1007
internal_count=492 342 72 270 150 81 69
is_linear=0
shrinkage=0.03


Tree=5
num_leaves=8
num_cat=0
split_feature=5 5 25 10 15 5 24
split_gain=7.19678 15.5403 5.55809 5.43763 5.3276 4.55605 2.24327
threshold=-0.75385352341040401 -0.15626454695082784 0.052121293885730544 1.248332914904392 0.83699674106423017 -1.1759764819281699 -1.0000000180025095e-35
decision_type=2 2 2 2 2 2 2
left_child=4 3 -3 -2 6 -6 -1
right_child=1 2 -4 -5 5 -7 -8
leaf_value=-0.031719077783480175 0.029422781857120408 0.0052634846262195577 -0.013184090407400796 -0.013038979928732633 0.011558927354813909 -0.023567770839756086 0.00030971803413010641
leaf_weight=10.576927199959753 21.58409105241299 28.930282101035118 27.886535927653313 2.4202952980995169 9.3896498233079893 4.1312523335218421 1.9172841161489511
leaf_count=50 99 133 129 11 43 19 9
internal_value=0.000282717 0.00476459 -0.00374406 0.0246171 -0.0131441 0 -0.0266299
internal_weight=106.836 80.8212 56.8168 24.0044 26.0151 13.5209 12.4942
internal_count=493 372 262 110 121 62 59
is_linear=0
shrinkage=0.03


Tree=6
num_leaves=6
num_cat=0
split_feature=1 5 5 27 5
split_gain=8.98308 7.67576 14.5313 4.81751 0.989529
threshold=-1.5512810430861712 -0.75385352341040401 -0.15626454695082784 0.061912505180368463 -1.0278322462283065
decision_type=2 2 2 2 2
left_child=4 3 -3 -2 -1
right_child=1 2 -4 -5 -6
leaf_value=-0.0042610483029393749 0 0.026785065364649037 -0.0012295836717529807 -0.027539966436120451 -0.037021392527006342
leaf_weight=1.7380324602127073 13.801001816987993 23.124769255518913 53.490895375609398 9.5014116168022138 5.1821684241294852
leaf_count=8 64 105 247 45 24
internal_value=0.000262776 0.00270624 0.00733794 -0.0120114 -0.0308649
internal_weight=106.838 99.9181 76.6157 23.3024 6.9202
internal_count=493 461 352 109 32
is_linear=0
shrinkage=0.03


Tree=7
num_leaves=6
num_cat=0
split_feature=1 5 5 15 5
split_gain=8.60469 7.26047 13.5534 4.71368 0.954762
threshold=-1.5512810430861712 -0.75385352341040401 -0.15626454695082784 0.83699674106423017 -1.0278322462283065
decision_type=2 2 2 2 2
left_child=4 3 -3 -2 -1
right_child=1 2 -4 -5 -6
leaf_value=-0.0041779571091342888 -0.024773714481688677 0.025778525749032111 -0.0011937751594611626 0.0012904183633332556 -0.036502350332794399
leaf_weight=1.7353717088699339 11.465787753462793 23.334809213876724 53.466907039284706 11.733068645000456 5.1106387674808493
leaf_count=8 55 105 247 54 24
internal_value=0.000235365 0.00261587 0.00710522 -0.0117379 -0.0303877
internal_weight=106.847 100.001 76.8017 23.1989 6.84601
internal_count=493 461 352 109 32
is_linear=0
shrinkage=0.03


Tree=8
num_leaves=6
num_cat=0
split_feature=1 25 11 7 5
split_gain=8.24747 7.83573 9.5335 7.26221 0.922038
threshold=-1.5512810430861712 -0.70422022862041789 0.069736091850254492 -0.72156712016605284 -1.0278322462283065
decision_type=2 2 2 2 2
left_child=4 3 -3 -2 -1
right_child=1 2 -4 -5 -6
leaf_value=-0.0040964615540684344 0.051225435477481353 0.0085572093920012887 -0.013572047322247269 0.0085998907728691027 -0.036003412979938705
leaf_weight=1.732753589749336 3.5571043044328716 32.172549679875374 36.313373848795891 28.020598635077477 5.0382018685340872
leaf_count=8 16 148 169 128 24
internal_value=0.000213004 0.00253309 -0.00311104 0.0147339 -0.0299263
internal_weight=106.835 100.064 68.4859 31.5777 6.77096
internal_count=493 461 317 144 32
is_linear=0
shrinkage=0.03


Tree=9
num_leaves=6
num_cat=0
split_feature=1 25 11 5 5
split_gain=7.91611 7.38347 9.01162 6.93951 0.89118
threshold=-1.5512810430861712 -0.70422022862041789 0.069736091850254492 -0.66332568313963469 -1.0278322462283065
decision_type=2 2 2 2 2
left_child=4 3 -3 -2 -1
right_child=1 2 -4 -5 -6
leaf_value=-0.0040165328800079985 -0.011126821633552214 0.0082816388331046487 -0.013240354640956688 0.021529655260010196 -0.035523206983771288
leaf_weight=1.7301776707172392 6.7657657265663174 32.270889669656754 36.129258245229721 24.954234555363655 4.9650421589612952
leaf_count=8 31 148 169 113 24
internal_value=0.000206906 0.00246949 -0.00302131 0.0142773 -0.0294795
internal_weight=106.815 100.12 68.4001 31.72 6.69522
internal_count=493 461 317 144 32
is_linear=0
shrinkage=0.03


Tree=10
num_leaves=7
num_cat=0
split_feature=1 12 15 6 18 28
split_gain=11.4662 9.97699 10.4656 6.45556 4.2507 1.10155
threshold=-1.4410677271817263 -0.65168297167461853 -0.71992204570805096 -0.42731068916164933 1.5111166433318537 1.0889012629305308
decision_type=2 2 2 2 2 2
left_child=4 3 -3 -2 5 -1
right_child=1 2 -4 -5 -6 -7
leaf_value=-0.0377506077565989 0.012683776774847302 -0.0071256284776232926 0.016532247341188029 -0.025000576995796848 0.009846916138345211 -0.0045246869489130826
leaf_weight=7.8178762346506101 4.9924167245626476 22.403367310762405 59.518219694495201 13.040774524211882 1.9578781872987736 1.7457075864076612
leaf_count=38 23 104 271 62 9 8
internal_value=0.00211628 0.00549155 0.00998357 -0.0141536 -0.0251344 -0.033082
internal_weight=111.476 99.9548 81.9216 18.0332 11.5215 9.56358
internal_count=515 460 375 85 55 46
is_linear=0
shrinkage=0.03


Tree=11
num_leaves=7
num_cat=0
split_feature=1 16 9 18 1 28
split_gain=10.912 7.43645 6.29892 4.11577 3.29799 1.0675
threshold=-1.4410677271817263 1.7194943665087228 0.83071169335896566 1.5111166433318537 0.027899262729461624 1.0889012629305308
decision_type=2 2 2 2 2 2
left_child=3 2 -2 5 -3 -1
right_child=1 4 -4 -5 -6 -7
leaf_value=-0.037269155003684655 -0.00033035254796341895 0.057163646131210201 0.019130689778944245 0.0096130979289931404 0.0020080667744714863 -0.0044365397140244366
leaf_weight=7.6935212314128858 78.114493802189827 2.7028077244758597 17.547569274902344 1.9646881073713292 1.7609389424324033 1.7429174631834028
leaf_count=38 360 12 80 9 8 8
internal_value=0.0020392 0.00531388 0.0033063 -0.0246904 0.0401569 -0.0326117
internal_weight=111.527 100.126 95.6621 11.4011 4.46375 9.43644
internal_count=515 460 440 55 20 46
is_linear=0
shrinkage=0.03


Tree=12
num_leaves=6
num_cat=0
split_feature=1 12 15 29 27
split_gain=10.4045 9.30843 9.65472 7.98178 4.76975
threshold=-1.4410677271817263 -0.65168297167461853 -0.71992204570805096 -0.9965286905281745 -1.5322721617782118
decision_type=2 2 2 2 2
left_child=4 3 -3 -2 -1
right_child=1 2 -4 -5 -6
leaf_value=0.0076353377817132096 0.024873374256658726 -0.0069823696019360127 0.015725967609351636 -0.023142030979272282 -0.034438088737870583
leaf_weight=2.6345569938421241 3.080402463674548 22.358814835548401 59.979103162884712 14.861076369881628 8.6453111171722394
leaf_count=12 14 104 271 71 43
internal_value=0.00198597 0.0051662 0.00947951 -0.0138682 -0.0242597
internal_weight=111.559 100.279 82.3379 17.9415 11.2799
internal_count=515 460 375 85 55
is_linear=0
shrinkage=0.03


Tree=13
num_leaves=6
num_cat=0
split_feature=16 4 8 16 3
split_gain=9.85716 8.54225 7.77817 4.36968 3.47434
threshold=1.77678972480416 -0.13146531758469338 -0.084324080830203166 -1.1079198938236277 -0.14753157050453256
decision_type=2 2 2 2 2
left_child=1 3 -3 -1 -2
right_child=4 2 -4 -5 -6
leaf_value=0.010223986833214672 0.054443986472508622 0.024710879597162547 0.00054600803607707216 -0.014316501569532909 0.00067544130888612147
leaf_weight=6.9930086135864249 3.3864416927099228 15.608340844511984 46.660768270492554 37.132811084389687 1.7967794537544239
leaf_count=33 15 71 215 173 8
internal_value=0.00191914 -0.000130706 0.00693491 -0.010181 0.0393902
internal_weight=111.578 106.395 62.2691 44.1258 5.18322
internal_count=515 492 286 206 23
is_linear=0
shrinkage=0.03


Tree=14
num_leaves=6
num_cat=0
split_feature=16 12 18 29 2
split_gain=9.30041 6.08699 8.11556 5.53433 2.73984
threshold=1.77678972480416 -0.65168297167461853 -0.1095037539672447 -0.9965286905281745 0.19470405704907226
decision_type=2 2 2 2 2
left_child=1 3 -3 -1 -2
right_child=4 2 -4 -5 -6
leaf_value=0.016856292167366504 0.051237402135678241 0.012633549574603428 -0.0053931047352271302 -0.023109266902878546 0.0019656364705685622
leaf_weight=3.0842168033123043 3.4748098552227011 41.77895250916481 46.398706957697868 15.102155059576033 1.7630488723516462
leaf_count=14 15 192 213 73 8
internal_value=0.00188102 -0.000117931 0.00311736 -0.0155908 0.0381043
internal_weight=111.602 106.364 88.1777 18.1864 5.23786
internal_count=515 492 405 87 23
is_linear=0
shrinkage=0.03


Tree=15
num_leaves=7
num_cat=0
split_feature=20 1 12 2 13 0
split_gain=6.16446 6.91115 8.0547 3.02367 3.06068 2.69345
threshold=1.5528986916000871 -1.4730233370464896 -0.65168297167461853 0.58677061059029234 -0.96131042196832006 -1.3957533957593593
decision_type=2 2 2 2 2 2
left_child=1 5 -3 4 -2 -1
right_child=3 2 -4 -5 -6 -7
leaf_value=0 0.0039025106483742212 -0.015171044585552728 0.0085077681676791975 0.0077364211181855753 -0.035786183288133801 -0.034891016157476341
leaf_weight=2.7053878754377365 1.7028774917125691 14.760143324732779 73.400480523705482 2.018774449825286 7.4225159138441077 5.1711120456457129
leaf_count=13 8 71 333 9 34 26
internal_value=-0.000615775 0.00184005 0.00437516 -0.0209875 -0.0280578 -0.0236306
internal_weight=107.181 96.0371 88.1606 11.1442 9.12539 7.8765
internal_count=494 443 404 51 42 39
is_linear=0
shrinkage=0.03


Tree=16
num_leaves=8
num_cat=0
split_feature=4 14 7 29 1 16 28
split_gain=6.40634 7.45095 9.39821 6.533 5.28131 6.85302 3.08997
threshold=0.20489855439355606 1.0000000180025095e-35 -0.22822144215388071 -0.087309738902492426 -1.4410677271817263 -1.2478973371025788 0.70351194157957719
decision_type=2 2 2 2 2 2 2
left_child=4 2 -2 -3 6 -6 -1
right_child=1 3 -4 -5 5 -7 -8
leaf_value=-0.03598630055484122 0.011685874901176466 0.039231090078993371 -0.026583871192274532 0.0034617176423720826 0.024167223730785739 -0.0067052410182906275 0
leaf_weight=6.8429554402828199 14.149717241525652 9.1355771720409411 8.5591695159673673 9.6201194822788221 6.5866478085517874 49.63762654364109 2.6010292619466782
leaf_count=35 65 41 40 43 30 228 12
internal_value=-0.000610902 0.0084646 -0.00289688 0.0220833 -0.00646457 -0.00269502 -0.0263576
internal_weight=107.133 41.4646 22.7089 18.7557 65.6683 56.2243 9.44398
internal_count=494 189 105 84 305 258 47
is_linear=0
shrinkage=0.03


Tree=17
num_leaves=7
num_cat=0
split_feature=20 12 5 14 21 17
split_gain=5.81272 6.01887 6.12104 5.19477 3.96903 1.36556
threshold=1.5528986916000871 -0.65168297167461853 -0.15626454695082784 -0.78346007110398175 -1.1861117288564624 -0.085807346603108278
decision_type=2 2 2 2 2 2
left_child=1 3 -3 -1 -2 -6
right_child=4 2 -4 -5 5 -7
leaf_value=0.018485168628491633 0.014209606351872456 0.015133653145857733 -0.001484018014408037 -0.02333493715412293 -0.037342414755926062 -0.0089813005421391385
leaf_weight=2.5582048743963233 1.7452062219381321 32.021209448575974 49.127436652779579 12.304372251033781 5.5696650743484488 3.72458891570568
leaf_count=12 8 145 226 60 26 17
internal_value=-0.000588129 0.00178594 0.00508381 -0.0151771 -0.0204679 -0.0281839
internal_weight=107.051 96.0112 81.1486 14.8626 11.0395 9.29425
internal_count=494 443 371 72 51 43
is_linear=0
shrinkage=0.03


Tree=18
num_leaves=7
num_cat=0
split_feature=4 16 1 12 4 12
split_gain=5.94122 6.87855 7.6261 6.04093 6.34506 3.72437
threshold=0.53715503017814503 -1.2478973371025788 -1.177433441507939 -0.74723478875167004 0.88531301939573337 -0.67564531443988918
decision_type=2 2 2 2 2 2
left_child=1 2 -1 -2 -5 -3
right_child=3 5 -4 4 -6 -7
leaf_value=-0.027193130035708307 -0.028445001242439177 -0.02688272134959482 0.029712237287055899 0.03647352225081521 0.0039404047305515175 -0.0053145514551821262
leaf_weight=1.9666620939970005 2.1909442991018322 7.7147374153137198 8.406724274158476 8.3184263408184069 14.97904911637306 63.422935456037521
leaf_count=10 11 38 38 37 67 293
internal_value=-0.000577161 -0.00459109 0.0172122 0.0117801 0.0166307 -0.00800993
internal_weight=106.999 81.5111 10.3734 25.4884 23.2975 71.1377
internal_count=494 379 48 115 104 331
is_linear=0
shrinkage=0.03


Tree=19
num_leaves=7
num_cat=0
split_feature=20 1 1 18 21 15
split_gain=5.53033 6.27358 6.05377 4.2171 3.79838 1.31667
threshold=1.5528986916000871 -1.4410677271817263 -1.1566910471884677 1.0026252543092931 -1.1861117288564624 0.31830417690687351
decision_type=2 2 2 2 2 2
left_child=1 3 -3 -1 -2 -6
right_child=4 2 -4 -5 5 -7
leaf_value=-0.032033005234979012 0.01374102913827001 0.032113773783343118 0.0020279850333387158 0.0086217441517292808 -0.034076850058619185 -0.0039169884591714835
leaf_weight=6.8062902390956861 1.7558879405260075 5.7849502712488166 80.800148993730545 2.5887389481067657 6.7693930566310865 2.4237114787101746
leaf_count=35 8 26 370 12 32 11
internal_value=-0.000565602 0.00174123 0.00438234 -0.0204448 -0.0200398 -0.0276759
internal_weight=106.929 95.9801 86.5851 9.39503 10.949 9.1931
internal_count=494 443 396 47 51 43
is_linear=0
shrinkage=0.03


Tree=20
num_leaves=8
num_cat=0
split_feature=4 8 14 16 16 18 16
split_gain=7.17683 10.2909 8.41637 7.16919 6.06203 5.0054 4.42678
threshold=-0.13146531758469338 -0.26457948092945266 0.38156008942944292 1.3730609871171546 -1.1564854782553571 1.3859786429423508 -1.4461234909636127
decision_type=2 2 2 2 2 2 2
left_child=4 3 -3 -2 6 -6 -1
right_child=1 2 -4 -5 5 -7 -8
leaf_value=0 0.048209169050552982 -0.0020663239263403613 0.029536428213294916 -0.0092449885271060368 -0.014836207452570241 0.01630693091994919 0.052004824707316759
leaf_weight=3.412389725446701 7.8309529125690442 42.583908528089523 8.3447215855121595 2.0188742876052856 34.321497693657875 4.5028019696474066 1.6948484629392613
leaf_count=16 35 196 37 9 163 20 8
internal_value=0.00249883 0.00916697 0.00337255 0.0360598 -0.00659123 -0.0108165 0.021628
internal_weight=104.71 60.7785 50.9286 9.84983 43.9315 38.8243 5.10724
internal_count=484 277 233 44 207 183 24
is_linear=0
shrinkage=0.03


Tree=21
num_leaves=8
num_cat=0
split_feature=9 14 20 7 16 15 19
split_gain=9.64948 8.25922 7.46453 7.11697 9.98468 5.46954 3.41171
threshold=0.90254120068121946 0.02700590773752504 -0.64167918800817347 -0.38410108950317079 0.049123266361107983 -0.33784382939822966 0.4037114447148496
decision_type=2 2 2 2 2 2 2
left_child=3 6 -3 4 -1 -5 -2
right_child=1 2 -4 5 -6 -7 -8
leaf_value=0.022557671499036772 0.014452276741738775 0.0037345379060703585 0.057493707168598709 -0.027860146965439047 -0.0079448899058074934 -0.0033658671296120267 -0.030447563612931761
leaf_weight=20.254952773451805 2.2206509858369818 4.0504322201013556 6.1393912434577933 9.6627656668424589 16.883076801896095 43.325154155492783 2.1828766912221909
leaf_count=94 10 18 27 46 78 201 10
internal_value=0.00244852 0.0244209 0.0384979 -0.00122686 0.00865782 -0.00829208 -0.00791118
internal_weight=104.719 14.5934 10.1898 90.1259 37.138 52.9879 4.40353
internal_count=484 65 45 419 172 247 20
is_linear=0
shrinkage=0.03


Tree=22
num_leaves=8
num_cat=0
split_feature=9 28 4 20 28 15 21
split_gain=9.08416 6.90954 6.79902 5.74542 5.57917 4.74027 3.35422
threshold=0.90254120068121946 0.057008697416421193 -0.76950376391508946 -0.64167918800817347 -0.30678734982306344 0.68374311772235752 -0.5282489429535614
decision_type=2 2 2 2 2 2 2
left_child=1 2 -1 6 -5 -3 -2
right_child=3 5 -4 4 -6 -7 -8
leaf_value=-0.018971570483041895 0.024032243033764569 -0.023937685457525608 0.0093995464431198949 0.0004152277009702784 0.050328420105534115 -0.0010433640037184708 -0.019754064951348523
leaf_weight=8.1067576706409437 1.7896720468997953 15.117850944399832 48.855102926492691 3.1210836172103873 6.6287707537412635 18.001005485653877 3.1452874541282645
leaf_count=38 8 72 226 14 29 83 14
internal_value=0.00237686 -0.00119819 0.00505109 0.0236236 0.0361622 -0.011989 -0.00169135
internal_weight=104.766 90.0807 56.9619 14.6848 9.74985 33.1189 4.93496
internal_count=484 419 264 65 43 155 22
is_linear=0
shrinkage=0.03


Tree=23
num_leaves=8
num_cat=0
split_feature=9 16 28 16 20 28 21
split_gain=8.57187 6.6692 9.7958 8.40697 5.3605 5.15355 3.20717
threshold=0.90254120068121946 0.041327976858425208 -0.15421941752324661 1.77678972480416 -0.64167918800817347 -0.30678734982306344 -0.5282489429535614
decision_type=2 2 2 2 2 2 2
left_child=1 2 -1 -3 6 -6 -2
right_child=4 3 -4 -5 5 -7 -8
leaf_value=0.018087685740373824 0.023410989920782038 -0.015380278134595455 -0.0078390503979403579 0.02630182035097919 0.00040526901015950712 0.04837355798791932 -0.019379605982958976
leaf_weight=26.999754026532173 1.8030714541673658 35.109734162688255 23.801961615681648 4.1274012029170981 3.1214970648288718 6.7206308096647254 3.1256370395421973
leaf_count=125 8 163 113 18 14 29 14
internal_value=0.00230592 -0.00117488 0.00589084 -0.0104079 0.0228794 0.034898 -0.00159492
internal_weight=104.81 90.0389 50.8017 39.2371 14.7708 9.84213 4.92871
internal_count=484 419 238 181 65 43 22
is_linear=0
shrinkage=0.03


Tree=24
num_leaves=8
num_cat=0
split_feature=9 29 28 4 8 11 13
split_gain=8.08176 9.70895 6.30652 6.35765 5.07996 3.73355 1.47442
threshold=0.90254120068121946 1.3760247549434121 0.057008697416421193 -0.76950376391508946 -0.25346005581696279 0.57505392414018897 -0.076749596427453562
decision_type=2 2 2 2 2 2 2
left_child=2 5 3 -1 -4 -2 -3
right_child=1 6 4 -5 -6 -7 -8
leaf_value=-0.018524713664923361 0.015051254512441199 0.0016819355981340955 0.0010201819612542077 0.0089855611207548449 -0.022006046923863019 0.053713541826611894 -0.029888064639493065
leaf_weight=8.0396101623773557 5.9705476313829404 1.7645183652639391 15.059591919183729 49.065846756100655 17.806167647242546 5.1219402849674225 1.9892551600933064
leaf_count=38 26 8 70 226 85 22 9
internal_value=0.00225336 0.0221741 -0.00113414 0.00480648 -0.0115033 0.0358204 -0.0160421
internal_weight=104.817 14.8463 89.9712 57.1055 32.8658 11.0925 3.75377
internal_count=484 65 419 264 155 48 17
is_linear=0
shrinkage=0.03


Tree=25
num_leaves=7
num_cat=0
split_feature=26 2 22 7 1 16
split_gain=5.86081 8.10363 8.48458 6.47857 4.42174 5.02958
threshold=0.17474425775734601 -1.0346542379831505 -1.5400754278775461 -0.36209525123353742 -1.4410677271817263 -1.1564854782553571
decision_type=2 2 2 2 2 2
left_child=4 2 -2 -3 -1 -6
right_child=1 3 -4 -5 5 -7
leaf_value=-0.029299224843314906 -0.010988268940411309 0.035737657168024524 0.051701735473431411 -0.0033426002487566479 0.018277639634643097 -0.0059426542168122811
leaf_weight=5.4425467252731314 2.1915084421634674 3.6006954461336163 5.9064336717128736 27.299842596054077 8.0782051235437375 55.677578166127205
leaf_count=29 10 16 26 124 36 257
internal_value=8.21208e-05 0.00932716 0.0345993 0.00180893 -0.00508949 -0.00259239
internal_weight=108.197 38.9985 8.09794 30.9005 69.1983 63.7558
internal_count=498 176 36 140 322 293
is_linear=0
shrinkage=0.03


Tree=26
num_leaves=7
num_cat=0
split_feature=26 20 7 1 16 12
split_gain=5.54579 8.64871 5.89358 4.26827 4.91499 2.25857
threshold=0.17474425775734601 0.96382857571354741 1.3863787857027965 -1.4410677271817263 0.041327976858425208 -0.57849347369328596
decision_type=2 2 2 2 2 2
left_child=3 2 -2 -1 -5 -3
right_child=1 5 -4 4 -6 -7
leaf_value=-0.02890422134685286 0.022883706268608112 0.0043907618467221559 -0.0047801869923523258 0.0043990237333979042 -0.012236549057747036 -0.030974749890528817
leaf_weight=5.3635490238666526 24.029999017715454 1.6847015619277952 8.8224465548992139 37.128278136253357 26.554746240377426 4.5449632704257956
leaf_count=29 108 8 39 171 122 21
internal_value=8.74265e-05 0.00906562 0.0153393 -0.00495419 -0.00251043 -0.021146
internal_weight=108.129 39.0821 32.8524 69.0466 63.683 6.22966
internal_count=498 176 147 322 293 29
is_linear=0
shrinkage=0.03


Tree=27
num_leaves=7
num_cat=0
split_feature=27 20 1 1 14 25
split_gain=5.47138 6.08693 5.49456 5.23733 4.47315 0.954619
threshold=-1.7698003694381959 -0.15574860265426596 -1.4410677271817263 -1.1923363462516057 0.78863447517690288 1.0414132838101984
decision_type=2 2 2 2 2 2
left_child=1 -1 5 -4 -3 -2
right_child=2 4 3 -5 -6 -7
leaf_value=0.048142581311897414 -0.030123818953496598 0.023148608878776077 0.025662318398714423 -0.0016846921639371987 -0.029507408714888758 -0.00055256493298264846
leaf_weight=3.5414066165685654 5.9604499340057364 2.2396424710750571 5.9872027635574332 86.733715161681175 1.9588635861873624 1.6790497750043867
leaf_count=15 32 10 27 396 9 9
internal_value=7.0254e-05 0.0231809 -0.00182198 0.000221426 -0.00100899 -0.0250039
internal_weight=108.1 7.73991 100.36 92.7209 4.19851 7.6395
internal_count=498 34 464 423 19 41
is_linear=0
shrinkage=0.03


Tree=28
num_leaves=7
num_cat=0
split_feature=27 7 1 1 18 4
split_gain=5.18064 5.4397 5.27965 4.92626 2.32847 1.08342
threshold=-1.7698003694381959 1.6198496178188402 -1.4410677271817263 -1.1923363462516057 0.79374006833827238 -1.2984877986548413
decision_type=2 2 2 2 2 2
left_child=1 4 5 -4 -1 -2
right_child=2 -3 3 -5 -6 -7
leaf_value=0.057062382559550436 0 -0.01220268264501983 0.024796066311285211 -0.0016355512505051586 0.012635406626278821 -0.029751669580249052
leaf_weight=2.3473459631204596 1.5261810570955274 2.2337210774421692 6.0376368165016165 86.684281274676323 3.1896540522575378 6.0235585868358603
leaf_count=10 8 10 27 396 14 33
internal_value=7.16776e-05 0.0225169 -0.00177285 0.000218788 0.0372425 -0.0246291
internal_weight=108.042 7.77072 100.272 92.7219 5.537 7.54974
internal_count=498 34 464 423 24 41
is_linear=0
shrinkage=0.03


Tree=29
num_leaves=7
num_cat=0
split_feature=27 20 1 2 14 18
split_gain=4.9245 5.72168 5.07043 4.77613 4.16859 0.950548
threshold=-1.7698003694381959 -0.15574860265426596 -1.4410677271817263 -1.0559000209116596 0.78863447517690288 1.0026252543092931
decision_type=2 2 2 2 2 2
left_child=1 -1 5 -4 -3 -2
right_child=2 4 3 -5 -6 -7
leaf_value=0.045949327391455082 -0.029211420145007511 0.021660072763979413 0.017196785491066065 -0.0024139634839919774 -0.02910638285125897 0
leaf_weight=3.5913279354572296 5.8971327245235434 2.2711481302976599 12.146609455347059 80.574679359793663 1.9400418400764463 1.5602800548076627
leaf_count=15 33 10 55 368 9 8
internal_value=7.75919e-05 0.0219177 -0.00172419 0.000216042 -0.00144305 -0.0242583
internal_weight=107.981 7.80252 100.179 92.7213 4.21119 7.45741
internal_count=498 34 464 423 19 41
is_linear=0
shrinkage=0.03


Tree=30
num_leaves=7
num_cat=0
split_feature=20 2 9 28 2 2
split_gain=5.65669 6.16449 6.85036 6.37073 3.5443 3.51597
threshold=1.4643147828608145 0.52556706271885056 -0.61517807238254951 -0.70732860248960594 0.58677061059029234 -0.91584664230507007
decision_type=2 2 2 2 2 2
left_child=1 2 -1 -3 5 -2
right_child=4 3 -4 -5 -6 -7
leaf_value=-0.0075074673278304645 0.0050673966419474623 0.019889085453993992 0.012727581315915119 -0.017114316513145992 0.010652111106119038 -0.038092130223322841
leaf_weight=21.654261857271194 1.6566584110259999 4.2350691705942181 43.951740086078644 23.15881872177124 1.8253747671842564 6.9369488656520835
leaf_count=103 8 19 202 106 8 33
internal_value=-0.00145071 0.000907367 0.00594836 -0.0107788 -0.0215975 -0.0294102
internal_weight=103.419 92.9999 65.606 27.3939 10.419 8.59361
internal_count=479 430 305 125 49 41
is_linear=0
shrinkage=0.03


Tree=31
num_leaves=7
num_cat=0
split_feature=20 2 28 1 2 2
split_gain=5.37954 5.80265 6.05288 5.82972 3.41708 3.41517
threshold=1.4643147828608145 0.52556706271885056 -0.70732860248960594 -1.4410677271817263 0.58677061059029234 -0.91584664230507007
decision_type=2 2 2 2 2 2
left_child=1 3 -3 -1 5 -2
right_child=4 2 -4 -5 -6 -7
leaf_value=-0.016593854660142588 0.0049580944268045463 0.019285048162585975 -0.016712868326710525 0.0092325459513083515 0.010408299208276448 -0.037579094578289889
leaf_weight=8.207111254334448 1.6599700897932042 4.2613358497619656 23.024914607405663 57.528589636087418 1.8307466804981221 6.8331962674856177
leaf_count=44 8 19 106 261 8 33
internal_value=-0.00140943 0.000879156 -0.0104882 0.00575719 -0.02115 -0.0289085
internal_weight=103.346 93.022 27.2863 65.7357 10.3239 8.49317
internal_count=479 430 125 305 49 41
is_linear=0
shrinkage=0.03


Tree=32
num_leaves=7
num_cat=0
split_feature=20 2 9 28 2 2
split_gain=5.11558 5.45962 6.32196 5.75126 3.29542 3.31894
threshold=1.4643147828608145 0.52556706271885056 -0.61517807238254951 -0.70732860248960594 0.58677061059029234 -0.91584664230507007
decision_type=2 2 2 2 2 2
left_child=1 2 -1 -3 5 -2
right_child=4 3 -4 -5 -6 -7
leaf_value=-0.0073854391891570734 0.0048512557304610793 0.018704474491580757 0.012044725085826623 -0.016320674518333699 0.010170696089872771 -0.037086625244483452
leaf_weight=21.597424626350403 1.6631997376680363 4.2862414866685894 44.247490718960762 22.892127558588982 1.8359198868274678 6.7284253090620032
leaf_count=103 8 19 202 106 8 33
internal_value=-0.00137252 0.000848764 0.00556936 -0.0102056 -0.0207159 -0.0284231
internal_weight=103.251 93.0233 65.8449 27.1784 10.2275 8.39163
internal_count=479 430 305 125 49 41
is_linear=0
shrinkage=0.03


Tree=33
num_leaves=7
num_cat=0
split_feature=20 2 9 28 2 2
split_gain=4.86691 5.13948 5.93974 5.46497 3.17898 3.22697
threshold=1.4643147828608145 0.52556706271885056 -0.61517807238254951 -0.70732860248960594 0.58677061059029234 -0.91584664230507007
decision_type=2 2 2 2 2 2
left_child=1 2 -1 -3 5 -2
right_child=4 3 -4 -5 -6 -7
leaf_value=-0.0071911748921564857 0.0047468239834488552 0.018146055380694526 0.011643508872068416 -0.015937432098538196 0.0099391054976675185 -0.036613306546904055
leaf_weight=21.537964463233948 1.6663496047258366 4.3098526597023037 44.423845440149307 22.76058229804039 1.840901806950568 6.6228852719068518
leaf_count=103 8 19 202 106 8 33
internal_value=-0.00133379 0.000822282 0.00539123 -0.00993065 -0.0202944 -0.0279527
internal_weight=103.162 93.0322 65.9618 27.0704 10.1301 8.28923
internal_count=479 430 305 125 49 41
is_linear=0
shrinkage=0.03


Tree=34
num_leaves=8
num_cat=0
split_feature=8 2 20 28 25 3 12
split_gain=5.02653 5.71325 8.59791 6.92972 4.82737 5.41214 2.75129
threshold=1.081479365989005 -1.0559000209116596 0.18628405061076594 -0.72297686412014672 -0.57996599315423658 0.85420492169384199 0.18915171151979948
decision_type=2 2 2 2 2 2 2
left_child=1 2 -1 -3 6 -6 -2
right_child=4 3 -4 -5 5 -7 -8
leaf_value=-0.004771742576786666 -0.028426022636977164 0.0092470881004639519 0.036672049498910418 -0.012125849214469211 0.052840576763216081 -0.0014727063501362562 0.01203498460082714
leaf_weight=10.782722532749178 1.7610017061233518 16.765336200594902 6.5216229259967795 58.564647048711777 3.7037485986947996 2.2112804502248764 2.7562824934720993
leaf_count=51 8 76 30 276 16 10 12
internal_value=-0.0012963 -0.00361954 0.0114464 -0.00724312 0.0175874 0.0338861 -0.00451345
internal_weight=103.067 92.6343 17.3043 75.33 10.4323 5.91503 4.51728
internal_count=479 433 81 352 46 26 20
is_linear=0
shrinkage=0.03


Tree=35
num_leaves=8
num_cat=0
split_feature=16 1 16 4 4 14 9
split_gain=5.43168 7.5627 6.14329 4.68859 7.77582 4.17562 2.31181
threshold=-1.0666042648024814 -0.78811277983296146 -1.4461234909636127 0.53269454696561203 0.85005408232685697 -0.82658538573273066 -0.45450189847607508
decision_type=2 2 2 2 2 2 2
left_child=1 6 -3 5 -5 -2 -1
right_child=3 2 -4 4 -6 -7 -8
leaf_value=0.0080212092334076696 -0.028832504258598141 0.00030252998175134954 0.041105476002686409 0.033013180237458375 -0.0019039549058554803 -0.0033965815656336776 -0.030491610444108839
leaf_weight=1.5453030019998548 5.7994019687175742 5.6502923816442499 8.5016332715749705 7.4719891101121929 17.578653037548065 60.937768384814262 2.7267189323902157
leaf_count=8 27 25 38 33 78 288 14
internal_value=0.00115028 0.0156875 0.0261036 -0.00181322 0.00897821 -0.00601113 -0.0163097
internal_weight=110.212 18.4239 14.1519 91.7878 25.0506 66.7372 4.27202
internal_count=511 85 63 426 111 315 22
is_linear=0
shrinkage=0.03


Tree=36
num_leaves=7
num_cat=0
split_feature=1 16 29 18 29 25
split_gain=5.16651 7.26664 6.36039 5.8132 4.01832 1.67055
threshold=-1.4410677271817263 -1.0666042648024814 -1.0352891881311728 1.5111166433318537 -1.111512268669826 1.2571918720447808
decision_type=2 2 2 2 2 2
left_child=3 2 -2 5 -3 -1
right_child=1 4 -4 -5 -6 -7
leaf_value=-0.032191871884245715 -0.007905275942904218 0.014138314090300509 0.03227417211413218 0.02343185584368997 -0.0032186123294084077 0
leaf_weight=7.8542604148387891 4.2632784992456463 13.665021046996115 11.763489022850989 1.77478627860546 69.470728099346161 1.4141258448362348
leaf_count=43 19 61 52 8 320 8
internal_value=0.00111673 0.00337913 0.0213618 -0.0175479 -0.00018661 -0.0272293
internal_weight=110.206 99.1625 16.0268 11.0432 83.1357 9.26839
internal_count=511 452 71 59 381 51
is_linear=0
shrinkage=0.03


Tree=37
num_leaves=5
num_cat=0
split_feature=10 9 9 1
split_gain=6.54156 9.58845 5.86217 4.02825
threshold=1.8069478917275534 0.90254120068121946 1.0596533172058573 -1.4410677271817263
decision_type=2 2 2 2
left_child=1 3 -3 -1
right_child=-2 2 -4 -5
leaf_value=-0.017186560036569459 -0.032056871324181696 0.052263519592155583 0.0094315749923945293 0.0015804033656367825
leaf_weight=10.927262887358664 4.290299877524375 4.248816490173339 8.8397317975759488 81.863443791866302
leaf_count=59 19 18 39 376
internal_value=0.00108767 0.00271728 0.0259773 -0.000693549
internal_weight=110.17 105.879 13.0885 92.7907
internal_count=511 492 57 435
is_linear=0
shrinkage=0.03


Tree=38
num_leaves=7
num_cat=0
split_feature=1 11 1 11 2 19
split_gain=4.65912 4.04271 4.82814 3.98787 1.30382 1.23783
threshold=-1.4410677271817263 1.5322907639357422 1.5313094270358587 -2.0565489588887007 0.76522241783389733 -1.3687115213135492
decision_type=2 2 2 2 2 2
left_child=3 2 -2 -1 -3 -5
right_child=1 4 -4 5 -6 -7
leaf_value=0.014067223240560435 0.0025776674469979591 -0.031831132661411611 0.027495251579406015 0 0 -0.030558322028676376
leaf_weight=2.1865490972995749 87.460708647966385 2.8888402283191672 6.9399529099464408 1.5141308158636082 2.0255920737981796 7.1365689635276786
leaf_count=10 398 14 31 8 9 41
internal_value=0.00105748 0.00318903 0.00468819 -0.0168373 -0.021183 -0.0258132
internal_weight=110.152 99.3151 94.4007 10.8372 4.91443 8.6507
internal_count=511 452 429 59 23 49
is_linear=0
shrinkage=0.03


Tree=39
num_leaves=8
num_cat=0
split_feature=16 29 16 14 9 12 25
split_gain=4.81773 7.2033 4.86752 4.39219 3.41353 2.02403 1.6119
threshold=-1.0666042648024814 -1.0352891881311728 -1.4461234909636127 -0.83597177649431431 0.90254120068121946 -0.1413343233851472 1.0000000180025095e-35
decision_type=2 2 2 2 2 2 2
left_child=1 6 -3 5 -5 -2 -1
right_child=3 2 -4 4 -6 -7 -8
leaf_value=0 -0.035421805384868547 0.00095218207467869984 0.039283923093321467 -0.0026747997940553764 0.012923387981351267 0 -0.029256981136560924
leaf_weight=3.1944487839937237 4.0356487184762955 4.9900083243846902 8.2746524661779368 71.061878249049187 14.516313984990118 1.9856428951024998 2.0780677646398544
leaf_count=15 19 23 37 335 63 9 10
internal_value=0.00101968 0.0146648 0.0261649 -0.00177985 0 -0.0249483 -0.0129147
internal_weight=110.137 18.5372 13.2647 91.5995 85.5782 6.02129 5.27252
internal_count=511 85 60 426 398 28 25
is_linear=0
shrinkage=0.03


Tree=40
num_leaves=8
num_cat=0
split_feature=1 13 18 29 13 28 8
split_gain=5.30475 6.39616 5.98241 5.84136 4.18037 4.09987 3.65937
threshold=0.17244576906334622 -0.63937784214328286 -0.58549598701863914 1.332621259125754 -0.56142685971158268 0.036087802289696477 -0.37396533141615057
decision_type=2 2 2 2 2 2 2
left_child=4 2 -2 -3 6 -6 -1
right_child=1 3 -4 -5 5 -7 -8
leaf_value=0 0.0082306950988976068 0.0048712273097959256 0.053318097258525057 -0.025897361398665438 0.0061202891287264697 -0.01186611067676104 -0.027556637518098955
leaf_weight=6.1143692433834103 9.4001067727804166 26.403356418013573 3.3977018296718589 6.1534668654203406 23.470109760761261 20.468687728047371 13.007587298750876
leaf_count=29 44 119 15 28 110 96 63
internal_value=-0.00192412 0.00576767 0.0230749 -0.001246 -0.00755312 -0.00218684 -0.0189997
internal_weight=108.415 45.3546 12.7978 32.5568 63.0608 43.9388 19.122
internal_count=504 206 59 147 298 206 92
is_linear=0
shrinkage=0.03


Tree=41
num_leaves=8
num_cat=0
split_feature=1 16 13 26 18 17 3
split_gain=5.0278 7.47202 6.04554 5.71326 5.58932 4.14867 0.476957
threshold=0.17244576906334622 1.77678972480416 -0.63937784214328286 0.85660893102220947 -0.58549598701863914 -0.43481170885065451 -0.37714496977218093
decision_type=2 2 2 2 2 2 2
left_child=1 5 4 -4 -2 -1 -3
right_child=2 6 3 -5 -6 -7 -8
leaf_value=0.00070138118066600803 0.0079815675745726258 0.039497555496802887 0.0037147201607964967 -0.030922487170583692 0.051411413942788885 -0.015752838542873501 0.0082275257683969878
leaf_weight=19.911906689405441 9.4272554814815503 1.9055517464876177 28.333525761961937 4.2088960707187644 3.446894943714141 39.197051540017128 1.8718177676200856
leaf_count=94 44 8 128 19 15 188 8
internal_value=-0.00186421 -0.00735943 0.00561062 -0.00121961 0.0223757 -0.0101744 0.0294591
internal_weight=108.303 62.8863 45.4166 32.5424 12.8742 59.109 3.77737
internal_count=504 298 206 147 59 282 16
is_linear=0
shrinkage=0.03


Tree=42
num_leaves=8
num_cat=0
split_feature=1 16 13 29 18 17 3
split_gain=4.74036 7.13712 5.71973 5.57968 5.23346 3.94954 0.441868
threshold=0.17244576906334622 1.77678972480416 -0.63937784214328286 1.332621259125754 -0.58549598701863914 -0.43481170885065451 -0.37714496977218093
decision_type=2 2 2 2 2 2 2
left_child=1 5 4 -4 -2 -1 -3
right_child=2 6 3 -5 -6 -7 -8
leaf_value=0.0006809821865532003 0.0077407553638060341 0.038470829201991429 0.004750368730492803 -0.025411979997792728 0.04963866417628178 -0.015381681583390629 0.0080439348331913553
leaf_weight=19.917010053992271 9.4534005820751172 1.9188581556081774 26.434037134051323 6.0987611711025229 3.4907738417387 38.961498439311981 1.8753078281879414
leaf_count=94 44 8 119 28 15 188 8
internal_value=-0.00178942 -0.00714282 0.0054545 -0.0011982 0.0217079 -0.00991129 0.0287575
internal_weight=108.15 62.6727 45.477 32.5328 12.9442 58.8785 3.79417
internal_count=504 298 206 147 59 282 16
is_linear=0
shrinkage=0.03


Tree=43
num_leaves=8
num_cat=0
split_feature=1 16 11 12 28 17 8
split_gain=4.47151 6.81851 5.85212 4.15528 3.91993 1.83244 0.413635
threshold=0.17244576906334622 1.77678972480416 1.3721072607000022 -0.45864768476524381 -0.74500704703069087 -0.11202948913990678 -0.61391058472158233
decision_type=2 2 2 2 2 2 2
left_child=1 4 3 -2 -1 -4 -3
right_child=2 6 5 -5 -6 -7 -8
leaf_value=0.0062419805295336091 0.02326347327011569 0.0077912014528593622 0.0019374482052745778 0.0024809889534492071 -0.013272786009121953 -0.030171314610773627 0.037463200740307137
leaf_weight=10.459511786699293 12.706623822450636 1.869325637817383 1.7428270876407621 26.964786127209663 48.191532626748085 4.1109934151172629 1.9398903250694264
leaf_count=49 58 8 8 121 233 19 8
internal_value=-0.00171603 -0.00693216 0.00530706 0.00961407 -0.00965454 -0.0206264 0.0280834
internal_weight=107.985 62.4603 45.5252 39.6714 58.651 5.85382 3.80922
internal_count=504 298 206 179 282 27 16
is_linear=0
shrinkage=0.03


Tree=44
num_leaves=7
num_cat=0
split_feature=29 0 14 19 0 10
split_gain=3.94895 5.24721 4.27803 4.21351 3.98167 3.13567
threshold=0.37810034108715068 1.9553456487824634 0.46423637802058054 -0.98789770518108944 -1.4437072532640525 -1.0521390899449177
decision_type=2 2 2 2 2 2
left_child=3 2 -2 4 -1 -5
right_child=1 -3 -4 5 -6 -7
leaf_value=0.01196771013160406 0.012631049185784509 -0.030839229275531094 -0.013110146341216922 -0.017131539204000391 -0.029868043457072616 0.00086109333426186954
leaf_weight=1.856417804956435 33.635921195149422 2.4950772672891608 6.0934361219406119 9.8856460750102979 9.5779809802770597 44.301679283380508
leaf_count=9 153 12 28 49 48 205
internal_value=-0.00165154 0.00536835 0.00835414 -0.00626909 -0.022247 -0.00251376
internal_weight=107.846 42.2244 39.7294 65.6217 11.4344 54.1873
internal_count=504 193 181 311 57 254
is_linear=0
shrinkage=0.03


Tree=45
num_leaves=7
num_cat=0
split_feature=5 5 20 17 9 9
split_gain=4.89779 7.75 5.8828 7.73909 5.59659 4.09399
threshold=-0.74242532138237782 -0.49250581486327533 -1.2035408166564787 0.72552340878947319 -0.45929130740147472 -0.091122371985472295
decision_type=2 2 2 2 2 2
left_child=2 5 -1 -4 -3 -2
right_child=1 4 3 -5 -6 -7
leaf_value=0.026765407092720003 0.0071507702288586923 0.014160685092190799 -0.031891642867752507 0.0041397869147317941 -0.003583742806161222 0.048440096668624623
leaf_weight=2.4959550201892879 4.9129335135221481 21.77380146086216 11.291192099452021 8.8772458881139737 53.47289465367794 4.4446593821048719
leaf_count=11 23 103 56 41 245 19
internal_value=0.00161689 0.00498879 -0.0104554 -0.0161932 0.00156694 0.0296235
internal_weight=107.269 84.6043 22.6644 20.1684 75.2467 9.35759
internal_count=498 390 108 97 348 42
is_linear=0
shrinkage=0.03


Tree=46
num_leaves=8
num_cat=0
split_feature=5 5 18 9 14 9 27
split_gain=4.62553 7.31799 5.63064 5.25369 4.03374 3.81812 0.964532
threshold=-0.74242532138237782 -0.49250581486327533 0.31832953976389239 -0.45929130740147472 -0.44616832861867034 -0.091122371985472295 -1.7698003694381959
decision_type=2 2 2 2 2 2 2
left_child=2 5 4 -3 -1 -2 -4
right_child=1 3 6 -5 -6 -7 -8
leaf_value=-0.02008341054595153 0.0069517188370067243 0.013682256111425511 -0.0038125782065015221 -0.0034819792684811176 0.010919762806996185 0.046793364348437692 -0.036149218790203504
leaf_weight=4.8916832357645044 4.9247238487005234 21.885353103280067 1.6923526078462598 53.408980205655098 10.394920766353607 4.4904724061489087 5.5666106641292563
leaf_count=24 23 103 8 245 48 19 28
internal_value=0.00158507 0.00485312 -0.0101824 0.00151959 0.00012044 0.0287176 -0.0304816
internal_weight=107.255 84.7095 22.5456 75.2943 15.2866 9.4152 7.25896
internal_count=498 390 108 348 72 42 36
is_linear=0
shrinkage=0.03


Tree=47
num_leaves=7
num_cat=0
split_feature=24 7 11 1 1 1
split_gain=4.23403 6.54354 6.0757 4.05539 5.14991 4.51583
threshold=-0.56072373979158863 0.64792887525234855 0.95598204232070005 0.98670912909366515 1.2493444135014873 -1.1923363462516057
decision_type=2 2 2 2 2 2
left_child=3 2 -2 5 -5 -1
right_child=1 -3 -4 4 -6 -7
leaf_value=0.0094740168315689353 0.0070737397451474948 0.043621728014991333 -0.020610224629164675 0.045497481520362947 -0.0051695123001351817 -0.016123777566103482
leaf_weight=7.1541900038719168 57.396444410085678 3.177917703986167 7.2753454744815818 2.0996326208114615 3.9648635983467102 26.192100092768669
leaf_count=37 263 14 34 9 18 123
internal_value=0.00153796 0.00609989 0.00365397 -0.00613175 0.0147562 -0.010363
internal_weight=107.26 67.8497 64.6718 39.4108 6.0645 33.3463
internal_count=498 311 297 187 27 160
is_linear=0
shrinkage=0.03


Tree=48
num_leaves=8
num_cat=0
split_feature=24 11 17 1 1 1 0
split_gain=3.97538 4.92065 6.77559 3.85942 4.88393 4.29308 3.80961
threshold=-0.56072373979158863 0.95598204232070005 -0.37559189418211991 0.98670912909366515 1.2493444135014873 -1.1923363462516057 1.389965439726135
decision_type=2 2 2 2 2 2 2
left_child=3 2 -2 5 -5 -1 -3
right_child=1 6 -4 4 -6 -7 -8
leaf_value=0.0091855474830645472 0.00045216085857991252 -0.027953745949658892 0.021088383342349731 0.044168187890401008 -0.0050476264307409025 -0.01574538132994251 0.0098875661936957751
leaf_weight=7.1821896582841864 35.388268500566483 5.5250175595283491 24.020300656557083 2.1216706335544577 3.9582053571939468 26.03848871588707 3.0315158814191818
leaf_count=37 162 26 109 9 18 123 14
internal_value=0.00150487 0.00591665 0.00906487 -0.00594092 0.0143938 -0.0100898 -0.0142065
internal_weight=107.266 67.9651 59.4086 39.3006 6.07988 33.2207 8.55653
internal_count=498 311 271 187 27 160 40
is_linear=0
shrinkage=0.03


Tree=49
num_leaves=7
num_cat=0
split_feature=5 5 20 17 9 9
split_gain=4.15168 6.83216 5.54919 7.34689 4.79679 3.58902
threshold=-0.74242532138237782 -0.49250581486327533 -1.2035408166564787 0.72552340878947319 -0.45929130740147472 -0.091122371985472295
decision_type=2 2 2 2 2 2
left_child=2 5 -1 -4 -3 -2
right_child=1 4 3 -5 -6 -7
leaf_value=0.026256335262191569 0.0064867976255683852 0.012893641588671798 -0.030995131522353631 0.0043011699350818501 -0.0034671724827511382 0.04494899333547181
leaf_weight=2.5099777877330807 4.9541724622249603 22.057280987501144 11.003647640347483 8.8522461503744108 53.349768728017807 4.5350063294172269
leaf_count=11 23 103 56 41 245 19
internal_value=0.00146827 0.00455208 -0.0097312 -0.0154116 0.0013249 0.0275172
internal_weight=107.262 84.8962 22.3659 19.8559 75.407 9.48918
internal_count=498 390 108 97 348 42
is_linear=0
shrinkage=0.03


Tree=50
num_leaves=5
num_cat=0
split_feature=1 6 15 6
split_gain=8.16063 8.34412 5.20113 4.71449
threshold=-1.5512810430861712 -0.48104157609556558 -0.71992204570805096 1.2952891391968426
decision_type=2 2 2 2
left_child=-1 2 -2 -3
right_child=1 3 -4 -5
leaf_value=-0.029376511381546764 -0.0071548088514545513 -0.0051641582065052897 0.02225724243013218 0.016878763489841828
leaf_weight=6.102434203028678 5.9898120313882819 56.589512854814529 26.409778818488121 9.4455885887145978
leaf_count=36 28 261 120 42
internal_value=0.00207742 0.00430897 0.0165976 -0.0017571
internal_weight=104.537 98.4347 32.3996 66.0351
internal_count=487 451 148 303
is_linear=0
shrinkage=0.03


Tree=51
num_leaves=8
num_cat=0
split_feature=5 5 4 21 21 5 8
split_gain=4.6702 7.15257 5.35055 5.2036 4.15914 3.73913 2.94123
threshold=-0.18173714607665481 -0.74242532138237782 1.0949785412334294 -0.7517415466102827 -0.35620970348549091 -1.9428397416708252 -0.85327569398579162
decision_type=2 2 2 2 2 2 2
left_child=1 5 -3 6 -5 -1 -2
right_child=3 2 -4 4 -6 -7 -8
leaf_value=0.016207143144408919 -0.010240046593062109 0.026776551941055094 -0.015836585524002945 -0.024571587310320862 -0.0031528616045371693 -0.0098173319530245415 0.017026656448963333
leaf_weight=6.1094688028097179 3.8895730376243618 19.153567686676983 2.3360798358917227 10.605997338891028 32.87148480117321 16.461941584944725 13.12089844048023
leaf_count=29 18 84 10 50 154 81 61
internal_value=0.0020097 0.00938764 0.0214729 -0.00331909 -0.00886286 -0.00220284 0.0102751
internal_weight=104.549 44.0611 21.4896 60.488 43.4775 22.5714 17.0105
internal_count=487 204 94 283 204 110 79
is_linear=0
shrinkage=0.03


Tree=52
num_leaves=5
num_cat=0
split_feature=1 6 15 6
split_gain=7.78497 7.68084 4.74005 4.37847
threshold=-1.5512810430861712 -0.48104157609556558 -0.71992204570805096 1.2952891391968426
decision_type=2 2 2 2
left_child=-1 2 -2 -3
right_child=1 3 -4 -5
leaf_value=-0.029007579644870489 -0.0068697537353535369 -0.0050256164910963373 0.021204343645459117 0.016175677963333648
leaf_weight=6.0071599185466757 5.9615181088447562 56.463655695319176 26.637658283114433 9.4937533438205701
leaf_count=36 28 261 120 42
internal_value=0.00194195 0.00410713 0.0158491 -0.0017268
internal_weight=104.564 98.5566 32.5992 65.9574
internal_count=487 451 148 303
is_linear=0
shrinkage=0.03


Tree=53
num_leaves=5
num_cat=0
split_feature=1 6 29 6
split_gain=7.46165 7.18804 4.72586 4.12734
threshold=-1.5512810430861712 -0.48104157609556558 -1.2747987251466937 1.2952891391968426
decision_type=2 2 2 2
left_child=-1 2 -2 -3
right_child=1 3 -4 -5
leaf_value=-0.028651538540751129 0.00028454637878291931 -0.0048853609914707545 0.024046477513914227 0.015666278806441069
leaf_weight=5.9107591807842246 12.601214796304701 56.366611078381538 20.149559959769249 9.5337657630443555
leaf_count=36 57 261 91 42
internal_value=0.00187843 0.00398375 0.0153074 -0.00166997
internal_weight=104.562 98.6512 32.7508 65.9004
internal_count=487 451 148 303
is_linear=0
shrinkage=0.03


Tree=54
num_leaves=5
num_cat=0
split_feature=1 1 16 1
split_gain=7.1558 6.90804 7.23503 6.8326
threshold=-1.5512810430861712 -0.33514976726137996 0.11646665161879637 0.027899262729461624
decision_type=2 2 2 2
left_child=-1 2 -2 -3
right_child=1 3 -4 -5
leaf_value=-0.02830228831672929 0.02837837293659147 -0.020999460913253543 0.00092910847829638502 0.0029290650494413401
leaf_weight=5.8155054897069922 16.539114013314247 12.675508573651312 18.280677244067192 51.24758043885231
leaf_count=36 75 60 83 233
internal_value=0.00182256 0.00387025 0.0144803 -0.00192401
internal_weight=104.558 98.7429 34.8198 63.9231
internal_count=487 451 158 293
is_linear=0
shrinkage=0.03


Tree=55
num_leaves=7
num_cat=0
split_feature=15 7 1 15 17 20
split_gain=6.93707 8.32759 5.54167 5.98721 5.28214 2.65498
threshold=0.68374311772235752 1.3863787857027965 -1.3618376386904774 0.43765919013961407 1.0876400994954751 -0.024923387449117804
decision_type=2 2 2 2 2 2
left_child=2 4 -1 -4 -2 -3
right_child=1 5 3 -5 -6 -7
leaf_value=-0.033032892911946263 0.041693899236187035 0.0066803742983164013 -0.0013582268501596462 -0.034715109415724442 0.0025176074971747079 -0.019833202695429406
leaf_weight=5.6075802966952315 7.9701480269432086 5.9985073804855347 72.171623572707176 4.4432499408721915 5.4864486455917358 5.753045901656149
leaf_count=34 36 27 328 22 26 27
internal_value=-0.00180962 0.0116478 -0.0060802 -0.003709 0.0271796 -0.00625829
internal_weight=107.431 25.2081 82.2225 76.6149 13.4566 11.7516
internal_count=500 116 384 350 62 54
is_linear=0
shrinkage=0.03


Tree=56
num_leaves=8
num_cat=0
split_feature=26 2 7 6 18 5 20
split_gain=6.62826 8.25179 6.5574 4.49161 3.32004 6.45547 3.86711
threshold=-0.37598919313098261 -1.040586033861439 -0.36209525123353742 -1.0687989773495621 -0.73118980734954386 0.071274213424823554 1.184265924176277
decision_type=2 2 2 2 2 2 2
left_child=4 3 -3 -2 5 -1 -6
right_child=1 2 -4 -5 6 -7 -8
leaf_value=-0.01884809221328539 0.0021975060638390175 0.017195106796808635 -0.0068245244410081226 0.041276817888867792 -0.019370980354668554 0.026071090108625544 0.0089178642962664777
leaf_weight=4.8309080153703672 4.804586336016655 12.789169952273367 40.312233433127403 6.5830531120300275 28.647050648927689 5.0218370109796524 4.3085923939943305
leaf_count=25 22 56 188 29 136 23 21
internal_value=-0.00176739 0.00422982 -0.000758871 0.0265076 -0.0108514 0.00372202 -0.0153711
internal_weight=107.297 64.489 53.1014 11.3876 42.8084 9.85275 32.9556
internal_count=500 295 244 51 205 48 157
is_linear=0
shrinkage=0.03


Tree=57
num_leaves=6
num_cat=0
split_feature=16 15 24 15 16
split_gain=6.54389 5.94441 7.41926 4.29723 0.845163
threshold=1.77678972480416 0.68374311772235752 -0.76232765463272345 0.43765919013961407 2.1436833387433114
decision_type=2 2 2 2 2
left_child=1 3 -3 -1 -2
right_child=4 2 -4 -5 -6
leaf_value=-0.0054871913970145521 0.038604215100476083 0.0010113619330081067 0.043846180545345739 -0.034240795118940355 0.0076070673814661212
leaf_weight=74.421515688300133 2.8924327343702307 19.307736292481426 3.7900056689977637 4.3711976855993262 2.3510501384735107
leaf_count=349 12 90 17 22 10
internal_value=-0.00170212 -0.0035274 0.00952351 -0.00748587 0.0285454
internal_weight=107.134 101.89 23.0977 78.7927 5.24348
internal_count=500 478 107 371 22
is_linear=0
shrinkage=0.03


Tree=58
num_leaves=7
num_cat=0
split_feature=15 7 2 1 15 2
split_gain=6.1967 7.61966 5.5943 5.3824 5.60755 3.53599
threshold=0.68374311772235752 1.3863787857027965 -0.01988840058442954 -1.3618376386904774 0.43765919013961407 -0.08881567052131667
decision_type=2 2 2 2 2 2
left_child=3 2 -2 -1 -5 -3
right_child=1 5 -4 4 -6 -7
leaf_value=-0.032572038884944324 0.041866012662845183 -0.02295322087638782 0.002508002626864719 -0.0011271342475316901 -0.033810194104963026 0.0078584503636383481
leaf_weight=5.4666029661893836 7.5058824121952057 5.2864903211593628 6.0810628086328524 71.912743985652924 4.3052504956722251 6.4379248917102796
leaf_count=34 33 25 29 328 22 29
internal_value=-0.0016375 0.011036 0.0257867 -0.00570631 -0.00338319 -0.00613407
internal_weight=106.996 25.3114 13.5869 81.6846 76.218 11.7244
internal_count=500 116 62 384 350 54
is_linear=0
shrinkage=0.03


end of trees

feature_importances:
rsi_7=46
macd_signal=27
vol_ratio=26
rsi_slope=24
upper_wick_ratio=22
momentum_3bar=18
volatility_20bar=17
high_low_range=15
volatility_5bar=13
atr_ratio=13
macd_hist_delta=12
volume_ratio=12
bb_width=11
close_position_in_range=11
volume_trend=9
atr_14=9
bb_position=8
momentum_10bar=8
hour_cos=8
returns_std_10=8
momentum_1bar=7
returns_skew_10=7
lower_wick_ratio=6
hour_sin=6
rsi_14=4
macd_hist=4
momentum_5bar=3
candle_body_ratio=3
consec_direction=2

parameters:
[boosting: gbdt]
[objective: binary]
[metric: binary_logloss]
[tree_learner: serial]
[device_type: cpu]
[data_sample_strategy: bagging]
[data: ]
[valid: ]
[num_iterations: 300]
[learning_rate: 0.03]
[num_leaves: 20]
[num_threads: 0]
[seed: 0]
[deterministic: 0]
[force_col_wise: 0]
[force_row_wise: 0]
[histogram_pool_size: -1]
[max_depth: 3]
[min_data_in_leaf: 8]
[min_sum_hessian_in_leaf: 0.001]
[bagging_fraction: 0.7]
[pos_bagging_fraction: 1]
[neg_bagging_fraction: 1]
[bagging_freq: 5]
[bagging_seed: 3]
[bagging_by_query: 0]
[feature_fraction: 0.7]
[feature_fraction_bynode: 1]
[feature_fraction_seed: 2]
[extra_trees: 0]
[extra_seed: 6]
[early_stopping_round: 0]
[early_stopping_min_delta: 0]
[first_metric_only: 0]
[max_delta_step: 0]
[lambda_l1: 0.2]
[lambda_l2: 0.8]
[linear_lambda: 0]
[min_gain_to_split: 0]
[drop_rate: 0.1]
[max_drop: 50]
[skip_drop: 0.5]
[xgboost_dart_mode: 0]
[uniform_drop: 0]
[drop_seed: 4]
[top_rate: 0.2]
[other_rate: 0.1]
[min_data_per_group: 100]
[max_cat_threshold: 32]
[cat_l2: 10]
[cat_smooth: 10]
[max_cat_to_onehot: 4]
[top_k: 20]
[monotone_constraints: ]
[monotone_constraints_method: basic]
[monotone_penalty: 0]
[feature_contri: ]
[forcedsplits_filename: ]
[refit_decay_rate: 0.9]
[cegb_tradeoff: 1]
[cegb_penalty_split: 0]
[cegb_penalty_feature_lazy: ]
[cegb_penalty_feature_coupled: ]
[path_smooth: 0]
[interaction_constraints: ]
[verbosity: -1]
[saved_feature_importance_type: 0]
[use_quantized_grad: 0]
[num_grad_quant_bins: 4]
[quant_train_renew_leaf: 0]
[stochastic_rounding: 1]
[linear_tree: 0]
[max_bin: 255]
[max_bin_by_feature: ]
[min_data_in_bin: 3]
[bin_construct_sample_cnt: 200000]
[data_random_seed: 1]
[is_enable_sparse: 1]
[enable_bundle: 1]
[use_missing: 1]
[zero_as_missing: 0]
[feature_pre_filter: 1]
[pre_partition: 0]
[two_round: 0]
[header: 0]
[label_column: ]
[weight_column: ]
[group_column: ]
[ignore_column: ]
[categorical_feature: ]
[forcedbins_filename: ]
[precise_float_parser: 0]
[parser_config_file: ]
[objective_seed: 5]
[num_class: 1]
[is_unbalance: 0]
[scale_pos_weight: 1]
[sigmoid: 1]
[boost_from_average: 1]
[reg_sqrt: 0]
[alpha: 0.9]
[fair_c: 1]
[poisson_max_delta_step: 0.7]
[tweedie_variance_power: 1.5]
[lambdarank_truncation_level: 30]
[lambdarank_norm: 1]
[label_gain: ]
[lambdarank_position_bias_regularization: 0]
[eval_at: ]
[multi_error_top_k: 1]
[auc_mu_weights: ]
[num_machines: 1]
[local_listen_port: 12400]
[time_out: 120]
[machine_list_filename: ]
[machines: ]
[gpu_platform_id: -1]
[gpu_device_id: -1]
[gpu_use_dp: 0]
[num_gpu: 1]

end of parameters

pandas_categorical:null
