tree
version=v4
num_class=1
num_tree_per_iteration=1
label_index=0
max_feature_idx=29
objective=binary sigmoid:1
feature_names=rsi_14 rsi_7 rsi_slope macd_hist macd_hist_delta macd_signal bb_position bb_width momentum_1bar momentum_3bar momentum_5bar momentum_10bar volume_ratio volume_trend volatility_5bar volatility_20bar vol_ratio atr_14 atr_ratio candle_body_ratio upper_wick_ratio lower_wick_ratio consec_direction close_vs_open hour_sin hour_cos returns_std_10 returns_skew_10 high_low_range close_position_in_range
feature_infos=[-2.7229924748719099:2.5170776506597328] [-2.4160036208526035:2.3259582806070287] [-3.4620878059081206:4.2583333364826874] [-3.2927963298487524:3.9635738615985447] [-5.2134304965632454:5.4158236293153221] [-3.3301823684069944:1.9096807033040357] [-2.6353459559619252:3.0295595134570874] [-1.2119524867560176:2.8440625180548116] [-5.9713412414298412:6.734223544499164] [-4.5962236110887824:5.0113169704984459] [-4.952178314331638:3.8104261014371006] [-4.1328498931191264:5.3955459604426537] [-0.89604868180789865:11.769779330493007] [-1.7150627048940517:4.9542169220785341] [-1.148943476554785:4.6443953303521575] [-1.1409296471863364:3.2238394119737435] [-2.0989142350374967:2.9609131067989249] [-0.9318035542651546:3.9296448953276242] [-2.1229219202291625:3.6144975049226131] [-1.8147561096120457:1.774452064461072] [-1.0445039415078667:3.0358696383299852] [-1.0551482642938737:2.9482770439138264] [-3.7797114451939122:3.689144818671295] [-1.0219118344888423:0.97855799908628538] [-1.4112675257824951:1.4649130891864957] [-1.2836812124086223:1.5195208639929871] [-1.1362164624108799:3.6655031193791365] [-3.0158644915271995:3.233727126140312] [-1.1912444756475755:3.5775106615180463] [-1.8930768352798515:1.7161569437947297]
tree_sizes=970 982 973 964 980 860 950 952 869 983 978 977 856 976 982 880 882 875 879 979 879 976 877 956 864 878 977 989 983 984

Tree=0
num_leaves=8
num_cat=0
split_feature=17 25 5 14 1 16 26
split_gain=75.7339 22.1175 13.7981 13.8849 10.3969 8.62853 6.98218
threshold=0.15853758874914459 0.68241000443012589 -0.1842919873342776 -0.27144995819551804 0.44198506181697628 -0.29129124489971597 -0.096235820895216595
decision_type=2 2 2 2 2 2 2
left_child=2 6 3 -1 -4 -3 -2
right_child=1 5 4 -5 -6 -7 -8
leaf_value=-0.48567377347741636 -0.53316058070799721 -0.50545679114143272 -0.54101859712550471 -0.52730930293155054 -0.51777498492295171 -0.55538979951820089 -0.47715552285453799
leaf_weight=13.225820839405062 1.66398125886917 6.5495207011699677 41.567836612462997 16.035345852375031 28.138262450695038 4.2290027439594251 67.050519526004791
leaf_count=34 6 19 151 54 90 17 166
internal_value=-0.506493 -0.484857 -0.524247 -0.507323 -0.531457 -0.526234 -0.478655
internal_weight=178.46 79.493 98.9673 29.2612 69.7061 10.7785 68.7145
internal_count=537 208 329 88 241 36 172
is_linear=0
shrinkage=1


Tree=1
num_leaves=8
num_cat=0
split_feature=17 25 5 14 10 19 26
split_gain=69.8642 20.2887 12.9529 12.8825 11.9348 7.24025 6.46198
threshold=0.15853758874914459 0.68241000443012589 -0.1842919873342776 -0.27144995819551804 0.21673660598838349 0.27439131102517816 -0.096235820895216595
decision_type=2 2 2 2 2 2 2
left_child=2 6 3 -1 -4 -3 -2
right_child=1 5 4 -5 -6 -7 -8
leaf_value=0.043436402856537486 -0.0022846542493375733 0.018713429459676162 -0.010650199705166405 0.003421393970872922 0.014350998226097238 -0.031444593465982149 0.05140486482882229
leaf_weight=13.375249713659288 1.6629750579595555 8.2419444024562818 42.20808969438076 16.049961522221565 27.481678515672684 2.5513967722654334 67.944620952010155
leaf_count=34 6 25 154 54 87 11 166
internal_value=0.023486 0.0441061 0.00639574 0.0227359 -0.000600289 0.00443269 0.0499805
internal_weight=179.516 80.4009 99.115 29.4252 69.6898 10.7933 69.6076
internal_count=537 208 329 88 241 36 172
is_linear=0
shrinkage=0.03


Tree=2
num_leaves=8
num_cat=0
split_feature=17 2 22 2 20 1 20
split_gain=64.9639 14.0294 8.26737 6.85645 5.22306 5.7296 2.13222
threshold=1.0000000180025095e-35 -0.85945727474487887 -1.212292104490247 1.0709096530133138 1.3969423202739326 0.79513364860374158 1.8433707937270478
decision_type=2 2 2 2 2 2 2
left_child=1 2 -1 -3 5 -2 -6
right_child=4 3 -4 -5 6 -7 -8
leaf_value=0.013547255478125738 0.046245562015004668 0.0056055335432084914 -0.032780627514028646 0.029493399819483256 -0.00025014788040907105 0.01786131260642429 0.02721313356648453
leaf_weight=3.8396652936935416 71.243132784962654 63.20383608341217 11.476790800690649 12.713872492313383 4.1308753937482825 10.107284814119337 3.724043220281601
leaf_count=12 178 210 47 36 14 30 10
internal_value=0.0226771 0.00466132 -0.0204967 0.0100545 0.0407469 0.043088 0.0133567
internal_weight=180.44 91.2342 15.3165 75.9177 89.2053 81.3504 7.85492
internal_count=537 305 59 246 232 208 24
is_linear=0
shrinkage=0.03


Tree=3
num_leaves=8
num_cat=0
split_feature=17 25 2 5 15 10 3
split_gain=60.3396 17.2899 13.2588 13.7149 7.54687 5.01411 4.92329
threshold=1.0000000180025095e-35 0.68241000443012589 -0.85945727474487887 -0.1842919873342776 -0.47026243227701486 0.52945288211108632 -2.0392784520562919
decision_type=2 2 2 2 2 2 2
left_child=2 6 4 -4 -1 -3 -2
right_child=1 5 3 -5 -6 -7 -8
leaf_value=0 0.01280242558599755 0.017298602337102273 0.028781856679166943 0.0011301984291981486 -0.040318097572622599 -0.020357775109012276 0.047000039966903155
leaf_weight=8.0535254031419736 5.7373885810375205 10.281804755330084 22.657685235142708 53.439601734280586 7.1761156469583502 3.3294651657342902 70.607174754142761
leaf_count=28 17 31 64 182 31 13 171
internal_value=0.0219137 0.0392258 0.00452393 0.00974664 -0.0200102 0.0067086 0.0447452
internal_weight=181.283 89.9558 91.3269 76.0973 15.2296 13.6113 76.3446
internal_count=537 232 305 246 59 44 188
is_linear=0
shrinkage=0.03


Tree=4
num_leaves=8
num_cat=0
split_feature=17 25 19 26 2 16 26
split_gain=56.309 17.3832 11.2717 14.9577 13.8098 7.80178 5.83396
threshold=0.15853758874914459 0.68241000443012589 1.1033676661419127 -0.79698141728995575 1.0709096530133138 -0.29129124489971597 -0.096235820895216595
decision_type=2 2 2 2 2 2 2
left_child=2 6 3 -1 -4 -3 -2
right_child=1 5 4 -5 -6 -7 -8
leaf_value=-0.017618528610630398 -0.0037157868878141876 0.022569739662994789 -0.0366827266635383 0.01544813904985627 0.023771239189039079 -0.024740741118340837 0.046043753980311998
leaf_weight=13.701578885316847 1.6944997459650029 6.6911327391862869 9.8426078259944898 72.053625136613846 3.9550192654132834 4.2383228093385679 69.837417438626289
leaf_count=52 6 19 41 225 11 17 166
internal_value=0.0211796 0.0393786 0.00577381 0.00991897 -0.0183103 0.00293281 0.044706
internal_weight=182.014 82.4614 99.5528 85.7552 13.7976 10.9295 71.5319
internal_count=537 208 329 277 52 36 172
is_linear=0
shrinkage=0.03


Tree=5
num_leaves=7
num_cat=0
split_feature=17 11 16 24 25 24
split_gain=54.1889 11.6457 11.1999 10.1312 6.26474 6.15773
threshold=0.14265058819672841 0.40698598325641933 -0.32126647246905798 1.4606373744217671 0.97116047670741024 0.12087838792702495
decision_type=2 2 2 2 2 2
left_child=1 2 -1 -3 5 -2
right_child=4 3 -4 -5 -6 -7
leaf_value=0.027270776408252914 0.043179796125900893 -0.017326397715524727 0.0033265930712953087 0.031516052420149716 -0.00055801908004939733 0
leaf_weight=28.337554931640625 72.85610768198967 23.623755440115932 47.273779183626175 3.4773716926574698 2.8838042318820944 3.5196027755737296
leaf_count=82 175 88 159 9 10 11
internal_value=0.0212042 0.00659625 0.0126567 -0.0098406 0.0397046 0.0413287
internal_weight=181.972 102.712 75.6113 27.1011 79.2595 76.3757
internal_count=534 338 241 97 196 186
is_linear=0
shrinkage=0.03


Tree=6
num_leaves=8
num_cat=0
split_feature=17 11 1 3 4 16 29
split_gain=50.4939 10.9297 13.5982 10.7908 5.28986 5.31563 4.20371
threshold=0.14265058819672841 0.40698598325641933 1.6646108541188613 0.10294223301431048 1.2248977739870621 0.1272904732135243 0.8802372478853141
decision_type=2 2 2 2 2 2 2
left_child=1 3 -3 -1 6 -6 -2
right_child=4 2 -4 -5 5 -7 -8
leaf_value=0.005390169676058155 0.045254456303074252 -0.018879143773183473 0.03527112072307638 0.031620658818034386 0 0.035099183389106663 0.016721397026720673
leaf_weight=57.271648153662682 57.022457748651505 23.01269090175629 4.0114990323781958 18.562280252575874 7.2945730090141279 7.4903351813554764 7.9076486378908148
leaf_count=190 133 87 10 51 23 18 22
internal_value=0.0205157 0.00640382 -0.0095481 0.0122559 0.0383081 0.0189621 0.0422223
internal_weight=182.573 102.858 27.0242 75.8339 79.715 14.7849 64.9301
internal_count=534 338 97 241 196 41 155
is_linear=0
shrinkage=0.03


Tree=7
num_leaves=8
num_cat=0
split_feature=17 11 3 1 4 16 29
split_gain=47.2 10.2927 12.3097 9.35907 4.84859 5.0067 3.84606
threshold=0.14265058819672841 0.26306089313964337 -0.14025155476063036 1.6646108541188613 1.2248977739870621 0.1272904732135243 0.8802372478853141
decision_type=2 2 2 2 2 2 2
left_child=1 2 -1 -3 6 -6 -2
right_child=4 3 -4 -5 5 -7 -8
leaf_value=0.0031870189030210553 0.043665348233910301 -0.012588110359323538 0.030045903428093775 0.030278666912478831 0 0.034039943229127123 0.016244361535608161
leaf_weight=43.515357583761215 57.355806604027748 31.415778607130051 23.765319749712944 4.2835681885480872 7.2945730090141279 7.5223252326250076 7.9247703701257697
leaf_count=146 133 115 66 11 23 18 22
internal_value=0.0198743 0.00622133 0.0131072 -0.00651439 0.0370235 0.018424 0.0407677
internal_weight=183.077 102.98 67.2807 35.6993 80.0975 14.8169 65.2806
internal_count=534 338 212 126 196 41 155
is_linear=0
shrinkage=0.03


Tree=8
num_leaves=7
num_cat=0
split_feature=17 11 1 3 25 4
split_gain=44.1921 9.79535 12.3774 9.71232 5.90099 5.58351
threshold=0.14265058819672841 0.40698598325641933 1.6646108541188613 0.10294223301431048 0.97116047670741024 1.2248977739870621
decision_type=2 2 2 2 2 2
left_child=1 3 -3 -1 5 -2
right_child=4 2 -4 -5 -6 -7
leaf_value=0.0050260415762640853 0.041514156362796414 -0.018119256430916386 0.033341101579406451 0.029816264667201484 -0.0024101814259130916 0.017907113597649311
leaf_weight=57.435217007994652 62.626819223165512 22.825605154037479 4.0634286105632773 18.766641497612 2.9378973394632331 14.84367451071739
leaf_count=190 145 87 10 51 10 41
internal_value=0.019262 0.00604456 -0.00910329 0.011555 0.0358149 0.0373915
internal_weight=183.499 103.091 26.889 76.2019 80.4084 77.4705
internal_count=534 338 97 241 196 186
is_linear=0
shrinkage=0.03


Tree=9
num_leaves=8
num_cat=0
split_feature=28 24 11 28 24 11 4
split_gain=40.6589 12.812 15.4992 8.8915 5.43292 4.0335 3.82992
threshold=0.15007981253112809 -0.47971445979829314 0.15597445485773795 -0.76901183861450895 -0.035905836486500767 2.2481955512977474 0.65488536435996059
decision_type=2 2 2 2 2 2 2
left_child=1 2 -1 -3 5 -2 -6
right_child=4 3 -4 -5 6 -7 -8
leaf_value=0.036436894367707438 0.039793093150022794 0.015752791510237792 -0.011874043429835701 -0.0069650715203279125 0.023415446445196022 0.0049761528197504942 -0.009301842566254076
leaf_weight=19.960771247744564 63.990761324763298 20.486218601465225 7.4524550735950461 54.457286089658737 9.9381334185600263 4.0885927975177756 3.4613175988197318
leaf_count=51 149 63 27 192 28 12 12
internal_value=0.0186691 0.00586884 0.0230308 -0.000510854 0.034374 0.0379347 0.0142799
internal_weight=183.836 102.357 27.4132 74.9435 81.4788 68.0794 13.3995
internal_count=534 333 78 255 201 161 40
is_linear=0
shrinkage=0.03


Tree=10
num_leaves=8
num_cat=0
split_feature=17 24 26 6 17 9 7
split_gain=44.3195 19.8564 12.6729 11.9154 6.89911 13.2443 5.51045
threshold=0.020097262814932581 1.1957001737861732 -0.013147990278639297 1.1917711373396909 0.93297100583711012 -0.36128932542386943 2.3819407136437509
decision_type=2 2 2 2 2 2 2
left_child=1 2 -1 -3 5 -2 -6
right_child=4 3 -4 -5 6 -7 -8
leaf_value=0.015570542537384458 0.040169207312637491 -0.029473019273334015 -0.021536705945324721 0.022329201164416196 0.042691980845118459 0.0035804156975202004 0.0078103668140323363
leaf_weight=69.427336722612381 16.365369573235512 19.346097856760029 8.3165776282548887 3.9897003620862952 51.011701866984367 19.952750623226166 5.6726374626159659
leaf_count=215 38 77 32 11 114 61 16
internal_value=0.017838 0.00390576 0.0112636 -0.019693 0.0326818 0.0209435 0.0395532
internal_weight=194.082 101.08 77.7439 23.3358 93.0025 36.3181 56.6843
internal_count=564 335 247 88 229 99 130
is_linear=0
shrinkage=0.03


Tree=11
num_leaves=8
num_cat=0
split_feature=24 15 29 4 24 29 15
split_gain=41.7246 17.9606 19.2811 8.65751 8.56815 13.021 7.89624
threshold=0.54804141162148601 0.1675913687000343 -0.36825708206284119 1.2012026782712575 1.1957001737861732 1.2480731989090719 -0.2612254210508701
decision_type=2 2 2 2 2 2 2
left_child=1 2 -1 -3 6 -6 -2
right_child=4 3 -4 -5 5 -7 -8
leaf_value=0.029671444578304094 0.014655869418246835 0.040912169287527195 -0.0021934367995578375 0.012443917388052545 -0.026242012786072726 0.029393620349650661 -0.021357274371423551
leaf_weight=33.301370307803154 22.05849173665047 60.69120779633522 32.837942436337471 13.862875536084173 21.960360795259479 3.5273993313312522 6.0912194401025763
leaf_count=89 69 137 111 39 86 9 24
internal_value=0.0172961 0.0258405 0.0139196 0.0359726 -0.00501407 -0.0173835 0.00608902
internal_weight=194.331 140.693 66.1393 74.5541 53.6375 25.4878 28.1497
internal_count=564 376 200 176 188 95 93
is_linear=0
shrinkage=0.03


Tree=12
num_leaves=7
num_cat=0
split_feature=17 24 29 25 15 24
split_gain=39.2945 17.7235 13.6063 12.2028 10.9455 6.13237
threshold=0.020097262814932581 1.1957001737861732 1.2480731989090719 1.161493893511294 -0.56106165548058273 0.12087838792702495
decision_type=2 2 2 2 2 2
left_child=1 4 -3 5 -1 -2
right_child=3 2 -4 -5 -6 -7
leaf_value=0.025290149788938347 0.034666330367642877 -0.028796148793871029 0.028585197192848185 -0.020647989974203432 0.0018549739354480675 0
leaf_weight=27.905756697058678 85.329091876745224 19.54161731898785 3.5463293194770804 3.1562033742666236 50.211243376135826 4.7967919856309882
leaf_count=80 202 79 9 12 167 15
internal_value=0.0167759 0.00365408 -0.0187879 0.0307271 0.0105543 0.0328318
internal_weight=194.487 101.205 23.0879 93.2821 78.117 90.1259
internal_count=564 335 88 229 247 217
is_linear=0
shrinkage=0.03


Tree=13
num_leaves=8
num_cat=0
split_feature=24 25 5 12 10 21 24
split_gain=37.0287 22.4302 11.0111 9.68092 11.6328 7.03318 6.78865
threshold=0.54804141162148601 1.151288506507177 0.56265948367285812 -0.51910741544951533 0.62888479538620523 1.244026344103691 1.0763707838564274
decision_type=2 2 2 2 2 2 2
left_child=1 5 -3 6 -5 -1 -2
right_child=3 2 -4 4 -6 -7 -8
leaf_value=0.03293743530555817 0.037758803390349704 0.0107379557115885 -0.031248711501819182 -0.019748869036438767 0.016446248142470039 0.0039123350198305732 -0.0059537552314596846
leaf_weight=100.52260862290859 6.1564029008150083 25.265446141362194 6.1272955983877173 33.195798292756081 9.3308405131101591 9.1968935132026655 4.798259824514389
leaf_count=245 16 79 25 127 28 27 17
internal_value=0.0162704 0.0242914 0.00155338 -0.00478566 -0.0114051 0.0306431 0.018963
internal_weight=194.594 141.112 31.3927 53.4813 42.5266 109.72 10.9547
internal_count=564 376 104 188 155 272 33
is_linear=0
shrinkage=0.03


Tree=14
num_leaves=8
num_cat=0
split_feature=17 5 26 27 17 0 20
split_gain=34.9573 12.199 10.5527 8.02445 6.09873 13.3925 6.83613
threshold=0.020097262814932581 0.37216845585765784 -0.013147990278639297 0.4203665166169171 0.93297100583711012 0.21123933401518316 1.5289564375445768
decision_type=2 2 2 2 2 2 2
left_child=1 2 -1 -3 5 -2 -6
right_child=4 3 -4 -5 6 -7 -8
leaf_value=0.016256930228541962 0.027165171168177366 0.00039330762689057116 -0.02705588360789116 -0.02634175421401086 0.038588058181650696 -0.015575645140204918 0.00048795970768161507
leaf_weight=53.68305316567421 29.101566717028618 29.105241253972054 4.5337651818990699 13.953914970159529 51.684920415282249 7.4490000605583182 5.1595170944929114
leaf_count=161 73 100 18 56 115 26 15
internal_value=0.0157832 0.00340438 0.0123319 -0.00846752 0.028933 0.0180321 0.0353537
internal_weight=194.671 101.276 58.2168 43.0592 93.395 36.5506 56.8444
internal_count=564 335 179 156 229 99 130
is_linear=0
shrinkage=0.03


Tree=15
num_leaves=7
num_cat=0
split_feature=28 1 19 12 8 20
split_gain=29.7981 8.78703 13.8584 10.4827 5.95993 8.53664
threshold=0.15007981253112809 -0.23321457996170245 0.8998988773739417 0.63425845478446041 -1.0774262457906547 -0.91306163073586244
decision_type=2 2 2 2 2 2
left_child=1 2 -1 -3 -2 -6
right_child=4 3 -4 -5 5 -7
leaf_value=0.021126889401421264 0.042542527799490013 -0.010587093316608462 -0.020780505638762867 0.025953783721877371 -0.0065183264076231233 0.025626330293536736
leaf_weight=33.667263403534889 18.482296347618103 48.385597571730614 7.8706413507461539 7.1763465255498877 7.625664770603179 57.055488348007202
leaf_count=98 39 172 30 20 24 144
internal_value=0.0137799 0.00232857 0.0126728 -0.00533296 0.0268567 0.021658
internal_weight=180.263 97.0998 41.5379 55.5619 83.1634 64.6812
internal_count=527 320 128 192 207 168
is_linear=0
shrinkage=0.03


Tree=16
num_leaves=7
num_cat=0
split_feature=28 21 5 4 9 20
split_gain=28.0899 11.1844 10.1959 13.0399 11.5447 5.08886
threshold=0.15007981253112809 1.7640579628050659 0.42342728284180092 -0.040492884266731886 0.67641709380129089 1.4846095759198548
decision_type=2 2 2 2 2 2
left_child=2 5 3 -1 -4 -2
right_child=1 -3 4 -5 -6 -7
leaf_value=0.023465791254914298 0.031099282146394173 -0.019026075987043475 -0.017816936429289856 -0.0039462785880140161 0.023149377833577945 0.0039392554692073579
leaf_weight=30.333746999502182 71.364916667342186 3.8076263815164557 30.436938002705574 29.718390196561813 6.6353532075881949 7.979366570711135
leaf_count=85 171 13 115 101 19 23
internal_value=0.0133779 0.0260766 0.00225929 0.00991035 -0.00983277 0.0285629
internal_weight=180.276 83.1519 97.1244 60.0521 37.0723 79.3443
internal_count=527 207 320 186 134 194
is_linear=0
shrinkage=0.03


Tree=17
num_leaves=7
num_cat=0
split_feature=28 21 5 27 12 20
split_gain=26.4397 10.6054 9.59019 12.878 10.9737 4.7758
threshold=0.15007981253112809 1.7640579628050659 0.42342728284180092 0.4203665166169171 -0.52397853078581025 1.4846095759198548
decision_type=2 2 2 2 2 2
left_child=2 5 4 -4 -1 -2
right_child=1 -3 3 -5 -6 -7
leaf_value=-0.019073432689972355 0.030191916349009962 -0.018575880543817327 0.0027879397109591185 -0.033498687517600705 0.015091792308449538 0.0038338911177479029
leaf_weight=9.0016789734363538 71.334807798266411 3.807149961590766 24.729181811213493 12.238590523600577 51.143246039748192 7.9801684767007819
leaf_count=33 171 13 83 51 153 23
internal_value=0.0129858 0.0253091 0.00219569 -0.009554 0.0096029 0.0277328
internal_weight=180.235 83.1221 97.1127 36.9678 60.1449 79.315
internal_count=527 207 320 134 186 194
is_linear=0
shrinkage=0.03


Tree=18
num_leaves=7
num_cat=0
split_feature=28 21 1 19 12 20
split_gain=24.9476 10.0609 7.89043 12.8764 9.67472 4.48612
threshold=0.15007981253112809 1.7640579628050659 -0.23321457996170245 0.8998988773739417 0.63425845478446041 1.4846095759198548
decision_type=2 2 2 2 2 2
left_child=2 5 3 -1 -4 -2
right_child=1 -3 4 -5 -6 -7
leaf_value=0.020000055121425428 0.029323895482813299 -0.018138831947043875 -0.010243564444763369 -0.020414722097565816 0.024767127653221279 0.0037313774218519459
leaf_weight=33.857867226004601 71.273475304245949 3.8060255944728842 48.198835179209709 7.8380988836288443 7.2283304184675208 7.9808903634548178
leaf_count=98 171 13 172 30 20 23
internal_value=0.0125962 0.0245737 0.00211523 0.0118918 -0.00516027 0.0269375
internal_weight=180.184 83.0604 97.1231 41.696 55.4272 79.2544
internal_count=527 207 320 128 192 194
is_linear=0
shrinkage=0.03


Tree=19
num_leaves=8
num_cat=0
split_feature=7 5 16 27 16 5 9
split_gain=21.5092 12.6179 13.1561 10.0328 9.4016 7.43843 1.54326
threshold=0.5366536225599573 0.56265948367285812 -0.30859155274259858 0.77253619544707564 0.14559520099321649 0.47925999283249582 -2.6028521192556968
decision_type=2 2 2 2 2 2 2
left_child=1 2 -1 -3 5 -2 -6
right_child=4 3 -4 -5 6 -7 -8
leaf_value=0.025154269730120814 0.00011307436645618228 -0.001586225366034189 0.00038265681863701613 -0.040111689929131306 0.011966098376383214 0.027971940881234714 0.040722068452599916
leaf_weight=32.517986968159676 18.212665855884552 27.448458388447762 47.335541486740112 7.0617886781692496 3.8833012580871609 16.609438955783844 27.026452288031578
leaf_count=87 53 95 153 31 10 40 58
internal_value=0.0122288 0.00419645 0.0107678 -0.0106307 0.0257969 0.0140623 0.0378796
internal_weight=180.096 114.364 79.8535 34.5102 65.7319 34.8221 30.9098
internal_count=527 366 240 126 161 93 68
is_linear=0
shrinkage=0.03


Tree=20
num_leaves=7
num_cat=0
split_feature=26 6 11 27 3 4
split_gain=23.4627 17.4636 7.48256 7.31648 7.2768 3.62275
threshold=0.82028732016359651 -0.72912334208562146 1.9155313531589446 0.32223193100815345 -0.23521731104523666 1.6978560376956537
decision_type=2 2 2 2 2 2
left_child=1 4 5 -3 -1 -2
right_child=2 3 -4 -5 -6 -7
leaf_value=0.014700674778041319 0.038392711409133667 0.0053109455697107439 -0.0023527808646944259 -0.012164161429189678 0.045854517183058982 0.009084906960450263
leaf_weight=30.356837406754494 37.413312554359436 65.787466466426849 4.8205561935901633 30.808070719242096 9.2099187821149808 5.9597928673028937
leaf_count=88 81 206 15 110 19 16
internal_value=0.0131598 0.00660476 0.0309862 -0.000237858 0.0231258 0.0348639
internal_weight=184.356 136.162 48.1937 96.5955 39.5668 43.3731
internal_count=535 423 112 316 107 97
is_linear=0
shrinkage=0.03


Tree=21
num_leaves=8
num_cat=0
split_feature=26 10 18 19 7 24 19
split_gain=22.2288 10.8267 8.86609 6.75727 6.21464 9.91021 2.05818
threshold=0.82028732016359651 -0.82608572504284183 0.56340926814471814 0.6293664173114778 1.4091890152873614 -1.3297441638274334 1.3331446620234038
decision_type=2 2 2 2 2 2 2
left_child=1 2 -1 -3 6 -6 -2
right_child=4 3 -4 -5 5 -7 -8
leaf_value=0.043323793815190373 0.043165894549319503 0.0071054710098121332 0.00042306490602411816 -0.0091513313081706682 -0.022824399324620284 0.025773489508718092 0.01161415169998278
leaf_weight=10.927767828106882 23.795054271817211 88.013429120182991 7.5187612920999518 29.733041644096375 3.7828914076089886 16.587158039212227 3.8748901933431616
leaf_count=24 49 274 23 102 13 40 10
internal_value=0.0127927 0.00641865 0.0272213 0.00288206 0.0301801 0.0156816 0.0396205
internal_weight=184.233 136.193 18.4465 117.746 48.04 20.37 27.6699
internal_count=535 423 47 376 112 53 59
is_linear=0
shrinkage=0.03


Tree=22
num_leaves=7
num_cat=0
split_feature=17 6 2 11 3 20
split_gain=21.107 21.3111 6.6984 6.24548 6.19867 5.76655
threshold=1.182821997830467 -0.72912334208562146 0.92975857761501068 1.8671093202990108 -0.23521731104523666 1.3575964935385931
decision_type=2 2 2 2 2 2
left_child=1 4 -3 5 -1 -2
right_child=3 2 -4 -5 -6 -7
leaf_value=0.016623736258678072 0.035410036105559796 -0.0059387385353110106 0.013113297452657054 -0.0053630698685973978 0.046370527588126757 -0.0025165905368267818
leaf_weight=33.346507430076599 41.270007789134979 73.984646365046501 20.207964494824409 3.5911473929882041 8.4318429231643659 3.3254758119583121
leaf_count=94 91 252 60 11 17 10
internal_value=0.0124348 0.00620656 -0.00166198 0.0293428 0.0237813 0.0323913
internal_weight=184.158 135.971 94.1926 48.1866 41.7784 44.5955
internal_count=535 423 312 112 111 101
is_linear=0
shrinkage=0.03


Tree=23
num_leaves=8
num_cat=0
split_feature=26 1 10 25 7 9 19
split_gain=20.1559 17.1434 11.6201 6.03412 5.95004 8.45268 1.99042
threshold=0.82028732016359651 0.10034446414460917 0.081694524893892131 1.4828256011266749 1.4091890152873614 -0.31190392797888378 1.3331446620234038
decision_type=2 2 2 2 2 2 2
left_child=1 3 -3 -1 6 -6 -2
right_child=4 2 -4 -5 5 -7 -8
leaf_value=0.016851631083441104 0.041470241443637472 -0.033954808594915037 0 -0.012491077237129515 0.035111245459128033 -0.0019890169417451247 0.010689734383331496
leaf_weight=76.918248042464256 23.566457927227024 10.38893675804138 43.15212969481945 5.7937916070222846 8.7989875376224536 11.482892811298369 3.8582714498043051
leaf_count=219 49 42 141 21 19 34 10
internal_value=0.0120909 0.00603554 -0.00700006 0.0145641 0.0287217 0.014577 0.0379849
internal_weight=183.96 136.253 53.5411 82.712 47.7066 20.2819 27.4247
internal_count=535 423 183 240 112 53 59
is_linear=0
shrinkage=0.03


Tree=24
num_leaves=7
num_cat=0
split_feature=26 1 10 11 11 4
split_gain=19.2261 16.1361 11.0847 7.33795 6.62168 3.45734
threshold=0.82028732016359651 0.10034446414460917 0.081694524893892131 1.0000000180025095e-35 1.9155313531589446 1.6978560376956537
decision_type=2 2 2 2 2 2
left_child=1 3 -3 -1 5 -2
right_child=4 2 -4 -5 -6 -7
leaf_value=0.019510536486427796 0.03520377812755305 -0.033247840298556271 0 -8.1453364873390217e-05 -0.0030644965308183206 0.0069881633396024889
leaf_weight=60.165099933743477 36.764281570911407 10.313947632908819 43.15212969481945 22.661401271820068 4.8299361467361441 5.9162582457065573
leaf_count=167 81 42 141 73 15 16
internal_value=0.0117482 0.00584293 -0.00681609 0.0141058 0.0280334 0.0317482
internal_weight=183.803 136.293 53.4661 82.8265 47.5105 42.6805
internal_count=535 423 183 240 112 97
is_linear=0
shrinkage=0.03


Tree=25
num_leaves=7
num_cat=0
split_feature=28 16 3 16 29 29
split_gain=27.1534 11.3969 11.4121 6.81831 1.93623 11.5518
threshold=0.1718311407763681 -0.32126647246905798 0.48112072111417931 0.64939270987016395 1.1050574870954704 0.89536018327382927
decision_type=2 2 2 2 2 2
left_child=1 2 -1 -3 5 -2
right_child=4 3 -4 -5 -6 -7
leaf_value=0.019703557095748985 0.025480077160224594 -0.014735342200773525 -0.018916087171923158 0.005387797482569426 0.039395378191573203 -0.023265055837438233
leaf_weight=37.788363799452782 62.269358336925507 36.769624888896942 7.3079848587512961 23.789714395999908 10.203799575567244 3.7455957680940619
leaf_count=109 151 132 28 76 22 13
internal_value=0.0116321 0.00164199 0.0129753 -0.006725 0.0251633 0.0222742
internal_weight=181.874 105.656 45.0963 60.5593 76.2188 66.015
internal_count=531 345 137 208 186 164
is_linear=0
shrinkage=0.03


Tree=26
num_leaves=8
num_cat=0
split_feature=24 7 14 20 26 25 20
split_gain=21.6093 8.8285 13.5569 8.46664 8.99202 8.56163 3.72069
threshold=-0.47971445979829314 -0.26016957211526698 0.076079936352711916 -0.90143530771768587 -0.76064277824775817 -1.1457500246609473 1.1184968717803849
decision_type=2 2 2 2 2 2 2
left_child=1 2 -1 5 -5 -2 -3
right_child=3 6 -4 4 -6 -7 -8
leaf_value=0.01552554907547395 0.013939664224799362 0.029298318599617502 -0.039963919045236808 -0.019336978206077354 0.010118337397261314 -0.028051512027723682 0.0052206300024033427
leaf_weight=19.71264706552029 5.102643936872485 61.008805498480797 3.8682952970266333 9.9013751447200757 59.9506915807724 14.18740041553974 7.938303977251052
leaf_count=56 14 143 16 38 186 56 22
internal_value=0.0113012 0.0213779 0.00480124 0.000620789 0.00560209 -0.0163608 0.026769
internal_weight=181.67 92.5281 23.5809 89.1421 69.8521 19.29 68.9471
internal_count=531 237 72 294 224 70 165
is_linear=0
shrinkage=0.03


Tree=27
num_leaves=8
num_cat=0
split_feature=24 7 16 20 26 25 20
split_gain=20.4427 8.41908 12.9449 7.99143 8.50841 8.16802 3.51757
threshold=-0.47971445979829314 -0.26016957211526698 -0.30859155274259858 -0.90143530771768587 -0.76064277824775817 -1.1457500246609473 1.1184968717803849
decision_type=2 2 2 2 2 2 2
left_child=1 2 -1 5 -5 -2 -3
right_child=3 6 -4 4 -6 -7 -8
leaf_value=0.024043601090342273 0.013579486276751065 0.028548413116758566 -0.018729460841240511 -0.018896056115282681 0.0098023548254914487 -0.027441969931694971 0.0050834002897807186
leaf_weight=13.067637622356417 5.1072962135076549 60.763024419546127 10.521063417196272 9.8525219708681089 60.057307705283165 14.091132208704947 7.9350695163011542
leaf_count=34 14 143 38 38 186 56 22
internal_value=0.0109781 0.0207973 0.00461404 0.000590835 0.00542147 -0.0159516 0.026079
internal_weight=181.395 92.2868 23.5887 89.1083 69.9098 19.1984 68.6981
internal_count=531 237 72 294 224 70 165
is_linear=0
shrinkage=0.03


Tree=28
num_leaves=8
num_cat=0
split_feature=28 4 14 27 10 6 2
split_gain=23.4304 6.8706 8.87643 7.54812 5.95343 15.4019 5.42293
threshold=0.1718311407763681 -0.3041429205389114 -0.18103575852617218 -0.42463942808759303 0.66631494346242948 0.53891408825692022 -1.3866557017834842
decision_type=2 2 2 2 2 2 2
left_child=1 3 -3 -1 6 -6 -2
right_child=4 2 -4 -5 5 -7 -8
leaf_value=0.0086755793567980227 -0.0021825014038810908 0.013854508402836798 -0.0075534766228086145 -0.020847402436816844 -0.03784539526260166 0.021115264274789422 0.03164314806939169
leaf_weight=11.136352479457857 3.9909584969282141 48.989911243319511 25.382545828819275 20.082587987184525 3.9525124877691296 18.863822475075722 48.674804598093033
leaf_count=34 12 149 87 75 15 47 112
internal_value=0.0106718 0.00140798 0.0064255 -0.0100943 0.0233254 0.00936332 0.0289193
internal_weight=181.073 105.591 74.3725 31.2189 75.4821 22.8163 52.6658
internal_count=531 345 236 109 186 62 124
is_linear=0
shrinkage=0.03


Tree=29
num_leaves=8
num_cat=0
split_feature=24 20 25 25 14 6 2
split_gain=18.9243 7.50339 7.79115 7.35574 8.47591 5.57797 4.55899
threshold=-0.47971445979829314 -0.90143530771768587 -1.1457500246609473 0.56844971407980527 0.23686846889547616 1.557855199688913 -0.98472742949112302
decision_type=2 2 2 2 2 2 2
left_child=3 2 -2 6 -5 -3 -1
right_child=1 5 -4 4 -6 -7 -8
leaf_value=0.0042296237298634397 0.013119249914778378 0.0021760814310181845 -0.026966430602757989 0.015087513732709319 -0.022186095373140341 0.031401832841528907 0.02912897151127505
leaf_weight=8.9670923054218274 5.1061342209577587 64.356604665517807 14.003927677869795 24.074666827917103 5.9395936578512183 5.6195949316024771 52.749566495418549
leaf_count=25 14 210 56 68 21 14 123
internal_value=0.0103663 0.000384012 -0.0156884 0.0198551 0.00694364 0.00505928 0.0257799
internal_weight=180.817 89.0863 19.1101 91.7309 30.0143 69.9762 61.7167
internal_count=531 294 70 237 89 224 148
is_linear=0
shrinkage=0.03


end of trees

feature_importances:
atr_14=15
hour_sin=15
upper_wick_ratio=13
hour_cos=13
returns_std_10=12
momentum_10bar=10
vol_ratio=10
rsi_7=9
macd_hist_delta=9
macd_signal=9
high_low_range=8
rsi_slope=7
macd_hist=7
momentum_5bar=7
candle_body_ratio=7
close_position_in_range=7
bb_width=6
bb_position=5
volatility_5bar=5
returns_skew_10=5
momentum_3bar=4
volume_ratio=4
volatility_20bar=4
lower_wick_ratio=4
rsi_14=1
momentum_1bar=1
atr_ratio=1
consec_direction=1

parameters:
[boosting: gbdt]
[objective: binary]
[metric: auc]
[tree_learner: serial]
[device_type: cpu]
[data_sample_strategy: bagging]
[data: ]
[valid: ]
[num_iterations: 300]
[learning_rate: 0.03]
[num_leaves: 20]
[num_threads: 0]
[seed: 0]
[deterministic: 0]
[force_col_wise: 0]
[force_row_wise: 0]
[histogram_pool_size: -1]
[max_depth: 3]
[min_data_in_leaf: 10]
[min_sum_hessian_in_leaf: 0.001]
[bagging_fraction: 0.7]
[pos_bagging_fraction: 1]
[neg_bagging_fraction: 1]
[bagging_freq: 5]
[bagging_seed: 3]
[bagging_by_query: 0]
[feature_fraction: 0.7]
[feature_fraction_bynode: 1]
[feature_fraction_seed: 2]
[extra_trees: 0]
[extra_seed: 6]
[early_stopping_round: 0]
[early_stopping_min_delta: 0]
[first_metric_only: 0]
[max_delta_step: 0]
[lambda_l1: 0.3]
[lambda_l2: 1]
[linear_lambda: 0]
[min_gain_to_split: 0]
[drop_rate: 0.1]
[max_drop: 50]
[skip_drop: 0.5]
[xgboost_dart_mode: 0]
[uniform_drop: 0]
[drop_seed: 4]
[top_rate: 0.2]
[other_rate: 0.1]
[min_data_per_group: 100]
[max_cat_threshold: 32]
[cat_l2: 10]
[cat_smooth: 10]
[max_cat_to_onehot: 4]
[top_k: 20]
[monotone_constraints: ]
[monotone_constraints_method: basic]
[monotone_penalty: 0]
[feature_contri: ]
[forcedsplits_filename: ]
[refit_decay_rate: 0.9]
[cegb_tradeoff: 1]
[cegb_penalty_split: 0]
[cegb_penalty_feature_lazy: ]
[cegb_penalty_feature_coupled: ]
[path_smooth: 0]
[interaction_constraints: ]
[verbosity: -1]
[saved_feature_importance_type: 0]
[use_quantized_grad: 0]
[num_grad_quant_bins: 4]
[quant_train_renew_leaf: 0]
[stochastic_rounding: 1]
[linear_tree: 0]
[max_bin: 255]
[max_bin_by_feature: ]
[min_data_in_bin: 3]
[bin_construct_sample_cnt: 200000]
[data_random_seed: 1]
[is_enable_sparse: 1]
[enable_bundle: 1]
[use_missing: 1]
[zero_as_missing: 0]
[feature_pre_filter: 1]
[pre_partition: 0]
[two_round: 0]
[header: 0]
[label_column: ]
[weight_column: ]
[group_column: ]
[ignore_column: ]
[categorical_feature: ]
[forcedbins_filename: ]
[precise_float_parser: 0]
[parser_config_file: ]
[objective_seed: 5]
[num_class: 1]
[is_unbalance: 0]
[scale_pos_weight: 2.13592]
[sigmoid: 1]
[boost_from_average: 1]
[reg_sqrt: 0]
[alpha: 0.9]
[fair_c: 1]
[poisson_max_delta_step: 0.7]
[tweedie_variance_power: 1.5]
[lambdarank_truncation_level: 30]
[lambdarank_norm: 1]
[label_gain: ]
[lambdarank_position_bias_regularization: 0]
[eval_at: ]
[multi_error_top_k: 1]
[auc_mu_weights: ]
[num_machines: 1]
[local_listen_port: 12400]
[time_out: 120]
[machine_list_filename: ]
[machines: ]
[gpu_platform_id: -1]
[gpu_device_id: -1]
[gpu_use_dp: 0]
[num_gpu: 1]

end of parameters

pandas_categorical:null
