tree
version=v4
num_class=1
num_tree_per_iteration=1
label_index=0
max_feature_idx=29
objective=binary sigmoid:1
feature_names=rsi_14 rsi_7 rsi_slope macd_hist macd_hist_delta macd_signal bb_position bb_width momentum_1bar momentum_3bar momentum_5bar momentum_10bar volume_ratio volume_trend volatility_5bar volatility_20bar vol_ratio atr_14 atr_ratio candle_body_ratio upper_wick_ratio lower_wick_ratio consec_direction close_vs_open hour_sin hour_cos returns_std_10 returns_skew_10 high_low_range close_position_in_range
feature_infos=[-2.7450672557258202:2.3480491592268025] [-2.2741121673128162:2.1691866006207206] [-3.1020794027318983:3.0017504024187898] [-4.0312971607623522:3.1022095902506823] [-5.0989338491755012:7.1450848972050016] [-2.424800372023026:3.9913421554300941] [-2.5218566975928001:2.7202477871071964] [-1.3166504989092089:4.7264202965575164] [-5.6355322278336821:5.3841882186601602] [-5.6392612551567174:4.0496664325327343] [-4.6184721687467656:3.5673089360602699] [-3.8934863551744758:4.5581416928038632] [-1.0530136629096747:6.5570736253873134] [-1.6402024150160059:2.9939551984430754] [-1.3617670481546094:4.7994437247737709] [-1.8708457321271841:3.2871585757129287] [-1.8393415002558235:2.8068941358196136] [-1.7542563136777378:3.5713770301129748] [-2.5754924438139639:3.1994899544828415] [-1.7473849224329769:2.1650249742472325] [-1.3165360556528687:3.2345289947940827] [-1.2580118819943764:3.0711847948082229] [-3.6446214834278665:4.3970594671032979] [-1.0367962513480649:0.96450966011861794] [-1.4065323465343356:1.4236176193061505] [-1.4037420892598729:1.4232020408661161] [-1.5597870286967466:4.3070161748371563] [-3.1413062306731212:2.915638533112066] [-1.5429917515360609:4.2047055020669282] [-1.8063531071849639:1.7649972684375572]
tree_sizes=950 990 988 962 976 991 973 949 871 987 959 954 887 671 993 880 964 868 985

Tree=0
num_leaves=8
num_cat=0
split_feature=17 9 18 1 1 9 17
split_gain=23.8646 13.2054 6.86444 7.14772 5.70854 4.99694 2.44495
threshold=-0.34735011497187945 -0.5317197358889002 -0.24993402442014159 1.0168863952372258 1.3735496882931721 0.62285417234082818 -0.68120285758250387
decision_type=2 2 2 2 2 2 2
left_child=1 6 3 -2 -3 -4 -1
right_child=2 4 5 -5 -6 -7 -8
leaf_value=0.83261932408179962 0.82143726322910193 0.7950557996977714 0.84590225881934145 0.86321681927495686 0.84544545492516276 0.87861325491593045 0.87053509991507394
leaf_weight=1.5394899696111677 16.19549843668938 25.023825854063038 14.941205844283106 3.7315446734428397 2.850054755806922 4.6130345910787574 2.611537739634513
leaf_count=11 118 158 123 34 23 45 25
internal_value=0.825694 0.806776 0.841961 0.829931 0.799547 0.85418 0.85401
internal_weight=71.5062 32.0249 39.4813 19.927 27.8739 19.5542 4.15103
internal_count=537 217 320 152 181 168 36
is_linear=0
shrinkage=1


Tree=1
num_leaves=8
num_cat=0
split_feature=17 9 18 25 9 20 17
split_gain=21.8852 12.0526 6.41763 5.28779 4.79607 3.61021 2.35444
threshold=-0.34735011497187945 -0.5317197358889002 -0.24993402442014159 -1.3124386223448672 0.62285417234082818 1.3771471061280542 -0.68120285758250387
decision_type=2 2 2 2 2 2 2
left_child=1 6 5 -3 -4 -2 -1
right_child=2 3 4 -5 -6 -7 -8
leaf_value=-0.017354106233221665 -0.023147711132639921 -0.012201365189033234 -0.0043366187058588232 -0.054074645301119641 0.027810304047490502 0.018317965240879662 0.019844371546901992
leaf_weight=1.550393648445606 18.987179033458236 4.4712936580181148 14.967966265976431 23.953362911939621 4.5602903217077246 1.1068078652024258 2.5902720391750327
leaf_count=11 141 34 123 147 45 11 25
internal_value=-0.0237307 -0.0416535 -0.00811572 -0.0484322 0.00372104 -0.0196769 0.00349894
internal_weight=72.1876 32.5653 39.6222 28.4247 19.5283 20.094 4.14067
internal_count=537 217 320 181 168 152 36
is_linear=0
shrinkage=0.03


Tree=2
num_leaves=8
num_cat=0
split_feature=17 9 18 1 27 27 17
split_gain=20.1539 11.0406 5.99439 6.60288 5.53413 5.06007 2.26744
threshold=-0.34735011497187945 -0.5317197358889002 -0.24993402442014159 1.0168863952372258 1.6098606459392364 -0.4914544626647957 -0.68120285758250387
decision_type=2 2 2 2 2 2 2
left_child=1 6 3 -2 -3 -4 -1
right_child=2 4 5 -5 -6 -7 -8
leaf_value=-0.016966470744895878 -0.026994986046573001 -0.04940569481302412 -0.012766200544965836 0.012960582870587618 0.0012765822892604967 0.016455621763384921 0.019531862233468728
leaf_weight=1.5609263256192205 16.516666404902939 27.268074236810211 8.2487461492419261 3.7402165010571471 1.6588617712259282 11.252592593431471 2.5690872371196738
leaf_count=11 118 167 65 34 14 103 25
internal_value=-0.0228384 -0.0398729 -0.00782354 -0.0189316 -0.046253 0.00363648 0.00336472
internal_weight=72.8152 33.0569 39.7582 20.2569 28.9269 19.5013 4.13001
internal_count=537 217 320 152 181 168 36
is_linear=0
shrinkage=0.03


Tree=3
num_leaves=8
num_cat=0
split_feature=15 12 19 18 1 2 27
split_gain=18.7248 6.9805 7.70697 6.17316 7.04278 3.72013 3.3281
threshold=0.062352344199579288 0.079098926501381187 -0.65365399953314129 -0.24993402442014159 1.0168863952372258 1.470899561949268 -1.3324962672906484
decision_type=2 2 2 2 2 2 2
left_child=1 5 -3 4 -2 -1 -5
right_child=3 2 -4 6 -6 -7 -8
leaf_value=-0.045261030965208365 -0.024563580021049993 0.013433782954864215 -0.028972144053437822 -0.0123094740022938 0.021264840755941729 0 0.019513489689913472
leaf_weight=27.517306558787826 13.098394200205805 4.7287559211254111 10.582707226276396 2.8707726821303359 2.8053071796894065 1.4775043204426754 10.310232214629648
leaf_count=172 93 42 73 22 27 12 96
internal_value=-0.0219945 -0.0340761 -0.0153032 -0.00276994 -0.0151676 -0.0428489 0.0115686
internal_weight=73.391 44.3063 15.3115 29.0847 15.9037 28.9948 13.181
internal_count=537 299 115 238 120 184 118
is_linear=0
shrinkage=0.03


Tree=4
num_leaves=8
num_cat=0
split_feature=26 25 17 28 18 13 25
split_gain=17.5601 7.20713 6.05076 5.93819 3.85119 3.57935 1.68337
threshold=-0.58407072675706828 -1.3124386223448672 -0.48268746720402694 1.3230666825887234 1.3659219768425872 -0.64135904952806333 -1.3660809082255934
decision_type=2 2 2 2 2 2 2
left_child=1 6 -3 4 -2 -5 -1
right_child=3 2 -4 5 -6 -7 -8
leaf_value=-0.014626890833287755 -0.017903769524898305 -0.056112882831233585 -0.011123536203528945 -0.011117159416463157 0.0080458884316774917 0.027736737325065451 0.020596393641760951
leaf_weight=1.6218253895640375 38.383473321795464 16.505115352571018 4.4872891083359674 2.3832693472504616 4.8242703303694716 4.4787984788417807 1.2491180002689386
leaf_count=11 285 91 33 18 43 44 12
internal_value=-0.0211952 -0.0420026 -0.0478484 -0.0104739 -0.0146864 0.0134 0
internal_weight=73.9332 23.8633 20.9924 50.0698 43.2077 6.86207 2.87094
internal_count=537 147 124 390 328 62 23
is_linear=0
shrinkage=0.03


Tree=5
num_leaves=8
num_cat=0
split_feature=15 19 14 25 11 10 24
split_gain=11.102 10.2924 5.81635 3.98568 3.17327 4.32069 2.03916
threshold=0.61078249064525625 -0.19406662624341678 -0.84112686030967987 -1.1899509171081835 0.069697352888755101 1.3066073412590242 0.4634035822596711
decision_type=2 2 2 2 2 2 2
left_child=1 2 -1 -3 6 -6 -2
right_child=4 3 -4 -5 5 -7 -8
leaf_value=-0.029522093864524993 0.024581264859576023 -0.0089294030895809267 0.00044564213015971395 -0.041755374874874469 -0.021243807648904118 0.015708918297461603 -0.0076093719885935839
leaf_weight=7.8548847064375904 4.9874029904603985 5.2992583289742461 15.318130791187285 28.205661848187447 7.4049211367964727 3.1728288307785988 1.4441985338926313
leaf_count=50 47 40 124 178 54 30 11
internal_value=-0.0203958 -0.0266806 -0.0101412 -0.0372336 0.000365211 -0.00898291 0.0160906
internal_weight=73.6873 56.6779 23.173 33.5049 17.0094 10.5777 6.4316
internal_count=534 392 174 218 142 84 58
is_linear=0
shrinkage=0.03


Tree=6
num_leaves=8
num_cat=0
split_feature=17 19 14 5 11 17 12
split_gain=8.86602 6.22499 6.03932 4.94731 3.67564 3.71316 3.46404
threshold=0.025164808494845949 -0.38239171251381554 -0.85548206685703476 0.81418191155384545 -0.48475537954988851 1.2975382268168854 0.047158577819375526
decision_type=2 2 2 2 2 2 2
left_child=1 2 -1 -3 6 -6 -2
right_child=4 3 -4 -5 5 -7 -8
leaf_value=-0.031104262741194173 -0.0045624519193324907 -0.039639469179662566 0.0050976358803098819 0 -0.020621735708194998 0.0054144933505474082 0.03035574511227165
leaf_weight=6.0604518279433242 5.3125670850276965 27.232512220740322 8.7022845298051816 2.8380358740687361 14.977141216397287 5.9269004985690108 3.1134936437010765
leaf_count=37 42 168 71 23 111 51 31
internal_value=-0.0196852 -0.028008 -0.0102236 -0.0358393 -0.00616231 -0.0129187 0.00923688
internal_weight=74.1634 44.8333 14.7627 30.0705 29.3301 20.904 8.42606
internal_count=534 299 108 191 235 162 73
is_linear=0
shrinkage=0.03


Tree=7
num_leaves=8
num_cat=0
split_feature=15 19 18 11 1 4 16
split_gain=9.82175 8.86331 4.57771 2.94263 4.4535 2.55035 1.84844
threshold=0.61078249064525625 -0.19406662624341678 -0.094808294498210433 0.069697352888755101 0.96875025345533905 1.3222396195746209 -0.13053502076073289
decision_type=2 2 2 2 2 2 2
left_child=1 2 -1 6 -5 -3 -2
right_child=3 5 -4 4 -6 -7 -8
leaf_value=-0.020719181333840514 0 -0.036189548261126039 0.0046988272828700339 -0.021026896533702259 0.016244106964737354 0 0.029640055180307507
leaf_weight=13.081174306571485 3.4117774665355682 32.765350647270679 10.243894681334494 7.3849853351712209 3.2655766308307648 1.4845665842294682 2.9747802317142513
leaf_count=89 28 206 85 53 31 12 30
internal_value=-0.0189972 -0.0248333 -0.00945187 0.000509678 -0.00841331 -0.0344878 0.015733
internal_weight=74.6121 57.575 23.3251 17.0371 10.6506 34.2499 6.38656
internal_count=534 392 174 142 84 218 58
is_linear=0
shrinkage=0.03


Tree=8
num_leaves=7
num_cat=0
split_feature=15 19 14 20 25 11
split_gain=9.18281 8.15457 5.08199 3.73864 3.58338 2.97322
threshold=0.61078249064525625 -0.19406662624341678 -0.92759106385075063 -0.7810472391703035 -1.1899509171081835 0.069697352888755101
decision_type=2 2 2 2 2 2
left_child=1 2 -1 -2 -3 -5
right_child=3 4 -4 5 -6 -7
leaf_value=-0.030666109890049267 0.024976199416401144 -0.0069820518383474405 0 0.0096651329992987565 -0.037301838153293083 -0.016840935605480247
leaf_weight=6.0355811193585422 3.4576034322381046 5.4260529428720465 17.355429291725159 5.061089076101779 29.18763293325901 8.5161494314670545
leaf_count=36 33 40 138 45 178 64
internal_value=-0.0183256 -0.0239324 -0.00915104 0.000535317 -0.0331311 -0.00635783
internal_weight=75.0395 58.0047 23.391 17.0348 34.6137 13.5772
internal_count=534 392 174 142 218 109
is_linear=0
shrinkage=0.03


Tree=9
num_leaves=8
num_cat=0
split_feature=7 21 21 20 1 20 29
split_gain=8.18823 4.44935 3.91091 4.37004 4.13474 1.90546 0.540542
threshold=-0.72775514090669069 1.0481789158780008 -0.84269075909703972 1.2353667496246941 0.72804591990005563 1.0052567180881542 -0.09539960478076677
decision_type=2 2 2 2 2 2 2
left_child=1 5 4 -4 -2 -1 -3
right_child=2 6 3 -5 -6 -7 -8
leaf_value=-0.048614128896049782 -0.033121076051259961 -0.010831897158933707 -0.010127014623557635 0.020025221360556164 0.00063525897598644746 -0.0034612871888237379 0.0087070725301314801
leaf_weight=10.885404743254183 11.691817820072172 1.7097564712166788 40.978320822119713 3.7176965549588195 3.6551743596792212 1.5504307821393002 1.2263851761817921
leaf_count=57 75 11 306 34 30 11 10
internal_value=-0.0177144 -0.0369896 -0.0121071 -0.00703873 -0.0249838 -0.0443312 -0.000245547
internal_weight=75.415 15.372 60.043 44.696 15.347 12.4358 2.93614
internal_count=534 89 445 340 105 68 21
is_linear=0
shrinkage=0.03


Tree=10
num_leaves=8
num_cat=0
split_feature=17 13 18 21 5 7 24
split_gain=16.5179 4.81419 5.85284 4.0103 4.33474 2.6419 1.65218
threshold=-0.39657065146451381 1.5205906766496307 0.59065294172803973 1.5430417870907422 -1.2142666037479468 0.49977525790967597 -0.13008470421644691
decision_type=2 2 2 2 2 2 2
left_child=3 2 -2 4 -1 -3 -5
right_child=1 5 -4 6 -6 -7 -8
leaf_value=0.015017549962176054 -0.0051963643842588784 -0.044390176256979059 0.025666608725110077 -0.014425580959433163 -0.036689160366897212 0 0.020863826925536403
leaf_weight=0.76195275783539074 35.644204281270504 2.7875070720911017 5.5016163662075988 1.5739048793911936 30.729146160185337 1.5041691586375234 1.1854886040091503
leaf_count=7 273 16 53 10 181 13 11
internal_value=-0.0163194 -0.00403958 -0.000345045 -0.0317779 -0.0347374 -0.0310007 0
internal_weight=79.688 45.4375 41.1458 34.2505 31.4911 4.29168 2.75939
internal_count=564 355 326 209 188 29 21
is_linear=0
shrinkage=0.03


Tree=11
num_leaves=8
num_cat=0
split_feature=17 1 15 10 24 21 24
split_gain=15.3165 4.61742 3.97334 4.73799 3.43666 2.35972 1.68817
threshold=-0.39657065146451381 0.96875025345533905 -0.91073779008459399 -0.14370067730913419 -0.31261525857547307 1.327530623655113 0.41909728723673101
decision_type=2 2 2 2 2 2 2
left_child=2 4 5 -4 -2 -1 -3
right_child=1 6 3 -5 -6 -7 -8
leaf_value=-0.049028092522395268 0 0.020956152672875455 0 -0.030016913357183522 -0.017987488348873863 -0.002082980027428568 -0.0044278342779090936
leaf_weight=11.302632607519625 18.937589138746262 6.7624307647347432 7.5339959636330613 14.107222303748131 17.583636961877346 1.5860161185264576 2.2031627222895622
leaf_count=57 151 63 56 85 124 11 17
internal_value=-0.0157758 -0.00392582 -0.0305829 -0.0203189 -0.00882132 -0.0444652 0.0139969
internal_weight=80.0167 45.4868 34.5299 21.6412 36.5212 12.8886 8.96559
internal_count=564 355 209 141 275 68 80
is_linear=0
shrinkage=0.03


Tree=12
num_leaves=7
num_cat=0
split_feature=17 27 27 0 9 16
split_gain=14.3568 4.93809 4.8365 5.4209 4.17487 3.02729
threshold=-0.39657065146451381 1.6098606459392364 -0.15434322481406695 0.82423697852810929 -0.5317197358889002 -0.85960070207618022
decision_type=2 2 2 2 2 2
left_child=1 4 3 -2 -1 -4
right_child=2 -3 5 -5 -6 -7
leaf_value=-0.0031693831410939456 -0.020091877089950045 0.0087142516639807845 -0.01359358905208953 0.02474220216120631 -0.036745821111194572 0.0099010611320099126
leaf_weight=4.6676559373736373 18.040614321827892 2.0746693760156623 5.2185814529657391 1.7491010800003994 28.006764590740204 20.528185524046421
leaf_count=35 128 17 37 17 157 173
internal_value=-0.0152914 -0.0295685 -0.00380183 -0.0146968 -0.0324531 0.00447228
internal_weight=80.2856 34.7491 45.5365 19.7897 32.6744 25.7468
internal_count=564 209 355 145 192 210
is_linear=0
shrinkage=0.03


Tree=13
num_leaves=5
num_cat=0
split_feature=7 8 10 16
split_gain=9.70834 6.15279 5.29123 2.49061
threshold=-0.96981347229950521 1.1211736174513391 -1.1240026986806799 1.1689720706964184
decision_type=2 2 2 2
left_child=-1 2 -2 -3
right_child=1 3 -4 -5
leaf_value=-0.045771527999530291 0.012136051574004528 0.024773398259121112 -0.016380171286255366 -0.0089987795236511226
leaf_weight=7.4605082273483267 5.3794080391526213 4.8490090966224662 61.016132213175297 1.8499618247151373
leaf_count=36 47 45 423 13
internal_value=-0.0147926 -0.0109341 -0.0137904 0.0143206
internal_weight=80.555 73.0945 66.3955 6.69897
internal_count=564 528 470 58
is_linear=0
shrinkage=0.03


Tree=14
num_leaves=8
num_cat=0
split_feature=15 12 19 10 8 29 19
split_gain=13.1255 6.37183 5.25669 2.54873 2.50323 2.46577 2.28567
threshold=0.057958973161810069 1.0000000180025095e-35 -0.60440361670531073 -0.76076342491890059 1.3040225757154762 -1.2010624663427343 -0.86829682305988232
decision_type=2 2 2 2 2 2 2
left_child=1 5 -3 6 -5 -1 -2
right_child=3 2 -4 4 -6 -7 -8
leaf_value=0.004283672707498856 -0.0074470092533175328 0.017611291811337668 -0.017615613370910964 -0.007292467164588189 0.017203060110048206 -0.03306205298773246 0.027645508143080595
leaf_weight=1.0032167807221402 1.4472783505916593 4.3029737547040012 11.801332809031008 23.283728912472728 3.3236725702881804 31.567793123424053 4.1040999665856353
leaf_count=8 11 38 76 177 31 184 39
internal_value=-0.0143108 -0.0239815 -0.00719767 0.000336944 -0.0033943 -0.0315503 0.0173827
internal_weight=80.8341 48.6753 16.1043 32.1588 26.6074 32.571 5.55138
internal_count=564 306 114 258 208 192 50
is_linear=0
shrinkage=0.03


Tree=15
num_leaves=7
num_cat=0
split_feature=17 11 1 29 11 9
split_gain=12.0935 8.4911 4.43142 6.53334 2.8223 2.33059
threshold=-0.47037493050561313 -0.51826052375004861 0.96875025345533905 -1.2409636226404348 0.54693307559603532 0.69394428638299288
decision_type=2 2 2 2 2 2
left_child=1 -1 3 -2 -4 -3
right_child=2 5 4 -5 -6 -7
leaf_value=0.01914855673669788 0.016853533558411186 -0.038370964122070479 -0.005815836877932923 -0.014141121859076866 0.025387890879370587 -0.006252847889499662
leaf_weight=2.088428586721423 6.3084886372089377 21.220415957272056 3.1755867972969991 33.683887973427773 5.5212704092264175 3.4819427281618109
leaf_count=18 55 113 23 241 54 23
internal_value=-0.0136967 -0.0295603 -0.00436751 -0.00874053 0.0136412 -0.0346133
internal_weight=75.48 26.7908 48.6892 39.9924 8.69686 24.7024
internal_count=527 154 373 296 77 136
is_linear=0
shrinkage=0.03


Tree=16
num_leaves=8
num_cat=0
split_feature=17 29 9 20 13 29 17
split_gain=11.432 9.94942 5.39006 4.43812 2.98959 2.85498 0.116349
threshold=0.41861781580354845 -1.2069567546841784 0.69394428638299288 -0.7810472391703035 -0.59420868600856558 -1.6761149984261035 2.2716586265692125
decision_type=2 2 2 2 2 2 2
left_child=1 5 -3 6 -5 -1 -2
right_child=3 2 -4 4 -6 -7 -8
leaf_value=-0.0068940147203653138 0.031985389680798754 -0.028823311156718788 0 -0.017594271548787194 0.0066063100980413214 0.031978274470216866 0.0023143840746245518
leaf_weight=1.9115123972296713 3.3940371498465565 41.655581273138523 7.4274388775229445 6.2713364362716719 11.027175575494763 2.9713407456874839 1.0076178833842275
leaf_count=13 33 250 55 44 95 28 9
internal_value=-0.0132529 -0.020572 -0.0247127 0.00465692 -0.00215748 0.0166458 0.0285452
internal_weight=75.666 53.9659 49.083 21.7002 17.2985 4.88285 4.40166
internal_count=527 346 305 181 139 41 42
is_linear=0
shrinkage=0.03


Tree=17
num_leaves=7
num_cat=0
split_feature=17 11 27 25 18 14
split_gain=10.9045 7.92762 5.35797 4.11711 3.25117 1.8832
threshold=-0.47037493050561313 -0.51826052375004861 0.6505129592361224 -0.81314516356957933 0.90458301843291034 0.54868253177117177
decision_type=2 2 2 2 2 2
left_child=1 -1 3 -2 -3 -4
right_child=2 4 5 -5 -6 -7
leaf_value=0.019122106003945535 -0.024447977827539508 -0.036071026334032794 0.0018693656365075186 -0.0025508121608358472 0 0.030252272237200575
leaf_weight=2.0864059329032925 10.241247698664663 22.503363080322746 5.7242071032524091 29.446436569094658 2.4252299666404715 3.4346541613340378
leaf_count=18 69 119 45 223 17 36
internal_value=-0.0128091 -0.0277982 -0.00394733 -0.00888448 -0.0326584 0.0153293
internal_weight=75.8615 27.015 48.8465 39.6877 24.9286 9.15886
internal_count=527 154 373 292 136 81
is_linear=0
shrinkage=0.03


Tree=18
num_leaves=8
num_cat=0
split_feature=17 29 19 20 3 29 7
split_gain=10.2839 9.15998 5.33071 4.27033 2.81009 2.76341 0.0956229
threshold=0.41861781580354845 -1.2069567546841784 -0.35534564958165776 -0.7810472391703035 -1.020052791955788 -1.6761149984261035 2.3285138986201237
decision_type=2 2 2 2 2 2 2
left_child=1 5 -3 6 -5 -1 -2
right_child=3 2 -4 4 -6 -7 -8
leaf_value=-0.0066413582365430482 0.031515061519971979 -0.0082082304402372672 -0.030349750057574652 0.018322421051495015 -0.0086398260418892436 0.031611265598075138 0.0023488744436425224
leaf_weight=1.9161707237362859 3.3504840359091785 16.97845620661974 32.50743442773819 3.4612069055438104 13.848841175436968 2.9442270398139945 1.0067953169345853
leaf_count=13 33 116 189 32 107 28 9
internal_value=-0.0123995 -0.0193003 -0.0232444 0.00459993 -0.00205086 0.0164348 0.0281523
internal_weight=76.0136 54.3463 49.4859 21.6673 17.31 4.8604 4.35728
internal_count=527 346 305 181 139 41 42
is_linear=0
shrinkage=0.03


end of trees

feature_importances:
atr_14=17
rsi_7=8
momentum_3bar=8
atr_ratio=8
candle_body_ratio=8
momentum_10bar=7
close_position_in_range=7
volatility_20bar=6
upper_wick_ratio=6
hour_cos=6
returns_skew_10=6
bb_width=4
momentum_5bar=4
volatility_5bar=4
lower_wick_ratio=4
hour_sin=4
volume_ratio=3
volume_trend=3
vol_ratio=3
macd_signal=2
momentum_1bar=2
rsi_14=1
rsi_slope=1
macd_hist=1
macd_hist_delta=1
returns_std_10=1
high_low_range=1

parameters:
[boosting: gbdt]
[objective: binary]
[metric: auc]
[tree_learner: serial]
[device_type: cpu]
[data_sample_strategy: bagging]
[data: ]
[valid: ]
[num_iterations: 300]
[learning_rate: 0.03]
[num_leaves: 20]
[num_threads: 0]
[seed: 0]
[deterministic: 0]
[force_col_wise: 0]
[force_row_wise: 0]
[histogram_pool_size: -1]
[max_depth: 3]
[min_data_in_leaf: 10]
[min_sum_hessian_in_leaf: 0.001]
[bagging_fraction: 0.7]
[pos_bagging_fraction: 1]
[neg_bagging_fraction: 1]
[bagging_freq: 5]
[bagging_seed: 3]
[bagging_by_query: 0]
[feature_fraction: 0.7]
[feature_fraction_bynode: 1]
[feature_fraction_seed: 2]
[extra_trees: 0]
[extra_seed: 6]
[early_stopping_round: 0]
[early_stopping_min_delta: 0]
[first_metric_only: 0]
[max_delta_step: 0]
[lambda_l1: 0.3]
[lambda_l2: 1]
[linear_lambda: 0]
[min_gain_to_split: 0]
[drop_rate: 0.1]
[max_drop: 50]
[skip_drop: 0.5]
[xgboost_dart_mode: 0]
[uniform_drop: 0]
[drop_seed: 4]
[top_rate: 0.2]
[other_rate: 0.1]
[min_data_per_group: 100]
[max_cat_threshold: 32]
[cat_l2: 10]
[cat_smooth: 10]
[max_cat_to_onehot: 4]
[top_k: 20]
[monotone_constraints: ]
[monotone_constraints_method: basic]
[monotone_penalty: 0]
[feature_contri: ]
[forcedsplits_filename: ]
[refit_decay_rate: 0.9]
[cegb_tradeoff: 1]
[cegb_penalty_split: 0]
[cegb_penalty_feature_lazy: ]
[cegb_penalty_feature_coupled: ]
[path_smooth: 0]
[interaction_constraints: ]
[verbosity: -1]
[saved_feature_importance_type: 0]
[use_quantized_grad: 0]
[num_grad_quant_bins: 4]
[quant_train_renew_leaf: 0]
[stochastic_rounding: 1]
[linear_tree: 0]
[max_bin: 255]
[max_bin_by_feature: ]
[min_data_in_bin: 3]
[bin_construct_sample_cnt: 200000]
[data_random_seed: 1]
[is_enable_sparse: 1]
[enable_bundle: 1]
[use_missing: 1]
[zero_as_missing: 0]
[feature_pre_filter: 1]
[pre_partition: 0]
[two_round: 0]
[header: 0]
[label_column: ]
[weight_column: ]
[group_column: ]
[ignore_column: ]
[categorical_feature: ]
[forcedbins_filename: ]
[precise_float_parser: 0]
[parser_config_file: ]
[objective_seed: 5]
[num_class: 1]
[is_unbalance: 0]
[scale_pos_weight: 0.477134]
[sigmoid: 1]
[boost_from_average: 1]
[reg_sqrt: 0]
[alpha: 0.9]
[fair_c: 1]
[poisson_max_delta_step: 0.7]
[tweedie_variance_power: 1.5]
[lambdarank_truncation_level: 30]
[lambdarank_norm: 1]
[label_gain: ]
[lambdarank_position_bias_regularization: 0]
[eval_at: ]
[multi_error_top_k: 1]
[auc_mu_weights: ]
[num_machines: 1]
[local_listen_port: 12400]
[time_out: 120]
[machine_list_filename: ]
[machines: ]
[gpu_platform_id: -1]
[gpu_device_id: -1]
[gpu_use_dp: 0]
[num_gpu: 1]

end of parameters

pandas_categorical:null
