tree
version=v4
num_class=1
num_tree_per_iteration=1
label_index=0
max_feature_idx=29
objective=binary sigmoid:1
feature_names=rsi_14 rsi_7 rsi_slope macd_hist macd_hist_delta macd_signal bb_position bb_width momentum_1bar momentum_3bar momentum_5bar momentum_10bar volume_ratio volume_trend volatility_5bar volatility_20bar vol_ratio atr_14 atr_ratio candle_body_ratio upper_wick_ratio lower_wick_ratio consec_direction close_vs_open hour_sin hour_cos returns_std_10 returns_skew_10 high_low_range close_position_in_range
feature_infos=[-2.6793915835849376:2.4357849012758264] [-2.2193492440264424:2.2085495655595988] [-3.0527584948479718:2.9291087800849644] [-3.6455767030310877:2.7924396651114418] [-4.6300935209041247:3.9901039422228388] [-2.6356319105077364:2.9924139235704135] [-2.8118690919825577:2.7282487389367067] [-1.4929240748795347:4.281362670733647] [-4.6650960699290049:4.8680645515702521] [-5.1823113737235742:4.3703939728350729] [-5.0876809094203113:3.9911081759731477] [-4.0672597277878921:3.5724122195003547] [-1.1305228069127529:9.8228239651340363] [-1.8069736539811698:4.0104366656264725] [-1.4854855562447669:5.3052586243160444] [-1.907420614836556:3.8165259453099978] [-1.9485252419662622:2.7646635627105827] [-1.8309242400099797:4.4402230694836362] [-2.3464586498109719:3.2353371029481184] [-1.7882282669064784:2.0861543292735845] [-1.2827018410233362:3.3731517585661432] [-1.2555606501368091:3.0902981601253168] [-3.4295926555659251:4.1816340736254789] [-1.0180601501130848:0.98226023274647078] [-1.4098630052090173:1.4222622495897947] [-1.4086774251160474:1.4161396849582584] [-1.6490083792749799:4.8789179605721031] [-3.0231979633962207:2.7319581180201453] [-1.7486330006760662:3.2307544552837668] [-1.7274624147659785:1.7698902376259387]
tree_sizes=1598 1497 1608 1514 1706

Tree=0
num_leaves=14
num_cat=0
split_feature=9 13 5 0 8 22 1 29 16 26 0 8 3
split_gain=29.644 39.0671 21.8326 24.9969 21.3611 18.4602 31.2706 17.4238 15.5006 14.775 12.5502 8.89635 3.99256
threshold=-0.71376478238118357 -0.082642258224038631 0.21767170339849543 1.4469248185813786 -0.61038335097434782 -0.68109411446902934 -1.445519364667968 -1.6437198618918603 -0.92748871304565916 -1.3273283116011019 0.98733076680616139 0.33854866275883233 -0.8953096817747489
decision_type=2 2 2 2 2 2 2 2 2 2 2 2 2
left_child=1 11 3 4 -2 7 -7 -3 9 -4 -10 12 -1
right_child=2 5 8 -5 -6 6 -8 -9 10 -11 -12 -13 -14
leaf_value=-0.11153718535620225 -0.046787018406252934 -0.051283535012308042 -0.11105768712600747 -0.12841789401429834 -0.075406785398895476 -0.1312939521654663 -0.043903214996770829 -0.10820615792102664 -0.10180739597021612 -0.065923026057719339 -0.081571402936758325 -0.088616637919555527 -0.14119597960925653
leaf_weight=9.9863293170928973 28.257498323917389 4.9161833524704006 6.8492389321327201 5.9281500577926627 134.71694734692574 3.7428826093673733 16.415592789649963 25.467528820037842 69.220670104026794 38.204623460769653 44.192697376012802 5.4948701858520499 17.217260003089905
leaf_count=13 36 6 9 9 176 5 20 33 94 49 57 7 23
internal_value=-0.0840517 -0.0999124 -0.079974 -0.0725014 -0.0701918 -0.0834095 -0.0617306 -0.0979542 -0.0879432 -0.0732842 -0.0938896 -0.124954 -0.131771
internal_weight=410.61 83.2406 327.37 168.903 162.974 50.5422 20.1585 30.3837 158.467 45.0539 113.413 32.6985 27.2036
internal_count=537 107 430 221 212 64 25 39 209 58 151 43 36
is_linear=0
shrinkage=1


Tree=1
num_leaves=13
num_cat=0
split_feature=9 11 5 7 22 18 19 29 24 29 1 5
split_gain=27.983 21.5686 23.3112 31.6465 23.6779 21.0499 21.4003 13.8823 13.5484 12.8192 13.5194 3.61183
threshold=-0.71376478238118357 1.2593827774905073 0.72434645915539242 0.47083996471321138 0.58744367372953799 -0.57837998125169976 0.74488504119494747 -0.63235229488692257 1.4026003203909385 0.96145248894120205 0.77986400864162897 0.6432162701527302
decision_type=2 2 2 2 2 2 2 2 2 2 2 2
left_child=5 2 4 -4 -2 11 8 -8 -7 -3 -11 -1
right_child=1 9 3 -5 -6 6 7 -9 -10 10 -12 -13
leaf_value=-0.051345556915293369 0.021449471618931081 0.031225548895549231 -0.02046315783231533 0.022269085347684778 0.00061595441049188033 -0.021015750132287628 0.038053734301992936 -0.015669447177941605 0.025002016168417424 0.012011405940294604 -0.029935922750970081 -0.015618942884372081
leaf_weight=11.20489424467087 147.25815445184708 4.0836528539657584 43.748385429382324 22.897095203399658 74.398390710353851 42.405633747577667 13.089574098587038 5.4009976983070365 5.6667961478233329 8.3648762106895429 26.6945561170578 5.4016855359077445
leaf_count=15 194 5 59 29 97 55 16 7 7 11 35 7
internal_value=0.00303397 0.00699398 0.00984775 -0.00558096 0.0145179 -0.0123835 -0.00449444 0.0220548 -0.0150699 -0.0135973 -0.0197057 -0.0416125
internal_weight=410.615 327.445 288.302 66.6455 221.657 83.1696 66.563 18.4906 48.0724 39.1431 35.0594 16.6066
internal_count=537 430 379 88 291 107 85 23 62 51 46 22
is_linear=0
shrinkage=0.03


Tree=2
num_leaves=14
num_cat=0
split_feature=9 13 21 11 2 9 2 22 1 21 1 8 3
split_gain=26.4022 35.9943 35.5213 20.2697 18.228 27.5823 24.1264 16.0616 13.447 13.3405 19.2792 8.26137 3.83369
threshold=-0.71376478238118357 -0.082642258224038631 -0.23738980881723895 1.2593827774905073 0.009155833735707726 -0.27428091778295072 0.99904211538571663 -0.68109411446902934 -1.3592907402011412 -1.1016057883656625 0.81372625016126843 0.33854866275883233 -0.8953096817747489
decision_type=2 2 2 2 2 2 2 2 2 2 2 2 2
left_child=1 11 8 4 5 -2 -6 -4 -3 -5 -11 12 -1
right_child=3 2 7 9 6 -7 -8 -9 -10 10 -12 -13 -14
leaf_value=-0.02303753086490138 0.0156443516593117 -0.0048588845535003349 -0.040093841002341229 -0.048743884393771086 0.023540226037114025 -0.012916411945192236 -0.00075692101848737117 0.009061209103327925 0.040391576081437487 0.036430389168733118 -0.016757674216988341 -0.0011325270005913997 -0.051947818270637339
leaf_weight=9.9565042257308978 56.752222537994385 7.8190164566040066 15.107884109020235 6.7155973315238944 115.31993094086647 63.295244574546814 53.012108266353607 8.7459374666213971 18.835884511470795 6.966986119747161 25.42817085981369 5.4910023212432852 17.125347673892975
leaf_count=13 71 10 20 9 150 88 70 11 23 9 33 7 23
internal_value=0.00294268 -0.0120419 0.00378256 0.00678749 0.00955267 0.000553768 0.0158937 -0.0221904 0.027205 -0.0131816 -0.00439088 -0.0361403 -0.0427316
internal_weight=410.572 83.0816 50.5087 327.49 288.38 120.047 168.332 23.8538 26.6549 39.1108 32.3952 32.5729 27.0819
internal_count=537 107 64 430 379 159 220 31 33 51 42 43 36
is_linear=0
shrinkage=0.03


Tree=3
num_leaves=13
num_cat=0
split_feature=20 20 19 5 19 9 16 19 27 25 27 28
split_gain=25.8292 28.8264 31.8085 30.0614 26.6694 22.6832 20.6492 26.1378 16.3377 13.7937 12.1346 8.37839
threshold=-0.7135270139161326 0.068271974684608744 0.53904766139673244 0.26183921669504018 0.71443011236872689 -0.69368117524067563 -1.112494613868612 0.71443011236872689 0.3225544020375854 1.4085859718982852 -0.26413725208511002 0.34645548501199269
decision_type=2 2 2 2 2 2 2 2 2 2 2 2
left_child=6 2 9 -4 5 -3 11 10 -9 -2 -8 -1
right_child=1 4 3 -5 -6 -7 7 8 -10 -11 -12 -13
leaf_value=0.043675705943929916 0.032989935028425933 -0.024112640025464462 0.016853588142263974 -0.031642334932888525 0.052449236578911464 0.0027589613733262665 -0.0067883228784326967 0.011823904421092308 -0.01927280104253315 -0.021718975644233279 -0.041678833945183888 -0.0073447012409831852
leaf_weight=7.750331759452818 74.075024724006653 35.231777906417847 30.394422054290771 17.146923124790192 7.1488518118858329 126.89647570252419 14.021130859851835 36.927665889263153 24.361807465553284 3.5926582217216483 29.244414299726486 3.675891637802124
leaf_count=10 96 46 38 23 9 168 18 47 32 5 40 5
internal_value=0.00284704 0.00757561 0.0184287 -0.000805548 -0.000477935 -0.00315569 -0.00907005 -0.0133472 -0.000551297 0.0301391 -0.0309161 0.0275091
internal_weight=410.467 294.486 125.209 47.5413 169.277 162.128 115.981 104.555 61.2895 77.6677 43.2655 11.4262
internal_count=537 385 162 61 223 214 152 137 79 101 58 15
is_linear=0
shrinkage=0.03


Tree=4
num_leaves=15
num_cat=0
split_feature=9 13 19 11 5 7 26 18 5 29 1 5 19 2
split_gain=23.8936 33.8235 25.8671 18.9798 21.3218 28.9979 23.4145 12.9604 12.2888 11.9139 12.0719 5.67036 10.8626 1.17336
threshold=-0.71376478238118357 -0.082642258224038631 0.74488504119494747 1.2593827774905073 0.72434645915539242 0.47083996471321138 -1.503946812054817 0.14781891279582618 -1.2205588908693976 0.96145248894120205 0.77986400864162897 0.6432162701527302 0.64058045154715637 -0.11797307043951201
decision_type=2 2 2 2 2 2 2 2 2 2 2 2 2 2
left_child=1 11 7 4 6 -6 -2 -3 -4 -5 -11 13 -13 -1
right_child=3 2 8 9 5 -7 -8 -9 -10 10 -12 12 -14 -15
leaf_value=-0.05050140072479152 -0.03733623625051579 0.017491672005029369 -0.0056986999629023583 0.030247267471122687 -0.01992686214400316 0.020969775053983702 0.015374813809487211 -0.020603233747578973 0.053564304476374551 0.01111113913237281 -0.028520984362138378 0.01327402994850801 -0.044052663335352779 -0.026381516165169955
leaf_weight=14.095299541950224 6.8685851097106925 10.389113962650297 3.9166514277458182 4.0870745182037345 43.697244226932526 22.922341763973236 214.94053229689598 26.118636071681976 10.01319646835327 8.3702091574668867 26.611674845218658 5.5497403740882856 4.4651349186897278 8.3198763728141802
leaf_count=19 10 13 5 5 59 29 281 34 12 11 35 7 6 11
internal_value=0.00276169 -0.0115139 0.00381781 0.00641619 0.00909112 -0.00566448 0.0135554 -0.00942517 0.0372338 -0.0129159 -0.0188261 -0.0349392 -0.0134193 -0.0433141
internal_weight=410.365 82.8676 50.4376 327.498 288.429 66.6196 221.809 36.5078 13.9298 39.069 34.9819 32.4301 10.0149 22.4152
internal_count=537 107 64 430 379 88 291 47 17 51 46 43 13 30
is_linear=0
shrinkage=0.03


end of trees

feature_importances:
macd_signal=7
momentum_3bar=6
candle_body_ratio=6
rsi_7=5
close_position_in_range=4
rsi_slope=3
momentum_1bar=3
momentum_10bar=3
volume_trend=3
consec_direction=3
rsi_14=2
macd_hist=2
bb_width=2
vol_ratio=2
atr_ratio=2
upper_wick_ratio=2
lower_wick_ratio=2
returns_std_10=2
returns_skew_10=2
hour_sin=1
hour_cos=1
high_low_range=1

parameters:
[boosting: gbdt]
[objective: binary]
[metric: binary_logloss]
[tree_learner: serial]
[device_type: cpu]
[data_sample_strategy: bagging]
[data: ]
[valid: ]
[num_iterations: 500]
[learning_rate: 0.03]
[num_leaves: 31]
[num_threads: 0]
[seed: 0]
[deterministic: 0]
[force_col_wise: 0]
[force_row_wise: 0]
[histogram_pool_size: -1]
[max_depth: 4]
[min_data_in_leaf: 5]
[min_sum_hessian_in_leaf: 0.001]
[bagging_fraction: 0.75]
[pos_bagging_fraction: 1]
[neg_bagging_fraction: 1]
[bagging_freq: 5]
[bagging_seed: 3]
[bagging_by_query: 0]
[feature_fraction: 0.75]
[feature_fraction_bynode: 1]
[feature_fraction_seed: 2]
[extra_trees: 0]
[extra_seed: 6]
[early_stopping_round: 0]
[early_stopping_min_delta: 0]
[first_metric_only: 0]
[max_delta_step: 0]
[lambda_l1: 0.2]
[lambda_l2: 1]
[linear_lambda: 0]
[min_gain_to_split: 0.01]
[drop_rate: 0.1]
[max_drop: 50]
[skip_drop: 0.5]
[xgboost_dart_mode: 0]
[uniform_drop: 0]
[drop_seed: 4]
[top_rate: 0.2]
[other_rate: 0.1]
[min_data_per_group: 100]
[max_cat_threshold: 32]
[cat_l2: 10]
[cat_smooth: 10]
[max_cat_to_onehot: 4]
[top_k: 20]
[monotone_constraints: ]
[monotone_constraints_method: basic]
[monotone_penalty: 0]
[feature_contri: ]
[forcedsplits_filename: ]
[refit_decay_rate: 0.9]
[cegb_tradeoff: 1]
[cegb_penalty_split: 0]
[cegb_penalty_feature_lazy: ]
[cegb_penalty_feature_coupled: ]
[path_smooth: 0]
[interaction_constraints: ]
[verbosity: -1]
[saved_feature_importance_type: 0]
[use_quantized_grad: 0]
[num_grad_quant_bins: 4]
[quant_train_renew_leaf: 0]
[stochastic_rounding: 1]
[linear_tree: 0]
[max_bin: 255]
[max_bin_by_feature: ]
[min_data_in_bin: 3]
[bin_construct_sample_cnt: 200000]
[data_random_seed: 1]
[is_enable_sparse: 1]
[enable_bundle: 1]
[use_missing: 1]
[zero_as_missing: 0]
[feature_pre_filter: 1]
[pre_partition: 0]
[two_round: 0]
[header: 0]
[label_column: ]
[weight_column: ]
[group_column: ]
[ignore_column: ]
[categorical_feature: ]
[forcedbins_filename: ]
[precise_float_parser: 0]
[parser_config_file: ]
[objective_seed: 5]
[num_class: 1]
[is_unbalance: 0]
[scale_pos_weight: 1.11348]
[sigmoid: 1]
[boost_from_average: 1]
[reg_sqrt: 0]
[alpha: 0.9]
[fair_c: 1]
[poisson_max_delta_step: 0.7]
[tweedie_variance_power: 1.5]
[lambdarank_truncation_level: 30]
[lambdarank_norm: 1]
[label_gain: ]
[lambdarank_position_bias_regularization: 0]
[eval_at: ]
[multi_error_top_k: 1]
[auc_mu_weights: ]
[num_machines: 1]
[local_listen_port: 12400]
[time_out: 120]
[machine_list_filename: ]
[machines: ]
[gpu_platform_id: -1]
[gpu_device_id: -1]
[gpu_use_dp: 0]
[num_gpu: 1]

end of parameters

pandas_categorical:null
