tree
version=v4
num_class=1
num_tree_per_iteration=1
label_index=0
max_feature_idx=29
objective=binary sigmoid:1
feature_names=rsi_14 rsi_7 rsi_slope macd_hist macd_hist_delta macd_signal bb_position bb_width momentum_1bar momentum_3bar momentum_5bar momentum_10bar volume_ratio volume_trend volatility_5bar volatility_20bar vol_ratio atr_14 atr_ratio candle_body_ratio upper_wick_ratio lower_wick_ratio consec_direction close_vs_open hour_sin hour_cos returns_std_10 returns_skew_10 high_low_range close_position_in_range
feature_infos=[-2.6248367694831636:2.4338486284509679] [-2.2965947980611325:2.3288227659741856] [-3.4337817661733707:3.1798816542358486] [-4.7607773423033892:4.4956683592934326] [-5.4989250453074687:4.8212529340673607] [-3.1922060172551685:2.0927952581863578] [-2.7654507670627284:2.7138489205076377] [-1.1541792127612152:4.6557310566859913] [-5.505692045450588:6.2318972548970484] [-5.7263462043557443:4.6214336418329287] [-5.4940347126858917:4.5157645223906444] [-4.3543611873291086:4.5817549137138043] [-0.9917100475353009:6.2025511777444278] [-1.6159563895173976:3.6538081842433452] [-1.2686766464125849:4.4944966925037626] [-1.3695127115846695:3.2343486153244956] [-2.1725573445628314:2.9941691859744761] [-1.0711336813781942:3.244184225908727] [-2.4559600154248509:3.1270537158429255] [-1.8180429319952234:1.8201179666155118] [-1.0781205972868591:3.283167178514248] [-1.0834082023248439:2.9710886176321272] [-3.6716381114417005:3.6546266607323181] [-1.0046550628299362:0.99639479509854934] [-1.4603195643856877:1.4172591360572888] [-1.282061732624177:1.5198478410771967] [-1.3659004072991972:3.6274231404763815] [-3.0701630688288257:2.6234084640003981] [-1.2036432367837178:3.0289651682837069] [-1.8040011134873302:1.7992067135684846]
tree_sizes=966 981 975 981 980 984 984 989 884 989 980 864 774 868 885

Tree=0
num_leaves=8
num_cat=0
split_feature=24 1 7 9 25 20 26
split_gain=53.9684 11.6833 10.2803 7.23492 6.21701 8.17926 3.25123
threshold=-0.95827806623940193 0.1930295185951624 -0.24060664703342777 0.1734372654903 0.4221151674372095 -0.5237307995933721 0.55726882242417208
decision_type=2 2 2 2 2 2 2
left_child=4 2 -2 -3 6 -6 -1
right_child=1 3 -4 -5 5 -7 -8
leaf_value=-0.39253348378193087 -0.40727942075543122 -0.40157225839327509 -0.38213581209610215 -0.42757363628636941 -0.41817458042270617 -0.37545051397177187 -0.35856801060726529
leaf_weight=5.2222242504358283 43.703429102897644 13.464661672711371 22.085027351975441 26.793706342577934 4.8886446654796627 12.406719312071798 32.712012514472008
leaf_count=17 153 46 70 101 18 38 94
internal_value=-0.39343 -0.406171 -0.398401 -0.418645 -0.369645 -0.387759 -0.362422
internal_weight=161.276 106.047 65.7885 40.2584 55.2296 17.2954 37.9342
internal_count=537 370 223 147 167 56 111
is_linear=0
shrinkage=1


Tree=1
num_leaves=8
num_cat=0
split_feature=15 10 20 25 4 17 29
split_gain=51.967 12.3523 9.90704 8.00853 7.14245 5.92184 4.37345
threshold=-0.029313765899542116 0.5030645331254805 -1.0772529111131259 -1.0198006489153031 0.82675396065163731 0.33344032234281978 1.4866395332799283
decision_type=2 2 2 2 2 2 2
left_child=1 2 -1 5 -3 -2 -5
right_child=3 4 -4 6 -6 -7 -8
leaf_value=-0.014438617562561996 0.030879796816293083 -0.027370289185990878 0.013181906318382029 0.045300783270767246 0.013190513086598703 -0.016662817246524467 0.0044413799474816856
leaf_weight=12.805507987737654 3.6491830796003333 14.497871294617655 70.889970138669014 48.852956220507622 4.2125312536954871 3.6462858021259308 3.2343014776706687
leaf_count=48 11 57 239 143 14 14 11
internal_value=0.0168637 0.00371245 0.00872909 0.038957 -0.0175758 0.00688877 0.0430646
internal_weight=161.789 102.406 83.6955 59.3827 18.7104 7.29547 52.0873
internal_count=537 358 287 179 71 25 154
is_linear=0
shrinkage=0.03


Tree=2
num_leaves=8
num_cat=0
split_feature=24 1 8 9 17 21 21
split_gain=46.9959 10.5981 8.8285 6.74981 3.26603 7.97362 0.77743
threshold=-0.95827806623940193 0.1930295185951624 -0.32726216920001377 0.1734372654903 1.0624364229368966 1.1072840625737632 -1.0829818246645038
decision_type=2 2 2 2 2 2 2
left_child=4 2 -2 -3 5 -1 -6
right_child=1 3 -4 -5 6 -7 -8
leaf_value=0.033227496240169942 -0.0019520530900429204 0.0089253624811264538 0.020180029861324219 -0.016181027335808378 0.016163527075165496 -0.013286745579494042 0.046534873535564895
leaf_weight=17.105075269937519 25.014576062560081 13.495387554168699 41.046876728534698 26.671638861298561 3.1625070273876181 3.1796470433473578 32.578031778335571
leaf_count=52 89 46 134 101 10 12 93
internal_value=0.0163196 0.00438639 0.0117612 -0.00751521 0.0383143 0.0252318 0.0446055
internal_weight=162.254 106.228 66.0615 40.167 56.0253 20.2847 35.7405
internal_count=537 370 223 147 167 64 103
is_linear=0
shrinkage=0.03


Tree=3
num_leaves=8
num_cat=0
split_feature=28 10 20 24 10 24 25
split_gain=46.7315 9.85223 12.0016 8.58433 8.09891 2.19887 1.97742
threshold=0.11880280633167246 0.5030645331254805 -0.75477996445674944 -0.16254784146663731 0.92304273763006561 0.60067924154187347 0.4221151674372095
decision_type=2 2 2 2 2 2 2
left_child=1 2 -1 6 -3 -5 -2
right_child=3 4 -4 5 -6 -7 -8
leaf_value=-0.009706931636248561 0.043924871350506621 -0.029945430228438073 0.014864356532014161 -0.01299289996105304 0.0097202902214714552 0.017663043674162982 0.024226803938719069
leaf_weight=24.232632279396057 42.205154612660408 11.984218433499338 58.968207120895386 3.1704700440168372 6.1542462706565848 3.1281429380178452 12.803145840764044
leaf_count=89 121 48 196 12 21 10 40
internal_value=0.0158091 0.00310908 0.00757068 0.0362707 -0.0162122 0.001333 0.0400153
internal_weight=162.646 101.339 83.2008 61.3069 18.1385 6.29861 55.0083
internal_count=537 354 285 183 69 22 161
is_linear=0
shrinkage=0.03


Tree=4
num_leaves=8
num_cat=0
split_feature=28 19 1 24 7 24 4
split_gain=43.7653 9.0329 10.1333 7.99889 4.86555 2.09853 1.82541
threshold=0.11880280633167246 0.75045590978329801 -0.14209690165493172 -0.16254784146663731 -0.3453904426035766 0.60067924154187347 0.1471324443475214
decision_type=2 2 2 2 2 2 2
left_child=1 2 -1 6 -3 -5 -2
right_child=3 4 -4 5 -6 -7 -8
leaf_value=0.018100879161186904 0.046010635146333093 -0.019855942740249252 -0.0034083800273003481 -0.012721979579374329 0.008756331611971686 0.017217952030068168 0.029738847058220715
leaf_weight=41.320501685142517 27.453503996133804 18.567288666963581 35.297161176800728 3.1622673869132987 6.1988651305437079 3.1384276896715164 27.848402187228203
leaf_count=135 77 71 127 12 21 10 84
internal_value=0.0153136 0.00300665 0.00815953 0.0350526 -0.0122832 0.00127426 0.0386502
internal_weight=162.986 101.384 76.6177 61.6026 24.7662 6.3007 55.3019
internal_count=537 354 262 183 92 22 161
is_linear=0
shrinkage=0.03


Tree=5
num_leaves=8
num_cat=0
split_feature=17 0 26 25 26 25 17
split_gain=38.9126 9.40223 9.54459 7.20141 8.00785 6.53888 1.37137
threshold=0.041330007837114845 -1.6251074775035648 -0.33845110386569349 0.40716047108022807 -0.11897408821181214 -1.2579604303553504 -0.57582687900297702
decision_type=2 2 2 2 2 2 2
left_child=1 6 -3 5 -5 -2 -1
right_child=3 2 -4 4 -6 -7 -8
leaf_value=0.0073830234783601586 -0.01168817276491585 0.00081631312633864282 -0.02167427845781103 0.036730224337939897 -0.0031026607562652684 0.037907015496206911 0.041707938873234138
leaf_weight=3.0007480829954147 1.8136724978685368 71.206163376569748 21.002581253647804 5.9218947142362621 11.80880358815193 40.726280048489571 3.5840941965579978
leaf_count=10 7 251 80 17 41 118 10
internal_value=0.00984053 -0.00170569 -0.00438743 0.0286325 0.0109714 0.035366 0.0302881
internal_weight=159.064 98.7936 92.2087 60.2707 17.7307 42.54 6.58484
internal_count=534 351 331 183 58 125 20
is_linear=0
shrinkage=0.03


Tree=6
num_leaves=8
num_cat=0
split_feature=17 0 19 1 11 12 5
split_gain=36.4951 8.94317 7.49413 4.22519 4.87645 1.60306 1.28349
threshold=0.041330007837114845 -1.6251074775035648 -1.3820833286411764 -0.80117781853492065 0.40417135514282182 -0.61690222555739138 -0.60998660387108117
decision_type=2 2 2 2 2 2 2
left_child=1 6 -3 5 -5 -2 -1
right_child=3 2 -4 4 -6 -7 -8
leaf_value=0.040538222133306767 0.013016340918413411 0.016286055019407102 -0.0077616877064555327 0.011488853746620018 0.032659075414490819 0.047690718435387476 0.0071820517440674215
leaf_weight=3.6079994142055511 3.2118409425020209 12.496571838855742 79.635676145553589 24.673656538128853 20.428692996501923 12.136569648981093 3.0051777511835089
leaf_count=10 10 41 290 80 60 33 10
internal_value=0.00955466 -0.00163915 -0.00426343 0.0277152 0.0217733 0.0422252 0.0294969
internal_weight=159.196 98.7454 92.1322 60.4508 45.1023 15.3484 6.61318
internal_count=534 351 331 183 140 43 20
is_linear=0
shrinkage=0.03


Tree=7
num_leaves=8
num_cat=0
split_feature=28 19 26 1 15 17 29
split_gain=40.1698 9.911 8.31664 7.45306 8.5989 6.41036 3.50163
threshold=-0.23023843826453741 -1.3820833286411764 -0.29913019763552501 -0.80117781853492065 -0.19650882988633531 -0.67311266194120578 -0.28612600214751899
decision_type=2 2 2 2 2 2 2
left_child=1 5 -3 6 -5 -1 -2
right_child=3 2 -4 4 -6 -7 -8
leaf_value=0.039110361533728377 0.045014769161366909 -0.003558398987674365 -0.028385629750919038 -0.011319859697088487 0.022858477043436635 -0.00064120003539501057 0.0049126177615377332
leaf_weight=5.8491659015417099 18.736658394336704 57.025886788964272 14.997393265366552 6.7122901380062094 46.093839585781097 6.8310325592756254 3.0424692630767813
leaf_count=17 52 205 59 25 142 24 10
internal_value=0.00930052 -0.0047457 -0.00916934 0.0252231 0.0182171 0.0185562 0.0402693
internal_weight=159.289 84.7035 72.0233 74.5853 52.8061 12.6802 21.7791
internal_count=534 305 264 229 167 41 62
is_linear=0
shrinkage=0.03


Tree=8
num_leaves=7
num_cat=0
split_feature=17 20 25 21 26 25
split_gain=32.4601 7.78788 6.62103 8.52188 6.28589 6.04278
threshold=0.041330007837114845 2.6332438420735254 0.40716047108022807 -0.13910702622901291 -0.33845110386569349 -1.2579604303553504
decision_type=2 2 2 2 2 2
left_child=1 4 5 -4 -1 -2
right_child=2 -3 3 -5 -6 -7
leaf_value=0.00072316550901452877 -0.012245374749181536 0.038268087343881277 -0.013179461865276359 0.026313779063411438 -0.017311603766762416 0.034952491988220084
leaf_weight=74.052281409502029 1.8253534138202656 3.2050177305936804 7.5490113049745586 10.292214959859846 21.383153587579727 41.059436365962029
leaf_count=261 7 9 27 31 81 118
internal_value=0.00902719 -0.00154852 0.0260985 0.00931306 -0.00336197 0.0325052
internal_weight=159.366 98.6405 60.726 17.8412 95.4354 42.8848
internal_count=534 351 183 58 342 125
is_linear=0
shrinkage=0.03


Tree=9
num_leaves=8
num_cat=0
split_feature=28 24 14 16 29 1 26
split_gain=36.2412 9.35725 8.61766 10.398 7.2866 5.27029 4.14464
threshold=-0.23023843826453741 -0.3482256852026902 -0.041823927384531424 -0.093737348445101176 -0.73920986114678 -0.52763991989613246 0.16689155788139884
decision_type=2 2 2 2 2 2 2
left_child=2 5 3 -1 -3 -2 -4
right_child=1 4 6 -5 -6 -7 -8
leaf_value=-0.010798446514174481 0.042014414583583591 0.034074941552658146 -0.037887659613118428 0.011527859227746944 -0.0087672225175669163 0.021161471558437082 0.0014449097149895932
leaf_weight=40.713625580072403 20.930311158299446 3.8837366998195639 8.2345273792743665 33.058095127344131 11.999641880393026 38.011898726224899 2.586184322834014
leaf_count=150 58 11 34 112 44 116 9
internal_value=0.00876374 0.0238492 -0.00459758 -0.000652993 0.00257308 0.0292939 -0.0283987
internal_weight=159.418 74.8256 84.5924 73.7717 15.8834 58.9422 10.8207
internal_count=534 229 305 262 55 174 43
is_linear=0
shrinkage=0.03


Tree=10
num_leaves=8
num_cat=0
split_feature=28 15 18 8 5 5 21
split_gain=44.5858 6.80175 8.07897 7.45499 6.05452 5.86265 3.21938
threshold=0.11880280633167246 -0.32084739469736479 -0.017993215713235467 -0.34721921854928889 1.3133500671789782 1.6639672613630176 -1.0829571236366622
decision_type=2 2 2 2 2 2 2
left_child=1 3 -3 -1 6 -6 -2
right_child=4 2 -4 -5 5 -7 -8
leaf_value=-0.013013360725055621 0.0069081429308181039 -0.028107809515876315 0.006497436961143536 0.0079226131577215218 -0.024817161593654779 0.024797532570430877 0.036207667989484396
leaf_weight=18.754132345318794 5.012770637869834 14.553995057940485 8.853791415691374 64.989158645272255 2.848019301891326 3.766628310084343 50.862506672739983
leaf_count=70 16 57 30 224 11 11 145
internal_value=0.0108042 -0.000910073 -0.01492 0.00302961 0.0307302 0.00179965 0.033905
internal_weight=169.641 107.151 23.4078 83.7433 62.4899 6.61465 55.8753
internal_count=564 381 87 294 183 22 161
is_linear=0
shrinkage=0.03


Tree=11
num_leaves=7
num_cat=0
split_feature=28 10 14 26 16 20
split_gain=41.9639 7.64118 12.6422 4.07507 3.16936 2.6516
threshold=0.11880280633167246 -1.0908872150833382 -0.047774079411862493 -0.48591486261484501 -0.10102162758403177 0.96215863617037767
decision_type=2 2 2 2 2 2
left_child=1 4 -3 -2 -1 -5
right_child=3 2 -4 5 -6 -7
leaf_value=0 -0.0047378987230287922 0.0011169650093755198 -0.028087644968806516 0.034155468202922451 0.036602915753068843 0.012818962037237461
leaf_weight=2.8631859123706818 2.2555232048034659 84.05800998210907 14.73948237299919 51.053445890545845 5.4708927720785123 9.262402802705763
leaf_count=10 8 297 58 146 16 29
internal_value=0.0104801 -0.000888365 -0.00338764 0.0297939 0.0249642 0.0312882
internal_weight=169.703 107.132 98.7975 62.5714 8.33408 60.3158
internal_count=564 381 355 183 26 175
is_linear=0
shrinkage=0.03


Tree=12
num_leaves=6
num_cat=0
split_feature=15 5 19 11 27
split_gain=33.7065 17.357 9.38603 3.97981 3.4726
threshold=0.94937789866014211 -1.0562651708687028 0.18201001515430645 1.6702088757943205 -1.3792699599388027
decision_type=2 2 2 2 2
left_child=1 -1 -3 4 -2
right_child=3 2 -4 -5 -6
leaf_value=0.039910715339218882 0.0077313879486287608 0.006078060784123528 -0.011014263989219276 0.0055180835203041479 0.038914165193363888
leaf_weight=9.0043650418519956 4.9804655015468589 65.922851368784904 49.689582854509354 5.6893877238035193 34.438309043645859
leaf_count=25 16 226 184 18 95
internal_value=0.0101739 0.00197214 -0.0012224 0.0321028 0.0354857
internal_weight=169.725 124.617 115.612 45.1082 39.4188
internal_count=564 435 410 129 111
is_linear=0
shrinkage=0.03


Tree=13
num_leaves=7
num_cat=0
split_feature=7 16 2 24 25 24
split_gain=32.3098 8.27905 7.80132 7.35962 5.28748 4.03119
threshold=0.057736655436429321 -1.3997372401673986 -0.48204698378542993 0.73820298253012473 -1.2519981447792308 1.1102486986611517
decision_type=2 2 2 2 2 2
left_child=1 5 -3 4 -2 -1
right_child=3 2 -4 -5 -6 -7
leaf_value=0.047441506067262294 -0.00056760770879453622 0.0085367399613206826 -0.0083146716591656934 -0.0060398531209051171 0.033076507730817953 0
leaf_weight=3.7378375977277747 3.9673533886671057 38.119960501790047 65.356754645705223 4.6653330326080313 51.051927164196968 2.8031096905469894
leaf_count=10 14 129 239 17 145 10
internal_value=0.00988982 0.000113093 -0.00199832 0.0274643 0.030523 0.0305443
internal_weight=169.702 110.018 103.477 59.6846 55.0193 6.54095
internal_count=564 388 368 176 159 20
is_linear=0
shrinkage=0.03


Tree=14
num_leaves=7
num_cat=0
split_feature=7 18 10 26 11 27
split_gain=30.3788 7.90154 8.06537 7.66212 4.23784 3.95685
threshold=0.057736655436429321 0.81928647889613382 -1.0908872150833382 -0.51246304309548518 -0.11095028810934367 -0.40148644745685474
decision_type=2 2 2 2 2 2
left_child=1 2 -1 -2 -3 -5
right_child=3 4 -4 5 -6 -7
leaf_value=0.033861376736473645 -0.007322811755940053 -0.0037268318266136004 0.00062468294406925007 0.015101635911329469 -0.039936046772616265 0.035324036201685394
leaf_weight=6.1409492641687384 4.6955737918615332 7.1178254932165146 91.554683551192284 16.50175853073597 5.1755674481391889 38.472194463014603
leaf_count=18 17 25 323 51 22 108
internal_value=0.0096078 0.00012378 0.00312698 0.0266512 -0.0215055 0.0297928
internal_weight=169.659 109.989 97.6956 59.6695 12.2934 54.974
internal_count=564 388 341 176 47 159
is_linear=0
shrinkage=0.03


end of trees

feature_importances:
hour_sin=9
hour_cos=8
returns_std_10=8
atr_14=7
rsi_7=6
high_low_range=6
momentum_5bar=5
upper_wick_ratio=5
macd_signal=4
bb_width=4
volatility_20bar=4
candle_body_ratio=4
lower_wick_ratio=4
momentum_10bar=3
vol_ratio=3
close_position_in_range=3
rsi_14=2
macd_hist_delta=2
momentum_1bar=2
momentum_3bar=2
volatility_5bar=2
atr_ratio=2
returns_skew_10=2
rsi_slope=1
volume_ratio=1

parameters:
[boosting: gbdt]
[objective: binary]
[metric: auc]
[tree_learner: serial]
[device_type: cpu]
[data_sample_strategy: bagging]
[data: ]
[valid: ]
[num_iterations: 300]
[learning_rate: 0.03]
[num_leaves: 20]
[num_threads: 0]
[seed: 0]
[deterministic: 0]
[force_col_wise: 0]
[force_row_wise: 0]
[histogram_pool_size: -1]
[max_depth: 3]
[min_data_in_leaf: 10]
[min_sum_hessian_in_leaf: 0.001]
[bagging_fraction: 0.7]
[pos_bagging_fraction: 1]
[neg_bagging_fraction: 1]
[bagging_freq: 5]
[bagging_seed: 3]
[bagging_by_query: 0]
[feature_fraction: 0.7]
[feature_fraction_bynode: 1]
[feature_fraction_seed: 2]
[extra_trees: 0]
[extra_seed: 6]
[early_stopping_round: 0]
[early_stopping_min_delta: 0]
[first_metric_only: 0]
[max_delta_step: 0]
[lambda_l1: 0.3]
[lambda_l2: 1]
[linear_lambda: 0]
[min_gain_to_split: 0]
[drop_rate: 0.1]
[max_drop: 50]
[skip_drop: 0.5]
[xgboost_dart_mode: 0]
[uniform_drop: 0]
[drop_seed: 4]
[top_rate: 0.2]
[other_rate: 0.1]
[min_data_per_group: 100]
[max_cat_threshold: 32]
[cat_l2: 10]
[cat_smooth: 10]
[max_cat_to_onehot: 4]
[top_k: 20]
[monotone_constraints: ]
[monotone_constraints_method: basic]
[monotone_penalty: 0]
[feature_contri: ]
[forcedsplits_filename: ]
[refit_decay_rate: 0.9]
[cegb_tradeoff: 1]
[cegb_penalty_split: 0]
[cegb_penalty_feature_lazy: ]
[cegb_penalty_feature_coupled: ]
[path_smooth: 0]
[interaction_constraints: ]
[verbosity: -1]
[saved_feature_importance_type: 0]
[use_quantized_grad: 0]
[num_grad_quant_bins: 4]
[quant_train_renew_leaf: 0]
[stochastic_rounding: 1]
[linear_tree: 0]
[max_bin: 255]
[max_bin_by_feature: ]
[min_data_in_bin: 3]
[bin_construct_sample_cnt: 200000]
[data_random_seed: 1]
[is_enable_sparse: 1]
[enable_bundle: 1]
[use_missing: 1]
[zero_as_missing: 0]
[feature_pre_filter: 1]
[pre_partition: 0]
[two_round: 0]
[header: 0]
[label_column: ]
[weight_column: ]
[group_column: ]
[ignore_column: ]
[categorical_feature: ]
[forcedbins_filename: ]
[precise_float_parser: 0]
[parser_config_file: ]
[objective_seed: 5]
[num_class: 1]
[is_unbalance: 0]
[scale_pos_weight: 1.59786]
[sigmoid: 1]
[boost_from_average: 1]
[reg_sqrt: 0]
[alpha: 0.9]
[fair_c: 1]
[poisson_max_delta_step: 0.7]
[tweedie_variance_power: 1.5]
[lambdarank_truncation_level: 30]
[lambdarank_norm: 1]
[label_gain: ]
[lambdarank_position_bias_regularization: 0]
[eval_at: ]
[multi_error_top_k: 1]
[auc_mu_weights: ]
[num_machines: 1]
[local_listen_port: 12400]
[time_out: 120]
[machine_list_filename: ]
[machines: ]
[gpu_platform_id: -1]
[gpu_device_id: -1]
[gpu_use_dp: 0]
[num_gpu: 1]

end of parameters

pandas_categorical:null
