tree
version=v4
num_class=1
num_tree_per_iteration=1
label_index=0
max_feature_idx=29
objective=binary sigmoid:1
feature_names=rsi_14 rsi_7 rsi_slope macd_hist macd_hist_delta macd_signal bb_position bb_width momentum_1bar momentum_3bar momentum_5bar momentum_10bar volume_ratio volume_trend volatility_5bar volatility_20bar vol_ratio atr_14 atr_ratio candle_body_ratio upper_wick_ratio lower_wick_ratio consec_direction close_vs_open hour_sin hour_cos returns_std_10 returns_skew_10 high_low_range close_position_in_range
feature_infos=[-2.330422297470363:2.7058114411311451] [-2.2910889852008598:2.2975359192073612] [-3.3561361104131051:3.4010263652945141] [-4.562343528760457:2.8825293369742901] [-7.1107126171091393:3.7915659902231087] [-3.3106296190316078:2.4612432964144584] [-3.0483862547443046:2.8318459030106471] [-1.1826492748214448:4.0993483341151693] [-7.3701367248491438:5.6658598925948205] [-5.5349242118146531:3.501836250635066] [-5.3143122378867718:3.7685316939270308] [-4.7531707926817743:3.1486835333909684] [-1.0121881276434994:10.832267654544275] [-1.8579975046874555:4.5688091039447816] [-1.5183713391964779:5.1386301856267105] [-1.4552901213810634:3.2774932392569869] [-2.1488077294579964:2.8519673141471142] [-1.2082783662677581:3.487059514062842] [-2.6815246382155205:3.0852667777410154] [-1.762957846456914:1.7232554880511393] [-1.0300845523391251:3.1343274000508963] [-1.013567631167565:3.0341985695717191] [-3.1886267562051902:5.2789640715019717] [-1.0325202569555032:0.96850400102426204] [-1.3649994505138758:1.4927561152454056] [-1.5141918350014001:1.306393752756001] [-1.3868929792994016:3.5986383862804323] [-3.0506667122126743:2.9368437436571515] [-1.3466573100918133:3.3659706491727897] [-1.7349546893708743:1.7498791125666537]
tree_sizes=967 970 977 967 872 961 875 990 959 995 780

Tree=0
num_leaves=8
num_cat=0
split_feature=7 26 24 8 17 1 24
split_gain=23.9441 12.3166 14.7078 9.4018 8.04252 7.77492 4.43765
threshold=0.29527138573477985 -0.4736442934219402 0.88344895905105336 0.94260340916406571 0.94798049976699317 0.91025939502697639 -0.62339583335777748
decision_type=2 2 2 2 2 2 2
left_child=1 5 -3 6 -5 -1 -2
right_child=3 2 -4 4 -6 -7 -8
leaf_value=-0.52696752637028588 -0.50652270980959646 -0.50338757207169571 -0.53404376046340074 -0.56258796452010418 -0.50102801238871042 -0.55304044885169001 -0.47602987424172927
leaf_weight=44.887876063585281 11.169502675533296 41.005366295576096 20.158737063407898 2.5650214850902548 3.1013441681861877 12.195511251688002 16.1712945997715
leaf_count=165 38 139 76 11 10 49 49
internal_value=-0.516225 -0.52278 -0.513525 -0.493931 -0.530828 -0.532669 -0.486872
internal_weight=151.255 118.247 61.1641 33.0072 5.66637 57.0834 27.3408
internal_count=537 429 215 108 21 214 87
is_linear=0
shrinkage=1


Tree=1
num_leaves=8
num_cat=0
split_feature=26 10 17 4 4 4 18
split_gain=21.8285 10.7529 8.4261 7.43843 9.44799 9.24845 1.41917
threshold=-0.4736442934219402 -1.1020236565347115 0.50692542334542345 0.32038310729114228 0.089846968460406115 0.65450030084990429 0.32569519558123666
decision_type=2 2 2 2 2 2 2
left_child=3 6 -3 4 -1 -5 -2
right_child=1 2 -4 5 -6 -7 -8
leaf_value=0.00059564056679713021 0.016056363826089066 0.010962433540474612 0.033167944618898944 0.035741505622066919 -0.032434304013590515 -0.007102111467634239 0.051757255583691188
leaf_weight=34.479252383112907 3.2297717928886405 54.102044582366943 22.916911751031876 8.9429385215044039 8.8755945414304716 7.2903131246566764 11.950922071933745
leaf_count=128 11 193 75 29 37 28 36
internal_value=0.0141364 0.0232034 0.0180255 0 -0.00654213 0.0166827 0.0461797
internal_weight=151.788 92.1997 77.019 59.5881 43.3548 16.2333 15.1807
internal_count=537 315 268 222 165 57 47
is_linear=0
shrinkage=0.03


Tree=2
num_leaves=8
num_cat=0
split_feature=27 17 24 20 2 1 21
split_gain=25.1054 16.5875 14.48 14.2797 9.5989 8.77842 6.79146
threshold=-0.19926210496651062 0.28512838212103098 0.7917295695545018 -0.44000604681089567 0.93216220470765554 -0.76493799653312011 -0.78029695034645774
decision_type=2 2 2 2 2 2 2
left_child=2 5 4 -3 -1 -2 -4
right_child=1 3 6 -5 -6 -7 -8
leaf_value=0.038267148231943014 -0.031932305061452955 -0.01215747861482146 0.025751819601758912 0.04814189204763137 -0.0112545703553063 -0.00038378627019051617 -0.0053737800964129704
leaf_weight=47.720945119857788 8.4369211047887784 4.4053868055343619 8.9742155969142932 9.9657092988491041 3.0730119347572318 54.0727329403162 15.619873136281965
leaf_count=153 35 17 30 30 12 201 59
internal_value=0.0136938 0.00144728 0.0258825 0.0294835 0.0349379 -0.00521935 0.0061945
internal_weight=152.269 76.8808 75.388 14.3711 50.794 62.5097 24.5941
internal_count=537 283 254 47 165 236 89
is_linear=0
shrinkage=0.03


Tree=3
num_leaves=8
num_cat=0
split_feature=27 17 24 20 15 1 21
split_gain=23.4372 15.5885 13.3892 13.3726 12.0956 8.38762 6.40459
threshold=-0.19926210496651062 0.28512838212103098 0.7917295695545018 -0.44000604681089567 -0.88409388488079965 -0.76493799653312011 -0.6907145862949029
decision_type=2 2 2 2 2 2 2
left_child=2 5 4 -3 -1 -2 -4
right_child=1 3 6 -5 -6 -7 -8
leaf_value=0 -0.031313113616449402 -0.011888529577265964 0.023754615270081117 0.046376051749404727 0.03969986765787268 -0.00037251768936618517 -0.0059990081149293734
leaf_weight=7.8426339030265799 8.3664847165346128 4.3927123248577109 9.8508256524801272 10.071221917867659 43.364212095737457 54.067462116479874 14.778101935982702
leaf_count=29 35 17 33 30 136 201 56
internal_value=0.013245 0.00139312 0.0249712 0.0284745 0.0336274 -0.00508887 0.0060129
internal_weight=152.734 76.8979 75.8358 14.4639 51.2068 62.4339 24.6289
internal_count=537 283 254 47 165 236 89
is_linear=0
shrinkage=0.03


Tree=4
num_leaves=7
num_cat=0
split_feature=7 2 0 4 0 4
split_gain=19.0662 15.028 10.8004 12.2557 9.47991 2.89114
threshold=0.29527138573477985 0.93216220470765554 0.30939680611444392 0.5181300770224283 0.18290945190913635 -0.54297485133664547
decision_type=2 2 2 2 2 2
left_child=2 5 4 -4 -1 -2
right_child=1 -3 3 -5 -6 -7
leaf_value=0.0095459697843825551 0.020257612714231578 -0.013894340525834927 -0.013712838565422998 0.022498947582862437 0.042964134948684583 0.047149876683538448
leaf_weight=67.784370541572571 8.8203919082880038 4.6510121524333945 33.271357610821724 10.062678948044775 8.0839176774024946 20.455333366990089
leaf_count=241 29 18 129 34 25 61
internal_value=0.0128196 0.0324118 0.00694527 -0.00478321 0.0137364 0.0402816
internal_weight=153.129 33.9267 119.202 43.334 75.8683 29.2757
internal_count=537 108 429 163 266 90
is_linear=0
shrinkage=0.03


Tree=5
num_leaves=8
num_cat=0
split_feature=26 13 24 12 7 0 6
split_gain=20.4873 11.4618 10.4892 9.07408 8.77998 6.72547 3.12987
threshold=-0.4736442934219402 -1.0239274334221311 1.4681744401809247 -0.54663960527678646 0.33470770090153773 0.32351329186894778 0.4381172477549648
decision_type=2 2 2 2 2 2 2
left_child=3 4 -3 6 -2 -5 -1
right_child=1 2 -4 5 -6 -7 -8
leaf_value=-0.033072561753881638 -0.025754976195582067 0.026658040514468882 -0.018471095516970754 0.012963213416611616 0.022200853619422346 -0.0086962435193546992 0
leaf_weight=8.9399144649505597 7.4997287690639478 72.256443575024605 4.0265766084194174 27.779069736599922 4.6767523884773254 22.052129060029984 4.0214237719774237
leaf_count=37 30 238 16 98 15 85 15
internal_value=0.0104195 0.019653 0.0239513 -0.00255129 -0.00636601 0.00321854 -0.0240203
internal_weight=151.252 88.4595 76.283 62.7925 12.1765 49.8312 12.9613
internal_count=534 299 254 235 45 183 52
is_linear=0
shrinkage=0.03


Tree=6
num_leaves=7
num_cat=0
split_feature=14 1 24 12 19 2
split_gain=16.481 14.3311 11.3095 8.77132 4.723 5.91848
threshold=0.066295942975790834 0.9018931680215071 -1.2501112551297782 0.20868318517718851 1.3839892164098186 -0.59583434057131868
decision_type=2 2 2 2 2 2
left_child=1 2 -1 -3 5 -2
right_child=4 3 -4 -5 -6 -7
leaf_value=-0.018919579009031146 0.0054204215728044063 -0.031385845215239204 0.013012036137416316 0.008940343672842516 -0.0012052898222095652 0.033805678968027976
leaf_weight=10.419996559619902 9.7527720928192121 13.99826964735985 73.564716532826424 6.1907664835453025 4.9749151915311804 32.670980393886566
leaf_count=41 34 58 258 22 18 103
internal_value=0.0100745 0.00322069 0.00876837 -0.0187571 0.0245741 0.0277626
internal_weight=151.572 104.174 83.9847 20.189 47.3987 42.4238
internal_count=534 379 299 80 155 137
is_linear=0
shrinkage=0.03


Tree=7
num_leaves=8
num_cat=0
split_feature=28 13 19 13 19 18 27
split_gain=19.1132 12.4428 10.7337 8.93389 8.49928 6.57774 3.91166
threshold=-0.11960116787129794 -0.67628535537336365 -1.2410184029401619 -1.0239274334221311 1.3092136468207236 -1.1643247393583056 0.44043322689345993
decision_type=2 2 2 2 2 2 2
left_child=1 6 -3 5 -5 -2 -1
right_child=3 2 -4 4 -6 -7 -8
leaf_value=-0.0088257007441667566 0.028228516572258586 0.033254142244452084 0.0018642716313680069 0.033220969517862547 -0.0044734881908418764 -0.016014991122279942 -0.038944981407150872
leaf_weight=14.512951895594599 3.6100233644247055 10.844334557652472 62.364693447947502 41.749123439192772 5.4359990358352652 7.7592905312776548 5.5805113315582267
leaf_count=55 11 35 227 132 20 30 24
internal_value=0.00975449 0.00116446 0.00702074 0.0230416 0.0286889 -9.26356e-05 -0.0190671
internal_weight=151.857 93.3025 73.209 58.5544 47.1851 11.3693 20.0935
internal_count=534 341 262 193 152 41 79
is_linear=0
shrinkage=0.03


Tree=8
num_leaves=8
num_cat=0
split_feature=26 4 17 19 19 4 25
split_gain=17.9153 12.589 11.14 7.15834 6.96461 8.04487 7.66038
threshold=-0.4736442934219402 -0.80209667119660566 1.5148047614702222 1.3092136468207236 -1.0594007341626435 0.32038310729114228 -0.3336156856016525
decision_type=2 2 2 2 2 2 2
left_child=4 3 -3 -2 6 -6 -1
right_child=1 2 -4 -5 5 -7 -8
leaf_value=0.035948024383927121 0.047755150789179621 0.0069429870657746577 0.043813972132164272 0 -0.017288919217415346 0.0089479739064866354 -0.0026726616658939726
leaf_weight=6.6269509047269848 15.414229258894922 62.55969662964344 7.6640828251838675 3.6395704001188269 31.454239085316658 14.305213615298269 10.451695889234541
leaf_count=21 45 219 22 13 124 51 39
internal_value=0.00944819 0.0180249 0.011652 0.0393115 -0.00268775 -0.00887838 0.0129748
internal_weight=152.116 89.2776 70.2238 19.0538 62.8381 45.7595 17.0786
internal_count=534 299 241 58 235 175 60
is_linear=0
shrinkage=0.03


Tree=9
num_leaves=8
num_cat=0
split_feature=28 13 4 13 18 26 12
split_gain=17.1729 11.6146 10.3754 8.27248 6.15534 4.34274 3.52782
threshold=-0.11960116787129794 -0.67628535537336365 -0.15224410295132859 -1.0239274334221311 -1.1643247393583056 -0.49016119218149518 -0.64296936881151379
decision_type=2 2 2 2 2 2 2
left_child=1 6 -3 4 -2 -5 -1
right_child=3 2 -4 5 -6 -7 -8
leaf_value=-0.034626934556904798 0.026783913974814159 0.019202407077630858 -0.0031301085380802235 0.00027160137087980295 -0.015911891697179111 0.030338570664761533 -0.0072849595407408919
leaf_weight=7.0789753347635296 3.6380066722631454 32.156813740730286 41.216929391026497 5.5009281635284415 7.7504835277795774 42.054533824324608 12.907768800854681
leaf_count=30 11 109 153 20 30 132 49
internal_value=0.00918072 0.00102246 0.00666293 0.0217197 -0.000485352 0.0271232 -0.0185864
internal_weight=152.304 93.3605 73.3737 58.944 11.3885 47.5555 19.9867
internal_count=534 341 262 193 41 152 79
is_linear=0
shrinkage=0.03


Tree=10
num_leaves=6
num_cat=0
split_feature=7 18 24 1 24
split_gain=20.3876 11.4391 16.3908 9.11595 1.28628
threshold=-0.89180516658702691 0.47402310407726139 -0.091679126401745817 0.74489823277934486 -0.06065657209673659
decision_type=2 2 2 2 2
left_child=4 3 -3 -2 -1
right_child=1 2 -4 -5 -6
leaf_value=-0.039608456049847765 0.011876950920349131 0.041236885023941662 0.0052809322924173424 -0.0081788027570672706 -0.0064516003739755867
leaf_weight=6.0493235141038895 80.838476255536079 24.705285385251045 22.277110531926155 25.831252828240395 2.6007699668407422
leaf_count=26 279 73 78 98 10
internal_value=0.00994494 0.0125732 0.024841 0.00690579 -0.0322736
internal_weight=162.302 153.652 46.9824 106.67 8.65009
internal_count=564 528 151 377 36
is_linear=0
shrinkage=0.03


end of trees

feature_importances:
macd_hist_delta=8
hour_sin=8
rsi_7=5
volume_trend=5
atr_14=5
candle_body_ratio=5
returns_std_10=5
bb_width=4
atr_ratio=4
rsi_14=3
rsi_slope=3
volume_ratio=3
returns_skew_10=3
upper_wick_ratio=2
lower_wick_ratio=2
high_low_range=2
bb_position=1
momentum_1bar=1
momentum_5bar=1
volatility_5bar=1
volatility_20bar=1
hour_cos=1

parameters:
[boosting: gbdt]
[objective: binary]
[metric: auc]
[tree_learner: serial]
[device_type: cpu]
[data_sample_strategy: bagging]
[data: ]
[valid: ]
[num_iterations: 300]
[learning_rate: 0.03]
[num_leaves: 20]
[num_threads: 0]
[seed: 0]
[deterministic: 0]
[force_col_wise: 0]
[force_row_wise: 0]
[histogram_pool_size: -1]
[max_depth: 3]
[min_data_in_leaf: 10]
[min_sum_hessian_in_leaf: 0.001]
[bagging_fraction: 0.7]
[pos_bagging_fraction: 1]
[neg_bagging_fraction: 1]
[bagging_freq: 5]
[bagging_seed: 3]
[bagging_by_query: 0]
[feature_fraction: 0.7]
[feature_fraction_bynode: 1]
[feature_fraction_seed: 2]
[extra_trees: 0]
[extra_seed: 6]
[early_stopping_round: 0]
[early_stopping_min_delta: 0]
[first_metric_only: 0]
[max_delta_step: 0]
[lambda_l1: 0.3]
[lambda_l2: 1]
[linear_lambda: 0]
[min_gain_to_split: 0]
[drop_rate: 0.1]
[max_drop: 50]
[skip_drop: 0.5]
[xgboost_dart_mode: 0]
[uniform_drop: 0]
[drop_seed: 4]
[top_rate: 0.2]
[other_rate: 0.1]
[min_data_per_group: 100]
[max_cat_threshold: 32]
[cat_l2: 10]
[cat_smooth: 10]
[max_cat_to_onehot: 4]
[top_k: 20]
[monotone_constraints: ]
[monotone_constraints_method: basic]
[monotone_penalty: 0]
[feature_contri: ]
[forcedsplits_filename: ]
[refit_decay_rate: 0.9]
[cegb_tradeoff: 1]
[cegb_penalty_split: 0]
[cegb_penalty_feature_lazy: ]
[cegb_penalty_feature_coupled: ]
[path_smooth: 0]
[interaction_constraints: ]
[verbosity: -1]
[saved_feature_importance_type: 0]
[use_quantized_grad: 0]
[num_grad_quant_bins: 4]
[quant_train_renew_leaf: 0]
[stochastic_rounding: 1]
[linear_tree: 0]
[max_bin: 255]
[max_bin_by_feature: ]
[min_data_in_bin: 3]
[bin_construct_sample_cnt: 200000]
[data_random_seed: 1]
[is_enable_sparse: 1]
[enable_bundle: 1]
[use_missing: 1]
[zero_as_missing: 0]
[feature_pre_filter: 1]
[pre_partition: 0]
[two_round: 0]
[header: 0]
[label_column: ]
[weight_column: ]
[group_column: ]
[ignore_column: ]
[categorical_feature: ]
[forcedbins_filename: ]
[precise_float_parser: 0]
[parser_config_file: ]
[objective_seed: 5]
[num_class: 1]
[is_unbalance: 0]
[scale_pos_weight: 1.55]
[sigmoid: 1]
[boost_from_average: 1]
[reg_sqrt: 0]
[alpha: 0.9]
[fair_c: 1]
[poisson_max_delta_step: 0.7]
[tweedie_variance_power: 1.5]
[lambdarank_truncation_level: 30]
[lambdarank_norm: 1]
[label_gain: ]
[lambdarank_position_bias_regularization: 0]
[eval_at: ]
[multi_error_top_k: 1]
[auc_mu_weights: ]
[num_machines: 1]
[local_listen_port: 12400]
[time_out: 120]
[machine_list_filename: ]
[machines: ]
[gpu_platform_id: -1]
[gpu_device_id: -1]
[gpu_use_dp: 0]
[num_gpu: 1]

end of parameters

pandas_categorical:null
