tree
version=v4
num_class=1
num_tree_per_iteration=1
label_index=0
max_feature_idx=29
objective=binary sigmoid:1
feature_names=rsi_14 rsi_7 rsi_slope macd_hist macd_hist_delta macd_signal bb_position bb_width momentum_1bar momentum_3bar momentum_5bar momentum_10bar volume_ratio volume_trend volatility_5bar volatility_20bar vol_ratio atr_14 atr_ratio candle_body_ratio upper_wick_ratio lower_wick_ratio consec_direction close_vs_open hour_sin hour_cos returns_std_10 returns_skew_10 high_low_range close_position_in_range
feature_infos=[-2.9992132380155381:2.3986833404765178] [-2.3776012691401709:2.3176633086799652] [-3.7657932852762608:2.8989087644846339] [-5.1613540802163502:3.0900064404241974] [-5.1523105018607609:4.5719723571308144] [-3.1659097865307868:1.9445733586491749] [-2.5209123799767839:2.4733720936684822] [-1.0577535210053064:5.0454428862925678] [-4.4600758275241503:4.9995546110482749] [-4.624473138285877:4.6387791389778599] [-4.6794920684841852:4.4372486460530451] [-5.8345342289268984:3.8434531303399049] [-1.1232918514750156:9.5852149178878676] [-1.7598075418539285:5.390630236441317] [-1.5196900782725635:4.2243632299896525] [-1.1008200523748637:3.4602793993511929] [-2.2308042239871493:2.7294847404757081] [-1.0170878585364083:4.1601130985152972] [-2.7842435850199667:3.4333821995618621] [-1.7536914360445066:1.9191363966719293] [-1.1928469207850341:3.1177609232407364] [-1.1175134322364069:3.173128208093245] [-4.8998813938272505:3.094107126529583] [-1.0261413653561171:0.97452459647502465] [-1.3176218032561726:1.5110071398644893] [-1.4994722949231454:1.3499896104989118] [-1.4546813616197758:3.7410033832697325] [-2.7882802512580187:3.5274111710544638] [-1.0363900536299255:4.6152166274666087] [-1.7419414530930801:1.7297189004159921]
tree_sizes=953 974 984 888 876 960 986 969 864

Tree=0
num_leaves=8
num_cat=0
split_feature=24 4 9 12 29 20 13
split_gain=16.2064 8.28053 9.38204 5.78919 6.81751 5.22371 2.48507
threshold=-0.77642369348283446 0.578659502172027 1.2593064883318543 0.10392927810382992 -0.54970410247865298 -1.0470919904696225 -0.80236889942998857
decision_type=2 2 2 2 2 2 2
left_child=1 6 -3 4 -2 -5 -1
right_child=3 2 -4 5 -6 -7 -8
leaf_value=0.19050286007034978 0.14751671554619125 0.12729361449104043 0.17796284974350776 0.12844220267030243 0.12772873498511875 0.15778136110569727 0.16478915328881497
leaf_weight=6.4426386058330527 23.309238344430923 8.7011881172656995 3.9384014010429373 6.0430262088775661 41.726925790309906 22.199204176664352 15.506437927484514
leaf_count=28 98 36 17 25 173 94 66
internal_value=0.146319 0.163496 0.144828 0.13975 0.134852 0.150763 0.17428
internal_weight=127.867 34.5887 12.6396 93.2784 65.0362 28.2422 21.9491
internal_count=537 147 53 390 271 119 94
is_linear=0
shrinkage=1


Tree=1
num_leaves=8
num_cat=0
split_feature=24 4 9 29 20 10 19
split_gain=15.3559 7.848 8.92238 4.20911 7.92365 4.68179 2.11467
threshold=-0.77642369348283446 0.578659502172027 1.2593064883318543 -0.2355978139643117 0.7227560881496341 -0.091609671352535435 -0.99514712834121599
decision_type=2 2 2 2 2 2 2
left_child=1 6 -3 5 -5 -2 -1
right_child=3 2 -4 4 -6 -7 -8
leaf_value=0.0016231995879854616 -0.0063499902470386576 -0.019504771320574318 0.029927944652372942 -0.019548208004394569 0.0061609530510645426 0.015768905968675487 0.030220900035014885
leaf_weight=3.5501621961593655 29.15995979309082 8.7131679058074933 3.9286334663629523 39.60201732814312 13.508082672953604 11.054635539650915 18.354506343603134
leaf_count=15 122 36 17 164 57 47 79
internal_value=-0.000996289 0.0157357 -0.00241532 -0.00738661 -0.01285 0 0.0262521
internal_weight=127.871 34.5465 12.6418 93.3247 53.1101 40.2146 21.9047
internal_count=537 147 53 390 221 169 94
is_linear=0
shrinkage=0.03


Tree=2
num_leaves=8
num_cat=0
split_feature=24 4 9 27 8 2 13
split_gain=14.5148 7.42255 8.48779 6.34921 7.67079 5.83833 2.43638
threshold=-0.77642369348283446 0.578659502172027 1.2593064883318543 -0.020565782028459264 0.20607295314251209 0.16928267994043725 -0.80236889942998857
decision_type=2 2 2 2 2 2 2
left_child=1 6 -3 4 -2 -5 -1
right_child=3 2 -4 5 -6 -7 -8
leaf_value=0.041549807133931201 -0.0046592746711547495 -0.018960078597101439 0.029280349518466406 -0.0077611173496352154 -0.029688328639804234 0.013653698683117235 0.016289594542202464
leaf_weight=6.4014317691326132 29.868048310279846 8.7231501191854459 3.9173433780670157 27.322301387786865 18.018173649907112 18.1585783213377 15.45085445046425
leaf_count=28 125 36 17 114 74 77 66
internal_value=-0.000950894 0.0153309 -0.00229978 -0.00715999 -0.0146757 0.00070508 0.0255776
internal_weight=127.86 34.4928 12.6405 93.3671 47.8862 45.4809 21.8523
internal_count=537 147 53 390 199 191 94
is_linear=0
shrinkage=0.03


Tree=3
num_leaves=7
num_cat=0
split_feature=24 27 8 8 20 13
split_gain=13.7681 5.99045 7.21515 5.71432 5.5567 3.71911
threshold=-0.77642369348283446 -0.020565782028459264 0.20607295314251209 -0.18271233406634887 -1.1216424495574298 -0.30447952386875754
decision_type=2 2 2 2 2 2
left_child=4 2 -2 -3 -1 -6
right_child=1 3 -4 -5 5 -7
leaf_value=-0.016759251649125204 -0.0045226273762400048 -0.011209677683173196 -0.028798072470816168 0.0098111328647817082 0.028574194380756153 0.006432810834490061
leaf_weight=3.37715259194374 29.877433478832245 19.222612470388412 18.048354148864746 26.253776922821999 16.653904274106029 14.40088279545307
leaf_count=14 125 80 74 111 72 61
internal_value=-0.000910801 -0.00695431 -0.0142502 0.000682098 0.0149628 0.0191084
internal_weight=127.834 93.4022 47.9258 45.4764 34.4319 31.0548
internal_count=537 390 199 191 147 133
is_linear=0
shrinkage=0.03


Tree=4
num_leaves=7
num_cat=0
split_feature=24 4 9 15 14 13
split_gain=13.0036 6.96771 8.01821 4.07203 5.15091 2.2967
threshold=-0.77642369348283446 0.578659502172027 1.2593064883318543 0.605097342836456 -0.3365732695586961 -0.80236889942998857
decision_type=2 2 2 2 2 2
left_child=1 5 -3 4 -2 -1
right_child=3 2 -4 -5 -6 -7
leaf_value=0.040076292249542657 -0.00098240704226018735 -0.018656485751599675 0.028279882066995211 0.023354977483533341 -0.015461207639071306 0.015509815025963386
leaf_weight=6.3466328233480445 47.7265355437994 8.7275755703449232 3.8959472477436057 2.7945057600736609 42.906922176480293 15.4042084813118
leaf_count=28 200 36 17 12 178 66
internal_value=-0.000887222 0.0145537 -0.00249756 -0.00675756 -0.00802898 0.0245201
internal_weight=127.802 34.3744 12.6235 93.428 90.6335 21.7508
internal_count=537 147 53 390 378 94
is_linear=0
shrinkage=0.03


Tree=5
num_leaves=8
num_cat=0
split_feature=17 29 2 6 10 6 19
split_gain=14.1253 6.71036 5.73619 5.22237 4.54079 4.81607 3.62872
threshold=0.34148037483345572 -0.2355978139643117 -1.172217069252981 1.5314333495753691 0.22206991757321667 0.86036445327354005 0.79479109907719214
decision_type=2 2 2 2 2 2 2
left_child=1 2 -1 -3 6 -6 -2
right_child=4 3 -4 -5 5 -7 -8
leaf_value=-0.022752184870550963 0.031523184532646985 -0.016492737925921742 0.0067021116553866462 0.020879207961501545 -0.012279168738041553 0.020352632131136555 0
leaf_weight=6.060114473104476 14.568179056048395 49.467889875173569 35.518240764737129 2.5603419989347449 8.1288163959979993 6.2511750161647788 4.481299251317977
leaf_count=25 63 205 150 11 34 27 19
internal_value=-0.000982146 -0.00702805 0.00176419 -0.0141249 0.0153982 0.00172212 0.0246722
internal_weight=127.036 93.6066 41.5784 52.0282 33.4295 14.38 19.0495
internal_count=534 391 175 216 143 61 82
is_linear=0
shrinkage=0.03


Tree=6
num_leaves=8
num_cat=0
split_feature=17 27 29 21 2 5 11
split_gain=13.3509 8.42891 10.8848 6.14286 4.43236 5.56646 3.55039
threshold=0.34148037483345572 0.42076680958817642 -0.54970410247865298 -0.58047186131922146 -0.085956928789186107 0.98291344748506659 0.7231255591293001
decision_type=2 2 2 2 2 2 2
left_child=1 2 -1 -3 5 -2 -6
right_child=4 3 -4 -5 6 -7 -8
leaf_value=0.0018799899795208367 0.034519615986992186 -0.012201698671719835 -0.022667939010350698 0.016001908856340962 -0.007784588480013916 -0.0029909879487964525 0.018678450687954005
leaf_weight=26.144156217575073 12.875927433371546 9.3580838888883608 38.84744992852211 19.28496527671814 9.7562785744667071 4.0167767852544776 6.726828232407569
leaf_count=110 56 39 160 82 41 17 29
internal_value=-0.000940848 -0.00681586 -0.0127778 0.00638301 0.0149983 0.0254286 0.00295096
internal_weight=127.01 93.6347 64.9916 28.643 33.3758 16.8927 16.4831
internal_count=534 391 270 121 143 73 70
is_linear=0
shrinkage=0.03


Tree=7
num_leaves=8
num_cat=0
split_feature=17 27 29 21 10 17 19
split_gain=12.6138 7.93128 10.2527 5.81241 4.24096 4.59664 3.43685
threshold=0.34148037483345572 0.42076680958817642 -0.54970410247865298 -0.58047186131922146 0.22206991757321667 0.87140761541797862 0.79479109907719214
decision_type=2 2 2 2 2 2 2
left_child=1 2 -1 -3 6 -6 -2
right_child=4 3 -4 -5 5 -7 -8
leaf_value=0.0018258969429452059 0.030277064671720706 -0.011861875239478284 -0.021986973293750284 0.015562987686601399 -0.01652473949585187 0.015527985160770169 0
leaf_weight=26.140808776021004 14.489014744758608 9.365918383002283 38.879538521170616 19.262534350156784 5.9779711067676535 8.3774460107088071 4.4730859100818625
leaf_count=110 63 39 160 82 25 36 19
internal_value=-0.000904478 -0.00661274 -0.0123943 0.00618953 0.0146032 0.00138737 0.0235868
internal_weight=126.966 93.6488 65.0203 28.6285 33.3175 14.3554 18.9621
internal_count=534 391 270 121 143 61 82
is_linear=0
shrinkage=0.03


Tree=8
num_leaves=7
num_cat=0
split_feature=17 27 29 21 19 19
split_gain=11.9171 7.46407 9.66116 5.50029 3.43762 4.19602
threshold=0.34148037483345572 0.42076680958817642 -0.54970410247865298 -0.58047186131922146 -1.4830903300667966 0.62538514596897998
decision_type=2 2 2 2 2 2
left_child=1 2 -1 -3 -2 -6
right_child=4 3 -4 -5 5 -7
leaf_value=0.001773356971954158 -0.010676659257391627 -0.011532484292644004 -0.021332144379309734 0.015137442365760393 0.024604318586140799 0
leaf_weight=26.137513846158981 3.3505458235740653 9.3728780746459979 38.901162818074226 19.238401830196381 20.969355598092083 8.93755856156349
leaf_count=110 14 39 160 82 91 38
internal_value=-0.000869726 -0.00641649 -0.0120241 0.00600219 0.0142181 0.0175535
internal_weight=126.907 93.65 65.0387 28.6113 33.2575 29.9069
internal_count=534 391 270 121 143 129
is_linear=0
shrinkage=0.03


end of trees

feature_importances:
close_position_in_range=6
atr_14=5
candle_body_ratio=5
hour_sin=5
returns_skew_10=5
macd_hist_delta=4
momentum_3bar=4
volume_trend=4
rsi_slope=3
momentum_1bar=3
momentum_5bar=3
upper_wick_ratio=3
lower_wick_ratio=3
bb_position=2
macd_signal=1
momentum_10bar=1
volume_ratio=1
volatility_5bar=1
volatility_20bar=1

parameters:
[boosting: gbdt]
[objective: binary]
[metric: auc]
[tree_learner: serial]
[device_type: cpu]
[data_sample_strategy: bagging]
[data: ]
[valid: ]
[num_iterations: 300]
[learning_rate: 0.03]
[num_leaves: 20]
[num_threads: 0]
[seed: 0]
[deterministic: 0]
[force_col_wise: 0]
[force_row_wise: 0]
[histogram_pool_size: -1]
[max_depth: 3]
[min_data_in_leaf: 10]
[min_sum_hessian_in_leaf: 0.001]
[bagging_fraction: 0.7]
[pos_bagging_fraction: 1]
[neg_bagging_fraction: 1]
[bagging_freq: 5]
[bagging_seed: 3]
[bagging_by_query: 0]
[feature_fraction: 0.7]
[feature_fraction_bynode: 1]
[feature_fraction_seed: 2]
[extra_trees: 0]
[extra_seed: 6]
[early_stopping_round: 0]
[early_stopping_min_delta: 0]
[first_metric_only: 0]
[max_delta_step: 0]
[lambda_l1: 0.3]
[lambda_l2: 1]
[linear_lambda: 0]
[min_gain_to_split: 0]
[drop_rate: 0.1]
[max_drop: 50]
[skip_drop: 0.5]
[xgboost_dart_mode: 0]
[uniform_drop: 0]
[drop_seed: 4]
[top_rate: 0.2]
[other_rate: 0.1]
[min_data_per_group: 100]
[max_cat_threshold: 32]
[cat_l2: 10]
[cat_smooth: 10]
[max_cat_to_onehot: 4]
[top_k: 20]
[monotone_constraints: ]
[monotone_constraints_method: basic]
[monotone_penalty: 0]
[feature_contri: ]
[forcedsplits_filename: ]
[refit_decay_rate: 0.9]
[cegb_tradeoff: 1]
[cegb_penalty_split: 0]
[cegb_penalty_feature_lazy: ]
[cegb_penalty_feature_coupled: ]
[path_smooth: 0]
[interaction_constraints: ]
[verbosity: -1]
[saved_feature_importance_type: 0]
[use_quantized_grad: 0]
[num_grad_quant_bins: 4]
[quant_train_renew_leaf: 0]
[stochastic_rounding: 1]
[linear_tree: 0]
[max_bin: 255]
[max_bin_by_feature: ]
[min_data_in_bin: 3]
[bin_construct_sample_cnt: 200000]
[data_random_seed: 1]
[is_enable_sparse: 1]
[enable_bundle: 1]
[use_missing: 1]
[zero_as_missing: 0]
[feature_pre_filter: 1]
[pre_partition: 0]
[two_round: 0]
[header: 0]
[label_column: ]
[weight_column: ]
[group_column: ]
[ignore_column: ]
[categorical_feature: ]
[forcedbins_filename: ]
[precise_float_parser: 0]
[parser_config_file: ]
[objective_seed: 5]
[num_class: 1]
[is_unbalance: 0]
[scale_pos_weight: 0.922619]
[sigmoid: 1]
[boost_from_average: 1]
[reg_sqrt: 0]
[alpha: 0.9]
[fair_c: 1]
[poisson_max_delta_step: 0.7]
[tweedie_variance_power: 1.5]
[lambdarank_truncation_level: 30]
[lambdarank_norm: 1]
[label_gain: ]
[lambdarank_position_bias_regularization: 0]
[eval_at: ]
[multi_error_top_k: 1]
[auc_mu_weights: ]
[num_machines: 1]
[local_listen_port: 12400]
[time_out: 120]
[machine_list_filename: ]
[machines: ]
[gpu_platform_id: -1]
[gpu_device_id: -1]
[gpu_use_dp: 0]
[num_gpu: 1]

end of parameters

pandas_categorical:null
