tree
version=v4
num_class=1
num_tree_per_iteration=1
label_index=0
max_feature_idx=29
objective=binary sigmoid:1
feature_names=rsi_14 rsi_7 rsi_slope macd_hist macd_hist_delta macd_signal bb_position bb_width momentum_1bar momentum_3bar momentum_5bar momentum_10bar volume_ratio volume_trend volatility_5bar volatility_20bar vol_ratio atr_14 atr_ratio candle_body_ratio upper_wick_ratio lower_wick_ratio consec_direction close_vs_open hour_sin hour_cos returns_std_10 returns_skew_10 high_low_range close_position_in_range
feature_infos=[-2.4200829075383905:2.3254463877275184] [-2.2788726901765828:2.1917984118897689] [-3.0250974133177202:2.9171547142644703] [-3.9442705918622516:2.7369443395613038] [-4.9475107064125199:4.2596487993045535] [-2.9253287554411842:3.268489804372567] [-2.8703672674943972:2.6122634496150425] [-1.3684209741189615:4.5145226376032062] [-5.2620039636688514:5.2178976813368925] [-5.5758610870992209:4.680183730756112] [-5.3994352518854836:4.2196196001132193] [-4.3856859918860218:3.8097079914906615] [-1.0513957212224423:8.9511150001933277] [-1.6901678451684374:3.6949296117300894] [-1.4201658122857184:5.5280189553089221] [-1.6669751400283004:3.9491680341463273] [-2.126475846969115:2.7606438282377459] [-1.5784244563875751:4.6253597221362979] [-2.3552655280118127:3.1382032404223152] [-1.7683717967973569:2.0530006000007135] [-1.2467567486493374:3.2723778575682485] [-1.2592235118610058:3.0624657174126684] [-3.4814931857016047:4.3430748326681643] [-0.99775532825800817:1.0022497216285398] [-1.4080175703620881:1.4227358072799696] [-1.426143321339409:1.4002759271338339] [-1.4654363583331147:5.0430965982385949] [-3.0640153984378324:2.8817527213390615] [-1.5772941654972903:3.4385236814649391] [-1.811634090070908:1.6447708067395919]
tree_sizes=860

Tree=0
num_leaves=7
num_cat=0
split_feature=1 11 16 1 29 20
split_gain=14.6053 9.68685 10.6855 5.62677 4.14925 2.99417
threshold=-1.4109409370919856 1.0307366820110879 -1.2602330941760507 1.5763520728120719 -1.5144203616232879 0.17659355594888768
decision_type=2 2 2 2 2 2
left_child=4 2 -2 -3 5 -1
right_child=1 3 -4 -5 -6 -7
leaf_value=-0.68208040019248561 -0.66400633471470072 -0.73455005871515089 -0.69652668153625952 -0.69487268238096422 -0.74168647332005688 -0.72425203540039551
leaf_weight=1.9943504780530927 9.7501578927040082 7.7558074146509153 74.898940175771713 4.4318899512290955 7.97740191221237 2.4375394731760025
leaf_count=9 44 35 338 20 36 11
internal_value=-0.700117 -0.69607 -0.692394 -0.720135 -0.729661 -0.704047
internal_weight=109.246 96.8368 84.6491 12.1877 12.4093 4.43189
internal_count=493 437 382 55 56 20
is_linear=0
shrinkage=1


end of trees

feature_importances:
rsi_7=2
momentum_10bar=1
vol_ratio=1
upper_wick_ratio=1
close_position_in_range=1

parameters:
[boosting: gbdt]
[objective: binary]
[metric: binary_logloss]
[tree_learner: serial]
[device_type: cpu]
[data_sample_strategy: bagging]
[data: ]
[valid: ]
[num_iterations: 300]
[learning_rate: 0.03]
[num_leaves: 20]
[num_threads: 0]
[seed: 0]
[deterministic: 0]
[force_col_wise: 0]
[force_row_wise: 0]
[histogram_pool_size: -1]
[max_depth: 3]
[min_data_in_leaf: 8]
[min_sum_hessian_in_leaf: 0.001]
[bagging_fraction: 0.7]
[pos_bagging_fraction: 1]
[neg_bagging_fraction: 1]
[bagging_freq: 5]
[bagging_seed: 3]
[bagging_by_query: 0]
[feature_fraction: 0.7]
[feature_fraction_bynode: 1]
[feature_fraction_seed: 2]
[extra_trees: 0]
[extra_seed: 6]
[early_stopping_round: 0]
[early_stopping_min_delta: 0]
[first_metric_only: 0]
[max_delta_step: 0]
[lambda_l1: 0.2]
[lambda_l2: 0.8]
[linear_lambda: 0]
[min_gain_to_split: 0]
[drop_rate: 0.1]
[max_drop: 50]
[skip_drop: 0.5]
[xgboost_dart_mode: 0]
[uniform_drop: 0]
[drop_seed: 4]
[top_rate: 0.2]
[other_rate: 0.1]
[min_data_per_group: 100]
[max_cat_threshold: 32]
[cat_l2: 10]
[cat_smooth: 10]
[max_cat_to_onehot: 4]
[top_k: 20]
[monotone_constraints: ]
[monotone_constraints_method: basic]
[monotone_penalty: 0]
[feature_contri: ]
[forcedsplits_filename: ]
[refit_decay_rate: 0.9]
[cegb_tradeoff: 1]
[cegb_penalty_split: 0]
[cegb_penalty_feature_lazy: ]
[cegb_penalty_feature_coupled: ]
[path_smooth: 0]
[interaction_constraints: ]
[verbosity: -1]
[saved_feature_importance_type: 0]
[use_quantized_grad: 0]
[num_grad_quant_bins: 4]
[quant_train_renew_leaf: 0]
[stochastic_rounding: 1]
[linear_tree: 0]
[max_bin: 255]
[max_bin_by_feature: ]
[min_data_in_bin: 3]
[bin_construct_sample_cnt: 200000]
[data_random_seed: 1]
[is_enable_sparse: 1]
[enable_bundle: 1]
[use_missing: 1]
[zero_as_missing: 0]
[feature_pre_filter: 1]
[pre_partition: 0]
[two_round: 0]
[header: 0]
[label_column: ]
[weight_column: ]
[group_column: ]
[ignore_column: ]
[categorical_feature: ]
[forcedbins_filename: ]
[precise_float_parser: 0]
[parser_config_file: ]
[objective_seed: 5]
[num_class: 1]
[is_unbalance: 0]
[scale_pos_weight: 1]
[sigmoid: 1]
[boost_from_average: 1]
[reg_sqrt: 0]
[alpha: 0.9]
[fair_c: 1]
[poisson_max_delta_step: 0.7]
[tweedie_variance_power: 1.5]
[lambdarank_truncation_level: 30]
[lambdarank_norm: 1]
[label_gain: ]
[lambdarank_position_bias_regularization: 0]
[eval_at: ]
[multi_error_top_k: 1]
[auc_mu_weights: ]
[num_machines: 1]
[local_listen_port: 12400]
[time_out: 120]
[machine_list_filename: ]
[machines: ]
[gpu_platform_id: -1]
[gpu_device_id: -1]
[gpu_use_dp: 0]
[num_gpu: 1]

end of parameters

pandas_categorical:null
