tree
version=v4
num_class=1
num_tree_per_iteration=1
label_index=0
max_feature_idx=29
objective=binary sigmoid:1
feature_names=rsi_14 rsi_7 rsi_slope macd_hist macd_hist_delta macd_signal bb_position bb_width momentum_1bar momentum_3bar momentum_5bar momentum_10bar volume_ratio volume_trend volatility_5bar volatility_20bar vol_ratio atr_14 atr_ratio candle_body_ratio upper_wick_ratio lower_wick_ratio consec_direction close_vs_open hour_sin hour_cos returns_std_10 returns_skew_10 high_low_range close_position_in_range
feature_infos=[-2.7154776706123327:2.3973136903590331] [-2.2342109219927688:2.1669634661907184] [-3.0406522282484016:2.8972870840148808] [-4.1380837172653901:2.8789631466880636] [-4.8813663743841218:3.7429162649868757] [-2.7280694009153712:2.6877693993888849] [-2.4517762336707132:2.6920274367284911] [-1.4350432071794124:4.3748731219359849] [-5.7032357910443112:4.6189386752489536] [-5.6754553868532094:4.1102589281046704] [-4.760707235839603:3.7269601345643579] [-4.0658422335214368:3.2815234742138082] [-1.1309186880952629:6.4080940392828794] [-1.6517094148336862:3.0170993216986486] [-1.4510428943212945:5.0036529008762054] [-1.930677082959368:3.4542810104019215] [-1.8781773055806228:2.7997861312846339] [-1.8366277280880554:3.8980248094463836] [-2.5593325445086195:3.1792674436257462] [-1.7562278548254817:2.1022512715201143] [-1.302144436980091:3.342809322567506] [-1.2561648636383476:3.0645822953812818] [-3.5732537964073741:4.322112910508384] [-1.0283342182227657:0.97244648897152841] [-1.4038036945173586:1.4311626579471601] [-1.4054817488238764:1.4167576909463526] [-1.6677412835636123:4.5434722318250707] [-3.0494619212604612:2.9037057009662064] [-1.680149060380717:3.9749179944313431] [-1.7615968156638298:1.7764118663237107]
tree_sizes=967 663 671 880 990 989 962 956 961 882 965 882 979 675 774 983 988 986 986 879 882 980 881 982 850 985 991 947 677 959 987 881 892 988 889 955 992 982 983 985 971 989 963 674 964 763 756 672 758 981 990 963 996 969 985 973 988 973 969 993 984 963 968 991 882 761 879 989 867 994 853 878 986 882 767 989 987 983 989 985 881 776 987 885 861 982 988 987 989 880 970 986 987 986 980 881 879 978 880 883 878 759

Tree=0
num_leaves=8
num_cat=0
split_feature=5 29 22 29 24 17 14
split_gain=5.38503 7.16974 8.24834 5.72753 3.75705 5.75928 4.14386
threshold=0.14594797600192341 1.0924012334799322 0.59374529890927641 1.5900317083691025 -1.235759749484139 0.44014532666525519 -0.61066107015841908
decision_type=2 2 2 2 2 2 2
left_child=1 2 -1 -3 6 -6 -2
right_child=4 3 -4 -5 5 -7 -8
leaf_value=-0.64186142590387818 -0.64204003267429566 -0.60087836830848396 -0.66934171758597627 -0.6577151064623088 -0.65919398558985942 -0.63295048650481311 -0.6812738770510991
leaf_weight=35.588439077138901 2.4776761382818213 4.5048657059669486 12.613623976707457 1.8019462823867796 36.714655503630638 8.5592448413372022 9.4602179825305921
leaf_count=158 11 20 56 8 163 38 42
internal_value=-0.651677 -0.645032 -0.649349 -0.616836 -0.658112 -0.653867 -0.672579
internal_weight=111.721 54.5089 48.2021 6.30681 57.2118 45.2739 11.9379
internal_count=496 242 214 28 254 201 53
is_linear=0
shrinkage=1


Tree=1
num_leaves=5
num_cat=0
split_feature=14 24 3 20
split_gain=5.08445 4.66159 5.58441 4.89003
threshold=2.4124892913277218 1.0000000180025095e-35 -0.82825813079183541 -0.67050533248688782
decision_type=2 2 2 2
left_child=1 3 -3 -1
right_child=-2 2 -4 -5
leaf_value=-0.020707004204459287 0.036515261363887323 0.024195887632449439 0 -0.0012939122878330412
leaf_weight=16.626569420099258 2.4868269115686408 9.9316573292016965 44.601796880364418 38.052324891090393
leaf_count=74 11 44 198 169
internal_value=-0.000190184 -0.00133999 0.00476581 -0.0075186
internal_weight=111.699 109.212 54.5335 54.6789
internal_count=496 485 242 243
is_linear=0
shrinkage=0.03


Tree=2
num_leaves=5
num_cat=0
split_feature=27 0 10 1
split_gain=7.87173 4.30584 3.92484 3.73615
threshold=-2.262894878851355 -1.6852997758937505 -1.5786232134140117 1.8044888993935999
decision_type=2 2 2 2
left_child=-1 2 -2 -3
right_child=1 3 -4 -5
leaf_value=0.049023019193098601 -0.006757204999807114 -0.0017702931890041511 0.042103720568468714 -0.033474457940366603
leaf_weight=2.0465531200170508 1.8166773766279218 102.15759120881557 2.9524477720260611 2.7009387314319602
leaf_count=9 8 454 13 12
internal_value=-0.000174262 -0.00149552 0.024117 -0.00289098
internal_weight=111.674 109.628 4.76913 104.859
internal_count=496 487 21 466
is_linear=0
shrinkage=0.03


Tree=3
num_leaves=7
num_cat=0
split_feature=27 6 5 28 21 11
split_gain=7.61764 9.76733 5.32103 6.10544 4.59229 4.25327
threshold=-1.1064618508096731 0.19366064655923432 -1.2787983677726775 0.72643270308469232 1.3119891903802805 -0.93551165157454819
decision_type=2 2 2 2 2 2
left_child=1 5 3 -2 -4 -1
right_child=2 -3 4 -5 -6 -7
leaf_value=0.028071424054560132 0.035323783028373468 0.056389265745807896 -0.0079470383834179276 -0.0049259616581185765 0.011842393681631671 -0.01811345352640617
leaf_weight=2.0434104353189468 5.8676563352346403 3.8808201551437378 78.478274509310722 6.1059603542089462 11.234505638480185 4.0394525676965696
leaf_count=9 26 17 349 27 50 18
internal_value=-0.000159132 0.0237937 -0.00273209 0.0153056 -0.0053198 -0.000267421
internal_weight=111.65 9.96368 101.686 11.9736 89.7128 6.08286
internal_count=496 44 452 53 399 27
is_linear=0
shrinkage=0.03


Tree=4
num_leaves=8
num_cat=0
split_feature=5 0 4 19 2 24 1
split_gain=4.70716 6.25604 6.61972 6.06248 3.86314 4.43776 3.67445
threshold=0.14594797600192341 0.54179687804454957 -0.40488401373265287 -1.0610215256788249 -1.1297872816395225 1.0000000180025095e-35 -0.64467610625482297
decision_type=2 2 2 2 2 2 2
left_child=1 3 -3 -1 6 -6 -2
right_child=4 2 -4 -5 5 -7 -8
leaf_value=-0.021340706429124803 -0.01008057122398715 -0.014672510245305978 0.034593019471214695 0.0061142310367008545 -0.017097238883896637 0.0011785750570758907 0.024849546677226057
leaf_weight=8.3397661894559842 3.8036368787288666 2.4896737933158883 9.9888853132724726 33.882546454668045 28.382902756333351 19.108289435505867 5.6072076559066755
leaf_count=37 17 11 44 150 127 85 25
internal_value=-0.000130907 0.00605325 0.0240201 0.000255868 -0.00618132 -0.00972193 0.0104603
internal_weight=111.603 54.7009 12.4786 42.2223 56.902 47.4912 9.41084
internal_count=496 242 55 187 254 212 42
is_linear=0
shrinkage=0.03


Tree=5
num_leaves=8
num_cat=0
split_feature=2 8 8 12 25 7 13
split_gain=6.18498 5.94863 6.34981 6.28725 5.089 10.4831 7.85053
threshold=0.074047839631411025 -0.62578845485931278 -0.16066119581139063 -0.38277705856235361 0.097929616460087188 -0.87075265823364945 -1.0624245072504226
decision_type=2 2 2 2 2 2 2
left_child=1 3 -3 -1 5 -2 -6
right_child=4 2 -4 -5 6 -7 -8
leaf_value=0.039166397834305686 0.061130125320730533 -0.027854974562696113 -0.0025690302919040651 -0.00094330721841649485 0.031499600925788941 0.0092857882279910424 -0.01026912304307019
leaf_weight=3.8130577504634884 3.4054006487131145 13.479886859655378 26.042101845145226 13.538676559925078 4.2680402845144298 27.527657970786095 19.104064896702766
leaf_count=17 15 60 116 60 19 122 85
internal_value=0.00151629 -0.00529831 -0.0117237 0.008878 0.00873539 0.0165796 -0.00160334
internal_weight=111.179 56.8737 39.522 17.3517 54.3052 30.9331 23.3721
internal_count=494 253 176 77 241 137 104
is_linear=0
shrinkage=0.03


Tree=6
num_leaves=8
num_cat=0
split_feature=22 5 5 21 27 29 3
split_gain=8.35266 8.84485 7.22588 7.52294 4.78386 4.45181 3.69747
threshold=-0.72214915224335008 0.72654038285382161 0.17537075191431045 -1.1030995983692213 1.550708994133654 -1.4446242349160734 -0.62351678647898934
decision_type=2 2 2 2 2 2 2
left_child=1 5 3 -2 -4 -1 -3
right_child=2 6 4 -5 -6 -7 -8
leaf_value=0 -0.016114245402361792 -0.017333544532556932 -0.0068321049577137064 0.018676980456879298 0.027040999828738178 -0.032235826203238067 0.025048291365112028
leaf_weight=5.2101811170578047 5.6596547961235038 1.7862076312303541 35.477668508887291 40.419779598712921 3.3517816364765158 13.697193413972855 5.5956129729747763
leaf_count=23 25 8 159 178 15 61 25
internal_value=0.00148868 -0.012974 0.00611587 0.0140737 -0.0032699 -0.0236879 0.0133676
internal_weight=111.198 26.2892 84.9089 46.0794 38.8295 18.9074 7.38182
internal_count=494 117 377 203 174 84 33
is_linear=0
shrinkage=0.03


Tree=7
num_leaves=8
num_cat=0
split_feature=22 5 5 21 15 27 29
split_gain=7.89664 8.40466 6.75065 7.07987 4.71476 4.54019 4.27775
threshold=-0.72214915224335008 0.72654038285382161 0.17537075191431045 -1.1030995983692213 -0.72219363257333258 1.339461005996391 -1.4446242349160734
decision_type=2 2 2 2 2 2 2
left_child=1 6 3 -2 -3 -4 -1
right_child=2 4 5 -5 -6 -7 -8
leaf_value=0 -0.015760481852752823 -0.019678097775432814 -0.00713844032277898 0.01802761265117838 0.027005920753568294 0.022557192284589873 -0.031639200166042644
leaf_weight=5.2101811170578047 5.631479710340499 2.0150495916604996 34.28551559150219 40.644764587283134 5.4012465924024573 4.4933841079473487 13.554079860448837
leaf_count=23 25 9 154 178 24 20 61
internal_value=0.00143849 -0.01266 0.0059255 0.0135904 0.0129104 -0.00315956 -0.0231876
internal_weight=111.236 26.1806 85.0551 46.2762 7.4163 38.7789 18.7643
internal_count=494 117 377 203 33 174 84
is_linear=0
shrinkage=0.03


Tree=8
num_leaves=8
num_cat=0
split_feature=22 5 5 21 15 27 29
split_gain=7.46626 7.98766 6.31053 6.66565 4.47031 4.31364 4.11226
threshold=-0.72214915224335008 0.72654038285382161 0.17537075191431045 -1.1030995983692213 -0.72219363257333258 1.550708994133654 -1.4446242349160734
decision_type=2 2 2 2 2 2 2
left_child=1 6 3 -2 -3 -4 -1
right_child=2 4 5 -5 -6 -7 -8
leaf_value=0 -0.01541474764616226 -0.019345785878425462 -0.0064778038994997168 0.017406717113205114 0.026106873232809226 0.025506630743660854 -0.031061536770973897
leaf_weight=5.2101811170578047 5.6034254133701316 2.002111941576004 35.325108543038368 40.856948494911194 5.4464772045612326 3.404456064105033 13.409048467874527
leaf_count=23 25 9 159 178 24 15 61
internal_value=0.00138901 -0.0123562 0.0057406 0.0131274 0.0124709 -0.00305518 -0.0227018
internal_weight=111.258 26.0678 85.1899 46.4604 7.44859 38.7296 18.6192
internal_count=494 117 377 203 33 174 84
is_linear=0
shrinkage=0.03


Tree=9
num_leaves=7
num_cat=0
split_feature=1 13 1 13 21 21
split_gain=7.38171 6.36987 8.16474 7.57751 1.49973 2.41004
threshold=-1.4133927158422142 -0.23228556549544641 -1.1693933626058999 -0.79575242958565007 0.099281523757810838 -1.0701806505376037
decision_type=2 2 2 2 2 2
left_child=4 3 -3 -2 5 -1
right_child=1 2 -4 -5 -6 -7
leaf_value=-0.029186596094077037 0.0087351837261004581 0.048912417685736377 0.0069781498452874593 -0.014297181378754235 -0.036672311504490289 0.0090883244447051495
leaf_weight=1.795255586504936 22.420874118804932 3.9122992753982535 48.945991456508636 27.672979593276978 4.0293169170618057 2.485530272126196
leaf_count=8 100 17 216 124 18 11
internal_value=0.00134203 0.0036566 0.0108767 -0.00389526 -0.0244771 -0.0078505
internal_weight=111.262 102.952 52.8583 50.0939 8.3101 4.28079
internal_count=494 457 233 224 37 19
is_linear=0
shrinkage=0.03


Tree=10
num_leaves=8
num_cat=0
split_feature=9 5 8 24 13 13 11
split_gain=5.68414 10.7881 11.8043 5.53699 4.08715 8.95547 5.6633
threshold=0.33345610053452973 -0.019806687210272771 1.1495804898325459 0.15254274015802738 -0.32424919697268723 0.16382153347734338 -0.012751900833837718
decision_type=2 2 2 2 2 2 2
left_child=4 2 -2 -3 6 -6 -1
right_child=1 3 -4 -5 5 -7 -8
leaf_value=-0.025542409594748683 0.036965914280300223 -0.015544406859545171 -0.01775044057445628 0.01139191408847433 0.018892562804915206 -0.0095279291826644331 0
leaf_weight=15.125861808657648 15.256860405206682 14.87427067756653 3.865691825747489 11.277753800153731 15.389274373650549 25.087264776229858 15.319137275218962
leaf_count=68 66 67 17 50 68 111 69
internal_value=0.000386373 0.00865293 0.025335 -0.00371247 -0.00484479 0.00128899 -0.0130159
internal_weight=116.196 45.2746 19.1226 26.152 70.9215 40.4765 30.445
internal_count=516 200 83 117 316 179 137
is_linear=0
shrinkage=0.03


Tree=11
num_leaves=7
num_cat=0
split_feature=16 16 26 18 4 8
split_gain=6.70357 7.87131 6.65425 6.48249 6.24982 4.53061
threshold=1.4228337429116173 -1.2027932373073087 -0.58393933035825418 -0.62891677478669117 0.45914406234823496 -1.2088340525621495
decision_type=2 2 2 2 2 2
left_child=1 3 -3 -1 5 -2
right_child=4 2 -4 -5 -6 -7
leaf_value=-0.00019480568676441486 0.032194988686769857 -0.018452078023038589 -6.7688645902650273e-05 0.044772640308029958 0.0512711440681691 -0.013784419715918496
leaf_weight=5.4050047695636749 2.2712113410234451 22.879607707262039 73.068282946944237 4.793864428997038 3.4734879434108734 4.27991174161434
leaf_count=24 10 102 325 21 15 19
internal_value=0.000369884 -0.00185788 -0.00462995 0.0221153 0.0229071 0.00310891
internal_weight=116.171 106.147 95.9479 10.1989 10.0246 6.55112
internal_count=516 472 427 45 44 29
is_linear=0
shrinkage=0.03


Tree=12
num_leaves=8
num_cat=0
split_feature=16 12 27 16 19 20 29
split_gain=6.35833 9.54328 7.09787 6.15192 5.93483 3.26943 1.43214
threshold=1.4228337429116173 0.63533173126052045 1.1530980660130601 -1.1498088392857879 -0.27010084376857019 -0.67050533248688782 0.50302953709498055
decision_type=2 2 2 2 2 2 2
left_child=1 3 -3 -1 6 -6 -2
right_child=4 2 -4 -5 5 -7 -8
leaf_value=0.021403627197145295 -0.020171897629084515 -0.032725158493785989 0.022012821086006704 -0.0012404930278242423 0.00044085412370583899 0.051047842717968028 0.010049755863897832
leaf_weight=11.602601826190947 2.0248736739158635 12.062801644206045 1.836902767419814 80.567420691251755 1.8046917170286176 4.3991398811340314 1.8442787230014799
leaf_count=51 9 54 8 359 8 19 8
internal_value=0.000374353 -0.00180001 -0.0242788 0.00170512 0.0222703 0.0389149 -0.00522765
internal_weight=116.143 106.07 13.8997 92.17 10.073 6.20383 3.86915
internal_count=516 472 62 410 44 27 17
is_linear=0
shrinkage=0.03


Tree=13
num_leaves=5
num_cat=0
split_feature=27 16 12 4
split_gain=6.09785 6.25633 8.10544 3.73614
threshold=-1.8846863560335214 1.4228337429116173 0.63533173126052045 0.45914406234823496
decision_type=2 2 2 2
left_child=-1 2 -2 -3
right_child=1 3 -4 -5
leaf_value=0.037510491883912249 0.00028666198689187715 0.004906953375552049 -0.023752271208313424 0.045461562938875634
leaf_weight=3.0558331608772269 90.547932341694832 5.6698288619518262 13.780885726213453 3.0600847154855728
leaf_count=13 403 25 62 13
internal_value=0.00037398 -0.000833582 -0.00298817 0.0223751
internal_weight=116.115 113.059 104.329 8.72991
internal_count=516 503 465 38
is_linear=0
shrinkage=0.03


Tree=14
num_leaves=6
num_cat=0
split_feature=14 12 27 2 8
split_gain=5.93917 6.84299 10.5938 6.4107 0.951472
threshold=2.4124892913277218 0.58155528133133216 1.339461005996391 0.28238915453581176 0.37124555318918612
decision_type=2 2 2 2 2
left_child=1 3 -3 -1 -2
right_child=4 2 -4 -5 -6
leaf_value=-0.0042054523737402403 0.045197557708563742 -0.029396288175850816 0.028344303695533073 0.011452916035640172 0.0079357514200807319
leaf_weight=56.999005824327469 2.1098521947860709 13.654308035969736 2.7865430861711493 38.63826984167099 1.8911682814359663
leaf_count=255 9 62 12 170 8
internal_value=0.000378527 -0.000962389 -0.0184008 0.00210097 0.0330919
internal_weight=116.079 112.078 16.4409 95.6373 4.00102
internal_count=516 499 74 425 17
is_linear=0
shrinkage=0.03


Tree=15
num_leaves=8
num_cat=0
split_feature=2 13 24 24 13 8 20
split_gain=6.56913 9.90531 12.54 5.53252 5.04986 3.3183 0.917911
threshold=0.28238915453581176 -1.0233649467157275 -0.12518377672822587 0.64061625913813691 -0.41561987359455999 -2.2544914070756863 0.19424790488418972
decision_type=2 2 2 2 2 2 2
left_child=3 6 -3 5 -5 -1 -2
right_child=1 2 -4 4 -6 -7 -8
leaf_value=0.021032394397035286 0.056884029825952989 -0.016308832278473368 0.017371993711453048 -0.015740013110017881 0.015018730435772364 -0.013308118178155196 0.017719929106752689
leaf_weight=1.8572256267070759 2.9762293845415106 15.935202747583388 23.558119460940361 5.753514930605891 16.552605509757996 42.761815503239632 2.4979272037744522
leaf_count=8 13 71 103 26 74 192 11
internal_value=0.000559818 0.0093836 0.00357919 -0.00532116 0.00655505 -0.0114013 0.0445074
internal_weight=111.893 44.9675 39.4933 66.9252 22.3061 44.619 5.47416
internal_count=498 198 174 300 100 200 24
is_linear=0
shrinkage=0.03


Tree=16
num_leaves=8
num_cat=0
split_feature=2 13 0 5 5 0 20
split_gain=6.20895 9.34981 7.56654 4.4019 7.56609 6.54129 0.819725
threshold=0.28238915453581176 -1.0233649467157275 -0.56108897815196934 -0.3565123978436891 0.22150972879112643 -1.0823777054534474 0.19424790488418972
decision_type=2 2 2 2 2 2 2
left_child=3 6 -3 5 -5 -1 -2
right_child=1 2 -4 4 -6 -7 -8
leaf_value=0.0030106461995603635 0.054855052827453329 0.032379458067492144 -0.0021724708805761031 0.015152912491630326 -0.0088550010272878763 -0.034811780925551476 0.017247908601989766
leaf_weight=6.5562507361173621 3.0225842744112006 6.0023060142993918 33.524434134364128 16.893940448760986 34.609554216265678 8.7367885559797269 2.5109903663396835
leaf_count=29 13 26 148 75 157 39 11
internal_value=0.000560991 0.00912514 0.00346386 -0.00516716 -0.000754001 -0.0188806 0.0430714
internal_weight=111.857 45.0603 39.5267 66.7965 51.5035 15.293 5.53357
internal_count=498 198 174 300 232 68 24
is_linear=0
shrinkage=0.03


Tree=17
num_leaves=8
num_cat=0
split_feature=24 13 8 10 6 10 28
split_gain=4.39356 7.20743 6.24647 5.06676 4.69282 7.31946 4.41023
threshold=0.80119094023562321 -1.0233649467157275 0.32469433482646692 0.39588125324366319 0.70968131743127272 0.016458808691755627 -0.6047796710926493
decision_type=2 2 2 2 2 2 2
left_child=1 2 -1 -3 5 -2 -6
right_child=4 3 -4 -5 6 -7 -8
leaf_value=-0.0012068554451389966 0.013405136235113859 -0.00085917459523936093 0.03993593185130654 -0.018280858109139483 0.053105142491967502 -0.018662570743345923 0.0033742946797219015
leaf_weight=6.9265499860048276 19.986076414585117 41.354644551873207 5.069978654384613 23.603941589593887 3.0625970363616943 8.3941924571990949 3.4226385504007331
leaf_count=31 89 186 22 105 13 37 15
internal_value=0.000561 -0.00338556 0.0171217 -0.0074263 0.00932063 0.00346306 0.0309355
internal_weight=111.821 76.9551 11.9965 64.9586 34.8655 28.3803 6.48524
internal_count=498 344 53 291 154 126 28
is_linear=0
shrinkage=0.03


Tree=18
num_leaves=8
num_cat=0
split_feature=2 13 24 24 13 21 20
split_gain=5.91793 8.37927 11.5575 4.85482 4.7089 4.61751 0.752984
threshold=0.28238915453581176 -1.0233649467157275 -0.12518377672822587 0.64061625913813691 -0.41561987359455999 1.3119891903802805 0.19424790488418972
decision_type=2 2 2 2 2 2 2
left_child=3 6 -3 5 -5 -1 -2
right_child=1 2 -4 4 -6 -7 -8
leaf_value=-0.014689461976767003 0.051965553667497347 -0.015711896814077243 0.016658451503842257 -0.01555277688894279 0.014146058560349447 0.011959032150488066 0.016232348828466119
leaf_weight=38.250319078564644 3.0846511870622626 15.806849613785742 23.687985599040985 5.7323574423790005 16.686825320124626 6.0125583261251441 2.5379749834537506
leaf_count=173 13 71 103 26 74 27 11
internal_value=0.000556617 0.00890855 0.00349938 -0.00504405 0.00601974 -0.0107884 0.0408013
internal_weight=111.8 45.1175 39.4948 66.6821 22.4192 44.2629 5.62263
internal_count=498 198 174 300 100 200 24
is_linear=0
shrinkage=0.03


Tree=19
num_leaves=7
num_cat=0
split_feature=15 15 26 1 0 7
split_gain=5.39811 8.89725 7.53231 7.51094 4.32623 3.25061
threshold=-0.85162741614299731 -0.43757985772292768 -0.58393933035825418 0.71355940616908808 1.124199049025034 -1.370894726396505
decision_type=2 2 2 2 2 2
left_child=4 2 -2 -3 5 -1
right_child=1 3 -4 -5 -6 -7
leaf_value=0.010770730254475044 -0.0011153679754284361 0.0033055668981745042 0.032187751429294899 -0.019701284468032123 0.016896219310072756 -0.026225030734216968
leaf_weight=1.831362962722779 9.6121655851602572 55.020478919148445 14.304162457585333 15.695993199944494 2.5085095316171637 12.772283151745796
leaf_count=8 43 246 62 70 11 58
internal_value=0.000554367 0.00343783 0.0189573 -0.00188032 -0.014498 -0.0208776
internal_weight=111.745 94.6328 23.9163 70.7165 17.1122 14.6036
internal_count=498 421 105 316 77 66
is_linear=0
shrinkage=0.03


Tree=20
num_leaves=7
num_cat=0
split_feature=16 20 20 29 12 11
split_gain=7.33272 5.23849 5.6484 4.19728 4.46414 3.97329
threshold=-1.2148596545155721 -1.2595346417512647 -0.67050533248688782 1.3938349806897012 -0.63215827323153428 0.14118412710486175
decision_type=2 2 2 2 2 2
left_child=3 5 -3 4 -1 -2
right_child=1 2 -4 -5 -6 -7
leaf_value=7.8546683642993496e-05 0.0022797532613280996 -0.015545404852134828 0.0011895579125068988 -0.0088150429700722104 0.051168368365177547 0.045820309739432498
leaf_weight=2.4785410910844803 4.8805203884840003 23.496497735381126 69.353915601968765 1.8533409684896467 4.6592623889446241 2.7594258338212967
leaf_count=11 22 105 309 8 20 12
internal_value=0.00136022 -0.000989261 -0.0030779 0.0261675 0.0359796 0.0215694
internal_weight=109.482 100.49 92.8504 8.99114 7.1378 7.63995
internal_count=487 448 414 39 31 34
is_linear=0
shrinkage=0.03


Tree=21
num_leaves=8
num_cat=0
split_feature=16 9 9 10 18 22 16
split_gain=6.90766 5.93465 6.81223 6.39689 3.88127 2.72594 2.28075
threshold=-1.2148596545155721 0.31819416924795296 0.43205121473900998 -1.1819935005960278 -0.43924589616493065 0.59374529890927641 -1.5060343698609426
decision_type=2 2 2 2 2 2 2
left_child=4 3 -3 -2 6 -6 -1
right_child=1 2 -4 -5 5 -7 -8
leaf_value=-0.017577684423663181 0.01674843362062424 0.033724234491182864 0.0018069076826240091 -0.011010478963197168 0.059942722642351787 0.0070429052541192702 0.019053616156728084
leaf_weight=1.7917360812425611 7.8430427163839331 6.6416952162981024 34.649068802595139 51.302483156323433 2.5628529340028745 1.894126698374748 2.7951562106609344
leaf_count=8 35 29 153 231 11 8 12
internal_value=0.00133841 -0.000947261 0.00762682 -0.007055 0.0253454 0.0430957 0.00314541
internal_weight=109.48 100.436 41.2908 59.1455 9.04387 4.45698 4.58689
internal_count=487 448 182 266 39 19 20
is_linear=0
shrinkage=0.03


Tree=22
num_leaves=7
num_cat=0
split_feature=5 9 21 19 1 1
split_gain=4.79442 8.49508 9.94668 6.51595 4.44639 5.4419
threshold=0.23169939949135457 0.21051825229342325 -1.0275439126075803 0.73615767424643663 -1.242140342454902 -0.38205515475970886
decision_type=2 2 2 2 2 2
left_child=1 3 -3 -1 -2 -6
right_child=4 2 -4 -5 5 -7
leaf_value=-0.011462845028278237 -0.034595651080995819 -0.020643699224773434 0.025141322067105638 0.017639207733665466 0.015454197758112138 -0.0089097830429283997
leaf_weight=24.90779735147953 3.6545273363590232 4.313816890120509 25.840129852294922 8.6039777100086194 10.143323689699171 31.992645084857941
leaf_count=111 17 19 111 38 46 145
internal_value=0.00132629 0.00666081 0.0180332 -0.00357911 -0.0059489 -0.00272627
internal_weight=109.456 63.6657 30.1539 33.5118 45.7905 42.136
internal_count=487 279 130 149 208 191
is_linear=0
shrinkage=0.03


Tree=23
num_leaves=8
num_cat=0
split_feature=16 9 21 10 18 22 20
split_gain=6.60772 5.33827 8.46333 6.04952 3.66631 2.53839 2.18282
threshold=-1.2148596545155721 0.31819416924795296 -1.0481290373390497 -1.1819935005960278 -0.43924589616493065 0.59374529890927641 0.51757676588356805
decision_type=2 2 2 2 2 2 2
left_child=4 3 -3 -2 6 -6 -1
right_child=1 2 -4 -5 5 -7 -8
leaf_value=0.018594433064720119 0.016308324223295541 -0.02468921698534261 0.012672681616939751 -0.010650108870984432 0.05802074687840425 0.0068620702206356873 -0.01725851301440269
leaf_weight=2.8038448244333267 7.8728896528482428 5.5659815222024909 35.877865642309189 51.058011084794998 2.5984746813774091 1.8950973153114317 1.7812048643827436
leaf_count=12 35 25 157 231 11 8 8
internal_value=0.00127817 -0.000960886 0.00714035 -0.00677795 0.0247139 0.0418764 0.0030573
internal_weight=109.453 100.375 41.4438 58.9309 9.07862 4.49357 4.58505
internal_count=487 448 182 266 39 19 20
is_linear=0
shrinkage=0.03


Tree=24
num_leaves=7
num_cat=0
split_feature=11 6 17 21 21 21
split_gain=4.7954 5.67154 6.53102 5.78051 3.40025 2.0729
threshold=1.2187623779928465 0.82526003159787542 0.36816935083537633 -1.0481290373390497 -0.78168535344983769 0.76980060423138874
decision_type=2 2 2 2 2 2
left_child=1 2 -1 -3 -2 -6
right_child=4 3 -4 -5 5 -7
leaf_value=-0.0056272272809056003 0.0096278186505849832 -0.016852318210280021 0.012505653987052041 0.026077980901882312 -0.034350349249805776 0
leaf_weight=56.588757127523422 2.4601973742246628 2.6977513730525997 25.164735898375511 14.575798183679579 5.9543334096670133 1.9861492961645124
leaf_count=254 11 12 111 63 27 9
internal_value=0.00125374 0.00338376 0 0.0185921 -0.0172842 -0.0264268
internal_weight=109.428 99.027 81.7535 17.2735 10.4007 7.94048
internal_count=487 440 365 75 47 36
is_linear=0
shrinkage=0.03


Tree=25
num_leaves=8
num_cat=0
split_feature=21 25 25 5 12 17 21
split_gain=4.16274 6.32602 4.95016 7.24526 5.6528 4.17235 1.78704
threshold=-0.54967420985531901 -1.0845882898637118 -0.65920310523513603 -1.2351338559129237 -0.61028700172471662 -0.43116330110909423 -1.255608383384367
decision_type=2 2 2 2 2 2 2
left_child=1 6 4 -4 -2 -3 -1
right_child=2 5 3 -5 -6 -7 -8
leaf_value=0.0042796806951273499 -0.031748994213290506 -0.0037078537258355884 0.030578043674403942 -0.01476207103305642 0.01069734020503633 0.01832085545568695 -0.023255462599471529
leaf_weight=2.2139038443565369 2.4197904318571117 10.250058665871618 2.5997330695390692 43.316139683127403 20.749249011278152 24.314899951219559 6.4550976008176786
leaf_count=10 11 46 11 194 92 108 29
internal_value=-0.00132305 0.00584395 -0.00590963 -0.0115868 0.00510219 0.0116826 -0.0158224
internal_weight=112.319 43.234 69.0849 45.9159 23.169 34.565 8.669
internal_count=501 193 308 205 103 154 39
is_linear=0
shrinkage=0.03


Tree=26
num_leaves=8
num_cat=0
split_feature=19 19 4 15 5 13 19
split_gain=4.77662 8.15887 7.77208 4.96725 4.92615 4.42619 1.22896
threshold=-1.0730210743914885 -0.84633674261200376 -0.17958714197465894 0.36038649203704781 0.48148512467822963 -0.1151030667539185 -1.4655772550480644
decision_type=2 2 2 2 2 2 2
left_child=4 2 -2 -3 6 -6 -1
right_child=1 3 -4 -5 5 -7 -8
leaf_value=-0.0027583468244632677 -0.0072142538018352643 -0.0069298863187125482 0.044650475431459349 0.0083290509063054779 0.020948926284021674 -0.018112548940382386 -0.031736358766022384
leaf_weight=2.2568458616733542 3.5121864527463913 53.883267760276794 6.2950838655233365 28.618915945291519 4.6457839012145996 4.1627580970525724 8.8699229210615176
leaf_count=10 16 242 27 126 21 19 40
internal_value=-0.00128579 0.0015656 0.0263677 -0.00153558 -0.0143294 0.00189364 -0.0269411
internal_weight=112.245 92.3095 9.80727 82.5022 19.9353 8.80854 11.1268
internal_count=501 411 43 368 90 40 50
is_linear=0
shrinkage=0.03


Tree=27
num_leaves=8
num_cat=0
split_feature=19 19 2 15 15 15 0
split_gain=4.54645 7.67206 5.84857 4.68141 4.05799 4.03745 3.54788
threshold=-1.0730210743914885 -0.84633674261200376 0.14302850979277931 0.36038649203704781 0.18882206544805125 0.50601701934865739 0.64796435629403515
decision_type=2 2 2 2 2 2 2
left_child=4 2 -2 -3 6 -6 -1
right_child=1 3 -4 -5 5 -7 -8
leaf_value=-0.033743844159729516 0 -0.0067400650316280621 0.045001400533048318 0.0080669693294659131 0.030191064210972389 -0.011735519098036629 0
leaf_weight=8.7071366906166094 4.6377125382423383 53.763146474957466 5.2248212993144989 28.687164783477783 2.4053698778152457 4.8877336829900742 3.8458508402109137
leaf_count=40 21 242 22 126 11 22 17
internal_value=-0.00124936 0.00152595 0.0255074 -0.00148813 -0.0140081 0.00296858 -0.0239075
internal_weight=112.159 92.3128 9.86253 82.4503 19.8461 7.2931 12.553
internal_count=501 411 43 368 90 33 57
is_linear=0
shrinkage=0.03


Tree=28
num_leaves=5
num_cat=0
split_feature=27 8 27 6
split_gain=4.26359 4.19338 8.02634 6.32781
threshold=-2.262894878851355 -0.61334521597823943 0.45442778953600887 0.6300616423596227
decision_type=2 2 2 2
left_child=-1 3 -3 -2
right_child=1 2 -4 -5
leaf_value=0.032656172208207011 0.015488613730678696 -0.012187186076417555 0.0067335036218470097 -0.023259309737527507
leaf_weight=2.4315513968467704 20.179679900407795 55.188331067562103 30.466342180967331 3.7865960448980323
leaf_count=10 90 248 136 17
internal_value=-0.00120523 -0.00224181 -0.00538789 0.00857073
internal_weight=112.053 109.621 85.6547 23.9663
internal_count=501 491 384 107
is_linear=0
shrinkage=0.03


Tree=29
num_leaves=8
num_cat=0
split_feature=19 19 10 8 13 1 18
split_gain=4.26412 7.28136 5.46494 5.08813 3.4696 4.86131 2.27926
threshold=-1.0730210743914885 -0.84633674261200376 -0.45130213021895932 -0.61334521597823943 -0.045777649925618495 0.59693978742588916 1.291907432277708
decision_type=2 2 2 2 2 2 2
left_child=4 2 -2 -3 5 -1 -6
right_child=1 3 -4 -5 6 -7 -8
leaf_value=0.012585710431865156 -0.011702394279147654 0.0099649848635558515 0.036184288676397655 -0.0062301280160248019 -0.032587026621836483 -0.031336488681639206 0
leaf_weight=7.0222393572330493 2.2123483419418335 23.815229073166847 7.6811036467552167 58.554991334676743 7.6284151971340162 2.393699437379837 2.6686462759971619
leaf_count=32 10 106 33 262 35 11 12
internal_value=-0.00116327 0.00151651 0.0248405 -0.00142477 -0.0135681 0 -0.0249337
internal_weight=111.977 92.2637 9.89345 82.3702 19.713 9.41594 10.2971
internal_count=501 411 43 368 90 43 47
is_linear=0
shrinkage=0.03


Tree=30
num_leaves=8
num_cat=0
split_feature=2 9 6 19 27 25 20
split_gain=6.49476 5.81421 7.35153 5.40909 5.8238 4.97267 4.95105
threshold=-0.16989451600059152 -0.096517192823192419 -1.262825861494276 0.39669202493798206 0.21127597667863215 1.1789411374665903 2.1033843388670825
decision_type=2 2 2 2 2 2 2
left_child=1 2 -1 6 -5 -3 -2
right_child=3 5 -4 4 -6 -7 -8
leaf_value=-0.02671243782489513 0.014582200842754323 -0.039480978036896895 0.0051754888645822892 0.0098824730413310073 -0.018154775917773879 0.0081482354806484796 -0.028420515534495851
leaf_weight=7.9377230107784262 39.228303670883179 7.6195902526378614 24.254106223583221 11.37401042878628 13.688164457678793 2.0082953274250031 1.7465734928846348
leaf_count=36 173 35 110 50 61 9 8
internal_value=-0.000355835 -0.0095559 -0.00296251 0.00542522 -0.00528649 -0.0291076 0.0120964
internal_weight=107.857 41.8197 32.1918 66.0371 25.0622 9.62789 40.9749
internal_count=482 190 146 292 111 44 181
is_linear=0
shrinkage=0.03


Tree=31
num_leaves=7
num_cat=0
split_feature=1 1 1 15 2 25
split_gain=6.67869 6.07297 7.55166 7.02672 2.873 0.48855
threshold=-1.4133927158422142 0.78140872699509811 1.5811500548895043 -0.82851984803704981 -0.061802825655152889 0.67047904735761255
decision_type=2 2 2 2 2 2
left_child=4 3 -3 -2 5 -1
right_child=1 2 -4 -5 -6 -7
leaf_value=-0.037380730029705732 -0.014134766569361292 -0.020956566069206633 0.012410021072360545 0.010633454503417225 0.003306860788171911 -0.009651715552962823
leaf_weight=5.1778904050588608 11.478862002491949 17.818148940801624 8.2044467926025373 60.748952209949493 2.2517619878053647 2.1439175009727478
leaf_count=24 53 80 36 269 10 10
internal_value=-0.000361688 0.00198376 -0.0101566 0.00650326 -0.0233073 -0.0317505
internal_weight=107.824 98.2504 26.0226 72.2278 9.57357 7.32181
internal_count=482 438 116 322 44 34
is_linear=0
shrinkage=0.03


Tree=32
num_leaves=7
num_cat=0
split_feature=1 3 28 17 2 25
split_gain=6.37891 6.67972 4.52872 4.47183 2.78162 0.469401
threshold=-1.4133927158422142 -0.83944771537291019 -0.015648767019425466 0.2196570310896506 -0.061802825655152889 0.67047904735761255
decision_type=2 2 2 2 2 2
left_child=4 3 -3 -2 5 -1
right_child=1 2 -4 -5 -6 -7
leaf_value=-0.036850051406625103 2.2963606211358408e-05 0.0044806909295421167 -0.0094461731155873665 0.035237366829226492 0.0032312337818461798 -0.0094656623971886445
leaf_weight=5.1074707061052322 5.9068678468465787 50.130499020218849 34.774856597185135 7.4790351688861847 2.2540199756622297 2.1363162398338318
leaf_count=24 27 224 155 32 10 10
internal_value=-0.000364434 0.00191786 -0.00118829 0.0209987 -0.0228803 -0.0312645
internal_weight=107.789 98.2913 84.9054 13.3859 9.49781 7.24379
internal_count=482 438 379 59 44 34
is_linear=0
shrinkage=0.03


Tree=33
num_leaves=8
num_cat=0
split_feature=2 9 0 2 20 5 25
split_gain=5.98753 5.67343 7.73716 5.1752 7.86994 6.52218 4.76846
threshold=-0.16989451600059152 -0.096517192823192419 -0.034355940743280557 0.60354716748189541 0.58759742388995473 -0.057396797134431236 1.1789411374665903
decision_type=2 2 2 2 2 2 2
left_child=1 2 -1 5 -5 -2 -3
right_child=3 6 -4 4 -6 -7 -8
leaf_value=-0.012726853681868785 0.026436046949400178 -0.038928481266550498 0.017984635082042951 -0.013141685987904921 0.0208589456943945 0.0009115350076273433 0.0077008224347761911
leaf_weight=22.018650829792023 16.12581929564476 7.5113570988178235 10.051233455538748 22.008804291486744 7.5202611833810797 20.485367447137833 2.0200787931680679
leaf_count=101 70 35 45 97 33 92 9
internal_value=-0.00035402 -0.00922343 -0.00271538 0.00517865 -0.00396301 0.0126394 -0.0286341
internal_weight=107.742 41.6013 32.0699 66.1403 29.5291 36.6112 9.53144
internal_count=482 190 146 292 130 162 44
is_linear=0
shrinkage=0.03


Tree=34
num_leaves=7
num_cat=0
split_feature=1 3 15 28 2 25
split_gain=6.06521 6.35175 4.57868 4.28402 2.62442 0.466485
threshold=-1.4133927158422142 -0.83944771537291019 -0.1721838194446072 -0.015648767019425466 -0.061802825655152889 0.67047904735761255
decision_type=2 2 2 2 2 2
left_child=4 2 -2 -3 5 -1
right_child=1 3 -4 -5 -6 -7
leaf_value=-0.03622924949450821 -0.012503428050969571 0.0043470176213274191 0.028429640670117478 -0.0092078435737792657 0.00285010486234915 -0.0090878921050188289
leaf_weight=5.0189789235591888 2.3822438865900049 50.163850978016853 11.045863702893254 34.667944967746735 2.2649762779474241 2.1209923774003983
leaf_count=24 11 224 48 155 10 10
internal_value=-0.000338222 0.00187707 0.0204514 -0.00115661 -0.0224036 -0.0306504
internal_weight=107.665 98.2599 13.4281 84.8318 9.40495 7.13997
internal_count=482 438 59 379 44 34
is_linear=0
shrinkage=0.03


Tree=35
num_leaves=8
num_cat=0
split_feature=3 9 7 21 7 1 16
split_gain=6.52908 6.37483 4.5946 4.12733 2.99213 1.77045 0.37824
threshold=1.2148186502133929 -0.66567346381888304 -0.45618743787626653 -0.27088411576949628 -1.0000000180025095e-35 1.187441967963663 -0.4804370906453525
decision_type=2 2 2 2 2 2 2
left_child=1 3 -3 -1 5 -2 -6
right_child=4 2 -4 -5 6 -7 -8
leaf_value=0 -0.017893183152497823 -0.0043170060364429736 0.010052772592932432 -0.025254102635399654 -0.0091000370233124354 0.016334490944473524 -0.035170655795199776
leaf_weight=10.374963223934175 1.7953189611434948 34.078238427639008 45.320547759532928 12.179538905620573 2.0080983787775031 2.0576855093240738 6.9432993531227085
leaf_count=46 8 153 201 56 9 9 32
internal_value=-0.00279548 -0.000130298 0.00382886 -0.0139784 -0.02232 0 -0.0311638
internal_weight=114.758 101.953 79.3988 22.5545 12.8044 3.853 8.9514
internal_count=514 456 354 102 58 17 41
is_linear=0
shrinkage=0.03


Tree=36
num_leaves=8
num_cat=0
split_feature=24 20 1 6 12 21 29
split_gain=6.21653 5.85003 8.23515 4.81968 4.46243 3.94461 3.69243
threshold=1.0000000180025095e-35 -0.67050533248688782 0.71355940616908808 -1.3438931487163497 -0.739799250877054 0.76980060423138874 -1.6688897468283688
decision_type=2 2 2 2 2 2 2
left_child=1 4 -3 6 -1 -5 -2
right_child=3 2 -4 5 -6 -7 -8
leaf_value=0.0090592693145653252 0.012459557716336597 0.0062806583339702201 -0.022760864797855083 0.0027398234579461087 -0.030337685852277585 0.023176759928010389 -0.031036138784641683
leaf_weight=2.4672103226184872 1.7887238562107084 26.156924724578857 12.160990610718725 42.330780819058418 14.602041125297545 10.248982802033423 4.8868222683668128
leaf_count=11 8 117 56 187 67 45 23
internal_value=-0.00273168 -0.0099197 -0.00305988 0.00392984 -0.0241568 0.00712349 -0.0184926
internal_weight=114.642 55.3872 38.3179 59.2553 17.0693 52.5798 6.67555
internal_count=514 251 173 263 78 232 31
is_linear=0
shrinkage=0.03


Tree=37
num_leaves=8
num_cat=0
split_feature=3 9 26 13 7 1 5
split_gain=6.10623 5.95886 5.07961 3.97579 2.88495 1.67545 1.1556
threshold=1.2148186502133929 -0.66567346381888304 -0.55643760927523023 -0.27710145627249155 -1.0000000180025095e-35 1.187441967963663 0.055586016963422046
decision_type=2 2 2 2 2 2 2
left_child=1 3 -3 -1 5 -2 -6
right_child=4 2 -4 -5 6 -7 -8
leaf_value=-0.031222202564835103 -0.017326452852507005 -0.0063900649703795553 0.0092793733361791458 -0.0040525304448217518 -0.0076906110702678289 0.016016503176750185 -0.037484622942386685
leaf_weight=6.9555633664131191 1.7749619036912929 27.718876585364342 51.715469777584076 15.447792202234266 2.6831070929765666 2.0647528171539307 6.1310286521911621
leaf_count=32 8 125 229 70 12 9 29
internal_value=-0.00265625 -8.6881e-05 0.0037275 -0.0135321 -0.0216537 0 -0.0304338
internal_weight=114.492 101.838 79.4343 22.4034 12.6539 3.83971 8.81414
internal_count=514 456 354 102 58 17 41
is_linear=0
shrinkage=0.03


Tree=38
num_leaves=8
num_cat=0
split_feature=4 21 1 4 9 11 4
split_gain=5.61195 5.74756 6.05334 4.74897 4.33569 3.96438 2.74765
threshold=-0.045734466324833987 -0.52032767627004384 -0.37318967694948219 0.072359149839287942 -0.46035659177175597 -1.1990377853597232 -0.23844684968001065
decision_type=2 2 2 2 2 2 2
left_child=1 2 -1 4 -2 -5 -3
right_child=3 6 -4 5 -6 -7 -8
leaf_value=0.016251039556336978 -0.0091245237166190565 -0.012087417209680783 -0.016317250081453537 0.021688994366256802 0.036315173807212338 -0.0027870624706257054 -0.034496521221483244
leaf_weight=11.245961204171183 2.0156629532575607 22.693517252802852 8.0869446098804456 5.9179549217224112 5.6977762579917899 51.690873712301254 7.0288095176219931
leaf_count=50 9 105 37 25 25 230 33
internal_value=-0.00260126 -0.0102155 0.00222267 0.00308045 0.0239946 0 -0.0183486
internal_weight=114.378 49.0552 19.3329 65.3223 7.71344 57.6088 29.7223
internal_count=514 225 87 289 34 255 138
is_linear=0
shrinkage=0.03


Tree=39
num_leaves=8
num_cat=0
split_feature=24 9 14 16 27 12 16
split_gain=5.72275 5.98667 8.08886 6.55067 3.62293 7.00959 3.44464
threshold=1.0000000180025095e-35 0.25878476502916808 -0.2341962442552252 0.044277225093185053 -0.33553327010277334 -0.4871630573109233 1.254734791307623
decision_type=2 2 2 2 2 2 2
left_child=4 3 -3 -2 5 -1 -6
right_child=1 2 -4 -5 6 -7 -8
leaf_value=0.0233409475054101 0.007456570514989597 -0.0040635199520494148 0.028986340346173887 -0.018370801893836202 -0.017092017749042974 -0.016757310089397265 0.008258050703987314
leaf_weight=7.0691082924604416 18.421321868896484 11.08450683951378 14.350922301411627 15.373298838734625 36.260695487260818 6.9487188160419446 4.7203180491924277
leaf_count=32 83 48 62 70 166 32 21
internal_value=-0.00252932 0.0038495 0.0146701 -0.00427209 -0.0094631 0.00322752 -0.0139263
internal_weight=114.229 59.23 25.4354 33.7946 54.9988 14.0178 40.981
internal_count=514 263 110 153 251 64 187
is_linear=0
shrinkage=0.03


Tree=40
num_leaves=8
num_cat=0
split_feature=9 9 6 26 25 15 24
split_gain=4.7038 6.62523 8.52197 5.69243 5.02489 4.93551 3.69238
threshold=-0.66567346381888304 -0.27440025284992614 -0.30657435691655455 0.83710844135195062 0.097929616460087188 -0.038443848832911277 -0.73444704160352525
decision_type=2 2 2 2 2 2 2
left_child=3 2 -2 5 -3 -1 -5
right_child=1 4 -4 6 -6 -7 -8
leaf_value=-0.0026359570032775548 0 0.0094977709700473228 0.040798072515068222 -0.00537590071154665 -0.0060862301257124315 -0.037332884063167419 0.034530401631367606
leaf_weight=8.8186381608247757 8.5593280047178286 40.601841375231743 9.5928009152412397 3.8743861168622971 32.704374641180038 6.2973596155643472 2.9194665402173987
leaf_count=41 39 180 43 17 147 30 13
internal_value=0.00365673 0.00668227 0.0225402 -0.00849911 0.00247361 -0.0186177 0.0128137
internal_weight=113.368 91.4583 18.1521 21.9099 73.3062 15.116 6.79385
internal_count=510 409 82 101 327 71 30
is_linear=0
shrinkage=0.03


Tree=41
num_leaves=8
num_cat=0
split_feature=9 11 28 26 15 5 2
split_gain=4.44695 6.38905 6.53018 5.43619 4.77519 4.74207 2.64339
threshold=-0.66567346381888304 -1.1990377853597232 0.80407893482418691 0.83710844135195062 -0.038443848832911277 -1.0000000180025095e-35 0.31821785566548105
decision_type=2 2 2 2 2 2 2
left_child=3 6 -3 4 -1 -5 -2
right_child=1 2 -4 5 -6 -7 -8
leaf_value=-0.0025657091176046519 0.054555301911209067 0.0082424042014672821 -0.012844842341885352 -0.0094368568696301409 -0.036835381244528113 0.035502985716779276 0.0045754093359652538
leaf_weight=8.8103168457746506 2.6450377851724616 71.820391714572906 15.232023552060125 3.6047699302434921 6.2031713128089914 3.2125501781702033 1.9273521900177
leaf_count=41 11 321 69 16 30 14 8
internal_value=0.00354757 0.00648161 0.00440099 -0.00829539 -0.0182516 0.0124572 0.0384231
internal_weight=113.456 91.6248 87.0524 21.8308 15.0135 6.81732 4.57239
internal_count=510 409 390 101 71 30 19
is_linear=0
shrinkage=0.03


Tree=42
num_leaves=8
num_cat=0
split_feature=9 9 6 26 29 12 24
split_gain=4.2098 6.11739 8.03554 5.18976 4.90969 4.75888 3.42811
threshold=-0.66567346381888304 -0.27440025284992614 -0.30657435691655455 0.83710844135195062 -0.39830006090219511 0.16202413903437171 -0.73444704160352525
decision_type=2 2 2 2 2 2 2
left_child=3 2 -2 5 -3 -1 -5
right_child=1 4 -4 6 -6 -7 -8
leaf_value=-0.034005269401526386 0 0.016606734216477306 0.039025067587698511 -0.0054033665329985808 -0.00179634425493844 -0.00014727163955692102 0.03288070306463349
leaf_weight=7.2545178532600421 8.5933421999216097 15.891441211104391 9.72610194981098 3.8747984319925308 57.553087040781975 7.6558586061000824 2.963026523590087
leaf_count=35 39 69 43 17 258 36 13
internal_value=0.00344543 0.00629321 0.0214523 -0.00810131 0.00224081 -0.0178953 0.012107
internal_weight=113.512 91.764 18.3194 21.7482 73.4445 14.9104 6.83782
internal_count=510 409 82 101 327 71 30
is_linear=0
shrinkage=0.03


Tree=43
num_leaves=5
num_cat=0
split_feature=26 28 11 22
split_gain=4.01672 4.39048 4.9141 4.89429
threshold=-1.5297176111178161 -1.0912406115516666 0.22249362614543725 0.59374529890927641
decision_type=2 2 2 2
left_child=-1 2 -2 -3
right_child=1 3 -4 -5
leaf_value=-0.030786924397086243 -0.00075658445633652014 0.0069473666403493707 0.054862901879378229 -0.007081977165304734
leaf_weight=2.191163405776023 2.1883534938096991 76.385189637541771 2.3712464272975922 30.437409088015556
leaf_count=10 10 345 10 135
internal_value=0.00334558 0.0042853 0.0309207 0.00287125
internal_weight=113.573 111.382 4.5596 106.823
internal_count=510 500 20 480
is_linear=0
shrinkage=0.03


Tree=44
num_leaves=8
num_cat=0
split_feature=9 9 6 5 13 21 9
split_gain=4.0408 5.65557 7.4643 4.71256 4.36897 7.09008 0.882896
threshold=-0.66567346381888304 -0.27440025284992614 -0.30657435691655455 1.3665843820878432 -0.27710145627249155 -0.27088411576949628 -1.4579428454495253
decision_type=2 2 2 2 2 2 2
left_child=4 2 -2 -3 6 -6 -1
right_child=1 3 -4 -5 5 -7 -8
leaf_value=-0.0032704042583417163 0 0.0046099738456846211 0.037335031347967972 -0.020927827127799437 0.021582638499917369 -0.016974604320979473 -0.034690868487431629
leaf_weight=1.6993041038513181 8.6072104871273059 67.151194483041763 9.8499313443899137 6.3501212000846854 7.074676215648652 8.6190197020769084 4.3256912231445339
leaf_count=8 39 297 43 30 31 41 21
internal_value=0.00324351 0.00602882 0.0205434 0.00212132 -0.00807846 0.000246892 -0.0281302
internal_weight=113.677 91.9585 18.4571 73.5013 21.7187 15.6937 6.025
internal_count=510 409 82 327 101 72 29
is_linear=0
shrinkage=0.03


Tree=45
num_leaves=6
num_cat=0
split_feature=1 21 28 26 21
split_gain=4.86599 6.17508 8.73033 5.98777 2.44368
threshold=-1.4949282658496275 1.3119891903802805 -0.066598797913368826 -0.58393933035825418 -0.32874760856966645
decision_type=2 2 2 2 2
left_child=4 3 -3 -2 -1
right_child=1 2 -4 -5 -6
leaf_value=0 -0.013247367133253002 0.039493801532586609 -0.0095261123769367108 0.004004514919308139 -0.034584689141563797
leaf_weight=2.5928478986024857 23.770425200462341 7.8008865565061569 4.5857487767934781 67.735395267605782 4.2933047860860816
leaf_count=12 108 34 21 301 21
internal_value=0.00046925 0.00220965 0.0214138 -0.00048797 -0.0225049
internal_weight=110.779 103.892 12.3866 91.5058 6.88615
internal_count=497 464 55 409 33
is_linear=0
shrinkage=0.03


Tree=46
num_leaves=6
num_cat=0
split_feature=1 1 1 21 21
split_gain=4.65107 5.85941 9.79924 9.52691 2.37269
threshold=-1.4949282658496275 0.71355940616908808 1.5811500548895043 1.329187427392557 -0.32874760856966645
decision_type=2 2 2 2 2
left_child=4 3 -3 -2 -1
right_child=1 2 -4 -5 -6
leaf_value=0 0.0025841085561616188 -0.020987995813998891 0.014632268989162624 0.035645965162703144 -0.034135558458738072
leaf_weight=2.5928478986024857 66.413236513733864 19.653036549687389 9.6511078029870969 8.2135303318500501 4.2307724505662909
leaf_count=12 296 90 42 36 21
internal_value=0.000448963 0.0021449 -0.00898032 0.00664197 -0.0221094
internal_weight=110.755 103.931 29.3041 74.6268 6.82362
internal_count=497 464 132 332 33
is_linear=0
shrinkage=0.03


Tree=47
num_leaves=5
num_cat=0
split_feature=19 20 1 17
split_gain=4.85123 5.01294 5.7807 5.22728
threshold=1.8456916163252346 -1.063567908745692 0.71355940616908808 -0.039278099724894704
decision_type=2 2 2 2
left_child=1 3 -3 -1
right_child=-2 2 -4 -5
leaf_value=0.0027609895939151412 -0.033477143092191061 0.0036298004993804834 -0.012924043591512609 0.041808453284632688
leaf_weight=8.425954803824423 2.8575256615877143 69.74741542339325 25.11509607732296 4.56545166671276
leaf_count=38 13 312 114 20
internal_value=0.000434894 0.00162847 -0.000761581 0.0185473
internal_weight=110.711 107.854 94.8625 12.9914
internal_count=497 484 426 58
is_linear=0
shrinkage=0.03


Tree=48
num_leaves=6
num_cat=0
split_feature=1 10 21 3 21
split_gain=4.49863 5.58497 6.20268 2.99324 2.29262
threshold=-1.4949282658496275 -1.0229530672429117 1.3119891903802805 -1.0594337532554554 -0.32874760856966645
decision_type=2 2 2 2 2
left_child=4 3 -3 -2 -1
right_child=1 2 -4 -5 -6
leaf_value=0 0.0034686591501486611 -0.0029565548492527104 0.02012120446410056 0.039630106065952145 -0.033767212792724384
leaf_weight=2.5990603417158127 4.3730527758598328 84.031021177768707 11.157317519187925 4.3661691397428495 4.1781459152698508
leaf_count=12 19 377 49 19 21
internal_value=0.00042162 0.00208605 -4.38797e-05 0.0239725 -0.0218359
internal_weight=110.705 103.928 95.1883 8.73922 6.77721
internal_count=497 464 426 38 33
is_linear=0
shrinkage=0.03


Tree=49
num_leaves=8
num_cat=0
split_feature=22 4 4 3 5 21 5
split_gain=4.65311 4.01705 3.98057 9.44612 4.8574 3.95321 2.34489
threshold=-0.72214915224335008 -1.138933646011181 1.0038683566358368 -0.54810811526003322 0.16766154091809457 1.3672504663884344 0.032262258227620702
decision_type=2 2 2 2 2 2 2
left_child=1 6 4 -4 -2 -3 -1
right_child=2 5 3 -5 -6 -7 -8
leaf_value=-0.013574269004295448 0.01447292760256925 -0.026057747959161198 0.023431228247690741 -0.024803749432776915 -0.00080229338932194484 0.012012810447483762 0.017935592357667826
leaf_weight=2.5363644212484386 35.179333284497261 13.190625399351118 4.4950398802757254 10.809093937277792 37.474496468901634 2.2493034005165091 4.7376499325037003
leaf_count=12 153 62 19 48 172 10 21
internal_value=0.000414795 -0.0113933 0.00360688 -0.00980368 0.00658943 -0.0198236 0.005949
internal_weight=110.672 22.7139 87.958 15.3041 72.6538 15.4399 7.27401
internal_count=497 105 392 67 325 72 33
is_linear=0
shrinkage=0.03


Tree=50
num_leaves=8
num_cat=0
split_feature=24 20 18 13 13 19 28
split_gain=5.0367 5.68093 5.26947 5.25019 4.3536 3.85491 3.3722
threshold=1.0000000180025095e-35 -1.1116639400483277 -0.55309377824680916 -1.1116983654076833 0.87258602919793971 0.33685536293557639 -0.32980913008391366
decision_type=2 2 2 2 2 2 2
left_child=3 6 -3 5 -5 -1 -2
right_child=1 2 -4 4 -6 -7 -8
leaf_value=-0.00028361940043648154 0.0032817660451063932 -0.017969918061212356 0.0072716115502450395 -0.014768084001058161 0.0087549619260913723 0.037166928186333693 0.044881420768050968
leaf_weight=6.0347127467393857 3.3704634159803391 8.2516389787197095 39.833636492490768 36.306890651583672 7.8450898379087439 3.0473291277885437 4.3501121699810019
leaf_count=27 15 37 176 167 35 13 19
internal_value=0.00047697 0.00677749 0.00259413 -0.00601945 -0.0103735 0.0136667 0.0294383
internal_weight=109.04 55.8059 48.0853 53.234 44.152 9.08204 7.72058
internal_count=489 247 213 242 202 40 34
is_linear=0
shrinkage=0.03


Tree=51
num_leaves=8
num_cat=0
split_feature=24 13 16 16 13 21 19
split_gain=4.74242 4.98031 4.28384 7.05515 4.13473 4.07937 3.9376
threshold=1.0000000180025095e-35 -1.1116983654076833 -1.0800546434735061 -0.7550857544473476 0.87258602919793971 -0.6754056607954565 -0.47950248649612276
decision_type=2 2 2 2 2 2 2
left_child=1 5 6 -4 -3 -1 -2
right_child=2 4 3 -5 -6 -7 -8
leaf_value=0.039954457789254515 0.044624468241737228 -0.014407143691387134 -0.030953969031476888 0.00698894285037081 0.0084969325538045704 0 -0.001778614599824145
leaf_weight=2.5966820865869522 3.8571479022502899 36.122854396700859 4.04378718137741 45.902858287096024 7.8648126423358908 6.50887882709503 2.0838479697704306
leaf_count=11 16 167 18 204 35 29 9
internal_value=0.00047849 -0.00583809 0.00658279 0.00335922 -0.0100994 0.0132951 0.0291787
internal_weight=108.981 53.0932 55.8876 49.9466 43.9877 9.10556 5.941
internal_count=489 242 247 222 202 40 25
is_linear=0
shrinkage=0.03


Tree=52
num_leaves=8
num_cat=0
split_feature=24 20 18 12 18 1 28
split_gain=4.45341 5.35115 4.98448 3.6488 5.79752 3.45369 3.16377
threshold=1.0000000180025095e-35 -1.1116639400483277 -0.55309377824680916 -0.34063977104383586 0.54084669347165149 -0.28704084117015366 -0.32980913008391366
decision_type=2 2 2 2 2 2 2
left_child=3 6 -3 5 -5 -1 -2
right_child=1 2 -4 4 -6 -7 -8
leaf_value=0.015679117912405352 0.0029573772157009829 -0.017727920707700337 0.0068541304346936231 -0.028445519165214598 0.001049128522776751 -0.0055035616396764599 0.043132644497450343
leaf_weight=9.2366946339607257 3.3784089684486389 8.2178831696510297 39.964086934924126 11.783989936113359 10.636753916740416 21.294787421822548 4.4004022181034079
leaf_count=41 15 37 176 56 48 97 19
internal_value=0.000474012 0.00638114 0.00231787 -0.00565917 -0.0146403 0.000950051 0.0282865
internal_weight=108.913 55.9608 48.182 52.9522 22.4207 30.5315 7.77881
internal_count=489 247 213 242 104 138 34
is_linear=0
shrinkage=0.03


Tree=53
num_leaves=8
num_cat=0
split_feature=24 16 16 11 29 8 9
split_gain=4.20802 4.11929 6.67066 3.67412 3.669 2.52127 0.84722
threshold=1.0000000180025095e-35 -1.0800546434735061 -0.7550857544473476 1.0972800411216641 -0.57313548957050064 0.26664019598461858 0.82558848476328495
decision_type=2 2 2 2 2 2 2
left_child=3 5 -3 4 -1 -2 -5
right_child=1 2 -4 6 -6 -7 -8
leaf_value=-0.014123423713233052 0.039622188751780085 -0.030460598462900043 0.0065577940003182563 -0.03343324433079535 0.0039871563629054717 0 -0.0098398520112625894
leaf_weight=13.945747792720793 4.0976115465164176 4.0067450106143943 46.064652845263481 3.6880995333194715 30.370516672730446 1.8616856187582014 4.8238410651683807
leaf_count=64 17 18 204 18 137 8 23
internal_value=0.000464557 0.00619931 0.00304518 -0.0055077 -0.00172839 0.0283163 -0.0227009
internal_weight=108.859 56.0307 50.0714 52.8282 44.3163 5.9593 8.51194
internal_count=489 247 222 242 201 25 41
is_linear=0
shrinkage=0.03


Tree=54
num_leaves=8
num_cat=0
split_feature=11 7 2 16 13 12 13
split_gain=4.05961 5.01283 8.63344 4.14001 4.54171 3.34791 1.21393
threshold=1.1685484704481632 0.1312924862723247 0.34622738683584026 -1.2027932373073087 -0.41561987359455999 -0.63767903860535491 -0.53237368855597855
decision_type=2 2 2 2 2 2 2
left_child=3 2 -2 5 -5 -1 -3
right_child=1 6 -4 4 -6 -7 -8
leaf_value=-0.0035592518825551191 -0.028829596067064426 -0.0063460551603585222 0.045294399525311897 -0.0092188747850877571 0.005199930049849347 0.031873183842742403 -0.036185703397426487
leaf_weight=2.9506205022335052 1.9280018210411061 2.7090717405080786 2.1039277911186218 28.454050347208977 58.932894051074982 6.4110770374536497 5.336040422320365
leaf_count=13 9 13 9 130 262 27 26
internal_value=0.000437733 -0.0153313 0.00970305 0.00257726 0.000395948 0.0207141 -0.0282988
internal_weight=108.826 12.077 4.03193 96.7486 87.3869 9.3617 8.04511
internal_count=489 57 18 432 392 40 39
is_linear=0
shrinkage=0.03


Tree=55
num_leaves=8
num_cat=0
split_feature=24 16 16 13 26 18 17
split_gain=6.70086 5.12639 4.69039 4.54688 7.7832 4.08413 3.16222
threshold=-0.21709848370168761 -1.099280388362454 -0.85886045167225411 -1.0768243892997702 0.3972492944597607 0.26492990966791058 -0.45810758282144198
decision_type=2 2 2 2 2 2 2
left_child=3 6 -3 4 -1 -5 -2
right_child=1 2 -4 5 -6 -7 -8
leaf_value=-0.011065085344245639 0.039604821551947778 -0.025425988070821203 0.0049027699919503209 -0.021114625498644825 0.036479402980333746 -0.00078780197846244581 0
leaf_weight=7.3123946338891965 5.0539761781692505 4.2113833874464026 50.461745053529739 24.591568678617477 4.1625755578279495 14.763250723481177 2.3789962679147711
leaf_count=33 21 19 224 116 18 67 10
internal_value=-0.000921636 0.00560047 0.00212545 -0.00897015 0.00694645 -0.0138064 0.0277419
internal_weight=112.936 62.1061 54.6731 50.8298 11.475 39.3548 7.43297
internal_count=508 274 243 234 51 183 31
is_linear=0
shrinkage=0.03


Tree=56
num_leaves=8
num_cat=0
split_feature=24 13 26 6 4 10 8
split_gain=6.32668 4.32694 7.34532 4.05033 5.06162 4.00446 2.8674
threshold=-0.21709848370168761 -1.0768243892997702 0.3972492944597607 -1.319696394509088 0.95783152869283905 0.33164786295446297 -0.97815054724463868
decision_type=2 2 2 2 2 2 2
left_child=1 2 -1 6 -5 -3 -2
right_child=3 5 -4 4 -6 -7 -8
leaf_value=-0.010800563063200267 0.0029862464705551327 -0.0053407137828067851 0.03530493877578799 0.012237807058031026 -0.011261084930188457 -0.025465704526623598 -0.032442346022390323
leaf_weight=7.2867289483547193 3.3626048713922501 24.311855748295784 4.1980746686458588 46.469792515039444 9.0754891932010633 14.845127612352369 3.2577877640724173
leaf_count=33 15 112 18 204 39 71 16
internal_value=-0.000892174 -0.00873636 0.00676572 0.00543242 0.00818649 -0.0134777 -0.0152571
internal_weight=112.807 50.6418 11.4848 62.1657 55.5453 39.157 6.62039
internal_count=508 234 51 274 243 183 31
is_linear=0
shrinkage=0.03


Tree=57
num_leaves=8
num_cat=0
split_feature=24 16 16 13 8 18 7
split_gain=5.95986 4.78441 4.44603 4.11914 7.07641 3.9348 2.37485
threshold=-0.21709848370168761 -1.099280388362454 -0.85886045167225411 -1.0768243892997702 0.32469433482646692 0.26492990966791058 -0.047460730081481668
decision_type=2 2 2 2 2 2 2
left_child=3 6 -3 4 -1 -5 -2
right_child=1 2 -4 5 -6 -7 -8
leaf_value=-0.010697579110487566 0.035361362992126132 -0.025020756210098069 0.0045862993820851286 -0.020392671631173927 0.034499746420938567 -0.00039047609824743287 0
leaf_weight=7.2679685205221158 5.5827957540750504 4.1820576190948477 50.596426531672478 24.272898569703102 4.2237043380737305 14.692313954234121 1.8853780478239048
leaf_count=33 23 19 224 116 18 67 8
internal_value=-0.000876324 0.00524815 0.00189038 -0.00851289 0.00659054 -0.0131611 0.0265855
internal_weight=112.704 62.2467 54.7785 50.4569 11.4917 38.9652 7.46817
internal_count=508 274 243 234 51 183 31
is_linear=0
shrinkage=0.03


Tree=58
num_leaves=8
num_cat=0
split_feature=24 0 10 6 13 26 6
split_gain=5.62594 4.09776 7.24333 3.825 4.58442 2.1861 1.58521
threshold=-0.21709848370168761 0.56304941385875629 0.29831511187870907 -1.319696394509088 -0.32424919697268723 -0.027443931494105265 -1.5765516317956567
decision_type=2 2 2 2 2 2 2
left_child=1 5 -3 6 -5 -1 -2
right_child=3 2 -4 4 -6 -7 -8
leaf_value=-0.025164458545579797 0 0.023647378951595854 -0.012182214101152038 -0.0049106735461815071 0.013377319153725387 -0.0077864710009556805 -0.027401222579638278
leaf_weight=11.588481217622759 3.2566616833209991 7.7474451512098339 11.599249199032782 16.819559380412102 38.886705681681633 19.33292755484581 3.3320065140724173
leaf_count=56 15 35 55 76 167 88 16
internal_value=-0.00084978 -0.00829166 0.00223731 0.00508925 0.00775804 -0.0149588 -0.0150598
internal_weight=112.563 50.2681 19.3467 62.2949 55.7063 30.9214 6.58867
internal_count=508 234 90 274 243 144 31
is_linear=0
shrinkage=0.03


Tree=59
num_leaves=8
num_cat=0
split_feature=15 14 2 25 2 7 14
split_gain=3.59668 6.1691 7.59319 4.59635 6.41464 6.10402 2.99318
threshold=-0.13437254326902479 0.069074173818376591 1.0423453033180472 0.051783793760662361 0.01624638198019928 -0.74443557266425275 -0.23191903993808441
decision_type=2 2 2 2 2 2 2
left_child=3 6 -3 4 -1 -5 -2
right_child=1 2 -4 5 -6 -7 -8
leaf_value=-0.0054118611374592744 -0.0082045326664363788 -0.004145590426285514 0.034175997215176772 -0.018880310447429847 0.022721857264733712 0.0094301161105468292 -0.032895343495320445
leaf_weight=10.696129992604257 12.217833131551744 32.42788764834404 4.5996631979942313 12.718617379665377 18.913807928562164 12.909482941031454 7.9727541655302039
leaf_count=49 56 148 20 60 81 57 37
internal_value=-0.000837333 -0.00611185 0.00107831 0.00452845 0.0124867 -0.00453887 -0.0191223
internal_weight=112.456 57.2181 37.0276 55.238 29.6099 25.6281 20.1906
internal_count=508 261 168 247 130 117 93
is_linear=0
shrinkage=0.03


Tree=60
num_leaves=8
num_cat=0
split_feature=22 22 25 3 1 8 1
split_gain=6.63104 7.58816 6.72794 4.15327 3.21725 3.29461 2.87587
threshold=-0.72214915224335008 0.59374529890927641 -0.73913001470760509 -1.2666833968478486 0.61709871000502103 -0.16066119581139063 0.91300179272619253
decision_type=2 2 2 2 2 2 2
left_child=4 3 -3 -2 5 -1 -6
right_child=1 2 -4 -5 6 -7 -8
leaf_value=-0.022737043282432798 -0.010184919957217554 0.0096082187639738477 -0.017013866185748062 0.014780989081782363 0.03270394491734973 0.0042952782249325045 -0.012543449567204303
leaf_weight=16.244607448577888 5.9237052500247946 13.786658987402914 19.473705634474754 50.918800726532936 1.8316491544246667 4.5696284323930731 1.5762833803892133
leaf_count=76 27 60 89 229 8 21 8
internal_value=0.00153721 0.00533748 -0.00583618 0.0119699 -0.0120781 -0.0165854 0.0119438
internal_weight=114.325 90.1029 33.2604 56.8425 24.2222 20.8142 3.40793
internal_count=518 405 149 256 113 97 16
is_linear=0
shrinkage=0.03


Tree=61
num_leaves=8
num_cat=0
split_feature=22 5 22 5 16 12 4
split_gain=6.24683 7.56611 7.11677 5.87062 4.94332 3.96212 2.76584
threshold=-0.72214915224335008 0.01994645279458512 0.59374529890927641 0.79697785675381361 0.19426303152768709 -0.70236248736301732 0.29068527292105489
decision_type=2 2 2 2 2 2 2
left_child=1 6 3 -2 -4 -3 -1
right_child=2 5 4 -5 -6 -7 -8
leaf_value=-0.038320997339445127 0.01640965414114608 -0.029459557811807906 -0.01491076843019924 -0.0067718855985033286 0.0080636080872987532 0.0090973775153225696 0
leaf_weight=7.8454479873180407 45.456842377781868 2.1140053421258918 20.062762781977654 11.590191781520842 13.118295252323149 12.334851846098898 1.8077013939619062
leaf_count=38 201 10 91 55 58 57 8
internal_value=0.00148803 -0.0117656 0.0051666 0.0115676 -0.00567517 0.00181308 -0.0312476
internal_weight=114.33 24.102 90.2281 57.047 33.1811 14.4489 9.65315
internal_count=518 113 405 256 149 67 46
is_linear=0
shrinkage=0.03


Tree=62
num_leaves=8
num_cat=0
split_feature=22 22 25 0 6 9 29
split_gain=5.92856 6.67984 6.32234 4.32838 4.28668 5.59017 2.89267
threshold=-0.72214915224335008 0.59374529890927641 -0.73913001470760509 1.604392116365122 -0.61080357259242379 -0.17053145887029422 -1.5566344435458592
decision_type=2 2 2 2 2 2 2
left_child=4 3 -3 -2 6 -6 -1
right_child=1 2 -4 -5 5 -7 -8
leaf_value=0 0.013477376568271854 0.0094056968102315397 -0.016430312718740857 -0.016922451397979807 0.014040064186871539 -0.026715084994094734 -0.031993856062131079
leaf_weight=2.9927000254392615 53.489430800080299 13.807084262371061 19.312822952866554 3.7265644669532767 8.6264971047639829 3.6517317593097678 8.7213668823242205
leaf_count=13 239 60 89 17 39 18 43
internal_value=0.00142846 0.00500361 -0.00551506 0.0111879 -0.0115178 0.000567373 -0.0238909
internal_weight=114.328 90.3359 33.1199 57.216 23.9923 12.2782 11.7141
internal_count=518 405 149 256 113 57 56
is_linear=0
shrinkage=0.03


Tree=63
num_leaves=8
num_cat=0
split_feature=22 5 22 25 5 12 7
split_gain=5.61669 7.16759 6.26476 5.99311 5.45389 3.81538 0.921842
threshold=-0.72214915224335008 0.01994645279458512 0.59374529890927641 -0.73913001470760509 0.79697785675381361 -0.70236248736301732 1.5723772763311403
decision_type=2 2 2 2 2 2 2
left_child=1 6 4 -4 -2 -3 -1
right_child=2 5 3 -5 -6 -7 -8
leaf_value=-0.036549621012552519 0.015456245207437904 -0.028984746989730598 0.0091214811877464372 -0.016043317177290684 -0.0068467029500328637 0.0090080692829178511 -0.0087093404027956036
leaf_weight=6.7551295161247271 45.796609878540039 2.0836670994758597 13.834678396582602 19.206255182623863 11.601756632328032 12.328238695859907 2.7030456513166428
leaf_count=34 201 10 60 89 55 57 12
internal_value=0.00137132 -0.0112674 0.00484244 -0.00536264 0.010813 0.00188522 -0.0304778
internal_weight=114.309 23.8701 90.4393 33.0409 57.3984 14.4119 9.45818
internal_count=518 113 405 149 256 67 46
is_linear=0
shrinkage=0.03


Tree=64
num_leaves=7
num_cat=0
split_feature=11 29 20 21 13 14
split_gain=3.83583 4.89567 4.32048 4.26263 3.82033 3.02978
threshold=-0.30598471705606339 1.4242486565366115 -1.249585710111879 1.0043841389968029 -0.56936594676240315 1.1605055237679711
decision_type=2 2 2 2 2 2
left_child=2 3 -1 -2 -3 -4
right_child=1 4 5 -5 -6 -7
leaf_value=0.025763077183468392 0.0038566488598871158 0.010897508214683356 -0.014740303194878422 0.022541354694527876 -0.026827960583735003 0.008220961640092464
leaf_weight=2.4417029917240134 58.212931111454964 2.833099365234375 25.604180753231052 13.296181574463843 6.3675379753112775 5.5192578732967368
leaf_count=11 264 13 118 58 30 24
internal_value=0.00131133 0.00489071 -0.00703442 0.00762475 -0.0146689 -0.0103766
internal_weight=114.275 80.7098 33.5651 71.5091 9.20064 31.1234
internal_count=518 365 153 322 43 142
is_linear=0
shrinkage=0.03


Tree=65
num_leaves=6
num_cat=0
split_feature=20 21 21 20 19
split_gain=4.5103 5.14796 10.3572 5.3882 1.42378
threshold=1.9625478520034105 -0.55441583701620167 -1.0481290373390497 -0.5037937178114642 -1.0610215256788249
decision_type=2 2 2 2 2
left_child=1 2 -1 -3 -2
right_child=4 3 -4 -5 -6
leaf_value=-0.0070355476167548846 -0.033442212063534558 -0.012214577910360586 0.024582672880929596 0.0051677711215722347 0
leaf_weight=14.345167130231856 3.1753584742546082 24.666374117136002 23.287597849965096 42.273073256015778 1.9571253806352604
leaf_count=66 15 113 103 191 9
internal_value=0.00224512 0.00371174 0.0124785 -0.00121745 -0.0230961
internal_weight=109.705 104.572 37.6328 66.9394 5.13248
internal_count=497 473 169 304 24
is_linear=0
shrinkage=0.03


Tree=66
num_leaves=7
num_cat=0
split_feature=20 21 21 20 12 29
split_gain=4.35374 5.46232 7.16187 5.37173 3.0233 4.28021
threshold=1.5448473130858484 -0.55441583701620167 -1.0481290373390497 -0.5037937178114642 -0.022941539835196575 -0.64468944534682771
decision_type=2 2 2 2 2 2
left_child=1 2 -1 -3 5 -2
right_child=4 3 -4 -5 -6 -7
leaf_value=-0.0041532916465287706 -0.028892036136962944 -0.011903187341525658 0.02329878847209791 0.0056541961727168489 -0.031625744355287741 0.019665581398483678
leaf_weight=12.576336145400999 1.9200548231601713 24.574640110135078 22.747155234217644 40.006171673536301 4.6408355385065061 3.2896888703107834
leaf_count=58 9 113 100 180 22 15
internal_value=0.00216652 0.00412844 0.0134833 -0.000998963 -0.0159834 0
internal_weight=109.755 99.9043 35.3235 64.5808 9.85058 5.20974
internal_count=497 451 158 293 46 24
is_linear=0
shrinkage=0.03


Tree=67
num_leaves=8
num_cat=0
split_feature=21 21 22 2 25 2 25
split_gain=3.73278 8.57239 6.77478 5.82158 7.11824 3.588 3.12024
threshold=-0.55441583701620167 -1.0481290373390497 -0.72214915224335008 -0.16989451600059152 -0.31462225842961089 -1.0267103785889364 1.1789411374665903
decision_type=2 2 2 2 2 2 2
left_child=1 5 -3 6 -5 -1 -2
right_child=3 2 -4 4 -6 -7 -8
leaf_value=0.016953911723378803 -0.017919242696952376 -0.0091417416854436481 0.026899356448763796 0.016737810308134676 -0.007410023831365669 -0.015872833757444752 0.0067652792129158845
leaf_weight=3.0419072359800348 21.500015363097194 5.2677165567874935 20.939769044518471 21.16460870206356 20.916855826973915 12.008180543780323 4.9537116587162009
leaf_count=14 103 24 91 92 94 56 23
internal_value=0.00209049 0.00915767 0.0193767 -0.00213394 0.00468074 -0.00833855 -0.0130138
internal_weight=109.793 41.2576 26.2075 68.5352 42.0815 15.0501 26.4537
internal_count=497 185 115 312 186 70 126
is_linear=0
shrinkage=0.03


Tree=68
num_leaves=7
num_cat=0
split_feature=20 21 21 20 28 27
split_gain=4.17283 4.85952 6.2678 5.06613 2.91716 1.48336
threshold=1.5448473130858484 -0.55441583701620167 -1.0481290373390497 -0.5037937178114642 -0.72039318617189885 -0.80063525204475339
decision_type=2 2 2 2 2 2
left_child=1 2 -1 -3 -2 -6
right_child=4 3 -4 -5 5 -7
leaf_value=-0.0038157029703721045 0.009008626901709043 -0.011533252364135091 0.021833659184750193 0.0055457713812442763 0 -0.031981915052045971
leaf_weight=12.521594956517218 2.4200523942708969 24.439650386571884 22.982113271951675 40.011032328009605 1.9783799201250074 5.3989177048206312
leaf_count=58 11 113 100 180 9 26
internal_value=0.00202933 0.00394675 0.0127375 -0.000900628 -0.0157876 -0.0247411
internal_weight=109.752 99.9544 35.5037 64.4507 9.79735 7.3773
internal_count=497 451 158 293 46 35
is_linear=0
shrinkage=0.03


Tree=69
num_leaves=8
num_cat=0
split_feature=2 21 21 21 18 29 12
split_gain=3.3978 5.14069 4.70716 4.74359 3.72785 3.10225 2.22285
threshold=-0.20060402202472719 -0.55441583701620167 -1.0481290373390497 -0.99766386801863705 0.25947939583861251 -0.85112039860162414 -0.070606916353512059
decision_type=2 2 2 2 2 2 2
left_child=1 4 6 -4 -1 -3 -2
right_child=2 5 3 -5 -6 -7 -8
leaf_value=-0.00092442918082511882 0.0017499388661429474 -0.027642219989179415 0.04557338604538573 0.0070492354991486678 0.028909061562647203 -0.0050286562967977967 -0.025641687846526373
leaf_weight=11.028345942497252 4.2201045751571655 7.9076336622238186 2.3615744262933722 56.478060647845268 4.626443311572074 18.390303492546082 4.7541292011737806
leaf_count=51 19 40 10 248 20 86 23
internal_value=0.00196223 -0.00461399 0.00612439 0.00928661 0.00850445 -0.0126652 -0.013058
internal_weight=109.767 41.9527 67.8139 58.8396 15.6548 26.2979 8.97423
internal_count=497 197 300 258 71 126 42
is_linear=0
shrinkage=0.03


Tree=70
num_leaves=7
num_cat=0
split_feature=14 14 18 6 29 18
split_gain=4.42183 4.24846 4.25221 3.88262 4.50508 2.31856
threshold=1.1605055237679711 1.5972253013849682 0.10548786042277973 -1.262825861494276 1.4885868743653801 -0.17521584481459057
decision_type=2 2 2 2 2 2
left_child=3 -2 -3 5 -5 -1
right_child=1 2 -4 4 -6 -7
leaf_value=0.0031869146096932866 0.040715537478138844 -0.02944502814584149 0.01534232239868517 0 -0.025676675725301159 -0.03188381487255329
leaf_weight=1.7080852687358854 3.2261642515659315 1.9108004570007322 5.5412026941776276 82.040551513433456 5.8409013152122489 5.7492589950561515
leaf_count=8 14 9 24 367 27 29
internal_value=-0.00171191 0.0158036 0.00138987 -0.00385128 -0.0019106 -0.0235938
internal_weight=106.017 10.6782 7.452 95.3388 87.8815 7.45734
internal_count=478 47 33 431 394 37
is_linear=0
shrinkage=0.03


Tree=71
num_leaves=7
num_cat=0
split_feature=14 14 18 6 6 18
split_gain=4.18543 4.01572 4.07458 3.71556 4.42143 2.24911
threshold=1.1605055237679711 1.5972253013849682 0.10548786042277973 -1.262825861494276 -1.1492457764774293 -0.17521584481459057
decision_type=2 2 2 2 2 2
left_child=3 -2 -3 5 -5 -1
right_child=1 2 -4 4 -6 -7
leaf_value=0.0031193553830747814 0.039449127759074346 -0.029036811222763973 0.014902465834912757 0.033817711356249003 -0.0031507358752259377 -0.031424067255620525
leaf_weight=1.7100234627723692 3.2550686597824079 1.8910794258117674 5.5569800734519958 2.197676107287406 85.633632123470306 5.6712604016065589
leaf_count=8 14 9 24 10 384 29
internal_value=-0.00166719 0.0153491 0.00128446 -0.00375449 -0.00186114 -0.0231655
internal_weight=105.916 10.7031 7.44806 95.2126 87.8313 7.38128
internal_count=478 47 33 431 394 37
is_linear=0
shrinkage=0.03


Tree=72
num_leaves=8
num_cat=0
split_feature=21 15 5 6 11 6 16
split_gain=4.22599 4.02384 5.26142 3.45451 2.13033 10.9664 0.73293
threshold=-1.0481290373390497 0.5839856393088515 -0.54176505489461235 1.3296306237742392 -0.14400881611445696 0.39525879755196197 1.0579121747038724
decision_type=2 2 2 2 2 2 2
left_child=4 3 -3 -2 6 -6 -1
right_child=1 2 -4 -5 5 -7 -8
leaf_value=-0.035647172393355485 -0.0052613159541385589 -0.005479948161404305 0.022539167283722378 0.015982608941549594 0.035349477576551887 -0.031122552430057321 -0.004877303656041521
leaf_weight=4.2235225588083267 62.071957051753998 9.2662186324596423 13.984155103564261 6.8578286319971076 2.8899831473827344 4.8046374917030334 1.7075102329254148
leaf_count=20 281 41 62 30 13 23 8
internal_value=-0.00160998 0.000684695 0.0113121 -0.00290259 -0.0167269 -0.00447244 -0.0293126
internal_weight=105.806 92.1802 23.2504 68.9298 13.6257 7.69462 5.93103
internal_count=478 414 103 311 64 36 28
is_linear=0
shrinkage=0.03


Tree=73
num_leaves=7
num_cat=0
split_feature=21 27 0 2 19 27
split_gain=4.04128 4.30614 4.10939 3.9577 3.73651 4.65845
threshold=-1.0481290373390497 -0.35086390160762326 0.54179687804454957 -0.78330224510617208 1.0859528054771781 0.33156677639909332
decision_type=2 2 2 2 2 2
left_child=4 3 -3 -2 5 -1
right_child=1 2 -4 -5 -6 -7
leaf_value=-0.01734357924669945 -0.0074937829600811847 -0.0093755579884617427 0.0063266085265397138 0.01654161256058333 -0.03293741395386654 0.027071470172509965
leaf_weight=5.2338964194059354 7.5684642791748074 40.528504133224487 22.41385817527771 21.659935191273689 5.8436903208494186 2.4614938646554947
leaf_count=25 36 184 100 94 28 11
internal_value=-0.00156777 0.00066902 -0.00368064 0.0100842 -0.0164015 -0.00121901
internal_weight=105.71 92.1708 62.9424 29.2284 13.5391 7.69539
internal_count=478 414 284 130 64 36
is_linear=0
shrinkage=0.03


Tree=74
num_leaves=6
num_cat=0
split_feature=29 13 29 7 18
split_gain=3.72405 4.05927 3.8021 3.48995 3.22484
threshold=1.4885868743653801 -0.56936594676240315 1.0554641217691791 1.315394805729398 -0.57909247423930543
decision_type=2 2 2 2 2
left_child=2 -2 4 -4 -1
right_child=1 -3 3 -5 -6
leaf_value=-0.012080224998022507 0.010398220017199538 -0.036368743268446246 0.019246262133822675 -0.017373080580457959 0.00093600091623328692
leaf_weight=22.511977761983871 1.7630820870399473 4.4741061776876441 13.142975538969038 1.9954607039690007 61.71086174249649
leaf_count=103 8 21 58 10 278
internal_value=-0.00152709 -0.0226171 0 0.0134131 -0.00255348
internal_weight=105.598 6.23719 99.3613 15.1384 84.2228
internal_count=478 29 449 68 381
is_linear=0
shrinkage=0.03


Tree=75
num_leaves=8
num_cat=0
split_feature=24 25 2 3 20 20 2
split_gain=3.4719 3.9762 5.76251 4.70306 3.8474 4.19411 3.71162
threshold=1.0000000180025095e-35 -0.69992188888131923 -0.33804903253677743 -0.43269037755732814 -0.67050533248688782 -1.1116639400483277 0.074047839631411025
decision_type=2 2 2 2 2 2 2
left_child=4 2 -2 -3 5 -1 -6
right_child=1 3 -4 -5 6 -7 -8
leaf_value=0.0044528313440996272 -0.016677684174074087 0.013071796919941252 0.024784417491654446 -0.0077724204242565547 -0.0075573135161053169 -0.026817806410418647 0.011233503564155952
leaf_weight=5.1925573945045462 2.9094378650188473 15.973472893238066 15.94892658293247 22.303323373198509 18.8817058801651 10.147630825638769 17.260816872119904
leaf_count=24 14 71 68 99 89 49 78
internal_value=0.00159184 0.00667882 0.0176641 0.000862166 -0.00395469 -0.0161651 0.00130325
internal_weight=108.618 57.1352 18.8584 38.2768 51.4827 15.3402 36.1425
internal_count=492 252 82 170 240 73 167
is_linear=0
shrinkage=0.03


Tree=76
num_leaves=8
num_cat=0
split_feature=4 4 14 24 14 25 16
split_gain=3.27943 4.34983 5.07842 4.83242 3.3919 8.4348 5.14843
threshold=0.54123893407120571 0.90940376219448327 0.056274053419484833 0.060033399393236833 1.1605055237679711 -0.88908759848430174 -0.36353480979544989
decision_type=2 2 2 2 2 2 2
left_child=4 3 -3 -2 6 -6 -1
right_child=1 2 -4 -5 5 -7 -8
leaf_value=0.0058770317003596622 0.00020868348481690692 -0.019825970268368728 0.011544258889119488 0.035518212511582055 -0.02362975564588659 0.038444554967784088 -0.010573049616224586
leaf_weight=27.541405275464058 6.324705868959426 6.7320616543293026 11.286166444420813 8.0959535390138608 2.2924127876758575 4.6661826223134986 41.642255112528801
leaf_count=126 29 31 49 34 10 20 193
internal_value=0.00154087 0.00943625 -0.000202176 0.0212511 -0.00180796 0.0168938 -0.00394636
internal_weight=108.581 32.4389 18.0182 14.4207 76.1423 6.9586 69.1837
internal_count=492 143 80 63 349 30 319
is_linear=0
shrinkage=0.03


Tree=77
num_leaves=8
num_cat=0
split_feature=27 20 8 13 27 1 0
split_gain=3.1329 5.7738 6.50801 4.50248 3.49109 9.1906 4.64341
threshold=0.47964455244199755 -0.67050533248688782 0.17074034116594045 -0.1880252004331133 0.1069459675984233 -0.55487558927218317 0.70305937201242197
decision_type=2 2 2 2 2 2 2
left_child=4 3 -3 -2 6 -6 -1
right_child=1 2 -4 -5 5 -7 -8
leaf_value=-0.0023697097156019451 0.009378619423685116 0.0052836414118120137 0.038125963375781703 -0.025828182316224125 0.018525277198526577 -0.028107266305695065 0.020049010875282072
leaf_weight=46.797479003667831 5.6264171898365021 17.205427005887035 7.7700497210025778 5.7075877934694272 4.6948549747467068 11.497394099831579 9.2279229462146741
leaf_count=212 26 77 34 26 21 55 41
internal_value=0.00150441 0.00862495 0.0166001 -0.00839032 -0.00204875 -0.0139977 0.00144755
internal_weight=108.527 36.3095 24.9755 11.334 72.2177 16.1922 56.0254
internal_count=492 163 111 52 329 76 253
is_linear=0
shrinkage=0.03


Tree=78
num_leaves=8
num_cat=0
split_feature=24 13 8 20 24 28 8
split_gain=3.20696 3.55865 5.42457 3.58271 3.44602 5.10407 3.32646
threshold=1.0000000180025095e-35 -1.2269228876861857 0.3573215435103918 -0.67050533248688782 1.2167647952356049 0.35070137736380813 0.89623627101360259
decision_type=2 2 2 2 2 2 2
left_child=1 2 -1 -3 5 -2 -6
right_child=4 3 -4 -5 6 -7 -8
leaf_value=-0.013375080781590155 0.019054158318203573 -0.01816219269189764 0.048968293803483852 -0.00046937702749824775 -0.0077213487644745204 -0.0050079582311799726 0.025180269084777867
leaf_weight=1.6139571964740747 25.532303109765053 14.686857283115385 1.9286381751298902 33.109467253088951 18.791708722710613 10.451229512691496 2.3837782442569724
leaf_count=8 111 71 8 153 85 46 10
internal_value=0.00146779 -0.00387161 0.0219523 -0.00623898 0.00635429 0.0119454 -0.00296267
internal_weight=108.498 51.3389 3.5426 47.7963 57.159 35.9835 21.1755
internal_count=492 240 16 224 252 157 95
is_linear=0
shrinkage=0.03


Tree=79
num_leaves=8
num_cat=0
split_feature=24 26 9 27 13 8 27
split_gain=3.0207 3.85572 4.71344 4.32299 3.39037 5.17378 3.68331
threshold=1.0000000180025095e-35 -0.10217068645151818 -1.2334271410081856 -1.0144668484508539 -1.2269228876861857 0.3573215435103918 -0.33553327010277334
decision_type=2 2 2 2 2 2 2
left_child=4 3 -3 -2 5 -1 -6
right_child=1 2 -4 -5 6 -7 -8
leaf_value=-0.013157662228805917 0.045791804714927699 0.026257919912759626 -0.01076544227453129 0.0083097728202407659 0.0067096163002660948 0.047678972410560599 -0.01128255937971483
leaf_weight=1.6047669649124139 2.4086078107357016 2.9124281406402615 16.874232098460197 35.017971977591515 13.393212169408796 1.9427782595157621 34.296788692474365
leaf_count=8 10 13 74 155 62 8 162
internal_value=0.00142935 0.00616716 -0.00421585 0.0117868 -0.00375919 0.0214217 -0.00607859
internal_weight=108.451 57.2132 19.7867 37.4266 51.2375 3.54755 47.69
internal_count=492 252 87 165 240 16 224
is_linear=0
shrinkage=0.03


Tree=80
num_leaves=7
num_cat=0
split_feature=3 27 15 22 1 0
split_gain=3.91263 4.0822 7.5491 4.51602 2.90852 1.30535
threshold=1.2573148181898477 0.44057237894675744 -0.85162741614299731 -0.72214915224335008 1.4957650323602711 0.72619330732453136
decision_type=2 2 2 2 2 2
left_child=1 3 -3 -1 5 -2
right_child=4 2 -4 -5 -6 -7
leaf_value=-0.017903048455689609 -0.006652506355265494 -0.013682710425195818 0.018236545989073139 0.0019477221560856468 0.0056767787800540946 -0.035451335239694008
leaf_weight=12.243098109960554 3.4063235968351346 7.9506989270448676 26.585817411541939 47.194993585348129 3.2367442399263382 4.3221041411161423
leaf_count=59 16 37 116 211 15 21
internal_value=0.000387809 0.00246542 0.0105752 -0.00222501 -0.0158648 -0.0252764
internal_weight=104.94 93.9746 34.5365 59.4381 10.9652 7.72843
internal_count=475 423 153 270 52 37
is_linear=0
shrinkage=0.03


Tree=81
num_leaves=6
num_cat=0
split_feature=11 4 2 12 19
split_gain=3.67911 4.07684 4.52591 2.7629 1.18894
threshold=1.1685484704481632 1.8477662991489592 -0.52258704637654152 0.95925871680258978 0.47471754899706947
decision_type=2 2 2 2 2
left_child=1 2 -1 4 -2
right_child=3 -3 -4 -5 -6
leaf_value=-0.0060836591157631568 -0.030673707373848055 -0.031961059700890755 0.0081340964460057796 0.010704870683382753 -0.006110611683158019
leaf_weight=28.403130009770393 5.3436717838048917 2.1729549020528784 62.53446364402771 2.2474652379751197 4.1890105158090591
leaf_count=133 27 10 275 10 20
internal_value=0.000361201 0.00245434 0.00361364 -0.01481 -0.0217693
internal_weight=104.891 93.1105 90.9376 11.7801 9.53268
internal_count=475 418 408 57 47
is_linear=0
shrinkage=0.03


Tree=82
num_leaves=8
num_cat=0
split_feature=3 27 15 22 8 25 6
split_gain=3.64807 3.80712 7.14234 4.28001 2.91975 3.12417 0.621885
threshold=1.2573148181898477 0.44057237894675744 -0.85162741614299731 -0.72214915224335008 -0.13062492389287947 -0.81586771332615016 1.5068403653901115
decision_type=2 2 2 2 2 2 2
left_child=1 3 -3 -1 5 -2 -6
right_child=4 2 -4 -5 6 -7 -8
leaf_value=-0.017524606861438138 -0.018983128256612882 -0.013482553401779982 0.017574562749613644 0.001846293873298414 -0.034118260352024692 0.025402194327711479 -0.0084585185150173308
leaf_weight=12.159382507205008 1.9384407252073286 7.9252050668001166 26.696386933326721 47.210446283221245 4.0622164309024793 2.1091178506612778 2.7555210143327713
leaf_count=59 9 37 116 211 20 10 13
internal_value=0.00033203 0.00233283 0.010152 -0.00220155 -0.0154348 0.00328285 -0.0265124
internal_weight=104.857 93.9914 34.6216 59.3698 10.8653 4.04756 6.81774
internal_count=475 423 153 270 52 19 33
is_linear=0
shrinkage=0.03


Tree=83
num_leaves=7
num_cat=0
split_feature=3 27 15 15 1 0
split_gain=3.48358 3.57662 6.72891 3.63821 2.78651 1.26295
threshold=1.2573148181898477 0.44057237894675744 -0.85162741614299731 -0.050251732475599546 1.4957650323602711 0.72619330732453136
decision_type=2 2 2 2 2 2
left_child=1 3 -3 -1 5 -2
right_child=4 2 -4 -5 -6 -7
leaf_value=0.0052676830291365166 -0.006184273385845024 -0.013169430460587691 0.016999990233321053 -0.0093500146084703542 0.0058797842895680075 -0.034611281523433256
leaf_weight=28.945342943072319 3.3675878345966321 7.8897933512926093 26.796203836798668 30.365742176771164 3.2184668630361557 4.215474471449852
leaf_count=130 16 37 116 140 15 21
internal_value=0.00030537 0.00225729 0.00982629 -0.00214122 -0.0151478 -0.0244977
internal_weight=104.799 93.9971 34.686 59.3111 10.8015 7.58306
internal_count=475 423 153 270 52 37
is_linear=0
shrinkage=0.03


Tree=84
num_leaves=7
num_cat=0
split_feature=11 13 16 7 24 7
split_gain=3.33969 4.04692 3.98438 2.55888 2.2351 1.44776
threshold=1.1685484704481632 1.717000702648702 -0.64166250705029104 0.1312924862723247 -1.1379001181139543 -0.37572962491115008
decision_type=2 2 2 2 2 2
left_child=1 2 -1 -2 -5 -3
right_child=3 5 -4 4 -6 -7
leaf_value=-0.0051710168269000949 0.0065859989295349889 0 0.0083300096071745391 -0.0028053081010586379 -0.035022535259864908 -0.030146983558131651
leaf_weight=27.917121067643166 3.0773406624793997 1.7810763120651243 59.767775312066078 3.9387986212968817 4.6124969124793997 3.6507478505372992
leaf_count=126 14 8 267 20 23 17
internal_value=0.000284197 0.0022713 0.00395586 -0.0142668 -0.0223341 -0.0209763
internal_weight=104.745 93.1167 87.6849 11.6286 8.5513 5.43182
internal_count=475 418 393 57 43 25
is_linear=0
shrinkage=0.03


Tree=85
num_leaves=8
num_cat=0
split_feature=24 4 3 4 11 4 1
split_gain=3.86122 4.1198 5.34897 4.29631 4.03887 2.57049 2.4449
threshold=-1.1108855309555918 0.97359336203002178 -0.63368059953114331 0.54123893407120571 0.53183743145040452 -0.31212722261597864 -0.4465596720704752
decision_type=2 2 2 2 2 2 2
left_child=4 3 -3 -2 6 -6 -1
right_child=1 2 -4 -5 5 -7 -8
leaf_value=0.0010177464620251949 -0.0043119740443585651 0.011740496090640876 -0.030363920254315269 0.013265427651515626 -0.028069533131014478 0.0046020646305646911 0.029019001386404255
leaf_weight=4.7178377807140341 63.440433114767075 3.0167904943227759 9.0271643996238691 14.69421176612377 2.2526028454303741 6.2381393462419492 8.700634717941286
leaf_count=21 289 13 41 64 12 29 39
internal_value=-0.000700044 -0.00350682 -0.019276 -0.000829366 0.010305 -0.00509057 0.0202071
internal_weight=112.088 90.1786 12.044 78.1346 21.9092 8.49074 13.4185
internal_count=508 407 54 353 101 41 60
is_linear=0
shrinkage=0.03


Tree=86
num_leaves=8
num_cat=0
split_feature=16 14 18 20 0 6 3
split_gain=3.65318 3.41632 6.67591 4.05849 3.30366 2.34577 1.34766
threshold=-1.1777929560073181 0.056274053419484833 -0.31731487602941627 -0.03013725364419333 -0.023264013453184209 1.0349878410039657 -0.38846179487274479
decision_type=2 2 2 2 2 2 2
left_child=4 3 -3 -2 6 -6 -1
right_child=1 2 -4 -5 5 -7 -8
leaf_value=0.01093448006524431 -0.01583034469068369 0.019888819614436164 -0.0041752611428659044 0.0002379113651816513 0.03799389711242912 0.000321296967320657 -0.017579690150813922
leaf_weight=1.7958244830369947 26.704678326845169 14.218577116727827 32.20857372879982 27.601585298776627 4.496408283710478 2.5434197038412094 2.4541468769311905
leaf_count=8 125 63 146 125 19 11 11
internal_value=-0.000676161 -0.00257816 0.00327952 -0.00766975 0.0148458 0.0265702 -0.00451941
internal_weight=112.023 100.733 46.4272 54.3063 11.2898 7.03983 4.24997
internal_count=508 459 209 250 49 30 19
is_linear=0
shrinkage=0.03


Tree=87
num_leaves=8
num_cat=0
split_feature=12 6 11 4 4 14 3
split_gain=3.33866 6.07178 5.88981 5.07697 5.8269 2.72716 2.57724
threshold=-0.43469781930451329 -0.67133377565085672 0.30216225637948518 1.0038683566358368 0.5318134089915808 0.26089044708507053 -0.63368059953114331
decision_type=2 2 2 2 2 2 2
left_child=1 5 -3 4 -2 -1 -5
right_child=3 2 -4 6 -6 -7 -8
leaf_value=-0.027731026697696868 -0.0059629053930897917 0.022785208411256107 -0.0015412005925049435 0.0046781241268429386 0.016377198826942482 0.0090656739845533206 -0.029504872376817037
leaf_weight=5.2966884970664969 47.478196740150452 18.062204077839851 16.056398957967758 1.8932779878377903 12.591996833682058 1.8232752829790113 8.734963044524191
leaf_count=25 218 80 74 8 55 8 40
internal_value=-0.000645474 0.00600673 0.0113922 -0.00463343 -0.00102768 -0.0175867 -0.0229894
internal_weight=111.937 41.2386 34.1186 70.6984 60.0702 7.11996 10.6282
internal_count=508 187 154 321 273 33 48
is_linear=0
shrinkage=0.03


Tree=88
num_leaves=8
num_cat=0
split_feature=24 4 3 9 11 10 19
split_gain=3.46932 3.74818 4.92947 4.21786 3.71525 5.51217 3.83255
threshold=-1.1108855309555918 0.97359336203002178 -0.63368059953114331 0.31305692270631014 0.53183743145040452 -0.2409149275868338 0.47471754899706947
decision_type=2 2 2 2 2 2 2
left_child=4 3 -3 -2 5 -1 -6
right_child=1 2 -4 -5 6 -7 -8
leaf_value=-0.0057550050476786472 -0.0055742025674015904 0.011168390661451458 -0.029254042004178749 0.0091917627554077546 -0.018882907613880139 0.032234523219686104 0.019558651586149035
leaf_weight=4.6258499324321738 53.161072298884392 3.028429612517356 8.8717501461505872 24.814418777823448 5.6852544248104078 8.8911387920379656 2.7802727818489075
leaf_count=21 244 13 41 109 28 39 13
internal_value=-0.000628453 -0.0033033 -0.0184391 -0.000753385 0.00977628 0.0192194 -0.0050116
internal_weight=111.858 89.8757 11.9002 77.9755 21.9825 13.517 8.46553
internal_count=508 407 54 353 101 60 41
is_linear=0
shrinkage=0.03


Tree=89
num_leaves=7
num_cat=0
split_feature=16 26 2 6 29 29
split_gain=3.42474 5.39415 5.14988 4.31152 3.87743 3.4366
threshold=-1.1777929560073181 -0.56602901622269364 1.3282860898499436 1.1772998634015241 -0.32133506479009283 1.2109503211431176
decision_type=2 2 2 2 2 2
left_child=4 3 -3 -2 -1 -6
right_child=1 2 -4 -5 5 -7
leaf_value=-0.0098734149145544708 -0.021485297374798405 0.0040168907013010307 -0.02184085191780297 0.0068291403538593221 0.035805420394869392 -0.0048590822126799403
leaf_weight=3.3455766439437866 18.458524227142338 69.514981806278229 6.8612951338291159 5.6517541408538809 5.9281039834022504 2.0132743865251541
leaf_count=15 89 314 31 25 25 9
internal_value=-0.000606671 -0.00245439 0.00141389 -0.014601 0.0144206 0.0253087
internal_weight=111.774 100.487 76.3763 24.1103 11.287 7.94138
internal_count=508 459 345 114 49 34
is_linear=0
shrinkage=0.03


Tree=90
num_leaves=8
num_cat=0
split_feature=22 22 0 11 21 9 20
split_gain=5.70341 3.77102 6.46519 3.948 2.46782 2.76084 2.04264
threshold=-0.72214915224335008 0.59374529890927641 0.61402859793792997 -0.15465753532670778 0.74850412751690731 -0.88652161896985071 -0.86285645243269538
decision_type=2 2 2 2 2 2 2
left_child=4 3 -3 -2 6 -6 -1
right_child=1 2 -4 -5 5 -7 -8
leaf_value=0 -0.0033820885634200113 -0.018925855425956598 0.0080892017169448133 0.012281236321117028 -0.023476147636138266 0.017262578206748379 -0.024934508111976152
leaf_weight=3.3270431905984941 22.959839671850204 16.904256194829944 13.50358325242996 35.156398892402649 1.4798198938369749 3.4285274744033805 14.236413598060606
leaf_count=16 103 77 60 157 8 16 70
internal_value=-0.00187865 0.00152106 -0.00683686 0.00602943 -0.015121 0.00236039 -0.0202231
internal_weight=110.996 88.5241 30.4078 58.1162 22.4718 4.90835 17.5635
internal_count=507 397 137 260 110 24 86
is_linear=0
shrinkage=0.03


Tree=91
num_leaves=8
num_cat=0
split_feature=19 19 4 4 26 0 29
split_gain=3.73643 4.76008 3.88767 4.20463 3.98042 1.71983 1.61328
threshold=1.4497118083260214 1.7128971005503784 -0.045734466324833987 0.016050619354175216 0.89455688450415727 0.80224692281929666 0.1579873444965684
decision_type=2 2 2 2 2 2 2
left_child=2 5 4 -4 -1 -2 -3
right_child=1 6 3 -5 -6 -7 -8
leaf_value=-0.014380315368231023 0.049164601499337865 -0.020909419689221324 0.026804066081807316 -0.00081895364109316616 0.0068496527013028859 0.0043111569532960975 0.011266802098829878
leaf_weight=36.433757573366165 2.5604542940855008 2.1445663124322896 4.6386423110961905 52.577050819993019 9.161346495151518 1.6250808984041212 1.7303600609302519
leaf_count=175 11 10 20 233 42 8 8
internal_value=-0.00183151 0.0167723 -0.00346621 0.00165583 -0.00994073 0.0364395 -0.00578835
internal_weight=110.871 8.06046 102.811 57.2157 45.5951 4.18554 3.87493
internal_count=507 37 470 253 217 19 18
is_linear=0
shrinkage=0.03


Tree=92
num_leaves=8
num_cat=0
split_feature=22 22 0 27 21 18 15
split_gain=5.30508 3.60751 6.14884 5.37284 2.37264 3.24814 2.72263
threshold=-0.72214915224335008 0.59374529890927641 0.63174600089062738 -0.59868880387031542 0.74850412751690731 1.3303552222995376 -0.17853609447866195
decision_type=2 2 2 2 2 2 2
left_child=4 3 -3 -2 5 -1 -6
right_child=1 2 -4 -5 6 -7 -8
leaf_value=-0.025814212496146204 0.025025004403815738 -0.018071875042536399 0.0084143855855893495 0.0014515070914864392 0.02061558732566162 0.0044809945291787168 -0.018226729084495585
leaf_weight=13.992013782262807 10.045396402478216 17.426697418093685 12.911914348602293 48.082261055707932 2.767945721745491 3.3805678635835639 2.1200912892818442
leaf_count=70 44 80 57 216 13 16 11
internal_value=-0.00176131 0.001505 -0.00668024 0.00591164 -0.0146041 -0.0196511 0.0025196
internal_weight=110.727 88.4663 30.3386 58.1277 22.2606 17.3726 4.88804
internal_count=507 397 137 260 110 86 24
is_linear=0
shrinkage=0.03


Tree=93
num_leaves=8
num_cat=0
split_feature=22 14 18 28 21 18 12
split_gain=5.03791 3.556 5.90365 5.74062 2.26424 3.12549 2.6353
threshold=-0.72214915224335008 0.044131677666494291 -0.31731487602941627 -0.25435003651318883 0.74850412751690731 1.3303552222995376 0.63533173126052045
decision_type=2 2 2 2 2 2 2
left_child=4 3 -3 -2 5 -1 -6
right_child=1 2 -4 -5 6 -7 -8
leaf_value=-0.02534483103613985 0.003631100559194308 0.023571951907445803 -0.0005072455135693932 -0.01703031598905869 0.016929156077528075 0.0043670227178501369 -0.022987082217641279
leaf_weight=13.840731196105486 33.404236420989037 13.662230879068373 23.652542546391487 17.746339917182922 3.4316536933183661 3.385533168911933 1.4564584046602247
leaf_count=70 150 60 106 81 16 16 8
internal_value=-0.00170741 0.00146584 0.00846127 -0.00357361 -0.0142714 -0.019238 0.00242065
internal_weight=110.58 88.4653 37.3148 51.1506 22.1144 17.2263 4.88811
internal_count=507 397 166 231 110 86 24
is_linear=0
shrinkage=0.03


Tree=94
num_leaves=8
num_cat=0
split_feature=19 19 4 0 14 0 11
split_gain=3.50357 4.45026 3.59782 4.17567 3.66622 1.64734 1.37314
threshold=1.4497118083260214 1.7128971005503784 -0.045734466324833987 -1.6852997758937505 1.1605055237679711 0.80224692281929666 0.10807653236303125
decision_type=2 2 2 2 2 2 2
left_child=2 5 4 -4 -1 -2 -3
right_child=1 6 3 -5 -6 -7 -8
leaf_value=-0.013041586248915408 0.047628142860328848 -0.019761990163896709 0.033702308915291947 -0.000248408751302149 0.010061605345110107 0.003939285899279275 0.0098846631280159192
leaf_weight=38.821488007903099 2.583284527063368 2.0912015289068226 2.6469222456216803 54.498404741287231 6.4149453341960898 1.6289737969636915 1.7601320743560789
leaf_count=188 11 10 11 242 29 8 8
internal_value=-0.00166139 0.0163453 -0.00325349 0.0016642 -0.0095171 0.0352552 -0.00555321
internal_weight=110.445 8.06359 102.382 57.1453 45.2364 4.21226 3.85133
internal_count=507 37 470 253 217 19 18
is_linear=0
shrinkage=0.03


Tree=95
num_leaves=7
num_cat=0
split_feature=3 1 1 5 4 25
split_gain=4.05678 4.61907 9.17434 5.70348 4.46558 1.43585
threshold=-1.2805737147184579 0.71355940616908808 0.61709871000502103 0.46834608172310482 0.27040485479288479 -0.95847613139289056
decision_type=2 2 2 2 2 2
left_child=4 2 -2 -3 5 -1
right_child=1 3 -4 -5 -6 -7
leaf_value=-4.8158780155912517e-05 0.0031615052199115553 0.0023700170130990746 0.047216746833228643 -0.025579990735151381 0.0080769445416883929 -0.03636960440454938
leaf_weight=1.5628858655691145 68.128073871135712 15.990160688757898 3.7929633408784857 9.8437299728393537 3.5870113372802734 5.427219942212103
leaf_count=8 312 73 16 48 15 27
internal_value=0.000102133 0.00211362 0.00606126 -0.00850321 -0.0168023 -0.0298578
internal_weight=108.332 97.7549 71.921 25.8339 10.5771 6.99011
internal_count=499 449 328 121 50 35
is_linear=0
shrinkage=0.03


Tree=96
num_leaves=7
num_cat=0
split_feature=3 3 4 20 18 5
split_gain=3.87047 4.5719 4.30378 3.97373 2.25132 0.353556
threshold=-1.2805737147184579 -1.0594337532554554 0.27040485479288479 1.5448473130858484 0.28385726694264818 -0.73528916756001739
decision_type=2 2 2 2 2 2
left_child=2 4 5 -3 -2 -1
right_child=1 3 -4 -5 -6 -7
leaf_value=-0.0093466525109514916 0.0064370954787174141 0.0023701499143586697 0.0078729990389929845 -0.018987396313660736 0.048402210617556424 -0.034871068339284682
leaf_weight=2.1763791143894196 3.1926371157169333 84.823489740490913 3.5902066826820374 7.8186798542737952 1.9236965477466581 4.731717109680174
leaf_count=11 15 388 15 38 8 24
internal_value=9.78954e-05 0.00205795 -0.0164761 0.000356308 0.0276411 -0.0294127
internal_weight=108.257 97.7585 10.4983 92.6422 5.11633 6.9081
internal_count=499 449 50 426 23 35
is_linear=0
shrinkage=0.03


Tree=97
num_leaves=8
num_cat=0
split_feature=9 14 1 1 24 14 7
split_gain=3.78029 6.22754 5.84808 6.19813 5.77637 2.851 0.62172
threshold=-0.48662797992794943 -0.57367095111419308 0.71355940616908808 0.64133529711451043 1.1652590815437558 1.2371459507306948 -0.51451814776687044
decision_type=2 2 2 2 2 2 2
left_child=1 6 3 -2 -4 -3 -1
right_child=2 5 4 -5 -6 -7 -8
leaf_value=0.034080773485168601 0.0061796119741996712 -0.020146931320909667 -0.013393239086277233 0.049639203067897326 0.02814810301093533 0.00479215357295596 0.0033686841325276493
leaf_weight=1.7704231888055804 53.271633729338646 19.061114206910137 22.990265697240833 2.4225750714540473 2.6155035346746436 4.4098061472177497 1.660151526331904
leaf_count=8 239 94 109 10 11 20 8
internal_value=9.48077e-05 -0.00943216 0.00338147 0.00885237 -0.00819854 -0.0152106 0.0240841
internal_weight=108.201 26.9015 81.3 55.6942 25.6058 23.4709 3.43057
internal_count=499 130 369 249 120 114 16
is_linear=0
shrinkage=0.03


Tree=98
num_leaves=7
num_cat=0
split_feature=3 3 4 20 10 27
split_gain=3.64678 4.3643 4.0836 3.77277 0.940799 0.802351
threshold=-1.2805737147184579 -1.0594337532554554 0.27040485479288479 1.5448473130858484 -0.68188714395996353 -0.5857845871691475
decision_type=2 2 2 2 2 2
left_child=2 4 5 -3 -2 -1
right_child=1 3 -4 -5 -6 -7
leaf_value=-0.0046267727389374949 0.0023704012623564801 0.0023037174052758015 0.0075569872724797439 -0.018580085367557838 0.034757585479490039 -0.034748457362671001
leaf_weight=1.8129778951406477 1.6685068309307096 84.804593324661255 3.5943368375301361 7.7521154880523673 3.4619259238243094 4.9764456599950773
leaf_count=9 8 388 15 38 15 26
internal_value=0.00011657 0.00201341 -0.0160594 0.000346089 0.0269771 -0.0288312
internal_weight=108.071 97.6871 10.3838 92.5567 5.13043 6.78942
internal_count=499 449 50 426 23 35
is_linear=0
shrinkage=0.03


Tree=99
num_leaves=7
num_cat=0
split_feature=6 1 1 25 21 24
split_gain=3.57548 6.2362 7.02869 6.09954 6.18652 5.62362
threshold=-0.74719449168793106 0.71355940616908808 0.61709871000502103 1.0958642319861889 -0.61835004993253984 1.1652590815437558
decision_type=2 2 2 2 2 2
left_child=3 2 -2 4 -1 -3
right_child=1 5 -4 -5 -6 -7
leaf_value=0.020120013699437663 0.005710598748282749 -0.013498809873633923 0.044824983747552449 -0.03577519224854394 -0.012115103444419137 0.027403704388077866
leaf_weight=7.1021338552236619 50.279644653201103 23.251654177904133 3.8346313685178748 5.2349090278148642 15.689346641302107 2.6258610337972632
leaf_count=32 226 111 16 27 76 11
internal_value=0.000110056 0.00339954 0.00920421 -0.00890431 -0.00147422 -0.0084261
internal_weight=108.018 79.9918 54.1143 28.0264 22.7915 25.8775
internal_count=499 364 242 135 108 122
is_linear=0
shrinkage=0.03


Tree=100
num_leaves=7
num_cat=0
split_feature=20 1 1 1 22 24
split_gain=4.22156 5.52329 6.58177 3.7897 3.06305 2.06526
threshold=-1.249585710111879 0.78140872699509811 0.61709871000502103 1.4729066914681266 -0.72214915224335008 -0.57101257059688237
decision_type=2 2 2 2 2 2
left_child=4 2 -2 -3 -1 -6
right_child=1 3 -4 -5 5 -7
leaf_value=-0.0067120707380670594 0.002051624003794317 -0.021351686729712448 0.03781959457368371 0.0016666087186266428 0.0052509031833910067 0.043623123836515995
leaf_weight=1.9697422534227369 70.480848900973797 14.158542662858965 4.2140300869941703 10.318005114793776 2.6202802956104279 3.7932756394147855
leaf_count=10 324 68 18 47 12 16
internal_value=0.00227725 0.000410211 0.00452839 -0.0116654 0.0217506 0.0310988
internal_weight=107.555 99.1714 74.6949 24.4765 8.3833 6.41356
internal_count=495 457 342 115 38 28
is_linear=0
shrinkage=0.03


Tree=101
num_leaves=6
num_cat=0
split_feature=29 20 20 13 24
split_gain=4.06858 4.03995 4.78334 3.03102 2.82704
threshold=1.4885868743653801 -1.0399092612076728 -0.6094857111676566 -0.67546210119664973 -0.21709848370168761
decision_type=2 2 2 2 2
left_child=1 4 -3 -2 -1
right_child=3 2 -4 -5 -6
leaf_value=0 0.0081600906871844934 -0.012518750437409281 0.0047926469003131264 -0.030953829787761077 0.02636726874153603
leaf_weight=5.1005152761936197 1.9174173325300214 17.251582466065884 68.505524270236492 4.6886650621891013 10.061051845550534
leaf_count=23 9 82 313 23 45
internal_value=0.00222611 0.00382293 0.00115731 -0.0191357 0.0177107
internal_weight=107.525 100.919 85.7571 6.60608 15.1616
internal_count=495 463 395 32 68
is_linear=0
shrinkage=0.03


end of trees

feature_importances:
lower_wick_ratio=44
rsi_7=39
hour_sin=33
volume_trend=32
upper_wick_ratio=32
macd_signal=28
vol_ratio=27
macd_hist_delta=26
rsi_slope=25
momentum_3bar=25
consec_direction=25
returns_skew_10=24
bb_position=23
macd_hist=22
candle_body_ratio=22
close_position_in_range=21
atr_ratio=20
hour_cos=20
rsi_14=19
volatility_5bar=19
volatility_20bar=19
momentum_1bar=18
momentum_10bar=18
volume_ratio=18
returns_std_10=14
bb_width=13
high_low_range=12
momentum_5bar=11
atr_14=6

parameters:
[boosting: gbdt]
[objective: binary]
[metric: binary_logloss]
[tree_learner: serial]
[device_type: cpu]
[data_sample_strategy: bagging]
[data: ]
[valid: ]
[num_iterations: 300]
[learning_rate: 0.03]
[num_leaves: 20]
[num_threads: 0]
[seed: 0]
[deterministic: 0]
[force_col_wise: 0]
[force_row_wise: 0]
[histogram_pool_size: -1]
[max_depth: 3]
[min_data_in_leaf: 8]
[min_sum_hessian_in_leaf: 0.001]
[bagging_fraction: 0.7]
[pos_bagging_fraction: 1]
[neg_bagging_fraction: 1]
[bagging_freq: 5]
[bagging_seed: 3]
[bagging_by_query: 0]
[feature_fraction: 0.7]
[feature_fraction_bynode: 1]
[feature_fraction_seed: 2]
[extra_trees: 0]
[extra_seed: 6]
[early_stopping_round: 0]
[early_stopping_min_delta: 0]
[first_metric_only: 0]
[max_delta_step: 0]
[lambda_l1: 0.2]
[lambda_l2: 0.8]
[linear_lambda: 0]
[min_gain_to_split: 0]
[drop_rate: 0.1]
[max_drop: 50]
[skip_drop: 0.5]
[xgboost_dart_mode: 0]
[uniform_drop: 0]
[drop_seed: 4]
[top_rate: 0.2]
[other_rate: 0.1]
[min_data_per_group: 100]
[max_cat_threshold: 32]
[cat_l2: 10]
[cat_smooth: 10]
[max_cat_to_onehot: 4]
[top_k: 20]
[monotone_constraints: ]
[monotone_constraints_method: basic]
[monotone_penalty: 0]
[feature_contri: ]
[forcedsplits_filename: ]
[refit_decay_rate: 0.9]
[cegb_tradeoff: 1]
[cegb_penalty_split: 0]
[cegb_penalty_feature_lazy: ]
[cegb_penalty_feature_coupled: ]
[path_smooth: 0]
[interaction_constraints: ]
[verbosity: -1]
[saved_feature_importance_type: 0]
[use_quantized_grad: 0]
[num_grad_quant_bins: 4]
[quant_train_renew_leaf: 0]
[stochastic_rounding: 1]
[linear_tree: 0]
[max_bin: 255]
[max_bin_by_feature: ]
[min_data_in_bin: 3]
[bin_construct_sample_cnt: 200000]
[data_random_seed: 1]
[is_enable_sparse: 1]
[enable_bundle: 1]
[use_missing: 1]
[zero_as_missing: 0]
[feature_pre_filter: 1]
[pre_partition: 0]
[two_round: 0]
[header: 0]
[label_column: ]
[weight_column: ]
[group_column: ]
[ignore_column: ]
[categorical_feature: ]
[forcedbins_filename: ]
[precise_float_parser: 0]
[parser_config_file: ]
[objective_seed: 5]
[num_class: 1]
[is_unbalance: 0]
[scale_pos_weight: 1]
[sigmoid: 1]
[boost_from_average: 1]
[reg_sqrt: 0]
[alpha: 0.9]
[fair_c: 1]
[poisson_max_delta_step: 0.7]
[tweedie_variance_power: 1.5]
[lambdarank_truncation_level: 30]
[lambdarank_norm: 1]
[label_gain: ]
[lambdarank_position_bias_regularization: 0]
[eval_at: ]
[multi_error_top_k: 1]
[auc_mu_weights: ]
[num_machines: 1]
[local_listen_port: 12400]
[time_out: 120]
[machine_list_filename: ]
[machines: ]
[gpu_platform_id: -1]
[gpu_device_id: -1]
[gpu_use_dp: 0]
[num_gpu: 1]

end of parameters

pandas_categorical:null
