tree
version=v4
num_class=1
num_tree_per_iteration=1
label_index=0
max_feature_idx=29
objective=binary sigmoid:1
feature_names=rsi_14 rsi_7 rsi_slope macd_hist macd_hist_delta macd_signal bb_position bb_width momentum_1bar momentum_3bar momentum_5bar momentum_10bar volume_ratio volume_trend volatility_5bar volatility_20bar vol_ratio atr_14 atr_ratio candle_body_ratio upper_wick_ratio lower_wick_ratio consec_direction close_vs_open hour_sin hour_cos returns_std_10 returns_skew_10 high_low_range close_position_in_range
feature_infos=[-2.3891752025564377:2.330893177037161] [-2.2606170692093981:2.1912730349622063] [-2.9888935987698773:2.8819838177038224] [-3.8875036455066581:2.7323476186906119] [-4.9271779415085382:4.2407092803972333] [-2.9288845599486701:3.271406575594908] [-2.8364318055040156:2.6231223481527808] [-1.3884337745330875:4.480615812291024] [-5.175152562709382:5.1344264721878048] [-5.4440173320595617:4.5816468846680616] [-5.3308361782314719:4.1766869544078773] [-4.3103456100440027:3.7764110236937731] [-1.070626346295851:8.9877451368200525] [-1.7237275167067061:3.6980351137245031] [-1.4158937535815963:5.4384220992203263] [-1.6713797577866907:3.9208583202991392] [-2.1221140748006393:2.7312886323322507] [-1.5989569033518141:4.6310455544051834] [-2.2751291247994683:3.0904890340768643] [-1.7654832360490123:2.0649989142286387] [-1.2519231709867074:3.278438160516211] [-1.2588504203685833:3.0392930775758362] [-3.4783016502539357:4.3063298721081846] [-1.0090295285912965:0.99105127418432459] [-1.4010271416206077:1.4256767052464574] [-1.4069155873498003:1.4235513822364811] [-1.4677620828831106:4.9684244889539269] [-2.9799063263374115:2.8518930143983017] [-1.5922052505618491:3.395615562263385] [-1.7753327993159411:1.6526212638870696]
tree_sizes=857 980 879 859 861 878

Tree=0
num_leaves=7
num_cat=0
split_feature=1 12 1 16 4 4
split_gain=11.6991 12.4906 6.84661 5.60577 2.36324 1.94535
threshold=-1.3963314408464185 -0.68738252064257843 -1.1532952596115742 -0.83326276182282699 0.17043971572535216 -1.2637949501301431
decision_type=2 2 2 2 2 2
left_child=4 3 -3 -2 5 -1
right_child=1 2 -4 -5 -6 -7
leaf_value=-0.69746224921258659 -0.69274359308869382 -0.65186898407671068 -0.68594394298587735 -0.72374006665136281 -0.69159545631437513 -0.73283819273557094
leaf_weight=2.4444444626569739 9.1111111789941805 5.1111111491918555 73.333333879709244 10.444444522261618 1.7777777910232533 7.1111111640930167
leaf_count=11 41 23 330 47 8 32
internal_value=-0.692112 -0.688653 -0.683254 -0.709555 -0.71985 -0.7254
internal_weight=109.333 98 78.4444 19.5556 11.3333 9.55556
internal_count=492 441 353 88 51 43
is_linear=0
shrinkage=1


Tree=1
num_leaves=8
num_cat=0
split_feature=18 29 11 19 20 10 14
split_gain=8.51025 7.61103 6.93883 4.40779 2.7766 4.66118 1.37492
threshold=1.7176241349654084 -1.2152291060447042 0.66085749529232818 0.75394053094642621 -0.275462791795616 -1.0000000180025095e-35 1.7216984302427929
decision_type=2 2 2 2 2 2 2
left_child=1 3 -3 -1 6 -6 -2
right_child=4 2 -4 -5 5 -7 -8
leaf_value=-0.032098176294176176 0.013035681692282759 0.0070885039020119715 -0.011589179782963274 0.0025831754107635131 -0.019320546451525242 0.036256486082639192 0.061521761778206688
leaf_weight=9.5256319344043714 1.7816141545772555 64.25018684566021 23.787347033619881 4.2328359335660926 2.0012560337781911 1.7820309400558461 2.011317178606987
leaf_count=43 8 289 107 19 9 8 9
internal_value=0.000996911 -0.00132824 0.00191542 -0.0214606 0.0300976 0.00730776 0.0462908
internal_weight=109.372 101.796 88.0375 13.7585 7.57622 3.78329 3.79293
internal_count=492 458 396 62 34 17 17
is_linear=0
shrinkage=0.03


Tree=2
num_leaves=7
num_cat=0
split_feature=1 12 27 1 18 4
split_gain=10.9304 11.757 6.60647 6.30961 2.36116 0.871152
threshold=-1.3963314408464185 -0.68738252064257843 -0.96740697330694503 -1.1532952596115742 1.4155427295876233 0.15411713576999084
decision_type=2 2 2 2 2 2
left_child=4 2 -2 -3 5 -1
right_child=1 3 -4 -5 -6 -7
leaf_value=-0.035947380851299469 0.01727176916688446 0.039434050513157438 -0.024296275869603628 0.0069197613733855733 0.0021797010853657484 -0.0051081996105109048
leaf_weight=7.6668360829353315 3.5438378155231502 5.1928686350584021 15.908105656504629 73.545887500047684 1.7590903639793385 1.7677175700664518
leaf_count=35 16 23 72 330 8 8
internal_value=0.000979821 0.00430202 -0.0160438 0.00951459 -0.0260054 -0.0316064
internal_weight=109.384 98.1907 19.4519 78.7388 11.1936 9.43455
internal_count=492 441 88 353 51 43
is_linear=0
shrinkage=0.03


Tree=3
num_leaves=7
num_cat=0
split_feature=1 12 27 1 19 25
split_gain=10.4191 11.0907 6.30913 5.9034 2.63998 1.21697
threshold=-1.3963314408464185 -0.68738252064257843 -0.96740697330694503 -1.1532952596115742 0.53014489430465794 1.0406929298454288
decision_type=2 2 2 2 2 2
left_child=4 2 -2 -3 5 -1
right_child=1 3 -4 -5 -6 -7
leaf_value=-0.038538898305255614 0.016768735290215237 0.038008116979709981 -0.023794884001030938 0.0066991193758467104 0 -0.0039820806744721533
leaf_weight=6.7255687564611417 3.5643237531185177 5.2550936341285697 15.774902105331419 73.712905630469322 2.6363752484321585 1.7315138578414915
leaf_count=31 16 23 72 330 12 8
internal_value=0.000948921 0.0041783 -0.0156517 0.00921815 -0.0255206 -0.0330674
internal_weight=109.401 98.3072 19.3392 78.968 11.0935 8.45708
internal_count=492 441 88 353 51 39
is_linear=0
shrinkage=0.03


Tree=4
num_leaves=7
num_cat=0
split_feature=1 1 28 11 19 25
split_gain=9.94397 7.82871 7.31266 6.74958 2.55514 1.17485
threshold=-1.3963314408464185 -1.1532952596115742 -0.85863626025782136 -0.49511340063395198 0.53014489430465794 1.0406929298454288
decision_type=2 2 2 2 2 2
left_child=4 3 -3 -2 5 -1
right_child=1 2 -4 -5 -6 -7
leaf_value=-0.037995759213024512 0.055106469312755292 0.025170543106338785 -0.0011937682969401773 -0.0073937961727151549 0 -0.0039043257844053139
leaf_weight=6.6299410909414274 3.9187958836555481 9.8436403870582563 82.816206842660904 1.8324913829565037 2.6363752484321585 1.7289878427982328
leaf_count=31 17 44 372 8 12 8
internal_value=0.000917001 0.00405862 0.0017343 0.0358055 -0.0250609 -0.0325562
internal_weight=109.406 98.4111 92.6598 5.75129 10.9953 8.35893
internal_count=492 441 416 25 51 39
is_linear=0
shrinkage=0.03


Tree=5
num_leaves=7
num_cat=0
split_feature=16 16 25 29 11 10
split_gain=5.79406 6.30487 9.65793 5.39188 4.18347 1.14772
threshold=1.7347801638996392 -1.1247846741931327 -1.1414340272422472 0.76509315359457786 0.11892441810286218 -0.33450551208641693
decision_type=2 2 2 2 2 2
left_child=1 2 -1 -3 5 -2
right_child=4 3 -4 -5 -6 -7
leaf_value=0.063538857570024157 0.012580254384006857 -0.010266421621376235 0.0024047280002288023 0.0053588233715209039 -0.0060500187349405779 0.058582768895765441
leaf_weight=2.2349486500024787 1.791792571544647 63.187263071537018 11.266058117151259 27.674562454223633 1.7956735938787458 1.7975671589374536
leaf_count=10 8 284 51 124 8 8
internal_value=-0.000808728 -0.00251493 0.0159326 -0.00543662 0.027336 0.0434638
internal_weight=109.748 104.363 13.501 90.8618 5.38503 3.58936
internal_count=493 469 61 408 24 16
is_linear=0
shrinkage=0.03


end of trees

feature_importances:
rsi_7=8
macd_hist_delta=3
momentum_10bar=3
volume_ratio=3
vol_ratio=3
candle_body_ratio=3
hour_cos=3
momentum_5bar=2
atr_ratio=2
returns_skew_10=2
close_position_in_range=2
volatility_5bar=1
upper_wick_ratio=1
high_low_range=1

parameters:
[boosting: gbdt]
[objective: binary]
[metric: binary_logloss]
[tree_learner: serial]
[device_type: cpu]
[data_sample_strategy: bagging]
[data: ]
[valid: ]
[num_iterations: 300]
[learning_rate: 0.03]
[num_leaves: 20]
[num_threads: 0]
[seed: 0]
[deterministic: 0]
[force_col_wise: 0]
[force_row_wise: 0]
[histogram_pool_size: -1]
[max_depth: 3]
[min_data_in_leaf: 8]
[min_sum_hessian_in_leaf: 0.001]
[bagging_fraction: 0.7]
[pos_bagging_fraction: 1]
[neg_bagging_fraction: 1]
[bagging_freq: 5]
[bagging_seed: 3]
[bagging_by_query: 0]
[feature_fraction: 0.7]
[feature_fraction_bynode: 1]
[feature_fraction_seed: 2]
[extra_trees: 0]
[extra_seed: 6]
[early_stopping_round: 0]
[early_stopping_min_delta: 0]
[first_metric_only: 0]
[max_delta_step: 0]
[lambda_l1: 0.2]
[lambda_l2: 0.8]
[linear_lambda: 0]
[min_gain_to_split: 0]
[drop_rate: 0.1]
[max_drop: 50]
[skip_drop: 0.5]
[xgboost_dart_mode: 0]
[uniform_drop: 0]
[drop_seed: 4]
[top_rate: 0.2]
[other_rate: 0.1]
[min_data_per_group: 100]
[max_cat_threshold: 32]
[cat_l2: 10]
[cat_smooth: 10]
[max_cat_to_onehot: 4]
[top_k: 20]
[monotone_constraints: ]
[monotone_constraints_method: basic]
[monotone_penalty: 0]
[feature_contri: ]
[forcedsplits_filename: ]
[refit_decay_rate: 0.9]
[cegb_tradeoff: 1]
[cegb_penalty_split: 0]
[cegb_penalty_feature_lazy: ]
[cegb_penalty_feature_coupled: ]
[path_smooth: 0]
[interaction_constraints: ]
[verbosity: -1]
[saved_feature_importance_type: 0]
[use_quantized_grad: 0]
[num_grad_quant_bins: 4]
[quant_train_renew_leaf: 0]
[stochastic_rounding: 1]
[linear_tree: 0]
[max_bin: 255]
[max_bin_by_feature: ]
[min_data_in_bin: 3]
[bin_construct_sample_cnt: 200000]
[data_random_seed: 1]
[is_enable_sparse: 1]
[enable_bundle: 1]
[use_missing: 1]
[zero_as_missing: 0]
[feature_pre_filter: 1]
[pre_partition: 0]
[two_round: 0]
[header: 0]
[label_column: ]
[weight_column: ]
[group_column: ]
[ignore_column: ]
[categorical_feature: ]
[forcedbins_filename: ]
[precise_float_parser: 0]
[parser_config_file: ]
[objective_seed: 5]
[num_class: 1]
[is_unbalance: 0]
[scale_pos_weight: 1]
[sigmoid: 1]
[boost_from_average: 1]
[reg_sqrt: 0]
[alpha: 0.9]
[fair_c: 1]
[poisson_max_delta_step: 0.7]
[tweedie_variance_power: 1.5]
[lambdarank_truncation_level: 30]
[lambdarank_norm: 1]
[label_gain: ]
[lambdarank_position_bias_regularization: 0]
[eval_at: ]
[multi_error_top_k: 1]
[auc_mu_weights: ]
[num_machines: 1]
[local_listen_port: 12400]
[time_out: 120]
[machine_list_filename: ]
[machines: ]
[gpu_platform_id: -1]
[gpu_device_id: -1]
[gpu_use_dp: 0]
[num_gpu: 1]

end of parameters

pandas_categorical:null
