tree
version=v4
num_class=1
num_tree_per_iteration=1
label_index=0
max_feature_idx=29
objective=binary sigmoid:1
feature_names=rsi_14 rsi_7 rsi_slope macd_hist macd_hist_delta macd_signal bb_position bb_width momentum_1bar momentum_3bar momentum_5bar momentum_10bar volume_ratio volume_trend volatility_5bar volatility_20bar vol_ratio atr_14 atr_ratio candle_body_ratio upper_wick_ratio lower_wick_ratio consec_direction close_vs_open hour_sin hour_cos returns_std_10 returns_skew_10 high_low_range close_position_in_range
feature_infos=[-2.7241848428360718:2.46831066550256] [-2.2644258233977941:2.2476084307787052] [-3.1082819297867093:2.9871960375787387] [-3.7151049581195785:2.8554302484259813] [-4.7867593247447378:4.1142425959372941] [-2.6688446887758772:3.0169950951887108] [-2.8873564893213328:2.7907385821048178] [-1.4832973818717747:4.3287601600854257] [-4.8137335398513974:5.0001912248526033] [-5.3961035231891152:4.5462934250564935] [-5.2235341408179385:4.1054026288917029] [-4.1749443597216178:3.6537334945042805] [-1.1308403483685079:10.098723034752487] [-1.7823509986018646:4.0181112620898487] [-1.4694530321424319:5.4060790770410723] [-1.8903701189273527:3.8691336217259509] [-1.9319932124838068:2.8004419301605554] [-1.8196035113933511:4.5336710740466222] [-2.3547635991500298:3.2755189142250742] [-1.7782388965267519:2.1255156324391065] [-1.284625656193997:3.3117377861271464] [-1.2622101344791381:3.0720031693231205] [-3.5214268374671334:4.291920942599238] [-1.0282630211985393:0.97251382125403996] [-1.4229846917741613:1.4162565097371171] [-1.4214459676490545:1.3965241692524997] [-1.634034657183441:4.9667080055585817] [-3.0569973259945096:2.7550010739609312] [-1.7250862430988831:3.2967348083479004] [-1.756284741528819:1.7938839205800292]
tree_sizes=852 885 873 880 882 780 986 782 778 783 986 878 873 668 881 884 857 974 964 860

Tree=0
num_leaves=7
num_cat=0
split_feature=9 14 9 13 25 3
split_gain=17.3558 12.0585 5.63351 4.15919 3.39204 2.62735
threshold=-0.57778928168036836 -0.26191056445974115 0.36333971766955753 2.1033904214388879 1.3055105406419487 0.11865388511887459
decision_type=2 2 2 2 2 2
left_child=3 2 -2 5 -3 -1
right_child=1 4 -4 -5 -6 -7
leaf_value=0.69455039624951009 0.62582937892553714 0.65821858082772222 0.65580234347384669 0.64788933813767247 0.69050546632842758 0.66540758404993328
leaf_weight=10.64280168712139 22.695431903004646 29.089604839682583 10.819595664739607 1.6861571744084347 2.1525041237473479 2.5937935188412657
leaf_count=87 131 200 73 10 18 18
internal_value=0.65359 0.646898 0.634497 0.681812 0.661229 0.68815
internal_weight=79.6799 64.7571 33.515 14.9228 31.2421 13.2366
internal_count=537 422 204 115 218 105
is_linear=0
shrinkage=1


Tree=1
num_leaves=7
num_cat=0
split_feature=9 14 10 9 3 15
split_gain=16.1542 11.1748 6.52985 4.95321 4.84671 3.76555
threshold=-0.57778928168036836 -0.30093277519161105 0.041297827462438229 0.36333971766955753 -1.4562810528944412 1.1247076505687932
decision_type=2 2 2 2 2 2
left_child=2 3 4 -2 -1 -3
right_child=1 5 -4 -5 -6 -7
leaf_value=-0.0084446384372916621 -0.045231130831402677 -0.016165023729789927 -0.032043689743575611 -0.016025973888609334 0.028479571975080373 0.0072729852957894893
leaf_weight=3.5937211439013472 21.427057847380642 26.824959188699722 1.7961713895201672 10.308565773069857 9.4723942726850492 6.6981611475348464
leaf_count=25 121 181 10 69 80 51
internal_value=-0.0177214 -0.0241241 0.00957348 -0.0367988 0.0178057 -0.0111462
internal_weight=80.121 65.2587 14.8623 31.7356 13.0661 33.5231
internal_count=537 422 115 190 105 232
is_linear=0
shrinkage=0.03


Tree=2
num_leaves=7
num_cat=0
split_feature=9 9 3 10 27 9
split_gain=15.0472 10.5124 6.26605 6.24286 5.73014 4.1139
threshold=-0.57778928168036836 0.8299946908791348 -0.76392242426902379 0.041297827462438229 -0.5119481683981929 0.96235338543066107
decision_type=2 2 2 2 2 2
left_child=3 2 -2 4 -1 -3
right_child=1 5 -4 -5 -6 -7
leaf_value=-0.0057168202235649748 -0.0018173119289298164 0.029601883672844408 -0.033328348715572713 -0.031218395885789715 0.032050500069066117 -0.0077922457213250211
leaf_weight=5.036569617688655 7.3114776611328116 2.4002002030611029 45.098120152950287 1.8144978657364834 7.9491276815533629 10.907532535493372
leaf_count=36 52 21 273 10 69 76
internal_value=-0.0171394 -0.0232715 -0.0292172 0.00926887 0.0173973 0
internal_weight=80.5175 65.7173 52.4096 14.8002 12.9857 13.3077
internal_count=537 422 325 115 105 97
is_linear=0
shrinkage=0.03


Tree=3
num_leaves=7
num_cat=0
split_feature=12 15 11 2 8 18
split_gain=10.6882 10.0203 6.9159 6.03435 4.89628 4.15089
threshold=-0.086825562655801769 0.28181591305629189 0.06679494877009276 -0.91528061594049925 1.0276062386764779 -0.5534327390815994
decision_type=2 2 2 2 2 2
left_child=1 5 -3 -2 -5 -1
right_child=3 2 -4 4 -6 -7
leaf_value=-0.04632261506673585 0.02858914097728088 0.013742498732382855 -0.02103699121366023 -0.014351341569687719 0.018132794871035581 -0.022103310765494554
leaf_weight=14.542738243937491 4.1473794430494335 8.2761442437768 10.280805326998232 18.017488248646263 4.230112023651599 21.408477820456028
leaf_count=79 36 65 66 121 34 136
internal_value=-0.0165567 -0.0240346 -0.00515606 -0.000472012 -0.00727344 -0.0331324
internal_weight=80.9031 54.5082 18.5569 26.395 22.2476 35.9512
internal_count=537 346 131 191 155 215
is_linear=0
shrinkage=0.03


Tree=4
num_leaves=7
num_cat=0
split_feature=9 14 2 11 28 5
split_gain=13.4784 9.60462 5.10243 4.57607 3.70786 2.93473
threshold=-0.57778928168036836 0.35515808580378183 -1.0511107899827137 0.75309523919074761 0.91487038089148953 0.80847078974376319
decision_type=2 2 2 2 2 2
left_child=2 3 -1 -2 -4 -3
right_child=1 5 4 -5 -6 -7
leaf_value=0.030719994138623089 -0.032598209387527083 0.006973908996115716 -0.015045064230488162 -0.0074193212565560338 0.021368044538942678 -0.01833031970095067
leaf_weight=5.1008208692073813 40.465277105569839 11.200278364121916 7.0709671378135663 9.6969500184059125 2.5747509822249413 5.1551396101713172
leaf_count=45 239 84 48 66 22 33
internal_value=-0.0160024 -0.0217395 0.00904163 -0.0281469 -0.00338566 -0.0010799
internal_weight=81.2642 66.5176 14.7465 50.1622 9.64572 16.3554
internal_count=537 422 115 305 70 117
is_linear=0
shrinkage=0.03


Tree=5
num_leaves=6
num_cat=0
split_feature=7 29 29 19 19
split_gain=14.4869 5.64843 6.41194 4.03753 0.981674
threshold=-1.077786598493526 -1.1766186304023487 -0.53796813369337515 1.0557196786003289 -0.80407562552593481
decision_type=2 2 2 2 2
left_child=4 3 -3 -2 -1
right_child=1 2 -4 -5 -6
leaf_value=-0.017183826914684036 0.019751883883783718 -0.03087738245571087 -0.0090570540805665883 -0.019001440373285768 -0.059876762173020598
leaf_weight=2.3573464900255203 6.9902173057198507 17.268531136214733 46.460218355059624 2.3613893985748291 6.3201801404356939
leaf_count=14 57 104 315 15 29
internal_value=-0.0171945 -0.0122702 -0.0154944 0.00820651 -0.0521828
internal_weight=81.7579 73.0804 63.7287 9.35161 8.67753
internal_count=534 491 419 72 43
is_linear=0
shrinkage=0.03


Tree=6
num_leaves=8
num_cat=0
split_feature=9 29 17 21 21 16 12
split_gain=12.7935 11.7051 8.62372 4.28421 4.19617 3.65779 2.39338
threshold=0.81077072919245063 -1.1766186304023487 -0.82057869613684276 -0.63223292261992869 -0.97683823457536889 0.42244521839482441 -0.41907340828075595
decision_type=2 2 2 2 2 2 2
left_child=1 5 -3 4 -2 -1 -5
right_child=3 2 -4 6 -6 -7 -8
leaf_value=0.022574762533068414 0.016498959304574255 -0.051207338783485101 -0.020474594864742818 -0.0024443870492145011 -0.024280918814207797 -0.010516636422396459 0.032663195259479659
leaf_weight=5.3097847178578359 2.8784533962607384 10.795377865433691 47.490218870341778 1.609852686524391 4.2202679887413979 4.4897163063287735 5.3024389594793302
leaf_count=44 23 53 301 11 26 31 45
internal_value=-0.0166603 -0.022018 -0.0270863 0.00850814 -0.00663839 0.00701037 0.0240737
internal_weight=82.0961 68.0851 58.2856 14.011 7.09872 9.7995 6.91229
internal_count=534 429 354 105 49 75 56
is_linear=0
shrinkage=0.03


Tree=7
num_leaves=6
num_cat=0
split_feature=28 28 17 27 4
split_gain=15.0354 5.00518 4.57422 1.52437 0.0517874
threshold=-0.95235455156014859 1.9992373964375754 -0.67139631143202927 -0.11573325257120977 -0.076412113658352307
decision_type=2 2 2 2 2
left_child=3 2 -2 4 -1
right_child=1 -3 -4 -5 -6
leaf_value=-0.0018908000810448835 0.010503589994325064 0.023051655296467057 -0.014538375584339923 -0.05264187221958043 -0.021337687595597035
leaf_weight=1.5531593486666682 6.2031714841723433 2.8123925402760497 60.634360402822495 9.0831271708011609 2.1343825981020919
leaf_count=10 46 24 399 43 12
internal_value=-0.0161114 -0.0101136 -0.011961 -0.0450597 -0.0172176
internal_weight=82.4206 69.6499 66.8375 12.7707 3.68754
internal_count=534 469 445 65 22
is_linear=0
shrinkage=0.03


Tree=8
num_leaves=6
num_cat=0
split_feature=7 9 29 21 19
split_gain=12.2299 7.7752 7.69303 3.95726 0.962854
threshold=-1.077786598493526 0.81077072919245063 -1.1766186304023487 -0.63223292261992869 -0.80407562552593481
decision_type=2 2 2 2 2
left_child=4 2 -2 -3 -1
right_child=1 3 -4 -5 -6
leaf_value=-0.01494220048755536 0.0079437070687886063 -0.0061205710377879499 -0.020361047045161985 0.023475214251359604 -0.054477343479713412
leaf_weight=2.4073909074068069 9.3165751770138723 7.1374151557683945 50.578656151890755 6.7678095400333387 6.5246664658188802
leaf_count=14 72 49 315 55 29
internal_value=-0.0155917 -0.011052 -0.0157524 0.00828873 -0.0473052
internal_weight=82.7325 73.8005 59.8952 13.9052 8.93206
internal_count=534 491 387 104 43
is_linear=0
shrinkage=0.03


Tree=9
num_leaves=6
num_cat=0
split_feature=28 12 14 13 3
split_gain=13.5299 5.10345 5.72649 4.88877 0.96894
threshold=-0.95235455156014859 -0.067853904373523857 0.84605707935759622 1.4201394612454206 0.19084289865805779
decision_type=2 2 2 2 2
left_child=4 2 -2 -3 -1
right_child=1 3 -4 -5 -6
leaf_value=-0.045993559377166475 -0.019075512291400119 0.0098178686196937742 0.010810411029450949 -0.019561538457973929 -0.0081365206758255357
leaf_weight=11.164464727044104 40.763455547392368 17.705251686275009 5.6284296736121169 5.9458924531936637 1.7904384061694134
leaf_count=54 255 133 43 38 11
internal_value=-0.0151006 -0.00940599 -0.0151081 0.00157288 -0.0423644
internal_weight=82.9979 70.043 46.3919 23.6511 12.9549
internal_count=534 469 298 171 65
is_linear=0
shrinkage=0.03


Tree=10
num_leaves=8
num_cat=0
split_feature=17 9 9 4 21 15 24
split_gain=17.2747 5.98728 6.31551 5.53306 3.31565 6.29141 3.11021
threshold=0.22700142407434284 -0.43494653877569212 0.8299946908791348 -0.85851556579185351 -0.60518781912155883 1.7839555957655266 -1.2082635382770757
decision_type=2 2 2 2 2 2 2
left_child=1 3 -3 -1 5 -2 -6
right_child=4 2 -4 -5 6 -7 -8
leaf_value=-0.027139996440431389 -0.021893944056797513 -0.034753631503486565 -0.0017058439407869515 0.0079261637079147546 -0.0051631481170268841 0.027707971328425913 0.021567588867787962
leaf_weight=6.0467172786593428 7.8469953835010546 44.087538085877895 6.6584688350558272 8.1791593059897405 4.94464337080717 2.0507587194442749 9.6692798435688001
leaf_count=37 49 241 47 61 34 18 77
internal_value=-0.0178735 -0.0258824 -0.0307081 -0.0071912 0.00318491 -0.00919137 0.0121954
internal_weight=89.4836 64.9719 50.746 14.2259 24.5117 9.89775 14.6139
internal_count=564 386 288 98 178 67 111
is_linear=0
shrinkage=0.03


Tree=11
num_leaves=7
num_cat=0
split_feature=17 29 9 0 15 16
split_gain=16.1859 6.21606 5.09236 3.28157 5.18946 2.19374
threshold=0.22700142407434284 -1.1542166808668 0.8299946908791348 1.706828563252778 0.28181591305629189 0.4914618723657484
decision_type=2 2 2 2 2 2
left_child=1 5 -3 4 -2 -1
right_child=3 2 -4 -5 -6 -7
leaf_value=0.013702027741957747 -0.019048024486320661 -0.031243855265931986 -0.0016606071992049957 -0.023636372007761718 0.014678248748551989 -0.016900391762861372
leaf_weight=4.3530518412590018 4.1350386664271417 51.873692914843559 6.6618479639291754 2.4716641902923575 17.879982553422451 2.4137734323740005
leaf_count=34 26 290 47 14 138 15
internal_value=-0.0172905 -0.0250074 -0.0281126 0.00310967 0.00740007 0.000856664
internal_weight=89.7891 65.3024 58.5355 24.4867 22.015 6.76683
internal_count=564 386 337 178 164 49
is_linear=0
shrinkage=0.03


Tree=12
num_leaves=7
num_cat=0
split_feature=17 29 27 0 15 16
split_gain=15.0816 5.79226 5.22197 3.12107 4.93278 2.09555
threshold=0.22700142407434284 -1.1542166808668 1.7461332437745936 1.706828563252778 0.28181591305629189 0.4914618723657484
decision_type=2 2 2 2 2 2
left_child=1 5 -3 4 -2 -1
right_child=3 2 -4 -5 -6 -7
leaf_value=0.013412861064169546 -0.01850622690263563 -0.028794603521907991 0.01482257076723198 -0.023035929969890147 0.014322420054056083 -0.016486091540620414
leaf_weight=4.3353220373392096 4.1573457270860734 57.132730543613434 1.719516173005103 2.4858521297574034 17.800532512366772 2.4251538887619972
leaf_count=34 26 323 14 14 138 15
internal_value=-0.0167476 -0.0241621 -0.0271435 0.00296836 0.0071795 0.00078533
internal_weight=90.0565 65.6127 58.8522 24.4437 21.9579 6.76048
internal_count=564 386 337 178 164 49
is_linear=0
shrinkage=0.03


Tree=13
num_leaves=5
num_cat=0
split_feature=7 10 27 27
split_gain=8.07443 4.98652 4.4998 4.15386
threshold=-1.1743919561952627 -0.9198350654837486 -0.19006784406364016 1.7461332437745936
decision_type=2 2 2 2
left_child=-1 2 -2 -3
right_child=1 3 -4 -5
leaf_value=-0.044699413762683354 -0.01121957469410831 -0.017118885302505698 0.025125117187244583 0.018371927250800144
leaf_weight=7.5711071342229834 5.3773003220558167 70.585105083882809 4.7086592167615873 2.06526094675064
leaf_count=34 36 437 40 17
internal_value=-0.0162132 -0.0129963 0.00567205 -0.015752
internal_weight=90.3074 82.7363 10.086 72.6504
internal_count=564 530 76 454
is_linear=0
shrinkage=0.03


Tree=14
num_leaves=7
num_cat=0
split_feature=17 8 6 17 0 15
split_gain=13.835 5.55275 7.39866 3.33643 2.96664 4.67767
threshold=0.22700142407434284 -0.39152691501736953 -1.0368215741335711 -0.47416312053042042 1.706828563252778 0.28181591305629189
decision_type=2 2 2 2 2 2
left_child=1 3 -3 -1 5 -2
right_child=4 2 -4 -5 -6 -7
leaf_value=0.012558029927450372 -0.01761538009277994 0.015189986481395527 -0.030436380617474407 -0.01492634369116809 -0.022071686977137375 0.014255579348745185
leaf_weight=4.6497395113110569 4.1922536864876809 2.5684690177440634 47.499604396522045 11.366914764046667 2.5074950456619254 17.779856070876122
leaf_count=34 26 20 261 71 14 138
internal_value=-0.0156912 -0.0227562 -0.0276679 -0.00614946 0.00317265 0.00728075
internal_weight=90.5643 66.0847 50.0681 16.0167 24.4796 21.9721
internal_count=564 386 281 105 178 164
is_linear=0
shrinkage=0.03


Tree=15
num_leaves=7
num_cat=0
split_feature=14 1 26 20 9 20
split_gain=8.66669 4.70047 4.59625 4.54482 3.26556 0.848723
threshold=-0.64621378963671428 -1.1693658759773478 1.4016402528799439 -1.1528385387901838 1.5513612807133919 -1.2829920649601305
decision_type=2 2 2 2 2 2
left_child=1 -1 3 -2 -4 -3
right_child=2 5 4 -5 -6 -7
leaf_value=0.010603742215171762 0.014140870679716214 -0.00030944316070562644 0.029899306786737419 -0.010532691551245072 -0.013823868854290364 -0.030988149205679154
leaf_weight=2.1148755848407772 6.6750173345208159 1.4841901436448157 4.5837690606713286 45.723463833332062 1.1299447417259214 20.874018087983128
leaf_count=16 49 9 40 296 7 110
internal_value=-0.0106677 -0.0253434 -0.00401077 -0.00701504 0.0191409 -0.0294374
internal_weight=82.5853 24.4731 58.1122 52.3985 5.71371 22.3582
internal_count=527 135 392 345 47 119
is_linear=0
shrinkage=0.03


Tree=16
num_leaves=7
num_cat=0
split_feature=14 29 26 20 9 18
split_gain=8.14426 4.50017 4.34844 4.29836 3.16207 1.84819
threshold=-0.64621378963671428 -1.1396864954846826 1.4016402528799439 -1.1528385387901838 1.5513612807133919 0.1395829419689229
decision_type=2 2 2 2 2 2
left_child=1 -1 3 -2 -4 -3
right_child=2 5 4 -5 -6 -7
leaf_value=0.019628194760018692 0.013811437485354955 -0.030180826668601439 0.029413593075646342 -0.010198620605002063 -0.013572198004123662 0
leaf_weight=1.0421511530876184 6.6533872857689849 21.291938364505771 4.5369026064872733 45.835582450032234 1.1348385810852049 2.2122055366635314
leaf_count=9 49 112 40 296 7 14
internal_value=-0.010332 -0.0245355 -0.00387197 -0.00678559 0.0187186 -0.027582
internal_weight=82.707 24.5463 58.1607 52.489 5.67174 23.5041
internal_count=527 135 392 345 47 126
is_linear=0
shrinkage=0.03


Tree=17
num_leaves=8
num_cat=0
split_feature=14 21 24 10 10 20 18
split_gain=7.64313 3.73045 3.94178 3.28408 2.49357 4.10154 2.04019
threshold=-0.64621378963671428 -0.87910675736961796 -1.2082635382770757 0.22300053030087222 -0.26327944300609746 -0.22961845607008732 0.1395829419689229
decision_type=2 2 2 2 2 2 2
left_child=4 2 -2 -3 5 -1 -6
right_child=1 3 -4 -5 6 -7 -8
leaf_value=-0.02659046612834844 0.012604332705214777 0.0075416444743641852 -0.023529868702254653 -0.0086913237402464327 -0.031950970590080396 0.018072514393760182 0
leaf_weight=2.5629981309175491 2.4023233875632277 25.507905475795269 11.968272015452383 18.324504494667053 17.089428089559082 2.7465814873576191 2.2122055366635314
leaf_count=13 19 184 71 118 87 21 14
internal_value=-0.010003 -0.00373799 -0.0164768 0.000512078 -0.0237432 -0.00285782 -0.0286213
internal_weight=82.8142 58.203 14.3706 43.8324 24.6112 5.30958 19.3016
internal_count=527 392 90 302 135 34 101
is_linear=0
shrinkage=0.03


Tree=18
num_leaves=8
num_cat=0
split_feature=17 18 4 2 7 13 12
split_gain=6.53205 3.91292 3.26365 3.08862 2.72485 2.17515 0.708096
threshold=0.31152758237323358 -0.24718065649561008 -1.1515488693479392 -0.14053587416997243 -0.26294546308966921 1.611861694682784 1.0220289803174338
decision_type=2 2 2 2 2 2 2
left_child=2 3 6 -2 -4 -3 -1
right_child=1 5 4 -5 -6 -7 -8
leaf_value=0.023061208037402015 0.012096056385525314 0.026644592203714228 -0.0099409765070279273 -0.01671636613281783 -0.024146330497953544 -0.0029615910833123435 0
leaf_weight=1.3797908946871751 4.1105329617857924 6.5722597390413267 35.591020449995995 8.0064647048711794 23.919107005000114 2.1815997660160065 1.1375514194369314
leaf_count=12 32 55 217 51 137 15 8
internal_value=-0.00971229 0.00432535 -0.0145721 -0.00607899 -0.016104 0.0187964 0.0133656
internal_weight=82.8983 20.8709 62.0275 12.117 59.5101 8.75386 2.51734
internal_count=527 153 374 83 354 70 20
is_linear=0
shrinkage=0.03


Tree=19
num_leaves=7
num_cat=0
split_feature=14 1 26 15 9 18
split_gain=7.07821 4.14861 3.92461 4.16052 3.04972 1.75846
threshold=-0.64621378963671428 -1.1693658759773478 1.4016402528799439 -0.4543717569185014 1.5513612807133919 0.1395829419689229
decision_type=2 2 2 2 2 2
left_child=1 -1 3 -2 -4 -3
right_child=2 5 4 -5 -6 -7
leaf_value=0.010837595831530667 0.0081140020381066866 -0.029094092354753531 0.028825691557903575 -0.010884234315609783 -0.013360623632202017 0
leaf_weight=2.1195085793733623 12.50764152407646 20.356013499200348 4.4737159460782996 40.195355899631977 1.1387768089771269 2.2163324058055869
leaf_count=16 87 105 40 258 7 14
internal_value=-0.00940766 -0.0226041 -0.00338142 -0.00614079 0.018179 -0.0264526
internal_weight=83.0073 24.6919 58.3155 52.703 5.61249 22.5723
internal_count=527 135 392 345 47 119
is_linear=0
shrinkage=0.03


end of trees

feature_importances:
momentum_3bar=16
volatility_5bar=8
atr_14=8
volatility_20bar=7
close_position_in_range=7
momentum_5bar=5
atr_ratio=5
lower_wick_ratio=5
returns_skew_10=5
macd_hist=4
bb_width=4
volume_ratio=4
upper_wick_ratio=4
high_low_range=4
rsi_14=3
rsi_slope=3
macd_hist_delta=3
volume_trend=3
vol_ratio=3
candle_body_ratio=3
returns_std_10=3
rsi_7=2
momentum_1bar=2
momentum_10bar=2
hour_sin=2
macd_signal=1
bb_position=1
hour_cos=1

parameters:
[boosting: gbdt]
[objective: binary]
[metric: auc]
[tree_learner: serial]
[device_type: cpu]
[data_sample_strategy: bagging]
[data: ]
[valid: ]
[num_iterations: 300]
[learning_rate: 0.03]
[num_leaves: 20]
[num_threads: 0]
[seed: 0]
[deterministic: 0]
[force_col_wise: 0]
[force_row_wise: 0]
[histogram_pool_size: -1]
[max_depth: 3]
[min_data_in_leaf: 10]
[min_sum_hessian_in_leaf: 0.001]
[bagging_fraction: 0.7]
[pos_bagging_fraction: 1]
[neg_bagging_fraction: 1]
[bagging_freq: 5]
[bagging_seed: 3]
[bagging_by_query: 0]
[feature_fraction: 0.7]
[feature_fraction_bynode: 1]
[feature_fraction_seed: 2]
[extra_trees: 0]
[extra_seed: 6]
[early_stopping_round: 0]
[early_stopping_min_delta: 0]
[first_metric_only: 0]
[max_delta_step: 0]
[lambda_l1: 0.3]
[lambda_l2: 1]
[linear_lambda: 0]
[min_gain_to_split: 0]
[drop_rate: 0.1]
[max_drop: 50]
[skip_drop: 0.5]
[xgboost_dart_mode: 0]
[uniform_drop: 0]
[drop_seed: 4]
[top_rate: 0.2]
[other_rate: 0.1]
[min_data_per_group: 100]
[max_cat_threshold: 32]
[cat_l2: 10]
[cat_smooth: 10]
[max_cat_to_onehot: 4]
[top_k: 20]
[monotone_constraints: ]
[monotone_constraints_method: basic]
[monotone_penalty: 0]
[feature_contri: ]
[forcedsplits_filename: ]
[refit_decay_rate: 0.9]
[cegb_tradeoff: 1]
[cegb_penalty_split: 0]
[cegb_penalty_feature_lazy: ]
[cegb_penalty_feature_coupled: ]
[path_smooth: 0]
[interaction_constraints: ]
[verbosity: -1]
[saved_feature_importance_type: 0]
[use_quantized_grad: 0]
[num_grad_quant_bins: 4]
[quant_train_renew_leaf: 0]
[stochastic_rounding: 1]
[linear_tree: 0]
[max_bin: 255]
[max_bin_by_feature: ]
[min_data_in_bin: 3]
[bin_construct_sample_cnt: 200000]
[data_random_seed: 1]
[is_enable_sparse: 1]
[enable_bundle: 1]
[use_missing: 1]
[zero_as_missing: 0]
[feature_pre_filter: 1]
[pre_partition: 0]
[two_round: 0]
[header: 0]
[label_column: ]
[weight_column: ]
[group_column: ]
[ignore_column: ]
[categorical_feature: ]
[forcedbins_filename: ]
[precise_float_parser: 0]
[parser_config_file: ]
[objective_seed: 5]
[num_class: 1]
[is_unbalance: 0]
[scale_pos_weight: 0.506998]
[sigmoid: 1]
[boost_from_average: 1]
[reg_sqrt: 0]
[alpha: 0.9]
[fair_c: 1]
[poisson_max_delta_step: 0.7]
[tweedie_variance_power: 1.5]
[lambdarank_truncation_level: 30]
[lambdarank_norm: 1]
[label_gain: ]
[lambdarank_position_bias_regularization: 0]
[eval_at: ]
[multi_error_top_k: 1]
[auc_mu_weights: ]
[num_machines: 1]
[local_listen_port: 12400]
[time_out: 120]
[machine_list_filename: ]
[machines: ]
[gpu_platform_id: -1]
[gpu_device_id: -1]
[gpu_use_dp: 0]
[num_gpu: 1]

end of parameters

pandas_categorical:null
