tree
version=v4
num_class=1
num_tree_per_iteration=1
label_index=0
max_feature_idx=29
objective=binary sigmoid:1
feature_names=rsi_14 rsi_7 rsi_slope macd_hist macd_hist_delta macd_signal bb_position bb_width momentum_1bar momentum_3bar momentum_5bar momentum_10bar volume_ratio volume_trend volatility_5bar volatility_20bar vol_ratio atr_14 atr_ratio candle_body_ratio upper_wick_ratio lower_wick_ratio consec_direction close_vs_open hour_sin hour_cos returns_std_10 returns_skew_10 high_low_range close_position_in_range
feature_infos=[-2.445100684410956:2.4625293828148056] [-2.1754040414728983:2.1640098357847388] [-3.3012769488594098:3.298037050628122] [-4.365288244139724:3.6946255950254194] [-6.685503981796133:3.6312168857836071] [-3.0854675839384345:2.3858637005779406] [-3.0196974799283738:2.7823621967608259] [-1.0680030767170776:3.9266984739848003] [-6.990388942281581:5.4423499338523769] [-5.3542568004417666:3.3897179087406264] [-5.1492425182797792:4.0361585147081742] [-4.6270420318383332:3.3009502271678546] [-0.93915252444068398:8.749737429883691] [-1.9507819445933403:4.2505258794581522] [-1.4262789410875734:5.2846428184072121] [-1.2185088580586438:3.0382515433226871] [-2.0920712767626224:3.2185603963345826] [-1.2257251455524412:3.7349344896403673] [-2.6003465273926967:3.2327476379118583] [-1.7672841674773416:1.6626453081075989] [-1.017812713463442:2.9209126247857342] [-0.94512798859465463:2.991348971100972] [-3.1372399578802455:5.0924780136917089] [-1.059064557165027:0.9514332406062358] [-1.3867396315477727:1.5274471544828836] [-1.2690895164560256:1.5060909951140544] [-1.3421586135001089:3.5623524976201857] [-3.0002764641791551:3.0029137657038985] [-1.2467934071963835:3.1897428768181904] [-1.6928870821917352:1.6864861399678384]
tree_sizes=988

Tree=0
num_leaves=8
num_cat=0
split_feature=3 25 11 1 7 7 7
split_gain=29.8974 26.7992 24.4665 53.5704 29.291 10.9818 3.3496
threshold=2.4566890883483734 1.4960317980335636 0.20851610967611087 -0.072760533189831292 -0.40275137158769519 -0.71075314964495639 0.35550321430816861
decision_type=2 2 2 2 2 2 2
left_child=1 2 3 -1 -4 -3 -7
right_child=-2 5 4 -5 -6 6 -8
leaf_value=-0.0070234075295947844 -0.057570797908354412 0.00077393699603141991 0.007965862717851515 -0.032960060977588801 -0.010440874865975858 -0.065098870391602198 -0.031531050808429759
leaf_weight=320.72383335232735 10.554032206535338 3.6148840785026577 147.91511476039886 91.189769744873047 164.92925262451172 9.0866559445858019 7.0610931515693656
leaf_count=367 12 5 173 105 190 13 7
internal_value=-0.00970678 -0.00895997 -0.00799508 -0.0127877 -0.00168315 -0.0425431 -0.0527673
internal_weight=755.075 744.521 724.758 411.914 312.844 19.7626 16.1477
internal_count=872 860 835 472 363 25 20
is_linear=0
shrinkage=1


end of trees

feature_importances:
bb_width=3
rsi_7=1
macd_hist=1
momentum_10bar=1
hour_cos=1

parameters:
[boosting: gbdt]
[objective: binary]
[metric: binary_logloss]
[tree_learner: serial]
[device_type: cpu]
[data_sample_strategy: bagging]
[data: ]
[valid: ]
[num_iterations: 500]
[learning_rate: 0.03]
[num_leaves: 31]
[num_threads: 0]
[seed: 0]
[deterministic: 0]
[force_col_wise: 0]
[force_row_wise: 0]
[histogram_pool_size: -1]
[max_depth: 4]
[min_data_in_leaf: 5]
[min_sum_hessian_in_leaf: 0.001]
[bagging_fraction: 0.75]
[pos_bagging_fraction: 1]
[neg_bagging_fraction: 1]
[bagging_freq: 5]
[bagging_seed: 3]
[bagging_by_query: 0]
[feature_fraction: 0.75]
[feature_fraction_bynode: 1]
[feature_fraction_seed: 2]
[extra_trees: 0]
[extra_seed: 6]
[early_stopping_round: 0]
[early_stopping_min_delta: 0]
[first_metric_only: 0]
[max_delta_step: 0]
[lambda_l1: 0.2]
[lambda_l2: 1]
[linear_lambda: 0]
[min_gain_to_split: 0.01]
[drop_rate: 0.1]
[max_drop: 50]
[skip_drop: 0.5]
[xgboost_dart_mode: 0]
[uniform_drop: 0]
[drop_seed: 4]
[top_rate: 0.2]
[other_rate: 0.1]
[min_data_per_group: 100]
[max_cat_threshold: 32]
[cat_l2: 10]
[cat_smooth: 10]
[max_cat_to_onehot: 4]
[top_k: 20]
[monotone_constraints: ]
[monotone_constraints_method: basic]
[monotone_penalty: 0]
[feature_contri: ]
[forcedsplits_filename: ]
[refit_decay_rate: 0.9]
[cegb_tradeoff: 1]
[cegb_penalty_split: 0]
[cegb_penalty_feature_lazy: ]
[cegb_penalty_feature_coupled: ]
[path_smooth: 0]
[interaction_constraints: ]
[verbosity: -1]
[saved_feature_importance_type: 0]
[use_quantized_grad: 0]
[num_grad_quant_bins: 4]
[quant_train_renew_leaf: 0]
[stochastic_rounding: 1]
[linear_tree: 0]
[max_bin: 255]
[max_bin_by_feature: ]
[min_data_in_bin: 3]
[bin_construct_sample_cnt: 200000]
[data_random_seed: 1]
[is_enable_sparse: 1]
[enable_bundle: 1]
[use_missing: 1]
[zero_as_missing: 0]
[feature_pre_filter: 1]
[pre_partition: 0]
[two_round: 0]
[header: 0]
[label_column: ]
[weight_column: ]
[group_column: ]
[ignore_column: ]
[categorical_feature: ]
[forcedbins_filename: ]
[precise_float_parser: 0]
[parser_config_file: ]
[objective_seed: 5]
[num_class: 1]
[is_unbalance: 0]
[scale_pos_weight: 1.07255]
[sigmoid: 1]
[boost_from_average: 1]
[reg_sqrt: 0]
[alpha: 0.9]
[fair_c: 1]
[poisson_max_delta_step: 0.7]
[tweedie_variance_power: 1.5]
[lambdarank_truncation_level: 30]
[lambdarank_norm: 1]
[label_gain: ]
[lambdarank_position_bias_regularization: 0]
[eval_at: ]
[multi_error_top_k: 1]
[auc_mu_weights: ]
[num_machines: 1]
[local_listen_port: 12400]
[time_out: 120]
[machine_list_filename: ]
[machines: ]
[gpu_platform_id: -1]
[gpu_device_id: -1]
[gpu_use_dp: 0]
[num_gpu: 1]

end of parameters

pandas_categorical:null
