tree
version=v4
num_class=1
num_tree_per_iteration=1
label_index=0
max_feature_idx=29
objective=binary sigmoid:1
feature_names=rsi_14 rsi_7 rsi_slope macd_hist macd_hist_delta macd_signal bb_position bb_width momentum_1bar momentum_3bar momentum_5bar momentum_10bar volume_ratio volume_trend volatility_5bar volatility_20bar vol_ratio atr_14 atr_ratio candle_body_ratio upper_wick_ratio lower_wick_ratio consec_direction close_vs_open hour_sin hour_cos returns_std_10 returns_skew_10 high_low_range close_position_in_range
feature_infos=[-2.6199342619639343:2.6289638893655312] [-2.5030765399729606:2.390279722342894] [-3.22310108314801:3.8683596364853536] [-3.7922861758590485:4.3972597520278311] [-5.2416749401473668:7.2686488112870808] [-1.7470328344016475:3.5839031770372971] [-2.2047573045604651:2.7773988104683971] [-1.1989438245175941:5.0765282057707584] [-2.980592369050401:5.6812242808330566] [-3.8337228078956369:4.9405033727250895] [-3.0348533055495293:5.048938269800952] [-3.5119897888963627:5.8593770970250283] [-0.9600661157776974:10.882476512292827] [-1.635087447152346:4.4476521217020908] [-1.5939959265213597:5.1509794703041978] [-1.6392536996205589:3.8542285251653161] [-2.2871962372773873:2.8758287762749144] [-1.6451778481563493:4.7630512639597598] [-2.6514519839601274:4.0471194955000804] [-1.7751947038523217:1.8004091057120943] [-1.0618801575985535:3.0120461969468546] [-1.0426702750574528:2.9816270046665889] [-2.9764452085947268:3.2066485072146027] [-1.0739335795724707:0.93115628286630403] [-1.4289222992599193:1.4505489697445837] [-1.5202758008287225:1.2798899656595883] [-1.5883358601815263:4.1831840931138027] [-2.7616271047077454:3.6613380089734706] [-1.3657801278395054:5.1110310525182143] [-1.9532248954872855:1.6463198301667095]
tree_sizes=962 775 876 986 987 860 836 874 883 986 882 980 981 891 969 966 981 968 877 988

Tree=0
num_leaves=8
num_cat=0
split_feature=7 17 8 14 8 3 29
split_gain=72.319 18.3777 9.97551 8.67304 9.46153 5.57771 2.55056
threshold=-0.34173078479356117 -1.0085664196506379 0.85539014662660218 0.4416674782830044 -1.1230883405172369 -1.4803474522908637 1.213613288289205
decision_type=2 2 2 2 2 2 2
left_child=1 6 -3 4 -2 -5 -1
right_child=3 2 -4 5 -6 -7 -8
leaf_value=-0.52546698889616916 -0.50354339767458534 -0.48666746954613682 -0.44088745697195875 -0.47473578113263171 -0.45517589867294567 -0.43194405123709256 -0.4852419790510355
leaf_weight=12.039099186658857 2.9657475948333731 50.26220890879631 3.6608154475688925 3.9699426293373135 51.642977237701416 26.702969580888748 2.3905836641788474
leaf_count=51 12 187 11 14 172 81 9
internal_value=-0.468352 -0.491176 -0.482716 -0.450052 -0.458317 -0.436815 -0.520071
internal_weight=153.634 68.3527 53.923 85.2816 54.6087 30.6729 14.4297
internal_count=537 258 198 279 184 95 60
is_linear=0
shrinkage=1


Tree=1
num_leaves=6
num_cat=0
split_feature=17 3 17 11 25
split_gain=66.4378 10.875 10.3859 7.18623 6.59145
threshold=-0.48472589176555991 1.6975171713980874 -1.3533358619139459 0.48106138221317268 -0.37832514848425797
decision_type=2 2 2 2 2
left_child=2 4 -1 -4 -2
right_child=1 -3 3 -5 -6
leaf_value=-0.039900755629615745 0.030663626741898532 0.059504618844415609 -0.013945319293129112 0.020190854976182612 0.014247610679567658
leaf_weight=12.058099895715712 47.171770706772804 7.5574179738759986 29.20120732486248 5.6979526728391638 52.385256320238113
leaf_count=51 153 21 112 19 181
internal_value=0.0125683 0.0255742 -0.0168266 -0.00771405 0.0223429
internal_weight=154.072 107.114 46.9573 34.8992 99.557
internal_count=537 355 182 131 334
is_linear=0
shrinkage=0.03


Tree=2
num_leaves=7
num_cat=0
split_feature=17 3 27 13 17 8
split_gain=62.4152 10.1361 10.119 10.7222 6.38826 5.05812
threshold=-0.48472589176555991 1.6975171713980874 0.4658599353296034 -0.14377778381591902 0.39479212978091133 -0.6423448782529918
decision_type=2 2 2 2 2 2
left_child=2 4 5 -4 -2 -1
right_child=1 -3 3 -5 -6 -7
leaf_value=0.0045106144690819812 0.015415789000994063 0.057307887598275417 -0.021630799042743811 0.034031911003073373 0.032297539048240259 -0.027803114674728485
leaf_weight=4.1895464807748786 65.570570185780525 7.6485781520605078 4.7165793180465698 5.7182353436946851 34.468003764748573 32.13471993803978
leaf_count=15 224 21 19 18 110 130
internal_value=0.0121749 0.0247076 -0.0164128 0.00839368 0.0215835 -0.023814
internal_weight=154.446 107.687 46.7591 10.4348 100.039 36.3243
internal_count=537 355 182 37 334 145
is_linear=0
shrinkage=0.03


Tree=3
num_leaves=8
num_cat=0
split_feature=28 15 1 24 24 12 26
split_gain=65.9654 9.88333 11.3016 8.11618 6.7709 6.50943 3.41928
threshold=-0.65253207101203681 0.25545876974041481 0.34446688559544619 0.3682312608035328 1.0000000180025095e-35 -0.81455877030464185 -0.82251713158915751
decision_type=2 2 2 2 2 2 2
left_child=3 2 -2 4 -1 -3 -5
right_child=1 5 -4 6 -6 -7 -8
leaf_value=-0.01989462346908609 0.0040802930404327843 -0.0032059110515660081 0.029035972880422239 -0.038781810439749279 0.014597052960756798 0.037293565578083256 -0.0061870883797594603
leaf_weight=10.912185832858087 37.621690288186073 3.2796084284782401 29.858864396810532 17.118707329034809 7.8169881552457801 43.36767815053463 4.783113405108451
leaf_count=43 134 12 96 73 27 134 18
internal_value=0.0118052 0.0234827 0.0155169 -0.0205554 -0.00503247 0.0342498 -0.0326374
internal_weight=154.759 114.128 67.4806 40.631 18.7292 46.6473 21.9018
internal_count=537 376 230 161 70 146 91
is_linear=0
shrinkage=0.03


Tree=4
num_leaves=8
num_cat=0
split_feature=28 14 24 19 24 14 26
split_gain=62.1094 9.87297 7.79443 7.04925 6.42718 6.28831 3.28431
threshold=-0.65253207101203681 -0.41410334389283743 0.3682312608035328 1.5820756218193748 1.0000000180025095e-35 -0.98047398682902587 -0.82251713158915751
decision_type=2 2 2 2 2 2 2
left_child=2 5 4 -3 -1 -2 -4
right_child=1 3 6 -5 -6 -7 -8
leaf_value=-0.019436278648311451 0.034355089983478235 0.029458140725694009 -0.038083117215182982 -0.0059520701252786558 0.014164647220033705 -0.0011119666830801769 -0.0060409885343518602
leaf_weight=10.858828455209734 4.5325087904930141 83.929372057318687 16.930983006954197 4.6119685620069495 7.8440562784671775 21.555466592311859 4.776121273636817
leaf_count=43 14 267 73 17 27 78 18
internal_value=0.0114296 0.0226971 -0.0200913 0.0274673 -0.00488348 0.0057586 -0.0320059
internal_weight=155.039 114.629 40.41 88.5413 18.7029 26.088 21.7071
internal_count=537 376 161 284 70 92 91
is_linear=0
shrinkage=0.03


Tree=5
num_leaves=7
num_cat=0
split_feature=7 17 17 14 12 24
split_gain=50.7192 17.2768 10.8999 8.99588 7.78632 6.65264
threshold=-0.38836831608176264 -1.0085664196506379 0.75801144396642806 1.3305595953491829 -0.7042416670582391 -1.3912286359947466
decision_type=2 2 2 2 2 2
left_child=1 -1 3 -2 -3 -4
right_child=2 4 5 -5 -6 -7
leaf_value=-0.038260086308687553 0.021722239934210054 -0.036191952417773628 0 -0.020447739878725699 0.0032679223945270412 0.047380412382887177
leaf_weight=12.736496701836584 59.76573158800602 3.9552066028118125 2.8292277753353146 3.9292845577001563 47.647828713059425 23.979141220450401
leaf_count=56 195 17 10 15 172 69
internal_value=0.0118354 -0.00835514 0.0262217 0.0187058 -0.000215981 0.0424405
internal_weight=154.843 64.3395 90.5034 63.695 51.603 26.8084
internal_count=534 245 289 210 189 79
is_linear=0
shrinkage=0.03


Tree=6
num_leaves=7
num_cat=0
split_feature=17 17 3 3 0 24
split_gain=42.3852 15.7737 10.9357 8.05179 7.79332 6.20735
threshold=-0.48472589176555991 0.75801144396642806 0.82422465867729577 -0.28564185429229666 1.7496642609139039 -1.3912286359947466
decision_type=2 2 2 2 2 2
left_child=2 4 3 -1 -2 -3
right_child=1 5 -4 -5 -6 -7
leaf_value=0 0.016687253906679002 0 0.030174838140336321 -0.028447652568418438 -0.018490479005529994 0.045712952291032519
leaf_weight=14.023786917328833 80.41937144100666 2.8292277753353146 3.5887059420347205 25.019116029143333 5.0425996631383887 24.142085298895836
leaf_count=53 268 10 11 104 19 69
internal_value=0.0114553 0.0210955 -0.0136637 -0.0185708 0.0143177 0.0409705
internal_weight=155.065 112.433 42.6316 39.0429 85.462 26.9713
internal_count=534 366 168 157 287 79
is_linear=0
shrinkage=0.03


Tree=7
num_leaves=7
num_cat=0
split_feature=15 17 5 3 3 3
split_gain=44.5625 15.4228 10.0805 8.60166 6.14811 4.35795
threshold=-0.72319604605922649 0.75801144396642806 0.93779902350585476 0.82422465867729577 -0.28564185429229666 -0.63445227629843148
decision_type=2 2 2 2 2 2
left_child=3 2 -2 4 -1 -3
right_child=1 5 -4 -5 -6 -7
leaf_value=-0.00087581713403383111 0.018424965868789629 0.016929249487185296 -0.0059157503778815143 0.026248071354565094 -0.030570435099913494 0.04794314974297352
leaf_weight=9.4107041507959348 74.898171707987785 8.4006473273038882 18.0242600440979 2.5984517782926551 23.205266460776329 18.703561455011368
leaf_count=36 248 27 65 8 98 52
internal_value=0.0111049 0.0198194 0.013595 -0.0180765 -0.0225513 0.0395954
internal_weight=155.241 120.027 92.9224 35.2144 32.616 27.1042
internal_count=534 392 313 142 134 79
is_linear=0
shrinkage=0.03


Tree=8
num_leaves=7
num_cat=0
split_feature=7 17 17 14 9 20
split_gain=43.4062 15.8093 8.64185 8.45779 7.39768 4.17927
threshold=-0.38836831608176264 -1.0085664196506379 0.75801144396642806 1.3305595953491829 -0.67347388976887812 -0.92215860040828967
decision_type=2 2 2 2 2 2
left_child=1 -1 3 -2 -3 -4
right_child=2 4 5 -5 -6 -7
leaf_value=-0.037024279886432726 0.020152476972600683 -0.028623848000977087 0.0086800567289504905 -0.020637344342664798 0.0039671568822176127 0.043859081315227873
leaf_weight=12.413881838321684 60.248966380953789 6.2411183863878241 4.9249352812767055 3.9344092905521384 45.325197890400887 22.282129496335983
leaf_count=56 195 25 16 15 164 63
internal_value=0.0107752 -0.00800442 0.023964 0.0172358 -0.000275639 0.0383436
internal_weight=155.371 63.9802 91.3904 64.1834 51.5663 27.2071
internal_count=534 245 289 210 189 79
is_linear=0
shrinkage=0.03


Tree=9
num_leaves=8
num_cat=0
split_feature=7 7 14 20 5 18 25
split_gain=40.8412 12.9687 8.01528 11.0362 7.81425 5.4102 5.31354
threshold=-0.38836831608176264 -0.85612073256572829 -0.40524716456825355 -0.68978070004924497 0.92972204830310201 -0.049941375879301579 1.2611073381863236
decision_type=2 2 2 2 2 2 2
left_child=1 6 5 -4 -3 -2 -1
right_child=2 4 3 -5 -6 -7 -8
leaf_value=-0.032393874132985209 -0.010376352106801342 0.0055331207188652875 0.0073969380927254068 0.034064416817938016 -0.035904916780426635 0.023817260423064028 0.011427348197075905
leaf_weight=18.006165042519573 9.6014971584081632 40.255423828959465 20.658968105912209 55.630458384752274 3.5310514718294135 5.7618850320577613 2.0291472226381293
leaf_count=79 35 144 69 167 15 18 7
internal_value=0.0104417 -0.00781348 0.0231978 0.0271485 0.00126342 0.00256944 -0.0271956
internal_weight=155.475 63.8218 91.6528 76.2894 43.7865 15.3634 20.0353
internal_count=534 245 289 236 159 53 86
is_linear=0
shrinkage=0.03


Tree=10
num_leaves=7
num_cat=0
split_feature=28 17 26 2 24 26
split_gain=41.9797 19.2031 9.95355 7.25535 6.63915 4.89912
threshold=-0.53418150908719852 0.71990312131087453 0.89696436927686918 1.5766943026205724 -1.3912286359947466 -0.86441464414284497
decision_type=2 2 2 2 2 2
left_child=3 2 -2 5 -3 -1
right_child=1 4 -4 -5 -6 -7
leaf_value=-0.025171299193130877 0.014881388108302878 -0.00016542190282709291 -0.022794358750060251 0.023282207526861068 0.04475390899796744 -0.0050138217249626601
leaf_weight=25.016269862651825 78.053939133882523 2.8623635768890408 5.7982197850942603 3.5281471610069266 26.70456950366497 21.931533291935921
leaf_count=107 257 10 22 12 74 82
internal_value=0.00957159 0.0196796 0.0119322 -0.0129072 0.0402477 -0.0162435
internal_weight=163.895 113.419 83.8522 50.476 29.5669 46.9478
internal_count=564 363 279 201 84 189
is_linear=0
shrinkage=0.03


Tree=11
num_leaves=8
num_cat=0
split_feature=14 17 10 9 16 10 0
split_gain=44.7233 17.0849 12.1315 10.2253 9.5679 4.85093 4.83078
threshold=-0.32435018503971974 0.71990312131087453 -0.52236001489999195 0.15898018101579647 -0.2855191642384074 -1.0006272978854287 -0.47010324856530317
decision_type=2 2 2 2 2 2 2
left_child=3 2 -2 6 -5 -3 -1
right_child=1 5 -4 4 -6 -7 -8
leaf_value=-0.0055562617404057912 0.035162234190737725 0.0089678496056848443 0.0060202237022195602 0.01893343802216893 -0.019435455482839266 0.047152968153112901 -0.026991970711459576
leaf_weight=18.159546554088593 16.767499819397926 4.7174651026725796 52.73904250562191 15.994847834110262 7.807976394891738 23.547027617692947 24.15541484951973
leaf_count=70 51 15 179 54 32 64 99
internal_value=0.00928589 0.0221118 0.013577 -0.00959307 0.00570838 0.0416115 -0.0183412
internal_weight=163.889 97.771 69.5065 66.1178 23.8028 28.2645 42.315
internal_count=564 309 230 255 86 79 169
is_linear=0
shrinkage=0.03


Tree=12
num_leaves=8
num_cat=0
split_feature=14 17 29 9 5 16 3
split_gain=42.1737 16.1236 11.5082 9.69344 9.24262 9.04804 2.53881
threshold=-0.32435018503971974 0.71990312131087453 -0.32903946109014343 0.15898018101579647 -0.46056285800361801 -0.2855191642384074 -1.4339674882381268
decision_type=2 2 2 2 2 2 2
left_child=3 2 -2 4 -1 -5 -3
right_child=1 6 -4 5 -6 -7 -8
leaf_value=0.008316327827799919 0.031367629093552458 0.012588273567343765 0.0047418712088079301 0.018329863744090649 -0.024945723249052705 -0.019012781580292699 0.044514836556123503
leaf_weight=8.6079395860433561 20.831380620598793 4.4607411473989513 48.81199723482132 16.057833909988407 33.508390814065933 7.7649964690208426 23.832100883126259
leaf_count=30 64 14 166 54 139 32 65
internal_value=0.0090203 0.0214496 0.0131647 -0.00935048 -0.0179035 0.00551995 0.04039
internal_weight=163.875 97.9362 69.6434 65.9392 42.1163 23.8228 28.2928
internal_count=564 309 230 255 169 86 79
is_linear=0
shrinkage=0.03


Tree=13
num_leaves=7
num_cat=0
split_feature=7 24 24 7 13 12
split_gain=34.6794 11.7162 16.1679 8.46233 5.30329 3.17663
threshold=-0.36899271612586659 -1.3912286359947466 -0.61180534439022227 -0.99036480494774903 -0.80586714761671729 -0.41452539721436615
decision_type=2 2 2 2 2 2
left_child=3 5 -3 -1 -5 -2
right_child=1 2 -4 4 -6 -7
leaf_value=-0.033111262361777812 -0.035453709397376007 0.038343493005663462 0.011863872346033821 -0.022710527145366231 0.00091989628052907937 0.00074459021213539014
leaf_weight=8.9611237347125989 2.6807466894388199 37.078477174043655 51.727765500545502 9.1520455628633481 50.052109897136688 4.1398399621248236
leaf_count=42 11 106 169 38 184 14
internal_value=0.00877182 0.0203665 0.0233237 -0.0074231 -0.00290006 -0.0150461
internal_weight=163.792 95.6268 88.8062 68.1653 59.2042 6.82059
internal_count=564 300 275 264 222 25
is_linear=0
shrinkage=0.03


Tree=14
num_leaves=8
num_cat=0
split_feature=14 17 10 10 7 16 10
split_gain=38.1634 14.6578 10.9667 8.59446 8.62422 5.9117 4.47833
threshold=-0.32435018503971974 0.71990312131087453 -0.52236001489999195 -0.33891042889834028 -0.99036480494774903 -1.1616172978462764 -1.0006272978854287
decision_type=2 2 2 2 2 2 2
left_child=3 2 -2 5 -5 -1 -3
right_child=1 6 -4 4 -6 -7 -8
leaf_value=0 0.032811631755836693 0.0073688536533714271 0.0052268742340726591 -0.030423962345976711 0.0035540930535805969 -0.036690631845892351 0.043671598547648717
leaf_weight=5.9273722469806698 16.935823008418083 4.7263262122869518 52.917980089783669 7.0016028136014929 40.050466075539589 12.616351485252379 23.549425631761551
leaf_count=22 51 15 179 33 146 54 64
internal_value=0.00850415 0.020293 0.0124104 -0.0090364 -0.00184265 -0.0258007 0.0383699
internal_weight=163.725 98.1296 69.8538 65.5958 47.0521 18.5437 28.2758
internal_count=564 309 230 255 179 76 79
is_linear=0
shrinkage=0.03


Tree=15
num_leaves=8
num_cat=0
split_feature=14 7 9 16 12 12 10
split_gain=39.3013 15.9387 11.4441 6.60461 6.44896 4.30532 4.18065
threshold=-0.41410334389283743 -0.55052334480684939 0.15898018101579647 0.83667226594697286 0.70961604461198879 -0.7914687216192644 -0.31570989982365211
decision_type=2 2 2 2 2 2 2
left_child=2 3 6 -2 -4 -3 -1
right_child=1 5 4 -5 -6 -7 -8
leaf_value=-0.033112302452249297 0.01227076504227689 0 -0.0027725325910746405 -0.024192337990100482 0.036594752150677375 0.026582117713528121 -0.010871624975985157
leaf_weight=16.260646015405655 7.1293788552284232 6.5672240555286399 14.408613979816439 8.6465092003345472 3.8631528913974753 76.939388021826744 19.279347643256187
leaf_count=69 24 22 54 34 12 233 79
internal_value=0.00825246 0.0194094 -0.0121464 -0.00742839 0.00655077 0.0246139 -0.0219214
internal_weight=153.094 99.2825 53.8118 15.7759 18.2718 83.5066 35.54
internal_count=527 313 214 58 66 255 148
is_linear=0
shrinkage=0.03


Tree=16
num_leaves=8
num_cat=0
split_feature=14 7 9 3 18 5 9
split_gain=37.0202 14.991 10.9188 6.35076 6.13082 5.943 4.03558
threshold=-0.41410334389283743 -0.55052334480684939 0.15898018101579647 -0.24591638801461671 -0.53190529190667768 -0.46437435072640371 -0.55912588348430037
decision_type=2 2 2 2 2 2 2
left_child=2 3 5 -2 -4 -1 -3
right_child=1 6 4 -5 -6 -7 -8
leaf_value=0.0016015537553187823 0.012033750325462462 0.035994693595365383 0.030790262105652673 -0.023733943600084094 -0.004534634788340851 -0.027498014713724553 0.019165846900607308
leaf_weight=7.2003971785306922 7.1423292160034171 20.917088598012924 5.34718129038811 8.6051823496818525 12.947617933154104 28.121647298336029 62.693501397967339
leaf_count=26 24 60 17 34 49 122 195
internal_value=0.00800898 0.0188191 -0.0118365 -0.00722412 0.00638431 -0.0214375 0.023858
internal_weight=152.975 99.3581 53.6168 15.7475 18.2948 35.322 83.6106
internal_count=527 313 214 58 66 148 255
is_linear=0
shrinkage=0.03


Tree=17
num_leaves=8
num_cat=0
split_feature=14 7 10 27 16 12 16
split_gain=34.8705 14.1158 10.6483 6.24386 6.19294 4.0168 3.58987
threshold=-0.41410334389283743 -0.55052334480684939 -0.3333892362462399 -1.2166410153055998 0.83667226594697286 -0.7914687216192644 -1.1616172978462764
decision_type=2 2 2 2 2 2 2
left_child=2 4 6 -4 -2 -3 -1
right_child=1 5 3 -5 -6 -7 -8
leaf_value=-0.0063783899861007652 0.011962776872894454 0 0.025315011547225135 -0.0076090809063499524 -0.023379013000573417 0.02504062681808461 -0.041031464790428698
leaf_weight=4.9173627346754065 7.1423160731792441 6.5764925479888907 5.0742630809545508 32.768208801746368 8.5753045380115491 77.10920162498951 10.625201404094694
leaf_count=19 24 22 16 131 34 233 48
internal_value=0.00778734 0.0182615 -0.0115274 -0.00242454 -0.00702591 0.0231441 -0.0316603
internal_weight=152.788 99.4033 53.385 37.8425 15.7176 83.6857 15.5426
internal_count=527 313 214 147 58 255 67
is_linear=0
shrinkage=0.03


Tree=18
num_leaves=7
num_cat=0
split_feature=28 24 12 21 2 17
split_gain=30.5795 11.0253 6.53421 8.92863 8.03441 5.76942
threshold=-0.37278906992249644 -1.41438555623513 0.65724301729585166 1.9246084499972538 -0.74856128841223424 1.0051081336148731
decision_type=2 2 2 2 2 2
left_child=2 -2 3 -1 -4 -3
right_child=1 5 4 -5 -6 -7
leaf_value=-0.018642024901098141 -0.023966102278857124 0.015144378386318201 -0.02143473413475705 0.022464424860471476 0.031488903855582957 0.033399670810450588
leaf_weight=42.974030047655106 4.4020789116621009 69.01480633020401 3.0601332485675812 4.2927956730127326 5.8994130641221982 22.964444264769554
leaf_count=178 17 220 13 15 19 65
internal_value=0.00755581 0.0177782 -0.00981433 -0.0143342 0.0121719 0.0201092
internal_weight=152.608 96.3813 56.2264 47.2668 8.95955 91.9793
internal_count=527 302 225 193 32 285
is_linear=0
shrinkage=0.03


Tree=19
num_leaves=8
num_cat=0
split_feature=14 7 10 15 15 9 16
split_gain=31.7124 12.5343 10.1888 7.93539 6.43018 3.86918 3.4786
threshold=-0.41410334389283743 -0.55052334480684939 -0.3333892362462399 -0.46415720646009723 -1.4775926807443074 -0.55912588348430037 -1.1616172978462764
decision_type=2 2 2 2 2 2 2
left_child=2 3 6 -2 -4 -3 -1
right_child=1 5 4 -5 -6 -7 -8
leaf_value=-0.0060987679847409448 -0.03225540745008397 0.033694592705446558 -0.032248915792934221 0.008973519475026847 0.0024338824664006256 0.017376104960539516 -0.040317184503915991
leaf_weight=4.8969284594058982 5.7029327899217597 20.930019930005074 4.5585318952798835 9.9460251927375776 33.159132197499275 62.782561630010605 10.441378027200697
leaf_count=19 24 60 23 34 124 195 48
internal_value=0.00734511 0.0173197 -0.0111434 -0.00654584 -0.00225007 0.0219119 -0.0309854
internal_weight=152.418 99.3615 53.056 15.649 37.7177 83.7126 15.3383
internal_count=527 313 214 58 147 255 67
is_linear=0
shrinkage=0.03


end of trees

feature_importances:
atr_14=17
volatility_5bar=13
bb_width=12
macd_hist=10
hour_sin=10
momentum_5bar=8
momentum_3bar=7
volume_ratio=7
vol_ratio=7
macd_signal=4
volatility_20bar=4
returns_std_10=4
high_low_range=4
momentum_1bar=3
rsi_14=2
rsi_slope=2
volume_trend=2
atr_ratio=2
upper_wick_ratio=2
hour_cos=2
returns_skew_10=2
close_position_in_range=2
rsi_7=1
momentum_10bar=1
candle_body_ratio=1
lower_wick_ratio=1

parameters:
[boosting: gbdt]
[objective: binary]
[metric: auc]
[tree_learner: serial]
[device_type: cpu]
[data_sample_strategy: bagging]
[data: ]
[valid: ]
[num_iterations: 300]
[learning_rate: 0.03]
[num_leaves: 20]
[num_threads: 0]
[seed: 0]
[deterministic: 0]
[force_col_wise: 0]
[force_row_wise: 0]
[histogram_pool_size: -1]
[max_depth: 3]
[min_data_in_leaf: 10]
[min_sum_hessian_in_leaf: 0.001]
[bagging_fraction: 0.7]
[pos_bagging_fraction: 1]
[neg_bagging_fraction: 1]
[bagging_freq: 5]
[bagging_seed: 3]
[bagging_by_query: 0]
[feature_fraction: 0.7]
[feature_fraction_bynode: 1]
[feature_fraction_seed: 2]
[extra_trees: 0]
[extra_seed: 6]
[early_stopping_round: 0]
[early_stopping_min_delta: 0]
[first_metric_only: 0]
[max_delta_step: 0]
[lambda_l1: 0.3]
[lambda_l2: 1]
[linear_lambda: 0]
[min_gain_to_split: 0]
[drop_rate: 0.1]
[max_drop: 50]
[skip_drop: 0.5]
[xgboost_dart_mode: 0]
[uniform_drop: 0]
[drop_seed: 4]
[top_rate: 0.2]
[other_rate: 0.1]
[min_data_per_group: 100]
[max_cat_threshold: 32]
[cat_l2: 10]
[cat_smooth: 10]
[max_cat_to_onehot: 4]
[top_k: 20]
[monotone_constraints: ]
[monotone_constraints_method: basic]
[monotone_penalty: 0]
[feature_contri: ]
[forcedsplits_filename: ]
[refit_decay_rate: 0.9]
[cegb_tradeoff: 1]
[cegb_penalty_split: 0]
[cegb_penalty_feature_lazy: ]
[cegb_penalty_feature_coupled: ]
[path_smooth: 0]
[interaction_constraints: ]
[verbosity: -1]
[saved_feature_importance_type: 0]
[use_quantized_grad: 0]
[num_grad_quant_bins: 4]
[quant_train_renew_leaf: 0]
[stochastic_rounding: 1]
[linear_tree: 0]
[max_bin: 255]
[max_bin_by_feature: ]
[min_data_in_bin: 3]
[bin_construct_sample_cnt: 200000]
[data_random_seed: 1]
[is_enable_sparse: 1]
[enable_bundle: 1]
[use_missing: 1]
[zero_as_missing: 0]
[feature_pre_filter: 1]
[pre_partition: 0]
[two_round: 0]
[header: 0]
[label_column: ]
[weight_column: ]
[group_column: ]
[ignore_column: ]
[categorical_feature: ]
[forcedbins_filename: ]
[precise_float_parser: 0]
[parser_config_file: ]
[objective_seed: 5]
[num_class: 1]
[is_unbalance: 0]
[scale_pos_weight: 1.56349]
[sigmoid: 1]
[boost_from_average: 1]
[reg_sqrt: 0]
[alpha: 0.9]
[fair_c: 1]
[poisson_max_delta_step: 0.7]
[tweedie_variance_power: 1.5]
[lambdarank_truncation_level: 30]
[lambdarank_norm: 1]
[label_gain: ]
[lambdarank_position_bias_regularization: 0]
[eval_at: ]
[multi_error_top_k: 1]
[auc_mu_weights: ]
[num_machines: 1]
[local_listen_port: 12400]
[time_out: 120]
[machine_list_filename: ]
[machines: ]
[gpu_platform_id: -1]
[gpu_device_id: -1]
[gpu_use_dp: 0]
[num_gpu: 1]

end of parameters

pandas_categorical:null
