tree
version=v4
num_class=1
num_tree_per_iteration=1
label_index=0
max_feature_idx=29
objective=binary sigmoid:1
feature_names=rsi_14 rsi_7 rsi_slope macd_hist macd_hist_delta macd_signal bb_position bb_width momentum_1bar momentum_3bar momentum_5bar momentum_10bar volume_ratio volume_trend volatility_5bar volatility_20bar vol_ratio atr_14 atr_ratio candle_body_ratio upper_wick_ratio lower_wick_ratio consec_direction close_vs_open hour_sin hour_cos returns_std_10 returns_skew_10 high_low_range close_position_in_range
feature_infos=[-2.5495691154128952:2.3357920701115389] [-2.3529247157811515:2.1872885676871956] [-2.904826269693265:3.0184520974583844] [-4.2131583978448779:2.9316755240546866] [-5.0811864520061762:3.9858037875640138] [-3.2861262711306178:3.4358439397059501] [-3.0140503671793062:2.5464335222565122] [-1.3210951263548447:4.7418650879532853] [-5.7490967541808873:4.4447749104771415] [-6.1534319571157647:5.1292824581715601] [-5.7969120075003664:4.490272109005164] [-4.7306474093439919:4.0248937815473917] [-1.0338267357261837:9.2966691588063792] [-1.6495845068217774:3.7545168111031164] [-1.3867157311699632:5.7340376825179593] [-1.5428065083220519:3.983087563807842] [-2.0949538966748382:2.8101366301331909] [-1.4277680703580924:4.6534578399999127] [-2.2986714735412801:3.1325139561791682] [-1.7411461890969959:2.032836175073319] [-1.227777677443892:3.2280759767478182] [-1.2532163165274304:3.0192396539189703] [-3.5831295935720413:4.4200649730925186] [-1.0198039027185577:0.980580675690921] [-1.4000228984370726:1.4224024982864265] [-1.4108644373294934:1.4238415249052867] [-1.383561037764067:5.2021244631120069] [-3.0280071695438364:2.8786725868728933] [-1.4755396423788085:3.6051797003205586] [-1.9288399551455526:1.637311597698226]
tree_sizes=852 841 855 989 853 771 773 985 987 973 965 984 860 782 779 773 878 768 776 881 986 989 986 886 995 971 966 986

Tree=0
num_leaves=7
num_cat=0
split_feature=17 8 4 18 5 7
split_gain=19.1738 14.2356 6.07428 4.71425 4.23336 5.72796
threshold=0.65884821383362391 -0.21827526595924268 -0.45429203524370848 0.17210810866601201 1.6009255824457596 0.79198808853298408
decision_type=2 2 2 2 2 2
left_child=1 3 -3 -1 5 -2
right_child=4 2 -4 -5 -6 -7
leaf_value=0.45755654477526414 0.46497428084073333 0.46812321621180547 0.43829794278643736 0.48142113468309056 0.45039307050926514 0.50104397369310116
leaf_weight=16.237919405102733 5.3661528974771526 6.1745315045118323 49.182741031050682 11.89735835790634 1.993177756667136 10.573098495602606
leaf_count=86 29 34 246 68 10 64
internal_value=0.456608 0.450501 0.441781 0.467557 0.483826 0.489152
internal_weight=101.425 83.4926 55.3573 28.1353 17.9324 15.9393
internal_count=537 434 280 154 103 93
is_linear=0
shrinkage=1


Tree=1
num_leaves=7
num_cat=0
split_feature=15 8 9 26 2 22
split_gain=19.8875 13.8038 5.12388 4.13298 1.83655 0.865728
threshold=1.3160223810661098 -0.21827526595924268 0.89656401335670932 -0.93353770530116698 -0.85263454888878254 0.64077864994536526
decision_type=2 2 2 2 2 2
left_child=1 3 -3 -1 -2 -6
right_child=4 2 -4 -5 5 -7
leaf_value=-0.026548661766829049 0 -0.024977460281272665 0 0.0068648171603522424 0.037571443515235371 0.0078089669649443862
leaf_weight=2.7077183127403286 1.8334519714117039 50.465696945786476 8.5373519361019117 28.294149309396744 7.1387078464031202 2.634191557765007
leaf_count=13 10 252 46 157 44 15
internal_value=-0.00809668 -0.0129862 -0.0214069 0.00292683 0.0271293 0.0318542
internal_weight=101.611 90.0049 59.003 31.0019 11.6064 9.7729
internal_count=537 468 298 170 69 59
is_linear=0
shrinkage=0.03


Tree=2
num_leaves=7
num_cat=0
split_feature=17 8 4 18 0 21
split_gain=17.2423 12.462 5.69881 4.42671 3.43106 1.88797
threshold=0.65884821383362391 -0.21827526595924268 -0.45429203524370848 0.17210810866601201 1.5885739253782609 1.05854608272659
decision_type=2 2 2 2 2 2
left_child=1 3 -3 -1 5 -2
right_child=4 2 -4 -5 -6 -7
leaf_value=-0.0072540336154904616 0.027226308732872441 0.0036983540409169149 -0.025028842835623039 0.015897512436199347 -0.011004745423170452 0
leaf_weight=16.257580235600475 13.239496886730196 6.2046886533498755 49.688357874751091 11.834297046065329 2.1614681035280219 2.3924921900033942
leaf_count=86 79 34 246 68 11 13
internal_value=-0.00783413 -0.013581 -0.0216727 0.00240089 0.0180914 0.0230755
internal_weight=101.778 83.9849 55.893 28.0919 17.7935 15.632
internal_count=537 434 280 154 103 92
is_linear=0
shrinkage=0.03


Tree=3
num_leaves=8
num_cat=0
split_feature=15 8 21 25 27 21 10
split_gain=18.0242 12.06 5.43386 3.94708 2.16328 0.891566 0.81192
threshold=1.3160223810661098 -0.21827526595924268 -0.85843143146460243 -1.3193102819860916 -1.4895786103483781 -0.96332963528475424 -0.28209396333003106
decision_type=2 2 2 2 2 2 2
left_child=1 3 -3 -1 6 -6 -2
right_child=4 2 -4 -5 5 -7 -8
leaf_value=0.026384068267749139 -0.0068168682906130764 -0.036374472861354264 -0.014096422712738713 -0.0016455684445500446 0.0046183856028551426 0.039486676187289974 0.015347161880288026
leaf_weight=4.3298245221376446 1.8982075452804568 14.033253490924833 45.473951011896133 26.609661355614662 1.7279219329357145 6.1753471642732602 1.6691261678934095
leaf_count=26 10 66 232 144 10 39 10
internal_value=-0.00758491 -0.0122011 -0.0200132 0.00269851 0.0261524 0.0342491 0.00267263
internal_weight=101.917 90.4467 59.5072 30.9395 11.4706 7.90327 3.56733
internal_count=537 468 298 170 69 49 20
is_linear=0
shrinkage=0.03


Tree=4
num_leaves=7
num_cat=0
split_feature=15 9 16 16 1 14
split_gain=17.1397 8.72215 7.08638 3.09878 1.76731 1.53212
threshold=1.3160223810661098 -0.77647707129337784 1.8020181043918808 1.0578130197526991 -1.4748145241853432 2.5651102806277479
decision_type=2 2 2 2 2 2
left_child=1 3 -3 -1 -2 -6
right_child=4 2 -4 -5 5 -7
leaf_value=0.018282782301704305 0 -0.017397151214356435 0.029814132415787242 -0.010531510235275068 0.036581482375943698 0.0025911269778162928
leaf_weight=9.7261501401662809 1.8157518357038487 75.281546995043755 1.9552717804908741 3.687249392271041 7.3069700598716718 2.2752505838871002
leaf_count=56 10 381 12 19 46 13
internal_value=-0.00733628 -0.0118192 -0.0157211 0.00955639 0.0256689 0.0303687
internal_weight=102.048 90.6502 77.2368 13.4134 11.398 9.58222
internal_count=537 468 393 75 69 59
is_linear=0
shrinkage=0.03


Tree=5
num_leaves=6
num_cat=0
split_feature=17 7 29 7 5
split_gain=14.4367 8.88787 7.0407 5.2134 5.63813
threshold=0.65884821383362391 -0.98759182866954409 -1.4056576342307803 0.19680977377403724 1.6009255824457596
decision_type=2 2 2 2 2
left_child=1 -1 -3 -2 -5
right_child=3 2 -4 4 -6
leaf_value=-0.043782675434510886 -0.016019158386584485 0.017902896678152414 -0.014065884354090839 0.028425120945724962 -0.01470473278677779
leaf_weight=8.0085215419530851 3.3321276903152492 5.7070140093564978 69.740763336420059 13.14409816265106 2.4193358272314063
leaf_count=36 17 33 356 80 12
internal_value=-0.00963701 -0.0150299 -0.0113274 0.0132879 0.0206942
internal_weight=102.352 83.4563 75.4478 18.8956 15.5634
internal_count=534 425 389 109 92
is_linear=0
shrinkage=0.03


Tree=6
num_leaves=6
num_cat=0
split_feature=17 27 29 5 29
split_gain=13.5501 8.19995 7.94988 3.41826 3.08081
threshold=0.65884821383362391 1.5899867421575353 -1.4056576342307803 1.6009255824457596 -0.45129284893000815
decision_type=2 2 2 2 2
left_child=1 2 -1 4 -2
right_child=3 -3 -4 -5 -6
leaf_value=0.013163447841347998 0.0062649297681586962 0.031846313670493225 -0.019152098499594913 -0.014362353936816497 0.034415753481692186
leaf_weight=6.4990247637033454 10.639581054449085 2.2831638306379309 74.901515498757362 2.4264285117387763 5.7460058033466348
leaf_count=37 61 14 374 12 36
internal_value=-0.00934846 -0.014553 -0.0163344 0.0129153 0.0180661
internal_weight=102.496 83.6837 81.4005 18.812 16.3856
internal_count=534 425 411 109 97
is_linear=0
shrinkage=0.03


Tree=7
num_leaves=8
num_cat=0
split_feature=26 19 29 28 11 18 22
split_gain=12.7941 7.12384 7.34336 6.17433 4.05679 3.40554 3.086
threshold=0.40643331950788569 -1.3579589860590724 -1.4056576342307803 0.87858790654996566 0.35457008743689239 1.8849943728639438 1.0000000180025095e-35
decision_type=2 2 2 2 2 2 2
left_child=1 4 -3 6 -1 -5 -2
right_child=3 2 -4 5 -6 -7 -8
leaf_value=0.031479282043728518 0.010197678265302485 0.012621725157969946 -0.020522670074059907 0.030770582472478738 -0.0090365467622929071 -0.0065027010223935779 -0.01789549770772968
leaf_weight=3.5540987849235526 5.2478697448968905 5.5982726216316214 66.427703052759171 10.106102049350737 3.1867732256650925 1.9020281136035908 6.6332240253686905
leaf_count=21 30 32 329 63 16 10 33
internal_value=-0.00902991 -0.0148682 -0.0176857 0.00968225 0.0124696 0.0241288 -0.00495972
internal_weight=102.656 78.7668 72.026 23.8892 6.74087 12.0081 11.8811
internal_count=534 398 361 136 37 73 63
is_linear=0
shrinkage=0.03


Tree=8
num_leaves=8
num_cat=0
split_feature=26 7 4 7 21 7 4
split_gain=12.0152 8.00807 6.2087 5.49917 4.42532 2.72576 0.428347
threshold=0.40643331950788569 -0.98759182866954409 -0.92938616432549737 0.24664650357401721 -1.1476324041430637 -0.12211800252062868 -0.15705127011833478
decision_type=2 2 2 2 2 2 2
left_child=1 6 -3 5 -5 -2 -1
right_child=3 2 -4 4 -6 -7 -8
leaf_value=-0.012006168377225417 0.0090774492163406256 -0.032413378450866233 -0.0066922333208811139 -0.015421551494072925 0.024571857943625465 -0.023814320571723131 -0.046953300811047594
leaf_weight=2.0404046922922134 2.6657948940992355 9.3749459385871869 61.498415052890778 1.967050835490231 14.703126519918438 4.4732968211174038 6.0617162436246854
leaf_count=10 15 45 317 10 89 22 26
internal_value=-0.00873523 -0.0143746 -0.0106234 0.00943324 0.0187377 -0.0108202 -0.0414271
internal_weight=102.785 78.9755 70.8734 23.8093 16.6702 7.13909 8.10212
internal_count=534 398 362 136 99 37 36
is_linear=0
shrinkage=0.03


Tree=9
num_leaves=8
num_cat=0
split_feature=14 11 29 29 20 4 1
split_gain=11.5165 9.79132 6.09306 6.60822 5.44322 2.89175 1.93013
threshold=-0.52839573719585042 -0.49574514562607069 -1.3455897103190242 -0.45129284893000815 0.025325612737295673 0.61015607007686479 -1.5441261881101476
decision_type=2 2 2 2 2 2 2
left_child=1 4 6 -4 -1 -3 -2
right_child=2 5 3 -5 -6 -7 -8
leaf_value=-0.020643848632277056 0 -0.033054574584891638 -0.018267582051617017 0.0021725136844553562 0.027223591347885562 0.00060397293460004897 0.027727508482550907
leaf_weight=2.5167545080184928 2.3520588874816895 25.269928559660915 20.63051700592041 39.343575939536095 4.2325544953346252 1.9071155041456211 6.6305740326642972
leaf_count=12 13 118 104 211 25 10 41
internal_value=-0.00850181 -0.0225542 -0.00123588 -0.00489536 0.00785226 -0.0304356 0.0203386
internal_weight=102.883 33.9264 68.9567 59.9741 6.74931 27.177 8.98263
internal_count=534 165 369 315 37 128 54
is_linear=0
shrinkage=0.03


Tree=10
num_leaves=8
num_cat=0
split_feature=28 18 11 3 21 8 21
split_gain=12.8679 9.28364 7.21856 5.66631 5.51087 4.60918 2.89142
threshold=0.36231632967824667 0.7705916813165874 -0.53217895003551963 0.39706370973843336 -0.72577593334729362 -1.0134147859886036 -0.63894417929962255
decision_type=2 2 2 2 2 2 2
left_child=1 2 -1 5 -3 -2 -5
right_child=3 4 -4 6 -6 -7 -8
leaf_value=0 0.02530096722181558 -0.019204253809946423 -0.026096234391386437 0.00060042214207757581 0.01592372092016138 -0.010560693498040718 0.038497466544100835
leaf_weight=11.837674677371977 3.0300754308700606 5.1298675686120978 57.076175376772881 3.3756334632635117 10.338434234261511 14.330124169588089 4.9154728353023511
leaf_count=63 19 25 273 19 58 76 31
internal_value=-0.0114282 -0.0170685 -0.0217435 0.00673235 0.00326874 -0.00277404 0.025762
internal_weight=110.033 84.3822 68.9139 25.6513 15.4683 17.3602 8.29111
internal_count=564 419 336 145 83 95 50
is_linear=0
shrinkage=0.03


Tree=11
num_leaves=8
num_cat=0
split_feature=28 26 24 18 29 21 18
split_gain=12.1742 5.55385 5.40289 11.6207 4.94043 4.01983 2.0219
threshold=-0.60403267843148334 0.98886738540041363 0.50802338712303097 -0.37993368854447779 1.0262922983933989 1.391178670364037 1.9297733905983565
decision_type=2 2 2 2 2 2 2
left_child=2 4 3 -1 -2 -4 -3
right_child=1 6 5 -5 -6 -7 -8
leaf_value=-0.036722229909517019 -0.0031769883565075925 0.018274587700911789 -0.041201931682044161 0.014908371198318771 -0.02282038953513588 0.00017973594668074591 -0.0074616739809204675
leaf_weight=6.4943399429321289 50.232602149248123 10.560460627079008 16.713420346379284 7.102626755833624 14.765685081481932 1.9005957543849934 2.4274028092622748
leaf_count=29 263 64 75 39 71 10 13
internal_value=-0.0110576 -0.00437869 -0.0263382 -0.00996179 -0.00805391 -0.036724 0.0126316
internal_weight=110.197 77.9862 32.211 13.597 64.9983 18.614 12.9879
internal_count=564 411 153 68 334 85 77
is_linear=0
shrinkage=0.03


Tree=12
num_leaves=7
num_cat=0
split_feature=17 25 19 19 19 8
split_gain=10.6068 7.95279 8.55237 3.59387 4.97102 3.33305
threshold=0.21684910568896837 -1.3193102819860916 -1.4475109603412994 1.3496321618196896 0.30554963594827506 -0.31186012625137327
decision_type=2 2 2 2 2 2
left_child=1 5 -3 4 -2 -1
right_child=3 2 -4 -5 -6 -7
leaf_value=0.022864881972460584 0 0.017254896658674575 -0.023004707935863754 -0.021432948789707404 0.027237230535044104 -0.0060088543296908043
leaf_weight=4.6080893278121939 17.584081754088409 4.1500140428543082 64.70710963010788 2.987990900874137 7.7989500761032096 8.4866105467081052
leaf_count=27 96 23 312 15 48 43
internal_value=-0.0107362 -0.0161839 -0.0202372 0.00470869 0.00882285 0.00441475
internal_weight=110.323 81.9518 68.8571 28.371 25.383 13.0947
internal_count=564 405 335 159 144 70
is_linear=0
shrinkage=0.03


Tree=13
num_leaves=6
num_cat=0
split_feature=7 18 18 21 12
split_gain=10.4085 5.94555 5.19344 4.21722 0.728756
threshold=-0.98759182866954409 0.7705916813165874 0.42307268647056379 -0.93958206802963018 -0.49621435823213561
decision_type=2 2 2 2 2
left_child=4 2 -2 -3 -1
right_child=1 3 -4 -5 -6
leaf_value=-0.012811389980324932 -0.007953213644414996 -0.017731180986031141 -0.031755027728248779 0.011996021981537194 -0.045229835324710137
leaf_weight=2.751452699303627 68.344748765230179 4.3398325741291073 9.1068416982889158 19.028685912489891 6.8866615146398527
leaf_count=13 352 21 42 107 29
internal_value=-0.0103954 -0.00722719 -0.0112357 0.0056049 -0.0388954
internal_weight=110.458 100.82 77.4516 23.3685 9.63811
internal_count=564 522 394 128 42
is_linear=0
shrinkage=0.03


Tree=14
num_leaves=6
num_cat=0
split_feature=7 17 18 2 19
split_gain=9.87075 6.74337 6.18288 3.99549 1.36413
threshold=-0.98759182866954409 0.63463790332825609 0.7705916813165874 -1.3075175946649911 -0.78918005177180339
decision_type=2 2 2 2 2
left_child=4 2 -2 -3 -1
right_child=1 3 -4 -5 -6
leaf_value=-0.0087473202781056334 -0.014847307939279755 -0.015867305266538276 0.0047170987442302593 0.01610510914562403 -0.044600095000035964
leaf_weight=2.506750300526619 65.711380302906036 3.4165625721216228 17.255722165107727 14.526760771870611 7.1542887687683088
leaf_count=12 324 18 93 87 30
internal_value=-0.0101078 -0.00701978 -0.0106633 0.00902594 -0.0378347
internal_weight=110.571 100.91 82.9671 17.9433 9.66104
internal_count=564 522 417 105 42
is_linear=0
shrinkage=0.03


Tree=15
num_leaves=6
num_cat=0
split_feature=28 10 8 17 29
split_gain=11.9471 6.1218 6.01655 3.97655 5.25616
threshold=0.33866825431605974 -1.2098914126815707 1.2477411970921322 1.9894153140894579 -0.61969179739742397
decision_type=2 2 2 2 2
left_child=1 -1 -3 4 -2
right_child=3 2 -4 -5 -6
leaf_value=0.023544331857256712 -0.011762192517192944 -0.019834345990149535 0.014830475238394028 0.029432183903950696 0.015772549360650805
leaf_weight=2.3591692447662345 12.422649785876278 69.562130942940712 3.8082654625177375 4.5541182756423941 10.593529418110847
leaf_count=14 65 336 21 30 61
internal_value=-0.0099109 -0.0160454 -0.0177388 0.006596 0.000665373
internal_weight=103.3 75.7296 73.3704 27.5703 23.0162
internal_count=527 371 357 156 126
is_linear=0
shrinkage=0.03


Tree=16
num_leaves=7
num_cat=0
split_feature=28 9 2 17 29 9
split_gain=11.2414 5.2319 6.10402 3.82548 4.9763 3.71212
threshold=0.33866825431605974 -0.39437320022204425 1.852756602562516 1.9894153140894579 -0.61969179739742397 -0.61426738167466921
decision_type=2 2 2 2 2 2
left_child=1 5 -3 4 -2 -1
right_child=3 2 -4 -5 -6 -7
leaf_value=-0.009882958780084777 -0.011408139268745742 -0.021781535619197896 0.022724743576480851 0.02895981929294331 0.015391454001413171 0.018120741822440733
leaf_weight=12.411364391446115 12.454483717679981 56.324955031275749 1.9331486076116551 4.5065812319517127 10.555494621396065 5.2053452134132376
leaf_count=63 65 268 11 30 61 29
internal_value=-0.00958158 -0.0155196 -0.0197943 0.0064466 0.000639952 -0.000596158
internal_weight=103.391 75.8748 58.2581 27.5166 23.01 17.6167
internal_count=527 371 279 156 126 92
is_linear=0
shrinkage=0.03


Tree=17
num_leaves=6
num_cat=0
split_feature=17 12 6 0 18
split_gain=10.6104 5.28227 4.4215 2.85758 2.22025
threshold=1.396750903344173 1.9172698438305984 -1.1862401343887099 1.5885739253782609 -0.55470121891511026
decision_type=2 2 2 2 2
left_child=1 2 -1 4 -2
right_child=3 -3 -4 -5 -6
leaf_value=0.0025864109628712076 0.00068284325065671601 0.021191605435204524 -0.016452734193825012 -0.0091899511482783913 0.035770594329627647
leaf_weight=11.514584481716154 2.9626550674438468 2.9630289524793616 78.943965882062912 1.752569943666457 5.3235497623682013
leaf_count=62 18 17 385 9 36
internal_value=-0.00926992 -0.0125072 -0.013929 0.0184447 0.025619
internal_weight=103.46 93.4216 90.4586 10.0388 8.2862
internal_count=527 464 447 63 54
is_linear=0
shrinkage=0.03


Tree=18
num_leaves=6
num_cat=0
split_feature=28 10 2 17 29
split_gain=10.2364 5.62713 5.07311 3.53097 4.71986
threshold=0.33866825431605974 -1.2098914126815707 1.852756602562516 1.9894153140894579 -0.61969179739742397
decision_type=2 2 2 2 2
left_child=1 -1 -3 4 -2
right_child=3 2 -4 -5 -6
leaf_value=0.023301997216748079 -0.010914641074215326 -0.017699330745937193 0.022439122778612708 0.02818722604753076 0.015182097889705573
leaf_weight=2.350450098514556 12.491071879863743 71.810067147016525 1.9291054904460896 4.4241002500057212 10.519308730959892
leaf_count=14 65 346 11 30 61
internal_value=-0.00896792 -0.0146179 -0.0162427 0.00634889 0.000776209
internal_weight=103.524 76.0896 73.7392 27.4345 23.0104
internal_count=527 371 357 156 126
is_linear=0
shrinkage=0.03


Tree=19
num_leaves=7
num_cat=0
split_feature=26 9 9 25 1 21
split_gain=8.49621 5.21563 6.17494 3.32685 3.07257 1.77072
threshold=1.1163276942273064 1.1462249246647709 -0.36741329357228586 -0.22426822478895453 -0.93764521939096723 -0.60788453509695006
decision_type=2 2 2 2 2 2
left_child=1 2 -1 4 -2 -3
right_child=3 5 -4 -5 -6 -7
leaf_value=-0.00048714867781184855 0.023353232663814328 -0.0016469050581388184 -0.01880596104558185 0.033022167795199252 -0.010036663850987114 0.027211614670971183
leaf_weight=24.001995131373405 2.7954639345407477 2.5417747646570206 61.459518626332283 3.9390102326869956 5.9934761524200431 2.841631516814231
leaf_count=126 18 13 293 27 33 17
internal_value=-0.00866903 -0.011945 -0.0138303 0.0132243 0.000964883 0.0140527
internal_weight=103.573 90.8449 85.4615 12.728 8.78894 5.38341
internal_count=527 449 419 78 51 30
is_linear=0
shrinkage=0.03


Tree=20
num_leaves=8
num_cat=0
split_feature=28 29 12 24 18 6 11
split_gain=9.68475 8.17157 5.84783 3.5508 4.55464 2.56489 1.48295
threshold=-0.7388522925207831 -1.1478994554749682 -0.86481906717228818 0.75600685834964387 -0.37993368854447779 -1.4294999472592946 0.29114199523339562
decision_type=2 2 2 2 2 2 2
left_child=3 5 -3 4 -1 -2 -5
right_child=1 2 -4 6 -6 -7 -8
leaf_value=-0.031416192569023428 0.00010368844607424667 -0.036997727408053155 -0.0040217686583024501 -0.044492156223311694 0.008888152287356909 0.026931065621451204 -0.011875579479470549
leaf_weight=3.2466189414262772 5.8698363155126563 4.3860354721546164 66.541391611099243 7.390655502676962 4.9289478361606616 8.56896825134754 3.5978975296020508
leaf_count=14 33 19 343 31 26 52 17
internal_value=-0.00691866 -0.00235615 -0.0066721 -0.0256712 -0.00781589 0.017321 -0.0364449
internal_weight=104.53 85.3662 70.9274 19.1641 8.17557 14.4388 10.9886
internal_count=535 447 362 88 40 85 48
is_linear=0
shrinkage=0.03


Tree=21
num_leaves=8
num_cat=0
split_feature=15 25 28 7 14 17 26
split_gain=10.1824 5.75618 5.37154 3.36587 3.43495 3.18848 2.43111
threshold=0.94713150321282591 -1.3193102819860916 -0.7388522925207831 0.74407278779907327 0.65422392699458543 -0.37027908027364426 0.79823083008283968
decision_type=2 2 2 2 2 2 2
left_child=1 5 -3 4 -2 -1 -5
right_child=3 2 -4 6 -6 -7 -8
leaf_value=0.025486433351274956 0.015004214174574034 -0.027933528988122791 -0.0088758480483409324 -0.0027849895152264673 -0.027475280202004512 -0.0044436815355878593 0.028024103629047028
leaf_weight=4.5569200068712234 2.4169379919767406 18.088160127401352 59.231242179870605 2.067026510834693 2.2852105647325516 6.0785911679267866 9.8095901012420637
leaf_count=26 14 82 295 11 11 31 65
internal_value=-0.00673944 -0.0108665 -0.0137489 0.0140166 -0.00526005 0.00869503 0.0221632
internal_weight=104.534 87.9549 77.3194 16.5788 4.70215 10.6355 11.8766
internal_count=535 434 377 101 25 57 76
is_linear=0
shrinkage=0.03


Tree=22
num_leaves=8
num_cat=0
split_feature=15 25 28 7 3 17 0
split_gain=9.60854 5.4402 5.06511 3.22109 3.32912 3.04745 2.22441
threshold=0.94713150321282591 -1.3193102819860916 -0.7388522925207831 0.74407278779907327 0.39706370973843336 -0.37027908027364426 -1.7265264183531339
decision_type=2 2 2 2 2 2 2
left_child=1 5 -3 4 -2 -1 -5
right_child=3 2 -4 6 -6 -7 -8
leaf_value=0.024936752447091367 -0.023658402323216227 -0.027115356354101044 -0.0086056236451834307 -0.0010630284879285202 0.018599586845828055 -0.0043267871838238853 0.027665883815458241
leaf_weight=4.5399468243122101 2.8567106574773815 18.104827776551247 59.288925915956497 2.2989238798618326 1.852402940392494 6.0824850499629957 9.4772535413503611
leaf_count=26 14 82 295 13 11 31 63
internal_value=-0.00654198 -0.0105414 -0.0133411 0.0136781 -0.00511289 0.00847532 0.0217088
internal_weight=104.501 88.0162 77.3938 16.4853 4.70911 10.6224 11.7762
internal_count=535 434 377 101 25 57 76
is_linear=0
shrinkage=0.03


Tree=23
num_leaves=7
num_cat=0
split_feature=15 25 17 26 7 17
split_gain=9.07898 5.14242 4.79471 3.18731 3.37321 2.91341
threshold=0.94713150321282591 -1.3193102819860916 -0.47864026270331478 0.40643331950788569 0.74407278779907327 -0.37027908027364426
decision_type=2 2 2 2 2 2
left_child=1 5 -3 -2 -5 -1
right_child=3 2 -4 4 -6 -7
leaf_value=0.024403798130075975 -0.0097200770423396844 -0.022564531209584168 -0.0066797094070122146 -0.0039923301442375218 0.027801633922904218 -0.0042130531477750357
leaf_weight=4.5220321267843246 3.1608256101608303 28.969639763236046 48.487441793084145 3.1749020665884009 10.061414927244185 6.08622297644615
leaf_count=26 16 134 243 17 68 31
internal_value=-0.00634818 -0.0102274 -0.0129474 0.0133593 0.0197985 0.0082617
internal_weight=104.462 88.0653 77.4571 16.3971 13.2363 10.6083
internal_count=535 434 377 101 85 57
is_linear=0
shrinkage=0.03


Tree=24
num_leaves=8
num_cat=0
split_feature=14 19 28 11 27 28 12
split_gain=7.95473 7.23926 5.36468 4.65164 3.81992 3.43073 3.17262
threshold=-0.5404992428242249 1.3496321618196896 0.071339639825413678 -0.53217895003551963 -0.5835728959395069 0.15652720131116107 -0.41748682003827098
decision_type=2 2 2 2 2 2 2
left_child=3 2 -2 5 -3 -1 -5
right_child=1 4 -4 6 -6 -7 -8
leaf_value=0.02389886423158722 -0.0051180696781026316 0.0033547266663107081 0.012303689882416244 -0.0053819788311000975 -0.034682855019767249 -0.016725383515635191 -0.029036898434267582
leaf_weight=3.1599759608507147 30.336532533168793 2.629731148481369 30.613234490156174 8.7896213829517382 6.5956107228994352 2.2607938498258591 20.016150414943695
leaf_count=18 152 14 177 43 30 11 90
internal_value=-0.00616437 -0.000192256 0.00354443 -0.0178005 -0.0236922 0.00558822 -0.0225437
internal_weight=104.402 70.1751 60.9498 34.2265 9.22534 5.42077 28.8058
internal_count=535 373 329 162 44 29 133
is_linear=0
shrinkage=0.03


Tree=25
num_leaves=8
num_cat=0
split_feature=11 5 11 21 2 11 26
split_gain=8.82177 7.32385 6.25752 4.89124 2.54721 1.80442 1.40074
threshold=-0.54769817505830387 0.48446867553733436 -0.27680613902693768 -0.54395021090765405 0.24327415783399828 -0.85726268208159406 -0.25965685630142593
decision_type=2 2 2 2 2 2 2
left_child=1 4 6 -4 -1 -3 -2
right_child=2 5 3 -5 -6 -7 -8
leaf_value=0.025592590529731472 -0.03909857046805499 -0.032262168317058776 -0.017965364358470987 -0.00080661847665301257 0.0008173867729265083 0 -0.011050985091171554
leaf_weight=12.735161378979688 6.9656408578157425 2.6952961683273315 22.227115213871002 45.642317891120911 6.2840806245803824 2.3095085471868506 4.6878783553838712
leaf_count=76 30 12 109 234 35 12 23
internal_value=-0.00578929 0.0096689 -0.0106331 -0.00673602 0.018306 -0.0192375 -0.0302921
internal_weight=103.547 24.024 79.523 67.8694 19.0192 5.0048 11.6535
internal_count=531 135 396 343 111 24 53
is_linear=0
shrinkage=0.03


Tree=26
num_leaves=8
num_cat=0
split_feature=11 20 9 3 1 20 5
split_gain=8.33164 8.14011 7.54499 5.75211 5.48569 5.09646 3.68373
threshold=-0.54769817505830387 -0.74142624755230602 0.9927313311137983 -1.773421700766493 0.38915018384985983 -0.18514746027371842 0.36152683605555963
decision_type=2 2 2 2 2 2 2
left_child=1 6 5 -3 -4 -2 -1
right_child=2 3 4 -5 -6 -7 -8
leaf_value=0 -0.0047997046503194651 -0.0059889010384096015 -0.015496594166888495 0.031627544630822943 0.029090507550788805 -0.021413341708919176 -0.038405795056485947
leaf_weight=5.5267040729522732 34.190692991018295 4.2076536566019103 2.7521964907646161 11.840931534767147 6.0996053069829941 36.540163144469261 2.3850706070661545
leaf_count=30 172 24 14 71 37 173 10
internal_value=-0.00564088 0.00940154 -0.0103419 0.0214645 0.0141482 -0.0136868 -0.0137204
internal_weight=103.543 23.9604 79.5827 16.0486 8.8518 70.7309 7.91177
internal_count=531 135 396 95 51 345 40
is_linear=0
shrinkage=0.03


Tree=27
num_leaves=8
num_cat=0
split_feature=11 20 9 3 1 20 29
split_gain=7.82898 7.7516 7.11864 5.50527 5.25438 4.78289 2.08922
threshold=-0.54769817505830387 -0.74142624755230602 0.9927313311137983 -1.773421700766493 0.38915018384985983 -0.18514746027371842 -1.3755698820867819
decision_type=2 2 2 2 2 2 2
left_child=1 6 5 -3 -4 -2 -1
right_child=2 3 4 -5 -6 -7 -8
leaf_value=0.0080428541800608121 -0.0046581067248061322 -0.0058357040608408408 -0.015125269499059008 0.030945824921845253 0.028498216138531783 -0.020759806295948917 -0.021677381553205689
leaf_weight=1.9109591990709303 34.203328371047974 4.2147110700607309 2.7596051245927793 11.761955186724659 6.0609548538923264 36.590444713830948 6.0088127851486233
leaf_count=11 172 24 14 71 37 173 29
internal_value=-0.00548282 0.00911686 -0.0100353 0.0209404 0.0137833 -0.013279 -0.0133995
internal_weight=103.511 23.8964 79.6143 15.9767 8.82056 70.7938 7.91977
internal_count=531 135 396 95 51 345 40
is_linear=0
shrinkage=0.03


end of trees

feature_importances:
atr_14=14
close_position_in_range=12
bb_width=11
atr_ratio=11
high_low_range=11
momentum_10bar=10
lower_wick_ratio=10
momentum_3bar=8
returns_std_10=8
momentum_1bar=7
volatility_20bar=6
candle_body_ratio=6
hour_cos=6
rsi_7=5
rsi_slope=5
macd_hist_delta=5
macd_signal=5
upper_wick_ratio=5
macd_hist=4
volume_ratio=4
volatility_5bar=4
rsi_14=3
momentum_5bar=3
returns_skew_10=3
bb_position=2
vol_ratio=2
consec_direction=2
hour_sin=2

parameters:
[boosting: gbdt]
[objective: binary]
[metric: auc]
[tree_learner: serial]
[device_type: cpu]
[data_sample_strategy: bagging]
[data: ]
[valid: ]
[num_iterations: 300]
[learning_rate: 0.03]
[num_leaves: 20]
[num_threads: 0]
[seed: 0]
[deterministic: 0]
[force_col_wise: 0]
[force_row_wise: 0]
[histogram_pool_size: -1]
[max_depth: 3]
[min_data_in_leaf: 10]
[min_sum_hessian_in_leaf: 0.001]
[bagging_fraction: 0.7]
[pos_bagging_fraction: 1]
[neg_bagging_fraction: 1]
[bagging_freq: 5]
[bagging_seed: 3]
[bagging_by_query: 0]
[feature_fraction: 0.7]
[feature_fraction_bynode: 1]
[feature_fraction_seed: 2]
[extra_trees: 0]
[extra_seed: 6]
[early_stopping_round: 0]
[early_stopping_min_delta: 0]
[first_metric_only: 0]
[max_delta_step: 0]
[lambda_l1: 0.3]
[lambda_l2: 1]
[linear_lambda: 0]
[min_gain_to_split: 0]
[drop_rate: 0.1]
[max_drop: 50]
[skip_drop: 0.5]
[xgboost_dart_mode: 0]
[uniform_drop: 0]
[drop_seed: 4]
[top_rate: 0.2]
[other_rate: 0.1]
[min_data_per_group: 100]
[max_cat_threshold: 32]
[cat_l2: 10]
[cat_smooth: 10]
[max_cat_to_onehot: 4]
[top_k: 20]
[monotone_constraints: ]
[monotone_constraints_method: basic]
[monotone_penalty: 0]
[feature_contri: ]
[forcedsplits_filename: ]
[refit_decay_rate: 0.9]
[cegb_tradeoff: 1]
[cegb_penalty_split: 0]
[cegb_penalty_feature_lazy: ]
[cegb_penalty_feature_coupled: ]
[path_smooth: 0]
[interaction_constraints: ]
[verbosity: -1]
[saved_feature_importance_type: 0]
[use_quantized_grad: 0]
[num_grad_quant_bins: 4]
[quant_train_renew_leaf: 0]
[stochastic_rounding: 1]
[linear_tree: 0]
[max_bin: 255]
[max_bin_by_feature: ]
[min_data_in_bin: 3]
[bin_construct_sample_cnt: 200000]
[data_random_seed: 1]
[is_enable_sparse: 1]
[enable_bundle: 1]
[use_missing: 1]
[zero_as_missing: 0]
[feature_pre_filter: 1]
[pre_partition: 0]
[two_round: 0]
[header: 0]
[label_column: ]
[weight_column: ]
[group_column: ]
[ignore_column: ]
[categorical_feature: ]
[forcedbins_filename: ]
[precise_float_parser: 0]
[parser_config_file: ]
[objective_seed: 5]
[num_class: 1]
[is_unbalance: 0]
[scale_pos_weight: 0.682292]
[sigmoid: 1]
[boost_from_average: 1]
[reg_sqrt: 0]
[alpha: 0.9]
[fair_c: 1]
[poisson_max_delta_step: 0.7]
[tweedie_variance_power: 1.5]
[lambdarank_truncation_level: 30]
[lambdarank_norm: 1]
[label_gain: ]
[lambdarank_position_bias_regularization: 0]
[eval_at: ]
[multi_error_top_k: 1]
[auc_mu_weights: ]
[num_machines: 1]
[local_listen_port: 12400]
[time_out: 120]
[machine_list_filename: ]
[machines: ]
[gpu_platform_id: -1]
[gpu_device_id: -1]
[gpu_use_dp: 0]
[num_gpu: 1]

end of parameters

pandas_categorical:null
