tree
version=v4
num_class=1
num_tree_per_iteration=1
label_index=0
max_feature_idx=29
objective=binary sigmoid:1
feature_names=rsi_14 rsi_7 rsi_slope macd_hist macd_hist_delta macd_signal bb_position bb_width momentum_1bar momentum_3bar momentum_5bar momentum_10bar volume_ratio volume_trend volatility_5bar volatility_20bar vol_ratio atr_14 atr_ratio candle_body_ratio upper_wick_ratio lower_wick_ratio consec_direction close_vs_open hour_sin hour_cos returns_std_10 returns_skew_10 high_low_range close_position_in_range
feature_infos=[-2.7012405986407777:2.3199434382544051] [-2.2302120581988927:2.1343175285090079] [-3.0329309457698392:2.9321633279283166] [-3.9620915115330249:2.8997863664555124] [-4.9677916878133344:4.8088046141997713] [-2.3553319757961173:4.0135490332453045] [-2.4604247746360723:2.6636843741355429] [-1.3169650725120121:4.6311010668752859] [-5.4654450629586009:5.2289757986136793] [-5.4244456460070305:3.8996120793251969] [-4.5081084615581597:3.4780194289421389] [-3.7908711154856873:4.4504252096556502] [-1.057609609928855:6.3805572991311692] [-1.6647326133228797:2.9894326837879741] [-1.3779564481076843:4.6969584774259863] [-1.8862496781826725:3.2290132927412674] [-1.8563072342062998:2.7735397364701466] [-1.765465413271345:3.4907259050764501] [-2.5817288015932216:3.1629604161579183] [-1.755381657885517:2.1290370708132991] [-1.3146652605592222:3.3211479536128712] [-1.254076291734433:3.090125176555361] [-3.5622415218378394:4.291014337271112] [-1.0339847310106349:0.96713226995391277] [-1.3936635951414327:1.4336141130857907] [-1.3924297370574727:1.4384633811313028] [-1.5696139944747716:4.219437077212028] [-3.0951374289015892:2.8896376060202233] [-1.5574170566138767:4.1250877365585765] [-1.7794012717898946:1.7436967875057117]
tree_sizes=765 967

Tree=0
num_leaves=6
num_cat=0
split_feature=16 9 14 24 17
split_gain=8.54825 8.63632 9.16088 6.28874 4.37039
threshold=-1.3588848619355407 0.29856986616723985 1.0000000180025095e-35 1.4139858378071903 0.21090052111924926
decision_type=2 2 2 2 2
left_child=4 3 -3 -2 -1
right_child=1 2 -4 -5 -6
leaf_value=-0.56239301655346163 -0.62296051779932415 -0.61807231541623853 -0.5909013584710695 -0.58850581742489538 -0.61260831807593308
leaf_weight=3.8749322593212119 59.719544231891632 19.374661296606064 23.933405131101608 4.3308066427707663 2.051434725522995
leaf_count=17 262 85 105 19 9
internal_value=-0.611261 -0.613257 -0.603071 -0.62027 -0.578436
internal_weight=113.285 107.358 43.3081 64.0504 5.92637
internal_count=497 471 190 281 26
is_linear=0
shrinkage=1


Tree=1
num_leaves=8
num_cat=0
split_feature=2 3 0 19 10 15 14
split_gain=10.7047 7.22349 7.15133 7.00073 5.16118 4.42684 3.80916
threshold=-0.23629952213204164 -0.96429348761034739 0.39667538337063485 0.18010765706053991 0.42386756107206669 -0.35510056541570606 -0.73072743133616214
decision_type=2 2 2 2 2 2 2
left_child=3 5 -3 6 -5 -2 -1
right_child=1 2 -4 4 -6 -7 -8
leaf_value=0 -0.0069019204524712382 -0.0061191825919056147 0.0143053888352613 0.0097896449521923182 -0.032255899975261584 0.039066875114973164 -0.026984218155032359
leaf_weight=5.7098765522241619 1.8208351582288731 29.409188881516457 30.370233058929443 16.377792760729793 2.2776306718587866 8.6874990314245206 18.654088914394379
leaf_count=25 8 129 133 72 10 38 82
internal_value=0.00132068 0.00854725 0.00421012 -0.0102901 0.00323266 0.0306463 -0.0206565
internal_weight=113.307 70.2878 59.7794 43.0194 18.6554 10.5083 24.364
internal_count=497 308 262 189 82 46 107
is_linear=0
shrinkage=0.03


end of trees

feature_importances:
volatility_5bar=2
rsi_14=1
rsi_slope=1
macd_hist=1
momentum_3bar=1
momentum_5bar=1
volatility_20bar=1
vol_ratio=1
atr_14=1
candle_body_ratio=1
hour_sin=1

parameters:
[boosting: gbdt]
[objective: binary]
[metric: binary_logloss]
[tree_learner: serial]
[device_type: cpu]
[data_sample_strategy: bagging]
[data: ]
[valid: ]
[num_iterations: 300]
[learning_rate: 0.03]
[num_leaves: 20]
[num_threads: 0]
[seed: 0]
[deterministic: 0]
[force_col_wise: 0]
[force_row_wise: 0]
[histogram_pool_size: -1]
[max_depth: 3]
[min_data_in_leaf: 8]
[min_sum_hessian_in_leaf: 0.001]
[bagging_fraction: 0.7]
[pos_bagging_fraction: 1]
[neg_bagging_fraction: 1]
[bagging_freq: 5]
[bagging_seed: 3]
[bagging_by_query: 0]
[feature_fraction: 0.7]
[feature_fraction_bynode: 1]
[feature_fraction_seed: 2]
[extra_trees: 0]
[extra_seed: 6]
[early_stopping_round: 0]
[early_stopping_min_delta: 0]
[first_metric_only: 0]
[max_delta_step: 0]
[lambda_l1: 0.2]
[lambda_l2: 0.8]
[linear_lambda: 0]
[min_gain_to_split: 0]
[drop_rate: 0.1]
[max_drop: 50]
[skip_drop: 0.5]
[xgboost_dart_mode: 0]
[uniform_drop: 0]
[drop_seed: 4]
[top_rate: 0.2]
[other_rate: 0.1]
[min_data_per_group: 100]
[max_cat_threshold: 32]
[cat_l2: 10]
[cat_smooth: 10]
[max_cat_to_onehot: 4]
[top_k: 20]
[monotone_constraints: ]
[monotone_constraints_method: basic]
[monotone_penalty: 0]
[feature_contri: ]
[forcedsplits_filename: ]
[refit_decay_rate: 0.9]
[cegb_tradeoff: 1]
[cegb_penalty_split: 0]
[cegb_penalty_feature_lazy: ]
[cegb_penalty_feature_coupled: ]
[path_smooth: 0]
[interaction_constraints: ]
[verbosity: -1]
[saved_feature_importance_type: 0]
[use_quantized_grad: 0]
[num_grad_quant_bins: 4]
[quant_train_renew_leaf: 0]
[stochastic_rounding: 1]
[linear_tree: 0]
[max_bin: 255]
[max_bin_by_feature: ]
[min_data_in_bin: 3]
[bin_construct_sample_cnt: 200000]
[data_random_seed: 1]
[is_enable_sparse: 1]
[enable_bundle: 1]
[use_missing: 1]
[zero_as_missing: 0]
[feature_pre_filter: 1]
[pre_partition: 0]
[two_round: 0]
[header: 0]
[label_column: ]
[weight_column: ]
[group_column: ]
[ignore_column: ]
[categorical_feature: ]
[forcedbins_filename: ]
[precise_float_parser: 0]
[parser_config_file: ]
[objective_seed: 5]
[num_class: 1]
[is_unbalance: 0]
[scale_pos_weight: 1]
[sigmoid: 1]
[boost_from_average: 1]
[reg_sqrt: 0]
[alpha: 0.9]
[fair_c: 1]
[poisson_max_delta_step: 0.7]
[tweedie_variance_power: 1.5]
[lambdarank_truncation_level: 30]
[lambdarank_norm: 1]
[label_gain: ]
[lambdarank_position_bias_regularization: 0]
[eval_at: ]
[multi_error_top_k: 1]
[auc_mu_weights: ]
[num_machines: 1]
[local_listen_port: 12400]
[time_out: 120]
[machine_list_filename: ]
[machines: ]
[gpu_platform_id: -1]
[gpu_device_id: -1]
[gpu_use_dp: 0]
[num_gpu: 1]

end of parameters

pandas_categorical:null
