tree
version=v4
num_class=1
num_tree_per_iteration=1
label_index=0
max_feature_idx=29
objective=binary sigmoid:1
feature_names=rsi_14 rsi_7 rsi_slope macd_hist macd_hist_delta macd_signal bb_position bb_width momentum_1bar momentum_3bar momentum_5bar momentum_10bar volume_ratio volume_trend volatility_5bar volatility_20bar vol_ratio atr_14 atr_ratio candle_body_ratio upper_wick_ratio lower_wick_ratio consec_direction close_vs_open hour_sin hour_cos returns_std_10 returns_skew_10 high_low_range close_position_in_range
feature_infos=[-2.6693216228766405:2.5603103355680568] [-2.2483585195038946:2.280528713056428] [-3.2360082492456832:2.6099390592171052] [-3.3462267376779176:4.5141358430479199] [-8.0373599132234368:4.9368385310623282] [-3.497145920154352:3.0393694287402471] [-2.5346675300431598:2.8295351393079611] [-1.1821222723507694:3.5825215457456885] [-9.2771123919279379:5.7363073257323292] [-8.2849188351486944:7.001238623746235] [-5.8565052874738059:6.6633312141049483] [-4.1079392193905413:6.410511524214149] [-1.1956701377345664:7.5841947985641278] [-1.8884533197730995:3.2685086833001504] [-1.1507322629247589:8.7400947710429513] [-1.2045565146835437:4.8153062524468453] [-2.0066405708840946:2.9030644963950358] [-1.0718569789236778:4.3256840116214503] [-2.6377250734731965:3.4303967779525912] [-1.7478183192403731:2.0967817444690282] [-1.3433291198992905:3.3284302234982737] [-1.2464385068208756:2.9452962523690336] [-3.1485587701141191:3.1226713393218142] [-1.0010325247975185:0.99896854021030701] [-1.4185441003887087:1.4219387038302547] [-1.4211635092328621:1.3955943005724945] [-1.1386786803216022:6.5085754004504279] [-3.3032476166384583:2.9056970527286694] [-1.1896295906058023:4.3152241739447366] [-1.7641315768604815:1.8176264411237937]
tree_sizes=840 860 890 752 755 846 878 761 969 761 838 857 859 650 885

Tree=0
num_leaves=7
num_cat=0
split_feature=17 26 7 11 1 1
split_gain=21.301 10.8978 7.78508 6.32128 1.9925 1.00607
threshold=-0.47658846591514653 1.1143628647096258 -0.43610467009130321 0.54161481829452407 -0.75388656357657313 -0.88269863482490807
decision_type=2 2 2 2 2 2
left_child=3 2 -2 4 -1 -3
right_child=1 5 -4 -5 -6 -7
leaf_value=1.1205943895283996 1.1567456639880629 1.1526795099383855 1.1164652861735853 1.1533960952736813 1.0782821202294379 1.1793506573000518
leaf_weight=4.4566824883222624 4.6054085791111055 1.4015462696552274 21.995398998260498 1.0247563421726216 14.284598663449287 2.7862555831670752
leaf_count=47 62 18 236 14 117 43
internal_value=1.11359 1.1308 1.12366 1.08956 1.08575 1.17124
internal_weight=50.5546 30.7886 26.6008 19.766 18.7413 4.1878
internal_count=537 359 298 178 164 61
is_linear=0
shrinkage=1


Tree=1
num_leaves=7
num_cat=0
split_feature=17 26 22 11 9 24
split_gain=19.0123 10.1768 6.31184 5.69824 1.67501 1.00745
threshold=-0.47658846591514653 1.1143628647096258 -1.1328062349382833 0.54161481829452407 -0.41481936534787872 -1.3268033670031889
decision_type=2 2 2 2 2 2
left_child=3 2 -2 4 -1 -3
right_child=1 5 -4 -5 -6 -7
leaf_value=-0.026421145364507872 0.014301655705708585 0 -0.032058562972837497 0.00070583963996591218 -0.068670048944357451 0.026437259992571533
leaf_weight=3.536301083862786 2.093421168625361 1.391638398170471 24.910379238426685 1.024374447762965 15.827381163835526 2.7574326843023291
leaf_count=37 30 18 268 14 127 43
internal_value=-0.0372524 -0.0209721 -0.0277608 -0.0595642 -0.0630726 0.018274
internal_weight=51.5409 31.1529 27.0038 20.3881 19.3637 4.14907
internal_count=537 359 298 178 164 61
is_linear=0
shrinkage=0.03


Tree=2
num_leaves=7
num_cat=0
split_feature=17 12 17 11 16 21
split_gain=17.0781 8.09961 6.70069 5.16466 2.17366 1.69861
threshold=-0.47658846591514653 0.12273109844592033 1.5790187754533755 0.54161481829452407 -0.064335105447703114 1.9514676046571588
decision_type=2 2 2 2 2 2
left_child=3 2 -2 5 -3 -1
right_child=1 4 -4 -5 -6 -7
leaf_value=-0.061716419273205737 -0.034349076990302617 0.024523444072348962 0.013991843467081858 0.00069525521346249473 -0.0046959970028970458 -0.0047329705218545999
leaf_weight=18.927912123501308 20.798987634480007 2.1830956488847733 2.0981903821229926 1.0239983275532711 6.4239738285541517 1.0145064443349827
leaf_count=153 216 33 31 14 79 11
internal_value=-0.0355379 -0.0200967 -0.0291426 -0.0563591 0.00355962 -0.0596117
internal_weight=52.4707 31.5042 22.8972 20.9664 8.60707 19.9424
internal_count=537 359 247 178 112 164
is_linear=0
shrinkage=0.03


Tree=3
num_leaves=6
num_cat=0
split_feature=26 6 11 10 20
split_gain=16.0063 10.428 10.6731 4.53661 1.00478
threshold=1.1143628647096258 1.2214233202437168 -0.57796527583091495 0.88534870443471636 0.062902897499381119
decision_type=2 2 2 2 2
left_child=1 2 -1 -3 -2
right_child=4 3 -4 -5 -6
leaf_value=-0.010015038729213629 0.026209016299818925 -0.024321464746399356 -0.050012175657411485 0.026361586847944384 0
leaf_weight=8.55325800180435 2.728848122060298 1.8105534017086018 36.315448343753815 2.5546352192759514 1.3836450986564157
leaf_count=99 43 18 321 38 18
internal_value=-0.0339399 -0.0387299 -0.0429684 0.00304725 0.0180035
internal_weight=53.3464 49.2339 44.8687 4.36519 4.11249
internal_count=537 476 420 56 61
is_linear=0
shrinkage=0.03


Tree=4
num_leaves=6
num_cat=0
split_feature=26 6 11 7 1
split_gain=14.8215 9.50104 9.52605 3.82798 0.988366
threshold=1.1143628647096258 1.2214233202437168 -0.57796527583091495 -0.58846496181527497 -0.88269863482490807
decision_type=2 2 2 2 2
left_child=1 2 -1 -3 -2
right_child=4 3 -4 -5 -6
leaf_value=-0.0097031379650705796 0 -0.027553830916239856 -0.047464627546521775 0.02088145041350779 0.025926855021225447
leaf_weight=8.594851002097128 1.3808183819055555 1.2298383265733717 37.156981416046619 3.1238259002566329 2.6934124194085589
leaf_count=99 18 11 321 45 43
internal_value=-0.0324326 -0.0369537 -0.0409226 0.00292713 0.0177194
internal_weight=54.1797 50.1055 45.7518 4.35366 4.07423
internal_count=537 476 420 56 61
is_linear=0
shrinkage=0.03


Tree=5
num_leaves=7
num_cat=0
split_feature=26 15 18 11 29 13
split_gain=12.5195 6.75337 6.30455 3.25255 3.88168 0.646046
threshold=-0.43215658816443359 1.3154999705905965 -0.40696321480058356 0.80597740733405121 -0.9662479727798049 1.332911335975669
decision_type=2 2 2 2 2 2
left_child=3 2 -2 4 -1 -3
right_child=1 5 -4 -5 -6 -7
leaf_value=-0.015980247609722525 -0.036340653235067563 0.025308573164951113 -0.0076515019807447092 0 -0.057028653015502501 0
leaf_weight=4.2467919364571616 12.953678596764805 2.434302512556314 17.013661846518517 0.93021635711192985 15.628852985799313 0.61738932877778996
leaf_count=43 121 38 197 12 115 8
internal_value=-0.0293047 -0.0165773 -0.0211164 -0.0474039 -0.0498747 0.0199854
internal_weight=53.8249 33.019 29.9673 20.8059 19.8756 3.05169
internal_count=534 364 318 170 158 46
is_linear=0
shrinkage=0.03


Tree=6
num_leaves=7
num_cat=0
split_feature=17 17 11 21 9 9
split_gain=10.9487 6.14229 5.65038 2.4374 1.57917 1.03025
threshold=-0.63940839053722343 1.9094553440363506 1.4602408776018623 0.82840668030350317 -0.24963945478218139 0.24652739814510075
decision_type=2 2 2 2 2 2
left_child=3 2 -2 4 -1 -5
right_child=1 -3 -4 5 -6 -7
leaf_value=-0.023901045755353945 -0.024052163797778279 0.023143986212417738 0.021586558818282496 -0.023586418393678723 -0.062549363024494056 0.0028130566579842179
leaf_weight=4.0113477781414995 33.951983138918877 2.0512900054454795 1.6596260853111733 2.2204510718584056 9.5288121104240417 1.037250831723213
leaf_count=36 348 33 25 19 61 12
internal_value=-0.0281499 -0.0179666 -0.0211479 -0.0481842 -0.0541498 -0.0143805
internal_weight=54.4608 37.6629 35.6116 16.7979 13.5402 3.2577
internal_count=534 406 373 128 97 31
is_linear=0
shrinkage=0.03


Tree=7
num_leaves=6
num_cat=0
split_feature=26 5 11 4 3
split_gain=10.733 7.32197 6.547 2.8758 2.51449
threshold=1.1143628647096258 0.92369093862207619 -0.57796527583091495 -0.2744542163066423 -1.5980040904627866
decision_type=2 2 2 2 2
left_child=1 2 -1 -3 -2
right_child=4 3 -4 -5 -6
leaf_value=-0.0063894094060411256 -0.011194422805638753 -0.016753453852264625 -0.040071011402882488 0.019591627022653751 0.027047995778105141
leaf_weight=7.255672648549079 1.3802927136421201 3.1438697353005409 37.486242294311523 2.7128868028521529 3.0915612280368796
leaf_count=82 16 31 318 37 50
internal_value=-0.0270479 -0.0310205 -0.0350648 0 0.0137106
internal_weight=55.0705 50.5987 44.7419 5.85676 4.47185
internal_count=534 468 400 68 66
is_linear=0
shrinkage=0.03


Tree=8
num_leaves=8
num_cat=0
split_feature=26 15 18 9 6 17 18
split_gain=10.2457 5.79015 5.61396 3.78513 4.04396 1.9971 0.6347
threshold=-0.43215658816443359 1.3154999705905965 -0.40696321480058356 -0.31751232497422233 0.96817026687747976 -0.80118372583585262 1.2632287302314857
decision_type=2 2 2 2 2 2 2
left_child=3 2 -2 5 -5 -1 -3
right_child=1 6 -4 4 -6 -7 -8
leaf_value=-0.029037170763502148 -0.032659925546833751 0.024872551739829357 -0.0060985689732741743 -0.053259773472498745 -0.0010018691851963416 0.0034885503982061651 0
leaf_weight=1.959774851799011 13.458106920123102 2.3795287683606143 17.397398501634598 15.355174086987974 1.8786246851086605 2.6160089969635036 0.61290947347879399
leaf_count=15 121 38 197 104 21 30 8
internal_value=-0.0259771 -0.0145349 -0.0186278 -0.0419247 -0.0484242 -0.0115372 0.0195088
internal_weight=55.6575 33.8479 30.8555 21.8096 17.2338 4.57578 2.99244
internal_count=534 364 318 170 125 45 46
is_linear=0
shrinkage=0.03


Tree=9
num_leaves=6
num_cat=0
split_feature=26 5 11 4 3
split_gain=9.4589 6.47682 5.72793 2.75063 2.42795
threshold=1.1143628647096258 0.92369093862207619 -0.57796527583091495 -0.2744542163066423 -1.5980040904627866
decision_type=2 2 2 2 2
left_child=1 2 -1 -3 -2
right_child=4 3 -4 -5 -6
leaf_value=-0.0056751646137989647 -0.010926813457900319 -0.015923593726602302 -0.036995943290758178 0.019534482153563439 0.02666448088944642
leaf_weight=7.3357257172465316 1.389468941837549 3.1832544431090355 38.511119268834591 2.7077408730983725 3.0322066172957411
leaf_count=82 16 31 318 37 50
internal_value=-0.0250323 -0.0286747 -0.0324047 0 0.0133552
internal_weight=56.1595 51.7378 45.8468 5.891 4.42168
internal_count=534 468 400 68 66
is_linear=0
shrinkage=0.03


Tree=10
num_leaves=7
num_cat=0
split_feature=15 9 3 3 21 3
split_gain=10.5911 7.7854 6.20309 4.14944 3.19265 0.0884684
threshold=-0.4256565502407943 0.56457849969276674 1.5385861742317186 -1.4630693748101706 1.4607207239212963 0.80071768044205827
decision_type=2 2 2 2 2 2
left_child=1 4 3 -2 -1 -3
right_child=2 5 -4 -5 -6 -7
leaf_value=-0.04616063788571001 0.017030279632134399 0.017123757401894368 0.026776431828985359 -0.017400753547236716 0 0
leaf_weight=18.514283977448947 2.4350907020270816 0.98432794958352932 2.6139701418578616 31.232709139585495 1.8308778703212727 0.78153567761182785
leaf_count=132 35 13 39 318 18 9
internal_value=-0.0212029 -0.0373284 -0.0103966 -0.0142314 -0.0425843 0.0134752
internal_weight=58.3928 22.111 36.2818 33.6678 20.3452 1.76586
internal_count=564 172 392 353 150 22
is_linear=0
shrinkage=0.03


Tree=11
num_leaves=7
num_cat=0
split_feature=15 9 1 29 21 26
split_gain=9.7951 7.29885 5.16895 5.0863 2.89824 2.24747
threshold=-0.4256565502407943 0.56457849969276674 1.0551647693078252 -1.1359691660630673 1.4607207239212963 -0.39833427008467109
decision_type=2 2 2 2 2 2
left_child=1 4 3 -2 -1 -4
right_child=2 -3 5 -5 -6 -7
leaf_value=-0.044192505834092052 0.010952417215492744 0.01332375051301312 -0.0098962495763988863 -0.019961264061005259 0 0.025256455075968149
leaf_weight=18.798705130815513 4.729056283831599 1.7594763338565815 1.3541556894779203 26.436512358486652 1.8308778703212727 3.9354946278035632
leaf_count=132 63 22 13 262 18 54
internal_value=-0.0204018 -0.0358015 -0.0100003 -0.014796 -0.0408298 0.0146838
internal_weight=58.8443 22.3891 36.4552 31.1656 20.6296 5.28965
internal_count=564 172 392 325 150 67
is_linear=0
shrinkage=0.03


Tree=12
num_leaves=7
num_cat=0
split_feature=15 9 3 29 9 19
split_gain=9.06721 6.8318 5.75275 4.37359 2.91909 0.144607
threshold=-0.4256565502407943 0.56457849969276674 1.5385861742317186 -1.1359691660630673 -0.30684851252839701 0.1916511880233045
decision_type=2 2 2 2 2 2
left_child=1 4 3 -2 -1 -3
right_child=2 5 -4 -5 -6 -7
leaf_value=-0.014659426445383749 0.010728790458660844 0.017245649667869633 0.026359231298573926 -0.017673921071862143 -0.046378524195572847 0
leaf_weight=5.7003067880868956 4.7040245272219172 1.0278431102633465 2.5712589360773555 29.333566375076771 15.188780046999454 0.72227719426155079
leaf_count=52 63 14 39 290 98 8
internal_value=-0.0196645 -0.0343907 -0.00964614 -0.0132976 -0.0391992 0.013114
internal_weight=59.2481 22.6392 36.6088 34.0376 20.8891 1.75012
internal_count=564 172 392 353 150 22
is_linear=0
shrinkage=0.03


Tree=13
num_leaves=5
num_cat=0
split_feature=3 3 24 18
split_gain=8.366 6.04096 5.23185 0.468346
threshold=1.5385861742317186 -1.4630693748101706 -0.49831494400010118 1.4745451299562464
decision_type=2 2 2 2
left_child=1 3 -3 -1
right_child=-2 2 -4 -5
leaf_value=0.022686390224788099 0.026040674398054083 -0.0090741605819516114 -0.030285094712059382 0
leaf_weight=1.8359324000775807 2.5373788326978675 18.014159858226776 36.580459494143724 0.64735615253448475
leaf_count=28 39 186 303 8
internal_value=-0.0189625 -0.021532 -0.0237373 0.017263
internal_weight=59.6153 57.0779 54.5946 2.48329
internal_count=564 525 489 36
is_linear=0
shrinkage=0.03


Tree=14
num_leaves=7
num_cat=0
split_feature=15 6 11 5 29 19
split_gain=8.11699 4.75405 4.03282 4.06571 2.02997 0.66057
threshold=-0.4256565502407943 0.8741224665758337 1.4602408776018623 0.44574258957786478 -0.9662479727798049 -0.13217937030312085
decision_type=2 2 2 2 2 2
left_child=1 4 3 -2 -1 -3
right_child=2 5 -4 -5 -6 -7
leaf_value=-0.013542134854048029 -0.0030515983397169017 0.017929038471025123 0.023851185239649558 -0.024576437363592163 -0.04199314502447743 -0.0048999672550137548
leaf_weight=5.2848708406090781 22.188708156347275 1.0475600138306616 2.0633685588836661 12.706355720758436 15.760514244437218 0.94561601430177589
leaf_count=48 247 14 32 113 101 9
internal_value=-0.0182683 -0.0320635 -0.00881362 -0.0116065 -0.0361952 0.00607292
internal_weight=59.997 23.0386 36.9584 34.8951 21.0454 1.99318
internal_count=564 172 392 360 149 23
is_linear=0
shrinkage=0.03


end of trees

feature_importances:
momentum_10bar=10
returns_std_10=9
macd_hist=8
momentum_3bar=8
atr_14=7
volatility_20bar=6
rsi_7=4
bb_position=4
atr_ratio=4
lower_wick_ratio=4
close_position_in_range=4
macd_signal=3
macd_hist_delta=2
bb_width=2
candle_body_ratio=2
hour_sin=2
momentum_5bar=1
volume_ratio=1
volume_trend=1
vol_ratio=1
upper_wick_ratio=1
consec_direction=1

parameters:
[boosting: gbdt]
[objective: binary]
[metric: auc]
[tree_learner: serial]
[device_type: cpu]
[data_sample_strategy: bagging]
[data: ]
[valid: ]
[num_iterations: 300]
[learning_rate: 0.03]
[num_leaves: 20]
[num_threads: 0]
[seed: 0]
[deterministic: 0]
[force_col_wise: 0]
[force_row_wise: 0]
[histogram_pool_size: -1]
[max_depth: 3]
[min_data_in_leaf: 10]
[min_sum_hessian_in_leaf: 0.001]
[bagging_fraction: 0.7]
[pos_bagging_fraction: 1]
[neg_bagging_fraction: 1]
[bagging_freq: 5]
[bagging_seed: 3]
[bagging_by_query: 0]
[feature_fraction: 0.7]
[feature_fraction_bynode: 1]
[feature_fraction_seed: 2]
[extra_trees: 0]
[extra_seed: 6]
[early_stopping_round: 0]
[early_stopping_min_delta: 0]
[first_metric_only: 0]
[max_delta_step: 0]
[lambda_l1: 0.3]
[lambda_l2: 1]
[linear_lambda: 0]
[min_gain_to_split: 0]
[drop_rate: 0.1]
[max_drop: 50]
[skip_drop: 0.5]
[xgboost_dart_mode: 0]
[uniform_drop: 0]
[drop_seed: 4]
[top_rate: 0.2]
[other_rate: 0.1]
[min_data_per_group: 100]
[max_cat_threshold: 32]
[cat_l2: 10]
[cat_smooth: 10]
[max_cat_to_onehot: 4]
[top_k: 20]
[monotone_constraints: ]
[monotone_constraints_method: basic]
[monotone_penalty: 0]
[feature_contri: ]
[forcedsplits_filename: ]
[refit_decay_rate: 0.9]
[cegb_tradeoff: 1]
[cegb_penalty_split: 0]
[cegb_penalty_feature_lazy: ]
[cegb_penalty_feature_coupled: ]
[path_smooth: 0]
[interaction_constraints: ]
[verbosity: -1]
[saved_feature_importance_type: 0]
[use_quantized_grad: 0]
[num_grad_quant_bins: 4]
[quant_train_renew_leaf: 0]
[stochastic_rounding: 1]
[linear_tree: 0]
[max_bin: 255]
[max_bin_by_feature: ]
[min_data_in_bin: 3]
[bin_construct_sample_cnt: 200000]
[data_random_seed: 1]
[is_enable_sparse: 1]
[enable_bundle: 1]
[use_missing: 1]
[zero_as_missing: 0]
[feature_pre_filter: 1]
[pre_partition: 0]
[two_round: 0]
[header: 0]
[label_column: ]
[weight_column: ]
[group_column: ]
[ignore_column: ]
[categorical_feature: ]
[forcedbins_filename: ]
[precise_float_parser: 0]
[parser_config_file: ]
[objective_seed: 5]
[num_class: 1]
[is_unbalance: 0]
[scale_pos_weight: 0.355245]
[sigmoid: 1]
[boost_from_average: 1]
[reg_sqrt: 0]
[alpha: 0.9]
[fair_c: 1]
[poisson_max_delta_step: 0.7]
[tweedie_variance_power: 1.5]
[lambdarank_truncation_level: 30]
[lambdarank_norm: 1]
[label_gain: ]
[lambdarank_position_bias_regularization: 0]
[eval_at: ]
[multi_error_top_k: 1]
[auc_mu_weights: ]
[num_machines: 1]
[local_listen_port: 12400]
[time_out: 120]
[machine_list_filename: ]
[machines: ]
[gpu_platform_id: -1]
[gpu_device_id: -1]
[gpu_use_dp: 0]
[num_gpu: 1]

end of parameters

pandas_categorical:null
