tree
version=v4
num_class=1
num_tree_per_iteration=1
label_index=0
max_feature_idx=29
objective=binary sigmoid:1
feature_names=rsi_14 rsi_7 rsi_slope macd_hist macd_hist_delta macd_signal bb_position bb_width momentum_1bar momentum_3bar momentum_5bar momentum_10bar volume_ratio volume_trend volatility_5bar volatility_20bar vol_ratio atr_14 atr_ratio candle_body_ratio upper_wick_ratio lower_wick_ratio consec_direction close_vs_open hour_sin hour_cos returns_std_10 returns_skew_10 high_low_range close_position_in_range
feature_infos=[-2.7116129119962222:2.31494153570975] [-2.2343949241947221:2.1274630827504857] [-3.049743295468117:2.9405555781280039] [-3.9529800353966675:3.029294436032111] [-4.9340446844434975:6.9218227105037435] [-2.372505766807373:3.9130088214467933] [-2.4657125819713679:2.6580404580532684] [-1.3172037942650354:4.6346905823635147] [-5.4652320201553115:5.2319824258012275] [-5.4434057977807777:3.9045363807481825] [-4.5158040366518453:3.4710266989789678] [-3.794093373600671:4.4407116160034095] [-1.0582426487215868:6.3798630807898036] [-1.6645900751069653:2.9390280519357632] [-1.3786287237703747:4.7094029913501592] [-1.8885975500113283:3.2434393274750382] [-1.8564265581823145:2.7716147791855086] [-1.7657902483117924:3.4942513373228086] [-2.5847377069541495:3.1586160309011029] [-1.7526738390324283:2.1300540015225389] [-1.311550284449654:3.3098337186867175] [-1.2535492825666834:3.0841273710246537] [-3.5610227042274771:4.2916882086146702] [-1.0316820324557192:0.96929089442384009] [-1.3963681620408839:1.4339818046481356] [-1.3898084377664128:1.4380196367676359] [-1.5693742260835326:4.222165896764146] [-3.122120007628177:2.9028247310833279] [-1.5574311813805761:4.1252604921569187] [-1.7859742629072275:1.7389142355007834]
tree_sizes=1495 1485 1513 1290 977 1612 1606 1598 1594 1511 1614 1613 1804 1515 1086 1509 1511 1823 1727 1501

Tree=0
num_leaves=13
num_cat=0
split_feature=20 20 12 11 0 14 25 17 3 9 17 1
split_gain=38.2243 20.7018 20.5154 22.5687 20.3512 20.2916 16.0286 19.5108 16.8926 16.4936 17.111 10.207
threshold=-0.83880895831504343 1.8002464052300609 -0.75505366703940158 -0.37176982353872312 0.26792585810210195 -0.598586993765439 1.1727855898736108 2.5637089146305643 0.15820023891186843 0.21580190733013691 -0.42055307749673709 -0.32265188797177341
decision_type=2 2 2 2 2 2 2 2 2 2 2 2
left_child=6 2 4 -4 -2 -3 7 8 -1 -8 -11 -7
right_child=1 5 3 -5 -6 11 9 -9 -10 10 -12 -13
leaf_value=-0.07966658494418144 -0.077963877460979658 -0.012135800827788708 -0.040963641880964623 -0.022121096861071794 -0.031711146655469417 -0.047038383510348426 0.0091985366799463286 -0.0076735639914517761 -0.049413754220434009 -0.088795191787591377 -0.012078423378145003 -0.094521297727738485
leaf_weight=34.598903954029083 14.744673430919645 5.0853312909603146 84.556092798709869 181.02916836738586 17.744086265563965 7.46329033374787 5.5462026000022879 4.7930443882942191 33.43434551358223 4.4980344772338858 3.984369993209838 9.6976164579391426
leaf_count=46 20 7 111 240 23 10 7 6 45 6 5 13
internal_value=-0.037741 -0.032944 -0.0308348 -0.028072 -0.0529762 -0.060203 -0.0552638 -0.0609325 -0.0652116 -0.0269205 -0.0527923 -0.0756266
internal_weight=407.175 320.32 298.074 265.585 32.4888 22.2462 86.8549 72.8263 68.0332 14.0286 8.4824 17.1609
internal_count=539 424 394 351 43 30 115 97 91 18 11 23
is_linear=0
shrinkage=1


Tree=1
num_leaves=13
num_cat=0
split_feature=20 20 14 0 22 0 25 17 3 9 17 4
split_gain=35.931 19.5348 19.2705 19.1039 25.4452 19.9659 15.161 18.5042 15.9473 15.6566 16.3064 9.86144
threshold=-0.83880895831504343 1.8002464052300609 -0.598586993765439 -0.073935673790922807 -1.59784497601694 0.68827761758760531 1.1727855898736108 2.5637089146305643 0.15820023891186843 0.21580190733013691 -0.42055307749673709 -0.12279822611944154
decision_type=2 2 2 2 2 2 2 2 2 2 2 2
left_child=6 3 -3 4 -2 -5 7 8 -1 -8 -11 -4
right_child=1 2 11 5 -6 -7 9 -9 -10 10 -12 -13
leaf_value=-0.03679992256107515 -0.050432101032613495 0.028914915811717345 0.0030549680958389569 0.028897666865596187 0.0054839789495197567 0.0075201526524814894 0.04968862401612878 0.03327177376487081 -0.0073890092761400208 -0.045895834651273733 0.029003612871989895 -0.045926423352712409
leaf_weight=34.559159278869629 6.7471691966056815 5.0873662233352688 4.6226845383644166 74.85919913649559 130.82254949212074 85.690866023302078 5.5485090017318717 4.7950683236122122 33.428545773029327 4.4911415576934806 3.9859657883644095 12.519954770803446
leaf_count=46 9 7 6 99 172 114 7 6 45 6 5 17
internal_value=0.00394058 0.00859051 -0.0178963 0.0106388 0.00235409 0.0176421 -0.0130532 -0.0185701 -0.0227427 0.014507 -0.0107005 -0.032947
internal_weight=407.158 320.35 22.23 298.12 137.57 160.55 86.8084 72.7828 67.9877 14.0256 8.47711 17.1426
internal_count=539 424 30 394 181 213 115 97 91 18 11 23
is_linear=0
shrinkage=0.03


Tree=2
num_leaves=13
num_cat=0
split_feature=20 28 28 21 4 12 20 22 27 17 12 20
split_gain=33.7905 19.0797 29.0966 24.5158 23.9237 17.7947 14.9318 21.2305 18.4011 17.2623 16.2953 0.159786
threshold=-0.83880895831504343 1.9389844424595872 0.49479877501518815 0.47453828799181724 -1.5627146635348328 -0.73722769769245422 -1.2549841314653107 0.58346361088365628 0.66056355494344621 -0.57774570617827525 -0.51096388666415049 -0.89006376309284907
decision_type=2 2 2 2 2 2 2 2 2 2 2 2
left_child=6 2 5 -4 -3 -2 8 9 10 -8 -1 -9
right_child=1 4 3 -5 -6 -7 7 11 -10 -11 -12 -13
leaf_value=0.045901407601560792 -0.017127784054547446 -0.025504472390951546 -0.018280430896976278 0.018159517287669083 0.051676538181804503 0.014594636143497056 0.026262087063254724 -0.052943773524530426 -0.036023721682763625 -0.019172459320784221 -0.0039375019957301532 -0.024360987920738202
leaf_weight=9.4114285111427343 16.276886165142059 3.8083629608154324 61.475299268960953 21.596115320920944 16.116983830928802 201.06979411840439 8.7091966867446882 13.226268947124483 6.5073609352111808 32.210683822631836 12.856929749250412 3.800677776336669
leaf_count=12 22 5 81 29 20 267 11 18 9 43 17 5
internal_value=0.00382388 0.00833187 0.00635489 -0.00863243 0.0361242 0.0121239 -0.0126649 -0.0213394 0.00473186 -0.00896345 0.0179358 -0.0486018
internal_weight=407.066 320.343 300.418 83.0714 19.9253 217.347 86.7225 57.9468 28.7757 40.9199 22.2684 17.0269
internal_count=539 424 399 110 25 289 115 77 38 54 29 23
is_linear=0
shrinkage=0.03


Tree=3
num_leaves=11
num_cat=0
split_feature=20 1 28 28 20 27 12 17 28 24
split_gain=31.896 18.8418 20.435 29.0826 14.1098 17.4591 15.4239 14.3714 13.2149 12.0193
threshold=-0.83880895831504343 -1.914334383385025 1.9389844424595872 1.2259521952478254 -1.2549841314653107 0.66056355494344621 -0.51096388666415049 2.6637022911122621 -0.76250066263103078 -1.358661607691297
decision_type=2 2 2 2 2 2 2 2 2 2
left_child=4 -2 3 -3 5 6 -1 8 -6 -4
right_child=1 2 9 -5 7 -7 -8 -9 -10 -11
leaf_value=0.044649128592065337 -0.037931638173303237 0.010201971028675087 -0.0061953114239371573 -0.021839705114196698 0.0055032514379070394 -0.035147552291478854 -0.0038285234502155058 0.028584427563314328 -0.031885163613203919 0.049889822110421145
leaf_weight=9.4131252765655553 6.8024057149887076 267.22682443261147 3.8666552305221584 27.130890160799026 9.8362177014350873 6.4946047663688651 12.854712456464767 3.9860780835151663 44.056569635868073 15.308223247528074
leaf_count=12 9 355 5 36 13 9 17 5 59 19
internal_value=0.00370506 0.00808371 0.00921855 0.00716444 -0.012323 0.00458554 0.0174444 -0.0207626 -0.024976 0.0385362
internal_weight=406.976 320.335 313.533 294.358 86.6413 28.7624 22.2678 57.8789 53.8928 19.1749
internal_count=539 424 415 391 115 38 29 77 72 24
is_linear=0
shrinkage=0.03


Tree=4
num_leaves=8
num_cat=0
split_feature=19 1 28 7 28 15 25
split_gain=24.8145 21.5004 18.4463 27.2563 14.6924 5.45481 4.9427
threshold=1.7289693597398175 -1.8876863483683135 1.9389844424595872 0.68572123240378613 3.8457099694454828 1.2329170753844689 0.8848419293227745
decision_type=2 2 2 2 2 2 2
left_child=1 6 3 -3 -4 -2 -1
right_child=5 2 4 -5 -6 -7 -8
leaf_value=-0.049277800962273265 -0.049775102549947298 0.0083118263386525674 0.042438425753916778 -0.012889313403331593 -0.013600418742990249 -0.0041737664938308622 -0.0044974565547940271
leaf_weight=6.7322188019752485 8.1886666417121869 294.57078492641449 19.200364053249363 65.821452498435974 4.6155561208724967 3.8468976616859427 3.8560611605644226
leaf_count=9 11 392 24 87 6 5 5
internal_value=0.00359433 0.00494062 0.00615342 0.00439813 0.0312258 -0.0370983 -0.0352828
internal_weight=406.832 394.796 384.208 360.392 23.8159 12.0356 10.5883
internal_count=539 523 509 479 30 16 14
is_linear=0
shrinkage=0.03


Tree=5
num_leaves=14
num_cat=0
split_feature=24 8 21 14 26 19 11 25 12 24 24 12 5
split_gain=17.0425 20.0076 22.8493 28.2183 19.1393 20.4493 19.0788 17.9317 20.6063 17.5302 13.7181 10.7208 5.12272
threshold=1.0000000180025095e-35 0.15683477891851696 -0.32842498745406362 -0.22273878012118792 -0.75431416827034026 1.3252652386056305 1.1266926975895553 1.4304578722265664 -0.40733841135603538 -1.1823194192555169 1.3723197689872835 -0.83257423908061334 0.93336980885447551
decision_type=2 2 2 2 2 2 2 2 2 2 2 2 2
left_child=4 7 3 -3 11 6 -6 8 -2 -7 -4 -1 -13
right_child=1 2 10 -5 5 9 -8 -9 -10 -11 -12 12 -14
leaf_value=0.0064835973591184388 0.018849124843818177 -0.018782442244624907 0.043300509071931254 0.026402580046615314 0.0089159864677504433 0.009192089310596804 -0.017800728035263381 0.048950758294910121 -0.0099730481979029544 -0.047110019859676819 -0.0017201077083300207 -0.048708914171990893 -0.0059764575105344525
leaf_weight=5.2786344885826137 29.578986167907715 22.49875283241272 34.185323029756546 25.351430416107178 124.54348716139793 7.0092890858650234 28.691606253385544 5.5423237681388846 81.357984691858292 13.097538232803343 6.9698251485824576 13.056375950574877 3.8590776324272147
leaf_count=7 39 30 45 32 163 9 38 7 109 18 9 19 5
internal_value=0.00288739 0.00890862 0.0195346 0.00508456 -0.0034228 0 0.00379169 0.000640783 -0.00213489 -0.0276931 0.0356738 -0.0290161 -0.0401726
internal_weight=401.021 205.485 89.0053 47.8502 195.536 173.342 153.235 116.479 110.937 20.1068 41.1551 22.1941 16.9155
internal_count=530 271 116 62 259 228 201 155 148 27 54 31 24
is_linear=0
shrinkage=0.03


Tree=6
num_leaves=14
num_cat=0
split_feature=22 24 24 6 20 24 10 13 20 24 19 16 27
split_gain=18.5363 23.5063 23.2286 22.7619 22.1535 18.8507 17.2444 17.0121 14.7354 15.2759 13.7821 8.88818 5.11081
threshold=-0.72532154125670145 1.0000000180025095e-35 -1.1039269788293342 -1.1694257335986153 -0.76926287720137776 -1.2285978554149899 -0.80060471352767804 -0.43273103840164823 1.8143073162727303 1.3425683374389481 1.3003758315736367 -0.17600553966734728 -0.98063967221260484
decision_type=2 2 2 2 2 2 2 2 2 2 2 2 2
left_child=3 2 7 10 -4 -5 -7 -2 9 -3 12 -10 -1
right_child=1 8 4 5 -6 6 -8 -9 11 -11 -12 -13 -14
leaf_value=-0.01184295477426695 -0.0015491995352206278 0.021094750496329823 -0.036020907850981561 -0.048155515477162923 -0.002696580639175951 0.032845986284432326 -0.0042765411523017528 0.028515973658809268 0.0094933761279738169 -0.0022494047340262937 0.012800478153595234 -0.046145933968970071 -0.053666525129960903
leaf_weight=4.4778686761856141 40.07178258895874 121.6724499464035 24.355086624622345 5.5526427626609793 63.735647857189178 14.310767352581022 41.218614310026169 27.787674158811569 3.9206546545028687 30.96463006734848 3.9098450541496268 4.7269258797168714 14.211175262928007
leaf_count=6 52 159 33 8 86 18 55 36 5 41 5 7 19
internal_value=0.0028019 0.00612656 -0.00214462 -0.00965454 -0.0122782 0 0.00559616 0.0109103 0.0141251 0.0163362 -0.0346778 -0.0219289 -0.0450609
internal_weight=400.916 317.235 155.95 83.6809 88.0907 61.082 55.5294 67.8595 161.285 152.637 22.5989 8.64758 18.689
internal_count=530 419 207 111 119 81 73 88 212 200 30 12 25
is_linear=0
shrinkage=0.03


Tree=7
num_leaves=14
num_cat=0
split_feature=22 6 11 5 6 5 27 21 11 19 21 27 10
split_gain=17.5033 21.5295 20.6289 23.3779 24.7953 21.2517 15.0219 13.4837 18.2873 13.107 11.7718 4.82937 1.9999
threshold=-0.72532154125670145 -1.1694257335986153 1.1266926975895553 0.069514592151338678 0.67804754422701941 2.1272695707072438 1.6697751942006736 1.3950785453007757 0.20570194732358413 1.3003758315736367 0.097520619521542715 -0.98063967221260484 0.12676086112298199
decision_type=2 2 2 2 2 2 2 2 2 2 2 2 2
left_child=1 9 3 4 -2 10 -5 8 -3 11 -4 -1 -9
right_child=2 7 5 6 -6 -7 -8 12 -10 -11 -12 -13 -14
leaf_value=-0.011554462338229357 0.0095958295152310351 0.0062026910632363404 -0.031475154401399127 -0.0039469802645949077 0.037659751423642217 0.044526319059496069 0.034875224773483697 0.047830243181271097 -0.030790962021615315 0.012487844862256023 0.0050058678278019492 -0.052298913879136689 0.011888678879661005
leaf_weight=4.4769638180732789 116.70753088593483 36.465848416090012 26.518740296363831 113.31006142497063 37.366845279932022 4.0308163166046134 8.7265412807464582 4.0354509353637686 16.655102878808975 3.9124900102615348 10.480950266122816 14.172012984752653 3.9106708168983459
leaf_count=6 156 48 35 150 48 5 11 5 23 5 14 19 5
internal_value=0.00270883 -0.00939892 0.00593994 0.00890771 0.0166397 -0.0136254 -0.000861242 0 -0.00563975 -0.0337592 -0.0211234 -0.0439088 0.0341185
internal_weight=400.77 83.6285 317.141 276.111 154.074 41.0305 122.037 61.0671 53.121 22.5615 36.9997 18.649 7.94612
internal_count=530 111 419 365 204 54 161 81 71 30 49 25 10
is_linear=0
shrinkage=0.03


Tree=8
num_leaves=14
num_cat=0
split_feature=22 6 11 7 5 6 7 27 16 13 18 19 27
split_gain=16.5051 20.4307 19.399 25.8947 22.0109 23.4175 17.239 14.2188 13.0496 21.6587 14.977 12.481 4.57847
threshold=-0.72532154125670145 -1.1694257335986153 1.1266926975895553 2.3278280617238987 0.069514592151338678 0.67804754422701941 0.0295559646380202 1.6697751942006736 -0.12962668728438251 -0.44052161560571296 0.24853851982107458 1.3003758315736367 -0.98063967221260484
decision_type=2 2 2 2 2 2 2 2 2 2 2 2 2
left_child=1 11 4 6 5 -2 -4 -6 9 -3 -10 12 -1
right_child=2 8 3 -5 7 -7 -8 -9 10 -11 -12 -13 -14
leaf_value=-0.011273592586259035 0.0093104382427262704 -0.008810282015062133 0.011379194392503029 0.045769677457727413 -0.0038297353307583113 0.036596910912269992 -0.034252252763512105 0.033943999867458351 -0.031400180585290149 0.042148260735447911 0.0080469781577574909 0.012183740448277951 -0.051029468331279561
leaf_weight=4.475779175758368 116.70704701542854 15.531215608119966 9.382172763347624 4.8284335136413565 113.30627980828285 37.328057438135147 26.779517024755478 8.724421560764311 17.099437773227692 12.797555327415465 15.631601572036741 3.9147650003433219 14.114540874958037
leaf_count=6 156 21 12 6 150 48 36 11 24 16 20 5 19
internal_value=0.00263577 -0.00912591 0.00577355 -0.013208 0.00865107 0.016155 -0.0222641 -0.000826436 0 0.0146579 -0.0127032 -0.0328924 -0.0428282
internal_weight=400.621 83.5649 317.056 40.9901 276.066 154.035 36.1617 122.031 61.0598 28.3288 32.731 22.5051 18.5903
internal_count=530 111 419 54 365 204 48 161 81 37 44 30 25
is_linear=0
shrinkage=0.03


Tree=9
num_leaves=13
num_cat=0
split_feature=22 24 7 11 24 14 16 20 24 24 16 18
split_gain=15.5973 21.2675 22.6199 22.5004 17.379 15.8139 26.2965 13.8817 14.265 13.5053 8.31502 4.02047
threshold=-0.72532154125670145 1.0000000180025095e-35 2.3278280617238987 1.1266926975895553 -1.2285978554149899 0.58200273327720153 -0.12962668728438251 1.8143073162727303 1.3425683374389481 -0.64794486943957141 -0.17600553966734728 0.17423553180057175
decision_type=2 2 2 2 2 2 2 2 2 2 2 2
left_child=4 2 3 -2 -1 6 -6 8 -3 -7 -9 -4
right_child=1 7 11 -5 5 9 -8 10 -10 -11 -12 -13
leaf_value=-0.048951589265739788 -7.9849404545424152e-05 0.019977648487604902 0.049220323701080849 -0.031173499633300388 0.0055697326812667635 0.044375924897580077 -0.03422382391431731 0.0086730515465942692 -0.0025708926281538583 -0.0072601444728393263 -0.045212759408458612 0.0077338030446061998
leaf_weight=7.7663546800613394 120.14329734444618 121.55351376533508 7.2470051646232587 24.470325410366058 34.15313184261322 8.8301923871040362 24.986236721277237 3.9154359102249146 30.964038282632828 7.7304586768150321 4.7148742675781232 3.9034440517425537
leaf_count=11 160 159 9 33 45 11 34 5 41 10 7 5
internal_value=0.00256299 0.00561342 -0.00225709 -0.00556042 -0.00887741 -0.0041032 -0.0114327 0.013225 0.0153738 0.0208899 -0.0217805 0.0370227
internal_weight=400.378 316.912 155.764 144.614 83.4664 75.7 59.1394 161.148 152.518 16.5607 8.63031 11.1504
internal_count=530 419 207 193 111 100 79 212 200 21 12 14
is_linear=0
shrinkage=0.03


Tree=10
num_leaves=14
num_cat=0
split_feature=22 11 1 1 2 21 21 12 6 21 29 29 1
split_gain=25.9543 16.9663 18.1575 21.3418 16.9332 24.3969 17.6201 16.3943 27.3147 16.692 14.9127 18.8164 14.2326
threshold=-0.72532154125670145 1.0210129310284104 1.8060954319129114 1.5785059777908079 -0.24405385007782757 0.036605056801538867 -1.0399582010869761 0.34964435385778475 -1.8182595097950316 0.69077145258108286 0.43946332379088587 0.78214989030156812 -0.75913943803140149
decision_type=2 2 2 2 2 2 2 2 2 2 2 2 2
left_child=7 4 3 -3 5 -2 -6 10 -9 -10 12 -12 -1
right_child=1 2 -4 -5 6 -7 -8 8 9 -11 11 -13 -14
leaf_value=-0.01194853948876169 0.011960888301078481 -0.011981418980205041 -0.051151634888066989 0.036329195239904827 -0.0087801493000904188 -0.019283025992378279 0.019080579680665975 -0.035484231075754658 0.049035848736248375 -0.0060496236587191015 0.039671909998216404 -0.026408754235311704 -0.045836889907784971
leaf_weight=25.625039964914322 55.280966967344284 36.343481123447418 6.7216049432754508 9.5463702082633954 22.684919267892838 36.450608968734741 151.24673700332642 8.1255531311035174 11.219790279865267 7.6924622654914847 6.7882892191410047 6.692795991897583 21.220662593841553
leaf_count=34 72 48 9 12 30 49 202 11 14 10 9 10 29
internal_value=0.00282983 0.00681779 -0.00856644 -0.00124306 0.00990766 -0.000463604 0.0153831 -0.0115434 0.00751872 0.0271502 -0.020168 0.00689307 -0.0280622
internal_weight=405.639 318.275 52.6115 45.8899 265.663 91.7316 173.932 87.3646 27.0378 18.9123 60.3268 13.4811 46.8457
internal_count=539 422 69 60 353 121 232 117 35 24 82 19 63
is_linear=0
shrinkage=0.03


Tree=11
num_leaves=14
num_cat=0
split_feature=22 10 13 13 13 16 29 18 6 29 18 21 18
split_gain=24.4805 18.4128 29.1206 20.8521 27.7354 17.0655 15.1123 20.3825 21.8348 16.401 13.6705 6.44676 1.42425
threshold=-0.72532154125670145 1.0611620210514985 -1.0148080362062653 -0.34461455476577024 0.22969336606083449 0.28921593934410866 0.56731440712007764 -0.61410206337334117 0.17047246934972413 0.78214989030156812 2.0295342340496147 -0.35642359994001421 -1.491056113310236
decision_type=2 2 2 2 2 2 2 2 2 2 2 2 2
left_child=6 3 -3 5 -5 -2 7 12 -9 -8 -4 -11 -1
right_child=1 2 10 4 -6 -7 9 8 -10 11 -12 -13 -14
leaf_value=-0.016562275456350056 0.0051044341524196304 0.041121167581083425 -0.024848016251903353 0.031216181035539099 0.0048071170393055185 -0.027540822358324713 0.049937276566442257 -0.00016691058215864753 -0.050577938536036253 -0.040326572577406461 0.017997226110516677 0.0083749279513123231 -0.051972283518072961
leaf_weight=3.0279399156570426 102.82077988982201 7.8394119739532462 40.244781672954559 68.709181159734726 75.740738064050674 15.726969122886656 6.0363232493400565 49.544717460870743 8.2184440493583661 2.9724199175834647 7.0857545137405387 5.3260769546031943 12.117245405912398
leaf_count=4 137 10 53 91 101 21 8 65 11 4 9 8 17
internal_value=0.00273963 0.00661215 -0.00896997 0.00992519 0.0175384 0.00052926 -0.01123 -0.0167928 -0.00818006 0.015922 -0.0180699 -0.0108849 -0.0467288
internal_weight=405.411 318.168 55.1699 262.998 144.45 118.548 87.2432 72.9083 57.7632 14.3348 47.3305 8.2985 15.1452
internal_count=539 422 72 350 192 158 117 97 76 20 62 12 21
is_linear=0
shrinkage=0.03


Tree=12
num_leaves=16
num_cat=0
split_feature=22 0 13 13 20 12 3 17 29 29 1 27 5 2 9
split_gain=23.17 16.2599 17.1214 26.9858 16.327 14.9909 14.4782 14.4465 13.3789 17.2227 13.0453 9.26652 7.94405 7.20875 6.9517
threshold=-0.72532154125670145 -1.2493453321773218 0.22969336606083449 -0.26326088084765908 1.4782353191827942 0.34964435385778475 -0.63817736626399746 -0.58212610700321288 0.43946332379088587 0.78214989030156812 -0.75913943803140149 -0.7512935538679707 -0.44219255730052104 -0.24405385007782757 0.16387537847313019
decision_type=2 2 2 2 2 2 2 2 2 2 2 2 2 2 2
left_child=5 11 3 -3 -4 8 12 -8 10 -10 -1 13 -7 -2 -13
right_child=1 2 4 -5 -6 6 7 -9 9 -11 -12 14 -14 -15 -16
leaf_value=-0.011269288335372009 -0.026179999108974516 0.0014494067571831375 -0.0014453321244432397 0.024788422802656421 -0.038522607157945407 0.013779391781356344 -0.010605133885350584 0.051872078186934865 0.037840150977051366 -0.025440942424847967 -0.043768341667956408 0.048820256641501275 -0.029090061666901826 0.025418914747887895 0.0066873940851412718
leaf_weight=25.587256729602814 3.8030203580856323 140.0703392624855 73.768211036920547 64.927394092082977 11.600358128547667 5.3972227573394767 4.5824699997901908 8.0698848962783796 6.7752062678337079 6.6727218329906464 21.11741030216217 14.451717019081117 8.9506385326385516 3.9463218450546291 5.4772619605064383
leaf_count=34 5 186 98 86 16 7 6 10 9 10 29 19 12 5 7
internal_value=0.0026544 0.00642199 0.00425321 0.00895497 -0.00694076 -0.0109434 0.00728409 0.0296851 -0.0192085 0.00643786 -0.0266989 0.0280233 -0.0127259 0 0.0384
internal_weight=405.197 318.045 290.366 204.998 85.3686 87.1528 27.0002 12.6524 60.1526 13.4479 46.7047 27.6783 14.3479 7.74934 19.929
internal_count=539 422 386 272 114 117 35 16 82 19 63 36 19 10 26
is_linear=0
shrinkage=0.03


Tree=13
num_leaves=13
num_cat=0
split_feature=22 10 13 13 13 25 16 12 6 21 8 2
split_gain=21.8597 16.8845 27.5306 19.0506 24.8947 17.1269 16.0694 14.1915 25.1134 15.3903 12.4271 11.6995
threshold=-0.72532154125670145 1.0611620210514985 -1.0148080362062653 -0.34461455476577024 0.22969336606083449 -0.20609128062163454 0.28921593934410866 0.34964435385778475 -1.8182595097950316 0.69077145258108286 -0.066864965040994359 -0.85298155132589037
decision_type=2 2 2 2 2 2 2 2 2 2 2 2
left_child=7 3 -3 6 -5 -4 -2 10 -9 -10 11 -1
right_child=1 2 5 4 -6 -7 -8 8 9 -11 -12 -13
leaf_value=-0.0061524850108401795 0.0048720609134477498 0.040046241214509642 -0.005914774144211596 0.029673918970322042 0.0046294533149573748 -0.046033890074163412 -0.02680953074930777 -0.034324774670275539 0.046904755216810562 -0.0059642040903012585 0.027298079445139078 -0.034267193515383404
leaf_weight=24.366577982902527 102.81008291244507 7.8268551230430594 34.597691893577576 68.555706650018692 75.711721897125244 12.698070645332335 15.724093616008757 8.056766629219057 11.218684613704683 7.6872340440750113 3.9611744880676261 31.692726671695709
leaf_count=32 137 10 45 91 101 17 21 11 14 10 5 45
internal_value=0.0025779 0.00623622 -0.00868893 0.00941059 0.0166942 -0.0175404 0.000430036 -0.010644 0.00709626 0.0258869 -0.0186974 -0.0224741
internal_weight=404.907 317.924 55.1226 262.802 144.267 47.2958 118.534 86.9832 26.9627 18.9059 60.0205 56.0593
internal_count=539 422 72 350 192 62 158 117 35 24 82 77
is_linear=0
shrinkage=0.03


Tree=14
num_leaves=9
num_cat=0
split_feature=19 22 10 7 19 12 6 5
split_gain=22.855 17.5905 19.0338 26.9612 20.9315 12.9757 26.1638 12.3786
threshold=1.8653008418520896 -0.72532154125670145 1.3844463119618697 0.17978753004206668 -1.3931286292383347 0.34964435385778475 -1.8182595097950316 0.48139933719916245
decision_type=2 2 2 2 2 2 2 2
left_child=1 5 4 -4 -3 7 -7 -1
right_child=-2 2 3 -5 -6 6 -8 -9
leaf_value=-0.026698536375014199 -0.040857594355043617 -0.015518272140313254 0.030895997017389428 -0.029571721327945326 0.012180245906132222 -0.033592913608657057 0.0283687164910583 0.0019696004217747407
leaf_weight=36.549936980009079 9.6383234262466413 26.146592766046524 7.9400655031204215 24.881786465644836 252.79627907276154 8.0078487396240252 18.145461797714233 20.427527904510498
leaf_count=51 13 35 10 33 336 11 23 27
internal_value=0.00250146 0.00367542 0.00695371 -0.0142853 0.00951634 -0.00848432 0.00863734 -0.0164603
internal_weight=404.534 394.895 311.765 32.8219 278.943 83.1308 26.1533 56.9775
internal_count=539 526 414 43 371 112 34 78
is_linear=0
shrinkage=0.03


Tree=15
num_leaves=13
num_cat=0
split_feature=20 2 25 1 28 5 20 29 26 11 9 6
split_gain=24.4319 24.7971 19.7508 19.5845 19.1578 23.0235 20.3797 17.1642 16.6574 15.5383 28.1316 9.06726
threshold=0.9818734313114833 0.020568384861178162 -0.20609128062163454 1.2476095573251713 0.098074825413966824 -0.025838172999322912 -0.22966979371797119 1.6344023107150474 -1.2110563193170349 0.090570038207315642 -0.53934390596382964 1.1399857405036879
decision_type=2 2 2 2 2 2 2 2 2 2 2 2
left_child=1 4 7 -4 5 -1 -6 -3 -2 10 -10 -11
right_child=8 2 3 -5 6 -7 -8 -9 9 11 -12 -13
leaf_value=0.0061759983188687632 0.037531634046674422 0.028957748859943871 0.0097291479451798897 -0.026390662154242212 -0.0043587187677532595 -0.024494449089821214 0.02960737857583963 -0.013207659049868446 -0.034530049729143523 -0.046967676092062018 0.020502794285844009 -0.013721625390751882
leaf_weight=35.560145348310471 4.2071652710437766 70.219815701246262 77.196594506502151 15.298778265714644 39.963061302900314 54.446214735507965 24.917456865310669 9.1021580696105939 13.622363090515135 17.470919638872147 18.469756513834 15.279425859451292
leaf_count=48 6 92 103 21 53 73 32 12 18 24 24 20
internal_value=0.00177151 0.00521831 0.0130403 0.00347237 -0.00344819 -0.0123764 0.00884634 0.0239404 -0.0142929 -0.0182655 -0.0030136 -0.0325009
internal_weight=395.754 326.704 171.817 92.4954 154.887 90.0064 64.8805 79.322 69.0496 64.8425 32.0921 32.7503
internal_count=526 434 228 124 206 121 85 104 92 86 42 44
is_linear=0
shrinkage=0.03


Tree=16
num_leaves=13
num_cat=0
split_feature=20 2 7 13 2 3 21 20 26 3 18 9
split_gain=23.0474 23.3403 18.5182 23.0868 18.1297 22.1586 21.553 16.0346 15.8497 19.6558 17.0659 16.8386
threshold=0.9818734313114833 0.020568384861178162 -0.49709940617959186 -0.43273103840164823 1.2829348276705015 0.11214465117187027 -1.0399582010869761 -0.27599254447388205 -1.2110563193170349 -0.31658428387659104 -0.84987788099237116 -0.24890335279092379
decision_type=2 2 2 2 2 2 2 2 2 2 2 2
left_child=1 2 3 -1 6 -6 -3 -4 -2 11 -11 -10
right_child=8 4 7 -5 5 -7 -8 -9 9 10 -12 -13
leaf_value=-0.047602216781460656 0.036709925701679226 -0.016975599291721679 -0.0068248372858529917 -0.003924080871027435 -0.043765518844060644 0.0083883576567521691 0.021395297781856653 0.016435191639450009 -0.017410018696783054 0.0039221958281270945 -0.041795752498776685 0.029704062779267668
leaf_weight=15.399889469146727 4.1948627531528464 13.798932254314421 57.501730710268021 34.087080240249634 9.3497530817985517 23.992508500814438 124.55799016356468 47.834106802940369 15.247833847999575 9.1485056877136213 29.644987821578979 10.745293974876402
leaf_count=22 6 18 76 46 13 32 165 62 20 12 40 14
internal_value=0.00171619 0.00506467 -0.00334369 -0.0183088 0.0126568 -0.00691033 0.017431 0.00373659 -0.0138939 -0.0177698 -0.0310359 0.00222308
internal_weight=395.503 326.522 154.823 49.487 171.699 33.3423 138.357 105.336 68.9815 64.7866 38.7935 25.9931
internal_count=526 434 206 68 228 45 183 138 92 86 52 34
is_linear=0
shrinkage=0.03


Tree=17
num_leaves=16
num_cat=0
split_feature=24 12 12 19 6 7 28 12 12 7 14 13 0 10 5
split_gain=22.5239 16.9168 26.4263 30.2754 16.4987 19.1781 20.8345 16.3786 12.3827 10.7586 21.6316 12.846 7.2041 7.13198 1.06698
threshold=1.0000000180025095e-35 -0.40733841135603538 -0.28990418451478611 -1.3792130272947734 -0.88497785725378897 2.3278280617238987 3.8457099694454828 -0.82743752763870748 0.77890177828947238 -0.21381042429360039 -0.2953933541380846 0.015451644719297745 -1.6423636594275683 -0.25763301337810462 -0.095947469947247746
decision_type=2 2 2 2 2 2 2 2 2 2 2 2 2 2 2
left_child=4 9 13 -4 8 7 -7 -6 12 11 -11 -2 -1 -3 -10
right_child=1 2 3 -5 5 6 -8 -9 14 10 -12 -13 -14 -15 -16
leaf_value=0.0002688212176477789 0.04422579537600535 -0.0073592299585526922 -0.042271909008286278 0.011948224624507444 -0.030421845919537217 0.049116727912829027 -0.025722089298367619 -0.0013872342737800991 -0.0056220387694628842 -0.029753636575997024 0.02883993835539346 -0.0019870499042954721 -0.047571880629343921 -0.050810138546641362 0.013935322177780445
leaf_weight=3.1024767458438918 24.169027537107471 6.6447310447692862 9.0183701515197736 120.88145664334297 19.149394094944 11.157854855060576 3.7841070890426627 137.45399358868599 3.8350352644920349 8.1676592230796832 13.794345319271086 6.4790481030941001 15.616433322429657 8.0766759514808637 3.8691722750663748
leaf_count=5 32 9 12 159 26 14 5 183 5 12 18 9 21 11 5
internal_value=0.00166034 0.00882545 0.00341519 0.00784395 -0.00545641 -0.00195284 0.0293626 -0.00514615 -0.027083 0.0232448 0.00644094 0.0345127 -0.0397269 -0.0332951 0.00398321
internal_weight=395.2 197.231 144.621 129.9 197.968 171.545 14.942 156.603 26.4231 52.6101 21.962 30.6481 18.7189 14.7214 7.70421
internal_count=526 262 191 171 264 228 19 209 36 71 30 41 26 20 10
is_linear=0
shrinkage=0.03


Tree=18
num_leaves=15
num_cat=0
split_feature=24 3 21 12 18 16 2 2 17 12 26 16 26 21
split_gain=21.2072 23.0193 24.2541 18.5293 23.9114 18.6844 16.1283 29.5204 29.2238 21.9686 21.283 15.3402 12.6582 12.1768
threshold=1.0000000180025095e-35 0.42006242711239034 -1.0503368913203663 -0.34813194738455794 -1.0384188604831774 -0.12962668728438251 0.016486881591147685 1.2829348276705015 -0.45008648259272516 -0.56305104520929117 -0.36777205772773763 -0.30642900999922718 0.23863642069124771 -1.0249422001368327
decision_type=2 2 2 2 2 2 2 2 2 2 2 2 2 2
left_child=1 3 -3 4 -1 -5 8 13 9 -2 -9 -10 -4 -8
right_child=6 2 12 5 -6 -7 7 10 11 -11 -12 -13 -14 -15
leaf_value=-0.036343908952198987 0.027333032916867856 -0.039253075161228494 -0.0063104636335856307 0.0059134181261846193 0.0047517757318677502 -0.039819609511106753 -0.004943474159480256 0.01270250820972285 0.036716975019734734 -0.027352827510289893 -0.044295334294368854 0.0018944779017783715 0.020154261904328903 0.028921243331362943
leaf_weight=15.368656933307646 7.0557095408439627 8.2357933521270734 22.369689971208572 9.9114329218864423 56.119337558746338 33.273927956819534 10.329702794551848 11.798560231924059 17.798180729150772 37.006744980812073 9.957856208086012 30.173640787601471 52.539659053087234 72.92597696185112
leaf_count=21 9 11 31 13 75 45 14 16 23 50 14 40 68 96
internal_value=0.00160255 -0.00530478 0.00662005 -0.0139854 -0.0043798 -0.0292914 0.00855901 0.0165379 -0.000560383 -0.0180506 -0.0139217 0.0154225 0.0121932 0.0246396
internal_weight=394.865 197.818 83.1451 114.673 71.488 43.1854 197.046 105.012 92.0343 44.0625 21.7564 47.9718 74.9093 83.2557
internal_count=526 264 110 154 96 58 262 140 122 59 30 63 99 110
is_linear=0
shrinkage=0.03


Tree=19
num_leaves=13
num_cat=0
split_feature=9 5 3 24 7 5 9 20 22 0 19 4
split_gain=21.1865 19.9873 17.6117 17.1974 23.1639 18.3291 17.0909 14.4132 14.5709 11.5329 10.6141 10.535
threshold=-0.65525640068329005 -0.13861783715920989 2.0181060227919949 0.15744395841361603 2.3278280617238987 -0.1258885828744781 -0.95102798691256318 1.1648595935463419 -1.59784497601694 -1.5907218161638983 0.74838988836952092 -0.96298994708539187
decision_type=2 2 2 2 2 2 2 2 2 2 2 2
left_child=6 2 10 4 -3 -5 7 8 -1 -8 -2 -11
right_child=1 3 -4 5 -6 -7 9 -9 -10 11 -12 -13
leaf_value=-0.033186836761929205 0.011199636990379241 -0.012931764918280596 -0.04247943131045287 -0.045639404780236037 0.032458409268727006 0.013578378804750666 0.0087624993446494947 -0.044084709814848341 0.011880010622827826 -0.0054069928427526916 0.032114559881010821 -0.048588705141026624
leaf_weight=6.6588740348815909 89.628118842840195 101.46774902939796 3.7177560925483695 4.0176091492176047 10.209712505340574 72.764823734760284 5.4563691020011929 5.1637796759605399 39.461790144443512 7.6855049133300808 29.681452006101608 18.554544448852539
leaf_count=9 121 136 5 6 13 98 7 7 51 10 38 25
internal_value=0.00155145 0.00515631 0.0145123 -0.000963969 -0.00847764 0.00985577 -0.0118091 -0.000864803 0.00467975 -0.0287652 0.0166763 -0.0368242
internal_weight=394.468 311.487 123.027 188.46 111.677 76.7824 82.9809 51.2844 46.1207 31.6964 119.31 26.24
internal_count=526 417 164 253 149 104 109 67 60 42 159 35
is_linear=0
shrinkage=0.03


end of trees

feature_importances:
upper_wick_ratio=18
volume_ratio=16
hour_sin=15
volume_trend=12
lower_wick_ratio=12
consec_direction=12
bb_position=11
macd_signal=10
bb_width=9
candle_body_ratio=9
high_low_range=9
rsi_7=8
rsi_slope=8
momentum_10bar=8
vol_ratio=8
atr_14=8
returns_skew_10=8
macd_hist=7
momentum_3bar=7
atr_ratio=7
close_position_in_range=7
rsi_14=6
momentum_5bar=6
hour_cos=6
volatility_5bar=5
returns_std_10=5
macd_hist_delta=3
momentum_1bar=2
volatility_20bar=1

parameters:
[boosting: gbdt]
[objective: binary]
[metric: binary_logloss]
[tree_learner: serial]
[device_type: cpu]
[data_sample_strategy: bagging]
[data: ]
[valid: ]
[num_iterations: 500]
[learning_rate: 0.03]
[num_leaves: 31]
[num_threads: 0]
[seed: 0]
[deterministic: 0]
[force_col_wise: 0]
[force_row_wise: 0]
[histogram_pool_size: -1]
[max_depth: 4]
[min_data_in_leaf: 5]
[min_sum_hessian_in_leaf: 0.001]
[bagging_fraction: 0.75]
[pos_bagging_fraction: 1]
[neg_bagging_fraction: 1]
[bagging_freq: 5]
[bagging_seed: 3]
[bagging_by_query: 0]
[feature_fraction: 0.75]
[feature_fraction_bynode: 1]
[feature_fraction_seed: 2]
[extra_trees: 0]
[extra_seed: 6]
[early_stopping_round: 0]
[early_stopping_min_delta: 0]
[first_metric_only: 0]
[max_delta_step: 0]
[lambda_l1: 0.2]
[lambda_l2: 1]
[linear_lambda: 0]
[min_gain_to_split: 0.01]
[drop_rate: 0.1]
[max_drop: 50]
[skip_drop: 0.5]
[xgboost_dart_mode: 0]
[uniform_drop: 0]
[drop_seed: 4]
[top_rate: 0.2]
[other_rate: 0.1]
[min_data_per_group: 100]
[max_cat_threshold: 32]
[cat_l2: 10]
[cat_smooth: 10]
[max_cat_to_onehot: 4]
[top_k: 20]
[monotone_constraints: ]
[monotone_constraints_method: basic]
[monotone_penalty: 0]
[feature_contri: ]
[forcedsplits_filename: ]
[refit_decay_rate: 0.9]
[cegb_tradeoff: 1]
[cegb_penalty_split: 0]
[cegb_penalty_feature_lazy: ]
[cegb_penalty_feature_coupled: ]
[path_smooth: 0]
[interaction_constraints: ]
[verbosity: -1]
[saved_feature_importance_type: 0]
[use_quantized_grad: 0]
[num_grad_quant_bins: 4]
[quant_train_renew_leaf: 0]
[stochastic_rounding: 1]
[linear_tree: 0]
[max_bin: 255]
[max_bin_by_feature: ]
[min_data_in_bin: 3]
[bin_construct_sample_cnt: 200000]
[data_random_seed: 1]
[is_enable_sparse: 1]
[enable_bundle: 1]
[use_missing: 1]
[zero_as_missing: 0]
[feature_pre_filter: 1]
[pre_partition: 0]
[two_round: 0]
[header: 0]
[label_column: ]
[weight_column: ]
[group_column: ]
[ignore_column: ]
[categorical_feature: ]
[forcedbins_filename: ]
[precise_float_parser: 0]
[parser_config_file: ]
[objective_seed: 5]
[num_class: 1]
[is_unbalance: 0]
[scale_pos_weight: 1.0787]
[sigmoid: 1]
[boost_from_average: 1]
[reg_sqrt: 0]
[alpha: 0.9]
[fair_c: 1]
[poisson_max_delta_step: 0.7]
[tweedie_variance_power: 1.5]
[lambdarank_truncation_level: 30]
[lambdarank_norm: 1]
[label_gain: ]
[lambdarank_position_bias_regularization: 0]
[eval_at: ]
[multi_error_top_k: 1]
[auc_mu_weights: ]
[num_machines: 1]
[local_listen_port: 12400]
[time_out: 120]
[machine_list_filename: ]
[machines: ]
[gpu_platform_id: -1]
[gpu_device_id: -1]
[gpu_use_dp: 0]
[num_gpu: 1]

end of parameters

pandas_categorical:null
