tree
version=v4
num_class=1
num_tree_per_iteration=1
label_index=0
max_feature_idx=29
objective=binary sigmoid:1
feature_names=rsi_14 rsi_7 rsi_slope macd_hist macd_hist_delta macd_signal bb_position bb_width momentum_1bar momentum_3bar momentum_5bar momentum_10bar volume_ratio volume_trend volatility_5bar volatility_20bar vol_ratio atr_14 atr_ratio candle_body_ratio upper_wick_ratio lower_wick_ratio consec_direction close_vs_open hour_sin hour_cos returns_std_10 returns_skew_10 high_low_range close_position_in_range
feature_infos=[-2.7373636179971612:2.4299119789179535] [-2.2838768793639801:2.2278628612843461] [-3.1466454249450271:3.0183349220645348] [-4.0414717571972201:3.0248313773672577] [-14.3353334020877:3.6644635440378734] [-2.8550020988751608:2.7970723906869468] [-2.4917261534823933:2.7529645020853404] [-1.388579856161605:4.4549134768051601] [-5.9807877516753933:4.8339171794867442] [-6.0361808704425632:4.3714556240839997] [-5.0136666570648547:3.9380643045187589] [-4.2268495674734474:3.4195558480515404] [-1.1275975588536957:10.225855138462547] [-1.6568021096349526:4.0602184058860127] [-1.4048857558780106:5.1141701173143481] [-1.8717762818885322:3.5827502814442305] [-1.8304361911353437:2.7921475163013088] [-1.7811975036681065:4.0856633330752761] [-2.5338277656056034:3.1983492569008405] [-1.745340767210348:2.1426432544309932] [-1.3035975084208009:3.2810367175009896] [-1.2650801325852972:3.0488540840979472] [-3.6067620371939371:4.394909732424054] [-1.0261413653561167:0.97452459647502432] [-1.4216461842198547:1.3972068381546159] [-1.4149928188120173:1.4233462073027496] [-1.6115808814312869:4.6644608981707973] [-2.9800635260200621:2.7462246374716228] [-1.6143251304669217:4.0971904277995508] [-1.7866668858955825:1.7793175020393948]
tree_sizes=951 964 987 878 961 865 888 970 864 987 983 883 884

Tree=0
num_leaves=8
num_cat=0
split_feature=17 9 26 9 24 8 0
split_gain=31.6108 13.2269 8.26379 8.05619 6.59337 4.09102 1.69002
threshold=-0.19609126718937214 -0.5509561835461213 1.2444286820907549 0.78815956390152053 0.35256675073503835 1.8970851970443781 -0.32992008205541806
decision_type=2 2 2 2 2 2 2
left_child=1 6 4 -3 -2 -4 -1
right_child=2 3 5 -5 -6 -7 -8
leaf_value=0.70698533302536359 0.71448965994949976 0.66236260506094824 0.74909030585536085 0.70807247515691718 0.68730704426532463 0.70089779999134383 0.73740089676223253
leaf_weight=2.6927044242620468 20.588529728353024 31.931970052421093 5.5609899386763564 4.6034000143408766 11.515571631491182 1.2297580465674398 1.7023438587784756
leaf_count=19 154 184 49 33 75 8 15
internal_value=0.691509 0.67343 0.711263 0.667609 0.704543 0.73883 0.719518
internal_weight=79.8253 40.9304 38.8948 36.5354 32.1041 6.79075 4.39505
internal_count=537 251 286 217 229 57 34
is_linear=0
shrinkage=1


Tree=1
num_leaves=8
num_cat=0
split_feature=15 14 9 5 5 26 17
split_gain=30.0001 10.8997 6.72267 5.34524 3.61092 3.83638 2.42939
threshold=0.32161149691658886 -0.49647412475135416 -0.45560198381870748 1.3390587205199067 1.3854048506778505 0.83126685277270373 0.84642860094233041
decision_type=2 2 2 2 2 2 2
left_child=1 2 -1 -3 5 -2 -6
right_child=4 3 -4 -5 6 -7 -8
leaf_value=0.0044609575367321446 0 -0.020894313826900112 -0.048753394600919465 0.023981397124821703 0.0056924455174415184 0.027459377842807959 -0.032973077382538726
leaf_weight=1.813422411680224 8.7882957011461311 29.106929041445259 26.167429909110069 1.5893061980605114 1.9156422540545457 9.2180326431989652 1.7774071395397184
leaf_count=14 65 193 148 14 15 78 10
internal_value=-0.0202962 -0.031334 -0.0449591 -0.0176036 0.00922015 0.0149568 -0.0140596
internal_weight=80.3765 58.6771 27.9809 30.6962 21.6994 18.0063 3.69305
internal_count=537 369 162 207 168 143 25
is_linear=0
shrinkage=0.03


Tree=2
num_leaves=8
num_cat=0
split_feature=17 9 27 24 27 27 0
split_gain=27.415 11.7228 9.67271 7.04901 8.19992 3.49543 1.60666
threshold=-0.19609126718937214 -0.5509561835461213 1.6956035205077018 0.35256675073503835 -0.64052381294621819 0.60249170190469947 -0.32992008205541806
decision_type=2 2 2 2 2 2 2
left_child=1 6 -3 5 -5 -2 -1
right_child=3 2 -4 4 -6 -7 -8
leaf_value=-0.0050384299884618493 0.00046999608578793966 -0.045004527196869953 0.015571871693591862 0.017472943401889682 -0.032288878244874385 0.025133358737719581 0.024571986480461973
leaf_weight=2.7139096483588219 19.888800032436851 35.67044934630394 1.8338244780898083 3.1669704392552367 9.5105339437723142 6.4124778732657424 1.6906971856951702
leaf_count=19 148 202 15 26 58 54 15
internal_value=-0.0195664 -0.0361185 -0.0414813 -0.00108673 -0.0188312 0.00751313 0.0071057
internal_weight=80.8877 41.9089 37.5043 38.9788 12.6775 26.3013 4.40461
internal_count=537 251 217 286 84 202 34
is_linear=0
shrinkage=0.03


Tree=3
num_leaves=7
num_cat=0
split_feature=15 27 10 12 5 10
split_gain=26.23 7.93421 8.01968 3.64422 3.96206 3.69189
threshold=0.32161149691658886 1.6956035205077018 -0.95135185993220717 -0.51380599519605452 1.4816850943556734 -0.26146391395950569
decision_type=2 2 2 2 2 2
left_child=1 2 -1 5 -5 -2
right_child=3 -3 -4 4 -6 -7
leaf_value=0.0040072967227483868 -0.023699254437386602 0.018564059930320637 -0.034525804657187888 0.02766787424242341 -0.01340941226145374 0.0095051852735432863
leaf_weight=4.6738965213298789 3.9075416103005409 2.1684910729527465 52.928856529295444 9.489541366696356 1.6782415062189091 6.5153253227472323
leaf_count=35 25 18 316 81 11 51
internal_value=-0.0188551 -0.0290002 -0.0312306 0.00887266 0.0201606 -0.00314024
internal_weight=81.3619 59.7712 57.6028 21.5906 11.1678 10.4229
internal_count=537 369 351 168 92 76
is_linear=0
shrinkage=0.03


Tree=4
num_leaves=8
num_cat=0
split_feature=15 7 2 5 26 26 4
split_gain=24.3888 11.124 8.09012 3.38791 3.54732 2.39729 1.38018
threshold=0.32161149691658886 -0.88083573515911162 -0.98357616776100709 1.3854048506778505 0.83126685277270373 0.55022394954885989 0.46212867971532307
decision_type=2 2 2 2 2 2 2
left_child=1 6 -3 4 -2 -5 -1
right_child=3 2 -4 5 -6 -7 -8
leaf_value=-0.054172587813209855 0 0.012778299116486206 -0.024054912152331624 0.0057518904967797215 0.026449022189229246 -0.032596611529415523 -0.010068412005741935
leaf_weight=12.959760554134844 8.7772353515029007 5.1926707327365866 40.369691520929337 1.9175348877906793 9.0321922749280912 1.7859151139855383 1.7608354315161694
leaf_count=65 65 40 253 15 78 10 11
internal_value=-0.0181873 -0.0278878 -0.0194795 0.00862675 0.0142611 -0.013826 -0.0504455
internal_weight=81.7958 60.283 45.5624 21.5129 17.8094 3.70345 14.7206
internal_count=537 369 293 168 143 25 76
is_linear=0
shrinkage=0.03


Tree=5
num_leaves=7
num_cat=0
split_feature=14 17 19 15 15 11
split_gain=16.656 10.4475 7.31807 6.10856 3.52218 0.604509
threshold=-0.80276746875390803 -0.37914097484488468 -0.87123430481651853 0.31654849144052971 1.2273906708490661 -0.3000819621819652
decision_type=2 2 2 2 2 2
left_child=1 5 4 -4 -2 -1
right_child=2 -3 3 -5 -6 -7
leaf_value=-0.011943104341545375 0.016728108205415003 0.016123735695777991 -0.022078471210125617 0 -0.016902306029650808 -0.052544931996902119
leaf_weight=1.6552642658352859 11.106454275548456 1.7758594304323185 33.118850998580456 16.957390658557415 2.5268246158957473 14.279204428195953
leaf_count=10 86 14 208 128 17 71
internal_value=-0.0171075 -0.042212 -0.00944526 -0.0147643 0.00915083 -0.049813
internal_weight=81.4198 17.7103 63.7095 50.0762 13.6333 15.9345
internal_count=534 95 439 336 103 81
is_linear=0
shrinkage=0.03


Tree=6
num_leaves=7
num_cat=0
split_feature=14 17 19 2 12 21
split_gain=15.4995 6.33029 6.11748 6.85018 4.34305 1.39668
threshold=-0.85951158064890232 -0.37914097484488468 -0.75236780430136585 -0.63651840427074557 0.10439352497776226 -0.68926745997943095
decision_type=2 2 2 2 2 2
left_child=1 5 4 -4 -2 -1
right_child=2 -3 3 -5 -6 -7
leaf_value=-0.013784891850451163 -0.0051648342730446209 0.0096801252717886345 0.0045246990707789618 -0.021155027587352885 0.024332726847799503 -0.052886064967528949
leaf_weight=2.5139244422316542 11.463272735476496 1.3000346049666394 11.243337586522101 37.353931300342083 5.8390262797474852 12.042508378624914
leaf_count=15 80 10 83 240 48 58
internal_value=-0.0165532 -0.0424728 -0.00964042 -0.0150609 0.00508359 -0.048032
internal_weight=81.756 15.8565 65.8996 48.5973 17.3023 14.5564
internal_count=534 83 451 323 128 73
is_linear=0
shrinkage=0.03


Tree=7
num_leaves=8
num_cat=0
split_feature=17 16 15 15 13 11 29
split_gain=13.0416 6.63896 3.9234 5.05512 4.00519 3.46817 3.44258
threshold=-0.37914097484488468 0.7664966130758496 -0.34947597800195379 0.31654849144052971 0.0088591868820278152 -0.35501278518354012 1.1953805331543923
decision_type=2 2 2 2 2 2 2
left_child=1 5 4 -4 -2 -1 -3
right_child=2 6 3 -5 -6 -7 -8
leaf_value=-0.0034845194058604739 -0.010260193096763043 0.010983462323057133 -0.0207817867582261 0 0.027354981753116098 -0.04070014285412768 -0.027118548529878123
leaf_weight=3.2941055819392231 3.2999059334397298 4.7085158824920645 18.234436146914959 21.807124353945255 4.9472156465053558 23.455697678029537 2.3361810892820358
leaf_count=22 21 35 115 164 40 124 13
internal_value=-0.0160106 -0.0300934 -0.00556168 -0.00956825 0.0118489 -0.0367323 -0.0023336
internal_weight=82.0832 33.7945 48.2887 40.0416 8.24712 26.7498 7.0447
internal_count=534 194 340 279 61 146 48
is_linear=0
shrinkage=0.03


Tree=8
num_leaves=7
num_cat=0
split_feature=14 17 19 15 15 11
split_gain=13.728 9.06342 6.44326 5.43442 3.37872 0.464653
threshold=-0.80276746875390803 -0.37914097484488468 -0.87123430481651853 0.31654849144052971 1.2273906708490661 -0.3000819621819652
decision_type=2 2 2 2 2 2
left_child=1 5 4 -4 -2 -1
right_child=2 -3 3 -5 -6 -7
leaf_value=-0.010634516538325402 0.016418092116923126 0.015988040515688792 -0.020305906119456835 0 -0.016463511394528337 -0.047365987892321076
leaf_weight=1.680270202457909 11.055436566472052 1.7718027755618084 33.57131440192461 17.046842373907566 2.5418420433998099 14.698457330465317
leaf_count=10 86 14 208 128 17 71
internal_value=-0.0155024 -0.0380021 -0.00851964 -0.0134687 0.00894798 -0.0449444
internal_weight=82.366 18.1505 64.2154 50.6182 13.5973 16.3787
internal_count=534 95 439 336 103 81
is_linear=0
shrinkage=0.03


Tree=9
num_leaves=8
num_cat=0
split_feature=14 22 25 20 7 26 21
split_gain=12.8398 4.01575 2.89729 2.76854 2.4135 1.10932 0.433448
threshold=-0.80276746875390803 -1.1618067742551059 0.58956433699215638 1.3152817803567733 -0.57453860290850878 -0.95516180895354919 -0.64534993539996621
decision_type=2 2 2 2 2 2 2
left_child=4 2 -2 -3 6 -6 -1
right_child=1 3 -4 -5 5 -7 -8
leaf_value=-0.012243112934134624 0.031298650227221225 -0.012713299424428276 -0.0078935563174409966 0.007190463151532313 -0.020654366821573081 0.0039354945929984857 -0.045998360439430563
leaf_weight=2.0623375698924074 2.8648703992366782 53.697769537568092 1.9315760433673856 5.8541424423456183 2.5422909036278725 1.6612310335040081 11.998658403754234
leaf_count=12 25 357 13 44 14 12 57
internal_value=-0.0150142 -0.00825239 0.015324 -0.0105216 -0.0367048 -0.0103181 -0.0427866
internal_weight=82.6129 64.3484 4.79645 59.5519 18.2645 4.20352 14.061
internal_count=534 439 38 401 95 26 69
is_linear=0
shrinkage=0.03


Tree=10
num_leaves=8
num_cat=0
split_feature=15 9 6 11 1 5 15
split_gain=13.983 7.3137 7.47114 5.49477 3.47816 2.83221 2.11029
threshold=0.17633735241085249 0.78815956390152053 -1.083651449534534 0.064369989860393953 1.1490789471858898 0.62088794113367185 -0.51295847306590259
decision_type=2 2 2 2 2 2 2
left_child=1 2 -1 5 -5 -2 -3
right_child=3 6 -4 4 -6 -7 -8
leaf_value=0.00022920695964966632 0.023288866747863037 0.023642165310601156 -0.031402535170715166 -0.016831827763061993 0.011517063269755939 -0.003596408392649293 -0.0073964580651897874
leaf_weight=7.2567495182156554 9.9770540446043032 2.6160785257816315 42.805245377123356 13.107328899204733 4.1904230117797843 4.0613659471273413 2.9610034823417655
leaf_count=51 83 21 240 88 33 29 19
internal_value=-0.0141942 -0.0231026 -0.0267264 0.00156997 -0.00921827 0.0151905 0.0071756
internal_weight=86.9752 55.6391 50.062 31.3362 17.2978 14.0384 5.57708
internal_count=564 331 291 233 121 112 40
is_linear=0
shrinkage=0.03


Tree=11
num_leaves=7
num_cat=0
split_feature=29 26 9 13 10 21
split_gain=14.01 11.2928 7.28629 6.48002 3.33542 2.97785
threshold=-1.2055022447346435 0.060939999368251965 0.78815956390152053 1.6275141733548855 -0.28272751985031147 -0.90284338498756334
decision_type=2 2 2 2 2 2
left_child=4 2 -2 -3 5 -1
right_child=1 3 -4 -5 -6 -7
leaf_value=-0.0025168974691774332 -0.030244296966309394 0.0046452384081987043 0.0036101192758850411 -0.032674712727006103 -0.0069605998456048947 0.036923003190185058
leaf_weight=1.6076861396431921 45.10202769190073 22.471545979380611 5.7726833596825591 4.0647696629166594 2.5212637186050397 5.6778599172830582
leaf_count=11 253 168 41 24 17 50
internal_value=-0.0137256 -0.0180757 -0.0262338 -0.0017235 0.0182749 0.0278803
internal_weight=87.2178 77.411 50.8747 26.5363 9.80681 7.28555
internal_count=564 486 294 192 78 61
is_linear=0
shrinkage=0.03


Tree=12
num_leaves=7
num_cat=0
split_feature=29 15 9 20 19 0
split_gain=13.1949 10.4859 8.29664 6.71038 2.33385 1.52283
threshold=-1.2055022447346435 0.17633735241085249 0.78815956390152053 -0.017918895353280121 1.1159074230508492 -0.51975073712050002
decision_type=2 2 2 2 2 2
left_child=4 2 -2 -3 5 -1
right_child=1 3 -4 -5 -6 -7
leaf_value=0.030001314596635513 -0.029530855322667717 0.011139406470258835 0.0069363787253426791 -0.017997514828537373 -0.0054025276019751961 -0.00027813269159356079
leaf_weight=6.5656401887536049 45.523018397390842 14.717897698283197 5.5618249848484984 11.878158055245875 2.0535713210701942 1.1226062327623347
leaf_count=56 253 114 40 79 14 8
internal_value=-0.0132901 -0.0174888 -0.0253308 -0.00172803 0.017864 0.025021
internal_weight=87.4227 77.6809 51.0848 26.5961 9.74182 7.68825
internal_count=564 486 293 193 78 64
is_linear=0
shrinkage=0.03


end of trees

feature_importances:
volatility_20bar=12
momentum_3bar=7
atr_14=7
returns_std_10=6
macd_signal=5
volatility_5bar=5
momentum_10bar=4
candle_body_ratio=4
returns_skew_10=4
rsi_14=3
momentum_5bar=3
lower_wick_ratio=3
close_position_in_range=3
rsi_slope=2
bb_width=2
volume_ratio=2
volume_trend=2
upper_wick_ratio=2
hour_sin=2
rsi_7=1
macd_hist_delta=1
bb_position=1
momentum_1bar=1
vol_ratio=1
consec_direction=1
hour_cos=1

parameters:
[boosting: gbdt]
[objective: binary]
[metric: auc]
[tree_learner: serial]
[device_type: cpu]
[data_sample_strategy: bagging]
[data: ]
[valid: ]
[num_iterations: 300]
[learning_rate: 0.03]
[num_leaves: 20]
[num_threads: 0]
[seed: 0]
[deterministic: 0]
[force_col_wise: 0]
[force_row_wise: 0]
[histogram_pool_size: -1]
[max_depth: 3]
[min_data_in_leaf: 10]
[min_sum_hessian_in_leaf: 0.001]
[bagging_fraction: 0.7]
[pos_bagging_fraction: 1]
[neg_bagging_fraction: 1]
[bagging_freq: 5]
[bagging_seed: 3]
[bagging_by_query: 0]
[feature_fraction: 0.7]
[feature_fraction_bynode: 1]
[feature_fraction_seed: 2]
[extra_trees: 0]
[extra_seed: 6]
[early_stopping_round: 0]
[early_stopping_min_delta: 0]
[first_metric_only: 0]
[max_delta_step: 0]
[lambda_l1: 0.3]
[lambda_l2: 1]
[linear_lambda: 0]
[min_gain_to_split: 0]
[drop_rate: 0.1]
[max_drop: 50]
[skip_drop: 0.5]
[xgboost_dart_mode: 0]
[uniform_drop: 0]
[drop_seed: 4]
[top_rate: 0.2]
[other_rate: 0.1]
[min_data_per_group: 100]
[max_cat_threshold: 32]
[cat_l2: 10]
[cat_smooth: 10]
[max_cat_to_onehot: 4]
[top_k: 20]
[monotone_constraints: ]
[monotone_constraints_method: basic]
[monotone_penalty: 0]
[feature_contri: ]
[forcedsplits_filename: ]
[refit_decay_rate: 0.9]
[cegb_tradeoff: 1]
[cegb_penalty_split: 0]
[cegb_penalty_feature_lazy: ]
[cegb_penalty_feature_coupled: ]
[path_smooth: 0]
[interaction_constraints: ]
[verbosity: -1]
[saved_feature_importance_type: 0]
[use_quantized_grad: 0]
[num_grad_quant_bins: 4]
[quant_train_renew_leaf: 0]
[stochastic_rounding: 1]
[linear_tree: 0]
[max_bin: 255]
[max_bin_by_feature: ]
[min_data_in_bin: 3]
[bin_construct_sample_cnt: 200000]
[data_random_seed: 1]
[is_enable_sparse: 1]
[enable_bundle: 1]
[use_missing: 1]
[zero_as_missing: 0]
[feature_pre_filter: 1]
[pre_partition: 0]
[two_round: 0]
[header: 0]
[label_column: ]
[weight_column: ]
[group_column: ]
[ignore_column: ]
[categorical_feature: ]
[forcedbins_filename: ]
[precise_float_parser: 0]
[parser_config_file: ]
[objective_seed: 5]
[num_class: 1]
[is_unbalance: 0]
[scale_pos_weight: 0.514062]
[sigmoid: 1]
[boost_from_average: 1]
[reg_sqrt: 0]
[alpha: 0.9]
[fair_c: 1]
[poisson_max_delta_step: 0.7]
[tweedie_variance_power: 1.5]
[lambdarank_truncation_level: 30]
[lambdarank_norm: 1]
[label_gain: ]
[lambdarank_position_bias_regularization: 0]
[eval_at: ]
[multi_error_top_k: 1]
[auc_mu_weights: ]
[num_machines: 1]
[local_listen_port: 12400]
[time_out: 120]
[machine_list_filename: ]
[machines: ]
[gpu_platform_id: -1]
[gpu_device_id: -1]
[gpu_use_dp: 0]
[num_gpu: 1]

end of parameters

pandas_categorical:null
