tree
version=v4
num_class=1
num_tree_per_iteration=1
label_index=0
max_feature_idx=29
objective=binary sigmoid:1
feature_names=rsi_14 rsi_7 rsi_slope macd_hist macd_hist_delta macd_signal bb_position bb_width momentum_1bar momentum_3bar momentum_5bar momentum_10bar volume_ratio volume_trend volatility_5bar volatility_20bar vol_ratio atr_14 atr_ratio candle_body_ratio upper_wick_ratio lower_wick_ratio consec_direction close_vs_open hour_sin hour_cos returns_std_10 returns_skew_10 high_low_range close_position_in_range
feature_infos=[-2.6326548548996129:2.4182510548078491] [-2.3155495146674578:2.3080899542674214] [-3.4562427556609419:3.1782667092494452] [-4.6428791643395799:4.3699089824865949] [-5.304558840394761:4.6587767709878705] [-3.1613188623256896:2.0363608778031721] [-2.7625750997827847:2.6828534796029473] [-1.1892993103841012:4.5741842531711425] [-5.3457085953695396:6.0430438794777883] [-5.5159972374177269:4.4382998529637563] [-5.2989857714341779:4.3467226261173488] [-4.2772237759157736:4.48577150813587] [-0.91614627800572934:5.703886634055551] [-1.5779870978850519:3.6054694454155731] [-1.2716373924857389:4.3155429696407346] [-1.3664696445582152:2.9861023824499822] [-2.166524954547639:3.0128553181263422] [-1.081767141289242:2.9920758369441862] [-2.4338345263869114:3.1330529623682182] [-1.8225383683552763:1.8198602565696242] [-1.0735037682932091:3.3067934496617459] [-1.0862295938062208:2.9552874821568391] [-3.6485338527672262:3.6129384005451071] [-1.0088110094818643:0.99229005129178272] [-1.3897606451699378:1.4793724813250633] [-1.2920523703997642:1.5177213305844641] [-1.3690025489527771:3.4066677134606111] [-2.9518103286378903:2.6723580918080021] [-1.2240964113421606:2.8632829785063065] [-1.805387211058183:1.791255365956687]
tree_sizes=967 977 955 972 974

Tree=0
num_leaves=8
num_cat=0
split_feature=17 5 20 26 13 18 18
split_gain=78.3883 16.8144 13.2729 4.65223 8.20373 2.34024 0.817311
threshold=0.38420842316535525 -1.1392465802740455 -0.90949367127881786 1.016577383659329 -0.024307722774992633 0.17470107156101897 1.3282989796082914
decision_type=2 2 2 2 2 2 2
left_child=1 5 -3 4 -2 -1 -5
right_child=3 2 -4 6 -6 -7 -8
leaf_value=-0.41871923551889678 -0.38772046467393539 -0.4521979928874616 -0.42701766649389872 -0.37059204741747642 -0.42962091643779726 -0.37715126463236393 -0.39777735699902567
leaf_weight=2.9150814414024344 13.583801597356798 24.276416033506393 76.114688068628311 21.755587220191959 5.196968972682952 4.5518279671669006 6.5947743952274314
leaf_count=10 42 95 274 63 19 13 21
internal_value=-0.415817 -0.42992 -0.433362 -0.383968 -0.399315 -0.38942 -0.375397
internal_weight=154.989 107.858 100.391 47.1311 18.7808 7.46691 28.3504
internal_count=537 392 369 145 61 23 84
is_linear=0
shrinkage=1


Tree=1
num_leaves=8
num_cat=0
split_feature=17 5 19 26 2 15 26
split_gain=73.2692 15.9333 12.9735 4.25636 9.71587 2.29027 0.912441
threshold=0.38420842316535525 -1.1392465802740455 0.83099824175402393 1.016577383659329 0.039669854253418707 -0.15417036821142446 1.8400838556695012
decision_type=2 2 2 2 2 2 2
left_child=1 5 -3 4 -2 -1 -5
right_child=3 2 -4 6 -6 -7 -8
leaf_value=0.048529780814981001 0.047980871301748038 -8.6325590317748498e-05 -0.025497305427475893 0.057404007834232856 0.004418118264570196 0.0077730376727385749 0.033975057497347194
leaf_weight=4.5890339314937592 8.8942902982234973 77.366888776421547 22.892336130142212 17.032714590430263 9.9912972152233106 2.928169220685958 11.59988886117935
leaf_count=13 26 279 90 48 35 10 36
internal_value=0.0108727 -0.00280563 -0.00617184 0.0415005 0.026768 0.0364871 0.0496828
internal_weight=155.295 107.776 100.259 47.5182 18.8856 7.5172 28.6326
internal_count=537 392 369 145 61 23 84
is_linear=0
shrinkage=0.03


Tree=2
num_leaves=8
num_cat=0
split_feature=17 0 20 2 17 2 3
split_gain=68.678 14.0116 16.9433 3.79324 7.80532 2.83451 2.264
threshold=0.38420842316535525 -1.3315256711053833 -0.90949367127881786 0.11376511618454792 0.86970762945184699 -1.3728049337205672 -0.52435776878549722
decision_type=2 2 2 2 2 2 2
left_child=1 6 -3 5 -5 -2 -1
right_child=3 2 -4 4 -6 -7 -8
leaf_value=0.030894896627487275 0.010146500164720089 -0.028863545887802499 0.0002454099529577729 -0.0084690119226373817 0.035367252499578485 0.051998617412674059 0
leaf_weight=10.423117265105246 2.7179152816534069 22.753951624035835 71.733131483197212 3.7622187584638622 17.237242892384529 24.127774149179459 2.7801472991704932
leaf_count=33 9 91 258 14 53 69 10
internal_value=0.0105668 -0.00271339 -0.00689909 0.0400859 0.0270766 0.0486012 0.024984
internal_weight=155.535 107.69 94.4871 47.8452 20.9995 26.8457 13.2033
internal_count=537 392 349 145 67 78 43
is_linear=0
shrinkage=0.03


Tree=3
num_leaves=8
num_cat=0
split_feature=17 5 19 26 2 18 21
split_gain=64.317 14.8264 12.2846 3.77455 8.71878 2.00953 1.64236
threshold=0.38420842316535525 -1.1392465802740455 1.3181227089517524 1.016577383659329 0.039669854253418707 0.17470107156101897 -1.0858122467875002
decision_type=2 2 2 2 2 2 2
left_child=1 5 -3 4 -2 -1 -5
right_child=3 2 -4 6 -6 -7 -8
leaf_value=0.0077033617591861347 0.044775185224143255 -0.0020350339694093405 -0.035284479575484799 0.014286810514123035 0.0037244353537314889 0.04641842018388298 0.04920701368288443
leaf_weight=2.9297416210174552 9.0394267439842242 89.631153255701065 10.400055050849913 3.125177055597308 10.037599757313727 4.6423866301774979 25.935837864875793
leaf_count=10 26 326 43 10 35 13 74
internal_value=0.0102557 -0.00262883 -0.00589602 0.0387072 0.0248855 0.0351351 0.0463513
internal_weight=155.741 107.603 100.031 48.138 19.077 7.57213 29.061
internal_count=537 392 369 145 61 23 84
is_linear=0
shrinkage=0.03


Tree=4
num_leaves=8
num_cat=0
split_feature=17 5 19 18 6 15 26
split_gain=60.3947 14.0715 11.7388 3.61596 7.03017 1.96853 1.06981
threshold=0.38420842316535525 -1.1392465802740455 1.3181227089517524 -0.22496157716905144 1.0601539179682586 -0.15417036821142446 1.8400838556695012
decision_type=2 2 2 2 2 2 2
left_child=1 5 -3 4 -2 -1 -5
right_child=3 2 -4 6 -6 -7 -8
leaf_value=0.045253462674706889 0.032121369738383684 -0.0019755277562672614 -0.034595620083278066 0.052855657884424423 -0.01220558417911465 0.007237468184869025 0.027713909862571221
leaf_weight=4.668098509311676 20.318738132715229 89.591770365834236 10.310197070240973 16.952856048941616 2.93007868528366 2.9401676505804053 8.1725872755050641
leaf_count=13 62 326 43 47 11 10 25
internal_value=0.00996723 -0.00254568 -0.00574072 0.0374474 0.0258907 0.0341553 0.0463961
internal_weight=155.884 107.51 99.902 48.3743 23.2488 7.60827 25.1254
internal_count=537 392 369 145 73 23 72
is_linear=0
shrinkage=0.03


end of trees

feature_importances:
atr_14=6
returns_std_10=5
rsi_slope=4
macd_signal=4
atr_ratio=4
candle_body_ratio=3
volatility_20bar=2
upper_wick_ratio=2
rsi_14=1
macd_hist=1
bb_position=1
volume_trend=1
lower_wick_ratio=1

parameters:
[boosting: gbdt]
[objective: binary]
[metric: auc]
[tree_learner: serial]
[device_type: cpu]
[data_sample_strategy: bagging]
[data: ]
[valid: ]
[num_iterations: 300]
[learning_rate: 0.03]
[num_leaves: 20]
[num_threads: 0]
[seed: 0]
[deterministic: 0]
[force_col_wise: 0]
[force_row_wise: 0]
[histogram_pool_size: -1]
[max_depth: 3]
[min_data_in_leaf: 10]
[min_sum_hessian_in_leaf: 0.001]
[bagging_fraction: 0.7]
[pos_bagging_fraction: 1]
[neg_bagging_fraction: 1]
[bagging_freq: 5]
[bagging_seed: 3]
[bagging_by_query: 0]
[feature_fraction: 0.7]
[feature_fraction_bynode: 1]
[feature_fraction_seed: 2]
[extra_trees: 0]
[extra_seed: 6]
[early_stopping_round: 0]
[early_stopping_min_delta: 0]
[first_metric_only: 0]
[max_delta_step: 0]
[lambda_l1: 0.3]
[lambda_l2: 1]
[linear_lambda: 0]
[min_gain_to_split: 0]
[drop_rate: 0.1]
[max_drop: 50]
[skip_drop: 0.5]
[xgboost_dart_mode: 0]
[uniform_drop: 0]
[drop_seed: 4]
[top_rate: 0.2]
[other_rate: 0.1]
[min_data_per_group: 100]
[max_cat_threshold: 32]
[cat_l2: 10]
[cat_smooth: 10]
[max_cat_to_onehot: 4]
[top_k: 20]
[monotone_constraints: ]
[monotone_constraints_method: basic]
[monotone_penalty: 0]
[feature_contri: ]
[forcedsplits_filename: ]
[refit_decay_rate: 0.9]
[cegb_tradeoff: 1]
[cegb_penalty_split: 0]
[cegb_penalty_feature_lazy: ]
[cegb_penalty_feature_coupled: ]
[path_smooth: 0]
[interaction_constraints: ]
[verbosity: -1]
[saved_feature_importance_type: 0]
[use_quantized_grad: 0]
[num_grad_quant_bins: 4]
[quant_train_renew_leaf: 0]
[stochastic_rounding: 1]
[linear_tree: 0]
[max_bin: 255]
[max_bin_by_feature: ]
[min_data_in_bin: 3]
[bin_construct_sample_cnt: 200000]
[data_random_seed: 1]
[is_enable_sparse: 1]
[enable_bundle: 1]
[use_missing: 1]
[zero_as_missing: 0]
[feature_pre_filter: 1]
[pre_partition: 0]
[two_round: 0]
[header: 0]
[label_column: ]
[weight_column: ]
[group_column: ]
[ignore_column: ]
[categorical_feature: ]
[forcedbins_filename: ]
[precise_float_parser: 0]
[parser_config_file: ]
[objective_seed: 5]
[num_class: 1]
[is_unbalance: 0]
[scale_pos_weight: 1.55]
[sigmoid: 1]
[boost_from_average: 1]
[reg_sqrt: 0]
[alpha: 0.9]
[fair_c: 1]
[poisson_max_delta_step: 0.7]
[tweedie_variance_power: 1.5]
[lambdarank_truncation_level: 30]
[lambdarank_norm: 1]
[label_gain: ]
[lambdarank_position_bias_regularization: 0]
[eval_at: ]
[multi_error_top_k: 1]
[auc_mu_weights: ]
[num_machines: 1]
[local_listen_port: 12400]
[time_out: 120]
[machine_list_filename: ]
[machines: ]
[gpu_platform_id: -1]
[gpu_device_id: -1]
[gpu_use_dp: 0]
[num_gpu: 1]

end of parameters

pandas_categorical:null
