tree
version=v4
num_class=1
num_tree_per_iteration=1
label_index=0
max_feature_idx=29
objective=binary sigmoid:1
feature_names=rsi_14 rsi_7 rsi_slope macd_hist macd_hist_delta macd_signal bb_position bb_width momentum_1bar momentum_3bar momentum_5bar momentum_10bar volume_ratio volume_trend volatility_5bar volatility_20bar vol_ratio atr_14 atr_ratio candle_body_ratio upper_wick_ratio lower_wick_ratio consec_direction close_vs_open hour_sin hour_cos returns_std_10 returns_skew_10 high_low_range close_position_in_range
feature_infos=[-2.1870241413297262:2.5531123287305912] [-2.2450816664693436:2.2126588156357894] [-3.4058380356999089:3.3333786154295799] [-4.3026866648742024:3.653101835730971] [-6.5988559259788246:3.5701521449084206] [-2.9367144732778909:3.6785374521295759] [-3.0356872357530049:2.769121475940759] [-1.1877885989357102:3.7457983957577397] [-6.7576768118511277:5.2005084966531516] [-5.2637558045662969:3.2683135224789188] [-4.9146131723658915:4.0271487262593304] [-4.5219858346476567:4.3280409050378337] [-0.90076234152506174:10.693394829863955] [-1.8580877501767501:4.6916896149964034] [-1.5663324882419454:5.027815779393495] [-1.4311124640868316:2.8884187159102068] [-2.1120271559552277:2.9344200316854447] [-1.2110170155901132:3.6910046292609513] [-2.6797602872106201:3.1807634651847354] [-1.7903941982612281:1.6720417883337542] [-1.0377330691077022:3.0054147856227527] [-0.97115555266288356:3.2552173356290859] [-3.2203684792563863:5.1499463095085032] [-1.0849277463518243:0.92172036650605049] [-1.2452226391685786:1.7204865651093724] [-1.4201556323000479:1.3560067943981036] [-1.3515636166244895:3.36118513871642] [-3.0917889332584489:3.033303579459643] [-1.2707795955349654:4.234950112388816] [-1.708148729172255:1.6965862283422057]
tree_sizes=1384

Tree=0
num_leaves=12
num_cat=0
split_feature=25 0 11 12 11 13 25 16 7 12 13
split_gain=40.3703 21.2649 26.4957 17.0779 16.652 16.3339 15.1854 10.854 9.64848 9.64513 3.6174
threshold=1.3459440381697489 -1.3515288684312312 -0.98663424596145488 -0.11926345739731266 -0.81027951629584705 0.72563829925315371 -1.045124751545834 -1.329806469444712 -0.70196000963948235 -0.23773395788413137 -0.67522479204186647
decision_type=2 2 2 2 2 2 2 2 2 2 2
left_child=1 5 3 -3 -4 7 -7 -1 9 -2 -10
right_child=8 2 4 -5 -6 6 -8 -9 10 -11 -12
leaf_value=0.021620257790521943 -0.013622662290609046 0.053484448591099507 -0.023872664603085382 0.015551709763102429 0.016474326101640881 0.025705753127993315 -0.013743646769499395 -0.03038112817654836 -0.0085126660633930342 0.034412179652329955 -0.042367407363618041
leaf_weight=3.850742936134341 10.144025027751921 28.065728664398193 8.3246205449104291 17.712116181850433 630.16155743598938 23.245313048362732 12.749678164720534 18.145428478717804 7.0924866199493399 4.6614411473274222 11.336528718471529
leaf_count=5 9 26 12 21 725 25 18 26 6 7 16
internal_value=0.0145332 0.0160052 0.0174955 0.0393121 0.0158826 -0.0012614 0.0115594 -0.0210217 -0.0173055 0.00230162 -0.031406
internal_weight=775.49 742.255 684.264 45.7778 638.486 57.9912 35.995 21.9962 33.2345 14.8055 18.429
internal_count=896 858 784 47 737 74 43 31 38 16 22
is_linear=0
shrinkage=1


end of trees

feature_importances:
momentum_10bar=2
volume_ratio=2
volume_trend=2
hour_cos=2
rsi_14=1
bb_width=1
vol_ratio=1

parameters:
[boosting: gbdt]
[objective: binary]
[metric: binary_logloss]
[tree_learner: serial]
[device_type: cpu]
[data_sample_strategy: bagging]
[data: ]
[valid: ]
[num_iterations: 500]
[learning_rate: 0.03]
[num_leaves: 31]
[num_threads: 0]
[seed: 0]
[deterministic: 0]
[force_col_wise: 0]
[force_row_wise: 0]
[histogram_pool_size: -1]
[max_depth: 4]
[min_data_in_leaf: 5]
[min_sum_hessian_in_leaf: 0.001]
[bagging_fraction: 0.75]
[pos_bagging_fraction: 1]
[neg_bagging_fraction: 1]
[bagging_freq: 5]
[bagging_seed: 3]
[bagging_by_query: 0]
[feature_fraction: 0.75]
[feature_fraction_bynode: 1]
[feature_fraction_seed: 2]
[extra_trees: 0]
[extra_seed: 6]
[early_stopping_round: 0]
[early_stopping_min_delta: 0]
[first_metric_only: 0]
[max_delta_step: 0]
[lambda_l1: 0.2]
[lambda_l2: 1]
[linear_lambda: 0]
[min_gain_to_split: 0.01]
[drop_rate: 0.1]
[max_drop: 50]
[skip_drop: 0.5]
[xgboost_dart_mode: 0]
[uniform_drop: 0]
[drop_seed: 4]
[top_rate: 0.2]
[other_rate: 0.1]
[min_data_per_group: 100]
[max_cat_threshold: 32]
[cat_l2: 10]
[cat_smooth: 10]
[max_cat_to_onehot: 4]
[top_k: 20]
[monotone_constraints: ]
[monotone_constraints_method: basic]
[monotone_penalty: 0]
[feature_contri: ]
[forcedsplits_filename: ]
[refit_decay_rate: 0.9]
[cegb_tradeoff: 1]
[cegb_penalty_split: 0]
[cegb_penalty_feature_lazy: ]
[cegb_penalty_feature_coupled: ]
[path_smooth: 0]
[interaction_constraints: ]
[verbosity: -1]
[saved_feature_importance_type: 0]
[use_quantized_grad: 0]
[num_grad_quant_bins: 4]
[quant_train_renew_leaf: 0]
[stochastic_rounding: 1]
[linear_tree: 0]
[max_bin: 255]
[max_bin_by_feature: ]
[min_data_in_bin: 3]
[bin_construct_sample_cnt: 200000]
[data_random_seed: 1]
[is_enable_sparse: 1]
[enable_bundle: 1]
[use_missing: 1]
[zero_as_missing: 0]
[feature_pre_filter: 1]
[pre_partition: 0]
[two_round: 0]
[header: 0]
[label_column: ]
[weight_column: ]
[group_column: ]
[ignore_column: ]
[categorical_feature: ]
[forcedbins_filename: ]
[precise_float_parser: 0]
[parser_config_file: ]
[objective_seed: 5]
[num_class: 1]
[is_unbalance: 0]
[scale_pos_weight: 1.04638]
[sigmoid: 1]
[boost_from_average: 1]
[reg_sqrt: 0]
[alpha: 0.9]
[fair_c: 1]
[poisson_max_delta_step: 0.7]
[tweedie_variance_power: 1.5]
[lambdarank_truncation_level: 30]
[lambdarank_norm: 1]
[label_gain: ]
[lambdarank_position_bias_regularization: 0]
[eval_at: ]
[multi_error_top_k: 1]
[auc_mu_weights: ]
[num_machines: 1]
[local_listen_port: 12400]
[time_out: 120]
[machine_list_filename: ]
[machines: ]
[gpu_platform_id: -1]
[gpu_device_id: -1]
[gpu_use_dp: 0]
[num_gpu: 1]

end of parameters

pandas_categorical:null
