tree
version=v4
num_class=1
num_tree_per_iteration=1
label_index=0
max_feature_idx=29
objective=binary sigmoid:1
feature_names=rsi_14 rsi_7 rsi_slope macd_hist macd_hist_delta macd_signal bb_position bb_width momentum_1bar momentum_3bar momentum_5bar momentum_10bar volume_ratio volume_trend volatility_5bar volatility_20bar vol_ratio atr_14 atr_ratio candle_body_ratio upper_wick_ratio lower_wick_ratio consec_direction close_vs_open hour_sin hour_cos returns_std_10 returns_skew_10 high_low_range close_position_in_range
feature_infos=[-2.3891752025564377:2.330893177037161] [-2.2606170692093981:2.1912730349622063] [-2.9888935987698773:2.8819838177038224] [-3.8875036455066581:2.7323476186906119] [-4.9271779415085382:4.2407092803972333] [-2.9288845599486701:3.271406575594908] [-2.8364318055040156:2.6231223481527808] [-1.3884337745330875:4.480615812291024] [-5.175152562709382:5.1344264721878048] [-5.4440173320595617:4.5816468846680616] [-5.3308361782314719:4.1766869544078773] [-4.3103456100440027:3.7764110236937731] [-1.070626346295851:8.9877451368200525] [-1.7237275167067061:3.6980351137245031] [-1.4158937535815963:5.4384220992203263] [-1.6713797577866907:3.9208583202991392] [-2.1221140748006393:2.7312886323322507] [-1.5989569033518141:4.6310455544051834] [-2.2751291247994683:3.0904890340768643] [-1.7654832360490123:2.0649989142286387] [-1.2519231709867074:3.278438160516211] [-1.2588504203685833:3.0392930775758362] [-3.4783016502539357:4.3063298721081846] [-1.0090295285912965:0.99105127418432459] [-1.4010271416206077:1.4256767052464574] [-1.4069155873498003:1.4235513822364811] [-1.4677620828831106:4.9684244889539269] [-2.9799063263374115:2.8518930143983017] [-1.5922052505618491:3.395615562263385] [-1.7753327993159411:1.6526212638870696]
tree_sizes=1478 1291 1485 1695

Tree=0
num_leaves=13
num_cat=0
split_feature=1 16 12 22 11 13 13 29 4 12 9 0
split_gain=32.4945 23.6163 21.3774 23.9473 23.4217 16.1856 22.4429 17.0095 10.9198 12.9263 5.29581 4.15566
threshold=-1.5037893432513354 -0.92307065830545543 -0.68614922241061505 1.4952129334774187 0.14990917039071647 -0.49828047349622723 -1.2034511670071979 1.3039180539044171 -0.78994003339567553 0.6043136086901354 -0.3292159946847249 -1.3007786391111897
decision_type=2 2 2 2 2 2 2 2 2 2 2 2
left_child=8 5 4 -4 -3 6 -2 -7 9 -1 -10 -11
right_child=1 2 3 -5 -6 7 -8 -9 10 11 -12 -13
leaf_value=-0.10527729412198739 -0.093797127874239036 -0.13170366835354644 -0.1287365827587254 -0.16585341742906279 -0.17441200535035639 -0.083430358581865663 -0.13867773165438788 -0.13755708360389837 -0.19092164879443491 -0.14036842828384677 -0.15024413335019868 -0.18322470602304144
leaf_weight=4.4366831779479998 12.88313767313957 22.129502385854721 257.48929384350777 15.631526231765745 22.12180483341217 19.906258910894397 37.478783190250397 7.4219746589660636 10.448520183563231 4.0841487646102905 5.1733048856258383 3.731614351272583
leaf_count=5 15 27 324 20 30 23 50 9 14 5 7 5
internal_value=-0.132658 -0.130423 -0.134118 -0.130968 -0.153204 -0.115672 -0.126399 -0.097304 -0.163369 -0.141289 -0.179222 -0.164062
internal_weight=422.937 395.062 317.372 273.121 44.2513 77.6902 50.3619 27.3282 27.8743 12.2524 15.6218 7.81576
internal_count=534 498 401 344 57 97 65 32 36 15 21 10
is_linear=0
shrinkage=1


Tree=1
num_leaves=11
num_cat=0
split_feature=9 4 18 19 11 5 9 4 5 0
split_gain=31.6891 23.8228 21.2206 25.6447 39.3961 19.4086 24.66 22.26 17.8765 8.41228
threshold=-0.73797730757641677 -1.1764392454503214 -0.50337963765763261 0.17691008533787636 -0.038382587374974193 0.76787576769353838 -0.17730258737500196 -0.74239021045515718 0.77470350597724769 0.059825273707716529
decision_type=2 2 2 2 2 2 2 2 2 2
left_child=2 -2 9 8 -5 7 -7 -3 -4 -1
right_child=1 5 3 4 -6 6 -8 -9 -10 -11
leaf_value=-0.05135325042335287 0.056993728010892933 -0.017932827304691198 -0.034179266787470311 0.034272393326986846 -0.037378217713655383 0.020024579789197822 -0.017630440025619649 0.015759827708409814 0.02358494919123693 -0.00037632368914843577
leaf_weight=11.942011117935182 9.0566762089729291 17.991308957338333 22.333460450172428 25.357516765594482 8.3788511753082258 22.978887498378754 43.882071763277054 251.91592478752136 5.1882882118225089 4.0873129963874808
leaf_count=16 10 24 29 29 11 27 60 317 6 5
internal_value=0.00738026 0.0112662 -0.00985252 -0.00149056 0.0157406 0.00985356 -0.0044963 0.0134339 -0.0226343 -0.0394924
internal_weight=423.112 345.825 77.2874 61.2581 33.7364 336.768 66.861 269.907 27.5217 16.0293
internal_count=534 438 96 75 40 428 87 341 35 21
is_linear=0
shrinkage=0.03


Tree=2
num_leaves=13
num_cat=0
split_feature=1 16 27 27 20 12 13 19 2 2 17 27
split_gain=30.2829 21.8259 23.037 22.9369 21.8519 15.4494 23.3614 19.3517 10.7435 10.1579 4.85541 1.76952
threshold=-1.5037893432513354 -0.92307065830545543 -0.12114914589396399 -0.95559467542950183 1.6435418489984877 -0.59195912021520203 -1.2034511670071979 -1.6510104328659405 -0.70534312424990497 -1.2241535401792967 -0.096677712957719195 -0.73418004601756792
decision_type=2 2 2 2 2 2 2 2 2 2 2 2
left_child=8 5 3 -3 -4 6 -2 -7 9 10 -1 -10
right_child=1 2 4 -5 -6 7 -8 -9 11 -11 -12 -13
leaf_value=-0.043989456925148801 0.047168165470679244 0.014020311964631084 0.015656587419296139 -0.011423288429153466 -0.029080041035842902 -0.023199004612889883 -0.0053394478765367397 0.042554224094212112 -0.013618943530726232 0.0204760668853128 0 -0.04910241708565178
leaf_weight=4.4636656641960135 9.4013067781925184 46.200390607118607 165.06006896495819 96.88315138220787 9.4522916972637159 3.7473073601722708 27.43659719824791 37.259008675813675 3.1507331728935233 6.8577562570571926 4.0712538957595816 9.2676915526390058
leaf_count=6 11 57 203 127 14 5 38 43 4 8 5 13
internal_value=0.00715456 0.00930865 0.00575525 -0.00312585 0.0130474 0.0234732 0.00879475 0.0359934 -0.0225258 -0.00465429 -0.0255054 -0.0422328
internal_weight=423.251 395.44 317.596 143.084 174.512 77.8442 36.8379 41.0063 27.8111 15.3927 8.53492 12.4184
internal_count=534 498 401 184 217 97 49 48 36 19 11 17
is_linear=0
shrinkage=0.03


Tree=3
num_leaves=15
num_cat=0
split_feature=9 21 18 5 9 5 20 19 27 18 3 2 9 16
split_gain=29.3357 23.2006 23.7258 23.4721 21.9052 28.5065 26.7569 19.0035 17.5138 17.0011 15.9347 14.4854 8.36281 5.64632
threshold=-0.73797730757641677 -0.22356116132412626 -0.50337963765763261 0.77470350597724769 -0.17730258737500196 0.76787576769353838 -0.68050327739335892 1.230320295181508 0.13460809559051715 -1.3463993837841743 0.027444565402024969 0.03657410212294019 -0.82765128133579313 -1.0000000180025095e-35
decision_type=2 2 2 2 2 2 2 2 2 2 2 2 2 2
left_child=1 2 -1 12 7 10 -7 9 -4 -2 -6 -9 -3 -5
right_child=4 3 8 13 5 6 -8 11 -10 -11 -12 -13 -14 -15
leaf_value=-0.036715550884208935 -0.025980384051912164 -0.047900015632433304 -0.0018595494121460522 -0.0084967775323066836 -0.00079810656289722442 -0.051324668822560642 -0.00085727574639400152 -0.046655335514657476 0.041064318348862205 0.028031520962700153 0.017283314990309804 0.013394766367755025 0 0.033974148577722678
leaf_weight=8.3591020107269269 4.6591988801956168 22.492699503898621 18.718890905380249 4.8435888290405273 69.807696431875229 12.59401088953018 31.997039973735809 5.2299686074256879 14.256568372249601 100.3132136464119 113.93246093392372 7.6144466996192932 4.0793330669403103 4.4468777179718
leaf_count=11 6 30 23 6 94 18 43 7 16 116 145 9 5 5
internal_value=0.00693397 -0.00965728 0.00553231 -0.0270025 0.0106686 0.00517115 -0.0160557 0.0211389 0.0171839 0.025355 0.0104141 -0.0122268 -0.0410119 0.0125749
internal_weight=423.345 77.1971 41.3346 35.8625 346.148 228.331 44.5911 117.817 32.9755 104.972 183.74 12.8444 26.572 9.29047
internal_count=534 96 50 46 438 300 61 138 39 122 239 16 35 11
is_linear=0
shrinkage=0.03


end of trees

feature_importances:
momentum_3bar=6
macd_signal=4
returns_skew_10=4
rsi_slope=3
macd_hist_delta=3
volume_ratio=3
volume_trend=3
vol_ratio=3
atr_ratio=3
candle_body_ratio=3
rsi_14=2
rsi_7=2
momentum_10bar=2
upper_wick_ratio=2
macd_hist=1
atr_14=1
lower_wick_ratio=1
consec_direction=1
close_position_in_range=1

parameters:
[boosting: gbdt]
[objective: binary]
[metric: binary_logloss]
[tree_learner: serial]
[device_type: cpu]
[data_sample_strategy: bagging]
[data: ]
[valid: ]
[num_iterations: 500]
[learning_rate: 0.03]
[num_leaves: 31]
[num_threads: 0]
[seed: 0]
[deterministic: 0]
[force_col_wise: 0]
[force_row_wise: 0]
[histogram_pool_size: -1]
[max_depth: 4]
[min_data_in_leaf: 5]
[min_sum_hessian_in_leaf: 0.001]
[bagging_fraction: 0.75]
[pos_bagging_fraction: 1]
[neg_bagging_fraction: 1]
[bagging_freq: 5]
[bagging_seed: 3]
[bagging_by_query: 0]
[feature_fraction: 0.75]
[feature_fraction_bynode: 1]
[feature_fraction_seed: 2]
[extra_trees: 0]
[extra_seed: 6]
[early_stopping_round: 0]
[early_stopping_min_delta: 0]
[first_metric_only: 0]
[max_delta_step: 0]
[lambda_l1: 0.2]
[lambda_l2: 1]
[linear_lambda: 0]
[min_gain_to_split: 0.01]
[drop_rate: 0.1]
[max_drop: 50]
[skip_drop: 0.5]
[xgboost_dart_mode: 0]
[uniform_drop: 0]
[drop_seed: 4]
[top_rate: 0.2]
[other_rate: 0.1]
[min_data_per_group: 100]
[max_cat_threshold: 32]
[cat_l2: 10]
[cat_smooth: 10]
[max_cat_to_onehot: 4]
[top_k: 20]
[monotone_constraints: ]
[monotone_constraints_method: basic]
[monotone_penalty: 0]
[feature_contri: ]
[forcedsplits_filename: ]
[refit_decay_rate: 0.9]
[cegb_tradeoff: 1]
[cegb_penalty_split: 0]
[cegb_penalty_feature_lazy: ]
[cegb_penalty_feature_coupled: ]
[path_smooth: 0]
[interaction_constraints: ]
[verbosity: -1]
[saved_feature_importance_type: 0]
[use_quantized_grad: 0]
[num_grad_quant_bins: 4]
[quant_train_renew_leaf: 0]
[stochastic_rounding: 1]
[linear_tree: 0]
[max_bin: 255]
[max_bin_by_feature: ]
[min_data_in_bin: 3]
[bin_construct_sample_cnt: 200000]
[data_random_seed: 1]
[is_enable_sparse: 1]
[enable_bundle: 1]
[use_missing: 1]
[zero_as_missing: 0]
[feature_pre_filter: 1]
[pre_partition: 0]
[two_round: 0]
[header: 0]
[label_column: ]
[weight_column: ]
[group_column: ]
[ignore_column: ]
[categorical_feature: ]
[forcedbins_filename: ]
[precise_float_parser: 0]
[parser_config_file: ]
[objective_seed: 5]
[num_class: 1]
[is_unbalance: 0]
[scale_pos_weight: 1.23618]
[sigmoid: 1]
[boost_from_average: 1]
[reg_sqrt: 0]
[alpha: 0.9]
[fair_c: 1]
[poisson_max_delta_step: 0.7]
[tweedie_variance_power: 1.5]
[lambdarank_truncation_level: 30]
[lambdarank_norm: 1]
[label_gain: ]
[lambdarank_position_bias_regularization: 0]
[eval_at: ]
[multi_error_top_k: 1]
[auc_mu_weights: ]
[num_machines: 1]
[local_listen_port: 12400]
[time_out: 120]
[machine_list_filename: ]
[machines: ]
[gpu_platform_id: -1]
[gpu_device_id: -1]
[gpu_use_dp: 0]
[num_gpu: 1]

end of parameters

pandas_categorical:null
