tree
version=v4
num_class=1
num_tree_per_iteration=1
label_index=0
max_feature_idx=29
objective=binary sigmoid:1
feature_names=rsi_14 rsi_7 rsi_slope macd_hist macd_hist_delta macd_signal bb_position bb_width momentum_1bar momentum_3bar momentum_5bar momentum_10bar volume_ratio volume_trend volatility_5bar volatility_20bar vol_ratio atr_14 atr_ratio candle_body_ratio upper_wick_ratio lower_wick_ratio consec_direction close_vs_open hour_sin hour_cos returns_std_10 returns_skew_10 high_low_range close_position_in_range
feature_infos=[-2.442917960154217:2.3357299262977711] [-2.3133893153456415:2.2219585066725127] [-3.0960393284314098:2.9846258295015264] [-4.021088238956799:2.7864553642330341] [-5.1160100619158335:4.3959244089439062] [-2.9407384165559529:3.2837542265102093] [-2.9402816276183614:2.665495914160362] [-1.3745950898152792:4.5677819653643885] [-5.4311626203666616:5.3647917975318125] [-5.8185051702784314:4.8823283313126264] [-5.5816213332136781:4.3587971688728882] [-4.4820553890933432:3.8773315728001783] [-1.0524463937449098:9.2625066686718931] [-1.6800910248510337:3.7436617119963773] [-1.4127455988463185:5.674953820537108] [-1.6688278979198081:4.0337582552723559] [-2.1036146201087917:2.7975775820555486] [-1.5785219659691665:4.7343503520185699] [-2.3292418358388605:3.1616238177040588] [-1.7573371310885746:2.0759391144491968] [-1.2450700259805276:3.2225513024034784] [-1.261091052642318:3.0412557426188429] [-3.5772463947678967:4.449812863889206] [-1.0072502243995893:0.99280196298402146] [-1.4212506799966587:1.4195495463457839] [-1.4210900886674398:1.3953582893981371] [-1.4613122038819659:5.1638852133218069] [-3.0847443344322736:2.895689387923519] [-1.5695843084899661:3.5097063987564869] [-1.8381368776815445:1.6622413908818667]
tree_sizes=850 990 877 975 986 992 960 986 957 991 854 858 880 857

Tree=0
num_leaves=7
num_cat=0
split_feature=14 17 17 11 5 3
split_gain=28.4003 8.269 6.73095 5.29419 3.73262 3.29946
threshold=-0.29443871303386865 0.49369898672336082 0.5547215843670531 -0.47727971770016792 1.5846339601066968 0.017431550018091733
decision_type=2 2 2 2 2 2
left_child=1 3 5 -1 -4 -2
right_child=2 -3 4 -5 -6 -7
leaf_value=0.50637674095724794 0.51919782638569933 0.53399706203427577 0.53840511535389202 0.47717674901356016 0.49876356960889595 0.50066028519410888
leaf_weight=8.295073986053465 15.669767618179323 2.0819237828254691 13.996772408485411 36.151143878698349 1.5052297115325917 16.205685257911682
leaf_count=48 96 14 92 187 8 92
internal_value=0.50142 0.485011 0.517621 0.482135 0.533304 0.50992
internal_weight=93.9056 46.5281 47.3775 44.4462 15.502 31.8755
internal_count=537 249 288 235 100 188
is_linear=0
shrinkage=1


Tree=1
num_leaves=8
num_cat=0
split_feature=14 15 17 11 18 10 9
split_gain=26.4954 8.19455 6.4682 5.09915 4.25646 4.21373 3.15686
threshold=-0.29443871303386865 0.37409799818020478 -0.46378969025035238 -0.47727971770016792 -0.35670352160989122 0.31726645933303482 0.71321432830497555
decision_type=2 2 2 2 2 2 2
left_child=1 3 6 -1 -3 -4 -2
right_child=2 4 5 -5 -6 -7 -8
leaf_value=-0.0062649337591044151 -0.030613464340914442 0.030604271654457393 0.014955999260453878 -0.037219071187487081 -0.015301564230180184 -0.005408414417075502 0.0050343507126372651
leaf_weight=6.8954593241214743 5.6006003767251951 2.2757034301757812 27.207720696926117 34.763492912054062 2.9265288263559333 12.109336897730826 2.4143140017986298
leaf_count=40 29 16 173 177 16 71 15
internal_value=-0.0124304 -0.0281936 0.00325034 -0.0325734 0.00502537 0.00848212 -0.0195097
internal_weight=94.1932 46.8612 47.332 41.659 5.20223 39.3171 8.01491
internal_count=537 249 288 217 32 244 44
is_linear=0
shrinkage=0.03


Tree=2
num_leaves=7
num_cat=0
split_feature=17 16 8 17 0 18
split_gain=24.8612 7.92586 6.64602 5.64771 3.22578 1.90478
threshold=0.5547215843670531 -0.089815215546549906 0.40405280272336253 -0.46378969025035238 1.66780930378234 -0.57521483445102151
decision_type=2 2 2 2 2 2
left_child=1 2 -1 -3 5 -2
right_child=4 3 -4 -5 -6 -7
leaf_value=-0.019027532215493335 0.0078498891691647053 -0.021094694019973631 -0.046920329005108834 0.0028238624226389251 -0.011834448830450248 0.032740192977336185
leaf_weight=31.830414146184921 6.5052992105484018 14.601628139615057 11.93397083878517 18.904995501041412 1.6525760740041722 9.0111086070537567
leaf_count=174 41 79 57 115 9 62
internal_value=-0.0120407 -0.019336 -0.0277128 -0.00764788 0.0195547 0.0239569
internal_weight=94.44 77.271 43.7644 33.5066 17.169 15.5164
internal_count=537 425 231 194 112 103
is_linear=0
shrinkage=0.03


Tree=3
num_leaves=8
num_cat=0
split_feature=17 5 5 11 20 24 27
split_gain=23.4502 7.231 7.79337 2.88905 4.29997 2.80408 0.81234
threshold=0.5547215843670531 1.0081715022460582 0.63151573927633653 -0.14889014499000011 0.13912991496488744 -0.50091868859265354 -1.5333727272131903
decision_type=2 2 2 2 2 2 2
left_child=1 2 -1 6 -5 -3 -2
right_child=3 5 -4 4 -6 -7 -8
leaf_value=-0.016783134786119046 0.0085344119599088733 -0.0087787664359941925 -0.045653000751746144 0.020419644522903482 -0.017937012575978371 0.023968182783576254 0.038205313745626017
leaf_weight=60.3084876537323 2.7948792278766632 3.3629157543182373 10.143529027700422 5.5680376440286619 3.2640606313943863 3.7683878540992728 5.4523955732584017
leaf_count=333 18 19 48 37 18 25 39
internal_value=-0.0116677 -0.0187151 -0.0216465 0.0191121 0.0049463 0.00823836 0.0311338
internal_weight=94.6627 77.5833 70.452 17.0794 8.8321 7.1313 8.24727
internal_count=537 425 381 112 55 44 57
is_linear=0
shrinkage=0.03


Tree=4
num_leaves=8
num_cat=0
split_feature=14 15 26 11 19 18 13
split_gain=22.7002 7.26643 5.58 4.60932 4.28651 3.98148 2.95145
threshold=-0.29443871303386865 0.37409799818020478 0.67621267894107195 -0.47727971770016792 -1.0750241590718523 -0.35670352160989122 2.1662783043546532
decision_type=2 2 2 2 2 2 2
left_child=1 3 4 -1 -2 -3 -4
right_child=2 5 6 -5 -6 -7 -8
leaf_value=-0.0050397179249756334 0.020837132689682038 0.030211813494462135 0.024190296207111932 -0.034146122345093115 -0.0080480274306749949 -0.014126019301551034 -0.0070319020645166729
leaf_weight=6.968783736228942 4.4007681757211676 2.2589439451694489 12.043537497520445 35.391656741499901 28.420302525162697 2.9578874111175528 2.4428838640451422
leaf_count=40 29 16 81 177 164 16 14
internal_value=-0.0112861 -0.0257167 0.00327233 -0.029792 -0.00340731 0.00539655 0.01823
internal_weight=94.8848 47.5773 47.3075 42.3604 32.8211 5.21683 14.4864
internal_count=537 249 288 217 193 32 95
is_linear=0
shrinkage=0.03


Tree=5
num_leaves=8
num_cat=0
split_feature=14 11 19 10 10 11 10
split_gain=15.2468 5.56381 5.16638 4.6313 9.71874 4.35281 3.57844
threshold=-0.29443871303386865 -0.47727971770016792 -0.31455148560215501 -0.14537177646530769 1.0889364269654682 0.88789064464909606 -1.8000758483210866
decision_type=2 2 2 2 2 2 2
left_child=1 2 -1 6 -5 -3 -2
right_child=3 5 -4 4 -6 -7 -8
leaf_value=0.021608126168675256 -0.010088337453042185 -0.034323820197385474 -0.019642611433518298 -0.021147186846904531 0.017929486643859051 -0.0018672261540649444 0.016017825684869608
leaf_weight=3.3417987078428268 5.4605740755796459 34.805398687720299 6.1451596766710264 19.002419546246532 6.9245911985635749 4.9453181475400916 15.057727023959158
leaf_count=22 32 173 33 104 45 28 97
internal_value=-0.0143199 -0.0257896 -0.00357887 -0.00168357 -0.0100981 -0.0306517 0.00850594
internal_weight=95.683 49.2377 9.48696 46.4453 25.927 39.7507 20.5183
internal_count=534 256 55 278 149 201 129
is_linear=0
shrinkage=0.03


Tree=6
num_leaves=8
num_cat=0
split_feature=14 27 4 21 14 10 21
split_gain=14.2732 6.43749 5.03726 4.78801 4.99963 4.4121 3.99993
threshold=-0.29443871303386865 -0.78178149341121894 0.30265252845383528 -0.67239347348694467 0.97582848938824396 -1.1378865431006899 -0.32247910703929988
decision_type=2 2 2 2 2 2 2
left_child=1 2 -1 4 -2 -3 -5
right_child=3 5 -4 6 -6 -7 -8
leaf_value=0.026858621230012522 -0.022513845972416544 0.017949508227993068 -0.017210307030304402 0.027895860534503134 0.009291140027508275 -0.031129090168596139 0
leaf_weight=2.8493932932615271 13.497926190495493 0.86508889496326347 4.930698499083519 4.9663368016481426 5.2841985970735541 40.816588535904884 22.711699038743973
leaf_count=19 73 6 26 34 34 205 137
internal_value=-0.0138667 -0.0249281 0 -0.00162395 -0.0130935 -0.0295029 0.00603052
internal_weight=95.9219 49.4618 7.78009 46.4602 18.7821 41.6817 27.678
internal_count=534 256 45 278 107 211 171
is_linear=0
shrinkage=0.03


Tree=7
num_leaves=8
num_cat=0
split_feature=28 18 11 21 19 26 18
split_gain=14.2927 7.85882 8.69152 5.61125 4.63265 5.8213 3.83085
threshold=-0.01904265008274909 0.80338437854909961 -0.44215679479305664 -0.94184376542287496 1.272175640453405 0.73836037781709274 2.2196308095774566
decision_type=2 2 2 2 2 2 2
left_child=1 2 -1 -3 6 -6 -2
right_child=4 3 -4 -5 5 -7 -8
leaf_value=0.0010067870241750104 0.008175029128102489 -0.026729138652756258 -0.032505083261631193 0.019020780350408179 -0.046035394037082462 0.0094631042046376904 -0.027254364938642379
leaf_weight=7.6354611068963996 31.27182511985302 2.6517753452062607 41.711333721876144 5.9308276772499067 2.8941618353128424 2.1207088232040405 1.9392526894807804
leaf_count=45 194 13 207 38 13 14 10
internal_value=-0.0134058 -0.0226783 -0.027224 0.00263195 0.000636771 -0.0233983 0.00510699
internal_weight=96.1553 57.9294 49.3468 8.5826 38.2259 5.01487 33.2111
internal_count=534 303 252 51 231 27 204
is_linear=0
shrinkage=0.03


Tree=8
num_leaves=8
num_cat=0
split_feature=14 27 4 21 26 5 21
split_gain=12.8205 5.85681 4.75727 4.36764 6.91332 3.93781 3.77341
threshold=-0.29443871303386865 -0.78178149341121894 0.30265252845383528 -0.67239347348694467 1.5647601867160537 -1.6562192060665952 -0.32247910703929988
decision_type=2 2 2 2 2 2 2
left_child=1 2 -1 4 -2 -3 -5
right_child=3 5 -4 6 -6 -7 -8
leaf_value=0.026458271412847498 -0.020311743115236026 0.0082967292086411244 -0.016377156436217712 0.027270575932106106 0.023968724295105666 -0.02977164666556361 0
leaf_weight=2.8345462232828131 16.035131022334102 1.80611091852188 4.9550263285636902 4.9208182543516186 2.8454849421977988 40.213856995105743 22.722402095794678
leaf_count=19 87 11 26 34 20 200 137
internal_value=-0.0130047 -0.0234364 0 -0.00138867 -0.0123156 -0.0277714 0.00592974
internal_weight=96.3334 49.8095 7.78957 46.5238 18.8806 42.02 27.6432
internal_count=534 256 45 278 107 211 171
is_linear=0
shrinkage=0.03


Tree=9
num_leaves=8
num_cat=0
split_feature=28 11 11 18 18 21 21
split_gain=12.8618 6.69945 7.06338 4.54814 5.62015 4.07126 1.43144
threshold=-0.70991564117345696 -0.48401425738894632 0.88789064464909606 -0.32467954473375749 -0.11053218884316535 -1.1035719972409732 1.1594514000609251
decision_type=2 2 2 2 2 2 2
left_child=3 5 -3 6 -5 -2 -1
right_child=1 2 -4 4 -6 -7 -8
leaf_value=-0.049029297726795776 -0.017047417199346139 -0.018117999180414707 0.006489639579033174 0.018156446969642945 -0.026398767762429595 0.013872295677702854 -0.0093934865782824926
leaf_weight=10.285768061876299 3.701781332492831 39.805733099579811 12.917984172701834 2.5588033944368362 7.6052271425724012 17.525906145572662 2.1154679507017127
leaf_count=45 20 214 78 16 38 112 11
internal_value=-0.0125753 -0.00617936 -0.0119127 -0.0320026 -0.0137542 0.00755111 -0.0441451
internal_weight=96.5167 73.9514 52.7237 22.5653 10.164 21.2277 12.4012
internal_count=534 424 292 110 54 132 56
is_linear=0
shrinkage=0.03


Tree=10
num_leaves=7
num_cat=0
split_feature=26 11 26 3 18 15
split_gain=16.0995 7.72942 8.00917 5.03886 3.76657 2.19358
threshold=0.92913682631677397 -0.4687924229439136 0.15672045881392799 1.7530244379257438 2.2196308095774566 2.3406456599007535
decision_type=2 2 2 2 2 2
left_child=1 2 -1 -3 5 -2
right_child=4 3 -4 -5 -6 -7
leaf_value=0.019556801854714131 0.032075616067565614 -0.020831817783573441 -0.017737059386680135 0.019271869299181236 -0.013302112790247298 0
leaf_weight=10.064879879355432 9.1324136257171613 68.112605348229408 8.6681423485279065 1.9560343921184529 1.6209865659475315 1.7845180630683888
leaf_count=64 64 355 48 13 9 11
internal_value=-0.0102247 -0.0147978 0.00181975 -0.0193302 0.0202006 0.0266292
internal_weight=101.34 88.8017 18.733 70.0686 12.5379 10.9169
internal_count=564 480 112 368 84 75
is_linear=0
shrinkage=0.03


Tree=11
num_leaves=7
num_cat=0
split_feature=26 11 14 14 18 15
split_gain=15.159 7.23566 8.01027 7.15944 3.62485 2.11887
threshold=0.92913682631677397 -0.4687924229439136 0.19389323481520451 -0.56903376565728458 2.2196308095774566 2.3406456599007535
decision_type=2 2 2 2 2 2
left_child=1 2 -1 -3 5 -2
right_child=4 3 -4 -5 -6 -7
leaf_value=0.015815512263487597 0.031484563878615562 -0.030484360356601237 -0.023156700733438597 -0.010219446232409111 -0.013025334300928157 0
leaf_weight=12.43458265066147 9.0448409765958768 27.847810462117195 6.2910019159317008 42.432622343301773 1.6269263476133335 1.7845180630683888
leaf_count=78 64 134 34 234 9 11
internal_value=-0.00989876 -0.0143171 0.00175606 -0.0186905 0.0197213 0.026087
internal_weight=101.462 89.006 18.7256 70.2804 12.4563 10.8294
internal_count=564 480 112 368 84 75
is_linear=0
shrinkage=0.03


Tree=12
num_leaves=7
num_cat=0
split_feature=17 11 17 14 5 9
split_gain=13.6441 7.30906 7.59776 6.03415 3.27418 3.4773
threshold=0.60174552413200799 -0.4687924229439136 0.3450276366489558 -0.56903376565728458 1.9485756728086285 -1.0518375904021353
decision_type=2 2 2 2 2 2
left_child=1 2 -1 -3 5 -2
right_child=4 3 -4 -5 -6 -7
leaf_value=0.013723292554263602 -0.0044917435794596897 -0.029908129559461698 -0.027220709032787054 -0.010738261438660197 -0.014266084722582542 0.026972412919516232
leaf_weight=13.449828758835794 3.2880888581275949 27.407111138105392 4.6454992890357962 39.34716260433197 2.0270290225744239 11.367820218205452
leaf_count=84 20 131 24 215 11 79
internal_value=-0.0096076 -0.0145282 0.00186563 -0.0190669 0.0143158 0.0195025
internal_weight=101.533 84.8496 18.0953 66.7543 16.6829 14.6559
internal_count=564 454 108 346 110 99
is_linear=0
shrinkage=0.03


Tree=13
num_leaves=7
num_cat=0
split_feature=11 10 16 20 24 6
split_gain=11.0197 8.60143 6.11208 5.51579 5.56924 1.6766
threshold=-0.48401425738894632 1.2196779133070255 1.7995370975546401 0.96119201674836363 -1.3294996946432842 1.3832686234910774
decision_type=2 2 2 2 2 2
left_child=3 2 -2 4 -1 -3
right_child=1 5 -4 -5 -6 -7
leaf_value=0.032188467562630392 -0.020029494167599016 0.024413286795541601 0.022105347925388544 0.036054552653599629 -0.0065219123783019136 0
leaf_weight=3.115913659334189 67.42346279323101 3.9786883592605573 2.2475190609693518 4.0469638109207144 16.659526601433754 4.100244477391243
leaf_count=23 349 27 15 29 97 24
internal_value=-0.00933346 -0.0148017 -0.0182494 0.00802811 0.000400043 0.0126742
internal_weight=101.572 77.7499 69.671 23.8224 19.7754 8.07893
internal_count=564 415 364 149 120 51
is_linear=0
shrinkage=0.03


end of trees

feature_importances:
momentum_10bar=13
volatility_5bar=10
atr_ratio=9
atr_14=8
lower_wick_ratio=7
momentum_5bar=6
returns_std_10=6
macd_signal=5
volatility_20bar=4
candle_body_ratio=3
returns_skew_10=3
macd_hist=2
macd_hist_delta=2
momentum_3bar=2
vol_ratio=2
upper_wick_ratio=2
hour_sin=2
high_low_range=2
rsi_14=1
bb_position=1
momentum_1bar=1
volume_trend=1

parameters:
[boosting: gbdt]
[objective: binary]
[metric: auc]
[tree_learner: serial]
[device_type: cpu]
[data_sample_strategy: bagging]
[data: ]
[valid: ]
[num_iterations: 300]
[learning_rate: 0.03]
[num_leaves: 20]
[num_threads: 0]
[seed: 0]
[deterministic: 0]
[force_col_wise: 0]
[force_row_wise: 0]
[histogram_pool_size: -1]
[max_depth: 3]
[min_data_in_leaf: 10]
[min_sum_hessian_in_leaf: 0.001]
[bagging_fraction: 0.7]
[pos_bagging_fraction: 1]
[neg_bagging_fraction: 1]
[bagging_freq: 5]
[bagging_seed: 3]
[bagging_by_query: 0]
[feature_fraction: 0.7]
[feature_fraction_bynode: 1]
[feature_fraction_seed: 2]
[extra_trees: 0]
[extra_seed: 6]
[early_stopping_round: 0]
[early_stopping_min_delta: 0]
[first_metric_only: 0]
[max_delta_step: 0]
[lambda_l1: 0.3]
[lambda_l2: 1]
[linear_lambda: 0]
[min_gain_to_split: 0]
[drop_rate: 0.1]
[max_drop: 50]
[skip_drop: 0.5]
[xgboost_dart_mode: 0]
[uniform_drop: 0]
[drop_seed: 4]
[top_rate: 0.2]
[other_rate: 0.1]
[min_data_per_group: 100]
[max_cat_threshold: 32]
[cat_l2: 10]
[cat_smooth: 10]
[max_cat_to_onehot: 4]
[top_k: 20]
[monotone_constraints: ]
[monotone_constraints_method: basic]
[monotone_penalty: 0]
[feature_contri: ]
[forcedsplits_filename: ]
[refit_decay_rate: 0.9]
[cegb_tradeoff: 1]
[cegb_penalty_split: 0]
[cegb_penalty_feature_lazy: ]
[cegb_penalty_feature_coupled: ]
[path_smooth: 0]
[interaction_constraints: ]
[verbosity: -1]
[saved_feature_importance_type: 0]
[use_quantized_grad: 0]
[num_grad_quant_bins: 4]
[quant_train_renew_leaf: 0]
[stochastic_rounding: 1]
[linear_tree: 0]
[max_bin: 255]
[max_bin_by_feature: ]
[min_data_in_bin: 3]
[bin_construct_sample_cnt: 200000]
[data_random_seed: 1]
[is_enable_sparse: 1]
[enable_bundle: 1]
[use_missing: 1]
[zero_as_missing: 0]
[feature_pre_filter: 1]
[pre_partition: 0]
[two_round: 0]
[header: 0]
[label_column: ]
[weight_column: ]
[group_column: ]
[ignore_column: ]
[categorical_feature: ]
[forcedbins_filename: ]
[precise_float_parser: 0]
[parser_config_file: ]
[objective_seed: 5]
[num_class: 1]
[is_unbalance: 0]
[scale_pos_weight: 0.606965]
[sigmoid: 1]
[boost_from_average: 1]
[reg_sqrt: 0]
[alpha: 0.9]
[fair_c: 1]
[poisson_max_delta_step: 0.7]
[tweedie_variance_power: 1.5]
[lambdarank_truncation_level: 30]
[lambdarank_norm: 1]
[label_gain: ]
[lambdarank_position_bias_regularization: 0]
[eval_at: ]
[multi_error_top_k: 1]
[auc_mu_weights: ]
[num_machines: 1]
[local_listen_port: 12400]
[time_out: 120]
[machine_list_filename: ]
[machines: ]
[gpu_platform_id: -1]
[gpu_device_id: -1]
[gpu_use_dp: 0]
[num_gpu: 1]

end of parameters

pandas_categorical:null
