tree
version=v4
num_class=1
num_tree_per_iteration=1
label_index=0
max_feature_idx=29
objective=binary sigmoid:1
feature_names=rsi_14 rsi_7 rsi_slope macd_hist macd_hist_delta macd_signal bb_position bb_width momentum_1bar momentum_3bar momentum_5bar momentum_10bar volume_ratio volume_trend volatility_5bar volatility_20bar vol_ratio atr_14 atr_ratio candle_body_ratio upper_wick_ratio lower_wick_ratio consec_direction close_vs_open hour_sin hour_cos returns_std_10 returns_skew_10 high_low_range close_position_in_range
feature_infos=[-2.7518727588986454:2.6087097781383086] [-2.3898302464705337:2.3369954093739378] [-3.4562074812026831:4.237367321979514] [-2.7974443345675657:3.6661475723106873] [-5.7383557042028119:5.0626479080455056] [-3.1799359122295852:2.0396359565973663] [-2.6448884958530452:3.1089349433197233] [-1.3188135443946207:3.1430191613799532] [-5.7069971479666073:6.4295471408384097] [-4.320756934850138:4.7779386923170479] [-4.6907421261234408:3.6043373866525688] [-3.7998653190892688:4.9564069242591824] [-0.88973668700719544:7.7847004356071512] [-1.4728300320333607:3.5676161481685185] [-1.2751384225511739:4.6087920173425161] [-1.3440679645862548:3.1704981678533071] [-2.1733573266241515:3.1147461835974282] [-1.13567219208965:2.9481984079689632] [-2.3760780675728408:3.886942389108722] [-1.8179950602562134:1.8494823790323209] [-1.08371374556962:3.2779910222686506] [-1.0830995780375161:3.0134694897574232] [-3.7109165744212178:3.6510860576743118] [-1.0213846931269461:0.98007489765163991] [-1.3413238740386466:1.502931853572739] [-1.5086737608702678:1.3250758658374602] [-1.3433982322188163:3.6459103608806003] [-3.0362194282222177:3.2806808463276815] [-1.3395534805566083:2.8718005924546204] [-1.8790898264313349:1.7755548669228991]
tree_sizes=979 983 981 872 980 880 964 979 860 866 977 982 877 979 853 977 982 979 861 975 976 972 881 884 883 955 987 984 885 888

Tree=0
num_leaves=8
num_cat=0
split_feature=17 20 25 3 26 20 7
split_gain=59.4017 13.9681 13.554 10.3939 8.29535 5.56734 4.88253
threshold=1.0000000180025095e-35 -0.012753089957934062 0.54865489528177902 -0.51461913054781372 2.2861009258668195 -0.51136973113665107 -0.36749360151378035
decision_type=2 2 2 2 2 2 2
left_child=1 5 4 -3 -2 -1 -4
right_child=2 3 6 -5 -6 -7 -8
leaf_value=-0.58718307042415241 -0.53238660885792588 -0.54662719273623317 -0.60599057973368808 -0.58036799043876053 -0.57973715456100694 -0.60729848132883935 -0.56483085199921179
leaf_weight=43.536723554134369 36.423345386981964 10.663010537624357 2.9183583855628967 32.619663834571838 4.4862783551216117 16.916085720062256 6.2838690876960737
leaf_count=162 107 33 12 118 16 68 21
internal_value=-0.570863 -0.584023 -0.544378 -0.571138 -0.537077 -0.593204 -0.579389
internal_weight=153.847 103.735 50.1119 43.2827 40.9096 60.4528 9.20223
internal_count=537 381 156 151 123 230 33
is_linear=0
shrinkage=1


Tree=1
num_leaves=8
num_cat=0
split_feature=17 19 25 11 2 26 2
split_gain=55.0766 14.3787 12.431 11.5422 9.83296 7.52135 6.18442
threshold=1.0000000180025095e-35 0.83992168523244148 0.54865489528177902 -0.12697110231007588 1.1209150147513423 2.2861009258668195 0.40480041317412457
decision_type=2 2 2 2 2 2 2
left_child=1 3 5 -1 -3 -2 -4
right_child=2 4 6 -5 -6 -7 -8
leaf_value=0.021962824513987678 0.051850363533659571 -0.029156146343935437 -0.01653545405176271 -0.00064021079029732172 0.017018721087965389 0.0066667273126760724 0.027792994598403765
leaf_weight=32.274914130568504 36.965553224086761 16.86289440095425 4.2333418279886228 50.248464465141296 4.4162469655275336 4.4949958324432364 4.9909380227327347
leaf_count=109 107 70 17 187 15 16 16
internal_value=0.0152006 0.00248435 0.0405173 0.0082492 -0.0188354 0.0474361 0.00694136
internal_weight=154.487 103.803 50.6848 82.5234 21.2791 41.4605 9.22428
internal_count=537 381 156 296 85 123 33
is_linear=0
shrinkage=0.03


Tree=2
num_leaves=8
num_cat=0
split_feature=17 20 3 21 24 9 11
split_gain=51.2007 12.8521 9.5453 8.72933 6.7709 6.79163 3.70497
threshold=1.0000000180025095e-35 -0.012753089957934062 -0.73329752263830728 0.41074362858657737 -1.2144837680558853 0.51631207179487215 1.9000781536634059
decision_type=2 2 2 2 2 2 2
left_child=1 3 -3 -1 6 -6 -2
right_child=4 2 -4 -5 5 -7 -8
leaf_value=-0.016945770417186732 0.056949562458023351 0.044262419650006109 0.007577487443507832 0.0054488618910103663 0.03696466332225487 0.0043481556150973275 0.014768552104426886
leaf_weight=32.157942250370979 19.757686257362369 7.2130649238824835 36.330289125442505 28.164700448513031 18.185942262411121 9.5782859176397306 3.667551025748252
leaf_count=128 54 21 130 102 56 34 12
internal_value=0.0147044 0.00240714 0.0147138 -0.00642458 0.0389594 0.0265676 0.051589
internal_weight=155.055 103.866 43.5434 60.3226 51.1895 27.7642 23.4252
internal_count=537 381 151 230 156 90 66
is_linear=0
shrinkage=0.03


Tree=3
num_leaves=7
num_cat=0
split_feature=17 5 1 2 11 27
split_gain=47.8553 15.7182 14.4085 10.5324 4.74573 3.44953
threshold=0.52089792041842176 -0.17503302334584595 0.086012233238797364 1.0041070507145269 1.9000781536634059 -1.1307496615947892
decision_type=2 2 2 2 2 2
left_child=1 2 -1 -3 5 -2
right_child=4 3 -4 -5 -6 -7
leaf_value=0.03065584654805479 0.010876023623234976 -0.0083105098583855508 -0.003857558041481475 0.020847749251690754 0.011574468255600634 0.053252524478885684
leaf_weight=30.268375068902969 3.0625650435686138 62.875000894069672 15.728168815374373 12.425067514181135 4.77210509777069 26.403703689575195
leaf_count=97 10 240 59 42 16 73
internal_value=0.0142549 0.00518475 0.0188318 -0.00317105 0.0450733 0.0496451
internal_weight=155.535 121.297 45.9965 75.3001 34.2384 29.4663
internal_count=537 438 156 282 99 83
is_linear=0
shrinkage=0.03


Tree=4
num_leaves=8
num_cat=0
split_feature=17 19 25 11 2 26 2
split_gain=45.055 12.8901 10.5203 10.2446 9.28097 6.63719 5.8277
threshold=1.0000000180025095e-35 0.83992168523244148 0.54865489528177902 -0.12697110231007588 1.1209150147513423 2.2861009258668195 0.40480041317412457
decision_type=2 2 2 2 2 2 2
left_child=1 3 5 -1 -3 -2 -4
right_child=2 4 6 -5 -6 -7 -8
leaf_value=0.020469390950856117 0.046625747480543905 -0.028248136909819144 -0.0170343265395487 -0.00074157169250939803 0.016583373743548763 0.004907562643524677 0.025806890072933332
leaf_weight=32.644288569688797 38.07587856054306 16.637234032154087 4.2602525204420072 50.293035551905632 4.4353056997060767 4.5758915543556204 5.0751806348562241
leaf_count=109 107 70 17 187 15 16 16
internal_value=0.0138094 0.00222415 0.0363386 0.00764428 -0.0180805 0.0425712 0.00562886
internal_weight=155.997 104.01 51.9872 82.9373 21.0725 42.6518 9.33543
internal_count=537 381 156 296 85 123 33
is_linear=0
shrinkage=0.03


Tree=5
num_leaves=7
num_cat=0
split_feature=17 6 19 25 7 25
split_gain=33.5574 9.56517 10.6622 5.93052 7.51801 6.94452
threshold=1.0000000180025095e-35 1.6364073603221072 -1.384705104415868 0.62993813748664451 -0.36749360151378035 -1.4842985786914811
decision_type=2 2 2 2 2 2
left_child=1 2 -1 5 -5 -2
right_child=3 -3 -4 4 -6 -7
leaf_value=0.028304523773695411 -0.0057843138314367512 0.041174758985638708 -0.002707810142546297 -0.029804904909844984 0.023301863008310175 0.039019881569124296
leaf_weight=10.30802461504936 2.7064859867095938 4.6736561954021445 82.60343736410141 2.2956718653440475 7.4443567991256696 46.289778202772141
leaf_count=33 10 14 309 10 24 134
internal_value=0.0142997 0.00331995 0.000901764 0.0320298 0.00833723 0.0362988
internal_weight=156.321 97.5851 92.9115 58.7363 9.74003 48.9963
internal_count=534 356 342 178 34 144
is_linear=0
shrinkage=0.03


Tree=6
num_leaves=8
num_cat=0
split_feature=17 19 24 10 4 10 21
split_gain=31.2568 9.12644 13.0657 10.5807 6.61123 10.8095 6.01183
threshold=1.0000000180025095e-35 0.14455056081351536 1.2183626064750599 0.93562202019680007 -0.20221762372726024 0.27996010260142817 1.2801480707397668
decision_type=2 2 2 2 2 2 2
left_child=1 2 -1 -3 6 -6 -2
right_child=4 3 -4 -5 5 -7 -8
leaf_value=0.021868553664557221 0.047048500797475364 -0.01210810222263666 -0.0087678052961846862 0.031257572170341197 -0.0043913227353509733 0.031615360379866668 0
leaf_weight=35.715790465474129 23.971062868833545 39.361876800656319 17.835176229476929 4.7375367730855933 10.212204635143278 21.966135814785957 2.9250499606132498
leaf_count=119 66 154 68 15 36 66 10
internal_value=0.0138512 0.00323784 0.0115264 -0.00666005 0.0308994 0.020129 0.0422789
internal_weight=156.725 97.6504 53.551 44.0994 59.0745 32.1783 26.8961
internal_count=534 356 187 169 178 102 76
is_linear=0
shrinkage=0.03


Tree=7
num_leaves=8
num_cat=0
split_feature=28 19 26 27 27 28 21
split_gain=29.406 9.24468 10.3206 6.95927 6.86979 10.4729 8.66832
threshold=0.12762203846365897 -1.384705104415868 -0.44739862054362495 1.1809477296001791 -0.22309900826823684 0.95177018376609268 -0.63108294712566437
decision_type=2 2 2 2 2 2 2
left_child=1 2 -1 -3 5 -2 -6
right_child=4 3 -4 -5 6 -7 -8
leaf_value=0.043894851304005604 -0.012160190369224293 -0.0029836815208939783 -0.012507352927073211 0.02607458654060249 0.010038386886091249 0.028892006435717221 0.046946960536189755
leaf_weight=8.3056951463222486 7.2965545058250454 79.425594180822372 3.4049884527921668 7.1647650450468054 8.879135459661482 15.950171947479246 26.666107907891273
leaf_count=24 27 297 13 23 29 47 74
internal_value=0.0134234 0.00319539 0.0270935 -0.000206318 0.0300349 0.0156655 0.0385005
internal_weight=157.093 98.301 11.7107 86.5904 58.792 23.2467 35.5452
internal_count=534 357 37 320 177 74 103
is_linear=0
shrinkage=0.03


Tree=8
num_leaves=7
num_cat=0
split_feature=17 20 21 4 17 21
split_gain=27.7175 15.1566 8.84328 6.13978 8.5016 5.61136
threshold=1.0000000180025095e-35 1.9965370252158772 0.41074362858657737 -0.20221762372726024 1.0223480189320415 1.2801480707397668
decision_type=2 2 2 2 2 2
left_child=1 2 -1 5 -5 -2
right_child=3 -3 -4 4 -6 -7
leaf_value=-0.007456671082651435 0.044422791522939473 0.043579760814420339 0.011690727069156772 0.00026309738119400638 0.031584031325423138 0
leaf_weight=57.788421824574471 24.24809414148331 6.6475986689329138 33.376841872930527 14.079127505421637 18.350026443600655 2.9390383958816519
leaf_count=221 66 19 116 49 53 10
internal_value=0.0130174 0.00300371 -0.000298113 0.0289778 0.0186699 0.0398554
internal_weight=157.429 97.8129 91.1653 59.6163 32.4292 27.1871
internal_count=534 356 337 178 102 76
is_linear=0
shrinkage=0.03


Tree=9
num_leaves=7
num_cat=0
split_feature=28 20 3 20 4 1
split_gain=26.0378 16.092 9.15509 5.75693 4.44177 0.661559
threshold=0.12762203846365897 1.9965370252158772 0.86389365064785506 1.2491835841141496 -0.20221762372726024 0.15970122528208533
decision_type=2 2 2 2 2 2
left_child=1 2 -1 4 -2 -5
right_child=3 -3 -4 5 -6 -7
leaf_value=0.0024877542112105044 0.041110763290129193 0.043440974145736708 -0.0291687322005812 -0.0090363272342982269 0.021127975221549109 0.0083453227148168087
leaf_weight=83.196588531136513 25.001171916723251 7.1330803483724585 8.0999884009361249 2.780765324831008 28.363516628742218 3.1164010763168335
leaf_count=303 69 20 34 10 88 10
internal_value=0.0126336 0.0029904 -0.000508954 0.0281855 0.0312394 0
internal_weight=157.692 98.4297 91.2966 59.2619 53.3647 5.89717
internal_count=534 357 337 177 157 20
is_linear=0
shrinkage=0.03


Tree=10
num_leaves=8
num_cat=0
split_feature=15 2 6 3 4 17 5
split_gain=34.1573 13.6478 15.2253 10.6064 6.87736 6.42625 4.24065
threshold=0.91859206110514657 1.0041070507145269 -0.70748650373257305 -0.19640807306031796 0.18732647709937042 1.0223480189320415 1.0237199956338323
decision_type=2 2 2 2 2 2 2
left_child=1 2 -1 -3 6 -6 -2
right_child=4 3 -4 -5 5 -7 -8
leaf_value=0.015335848248355072 0.052274739875691985 -0.015959358435588111 -0.0091528809728136963 0.034209538337669598 -0.013549198387451536 0.027161364266627529 0.0098906465952200203
leaf_weight=32.288407102227211 18.13153932988644 3.8652017116546658 71.469388589262962 17.468056589365005 3.4447650015354183 15.419126003980635 3.6097410172224036
leaf_count=108 46 15 272 54 13 45 11
internal_value=0.0110487 0.00311156 -0.00137267 0.0244093 0.0346215 0.0189662 0.0463778
internal_weight=165.696 125.091 103.758 21.3333 40.6052 18.8639 21.7413
internal_count=564 449 380 69 115 58 57
is_linear=0
shrinkage=0.03


Tree=11
num_leaves=8
num_cat=0
split_feature=15 20 26 15 4 17 0
split_gain=32.1144 10.7452 12.0607 7.3295 6.44448 6.07932 3.42943
threshold=0.91859206110514657 -0.012753089957934062 -0.9803619307354331 -0.95921583135235144 0.18732647709937042 1.0223480189320415 0.32763864458103442
decision_type=2 2 2 2 2 2 2
left_child=1 3 -3 -1 6 -6 -2
right_child=4 2 -4 -5 5 -7 -8
leaf_value=0.021029487892289367 0.052031782990664042 -0.028559846956336933 0.017723351087065516 -0.0079944574757894148 -0.013263647059793928 0.026317360491456738 0.016775658886962284
leaf_weight=7.8123337328433982 16.481858223676685 4.6034580618143073 48.844145700335503 63.892941370606422 3.4350362569093731 15.467519313096998 5.3484991639852515
leaf_count=26 41 19 162 242 13 45 16
internal_value=0.0107234 0.0030194 0.0131203 -0.00446274 0.0335387 0.0183673 0.0449013
internal_weight=165.886 125.153 53.4476 71.7053 40.7329 18.9026 21.8304
internal_count=564 449 181 268 115 58 57
is_linear=0
shrinkage=0.03


Tree=12
num_leaves=7
num_cat=0
split_feature=15 20 9 14 9 17
split_gain=30.2586 10.1657 9.71892 6.92257 6.06589 7.9486
threshold=0.91859206110514657 -0.81009133582828718 0.67661213360003736 -0.62494288605949033 0.0073970847756506418 1.0223480189320415
decision_type=2 2 2 2 2 2
left_child=1 3 -3 -1 -2 -6
right_child=4 2 -4 -5 5 -7
leaf_value=0.006077358470331827 0.043809754611254179 0.003177463835295026 0.028006149905897927 -0.021217120139999747 -0.016728796762421973 0.027383251897964228
leaf_weight=12.254423126578329 21.415595725178719 75.097956478595734 16.954308286309242 20.916446223855019 3.7127755284309414 15.694857671856878
leaf_count=44 56 267 54 84 14 45
internal_value=0.0104074 0.0029248 0.00809899 -0.0109875 0.032526 0.0180972
internal_weight=166.046 125.223 92.0523 33.1709 40.8232 19.4076
internal_count=564 449 321 128 115 59
is_linear=0
shrinkage=0.03


Tree=13
num_leaves=8
num_cat=0
split_feature=7 2 10 18 21 24 3
split_gain=22.5233 10.567 10.4025 9.25179 8.06868 4.90185 4.86306
threshold=0.36077195438568699 1.1209150147513423 -0.78121844129917106 -0.13389074230606596 -1.0827129800811639 1.139661481449193 -0.44961005441274188
decision_type=2 2 2 2 2 2 2
left_child=1 2 -1 6 -3 -5 -2
right_child=3 4 -4 5 -6 -7 -8
leaf_value=0.019954782334001643 0.028919651368069607 -0.017908548651249238 -0.005028705080265275 0.043484994455075782 0.032883768742440346 0.0029635016259382499 -0.00057829518130335031
leaf_weight=17.129241600632668 6.7671536058187511 2.5232258439064053 85.280030384659767 23.752362877130512 14.446211829781531 3.7290896773338309 12.560969084501265
leaf_count=55 19 10 318 63 44 13 42
internal_value=0.0101016 0.00302148 -0.00061031 0.027529 0.0242542 0.0385995 0.0102214
internal_weight=166.188 119.379 102.409 46.8096 16.9694 27.4815 19.3281
internal_count=564 427 373 137 54 76 61
is_linear=0
shrinkage=0.03


Tree=14
num_leaves=7
num_cat=0
split_feature=15 2 0 10 5 5
split_gain=27.413 11.8501 14.5098 9.58104 4.77222 5.33705
threshold=0.91859206110514657 1.0041070507145269 -1.4140155162393724 0.17145772674172696 1.0237199956338323 -1.6821809270885302
decision_type=2 2 2 2 2 2
left_child=1 2 -1 -3 5 -2
right_child=4 3 -4 -5 -6 -7
leaf_value=0.028265087402721538 0.0066582196235303731 -0.012068803903761308 -0.0057067526783592167 0.032713211935235131 0 0.039562266667286586
leaf_weight=11.855792179703711 6.508361652493476 4.7407607287168529 91.916968688368797 16.871990516781807 4.3623355478048316 30.069043546915054
leaf_count=36 21 18 344 51 14 80
internal_value=0.00981011 0.00268608 -0.00150692 0.0223929 0.0308299 0.03428
internal_weight=166.325 125.386 103.773 21.6128 40.9397 36.5774
internal_count=564 449 380 69 115 101
is_linear=0
shrinkage=0.03


Tree=15
num_leaves=8
num_cat=0
split_feature=17 0 19 9 17 0 20
split_gain=38.7749 15.6863 12.0305 5.0923 6.8927 1.87005 1.84847
threshold=0.21820323938633929 -1.6408922001402164 0.2466289089840025 0.50171700409454145 1.0223480189320415 -0.55318367487558595 -0.60495528529559095
decision_type=2 2 2 2 2 2 2
left_child=1 6 -3 5 -5 -2 -1
right_child=3 2 -4 4 -6 -7 -8
leaf_value=0.010123351611662664 0.049405271045561132 0.0053458616955015022 -0.015610217462591903 -0.012597119134192543 0.027552112226734489 0.028530427970112161 0.048250353684333044
leaf_weight=3.065051794052124 13.874189615249632 55.987385228276253 42.086949855089188 4.5924288779497138 11.057843104004858 20.021586984395981 5.0413571745157224
leaf_count=10 35 197 167 17 31 57 13
internal_value=0.0101328 -7.74431e-05 -0.00362304 0.0317609 0.0151812 0.0385037 0.0375175
internal_weight=155.727 106.181 98.0743 49.546 15.6503 33.8958 8.10641
internal_count=527 387 364 140 48 92 23
is_linear=0
shrinkage=0.03


Tree=16
num_leaves=8
num_cat=0
split_feature=17 0 8 9 21 21 0
split_gain=36.5072 14.8628 11.4918 4.77347 8.76102 1.87248 1.74515
threshold=0.21820323938633929 -1.6408922001402164 -0.54427538892980565 0.50171700409454145 -0.89005030284116959 -0.46392568250921973 -0.55318367487558595
decision_type=2 2 2 2 2 2 2
left_child=1 5 -3 6 -5 -1 -2
right_child=3 2 -4 4 -6 -7 -8
leaf_value=0.049230692751879544 0.047917616869975456 -0.028198719010080385 0.00060690422450774162 -0.02009612053712103 0.027271399374943755 0.012181345204098514 0.027669248032768285
leaf_weight=4.4193748980760574 13.906288310885428 13.508722245693205 84.445582464337349 3.7937480807304373 11.859398454427717 3.7281094193458539 20.055970162153244
leaf_count=11 35 57 307 14 34 12 57
internal_value=0.00986081 -5.48617e-05 -0.0035195 0.0308253 0.0147334 0.0364466 0.037351
internal_weight=155.717 106.102 97.9543 49.6154 15.6531 8.14748 33.9623
internal_count=527 387 364 140 48 23 92
is_linear=0
shrinkage=0.03


Tree=17
num_leaves=8
num_cat=0
split_feature=17 0 19 0 0 7 21
split_gain=34.3832 14.1085 11.1622 4.12486 9.1271 1.88476 1.74314
threshold=0.21820323938633929 -1.6408922001402164 0.2466289089840025 -0.55318367487558595 -0.22289697430717667 1.9279412173566688 -0.46392568250921973
decision_type=2 2 2 2 2 2 2
left_child=1 6 -3 5 -5 -2 -1
right_child=3 2 -4 4 -6 -7 -8
leaf_value=0.047801119565565174 0.049741813570306881 0.0051852300011088256 -0.015032975280834394 -0.014215628278440001 0.028293313858254399 0.015062102154343473 0.011872036392849688
leaf_weight=4.4445028752088547 12.144879683852194 56.058065429329872 41.791834071278572 4.4152917563915244 29.339105412364006 3.7723797857761374 3.7364080846309644
leaf_count=11 30 197 167 16 83 11 12
internal_value=0.0095927 -3.68609e-05 -0.00342367 0.029921 0.0222249 0.0434309 0.0354523
internal_weight=155.702 106.031 97.8499 49.6717 33.7544 15.9173 8.18091
internal_count=527 387 364 140 99 41 23
is_linear=0
shrinkage=0.03


Tree=18
num_leaves=7
num_cat=0
split_feature=17 19 10 17 4 20
split_gain=32.3901 12.8641 11.5642 9.09931 3.86377 3.36261
threshold=0.21820323938633929 0.2466289089840025 0.93562202019680007 -0.83699079772438745 1.6696638084818021 1.362027148015309
decision_type=2 2 2 2 2 2
left_child=1 3 -3 -1 5 -2
right_child=4 2 -4 -5 -6 -7
leaf_value=0.031651965590730441 0.033875452607736285 -0.017686762073580522 0.026670045612969508 0.0027568730033353628 0 0.0022782488178010453
leaf_weight=11.625080868601797 41.949813514947891 40.113068729639053 5.0229636728763571 49.176199033856392 3.6651125550270072 4.0872315615415564
leaf_count=36 115 162 16 173 12 13
internal_value=0.00933793 -1.48341e-05 -0.0120844 0.00884995 0.0290574 0.0313696
internal_weight=155.639 105.937 45.136 60.8013 49.7022 46.037
internal_count=527 387 178 209 140 128
is_linear=0
shrinkage=0.03


Tree=19
num_leaves=8
num_cat=0
split_feature=7 19 15 19 0 26 26
split_gain=27.3265 13.2966 14.6107 10.078 6.90875 8.1899 2.23194
threshold=0.36077195438568699 0.20356422269573071 1.0514317969747673 -0.16040848126941154 -0.55318367487558595 0.37365245261623231 1.9345983218443659
decision_type=2 2 2 2 2 2 2
left_child=1 3 -3 -1 6 -6 -2
right_child=4 2 -4 -5 5 -7 -8
leaf_value=0.0030341405575088011 0.046806165708766813 -0.017459395724100046 0.037412633619774101 0.03246895043983649 -0.010257597160108847 0.025606852508518088 0.011086732071154539
leaf_weight=51.083141535520554 15.773052066564562 40.52761198580265 3.850123167037963 12.56153182685375 6.6202338039875057 21.848571270704269 3.3338716626167288
leaf_count=178 40 165 10 38 24 62 10
internal_value=0.00907936 0.000584881 -0.0117809 0.0093953 0.027772 0.0168963 0.0418826
internal_weight=155.598 108.022 44.3777 63.6447 47.5757 28.4688 19.1069
internal_count=527 391 175 216 136 86 50
is_linear=0
shrinkage=0.03


Tree=20
num_leaves=8
num_cat=0
split_feature=28 20 14 5 27 5 2
split_gain=18.9665 9.39229 7.92333 5.91403 7.92813 5.93049 5.88281
threshold=0.12762203846365897 -0.60495528529559095 -0.83159724111983746 1.2561756750569217 -0.74086193127131994 0.20149545851630254 1.4674837446427353
decision_type=2 2 2 2 2 2 2
left_child=1 2 -1 5 -5 -2 -3
right_child=3 6 -4 4 -6 -7 -8
leaf_value=0.012274560023468585 0.018092822443637888 0.0040827392699403758 -0.01964171196853768 0.030401173050654356 -0.020359626391736153 0.042411139735760411 0.033299285445051875
leaf_weight=8.2772465944290143 34.665968030691147 58.226167112588882 26.351629287004471 3.6735035628080368 5.7932907193899137 14.796656399965284 6.2027195394039145
leaf_count=29 103 207 108 10 22 38 18
internal_value=0.00883288 0.000672529 -0.0116299 0.0221598 0 0.0262422 0.00749899
internal_weight=157.987 99.0578 34.6289 58.9294 9.46679 49.4626 64.4289
internal_count=535 362 137 173 32 141 225
is_linear=0
shrinkage=0.03


Tree=21
num_leaves=8
num_cat=0
split_feature=28 20 14 5 5 5 5
split_gain=17.8934 8.87114 7.53377 5.82066 5.56304 7.60636 5.6202
threshold=0.12762203846365897 -0.60495528529559095 -0.83159724111983746 0.47799388677606763 1.2561756750569217 1.5114142104912911 0.20149545851630254
decision_type=2 2 2 2 2 2 2
left_child=1 2 -1 -3 6 -6 -2
right_child=4 3 -4 -5 5 -7 -8
leaf_value=0.011909419389699583 0.017559921115197281 0.014314619855086039 -0.019188781662359648 -0.0037648454723891427 -0.027724597093974897 0.021633153060850393 0.04125624194822973
leaf_weight=8.3053192943334562 34.676625594496727 39.750669777393341 26.190491139888763 24.772685751318932 3.9401927143335325 5.5138291418552399 14.782712966203688
leaf_count=29 103 133 108 92 16 16 38
internal_value=0.00859442 0.00066356 -0.0113233 0.00728443 0.0215405 0 0.025498
internal_weight=157.933 99.0192 34.4958 64.5234 58.9134 9.45402 49.4593
internal_count=535 362 137 225 173 32 141
is_linear=0
shrinkage=0.03


Tree=22
num_leaves=7
num_cat=0
split_feature=28 20 21 19 20 20
split_gain=16.899 8.36009 8.07242 7.26513 5.35618 4.5947
threshold=0.12762203846365897 -0.60495528529559095 0.87141756398657055 0.041118921821871282 1.2491835841141496 -0.96057467331140967
decision_type=2 2 2 2 2 2
left_child=1 3 -3 -1 5 -2
right_child=4 2 -4 -5 -6 -7
leaf_value=0.0058195933354966388 0.0014855705945330787 0.011179823531065312 -0.01926248898772628 -0.02155395108763293 -0.0056359278528996934 0.027425626974379714
leaf_weight=13.059851691126822 8.0748263448476774 56.659551560878754 7.9616511464118949 21.301962986588478 5.288797214627265 45.513488605618477
leaf_count=46 26 194 31 91 18 129
internal_value=0.00835217 0.00064138 0.00705564 -0.0110252 0.0209379 0.0237806
internal_weight=157.86 98.983 64.6212 34.3618 58.8771 53.5883
internal_count=535 362 225 137 173 155
is_linear=0
shrinkage=0.03


Tree=23
num_leaves=7
num_cat=0
split_feature=26 20 5 15 20 16
split_gain=15.9476 10.2841 6.56674 5.76736 5.95547 5.5222
threshold=0.67260280719544474 -0.81009133582828718 -0.85259727379019079 1.7984486423642918 0.88396487202302876 0.74540323076058235
decision_type=2 2 2 2 2 2
left_child=1 5 -3 4 -2 -1
right_child=3 2 -4 -5 -6 -7
leaf_value=-0.0048070911186745124 0.034621720160946827 0.023195244489187125 0.0034958715430421995 -0.0064408184534502366 -0.0030426529768350298 -0.036733992575636011
leaf_weight=23.234301656484607 27.425598874688152 18.820886388421059 75.323946014046669 3.6611800938844672 3.6829421520233145 5.6703190803527823
leaf_count=89 73 57 266 12 12 26
internal_value=0.00810304 0.00287019 0.00773105 0.0257724 0.0299264 -0.0123902
internal_weight=157.819 123.049 94.1448 34.7697 31.1085 28.9046
internal_count=535 438 323 97 85 115
is_linear=0
shrinkage=0.03


Tree=24
num_leaves=7
num_cat=0
split_feature=28 14 4 8 21 18
split_gain=15.131 7.5185 10.9598 10.5338 4.42772 4.61547
threshold=0.12762203846365897 -0.57179454751349312 1.0000000180025095e-35 0.18887579339256677 -1.0826779019437545 0.089681501555666301
decision_type=2 2 2 2 2 2
left_child=1 2 -1 -3 -2 -6
right_child=4 3 -4 -5 5 -7
leaf_value=-0.0020181882992133479 -0.0035184209654291082 0.003073658599813752 0.028812816106334335 -0.023014126682034838 0.013577813450893707 0.032899890474527071
leaf_weight=24.702920109033585 5.6908527463674536 37.509612128138542 16.170038640499115 20.560655489563942 30.418314725160599 22.707947805523872
leaf_count=91 19 135 52 84 92 62
internal_value=0.00786122 0.000560414 0.010361 -0.00624399 0.0197776 0.0224582
internal_weight=157.76 98.9432 40.873 58.0703 58.8171 53.1263
internal_count=535 362 143 219 173 154
is_linear=0
shrinkage=0.03


Tree=25
num_leaves=8
num_cat=0
split_feature=17 8 12 18 12 5 6
split_gain=18.9124 6.70842 6.98719 5.04236 6.60716 4.66083 4.20023
threshold=-0.49159933046543841 0.49983915891422381 0.93853561919262718 1.1530466500725531 0.90207897908944223 0.92307618433298289 1.2832139368678042
decision_type=2 2 2 2 2 2 2
left_child=1 2 -1 5 -5 -2 -3
right_child=3 6 -4 4 -6 -7 -8
leaf_value=0.0043693628442329942 0.025289446951880405 -0.037093209387431637 -0.034001144104248815 -0.019591217152902848 0.024032887960193552 0.0057080632171572082 0
leaf_weight=58.519376993179321 57.040460258722305 6.3009151518344861 3.5810904353857032 6.1881127655506116 4.5187718868255615 15.898303300142286 4.3168851882219315
leaf_count=211 170 29 16 23 13 53 16
internal_value=0.00883674 -0.00224493 0.00151028 0.0184897 0 0.021278 -0.0232223
internal_weight=156.364 72.7183 62.1005 83.6456 10.7069 72.9388 10.6178
internal_count=531 272 227 259 36 223 45
is_linear=0
shrinkage=0.03


Tree=26
num_leaves=8
num_cat=0
split_feature=24 7 25 20 24 19 17
split_gain=25.8255 8.10814 6.2442 8.59843 6.86205 6.2155 3.89081
threshold=0.94654058037051902 -0.85809004673865619 0.19974425308093538 -0.99301622556510705 -0.16614592219217669 0.53018016481977992 -0.91309081803530701
decision_type=2 2 2 2 2 2 2
left_child=2 6 4 -4 -1 -3 -2
right_child=1 5 3 -5 -6 -7 -8
leaf_value=0.029961365651197627 -0.0049189317997043753 0.0074828152831986549 -0.018068616468927885 0.013720247972459838 0.0057188319800640089 -0.019143596023155917 -0.041200537668494054
leaf_weight=40.386082291603088 5.066531389951705 21.576761528849602 8.0310530960559827 46.096627101302147 16.154413357377052 11.03866036236286 8.0501382201910001
leaf_count=113 19 75 33 153 56 47 35
internal_value=0.00856319 -0.0101266 0.0163886 0.0085982 0.0234111 -0.00156254 -0.0291649
internal_weight=156.4 45.7321 110.668 54.1277 56.5405 32.6154 13.1167
internal_count=531 176 355 186 169 122 54
is_linear=0
shrinkage=0.03


Tree=27
num_leaves=8
num_cat=0
split_feature=24 7 24 2 20 19 17
split_gain=24.4023 7.76567 5.94073 7.86582 7.05382 5.90188 3.74693
threshold=0.94654058037051902 -0.85809004673865619 -1.2144837680558853 -0.98381758176399559 0.22555823172462619 0.53018016481977992 -0.91309081803530701
decision_type=2 2 2 2 2 2 2
left_child=2 6 3 -1 -4 -3 -2
right_child=1 5 4 -5 -6 -7 -8
leaf_value=-0.011281142814029485 -0.004800766536145991 0.0072559162298510881 0.004276187580234226 0.034025515587132904 0.022441269494296825 -0.018732091812037291 -0.040518173156255229
leaf_weight=3.1818946152925518 5.0602118521928787 21.614625170826912 51.606774538755417 23.996762484312057 31.93330255150795 10.96580286324024 7.9583665281534177
leaf_count=11 19 75 182 64 98 47 35
internal_value=0.00830324 -0.0098956 0.0159004 0.0281898 0.0115096 -0.00152037 -0.0286099
internal_weight=156.318 45.599 110.719 27.1787 83.5401 32.5804 13.0186
internal_count=531 176 355 75 280 122 54
is_linear=0
shrinkage=0.03


Tree=28
num_leaves=7
num_cat=0
split_feature=24 18 18 7 21 12
split_gain=23.0672 7.67656 10.9077 7.44129 7.08522 2.65388
threshold=0.94654058037051902 -1.6508077205711522 -1.2398271981846316 -0.85809004673865619 0.56660885837976871 -0.2161898191046043
decision_type=2 2 2 2 2 2
left_child=1 -1 -3 5 -5 -2
right_child=3 2 -4 4 -6 -7
leaf_value=0.051805551334626103 -0.0083983627612352861 -0.025534299621363082 0.015686349727633855 -0.0099708241639964151 0.020522543252720828 -0.039588205278820614
leaf_weight=4.2818240672349921 5.6951956897974014 5.0822647660970679 101.41507723927498 24.171247735619545 8.3729358464479429 7.2220666408538801
leaf_count=11 22 20 324 95 27 32
internal_value=0.00805449 0.0154308 0.0134163 -0.0096714 -0.00147929 -0.0280749
internal_weight=156.241 110.779 106.497 45.4614 32.5442 12.9173
internal_count=531 355 344 176 122 54
is_linear=0
shrinkage=0.03


Tree=29
num_leaves=7
num_cat=0
split_feature=24 20 2 18 25 3
split_gain=22.0787 10.2188 8.33266 7.22498 6.50748 5.16473
threshold=-0.21182010458829631 -0.21104394354663267 -1.3994234164693995 0.39308412273694748 0.19974425308093538 -0.84641261602047513
decision_type=2 2 2 2 2 2
left_child=2 5 -1 -3 -4 -2
right_child=1 3 4 -5 -6 -7
leaf_value=-0.024624111236452285 0.0085766899053470666 -0.00083164695660918175 0.030460350702828026 0.024489700425772493 0.010624524670805057 -0.017095159436945243
leaf_weight=2.5997659713029853 7.5351033359765998 27.537420883774757 38.611638352274895 14.434029608964918 29.206710144877434 36.342135667800903
leaf_count=10 26 98 107 45 96 149
internal_value=0.00780807 -0.00232502 0.0201472 0.00803421 0.0223271 -0.0123931
internal_weight=156.267 85.8487 70.4181 41.9715 67.8183 43.8772
internal_count=531 318 213 143 203 175
is_linear=0
shrinkage=0.03


end of trees

feature_importances:
atr_14=21
upper_wick_ratio=20
candle_body_ratio=13
macd_signal=12
lower_wick_ratio=12
rsi_slope=11
rsi_14=10
hour_sin=9
bb_width=8
returns_std_10=8
macd_hist_delta=7
volatility_20bar=7
hour_cos=7
high_low_range=7
macd_hist=6
atr_ratio=6
momentum_3bar=5
momentum_5bar=5
momentum_10bar=4
volatility_5bar=4
returns_skew_10=4
bb_position=3
momentum_1bar=3
volume_ratio=3
rsi_7=2
vol_ratio=1

parameters:
[boosting: gbdt]
[objective: binary]
[metric: auc]
[tree_learner: serial]
[device_type: cpu]
[data_sample_strategy: bagging]
[data: ]
[valid: ]
[num_iterations: 300]
[learning_rate: 0.03]
[num_leaves: 20]
[num_threads: 0]
[seed: 0]
[deterministic: 0]
[force_col_wise: 0]
[force_row_wise: 0]
[histogram_pool_size: -1]
[max_depth: 3]
[min_data_in_leaf: 10]
[min_sum_hessian_in_leaf: 0.001]
[bagging_fraction: 0.7]
[pos_bagging_fraction: 1]
[neg_bagging_fraction: 1]
[bagging_freq: 5]
[bagging_seed: 3]
[bagging_by_query: 0]
[feature_fraction: 0.7]
[feature_fraction_bynode: 1]
[feature_fraction_seed: 2]
[extra_trees: 0]
[extra_seed: 6]
[early_stopping_round: 0]
[early_stopping_min_delta: 0]
[first_metric_only: 0]
[max_delta_step: 0]
[lambda_l1: 0.3]
[lambda_l2: 1]
[linear_lambda: 0]
[min_gain_to_split: 0]
[drop_rate: 0.1]
[max_drop: 50]
[skip_drop: 0.5]
[xgboost_dart_mode: 0]
[uniform_drop: 0]
[drop_seed: 4]
[top_rate: 0.2]
[other_rate: 0.1]
[min_data_per_group: 100]
[max_cat_threshold: 32]
[cat_l2: 10]
[cat_smooth: 10]
[max_cat_to_onehot: 4]
[top_k: 20]
[monotone_constraints: ]
[monotone_constraints_method: basic]
[monotone_penalty: 0]
[feature_contri: ]
[forcedsplits_filename: ]
[refit_decay_rate: 0.9]
[cegb_tradeoff: 1]
[cegb_penalty_split: 0]
[cegb_penalty_feature_lazy: ]
[cegb_penalty_feature_coupled: ]
[path_smooth: 0]
[interaction_constraints: ]
[verbosity: -1]
[saved_feature_importance_type: 0]
[use_quantized_grad: 0]
[num_grad_quant_bins: 4]
[quant_train_renew_leaf: 0]
[stochastic_rounding: 1]
[linear_tree: 0]
[max_bin: 255]
[max_bin_by_feature: ]
[min_data_in_bin: 3]
[bin_construct_sample_cnt: 200000]
[data_random_seed: 1]
[is_enable_sparse: 1]
[enable_bundle: 1]
[use_missing: 1]
[zero_as_missing: 0]
[feature_pre_filter: 1]
[pre_partition: 0]
[two_round: 0]
[header: 0]
[label_column: ]
[weight_column: ]
[group_column: ]
[ignore_column: ]
[categorical_feature: ]
[forcedbins_filename: ]
[precise_float_parser: 0]
[parser_config_file: ]
[objective_seed: 5]
[num_class: 1]
[is_unbalance: 0]
[scale_pos_weight: 1.7067]
[sigmoid: 1]
[boost_from_average: 1]
[reg_sqrt: 0]
[alpha: 0.9]
[fair_c: 1]
[poisson_max_delta_step: 0.7]
[tweedie_variance_power: 1.5]
[lambdarank_truncation_level: 30]
[lambdarank_norm: 1]
[label_gain: ]
[lambdarank_position_bias_regularization: 0]
[eval_at: ]
[multi_error_top_k: 1]
[auc_mu_weights: ]
[num_machines: 1]
[local_listen_port: 12400]
[time_out: 120]
[machine_list_filename: ]
[machines: ]
[gpu_platform_id: -1]
[gpu_device_id: -1]
[gpu_use_dp: 0]
[num_gpu: 1]

end of parameters

pandas_categorical:null
