tree
version=v4
num_class=1
num_tree_per_iteration=1
label_index=0
max_feature_idx=29
objective=binary sigmoid:1
feature_names=rsi_14 rsi_7 rsi_slope macd_hist macd_hist_delta macd_signal bb_position bb_width momentum_1bar momentum_3bar momentum_5bar momentum_10bar volume_ratio volume_trend volatility_5bar volatility_20bar vol_ratio atr_14 atr_ratio candle_body_ratio upper_wick_ratio lower_wick_ratio consec_direction close_vs_open hour_sin hour_cos returns_std_10 returns_skew_10 high_low_range close_position_in_range
feature_infos=[-2.7301367256914646:2.4598249668023922] [-2.26058387082593:2.2223835811636476] [-3.1122255768270235:2.9757865463672468] [-3.7134317351306536:2.8495317035370227] [-4.7880832270784017:4.1052578053432285] [-2.664801386844561:3.017995227570041] [-2.8950054976682091:2.7816668730148346] [-1.4837088880112699:4.329241596218993] [-4.8271034493101794:5.0112239405536094] [-5.404440181892153:4.549517994485333] [-5.2234383836906764:4.0975585634417522] [-4.1764325232858921:3.6455068044212955] [-1.1288909882574467:10.100452692839653] [-1.7786904274937057:4.0190883821816588] [-1.4533838961543504:5.3967457722633831] [-1.8759652324349587:3.8566301749558525] [-1.9303090395383671:2.8339423013265024] [-1.8038582881294287:4.5206314923063236] [-2.3450642099550656:3.2794123399163739] [-1.7808073271976164:2.1260898236765589] [-1.2881485773401813:3.3178141494509505] [-1.256975773937032:3.0666516627804961] [-3.5256602726956197:4.304052800433614] [-1.0261413653561167:0.97452459647502432] [-1.4229478308488843:1.402424795096763] [-1.4237563850579504:1.407973074541806] [-1.6172953660987819:4.9523539001844075] [-3.0648334493643072:2.7544292639915771] [-1.7227101162676846:3.2951210661163182] [-1.7568358068904919:1.7778346841478563]
tree_sizes=853 882 870 883 986

Tree=0
num_leaves=7
num_cat=0
split_feature=14 9 29 29 1 0
split_gain=23.8582 8.97936 6.86347 5.86626 2.34306 2.13089
threshold=-0.60551599880000451 0.85871111899051511 -1.2217048287358201 -1.1797002134405179 0.44691724387343473 1.6123536555538929
decision_type=2 2 2 2 2 2
left_child=3 2 -2 -1 -3 -5
right_child=1 4 -4 5 -6 -7
leaf_value=0.67873086400077853 0.69046739482924091 0.67770285813247166 0.66024469307474021 0.62961902677319259 0.70639869561881186 0.67139267294778715
leaf_weight=2.2627976685762432 7.1380411684513083 3.9567647427320463 36.424988865852356 21.892149969935421 5.9074883759021759 2.0310905277729026
leaf_count=17 56 29 246 125 50 14
internal_value=0.659594 0.671561 0.665574 0.636633 0.695854 0.632409
internal_weight=79.6133 53.4273 43.563 26.186 9.86425 23.9232
internal_count=537 381 302 156 79 139
is_linear=0
shrinkage=1


Tree=1
num_leaves=7
num_cat=0
split_feature=14 9 2 29 19 0
split_gain=22.0997 8.49197 7.72212 5.43251 2.72355 1.88975
threshold=-0.60551599880000451 0.85871111899051511 0.76540022078715164 -1.1797002134405179 1.0472790134617753 1.6123536555538929
decision_type=2 2 2 2 2 2
left_child=3 2 -2 -1 -3 -5
right_child=1 4 -4 5 -6 -7
leaf_value=0.0010068572273426251 -0.0052989970691421709 0.026956899332600159 -0.037987194295319208 -0.046020601733266331 -0.0037957745120023026 -0.00617470750244752
leaf_weight=2.2620378881692913 36.395708523690701 6.9977971464395505 7.3430693298578253 22.226963154971603 2.8103013932704926 2.0352607518434516
leaf_count=17 259 59 43 125 20 14
internal_value=-0.0174702 -0.00592072 -0.0117144 -0.0393971 0.0177767 -0.0434111
internal_weight=80.0711 53.5469 43.7388 26.5243 9.8081 24.2622
internal_count=537 381 302 156 79 139
is_linear=0
shrinkage=0.03


Tree=2
num_leaves=7
num_cat=0
split_feature=17 29 9 9 17 12
split_gain=15.9955 11.0324 10.514 3.61672 2.92398 2.58331
threshold=0.23347408667748096 -1.1797002134405179 0.82502512967385633 -0.4050471499626534 2.2914093172933154 -0.48100157113568681
decision_type=2 2 2 2 2 2
left_child=1 3 -3 -1 5 -2
right_child=4 2 -4 -5 -6 -7
leaf_value=0.024087557800810223 0.012291038599534444 -0.034400975085385983 0.0062859369481933717 -0.016346971107389856 0.029590622612192006 -0.0087530183448218581
leaf_weight=4.4202262386679649 7.8613547310233161 46.019307002425194 5.7731257900595656 2.0253664404153815 2.4931987747550002 11.873395338654518
leaf_count=37 61 277 44 13 22 83
internal_value=-0.0168933 -0.0250655 -0.0296621 0.00968418 0.00428794 0
internal_weight=80.466 58.238 51.7924 6.44559 22.2279 19.7348
internal_count=537 371 321 50 166 144
is_linear=0
shrinkage=0.03


Tree=3
num_leaves=7
num_cat=0
split_feature=17 8 6 27 28 6
split_gain=14.949 8.18735 6.04793 4.25696 3.29518 1.84149
threshold=0.23347408667748096 -0.47391424559609047 -1.0449342516099469 0.11714149263175155 1.9986545242289957 1.1138118211027821
decision_type=2 2 2 2 2 2
left_child=1 3 -3 -1 5 -2
right_child=4 2 -4 -5 -6 -7
leaf_value=-0.015056256085458563 -0.0058660402859818913 0.0035510671815407614 -0.032730713761177303 0.01925288397026843 0.030205488169626826 0.014064160383950025
leaf_weight=6.9763489440083486 14.884477414190775 3.8697615787386885 43.355618119239807 4.4653736799955368 2.6992713436484328 4.6219308450818053
leaf_count=46 105 29 260 36 24 37
internal_value=-0.0162904 -0.0241401 -0.0295591 -0.000471779 0.00420703 -0.000249251
internal_weight=80.8728 58.6671 47.2254 11.4417 22.2057 19.5064
internal_count=537 371 289 82 166 142
is_linear=0
shrinkage=0.03


Tree=4
num_leaves=8
num_cat=0
split_feature=14 9 2 9 19 19 18
split_gain=19.009 7.53972 6.94793 5.07192 2.62624 2.52047 2.29546
threshold=-0.60551599880000451 0.85871111899051511 0.76540022078715164 -0.41637389948631937 0.44654175743684127 -0.1676923844427676 -0.27820722826657768
decision_type=2 2 2 2 2 2 2
left_child=3 2 -2 5 -3 -1 -5
right_child=1 4 -4 6 -6 -7 -8
leaf_value=0.017155467604496332 -0.0043319825596308372 0.033724610083098072 -0.034996855015521494 -0.048439818249593418 0.0017712645828211323 -0.021216163097762107 -0.020529547378310583
leaf_weight=1.875815115869045 36.742588087916374 3.9247712492942792 7.5268395021557799 15.654018655419353 5.8254162445664406 2.1990087330341366 7.503022134304044
leaf_count=15 259 35 43 82 44 13 46
internal_value=-0.0157146 -0.00499344 -0.0104024 -0.0357332 0.0174114 -0.00187883 -0.0409935
internal_weight=81.2515 54.0196 44.2694 27.2319 9.75019 4.07482 23.157
internal_count=537 381 302 156 79 28 128
is_linear=0
shrinkage=0.03


end of trees

feature_importances:
momentum_3bar=6
close_position_in_range=4
volatility_5bar=3
atr_14=3
candle_body_ratio=3
rsi_14=2
rsi_slope=2
bb_position=2
rsi_7=1
momentum_1bar=1
volume_ratio=1
atr_ratio=1
returns_skew_10=1
high_low_range=1

parameters:
[boosting: gbdt]
[objective: binary]
[metric: auc]
[tree_learner: serial]
[device_type: cpu]
[data_sample_strategy: bagging]
[data: ]
[valid: ]
[num_iterations: 300]
[learning_rate: 0.03]
[num_leaves: 20]
[num_threads: 0]
[seed: 0]
[deterministic: 0]
[force_col_wise: 0]
[force_row_wise: 0]
[histogram_pool_size: -1]
[max_depth: 3]
[min_data_in_leaf: 10]
[min_sum_hessian_in_leaf: 0.001]
[bagging_fraction: 0.7]
[pos_bagging_fraction: 1]
[neg_bagging_fraction: 1]
[bagging_freq: 5]
[bagging_seed: 3]
[bagging_by_query: 0]
[feature_fraction: 0.7]
[feature_fraction_bynode: 1]
[feature_fraction_seed: 2]
[extra_trees: 0]
[extra_seed: 6]
[early_stopping_round: 0]
[early_stopping_min_delta: 0]
[first_metric_only: 0]
[max_delta_step: 0]
[lambda_l1: 0.3]
[lambda_l2: 1]
[linear_lambda: 0]
[min_gain_to_split: 0]
[drop_rate: 0.1]
[max_drop: 50]
[skip_drop: 0.5]
[xgboost_dart_mode: 0]
[uniform_drop: 0]
[drop_seed: 4]
[top_rate: 0.2]
[other_rate: 0.1]
[min_data_per_group: 100]
[max_cat_threshold: 32]
[cat_l2: 10]
[cat_smooth: 10]
[max_cat_to_onehot: 4]
[top_k: 20]
[monotone_constraints: ]
[monotone_constraints_method: basic]
[monotone_penalty: 0]
[feature_contri: ]
[forcedsplits_filename: ]
[refit_decay_rate: 0.9]
[cegb_tradeoff: 1]
[cegb_penalty_split: 0]
[cegb_penalty_feature_lazy: ]
[cegb_penalty_feature_coupled: ]
[path_smooth: 0]
[interaction_constraints: ]
[verbosity: -1]
[saved_feature_importance_type: 0]
[use_quantized_grad: 0]
[num_grad_quant_bins: 4]
[quant_train_renew_leaf: 0]
[stochastic_rounding: 1]
[linear_tree: 0]
[max_bin: 255]
[max_bin_by_feature: ]
[min_data_in_bin: 3]
[bin_construct_sample_cnt: 200000]
[data_random_seed: 1]
[is_enable_sparse: 1]
[enable_bundle: 1]
[use_missing: 1]
[zero_as_missing: 0]
[feature_pre_filter: 1]
[pre_partition: 0]
[two_round: 0]
[header: 0]
[label_column: ]
[weight_column: ]
[group_column: ]
[ignore_column: ]
[categorical_feature: ]
[forcedbins_filename: ]
[precise_float_parser: 0]
[parser_config_file: ]
[objective_seed: 5]
[num_class: 1]
[is_unbalance: 0]
[scale_pos_weight: 0.509346]
[sigmoid: 1]
[boost_from_average: 1]
[reg_sqrt: 0]
[alpha: 0.9]
[fair_c: 1]
[poisson_max_delta_step: 0.7]
[tweedie_variance_power: 1.5]
[lambdarank_truncation_level: 30]
[lambdarank_norm: 1]
[label_gain: ]
[lambdarank_position_bias_regularization: 0]
[eval_at: ]
[multi_error_top_k: 1]
[auc_mu_weights: ]
[num_machines: 1]
[local_listen_port: 12400]
[time_out: 120]
[machine_list_filename: ]
[machines: ]
[gpu_platform_id: -1]
[gpu_device_id: -1]
[gpu_use_dp: 0]
[num_gpu: 1]

end of parameters

pandas_categorical:null
