tree
version=v4
num_class=1
num_tree_per_iteration=1
label_index=0
max_feature_idx=29
objective=binary sigmoid:1
feature_names=rsi_14 rsi_7 rsi_slope macd_hist macd_hist_delta macd_signal bb_position bb_width momentum_1bar momentum_3bar momentum_5bar momentum_10bar volume_ratio volume_trend volatility_5bar volatility_20bar vol_ratio atr_14 atr_ratio candle_body_ratio upper_wick_ratio lower_wick_ratio consec_direction close_vs_open hour_sin hour_cos returns_std_10 returns_skew_10 high_low_range close_position_in_range
feature_infos=[-2.4089493940006306:2.3436748901961399] [-2.297984814305893:2.2319224034373475] [-3.0819734500990368:2.9766639301693076] [-3.9606037443073037:2.7845948950091901] [-5.0091237898703378:5.4013324931147091] [-2.9316539541355242:3.2832951078074357] [-2.9089217612215879:2.6807910959562782] [-1.4024063435599798:4.5268605394690802] [-5.368326474510523:5.314727538564556] [-5.7258161107378873:4.8191546230451783] [-5.483803249082567:4.2965186916279077] [-4.3983076031440183:3.8292190583467143] [-1.064047310203333:9.3528212706110452] [-1.6967255204864551:3.7643625207718756] [-1.4268895744501595:5.6093564241613807] [-1.6749047339073333:3.9554218180987442] [-2.1241651684618654:2.805279701230218] [-1.587157254353438:4.624931195138533] [-2.2770199606293717:3.1430689103951215] [-1.7602430646735598:2.092446854801187] [-1.2520946092334966:3.2223543214867756] [-1.2569060443659954:3.0239688943595087] [-3.5727632950279435:4.4257141009260277] [-1.011417079841229:0.98871179845703827] [-1.3980242978384687:1.4218776027744533] [-1.4136641163804931:1.4236053311424897] [-1.4694846483150454:5.0595496697490052] [-3.0525791239592999:2.8972091711657524] [-1.591655894093372:3.4485976926493982] [-1.7962042577872459:1.67161793777782]
tree_sizes=952 970 870 882 983 984 949 863 877 880 987 888 880 958 886 876 878 878 878 774 865 974 860 981 985 881 972 986 990 859 963 996 991 985 769 879 968 984 879 873 875 836 852 876 855 655 790 787 678 757 881 675 862 881 885 984 886 883 966 864 782 884 775 775 988 782 781 679 678 679 658 677

Tree=0
num_leaves=8
num_cat=0
split_feature=17 9 8 12 5 7 25
split_gain=22.2099 9.17798 7.00578 4.28004 3.76445 3.81688 2.44829
threshold=0.41661907222885458 -0.60780071921115408 -0.32505971928785288 -0.245237309873056 0.67494793870568126 0.10263776981833175 0.41655804319080808
decision_type=2 2 2 2 2 2 2
left_child=1 3 -3 -1 5 -2 -6
right_child=4 2 -4 -5 6 -7 -8
leaf_value=0.55427008322271198 0.52102213785156593 0.52445052085663801 0.49772783230853007 0.51944580465644663 0.51334772514009397 0.55746322017427374 0.54719353823571848
leaf_weight=3.8186728358268729 2.2833539545536068 12.486875489354132 48.519539996981621 8.2941851168870908 4.6602122932672492 11.689202278852461 1.769657030701637
leaf_count=26 13 74 259 48 26 79 12
internal_value=0.515225 0.507528 0.502861 0.530833 0.542189 0.550649 0.524822
internal_weight=93.5217 73.1193 61.0064 12.1129 20.4024 13.9726 6.42987
internal_count=537 407 333 74 130 92 38
is_linear=0
shrinkage=1


Tree=1
num_leaves=8
num_cat=0
split_feature=17 9 8 5 26 2 25
split_gain=20.7946 8.56135 6.45974 3.56695 3.26493 2.87288 2.33979
threshold=0.41661907222885458 -0.60780071921115408 -0.32505971928785288 0.67494793870568126 2.2356982021207412 -1.522264753118538 0.41655804319080808
decision_type=2 2 2 2 2 2 2
left_child=1 5 -3 4 -2 -1 -5
right_child=3 2 -4 6 -6 -7 -8
leaf_value=0.023600373381070967 0.028101395714341938 -0.0061957915318374473 -0.031866979115455794 -0.016990029630363588 -0.0010777354387080144 -0.007409733749137855 0.016091589492491874
leaf_weight=2.6064553856849662 9.767948657274248 12.507444486021994 48.925383508205414 4.6810595989227286 4.1280032098293296 9.5070559680461866 1.7620541304349897
leaf_count=18 67 74 259 26 25 56 12
internal_value=-0.0150857 -0.022488 -0.0269676 0.0110592 0.0193387 0 -0.0057873
internal_weight=93.8854 73.5463 61.4328 20.3391 13.896 12.1135 6.44311
internal_count=537 407 333 130 92 74 38
is_linear=0
shrinkage=0.03


Tree=2
num_leaves=7
num_cat=0
split_feature=17 9 8 12 0 27
split_gain=19.4973 8.00244 5.96611 4.0709 2.55416 3.02971
threshold=0.41661907222885458 -0.60780071921115408 -0.32505971928785288 -0.245237309873056 1.6793916356206398 -1.3710930281979821
decision_type=2 2 2 2 2 2
left_child=1 3 -3 -1 5 -2
right_child=4 2 -4 -5 -6 -7
leaf_value=0.022985411721860055 -0.0048124613876966583 -0.0060147382801306127 -0.03069911148895782 -0.011014455549761205 -0.014516757470624963 0.021261638663637887
leaf_weight=3.7943674176931372 4.3483332991600081 12.527214780449865 49.295250058174133 8.3209893107414228 2.0181522369384757 13.910288706421852
leaf_count=26 26 74 259 48 11 93
internal_value=-0.0145816 -0.0217093 -0.0260159 0 0.0107848 0.0146573
internal_weight=94.2146 73.9378 61.8225 12.1154 20.2768 18.2586
internal_count=537 407 333 74 130 119
is_linear=0
shrinkage=0.03


Tree=3
num_leaves=7
num_cat=0
split_feature=17 8 28 6 5 27
split_gain=18.2419 7.37268 8.69985 4.90292 3.46967 3.98731
threshold=0.47520652253982437 0.39341928761015238 -0.86330368679488256 -0.87721396718120348 1.5867799841891053 -1.3710930281979821
decision_type=2 2 2 2 2 2
left_child=1 2 -1 -3 5 -2
right_child=4 3 -4 -5 -6 -7
leaf_value=-0.037567401968322506 -0.0060499102625819262 0.0061778755282433546 -0.0071015308414561634 -0.038895489214471592 -0.016160727989980035 0.024735495531089315
leaf_weight=10.201608419418333 4.2161874771118208 1.7543481737375284 42.259808972477913 21.229806795716286 2.4001429975032798 12.438113406300545
leaf_count=51 25 11 246 106 13 85
internal_value=-0.0141126 -0.0207291 -0.0137861 -0.0349657 0.0113637 0.0165309
internal_weight=94.5 75.4456 52.4614 22.9842 19.0544 16.6543
internal_count=537 414 297 117 123 110
is_linear=0
shrinkage=0.03


Tree=4
num_leaves=8
num_cat=0
split_feature=17 9 28 16 5 7 25
split_gain=17.1354 7.23336 5.12618 3.79155 3.26655 3.62342 2.12484
threshold=0.41661907222885458 -0.60780071921115408 -0.81668709149156349 0.60318665890600098 0.67494793870568126 0.10263776981833175 0.41655804319080808
decision_type=2 2 2 2 2 2 2
left_child=1 3 -3 -1 5 -2 -6
right_child=4 2 -4 -5 6 -7 -8
leaf_value=0.013254666360084976 -0.01048381145263419 -0.039277086692741388 -0.018184660158794969 -0.018519880669892765 -0.016438847419113448 0.025018644244135784 0.015121048766851136
leaf_weight=7.6010012030601484 2.2649933248758343 16.285389438271523 46.17782174050808 4.5446255654096603 4.7028860896825782 11.440823286771773 1.7328058928251264
leaf_count=49 13 80 253 25 26 79 12
internal_value=-0.0136806 -0.0202954 -0.0243579 0.000176302 0.0101978 0.0182256 -0.00584021
internal_weight=94.7503 74.6088 62.4632 12.1456 20.1415 13.7058 6.43569
internal_count=537 407 333 74 130 92 38
is_linear=0
shrinkage=0.03


Tree=5
num_leaves=8
num_cat=0
split_feature=17 15 8 11 26 5 24
split_gain=16.2404 7.67946 5.7907 5.63251 4.21823 2.3945 0.314062
threshold=0.47520652253982437 -1.0632765313102357 -0.171859486698175 0.056851595726335989 1.4692628542424864 0.70725937309264342 0.24147830930938194
decision_type=2 2 2 2 2 2 2
left_child=1 6 -3 5 -5 -2 -1
right_child=3 2 -4 4 -6 -7 -8
leaf_value=-0.015132639813478442 0.030264764591656803 -0.0055917290747897743 -0.024192279562986228 0.0055794208414871507 -0.034600037706614684 -0.0037384447439090729 -0.054540899833840147
leaf_weight=1.9226739853620518 8.1648669987916964 26.308745145797729 42.780495673418045 6.127919137477873 2.4026384800672531 1.5212834626436222 5.9697790443897247
leaf_count=10 58 154 226 39 12 9 26
internal_value=-0.0153145 -0.0213283 -0.0174186 0.00941811 -0.00723586 0.024232 -0.0487341
internal_weight=95.1984 76.9817 69.0892 18.2167 8.53056 9.68615 7.89245
internal_count=534 416 380 118 51 67 36
is_linear=0
shrinkage=0.03


Tree=6
num_leaves=8
num_cat=0
split_feature=9 17 13 16 2 27 10
split_gain=19.2939 7.7771 4.54435 4.04937 3.67658 3.31957 2.00964
threshold=-0.62114247236802123 0.42128166535220007 1.7005985129629699 0.41826277959045438 0.38692954971346488 0.17854059552929827 -0.2833161216114653
decision_type=2 2 2 2 2 2 2
left_child=3 2 -2 6 -3 -5 -1
right_child=1 4 -4 5 -6 -7 -8
leaf_value=0.032428901532436771 -0.027144457568034151 -0.014944794686834599 0.0083638049584574322 -0.014500652670692993 0.014925402333561611 0.019232422343126689 0
leaf_weight=6.9528527110815048 62.203533619642258 6.3936065286397916 2.584246724843978 5.8535405695438367 6.4408591389656067 3.20536008477211 1.8011413812637345
leaf_count=49 323 37 16 33 43 22 11
internal_value=-0.014857 -0.0213182 -0.0254857 0.0124571 0 -0.000944591 0.0259232
internal_weight=95.4351 77.6222 64.7878 17.8129 12.8345 9.0589 8.75399
internal_count=534 419 339 115 80 55 60
is_linear=0
shrinkage=0.03


Tree=7
num_leaves=7
num_cat=0
split_feature=17 15 11 18 26 5
split_gain=14.4327 7.18099 5.37465 5.19282 3.95796 2.33585
threshold=0.47520652253982437 -1.0632765313102357 0.056851595726335989 0.70768613357452337 1.4692628542424864 0.70725937309264342
decision_type=2 2 2 2 2 2
left_child=1 -1 5 -3 -4 -2
right_child=2 3 4 -5 -6 -7
leaf_value=-0.046294788431619757 0.029619524708181563 -0.020336672206358746 0.0052698580047079021 0 -0.033552603847567905 -0.0039154471141549033
leaf_weight=7.9909662008285514 8.0761146098375338 55.208233043551445 6.1036211550235731 14.357610225677488 2.4268533736467361 1.5169079154729832
leaf_count=36 58 296 39 84 12 9
internal_value=-0.0143631 -0.0199863 0.00901669 -0.0162235 -0.00719217 0.0235981
internal_weight=95.6803 77.5568 18.1235 69.5658 8.53047 9.59302
internal_count=534 416 118 380 51 67
is_linear=0
shrinkage=0.03


Tree=8
num_leaves=7
num_cat=0
split_feature=9 26 15 20 25 25
split_gain=17.712 8.14422 4.84428 3.86661 3.18701 2.98008
threshold=-0.62114247236802123 0.78124463769760644 -1.0632765313102357 0.90234702235983477 -1.2454836543198053 1.0398267527781422
decision_type=2 2 2 2 2 2
left_child=4 2 -2 -3 -1 -6
right_child=1 3 -4 -5 5 -7
leaf_value=-0.010763887338192633 -0.046277897586656069 0.014212990079224021 -0.020043095463218669 -0.022658634749531534 0.025184393707256409 -0.004026296885669127
leaf_weight=3.206353351473811 7.9030604213476172 8.0193774253129941 59.698253124952316 2.498704567551612 11.337848678231238 3.2185944765806189
leaf_count=18 35 53 318 13 78 19
internal_value=-0.0139264 -0.0200795 -0.0238712 0.00346555 0.0122828 0.0183034
internal_weight=95.8822 78.1194 67.6013 10.5181 17.7628 14.5564
internal_count=534 419 353 66 115 97
is_linear=0
shrinkage=0.03


Tree=9
num_leaves=7
num_cat=0
split_feature=14 29 11 5 20 13
split_gain=12.0496 7.35222 5.14398 3.85782 3.63277 2.87854
threshold=-0.52716300993787557 -1.198340908457306 0.78358892983354889 -0.63625119862195667 0.34146754542157509 1.8037062342068138
decision_type=2 2 2 2 2 2
left_child=3 5 -3 -1 -5 -2
right_child=1 2 -4 4 -6 -7
leaf_value=0.00064233386575842473 0.022956729658674693 -0.01514934605958128 0.006603857856619778 -0.039976352902574723 -0.015279128304514368 -0.01206688791737047
leaf_weight=3.2077190726995459 8.8893315941095334 40.625609710812569 11.503180846571921 17.998373553156856 12.182701125741003 1.6408477872610081
leaf_count=19 61 225 70 85 65 9
internal_value=-0.0135096 -0.00540178 -0.0101458 -0.0278638 -0.0311056 0.0161454
internal_weight=96.0478 62.659 52.1288 33.3888 30.1811 10.5302
internal_count=534 365 295 169 150 70
is_linear=0
shrinkage=0.03


Tree=10
num_leaves=8
num_cat=0
split_feature=28 11 18 17 17 5 12
split_gain=10.8162 6.17941 5.14529 3.18286 4.12159 3.39185 2.81298
threshold=-0.010917647817117682 -0.45303335529691058 0.70768613357452337 1.1544586137322044 -0.39412819160713392 2.5999359740358257 -0.245237309873056
decision_type=2 2 2 2 2 2 2
left_child=1 6 -3 4 -2 -5 -1
right_child=3 2 -4 5 -6 -7 -8
leaf_value=0.020269766585062972 0.026001715243411976 -0.026317541541873508 -0.00043156865991318102 0.021567087222571897 -0.0077835052464876779 -0.01759636077065212 -0.0084620462317296814
leaf_weight=3.8941040635108948 2.68123731017113 42.636208057403564 9.0976051688194257 9.9298332035541517 23.892400667071342 1.387054070830344 6.9130908101797086
leaf_count=25 18 216 52 69 138 7 39
internal_value=-0.0101923 -0.0177761 -0.0220306 0.00222907 -0.00322887 0.0149974 0.00196841
internal_weight=100.432 62.541 51.7338 37.8905 26.5736 11.3169 10.8072
internal_count=564 332 268 232 156 76 64
is_linear=0
shrinkage=0.03


Tree=11
num_leaves=7
num_cat=0
split_feature=14 15 26 28 20 17
split_gain=13.7879 6.1113 3.67931 6.99481 3.65378 1.91688
threshold=-0.3125389143546024 0.85760744322129867 -0.23659000818390954 0.54005349167200245 -0.081286163235182105 -0.49646882179791363
decision_type=2 2 2 2 2 2
left_child=1 4 5 -4 -1 -2
right_child=2 -3 3 -5 -6 -7
leaf_value=-0.031216278728946962 0.00089220351322881486 0.020012697729862881 -0.013759819441154132 0.011060088055175782 -0.012756841813838737 0.026998695751185693
leaf_weight=25.68512487411499 5.5292075723409653 2.156846120953559 22.943447127938271 16.597323268651962 22.196025401353836 5.4442310929298383
leaf_count=127 32 15 126 109 119 36
internal_value=-0.00987433 -0.0208813 0.0010479 -0.00310378 -0.0232793 0.0157692
internal_weight=100.552 50.038 50.5142 39.5408 47.8812 10.9734
internal_count=564 261 303 235 246 68
is_linear=0
shrinkage=0.03


Tree=12
num_leaves=7
num_cat=0
split_feature=14 29 17 20 29 25
split_gain=13.127 6.02928 4.44886 5.24072 4.51924 3.46628
threshold=-0.52716300993787557 -1.2839767597941159 1.1544586137322044 1.3415984926519069 0.96506030074373073 -1.322027166654385
decision_type=2 2 2 2 2 2
left_child=1 -1 3 -2 -4 -3
right_child=2 5 4 -5 -6 -7
leaf_value=0.015449673467370481 -0.0083515076371958041 0.00233508124707206 0.027651331547660769 0.019741557248257262 -0.0099564141063983452 -0.029886826626386476
leaf_weight=2.3581214249134055 48.14137165248394 2.5969893336296073 7.3974622786045057 5.6979675441980353 3.3033972084522247 31.17009711265564
leaf_count=15 272 15 54 36 19 153
internal_value=-0.0095608 -0.0237893 -0.0012179 -0.00490845 0.0154138 -0.0271539
internal_weight=100.665 36.1252 64.5402 53.8393 10.7009 33.7671
internal_count=564 183 381 308 73 168
is_linear=0
shrinkage=0.03


Tree=13
num_leaves=8
num_cat=0
split_feature=7 18 0 5 5 20 24
split_gain=7.66633 5.37498 5.10744 5.88179 4.97409 2.15076 1.10999
threshold=0.75066144640692722 1.0424213386968153 -1.5859668378801175 2.8344757892955408 -0.30904103380509562 -0.34390439730704864 1.2955123519984688
decision_type=2 2 2 2 2 2 2
left_child=1 4 6 -4 -1 -3 -2
right_child=2 5 3 -5 -6 -7 -8
leaf_value=-0.002366718778236885 -0.026905004669382806 0.020946410907858908 0.02755527477171495 -0.022237824895422413 -0.020402492016093548 -0.0037898854250604085 0
leaf_weight=20.297943562269211 2.3159944713115688 4.1468937695026398 10.33833000063896 1.6361650377511967 54.147554621100426 6.4495518803596479 1.4269048869609831
leaf_count=115 12 27 74 8 282 37 9
internal_value=-0.00925415 -0.0128423 0.00922879 0.0188684 -0.0157008 0.006086 -0.0171892
internal_weight=100.759 85.0419 15.7174 11.9745 74.4455 10.5964 3.7429
internal_count=564 461 103 82 397 64 21
is_linear=0
shrinkage=0.03


Tree=14
num_leaves=7
num_cat=0
split_feature=14 29 17 20 29 20
split_gain=11.9084 5.64885 3.95761 4.96142 4.25951 1.96354
threshold=-0.52716300993787557 -1.2839767597941159 1.1544586137322044 1.3415984926519069 0.96506030074373073 0.35003337325234918
decision_type=2 2 2 2 2 2
left_child=1 -1 3 -2 -4 -3
right_child=2 5 4 -5 -6 -7
leaf_value=0.015387047975665501 -0.0078381480693690275 -0.032068591311329567 0.026807800545076137 0.019512931646593151 -0.0097336118059295779 -0.01386047185947752
leaf_weight=2.3561130166053763 48.280110791325569 20.542291387915611 7.2756542265415174 5.6861811876296988 3.3079955726861954 13.386454522609709
leaf_count=15 272 98 54 36 19 70
internal_value=-0.00897995 -0.0224915 -0.00102026 -0.00448998 0.0147553 -0.0257448
internal_weight=100.835 36.2849 64.5499 53.9663 10.5836 33.9287
internal_count=564 183 381 308 73 168
is_linear=0
shrinkage=0.03


Tree=15
num_leaves=7
num_cat=0
split_feature=17 7 20 19 7 26
split_gain=14.9345 7.02022 5.86244 3.84576 3.66762 2.6263
threshold=0.47520652253982437 -1.0959147127752569 1.3415984926519069 -0.88846046933747425 0.98208887078806095 2.3236294781853668
decision_type=2 2 2 2 2 2
left_child=1 -1 -3 4 -2 -5
right_child=3 2 -4 5 -6 -7
leaf_value=-0.044309185059248753 -0.02832670062133967 -0.017082375155524562 0.0064153516084977978 0.02720226960145081 0.014037066827021841 -0.0013814862486769184
leaf_weight=7.087219923734664 2.6803684532642391 59.265977755188942 10.199918001890181 10.387544669210909 2.5049695074558258 2.9754250049591056
leaf_count=30 14 312 60 75 17 19
internal_value=-0.0111003 -0.0169687 -0.0134623 0.0122886 -0.00744554 0.0205581
internal_weight=95.1014 76.5531 69.4659 18.5483 5.18534 13.363
internal_count=527 402 372 125 31 94
is_linear=0
shrinkage=0.03


Tree=16
num_leaves=7
num_cat=0
split_feature=17 7 20 19 7 26
split_gain=14.0648 6.67658 5.5186 3.66962 3.49855 2.53002
threshold=0.47520652253982437 -1.0959147127752569 1.3415984926519069 -0.88846046933747425 0.98208887078806095 2.3236294781853668
decision_type=2 2 2 2 2 2
left_child=1 -1 -3 4 -2 -5
right_child=3 2 -4 5 -6 -7
leaf_value=-0.043110048010177121 -0.027555034331264997 -0.016540459177526869 0.0062458893720435333 0.026683961941514855 0.013775449104821653 -0.0013500125103570071
leaf_weight=7.093526065349578 2.700460463762286 59.402113750576973 10.189650669693945 10.292503215372561 2.4951084703207016 2.9767455756664267
leaf_count=30 14 312 60 75 17 19
internal_value=-0.0107744 -0.0164523 -0.0130354 0.0119775 -0.00723414 0.0201104
internal_weight=95.1501 76.6853 69.5918 18.4648 5.19557 13.2692
internal_count=527 402 372 125 31 94
is_linear=0
shrinkage=0.03


Tree=17
num_leaves=7
num_cat=0
split_feature=17 7 20 19 7 11
split_gain=13.2493 6.3598 5.19655 3.50145 3.33838 2.25169
threshold=0.47520652253982437 -1.0959147127752569 1.3415984926519069 -0.88846046933747425 0.98208887078806095 -0.13051369656836223
decision_type=2 2 2 2 2 2
left_child=1 -1 -3 4 -2 -5
right_child=3 2 -4 5 -6 -7
leaf_value=-0.041979246017354678 -0.026814042753266151 -0.016019043371583296 0.0060808750740206615 0.032031884856703108 0.013519117997909579 0.0052336146024000692
leaf_weight=7.0929958522319785 2.7191774398088482 59.526177629828453 10.179470106959341 6.1071591153740892 2.4852557554841042 7.0677929744124386
leaf_count=30 14 312 60 47 17 47
internal_value=-0.0104604 -0.0159557 -0.012624 0.0116759 -0.00702862 0.0196741
internal_weight=95.178 76.7986 69.7056 18.3794 5.20443 13.175
internal_count=527 402 372 125 31 94
is_linear=0
shrinkage=0.03


Tree=18
num_leaves=7
num_cat=0
split_feature=17 7 20 19 7 11
split_gain=12.5278 6.06685 4.89475 3.35456 3.18654 2.18194
threshold=0.47520652253982437 -1.0959147127752569 1.3415984926519069 -0.88846046933747425 0.98208887078806095 0.056851595726335989
decision_type=2 2 2 2 2 2
left_child=1 -1 -3 4 -2 -5
right_child=3 2 -4 5 -6 -7
leaf_value=-0.040910471332553308 -0.026101860043575481 -0.015517035756611777 0.0059201902467384462 0.029733395593273326 0.013267924624699739 0.0032598840783042257
leaf_weight=7.086163491010665 2.7365829199552563 59.638997077941895 10.169384464621542 7.0741267427802068 2.4754205048084259 6.0144634768366814
leaf_count=30 14 312 60 54 17 40
internal_value=-0.0101471 -0.0154776 -0.0122275 0.0114254 -0.00682874 0.019302
internal_weight=95.1951 76.8945 69.8084 18.3006 5.212 13.0886
internal_count=527 402 372 125 31 94
is_linear=0
shrinkage=0.03


Tree=19
num_leaves=6
num_cat=0
split_feature=7 7 27 16 1
split_gain=10.6044 6.42206 3.23505 3.00021 5.04186
threshold=0.99365053861599273 -1.0959147127752569 1.6809097730429747 0.10416361761394159 0.16180601193158162
decision_type=2 2 2 2 2
left_child=1 -1 -3 4 -2
right_child=3 2 -4 -5 -6
leaf_value=-0.039898147374397792 -0.018745449811942261 -0.012129982618942037 0.015046951481345933 0.030491218022620361 0.025470744885364011
leaf_weight=7.0735315680503836 4.0610615089535695 72.679870814085007 3.0471543222665778 5.0762148275971413 3.2569835186004639
leaf_count=30 23 392 19 39 24
internal_value=-0.00984595 -0.0137822 -0.0107373 0.0148443 0.000547805
internal_weight=95.1948 82.8006 75.727 12.3943 7.31805
internal_count=527 441 411 86 47
is_linear=0
shrinkage=0.03


Tree=20
num_leaves=7
num_cat=0
split_feature=11 14 5 0 28 2
split_gain=15.961 9.89997 6.56291 5.99974 4.13607 2.99735
threshold=-0.46987412033019077 -0.35235377075856628 0.90223446952624042 -0.15656060471779398 -0.79249404528277079 0.4332183576279956
decision_type=2 2 2 2 2 2
left_child=2 4 5 -3 -2 -1
right_child=1 3 -4 -5 -6 -7
leaf_value=0.028418443330900611 -0.035570277831836042 -0.018895628599687225 -0.022831798283684108 0.0074044397507200665 -0.01353830705819545 0
leaf_weight=14.79191510379315 14.46480645239353 10.267274774610994 2.4017830044031134 24.259230047464371 23.83959873020649 5.0154583752155295
leaf_count=101 65 55 12 146 125 31
internal_value=-0.00563813 -0.0124778 0.0159747 -0.000474907 -0.0227805 0.0219839
internal_weight=95.0401 72.8309 22.2092 34.5265 38.3044 19.8074
internal_count=535 391 144 201 190 132
is_linear=0
shrinkage=0.03


Tree=21
num_leaves=8
num_cat=0
split_feature=17 13 2 19 18 13 7
split_gain=15.2684 7.15595 4.67568 3.46842 3.27642 1.47197 1.13819
threshold=0.47520652253982437 0.033637310515728332 0.40398249853639812 -0.61685707152226887 -0.33703479342094944 1.3839049287661231 0.5517991989139347
decision_type=2 2 2 2 2 2 2
left_child=1 4 -3 5 -1 -2 -5
right_child=3 2 -4 6 -6 -7 -8
leaf_value=-0.024567807583263421 0.008104813561285857 0.010709660637362055 -0.012722606292177727 0.006835573279639089 -0.0068132493176639311 -0.019260108873143438 0.033907158417157454
leaf_weight=30.149509862065315 5.8943614214658764 16.156040370464329 12.840974166989325 3.4669718444347364 17.140085518360138 1.3512688279151914 7.9732657745480537
leaf_count=148 39 96 67 23 92 7 63
internal_value=-0.00548951 -0.0115185 0 0.018002 -0.0185934 0.00019305 0.0276355
internal_weight=94.9725 76.2866 28.997 18.6859 47.2896 7.24563 11.4402
internal_count=535 403 163 132 240 46 86
is_linear=0
shrinkage=0.03


Tree=22
num_leaves=7
num_cat=0
split_feature=11 9 28 5 2 21
split_gain=14.7435 10.0091 7.178 6.22462 2.8311 2.44609
threshold=-0.46987412033019077 0.88982025820449595 -0.79249404528277079 0.90223446952624042 0.4332183576279956 -0.63471532689037224
decision_type=2 2 2 2 2 2
left_child=3 2 -2 4 -1 -3
right_child=1 5 -4 -5 -6 -7
leaf_value=0.027725477965306906 -0.03352526065174613 -0.0019635260053712934 -0.0098743043502092735 -0.022160812983538079 0 0.023494742195229127
leaf_weight=14.649472579360014 16.269038110971451 4.8298389315605164 45.169198252260685 2.4109723567962638 5.0026982426643363 6.5574903786182386
leaf_count=101 74 28 246 12 31 43
internal_value=-0.00532699 -0.0118892 -0.0167179 0.0155194 0.021427 0.0126835
internal_weight=94.8887 72.8256 61.4382 22.0631 19.6522 11.3873
internal_count=535 391 320 144 132 71
is_linear=0
shrinkage=0.03


Tree=23
num_leaves=8
num_cat=0
split_feature=17 13 1 19 18 6 7
split_gain=14.1556 6.53908 6.60656 3.33051 3.02793 1.7137 1.08875
threshold=0.47520652253982437 0.033637310515728332 -0.71489639900840007 -0.61685707152226887 -0.33703479342094944 0.56214485363861788 0.5517991989139347
decision_type=2 2 2 2 2 2 2
left_child=1 4 -3 5 -1 -2 -5
right_child=3 2 -4 6 -6 -7 -8
leaf_value=-0.023461930416427735 0.010893435801910848 0.024130762259721782 -0.0077617166397839863 0.0066564533846874387 -0.0063891449628760057 -0.015822865495606308 0.033300835589517734
leaf_weight=30.178644761443138 4.8350521177053478 6.8163353502750423 22.147479072213173 3.4564461559057218 17.149196997284889 2.3950314819812775 7.8313893601298332
leaf_count=148 33 44 119 23 92 13 63
internal_value=-0.00517608 -0.0109652 0 0.0175532 -0.0177221 0.000102628 0.0270802
internal_weight=94.8096 76.2917 28.9638 18.5179 47.3278 7.23008 11.2878
internal_count=535 403 163 132 240 46 86
is_linear=0
shrinkage=0.03


Tree=24
num_leaves=8
num_cat=0
split_feature=11 9 28 4 21 2 21
split_gain=13.4539 9.24244 6.74048 2.68033 3.25317 2.97263 2.33324
threshold=-0.46987412033019077 0.88982025820449595 -0.79249404528277079 -0.27028196833668389 0.75474618778453884 0.4332183576279956 -0.63471532689037224
decision_type=2 2 2 2 2 2 2
left_child=3 2 -2 4 -1 -5 -3
right_child=1 6 -4 5 -6 -7 -8
leaf_value=0.011402299518451998 -0.032206504138005743 -0.0018916355483234171 -0.009288561080670707 0.034971788654591267 -0.024917589545936824 0.0021498733765722418 0.022977849660425632
leaf_weight=8.0798996537923831 16.241746693849564 4.8231091275811195 45.231524497270584 7.3019032850861532 1.8889308422803868 4.6220057904720306 6.5172313004732114
leaf_count=54 74 28 246 52 9 29 43
internal_value=-0.00501576 -0.0112717 -0.0159063 0.0149814 0.00205551 0.0240963 0.0123752
internal_weight=94.7064 72.8136 61.4733 21.8927 9.96883 11.9239 11.3403
internal_count=535 391 320 144 63 81 71
is_linear=0
shrinkage=0.03


Tree=25
num_leaves=7
num_cat=0
split_feature=17 14 17 8 5 14
split_gain=8.88309 4.31058 5.75729 3.15341 3.11148 2.96412
threshold=0.47520652253982437 0.28258288841075802 -0.10574373971138247 -0.32505971928785288 1.5867799841891053 2.3623336821642908
decision_type=2 2 2 2 2 2
left_child=1 3 -3 -1 5 -2
right_child=4 2 -4 -5 -6 -7
leaf_value=-0.0033035318006165316 0.021904695116250008 0.02261223024270434 -0.017525797307027989 -0.019114551147792945 -0.017933406441551669 -0.0070038572915484144
leaf_weight=17.106622770428658 12.33426481485367 6.0443306714296341 4.7956081926822645 49.978534176945686 1.8656066805124272 3.1112024113535872
leaf_count=95 92 38 25 251 10 20
internal_value=-0.00813243 -0.0124869 0.0041145 -0.0153227 0.0105891 0.0154625
internal_weight=95.2362 77.9251 10.8399 67.0852 17.3111 15.4455
internal_count=531 409 63 346 122 112
is_linear=0
shrinkage=0.03


Tree=26
num_leaves=8
num_cat=0
split_feature=17 4 17 9 14 11 5
split_gain=8.34641 4.9488 3.48791 3.388 3.035 3.51494 2.12642
threshold=0.47520652253982437 -0.42006171889894817 -0.48877336125868348 0.86320125206909271 1.413908022993563 -0.92058058194481351 2.8344757892955408
decision_type=2 2 2 2 2 2 2
left_child=1 2 -1 -3 6 -6 -2
right_child=4 3 -4 -5 5 -7 -8
leaf_value=-0.014873246660407331 0.024528206565234308 -0.01905825811935568 0.0112796416020607 2.6113300108545049e-05 0.017828448077180408 -0.021018570665917988 -0.007600977347122193
leaf_weight=6.1671804636716869 9.4564979299902934 51.47784398496151 11.477781921625136 8.8425760567188245 2.4923254624009132 3.9899286627769461 1.285706266760825
leaf_count=32 71 259 69 49 21 23 7
internal_value=-0.0079036 -0.0121159 0.00134866 -0.016159 0.0102877 -0.00449309 0.0195965
internal_weight=95.1898 77.9654 17.645 60.3204 17.2245 6.48225 10.7422
internal_count=531 409 101 308 122 44 78
is_linear=0
shrinkage=0.03


Tree=27
num_leaves=8
num_cat=0
split_feature=17 14 17 14 27 11 26
split_gain=7.86972 3.9501 5.48946 2.88633 4.19946 2.78911 1.93849
threshold=0.47520652253982437 0.28258288841075802 -0.10574373971138247 1.413908022993563 0.54107810916882404 -0.45303335529691058 0.11191751350832525
decision_type=2 2 2 2 2 2 2
left_child=1 5 -3 6 -5 -1 -2
right_child=3 2 -4 4 -6 -7 -8
leaf_value=-0.00094600099124635822 -0.0016484643765465538 0.022223631820408159 -0.01695103202417694 -0.019924125717138603 0.024244895910302326 -0.017388449867891669 0.025309672865270801
leaf_weight=12.711343511939047 2.2598009556531933 6.0273963809013367 4.8113318830728513 4.595524050295352 1.889835864305496 54.445877552032471 8.3974356651306135
leaf_count=72 14 38 25 28 16 274 64
internal_value=-0.00766989 -0.0117528 0.00411076 0.0100344 -0.00433141 -0.0144679 0.0191703
internal_weight=95.1385 77.9959 10.8387 17.1426 6.48536 67.1572 10.6572
internal_count=531 409 63 122 44 346 78
is_linear=0
shrinkage=0.03


Tree=28
num_leaves=8
num_cat=0
split_feature=26 11 3 6 11 14 12
split_gain=7.27584 3.73082 4.61093 2.93497 7.90668 6.59819 2.90683
threshold=0.16258650635397071 -0.45303335529691058 -0.36966298671481651 -0.59158379644563563 -1.5166141881978115 1.6894316597506924 0.0091134232933877939
decision_type=2 2 2 2 2 2 2
left_child=1 2 -1 4 -2 -5 -3
right_child=3 6 -4 5 -6 -7 -8
leaf_value=-0.0071407102721562045 0.026053386942920864 -0.019598874180246941 0.03329874447183262 0.023759957751209884 -0.022480664865124445 -0.022004114880036826 -0.0032084771177649483
leaf_weight=9.4500594511628133 3.6205536648631096 42.570373803377151 2.3123452216386786 12.151390247046946 7.4936448261141795 2.5725154131650916 14.914161413908003
leaf_count=53 29 213 16 84 42 14 80
internal_value=-0.00744143 -0.0125032 0.00209021 0.00574946 -0.00508178 0.0143009 -0.0156279
internal_weight=95.085 69.2469 11.7624 25.8381 11.1142 14.7239 57.4845
internal_count=531 362 69 169 71 98 293
is_linear=0
shrinkage=0.03


Tree=29
num_leaves=7
num_cat=0
split_feature=17 14 17 8 18 9
split_gain=7.21231 3.60548 5.193 2.83521 2.75007 2.8729
threshold=0.47520652253982437 0.28258288841075802 -0.10574373971138247 -0.32505971928785288 2.2016179424502007 0.21598482933483962
decision_type=2 2 2 2 2 2
left_child=1 3 -3 -1 5 -2
right_child=4 2 -4 -5 -6 -7
leaf_value=-0.002382995619355286 0.024995832628293701 0.021701163699561054 -0.016399312573236329 -0.017300984496231991 -0.016906446176279153 0
leaf_weight=17.146881967782974 8.5473472103476542 6.0030771791934967 4.823677718639372 50.040170311927795 1.8660063669085492 6.6242855638265601
leaf_count=95 67 38 25 251 10 45
internal_value=-0.00722004 -0.0111223 0.00401383 -0.0137165 0.00977531 0.014456
internal_weight=95.0514 78.0138 10.8268 67.1871 17.0376 15.1716
internal_count=531 409 63 346 122 112
is_linear=0
shrinkage=0.03


Tree=30
num_leaves=8
num_cat=0
split_feature=11 27 20 14 25 9 24
split_gain=6.59446 6.09287 4.8664 4.65175 3.99003 3.63565 1.9302
threshold=-0.47433231606123649 1.5730646600911731 0.30106454925079701 1.1544554028241529 0.5044172035948683 0.91572795770799142 0.79525343047596264
decision_type=2 2 2 2 2 2 2
left_child=2 5 4 -4 -1 -2 -3
right_child=1 6 3 -5 -6 -7 -8
leaf_value=0.0069075160466628305 -0.016511436591401547 0.034029001512850821 0.03885963596691816 -0.0088055572243603726 -0.022252994864519461 0.0029461456788315338 0
leaf_weight=11.341876551508909 63.209237657487392 2.1889462471008292 5.0188409090042105 1.8071302846074102 5.3053216412663451 8.7889050766825658 2.0004690438508987
leaf_count=75 325 15 37 11 28 53 11
internal_value=-0.0075352 -0.0118233 0.00592939 0.0255779 -0.00261008 -0.0140051 0.0194121
internal_weight=99.6607 76.1876 23.4732 6.82597 16.6472 71.9981 4.18942
internal_count=555 404 151 48 103 378 26
is_linear=0
shrinkage=0.03


Tree=31
num_leaves=8
num_cat=0
split_feature=28 12 19 20 25 18 17
split_gain=5.05154 6.87035 10.8809 3.04469 3.5727 2.7235 1.59995
threshold=0.10110948702821183 -0.63566949263801797 -0.17530026479213831 -0.43797418319226572 0.004970607380998221 0.93682229266330797 -0.67562430077283941
decision_type=2 2 2 2 2 2 2
left_child=1 6 -3 5 -5 -2 -1
right_child=3 2 -4 4 -6 -7 -8
leaf_value=-0.0021408353120859151 0.0030795013979097721 0.0086451307047963836 -0.018022040494606168 -0.014980654717936281 0.0097734998731150557 0.033290417835913758 -0.036798717893875274
leaf_weight=2.1300869584083548 10.438354745507239 22.225694224238396 32.179771095514297 12.239506781101229 7.3956983909010878 3.2045518904924384 9.8254507035016996
leaf_count=11 66 126 163 72 49 24 44
internal_value=-0.00729664 -0.0120432 -0.00700613 0.00198128 -0.00519894 0.0125792 -0.0319604
internal_weight=99.6391 66.361 54.4055 33.2781 19.6352 13.6429 11.9555
internal_count=555 344 289 211 121 90 55
is_linear=0
shrinkage=0.03


Tree=32
num_leaves=8
num_cat=0
split_feature=28 12 19 6 7 0 17
split_gain=4.79695 6.51772 10.2576 3.93663 5.1999 4.06568 1.49276
threshold=0.10110948702821183 -0.63566949263801797 -0.17530026479213831 -0.25400250895423576 1.8582865401146031 -1.0970825728883964 -0.67562430077283941
decision_type=2 2 2 2 2 2 2
left_child=1 6 -3 5 -5 -2 -1
right_child=3 2 -4 4 -6 -7 -8
leaf_value=-0.0020972572100202576 0.0099613813479676877 0.008398863534590361 -0.017486567628827717 0.022206536971218042 -0.020289994838451335 -0.016633908128142715 -0.035785649324818355
leaf_weight=2.1298974454402915 7.2107476890087119 22.220463126897812 32.200511574745178 11.598111242055891 2.2111317068338385 12.243187859654428 9.8287367075681669
leaf_count=11 51 126 163 77 12 71 44
internal_value=-0.00707953 -0.0117041 -0.00679413 0.00195869 0.0138837 -0.00633108 -0.0311049
internal_weight=99.6428 66.3796 54.421 33.2632 13.8092 19.4539 11.9586
internal_count=555 344 289 211 89 122 55
is_linear=0
shrinkage=0.03


Tree=33
num_leaves=8
num_cat=0
split_feature=28 20 19 28 6 28 0
split_gain=4.52538 4.74618 6.6855 4.3297 3.7062 4.41212 3.84085
threshold=0.10110948702821183 0.32254357616227336 -1.1859803897517012 -0.3458988723951571 -0.25400250895423576 1.1050063232285909 -1.0970825728883964
decision_type=2 2 2 2 2 2 2
left_child=1 2 -1 -3 6 -6 -2
right_child=4 3 -4 -5 5 -7 -8
leaf_value=0.01878661354526619 0.0097273465152054976 0.010812927070975392 -0.020137534428451682 -0.015917880917709556 0.026277562591876812 -0.0057603002366981544 -0.01611666524670189
leaf_weight=3.3564924597740164 7.1871295198798171 13.043146535754206 42.087013572454453 7.8992315083742133 8.3349065333604795 5.4322147369384757 12.288422688841822
leaf_count=20 51 75 209 40 55 34 71
internal_value=-0.00688583 -0.0113767 -0.0167262 5.42608e-05 0.00189007 0.0134926 -0.00613053
internal_weight=99.6286 66.3859 45.4435 20.9424 33.2427 13.7671 19.4756
internal_count=555 344 229 115 211 89 122
is_linear=0
shrinkage=0.03


Tree=34
num_leaves=6
num_cat=0
split_feature=11 16 20 10 24
split_gain=6.14688 5.23564 4.54993 4.31224 3.42366
threshold=-0.47433231606123649 1.8328002116134952 0.76335804464710066 1.159509885113907 -1.3069482779262185
decision_type=2 2 2 2 2
left_child=2 3 4 -2 -1
right_child=1 -3 -4 -5 -6
leaf_value=0.023996633516738967 -0.014908147178741577 0.02475048855452407 0.031093632048353938 0.0078777652220263124 -0.0063386477061259409
leaf_weight=3.158287860453135 66.387875318527222 2.5019234567880622 4.2428485229611388 7.2396333515644065 16.093628965318203
leaf_count=25 342 17 31 45 95
internal_value=-0.00667424 -0.0108265 0.00630558 -0.0124715 0
internal_weight=99.6242 76.1294 23.4948 73.6275 19.2519
internal_count=555 404 151 387 120
is_linear=0
shrinkage=0.03


Tree=35
num_leaves=7
num_cat=0
split_feature=9 9 21 16 4 14
split_gain=4.76535 4.4997 4.49811 3.87163 3.37708 1.67883
threshold=-0.62114247236802123 1.3391820051366843 1.0864862969390352 0.71055655092293402 0.79101834298818574 1.5724622865355471
decision_type=2 2 2 2 2 2
left_child=2 4 3 -1 -2 -3
right_child=1 5 -4 -5 -6 -7
leaf_value=0.023953771094575662 -0.0079460143462041499 0.022387235910430559 -0.025047645932598738 -0.0034513279402208245 -0.025054584051433338 -0.0074621552461165055
leaf_weight=10.03015965968371 59.110220082104206 4.3488218337297431 2.2741221338510504 6.7459029778838149 13.256956316530703 1.3418372496962545
leaf_count=70 315 30 11 42 68 8
internal_value=-0.00606574 -0.00938008 0.00685636 0.0128533 -0.0115016 0.0139404
internal_weight=97.108 78.0578 19.0502 16.7761 72.3672 5.69066
internal_count=544 421 123 112 383 38
is_linear=0
shrinkage=0.03


Tree=36
num_leaves=8
num_cat=0
split_feature=7 4 18 12 5 21 12
split_gain=3.24653 5.08959 5.6075 4.67855 3.6476 2.78974 2.19266
threshold=-0.87308525882094445 0.45254087463305198 -0.49796287582828708 -0.10587565220563865 0.085826472083929975 1.0275360555614783 -0.27371977694591859
decision_type=2 2 2 2 2 2 2
left_child=4 2 -2 -3 6 -6 -1
right_child=1 3 -4 -5 5 -7 -8
leaf_value=0.024249795268465761 0.015987143134560414 -0.022403166538779731 -0.0043831709371177953 0.00086187328103651077 -0.038294590706515953 0 -0.012344261528809073
leaf_weight=1.56363120675087 16.579425863921642 18.207344137132171 37.69702136516571 11.747286617755888 6.5317208766937238 2.4759781062602997 2.2765396535396567
leaf_count=10 102 95 217 68 28 13 11
internal_value=-0.00589746 -0.00350682 0.00185303 -0.0132555 -0.0195356 -0.0292023 0.00262823
internal_weight=97.0789 84.2311 54.2764 29.9546 12.8479 9.0077 3.84017
internal_count=544 482 319 163 62 41 21
is_linear=0
shrinkage=0.03


Tree=37
num_leaves=8
num_cat=0
split_feature=9 9 9 5 29 10 19
split_gain=4.37952 4.22757 3.99297 3.09986 3.06591 1.95581 1.67094
threshold=-0.62114247236802123 1.3391820051366843 -1.0055955036623427 -0.46662693895392271 -1.2988266970205551 -0.012466988382407904 1.1063724873655734
decision_type=2 2 2 2 2 2 2
left_child=2 4 3 -1 -2 -4 -3
right_child=1 6 5 -5 -6 -7 -8
leaf_value=-0.024523947184431339 0.012825094774118329 0.023472512369521543 0.025917092644693121 0.0063324022174651145 -0.01245953346524839 -0.0050081454174658036 -0.0049768686854457537
leaf_weight=3.7411020398139954 3.4631260037422171 3.8757789656519881 7.6828679963946342 6.1821434050798434 68.925682000815868 1.3934145346283893 1.8073828518390653
leaf_count=22 22 28 52 41 361 8 10
internal_value=-0.00573325 -0.00890994 0.00666305 -0.00565677 -0.010969 0.0202503 0.0136874
internal_weight=97.0715 78.072 18.9995 9.92325 72.3888 9.07628 5.68316
internal_count=544 421 123 63 383 60 38
is_linear=0
shrinkage=0.03


Tree=38
num_leaves=7
num_cat=0
split_feature=9 21 9 9 21 19
split_gain=4.11495 4.26381 3.99844 3.28741 3.26397 1.61182
threshold=-0.62114247236802123 1.0864862969390352 1.3391820051366843 -1.1407007146954578 1.1477192469275515 1.1063724873655734
decision_type=2 2 2 2 2 2
left_child=1 3 4 -1 -2 -4
right_child=2 -3 5 -5 -6 -7
leaf_value=-0.0018940101178392791 -0.013471332779185916 -0.024505095040577924 0.023039889891013222 0.023159155547353132 0.002830423217904548 -0.0048785999213749537
leaf_weight=7.1943343728780791 60.352116428315639 2.2833460122346869 3.8492784500122061 9.4960062429308891 12.047173053026198 1.808599606156349
leaf_count=47 316 11 28 65 67 10
internal_value=-0.00555377 0.00646349 -0.00863351 0.0123547 -0.0106345 0.0133713
internal_weight=97.0309 18.9737 78.0572 16.6903 72.3993 5.65788
internal_count=544 123 421 112 383 38
is_linear=0
shrinkage=0.03


Tree=39
num_leaves=7
num_cat=0
split_feature=9 21 9 16 21 14
split_gain=3.85672 4.00201 3.80225 3.32302 3.11615 1.607
threshold=-0.60780071921115408 1.0864862969390352 1.3391820051366843 0.71055655092293402 1.1477192469275515 1.5724622865355471
decision_type=2 2 2 2 2 2
left_child=1 3 4 -1 -2 -4
right_child=2 -3 5 -5 -6 -7
leaf_value=0.021658147405759005 -0.013175702604822839 -0.02393704593158609 0.02146627582271712 -0.0034749367672497933 0.0027520355597236215 -0.0076986764237949408
leaf_weight=10.436697922647005 59.83196035772562 2.2910175472497931 4.293930582702159 6.7425256446003905 12.047095522284506 1.338427811861038
leaf_count=73 313 11 30 42 67 8
internal_value=-0.00538819 0.00605834 -0.00841864 0.0116503 -0.0103816 0.013063
internal_weight=96.9817 19.4702 77.5114 17.1792 71.8791 5.63236
internal_count=544 126 418 115 380 38
is_linear=0
shrinkage=0.03


Tree=40
num_leaves=7
num_cat=0
split_feature=28 25 28 9 26 15
split_gain=6.73118 5.98284 4.32687 3.97441 2.98001 3.9362
threshold=-0.045847522241151871 -1.322027166654385 -0.42540854239551978 -0.029426300884815234 -0.48683538978733459 1.6767351769853458
decision_type=2 2 2 2 2 2
left_child=1 3 -3 -1 -2 -6
right_child=4 2 -4 -5 5 -7
leaf_value=0.036687532112495841 0.0286219941868157 -0.0096103909642980146 -0.028981360516783742 -0.0053197389322395235 -0.0046840909725307427 0.019468361565536735
leaf_weight=2.3520366549491882 2.594293236732482 33.461463004350662 17.178959757089615 3.8745542764663687 30.290886916220188 6.5353675335645667
leaf_count=16 17 173 81 20 177 52
internal_value=-0.0067633 -0.0133062 -0.0167899 0.0121837 0.0025484 0
internal_weight=96.2876 56.867 50.6404 6.22659 39.4205 36.8263
internal_count=536 290 254 36 246 229
is_linear=0
shrinkage=0.03


Tree=41
num_leaves=7
num_cat=0
split_feature=29 15 25 11 17 16
split_gain=6.41875 6.63232 4.76274 4.11091 1.6647 1.40944
threshold=-1.2988266970205551 1.3636168101404877 -1.322027166654385 -0.49663960206417174 2.2292111022411345 1.7198837529050037
decision_type=2 2 2 2 2 2
left_child=3 2 -2 5 -3 -1
right_child=1 4 -4 -5 -6 -7
leaf_value=0.032529141791341615 0.0071015319775935091 0.026871939887439689 -0.014434779241275141 -0.011134436190972255 0 0
leaf_weight=5.6250670403242111 9.4036770015954954 4.2237334325909606 70.556890964508057 2.6867817491292936 2.5087129324674606 1.2278637513518331
leaf_count=44 54 34 365 14 17 8
internal_value=-0.00655267 -0.00921884 -0.0117344 0.0153983 0.0171483 0.0270401
internal_weight=96.2327 86.693 79.9606 9.53971 6.73245 6.85293
internal_count=536 470 419 66 51 52
is_linear=0
shrinkage=0.03


Tree=42
num_leaves=7
num_cat=0
split_feature=29 15 21 18 20 18
split_gain=6.06699 6.28915 5.48788 3.12502 1.80122 1.51309
threshold=-1.2988266970205551 1.3636168101404877 1.022793308012574 2.2600648968020214 -0.13957735803162333 -0.5414644802734736
decision_type=2 2 2 2 2 2
left_child=3 2 -2 5 -3 -1
right_child=1 4 -4 -5 -6 -7
leaf_value=0.0024522566400810887 -0.014922106925622965 0.029915437284659327 0.0052640176591662964 -0.01520440308925299 0 0.032264847063843728
leaf_weight=3.2988247871398917 66.470799811184406 3.2391069605946541 13.501421377062796 1.4579885974526394 3.44556601345539 4.7202561348676673
leaf_count=22 343 27 76 8 24 36
internal_value=-0.00634717 -0.0089355 -0.0113801 0.015055 0.0168143 0.0226304
internal_weight=96.134 86.6569 79.9722 9.47707 6.68467 8.01908
internal_count=536 470 419 66 51 58
is_linear=0
shrinkage=0.03


Tree=43
num_leaves=7
num_cat=0
split_feature=28 25 28 10 26 15
split_gain=6.02335 5.48507 4.06298 3.75202 2.90374 3.43462
threshold=-0.045847522241151871 -1.322027166654385 -0.42540854239551978 0.23295314490283636 -0.48683538978733459 1.6767351769853458
decision_type=2 2 2 2 2 2
left_child=1 3 -3 -1 -2 -6
right_child=4 2 -4 -5 5 -7
leaf_value=0.029529910841968755 0.028429612958311524 -0.0087355495655687364 -0.027471186829471989 -0.010838001701452708 -0.0041943149866577392 0.018540828111006599
leaf_weight=3.5824154913425437 2.590138152241706 33.384105712175369 17.172794595360756 2.6364222764968872 30.305849209427834 6.390042968094348
leaf_count=23 17 173 81 13 177 52
internal_value=-0.00613948 -0.0123354 -0.0156835 0.0120389 0.0026753 0
internal_weight=96.0618 56.7757 50.5569 6.21884 39.286 36.6959
internal_count=536 290 254 36 246 229
is_linear=0
shrinkage=0.03


Tree=44
num_leaves=7
num_cat=0
split_feature=29 15 21 18 18 7
split_gain=5.66834 5.75166 5.12755 3.02883 1.47406 1.45414
threshold=-1.2988266970205551 1.3636168101404877 1.022793308012574 2.2600648968020214 -0.5414644802734736 0.98208887078806095
decision_type=2 2 2 2 2 2
left_child=3 2 -2 4 -1 -3
right_child=1 5 -4 -5 -6 -7
leaf_value=0.0023385389334831309 -0.014213624921475803 0 0.0052864537437410618 -0.014939605170624325 0.031840812786840519 0.025608094955481452
leaf_weight=3.2875273376703262 66.460182711482048 2.5353409349918357 13.495071247220038 1.4600564166903494 4.6789340078830701 4.071736678481102
leaf_count=22 343 17 76 8 36 34
internal_value=-0.00595177 -0.00845514 -0.0107865 0.0147793 0.0222884 0.0162841
internal_weight=95.9888 86.5623 79.9553 9.42652 7.96646 6.60708
internal_count=536 470 419 66 58 51
is_linear=0
shrinkage=0.03


Tree=45
num_leaves=5
num_cat=0
split_feature=28 21 8 4
split_gain=5.36179 6.18596 5.13977 4.21466
threshold=-1.0736554533832903 -0.62220542393569767 1.0563564324165273 1.5190480810676796
decision_type=2 2 2 2
left_child=-1 3 -3 -2
right_child=1 2 -4 -5
leaf_value=-0.031054997144124352 -0.017000644355567054 0 0.035154346730555557 0.019293786897158563
leaf_weight=5.9759880900382987 30.124634154140949 56.557886250317097 2.9798322245478621 2.119459092617034
leaf_count=27 161 322 23 16
internal_value=-0.00550337 -0.00342591 0.00219848 -0.0138356
internal_weight=97.7578 91.7818 59.5377 32.2441
internal_count=549 522 345 177
is_linear=0
shrinkage=0.03


Tree=46
num_leaves=6
num_cat=0
split_feature=7 21 0 14 11
split_gain=6.09993 5.06917 4.80624 4.42187 0.976468
threshold=-0.95717135070976955 -0.62220542393569767 -0.50635415043321497 -0.52716300993787557 0.18831922265106024
decision_type=2 2 2 2 2
left_child=4 2 -2 -3 -1
right_child=1 3 -4 -5 -6
leaf_value=-0.034949384110535747 0.0038231674165440546 -0.0087944108218053971 -0.020226007322653696 0.0082339478069919508 -0.0037899001950848616
leaf_weight=5.8867152184247953 9.9712022617459315 19.689883939921856 21.346694022417068 38.672932751476765 2.1438543051481247
leaf_count=26 62 101 111 238 11
internal_value=-0.00533811 -0.00282673 -0.0124092 0.0022861 -0.0289684
internal_weight=97.7113 89.6807 31.3179 58.3628 8.03057
internal_count=549 512 173 339 37
is_linear=0
shrinkage=0.03


Tree=47
num_leaves=6
num_cat=0
split_feature=7 21 19 0 11
split_gain=5.85415 4.76999 4.83405 4.53676 0.929039
threshold=-0.95717135070976955 -0.62220542393569767 0.78882748540400627 -0.50635415043321497 0.18831922265106024
decision_type=2 2 2 2 2
left_child=4 3 -3 -2 -1
right_child=1 2 -4 -5 -6
leaf_value=-0.034312109146620903 0.003721082639005118 -0.00080338937300396349 0.025181042271681688 -0.019626707436155116 -0.0037140780599814681
leaf_weight=5.8355150073766699 9.9649416729807871 52.041151896119118 6.2661368548870078 21.368742555379868 2.1424288600683212
leaf_count=26 62 297 42 111 11
internal_value=-0.00520265 -0.00274564 0.00221484 -0.0120377 -0.0284266
internal_weight=97.6189 89.641 58.3073 31.3337 7.97794
internal_count=549 512 339 173 37
is_linear=0
shrinkage=0.03


Tree=48
num_leaves=5
num_cat=0
split_feature=15 21 10 8
split_gain=4.64092 4.95379 4.98698 4.95831
threshold=-1.1561216221062118 -0.62220542393569767 1.1212862366393241 1.0563564324165273
decision_type=2 2 2 2
left_child=-1 2 -2 -3
right_child=1 3 -4 -5
leaf_value=-0.031706418261031204 -0.017374274376661437 -0.00039488583623634936 0.013510586806678403 0.034270552352171191
leaf_weight=4.6423538476228705 28.144104331731796 57.321919493377209 4.5092127472162238 2.939179114997386
leaf_count=21 149 326 30 23
internal_value=-0.00506162 -0.00331107 -0.0125671 0.00168079
internal_weight=97.5568 92.9144 32.6533 60.2611
internal_count=549 528 179 349
is_linear=0
shrinkage=0.03


Tree=49
num_leaves=6
num_cat=0
split_feature=7 21 8 10 11
split_gain=5.48901 4.2363 4.65023 4.45141 0.909266
threshold=-0.95717135070976955 -0.62220542393569767 1.0563564324165273 1.1212862366393241 0.18831922265106024
decision_type=2 2 2 2 2
left_child=4 3 -3 -2 -1
right_child=1 2 -4 -5 -6
leaf_value=-0.03337609924404418 -0.016050195177959858 0 0.033742620084620083 0.013208379890112672 -0.0032875065240577819
leaf_weight=5.7472735345363608 26.861729353666309 55.349379703402519 2.9116723537445059 4.4970770180225363 2.1328648775815964
leaf_count=26 143 316 23 30 11
internal_value=-0.00491308 -0.00254294 0.00212851 -0.0112977 -0.027533
internal_weight=97.5 89.6199 58.2611 31.3588 7.88014
internal_count=549 512 339 173 37
is_linear=0
shrinkage=0.03


Tree=50
num_leaves=7
num_cat=0
split_feature=28 14 20 19 19 25
split_gain=7.54977 3.86277 3.53245 2.80673 2.54182 2.29001
threshold=-0.71658104515365306 1.1439329110064484 1.4300717131403307 -1.4537449516725134 0.76554765634310651 -1.3758653791619295
decision_type=2 2 2 2 2 2
left_child=3 2 -2 -1 -3 -5
right_child=1 4 -4 5 -6 -7
leaf_value=0.011879774087982175 0.003772712507574957 -0.020626533984947782 0.027714468445205708 0.0090781872632249364 0.010188707075514909 -0.021031228327753983
leaf_weight=2.0489042997360256 53.894429855048656 7.7246650978922826 5.511226311326026 1.5304829776287139 2.1917934641242027 21.781863182783123
leaf_count=12 312 46 35 9 16 107
internal_value=-0.0015031 0.00354251 0.00656488 -0.0152473 -0.0126817 -0.0183922
internal_weight=94.6834 69.3221 59.4057 25.3613 9.91646 23.3123
internal_count=537 409 347 128 62 116
is_linear=0
shrinkage=0.03


Tree=51
num_leaves=5
num_cat=0
split_feature=7 13 19 21
split_gain=4.99217 2.91565 3.10311 0.747104
threshold=-1.0614711621938662 2.6778915618537371 -1.0498328618385719 0.58677256429804181
decision_type=2 2 2 2
left_child=3 2 -2 -1
right_child=1 -3 -4 -5
leaf_value=-0.03000087681503236 0.013537380484870848 -0.02569381316865741 -0.0009154574985809202 -0.0013702078399274826
leaf_weight=4.9293300658464423 15.270555213093756 2.631622649729251 69.929239675402641 1.8677876889705656
leaf_count=23 90 13 401 10
internal_value=-0.00144096 0.00049552 0.00169754 -0.0244724
internal_weight=94.6285 87.8314 85.1998 6.79712
internal_count=537 504 491 33
is_linear=0
shrinkage=0.03


Tree=52
num_leaves=7
num_cat=0
split_feature=28 14 27 20 27 27
split_gain=7.01262 3.5876 3.50476 3.34493 2.4816 1.52134
threshold=-0.71658104515365306 1.1439329110064484 -0.90185938685381928 1.4300717131403307 -0.5720657149531011 0.067372319648438928
decision_type=2 2 2 2 2 2
left_child=2 3 -1 -2 -3 -4
right_child=1 4 5 -5 -6 -7
leaf_value=0.013890422966409771 0.0036352078040442271 -0.030203620367101551 -0.026613515665374173 0.026966641284568101 0 -0.0086118645926636615
leaf_weight=2.3763692528009441 53.879530698060989 3.2239343598484993 11.14561450481415 5.4948153346776953 6.7297917008399946 11.732451409101484
leaf_count=14 312 17 53 35 45 61
internal_value=-0.00141817 0.003433 -0.0147018 0.00635439 -0.0121607 -0.018506
internal_weight=94.5825 69.3281 25.2544 59.3743 9.95373 22.8781
internal_count=537 409 128 347 62 114
is_linear=0
shrinkage=0.03


Tree=53
num_leaves=7
num_cat=0
split_feature=15 5 9 24 8 16
split_gain=5.65755 3.02199 3.38508 1.74822 0.803142 0.246865
threshold=-1.0068338726141302 1.4522615859976475 -1.4563341744504752 -0.21762500437339721 -0.082017239874245293 -0.41170002323504012
decision_type=2 2 2 2 2 2
left_child=3 2 -2 -1 -3 -5
right_child=1 4 -4 5 -6 -7
leaf_value=0.0010868010064254579 -0.02011627659250801 -0.029534490846687675 0.0044470757112347985 -0.005836835921451046 -7.006913016106824e-05 -0.029678001511767547
leaf_weight=1.8289754837751395 4.3270013704895964 2.3882021754980087 75.15903253108263 2.1025075018405905 1.9602392911911 6.7574835717678043
leaf_count=10 25 11 437 11 11 32
internal_value=-0.00138198 0.00122886 0.00276477 -0.0209823 -0.0204314 -0.026099
internal_weight=94.5234 83.8345 79.486 10.689 4.34844 8.85999
internal_count=537 484 462 53 22 43
is_linear=0
shrinkage=0.03


Tree=54
num_leaves=7
num_cat=0
split_feature=28 13 6 24 4 16
split_gain=6.49481 3.42595 3.47098 2.08645 1.94393 1.38236
threshold=-0.71658104515365306 2.6778915618537371 -1.0930534717955063 0.46514053203818567 -0.025361670967843791 -1.0658084885625272
decision_type=2 2 2 2 2 2
left_child=3 2 -2 4 -1 -5
right_child=1 -3 -4 5 -6 -7
leaf_value=0.010081656264922332 0.023079420091459725 -0.024722814461305628 0.0021214547020353249 0.00012927356446183636 -0.013695741402928794 -0.024087495682232549
leaf_weight=4.5591636598110199 7.3835365474224082 2.6489465609192839 59.286255516111851 1.621497407555579 5.6314380317926425 13.352760121226309
leaf_count=26 52 13 344 9 28 65
internal_value=-0.00137186 0.00328745 0.00488226 -0.0141854 -0.00230344 -0.0210578
internal_weight=94.4836 69.3187 66.6698 25.1649 10.1906 14.9743
internal_count=537 409 396 128 54 74
is_linear=0
shrinkage=0.03


Tree=55
num_leaves=8
num_cat=0
split_feature=29 28 28 28 19 13 18
split_gain=6.44445 5.03297 4.49262 4.41297 3.04189 0.921641 0.635995
threshold=1.2534282116134947 0.056153467354376214 -0.81105232864168042 -0.54205618667924715 -1.1859803897517012 -0.60636122888489263 0.3538029208112729
decision_type=2 2 2 2 2 2 2
left_child=2 5 4 -4 -1 -2 -3
right_child=1 6 3 -5 -6 -7 -8
leaf_value=0.014434318454009458 -0.003064340099230923 0.017648446761251515 0.0183894689273046 0.00051681612691451375 -0.01827490584195797 -0.033726264488541401 -0.0015721159297244778
leaf_weight=2.0344632714986792 1.947999820113181 1.8146137371659272 15.60588316619396 54.301177278161049 13.035386353731154 8.5519798249006254 1.5243187472224233
leaf_count=12 10 13 92 325 65 38 9
internal_value=-0.00155509 -0.0198452 0.00151505 0.00483667 -0.0126756 -0.0295815 0.00845946
internal_weight=98.8158 13.8389 84.9769 69.9071 15.0698 10.5 3.33893
internal_count=564 70 494 417 77 48 22
is_linear=0
shrinkage=0.03


Tree=56
num_leaves=7
num_cat=0
split_feature=29 2 7 14 27 4
split_gain=6.11972 4.60673 4.35077 4.22475 3.83936 1.21149
threshold=1.2534282116134947 0.030712206898918498 0.2088918932410819 -0.50886591408404391 -0.53972272717836633 0.8363277083455487
decision_type=2 2 2 2 2 2
left_child=1 3 5 -1 -3 -2
right_child=2 4 -4 -5 -6 -7
leaf_value=-0.016622483055131459 -0.032109888815658828 -0.005033249552914257 0.0094148121328719928 0.0018260713264044619 0.014683660841302874 -0.0013357261467750263
leaf_weight=16.430340930819511 8.9044129699468595 11.295237340033053 2.7853345200419417 28.683218665421009 28.521131165325642 2.1131345033645621
leaf_count=82 40 64 19 175 173 11
internal_value=-0.00150891 0.00147866 -0.0193577 -0.00491248 0.00888353 -0.0275587
internal_weight=98.7328 84.9299 13.8029 45.1136 39.8164 11.0175
internal_count=564 494 70 257 237 51
is_linear=0
shrinkage=0.03


Tree=57
num_leaves=7
num_cat=0
split_feature=28 11 11 24 19 16
split_gain=3.92423 3.96751 6.42985 3.49664 3.42646 2.57638
threshold=-0.81105232864168042 0.48071450965903834 0.78358892983354889 0.42099467155294407 -1.2218861170950361 1.133616905214754
decision_type=2 2 2 2 2 2
left_child=4 3 -3 -2 -1 -6
right_child=1 2 -4 -5 5 -7
leaf_value=0.014861504171666054 2.7021759716745494e-05 -0.02342686913176276 0.0040752399663097688 0.016119683584668441 -0.024636771656101699 0.0065080884224441391
leaf_weight=2.023606181144717 34.314342230558395 12.05630834400654 16.883871302008629 18.83747835457325 12.585097998380659 1.9425990283489216
leaf_count=12 206 60 100 114 61 11
internal_value=-0.00147392 0.00116426 -0.00748116 0.00608896 -0.0143925 -0.0197416
internal_weight=98.6433 82.092 28.9402 53.1518 16.5513 14.5277
internal_count=564 480 160 320 84 72
is_linear=0
shrinkage=0.03


Tree=58
num_leaves=8
num_cat=0
split_feature=29 28 2 28 6 0 12
split_gain=5.76015 4.55284 4.32815 4.01479 3.16273 1.15044 0.654688
threshold=1.2534282116134947 0.056153467354376214 0.030712206898918498 -0.85631958866584512 0.35652603995870363 1.498038401215432 0.22252556765028056
decision_type=2 2 2 2 2 2 2
left_child=2 5 4 -4 -1 -2 -3
right_child=1 6 3 -5 -6 -7 -8
leaf_value=0 -0.033210732529703746 0.017228317842445291 -0.013552860731602043 0.012467747884920822 -0.017610465542661217 -0.003079288085019847 -0.0024057110796014193
leaf_weight=33.532056041061878 8.082119941711424 1.8935076668858521 5.1111678928136817 34.665521495044231 11.493366815149782 2.3441939502954474 1.4275116994976995
leaf_count=199 36 14 26 211 58 12 8
internal_value=-0.00142235 -0.018777 0.00147219 0.0086531 -0.00472626 -0.0280862 0.00810234
internal_weight=98.5494 13.7473 84.8021 39.7767 45.0254 10.4263 3.32102
internal_count=564 70 494 237 257 48 22
is_linear=0
shrinkage=0.03


Tree=59
num_leaves=7
num_cat=0
split_feature=29 2 19 7 14 17
split_gain=5.46545 4.07921 4.04053 3.92303 3.83999 1.13208
threshold=1.2534282116134947 0.030712206898918498 0.12510249668631848 0.2088918932410819 -0.50886591408404391 -0.2589345935819512
decision_type=2 2 2 2 2 2
left_child=1 4 -3 5 -1 -2
right_child=3 2 -4 -5 -6 -7
leaf_value=-0.01579848860451067 -0.03057939666564127 0 0.019176592224180881 0.0089586813384554681 0.0018085415740096142 -0.00092627849636126697
leaf_weight=16.35067243874073 8.8232804089784604 23.020626038312912 16.698064371943474 2.7663477584719649 28.668666996061802 2.1131029874086371
leaf_count=82 40 131 106 19 175 11
internal_value=-0.0013981 0.00141715 0.00839814 -0.0183321 -0.00459497 -0.0261615
internal_weight=98.4408 84.738 39.7187 13.7027 45.0193 10.9364
internal_count=564 494 237 70 257 51
is_linear=0
shrinkage=0.03


Tree=60
num_leaves=6
num_cat=0
split_feature=24 21 20 20 13
split_gain=3.17538 2.40298 2.23721 3.46777 3.30526
threshold=1.4023005337787848 0.42836003095684022 -1.1027432695057604 -0.71080670188155215 -0.3857868273669755
decision_type=2 2 2 2 2
left_child=2 -2 4 -4 -1
right_child=1 -3 3 -5 -6
leaf_value=0.023454890941363389 -0.034909513568960229 0.00019775835835738505 -0.017427000812401571 -0.0017853226941998942 -0.0056910204540811049
leaf_weight=5.5280045345425606 4.2962557151913634 1.8657413274049757 15.74831150472164 62.282202959060669 6.1270093992352468
leaf_count=35 20 11 83 357 34
internal_value=-0.00501429 -0.0244796 -0.00332245 -0.00523661 0.00818282
internal_weight=95.8475 6.162 89.6855 78.0305 11.655
internal_count=540 31 509 440 69
is_linear=0
shrinkage=0.03


Tree=61
num_leaves=7
num_cat=0
split_feature=9 9 5 8 29 8
split_gain=2.84128 4.69613 4.89321 3.16865 3.06913 1.94749
threshold=0.82477269256979457 0.57416794907387281 0.55453458757841234 -1.0000000180025095e-35 0.19113047279972437 0.74784270582434365
decision_type=2 2 2 2 2 2
left_child=1 2 -1 -3 -2 -6
right_child=4 3 -4 -5 5 -7
leaf_value=0.0013237348531566575 -0.015425482101791331 0.0047135186409629397 -0.015068115350095607 -0.031761768906857751 0.0020834471636735647 0.029500303213980658
leaf_weight=49.157444767653942 2.7950510159134856 1.9166796803474433 22.894104428589344 8.9038833975791896 6.1733687147498113 4.0049031525850296
leaf_count=289 16 11 119 41 36 28
internal_value=-0.00487798 -0.0069804 -0.00389648 -0.0246872 0.0074464 0.0153504
internal_weight=95.8454 82.8721 72.0515 10.8206 12.9733 10.1783
internal_count=540 460 408 52 80 64
is_linear=0
shrinkage=0.03


Tree=62
num_leaves=6
num_cat=0
split_feature=24 9 9 1 21
split_gain=2.99994 2.95942 4.04452 2.72114 2.29479
threshold=1.4023005337787848 0.82477269256979457 0.57416794907387281 0.31265661402614259 0.42836003095684022
decision_type=2 2 2 2 2
left_child=1 2 -1 -3 -2
right_child=4 3 -4 -5 -6
leaf_value=-0.0024693800404643703 -0.033891181902062285 -0.010916408624346348 -0.0226473039111201 0.017624793952367112 0.00031414556406644242
leaf_weight=67.51069862395525 4.2843371629714957 3.0308441221714011 9.6837136223912221 9.4337621480226499 1.863945387303829
leaf_count=384 20 17 47 61 11
internal_value=-0.00473558 -0.00309121 -0.00537297 0.00972108 -0.023669
internal_weight=95.8073 89.659 77.1944 12.4646 6.14828
internal_count=540 509 431 78 31
is_linear=0
shrinkage=0.03


Tree=63
num_leaves=6
num_cat=0
split_feature=24 9 9 1 21
split_gain=2.85283 2.79125 3.83632 2.59438 2.20256
threshold=1.4023005337787848 0.82477269256979457 0.57416794907387281 0.31265661402614259 0.42836003095684022
decision_type=2 2 2 2 2
left_child=1 2 -1 -3 -2
right_child=4 3 -4 -5 -6
leaf_value=-0.0023961392948283144 -0.033132497507897062 -0.010654333717390411 -0.022067321869858072 0.01718238647225958 0.0003080088350544006
leaf_weight=67.517478361725807 4.2740203365683547 3.0367415323853484 9.666617847979067 9.4124333262443525 1.8639804869890211
leaf_count=384 20 17 47 61 11
internal_value=-0.00461417 -0.00300838 -0.00522563 0.00943565 -0.023096
internal_weight=95.7713 89.6333 77.1841 12.4492 6.138
internal_count=540 509 431 78 31
is_linear=0
shrinkage=0.03


Tree=64
num_leaves=8
num_cat=0
split_feature=9 9 27 27 8 25 29
split_gain=2.37023 4.04263 3.48813 3.04219 3.01437 1.50682 0.241
threshold=0.82477269256979457 0.57416794907387281 -0.47455838212296292 0.73292671521179342 -1.0000000180025095e-35 0.14394667678713494 1.3583958303456856
decision_type=2 2 2 2 2 2 2
left_child=1 2 -1 5 -3 -2 -5
right_child=3 4 -4 6 -6 -7 -8
leaf_value=0.0065015889022786372 -0.013006871075016527 0.0054316530852123813 -0.007745002880210768 0.032889621829567235 -0.029909987573633712 0.0086256470331472473 0.0034562060683477214
leaf_weight=20.391810551285744 4.8978807032108289 1.9177657663822181 51.660044766962528 2.2523123249411579 8.8312567546963656 4.3995518088340759 1.3799876868724821
leaf_count=123 27 11 285 16 41 29 8
internal_value=-0.00449621 -0.00641969 -0.00355599 0.00675208 -0.0229129 -0.00205278 0.0268102
internal_weight=95.7306 82.8009 72.0519 12.9297 10.749 9.29743 3.6323
internal_count=540 460 408 80 52 56 24
is_linear=0
shrinkage=0.03


Tree=65
num_leaves=6
num_cat=0
split_feature=28 24 12 21 18
split_gain=4.96815 4.11652 3.26571 2.8811 0.168636
threshold=-1.0651775809786905 1.4023005337787848 -0.80627545107504861 0.32173510900484914 -0.283821588394014
decision_type=2 2 2 2 2
left_child=4 2 -2 -3 -1
right_child=1 3 -4 -5 -6
leaf_value=-0.029538449846683121 -0.013551607832646756 -0.033180531231320587 0.0057853940913741297 0.0049516247007657483 -0.0059706821553638821
leaf_weight=3.9152528792619705 7.6508914381265631 3.9116840660572043 70.715590633451939 1.862960025668144 2.1115241050720206
leaf_count=19 39 18 420 11 11
internal_value=-0.000262081 0.00164284 0.00363717 -0.0206352 -0.0245869
internal_weight=90.1679 84.1411 78.3665 5.77464 6.02678
internal_count=518 488 459 29 30
is_linear=0
shrinkage=0.03


Tree=66
num_leaves=6
num_cat=0
split_feature=28 24 8 21 18
split_gain=4.77126 3.90187 4.85555 2.76062 0.157071
threshold=-1.0651775809786905 1.4023005337787848 0.12743850451480668 0.32173510900484914 -0.283821588394014
decision_type=2 2 2 2 2
left_child=4 2 -2 -3 -1
right_child=1 3 -4 -5 -6
leaf_value=-0.029096413540743965 0.010794317852931614 -0.032411332951391987 -0.0038721500591400201 0.0048552664479136138 -0.0058560369223638409
leaf_weight=3.8713502585887909 39.880189508199692 3.9081637635827056 38.45219649374485 1.862783648073673 2.1079087853431693
leaf_count=19 242 18 217 11 11
internal_value=-0.000281179 0.00157842 0.00352326 -0.0201125 -0.0242058
internal_weight=90.0826 84.1033 78.3324 5.77095 5.97926
internal_count=518 488 459 29 30
is_linear=0
shrinkage=0.03


Tree=67
num_leaves=5
num_cat=0
split_feature=7 8 12 10
split_gain=6.41445 3.73156 4.34352 3.3468
threshold=-1.0614711621938662 0.12743850451480668 -0.26432373543613391 1.1212862366393241
decision_type=2 2 2 2
left_child=-1 2 -2 -3
right_child=1 3 -4 -5
leaf_value=-0.029283739650546002 0.017694875043290138 -0.0083425468009395293 -0.00062262582316308503 0.014192216357610324
leaf_weight=5.4249259978532782 20.263195313513279 34.723282508552074 23.637767143547535 5.9380132034420958
leaf_count=27 126 189 137 39
internal_value=-0.000294478 0.0017806 0.00783746 -0.00457397
internal_weight=89.9872 84.5623 43.901 40.6613
internal_count=518 491 263 228
is_linear=0
shrinkage=0.03


Tree=68
num_leaves=5
num_cat=0
split_feature=7 8 20 9
split_gain=6.15326 3.51114 4.29612 4.16857
threshold=-1.0614711621938662 0.12743850451480668 1.1130145105166673 -0.49728612727386651
decision_type=2 2 2 2
left_child=-1 3 -3 -2
right_child=1 2 -4 -5
leaf_value=-0.028835327715931641 -0.0038491373912275138 -0.0076459077377224773 0.024147609933635607 0.014609503108168066
leaf_weight=5.3605379015207282 16.313147731125355 37.47471945732832 3.1735846400260916 27.559689395129681
leaf_count=27 99 207 21 164
internal_value=-0.000288266 0.00173302 -0.00442736 0.00761267
internal_weight=89.8817 84.5211 40.6483 43.8728
internal_count=518 491 228 263
is_linear=0
shrinkage=0.03


Tree=69
num_leaves=5
num_cat=0
split_feature=7 8 12 10
split_gain=5.90448 3.29557 4.06804 3.16085
threshold=-1.0614711621938662 0.12743850451480668 -0.26432373543613391 1.1212862366393241
decision_type=2 2 2 2
left_child=-1 2 -2 -3
right_child=1 3 -4 -5
leaf_value=-0.028398403890845927 0.01694242480679424 -0.0079477910362405254 -0.00078263262792817073 0.01396108485939873
leaf_weight=5.2960868030786505 20.230354867875576 34.711916692554951 23.637488469481468 5.9292707070708266
leaf_count=27 126 189 137 39
internal_value=-0.000280578 0.00168779 0.00738639 -0.00427679
internal_weight=89.8051 84.509 43.8678 40.6412
internal_count=518 491 263 228
is_linear=0
shrinkage=0.03


Tree=70
num_leaves=5
num_cat=0
split_feature=13 11 27 15
split_gain=3.73807 4.83732 5.56207 2.35915
threshold=2.6778915618537371 -0.41751991769616531 1.5730646600911731 0.0094391185709209336
decision_type=2 2 2 2
left_child=1 3 -3 -1
right_child=-2 2 -4 -5
leaf_value=0.019277885039185965 -0.034600705872280577 -0.0077180861378297267 0.029956507415415345 0
leaf_weight=11.254390209913256 2.2151947990059844 62.878342874348164 2.6779170334339133 11.281852796673773
leaf_count=70 10 343 18 78
internal_value=-0.002693 -0.00141026 -0.00561692 0.0101629
internal_weight=90.3077 88.0925 65.5563 22.5362
internal_count=519 509 361 148
is_linear=0
shrinkage=0.03


Tree=71
num_leaves=5
num_cat=0
split_feature=13 11 20 27
split_gain=3.58066 4.56438 6.46191 5.31575
threshold=2.6778915618537371 -0.41751991769616531 0.01683924548319779 1.5730646600911731
decision_type=2 2 2 2
left_child=1 2 -1 -3
right_child=-2 3 -4 -5
leaf_value=-0.0029888173245543755 -0.033789894369115135 -0.00749154829096351 0.028073776218279778 0.02937494526300486
leaf_weight=13.367612123489382 2.2241544350981703 62.866751216351986 9.1389645934104902 2.6689386069774619
leaf_count=81 10 343 67 18
internal_value=-0.00260702 -0.00134755 0.00989922 -0.00543597
internal_weight=90.2664 88.0423 22.5066 65.5357
internal_count=519 509 148 361
is_linear=0
shrinkage=0.03


end of trees

feature_importances:
momentum_3bar=32
atr_14=31
high_low_range=28
bb_width=27
momentum_10bar=23
upper_wick_ratio=22
lower_wick_ratio=22
volatility_5bar=20
macd_signal=18
momentum_1bar=18
candle_body_ratio=18
atr_ratio=15
close_position_in_range=15
returns_skew_10=14
hour_cos=13
volume_ratio=12
volatility_20bar=12
hour_sin=12
volume_trend=11
returns_std_10=11
vol_ratio=10
rsi_slope=9
rsi_14=8
momentum_5bar=8
macd_hist_delta=7
bb_position=7
rsi_7=4
macd_hist=1

parameters:
[boosting: gbdt]
[objective: binary]
[metric: auc]
[tree_learner: serial]
[device_type: cpu]
[data_sample_strategy: bagging]
[data: ]
[valid: ]
[num_iterations: 300]
[learning_rate: 0.03]
[num_leaves: 20]
[num_threads: 0]
[seed: 0]
[deterministic: 0]
[force_col_wise: 0]
[force_row_wise: 0]
[histogram_pool_size: -1]
[max_depth: 3]
[min_data_in_leaf: 10]
[min_sum_hessian_in_leaf: 0.001]
[bagging_fraction: 0.7]
[pos_bagging_fraction: 1]
[neg_bagging_fraction: 1]
[bagging_freq: 5]
[bagging_seed: 3]
[bagging_by_query: 0]
[feature_fraction: 0.7]
[feature_fraction_bynode: 1]
[feature_fraction_seed: 2]
[extra_trees: 0]
[extra_seed: 6]
[early_stopping_round: 0]
[early_stopping_min_delta: 0]
[first_metric_only: 0]
[max_delta_step: 0]
[lambda_l1: 0.3]
[lambda_l2: 1]
[linear_lambda: 0]
[min_gain_to_split: 0]
[drop_rate: 0.1]
[max_drop: 50]
[skip_drop: 0.5]
[xgboost_dart_mode: 0]
[uniform_drop: 0]
[drop_seed: 4]
[top_rate: 0.2]
[other_rate: 0.1]
[min_data_per_group: 100]
[max_cat_threshold: 32]
[cat_l2: 10]
[cat_smooth: 10]
[max_cat_to_onehot: 4]
[top_k: 20]
[monotone_constraints: ]
[monotone_constraints_method: basic]
[monotone_penalty: 0]
[feature_contri: ]
[forcedsplits_filename: ]
[refit_decay_rate: 0.9]
[cegb_tradeoff: 1]
[cegb_penalty_split: 0]
[cegb_penalty_feature_lazy: ]
[cegb_penalty_feature_coupled: ]
[path_smooth: 0]
[interaction_constraints: ]
[verbosity: -1]
[saved_feature_importance_type: 0]
[use_quantized_grad: 0]
[num_grad_quant_bins: 4]
[quant_train_renew_leaf: 0]
[stochastic_rounding: 1]
[linear_tree: 0]
[max_bin: 255]
[max_bin_by_feature: ]
[min_data_in_bin: 3]
[bin_construct_sample_cnt: 200000]
[data_random_seed: 1]
[is_enable_sparse: 1]
[enable_bundle: 1]
[use_missing: 1]
[zero_as_missing: 0]
[feature_pre_filter: 1]
[pre_partition: 0]
[two_round: 0]
[header: 0]
[label_column: ]
[weight_column: ]
[group_column: ]
[ignore_column: ]
[categorical_feature: ]
[forcedbins_filename: ]
[precise_float_parser: 0]
[parser_config_file: ]
[objective_seed: 5]
[num_class: 1]
[is_unbalance: 0]
[scale_pos_weight: 0.59901]
[sigmoid: 1]
[boost_from_average: 1]
[reg_sqrt: 0]
[alpha: 0.9]
[fair_c: 1]
[poisson_max_delta_step: 0.7]
[tweedie_variance_power: 1.5]
[lambdarank_truncation_level: 30]
[lambdarank_norm: 1]
[label_gain: ]
[lambdarank_position_bias_regularization: 0]
[eval_at: ]
[multi_error_top_k: 1]
[auc_mu_weights: ]
[num_machines: 1]
[local_listen_port: 12400]
[time_out: 120]
[machine_list_filename: ]
[machines: ]
[gpu_platform_id: -1]
[gpu_device_id: -1]
[gpu_use_dp: 0]
[num_gpu: 1]

end of parameters

pandas_categorical:null
