tree
version=v4
num_class=1
num_tree_per_iteration=1
label_index=0
max_feature_idx=29
objective=binary sigmoid:1
feature_names=rsi_14 rsi_7 rsi_slope macd_hist macd_hist_delta macd_signal bb_position bb_width momentum_1bar momentum_3bar momentum_5bar momentum_10bar volume_ratio volume_trend volatility_5bar volatility_20bar vol_ratio atr_14 atr_ratio candle_body_ratio upper_wick_ratio lower_wick_ratio consec_direction close_vs_open hour_sin hour_cos returns_std_10 returns_skew_10 high_low_range close_position_in_range
feature_infos=[-2.7309498450127019:2.4701377969708136] [-2.2664672855388397:2.2413023281209932] [-3.1153194363638979:2.9811087092132471] [-3.7152582434125496:2.85476012399248] [-4.7853067953900466:4.1078900757357877] [-2.6658078954761284:3.0174896201781802] [-2.8970960908237919:2.794139914663444] [-1.4841421012235658:4.3296868396068264] [-4.8209986441752184:5.004696297254319] [-5.4032940190623231:4.5472466935556675] [-5.2232606350037649:4.1003956036892326] [-4.1796161369419362:3.6551860604332909] [-1.1283324237746082:10.103854959186423] [-1.7812204607132587:4.0171015926188858] [-1.4636616712820485:5.4027715918649903] [-1.886271837015113:3.8651749782244256] [-1.9341864175490395:2.8191984959792475] [-1.8142896962344204:4.5286855805162061] [-2.3563884763422487:3.282406199433809] [-1.7807903180838662:2.1280048143216215] [-1.2861671944493145:3.3102735687868301] [-1.25713721969156:3.0657481027165012] [-3.5246736000120302:4.2968730833734448] [-1.0282630211985393:0.97251382125403996] [-1.423841524905286:1.4108644373294927] [-1.4224024982864272:1.4000228984370726] [-1.6303905787823536:4.9640652235109295] [-3.0611393550221795:2.7543176330421266] [-1.7247746247836422:3.2965422629399934] [-1.7598895838716342:1.7936137161875663]
tree_sizes=856 884 958 886

Tree=0
num_leaves=7
num_cat=0
split_feature=14 17 29 1 29 12
split_gain=25.646 10.7035 6.51818 6.49396 5.58622 4.32884
threshold=-0.64151187567291845 0.31920700896887938 -1.1851202519287227 1.7664073895579253 -1.1386472669958354 -0.12542547218727915
decision_type=2 2 2 2 2 2
left_child=2 4 -1 -4 -2 -3
right_child=1 5 3 -5 -6 -7
leaf_value=0.66927706544555343 0.67472831286695478 0.66294293785291392 0.61060043737699088 0.66741213614691997 0.64214586535151619 0.69025223291337945
leaf_weight=1.7044963836669946 4.5467205345630637 12.701483756303789 21.04796323180199 1.5903045535087574 32.792959600687027 7.1773231625556937
leaf_count=13 35 91 114 12 213 59
internal_value=0.64428 0.655818 0.618994 0.614856 0.646468 0.673053
internal_weight=81.5613 57.2185 24.3428 22.6383 37.3397 19.8788
internal_count=537 398 139 126 248 150
is_linear=0
shrinkage=1


Tree=1
num_leaves=7
num_cat=0
split_feature=17 29 14 5 20 9
split_gain=23.7265 11.0623 8.54081 3.69077 2.81565 2.31053
threshold=0.24106835609278868 -1.1851202519287227 -0.64151187567291845 1.9855789053128883 -0.21012599441612831 0.52948557443839184
decision_type=2 2 2 2 2 2
left_child=1 4 -3 5 -1 -2
right_child=3 2 -4 -5 -6 -7
leaf_value=0.028142331245232268 0.017468726925589734 -0.049773469094782835 -0.023291931556514031 -0.025785134612073983 -0.0080492275725739127 -0.0015795787189077804
leaf_weight=2.1646581664681435 11.705814756453043 22.199257038533688 31.67233407497406 2.0356671363115302 3.6165892109274855 8.7230118289589864
leaf_count=19 93 121 204 12 25 63
internal_value=-0.0210965 -0.0308775 -0.0350766 0.00470162 0.0063264 0.00922104
internal_weight=82.1173 59.6528 53.8716 22.4645 5.78125 20.4288
internal_count=537 369 325 168 44 156
is_linear=0
shrinkage=0.03


Tree=2
num_leaves=8
num_cat=0
split_feature=17 29 27 21 21 21 16
split_gain=22.0224 10.307 5.47073 4.48764 3.8244 3.3155 2.95143
threshold=0.24106835609278868 -1.1851202519287227 1.7132838755833226 -0.60573762276661436 -0.76144181418874901 0.3377051186353468 0.49958017064227894
decision_type=2 2 2 2 2 2 2
left_child=1 6 -3 4 -2 -5 -1
right_child=3 2 -4 5 -6 -7 -8
leaf_value=0.02112246277395876 0.0011232928223199748 -0.035407967712573367 0.012267894885431051 0.029608306029328964 -0.036517232521695635 0 -0.016257245171427358
leaf_weight=3.7428058683872214 7.02039934694767 52.910312585532665 1.5061084479093541 6.3486196547746641 2.3701100796461123 6.6796021610498428 2.0277903228998184
leaf_count=31 52 313 12 54 13 49 13
internal_value=-0.0203689 -0.0297147 -0.0337284 0.00453476 -0.0101109 0.0157009 0.00619683
internal_weight=82.6057 60.187 54.4164 22.4187 9.39051 13.0282 5.7706
internal_count=537 369 325 168 65 103 44
is_linear=0
shrinkage=0.03


Tree=3
num_leaves=7
num_cat=0
split_feature=17 28 6 21 19 21
split_gain=20.4676 9.73144 7.53893 4.28666 4.37548 3.63162
threshold=0.24106835609278868 -0.95271745166862964 -0.8464754546847898 -0.60573762276661436 -0.9950397616821901 -0.76144181418874901
decision_type=2 2 2 2 2 2
left_child=1 -1 -3 5 -5 -2
right_child=3 2 -4 4 -6 -7
leaf_value=-0.051202598235511786 0.0010941490555097125 0.0047246549911221566 -0.026259804315978703 -0.0068552359726641579 0.026882700324798576 -0.035459012258221165
leaf_weight=13.390353985130785 7.0178380012512207 7.6489151194691649 39.656490877270699 4.295692726969718 8.6697168797254545 2.3970418050885218
leaf_count=69 52 57 243 30 73 13
internal_value=-0.0196445 -0.0285853 -0.0210695 0.00440379 0.0153698 -0.00985926
internal_weight=83.076 60.6958 47.3054 22.3803 12.9654 9.41488
internal_count=537 369 300 168 103 65
is_linear=0
shrinkage=0.03


end of trees

feature_importances:
lower_wick_ratio=5
atr_14=4
close_position_in_range=4
volatility_5bar=2
rsi_7=1
macd_signal=1
bb_position=1
momentum_3bar=1
volume_ratio=1
vol_ratio=1
candle_body_ratio=1
upper_wick_ratio=1
returns_skew_10=1
high_low_range=1

parameters:
[boosting: gbdt]
[objective: binary]
[metric: auc]
[tree_learner: serial]
[device_type: cpu]
[data_sample_strategy: bagging]
[data: ]
[valid: ]
[num_iterations: 300]
[learning_rate: 0.03]
[num_leaves: 20]
[num_threads: 0]
[seed: 0]
[deterministic: 0]
[force_col_wise: 0]
[force_row_wise: 0]
[histogram_pool_size: -1]
[max_depth: 3]
[min_data_in_leaf: 10]
[min_sum_hessian_in_leaf: 0.001]
[bagging_fraction: 0.7]
[pos_bagging_fraction: 1]
[neg_bagging_fraction: 1]
[bagging_freq: 5]
[bagging_seed: 3]
[bagging_by_query: 0]
[feature_fraction: 0.7]
[feature_fraction_bynode: 1]
[feature_fraction_seed: 2]
[extra_trees: 0]
[extra_seed: 6]
[early_stopping_round: 0]
[early_stopping_min_delta: 0]
[first_metric_only: 0]
[max_delta_step: 0]
[lambda_l1: 0.3]
[lambda_l2: 1]
[linear_lambda: 0]
[min_gain_to_split: 0]
[drop_rate: 0.1]
[max_drop: 50]
[skip_drop: 0.5]
[xgboost_dart_mode: 0]
[uniform_drop: 0]
[drop_seed: 4]
[top_rate: 0.2]
[other_rate: 0.1]
[min_data_per_group: 100]
[max_cat_threshold: 32]
[cat_l2: 10]
[cat_smooth: 10]
[max_cat_to_onehot: 4]
[top_k: 20]
[monotone_constraints: ]
[monotone_constraints_method: basic]
[monotone_penalty: 0]
[feature_contri: ]
[forcedsplits_filename: ]
[refit_decay_rate: 0.9]
[cegb_tradeoff: 1]
[cegb_penalty_split: 0]
[cegb_penalty_feature_lazy: ]
[cegb_penalty_feature_coupled: ]
[path_smooth: 0]
[interaction_constraints: ]
[verbosity: -1]
[saved_feature_importance_type: 0]
[use_quantized_grad: 0]
[num_grad_quant_bins: 4]
[quant_train_renew_leaf: 0]
[stochastic_rounding: 1]
[linear_tree: 0]
[max_bin: 255]
[max_bin_by_feature: ]
[min_data_in_bin: 3]
[bin_construct_sample_cnt: 200000]
[data_random_seed: 1]
[is_enable_sparse: 1]
[enable_bundle: 1]
[use_missing: 1]
[zero_as_missing: 0]
[feature_pre_filter: 1]
[pre_partition: 0]
[two_round: 0]
[header: 0]
[label_column: ]
[weight_column: ]
[group_column: ]
[ignore_column: ]
[categorical_feature: ]
[forcedbins_filename: ]
[precise_float_parser: 0]
[parser_config_file: ]
[objective_seed: 5]
[num_class: 1]
[is_unbalance: 0]
[scale_pos_weight: 0.509346]
[sigmoid: 1]
[boost_from_average: 1]
[reg_sqrt: 0]
[alpha: 0.9]
[fair_c: 1]
[poisson_max_delta_step: 0.7]
[tweedie_variance_power: 1.5]
[lambdarank_truncation_level: 30]
[lambdarank_norm: 1]
[label_gain: ]
[lambdarank_position_bias_regularization: 0]
[eval_at: ]
[multi_error_top_k: 1]
[auc_mu_weights: ]
[num_machines: 1]
[local_listen_port: 12400]
[time_out: 120]
[machine_list_filename: ]
[machines: ]
[gpu_platform_id: -1]
[gpu_device_id: -1]
[gpu_use_dp: 0]
[num_gpu: 1]

end of parameters

pandas_categorical:null
