tree
version=v4
num_class=1
num_tree_per_iteration=1
label_index=0
max_feature_idx=29
objective=binary sigmoid:1
feature_names=rsi_14 rsi_7 rsi_slope macd_hist macd_hist_delta macd_signal bb_position bb_width momentum_1bar momentum_3bar momentum_5bar momentum_10bar volume_ratio volume_trend volatility_5bar volatility_20bar vol_ratio atr_14 atr_ratio candle_body_ratio upper_wick_ratio lower_wick_ratio consec_direction close_vs_open hour_sin hour_cos returns_std_10 returns_skew_10 high_low_range close_position_in_range
feature_infos=[-2.5356135924251615:2.3259787364298909] [-2.3239839866229421:2.1591932022663514] [-2.7904459595498472:2.9669654684160576] [-4.1836710485563495:2.8940674447727899] [-4.5295271773005936:3.9433831751035462] [-3.2613144736337727:3.4018647711466019] [-2.9560008824221295:2.4966559284699357] [-1.3089905084378044:4.745838951456018] [-5.7040412857885672:4.4202221969473596] [-4.3598610215170952:5.0703775077603481] [-4.1087454982045433:4.486183194760538] [-4.6727960960182848:3.9757889963190096] [-1.0280348585704915:8.9928683324582295] [-1.6461477319640065:3.7312294112644082] [-1.4313388343983395:4.7369540414023836] [-1.5656162110692797:4.0496985758223119] [-2.1128083819064192:2.7977907233747272] [-1.4654560975047988:4.7883147523805487] [-2.3349357415010816:3.1237486044385308] [-1.7534404671236712:2.0247380880217496] [-1.2318905383382786:3.2591262101190517] [-1.2493251345962291:3.0340530903199596] [-3.4953837093605031:4.3077873449345265] [-1.0193089942152349:0.98105678030428789] [-1.3859956588821229:1.427285763642492] [-1.421548496748076:1.4228917277682824] [-1.4587644162001128:4.0367336542086649] [-3.001266482229032:2.8739752806015755] [-1.5023029115748012:3.6714660957406315] [-1.9132629253690188:1.6184764381323404]
tree_sizes=1275 1388 1396 1185 1365 1182 1193 1283 1188 1183

Tree=0
num_leaves=11
num_cat=0
split_feature=1 11 9 24 8 15 18 14 20 12
split_gain=26.9329 30.4134 28.3389 25.5974 25.4458 25.3754 25.2948 16.0837 14.1616 9.57321
threshold=-1.5547851965777337 -0.18459200965240985 -0.48135282934643153 0.38471045807142584 -0.43438432843003633 2.235213376967272 -0.0073527491486004804 0.25251931889327905 0.86873450844330657 -0.29766978737564848
decision_type=2 2 2 2 2 2 2 2 2 2
left_child=2 5 9 4 -3 7 -5 -2 -4 -1
right_child=1 3 8 6 -6 -7 -8 -9 -10 -11
leaf_value=-0.21211096003905747 -0.19604688874783779 -0.23912602782226933 -0.15793855005972754 -0.18459779146825828 -0.20965295943817108 -0.24433744901688059 -0.21456406706211087 -0.17441844537405907 -0.22921884795041519 -0.26257072724644587
leaf_weight=4.0883602499961897 99.6477330327034 33.987939357757568 4.658697843551634 58.722274661064148 105.30430057644844 6.8647558689117423 43.191560983657837 47.410895764827728 3.6648269295692444 14.83254075050354
leaf_count=5 125 46 5 75 135 9 54 54 5 20
internal_value=-0.203927 -0.201915 -0.232217 -0.208623 -0.216943 -0.191532 -0.197256 -0.188826 -0.188435 -0.252
internal_weight=422.374 395.129 27.2444 241.206 139.292 153.923 101.914 147.059 8.32352 18.9209
internal_count=533 498 35 310 181 188 129 179 10 25
is_linear=0
shrinkage=1


Tree=1
num_leaves=12
num_cat=0
split_feature=1 11 18 9 2 5 0 25 4 20 15
split_gain=25.3785 28.8651 31.5447 26.9275 26.3331 21.3722 20.0888 14.5013 12.8573 7.81465 7.30439
threshold=-1.5547851965777337 0.83997393550462207 -1.4401056129146088 -0.48135282934643153 1.0272297922593359 -1.1757604665803416 0.86427853815400424 -0.092346030285626851 0.39007090322537358 0.67920365555626105 1.1228995544049931
decision_type=2 2 2 2 2 2 2 2 2 2 2
left_child=3 2 7 10 5 -3 -4 -2 -6 -5 -1
right_child=1 4 6 9 8 -7 -8 -9 -10 -11 -12
leaf_value=-0.049316238044298091 0.018686622163797347 0.037197630285345062 0.012480956017319886 0.050143699682822208 -0.023044453989498739 -0.025802292452103522 0.034346108137088723 -0.04043090706142221 0.036427739192217749 -0.0030272178393075623 -0.0043846831704835408
leaf_weight=14.020404756069189 4.2860062718391445 4.469739317893981 268.81346513330936 3.7456285953521711 3.3689702749252346 44.331297338008881 44.211478561162949 12.807824462652205 13.223825454711912 4.5943509340286255 4.8123600482940665
leaf_count=19 5 5 338 4 5 58 54 18 15 6 6
internal_value=0.00793265 0.00988154 0.0134903 -0.0195653 -0.00817439 -0.0192805 0.0156878 -0.025063 0.0233881 0.0230223 -0.0389373
internal_weight=422.685 395.513 330.119 27.1727 65.3938 48.801 313.025 17.0938 16.5928 8.33998 18.8328
internal_count=533 498 415 35 83 63 392 23 20 10 25
is_linear=0
shrinkage=0.03


Tree=2
num_leaves=12
num_cat=0
split_feature=1 11 9 2 2 2 27 19 12 20 2
split_gain=23.9319 28.121 25.6499 24.8234 53.8488 24.2333 20.8793 18.4333 9.09796 7.42757 3.9419
threshold=-1.5547851965777337 -0.18459200965240985 -0.48135282934643153 -1.0630516595372033 -0.33527335710967548 1.0670961999341755 0.047872835198982291 -1.5277443951309777 -0.29766978737564848 0.67920365555626105 1.4073075287846031
decision_type=2 2 2 2 2 2 2 2 2 2 2
left_child=2 5 8 6 -5 7 -3 -2 -1 -4 -7
right_child=1 3 9 4 -6 10 -8 -9 -10 -11 -12
leaf_value=0.0003566191596186748 -0.02783047749664035 0.0044333682633010789 0.048825883072018371 -0.036195930533745896 0.0058429290218192662 -0.044116902911070163 0.055044526550652832 0.024590877560695529 -0.048450610384829645 -0.0029534384546031091 -0.002081639076492323
leaf_weight=4.0745971798896834 5.3980562686920157 16.122060060501102 3.7581079006195051 31.290037930011749 180.80089032649994 4.4678664803504926 13.232640355825422 140.70129382610321 14.660025358200073 4.592853844165802 3.8358166217803955
leaf_count=5 7 20 4 46 229 6 15 170 20 6 5
internal_value=0.00769199 0.00958054 -0.0190535 0.00312985 -0.000471715 0.0195441 0.0285075 0.0224372 -0.0380513 0.0224363 -0.0276548
internal_weight=422.934 395.849 27.0856 241.446 212.091 154.403 29.3547 146.099 18.7346 8.35096 8.30368
internal_count=533 498 35 310 275 188 35 177 25 10 11
is_linear=0
shrinkage=0.03


Tree=3
num_leaves=10
num_cat=0
split_feature=15 16 20 18 13 5 1 25 19
split_gain=22.8818 22.968 37.9922 20.7447 19.8765 18.8042 18.2137 12.652 10.9554
threshold=2.235213376967272 -1.0584979062307565 1.8309336666767462 -1.4401056129146088 -0.12124017852613318 -1.1343942044606086 -1.4765748660338913 0.00067161551010314297 0.95456976576447305
decision_type=2 2 2 2 2 2 2 2 2
left_child=1 3 6 7 -5 -4 -3 -1 -2
right_child=8 2 5 4 -6 -7 -8 -9 -10
leaf_value=0.019626929144547493 -0.047547277296290894 -0.017262044728866683 0.018305971577539718 0.043164391873781939 0.0032516142860425216 -0.047782079878865569 0.010159530719670537 -0.043551065926419212 0.0031573905611550932
leaf_weight=4.4264220893383008 8.8142163753509504 22.450260698795319 4.2902575135231045 39.620888113975525 16.222606956958771 15.898855954408644 300.59447449445724 5.046796977519989 5.7559751272201529
leaf_count=6 12 29 5 47 21 24 375 7 7
internal_value=0.00745511 0.00880765 0.00564337 0.0250093 0.0319364 -0.0332538 0.00818794 -0.0144025 -0.0282147
internal_weight=423.121 408.551 343.234 65.3167 55.8435 20.1891 323.045 9.47322 14.5702
internal_count=533 514 433 81 68 29 404 13 19
is_linear=0
shrinkage=0.03


Tree=4
num_leaves=12
num_cat=0
split_feature=1 11 18 16 2 9 5 25 4 15 19
split_gain=21.7059 26.2074 28.5215 32.7536 24.4261 24.382 19.8629 13.5535 12.12 6.91836 3.64125
threshold=-1.5547851965777337 0.83997393550462207 -1.4401056129146088 -1.3227064988779165 1.0272297922593359 -0.48135282934643153 -1.1757604665803416 -0.092346030285626851 0.39007090322537358 1.1228995544049931 -0.749029812688216
decision_type=2 2 2 2 2 2 2 2 2 2 2
left_child=5 2 7 -4 6 9 -3 -2 -6 -1 -7
right_child=1 4 3 -5 8 10 -8 -9 -10 -11 -12
leaf_value=-0.047170625642676871 0.017909327098324716 0.035381932445982069 0.045459729752239345 0.011413676929662116 -0.022894580907908784 0 -0.025233286325749595 -0.039237041856782583 0.034763512513453894 -0.0034596506292344053 0.038548498530407233
leaf_weight=13.79701173305512 4.2959060072898891 4.4958178400993338 27.296349138021469 286.70688584446907 3.366494536399844 4.0852833390235901 44.211578369140625 12.722525238990782 13.287348151206968 4.7859286069869986 4.2673470973968488
leaf_count=19 5 5 33 359 5 5 58 18 15 6 5
internal_value=0.00722374 0.00901619 0.0124466 0.0145273 -0.00819265 -0.0183176 -0.0189184 -0.0242854 0.0221317 -0.036971 0.0220568
internal_weight=423.318 396.383 331.022 314.003 65.3612 26.9356 48.7074 17.0184 16.6538 18.5829 8.35263
internal_count=533 498 415 392 83 35 63 23 20 25 10
is_linear=0
shrinkage=0.03


Tree=5
num_leaves=10
num_cat=0
split_feature=11 0 0 19 19 2 15 29 15
split_gain=34.312 23.597 34.9707 24.1632 22.9254 20.1503 15.3923 9.6722 8.45139
threshold=1.5848328383390415 0.87425197944866218 1.7915454701685534 -1.4768501896133885 1.7495730148280459 -0.14806347835304448 0.75991514175099073 0.81186166337685572 -0.77524152111602918
decision_type=2 2 2 2 2 2 2 2 2
left_child=1 3 5 6 -5 -3 -1 -2 -4
right_child=7 2 8 4 -6 -7 -8 -9 -10
leaf_value=-0.049870941679075895 0.0017458008533412026 -0.003734011306758035 0.0072757536850738607 0.0053745713620620321 -0.047231557749615086 0.036687582179302194 0.0097072731364667413 -0.049356280710767655 -0.046402567048971097
leaf_weight=11.61522486805916 4.0414307713508633 13.415417969226835 3.3643433451652527 299.62947052717209 6.6330149769783011 53.111456990242004 5.0156389474868766 12.505349993705748 6.7797089517116529
leaf_count=17 5 17 4 379 9 63 6 17 10
internal_value=0.00389074 0.00569358 0.0205501 0.00209482 0.00406569 0.028513 -0.0320312 -0.0371448 -0.029006
internal_weight=416.111 399.564 76.6709 322.893 306.262 66.5269 16.6309 16.5468 10.1441
internal_count=527 505 94 411 388 80 23 22 14
is_linear=0
shrinkage=0.03


Tree=6
num_leaves=10
num_cat=0
split_feature=1 11 27 16 29 9 29 27 22
split_gain=45.6878 37.9255 29.5117 21.5928 14.7438 12.2611 9.25011 8.63643 2.62862
threshold=-1.4765748660338913 1.5848328383390415 -0.91814142998656056 -0.29637687955080616 -1.5729141212853606 -0.31907134546044885 0.81186166337685572 -1.9496923412926941 1.0000000180025095e-35
decision_type=2 2 2 2 2 2 2 2 2
left_child=5 2 4 -4 -2 7 -3 -1 -9
right_child=1 6 3 -5 -6 -7 -8 8 -10
leaf_value=0.0032740786931373246 -0.022259729037018054 0.0017034584059684738 0.014367007723232758 -0.0018895022106142712 0.031259462060868826 0.0069941937071115873 -0.048272642578827414 -0.048775033384350575 -0.021274953546281967
leaf_weight=3.9926265478134182 4.186292737722396 4.0424711704254177 125.71028050780296 173.47992423176765 59.52904000878334 6.8541172444820395 12.426118314266203 18.224411785602573 7.7343006134033194
leaf_count=5 6 5 157 221 72 9 17 25 10
internal_value=0.00376262 0.00689296 0.00896229 0.00494609 0.0273607 -0.0276736 -0.0362665 -0.0357706 -0.0418971
internal_weight=416.18 379.374 362.906 299.19 63.7153 36.8055 16.4686 29.9513 25.9587
internal_count=527 478 456 378 78 49 22 40 35
is_linear=0
shrinkage=0.03


Tree=7
num_leaves=11
num_cat=0
split_feature=1 11 27 28 16 27 4 29 26 21
split_gain=43.2271 35.9207 27.6924 25.3825 20.3005 11.2935 12.8618 8.86051 4.60884 2.1313
threshold=-1.4765748660338913 1.5848328383390415 -0.91814142998656056 1.1438425523508993 -0.29637687955080616 -1.9496923412926941 -0.089858338794877465 0.81186166337685572 0.48043844678960418 1.6306702058740992
decision_type=2 2 2 2 2 2 2 2 2 2
left_child=5 2 3 -2 -4 -1 9 -3 -8 -7
right_child=1 7 4 -5 -6 6 8 -9 -10 -11
leaf_value=0.012330208299251518 0.033501356515935929 0.0016621504056522917 0.013923845710481091 -0.022021674784283782 -0.0018334184932737706 -0.048457280911696023 0.019700996058542738 -0.047258163058202962 -0.021043107248719963 -0.015240677815996473
leaf_weight=4.9370474219322196 56.15098848938942 4.0434809923172024 125.84963530302048 7.6762759387493125 173.45400270819664 19.909188449382786 4.0772094130516079 12.334910809993742 3.917078971862793 3.7973343133926383
leaf_count=6 67 5 157 11 221 28 5 17 5 5
internal_value=0.00364284 0.00668093 0.00868906 0.0264946 0.00479644 -0.0270089 -0.0335087 -0.0354348 0 -0.0442117
internal_weight=416.147 379.509 363.131 63.8273 299.304 36.6379 31.7008 16.3784 7.99429 23.7065
internal_count=527 478 456 78 378 49 43 22 10 33
is_linear=0
shrinkage=0.03


Tree=8
num_leaves=10
num_cat=0
split_feature=1 11 27 1 26 9 29 27 22
split_gain=40.9166 34.0406 26.0156 20.133 18.6266 11.3541 8.49986 7.86023 2.49594
threshold=-1.4765748660338913 1.5848328383390415 -0.91814142998656056 -1.2363290146317276 0.29778944142716657 -0.31907134546044885 0.81186166337685572 -1.9496923412926941 1.0000000180025095e-35
decision_type=2 2 2 2 2 2 2 2 2
left_child=5 2 4 -4 -2 7 -3 -1 -9
right_child=1 6 3 -5 -6 -7 -8 8 -10
leaf_value=0.0028929148443098177 0.041025594027233457 0.0016218533108436535 0.035803061821302475 0.0026803356156226304 0.0082124110267380139 0.0069059326214698947 -0.046306372383111784 -0.046918404189406071 -0.020139439751007779
leaf_weight=4.0034766197204616 33.101775884628296 4.044460833072665 16.615569025278091 282.78553530573845 30.794632911682129 6.8551692068576804 12.232876062393187 17.922306001186374 7.6741686463356009
leaf_count=5 39 5 19 359 39 9 17 25 10
internal_value=0.00352763 0.00647679 0.00842577 0.00465155 0.0256741 -0.0263722 -0.0346457 -0.0342492 -0.0401744
internal_weight=416.03 379.575 363.298 299.401 63.8964 36.4551 16.2773 29.6 25.5965
internal_count=527 478 456 378 78 49 22 40 35
is_linear=0
shrinkage=0.03


Tree=9
num_leaves=10
num_cat=0
split_feature=1 11 1 13 20 17 12 4 29
split_gain=38.7608 32.286 18.6861 22.8663 16.5624 8.4064 10.6661 9.97161 8.16508
threshold=-1.4765748660338913 1.5848328383390415 -1.2363290146317276 0.44353177028497354 0.79102485626060182 0.78883124374600244 0.18334295999922809 -0.089858338794877465 0.81186166337685572
decision_type=2 2 2 2 2 2 2 2 2
left_child=5 2 4 -4 -2 7 -7 -1 -3
right_child=1 8 3 -5 -6 6 -8 -9 -10
leaf_value=-0.046356110467136218 0.045593797674749241 0.0015825412656977026 0.010302668648759483 -0.0086776587321727786 -0.011238430877659482 0.025055448540561215 -0.027788557360323134 -0.001562224142384077 -0.045411568648886999
leaf_weight=18.101688742637634 19.168323755264286 4.0454121232032803 267.51990273594856 71.401841700077057 5.336293399333953 5.2078543901443464 6.6458149552345276 6.3013674020767239 12.121084332466124
leaf_count=26 21 5 335 93 7 6 9 8 17
internal_value=0.00342295 0.00628669 0.0081787 0.0062726 0.033027 -0.0257621 -0.00396195 -0.0355424 -0.0338954
internal_weight=415.85 379.593 363.426 338.922 24.5046 36.2567 11.8537 24.4031 16.1665
internal_count=527 478 456 428 28 49 15 34 22
is_linear=0
shrinkage=0.03


end of trees

feature_importances:
rsi_7=11
momentum_10bar=9
rsi_slope=7
returns_skew_10=7
momentum_3bar=6
volatility_20bar=6
close_position_in_range=6
candle_body_ratio=5
upper_wick_ratio=5
macd_hist_delta=4
vol_ratio=4
atr_ratio=4
rsi_14=3
macd_signal=3
volume_ratio=3
hour_cos=3
volume_trend=2
consec_direction=2
returns_std_10=2
momentum_1bar=1
volatility_5bar=1
atr_14=1
lower_wick_ratio=1
hour_sin=1
high_low_range=1

parameters:
[boosting: gbdt]
[objective: binary]
[metric: binary_logloss]
[tree_learner: serial]
[device_type: cpu]
[data_sample_strategy: bagging]
[data: ]
[valid: ]
[num_iterations: 500]
[learning_rate: 0.03]
[num_leaves: 31]
[num_threads: 0]
[seed: 0]
[deterministic: 0]
[force_col_wise: 0]
[force_row_wise: 0]
[histogram_pool_size: -1]
[max_depth: 4]
[min_data_in_leaf: 5]
[min_sum_hessian_in_leaf: 0.001]
[bagging_fraction: 0.75]
[pos_bagging_fraction: 1]
[neg_bagging_fraction: 1]
[bagging_freq: 5]
[bagging_seed: 3]
[bagging_by_query: 0]
[feature_fraction: 0.75]
[feature_fraction_bynode: 1]
[feature_fraction_seed: 2]
[extra_trees: 0]
[extra_seed: 6]
[early_stopping_round: 0]
[early_stopping_min_delta: 0]
[first_metric_only: 0]
[max_delta_step: 0]
[lambda_l1: 0.2]
[lambda_l2: 1]
[linear_lambda: 0]
[min_gain_to_split: 0.01]
[drop_rate: 0.1]
[max_drop: 50]
[skip_drop: 0.5]
[xgboost_dart_mode: 0]
[uniform_drop: 0]
[drop_seed: 4]
[top_rate: 0.2]
[other_rate: 0.1]
[min_data_per_group: 100]
[max_cat_threshold: 32]
[cat_l2: 10]
[cat_smooth: 10]
[max_cat_to_onehot: 4]
[top_k: 20]
[monotone_constraints: ]
[monotone_constraints_method: basic]
[monotone_penalty: 0]
[feature_contri: ]
[forcedsplits_filename: ]
[refit_decay_rate: 0.9]
[cegb_tradeoff: 1]
[cegb_penalty_split: 0]
[cegb_penalty_feature_lazy: ]
[cegb_penalty_feature_coupled: ]
[path_smooth: 0]
[interaction_constraints: ]
[verbosity: -1]
[saved_feature_importance_type: 0]
[use_quantized_grad: 0]
[num_grad_quant_bins: 4]
[quant_train_renew_leaf: 0]
[stochastic_rounding: 1]
[linear_tree: 0]
[max_bin: 255]
[max_bin_by_feature: ]
[min_data_in_bin: 3]
[bin_construct_sample_cnt: 200000]
[data_random_seed: 1]
[is_enable_sparse: 1]
[enable_bundle: 1]
[use_missing: 1]
[zero_as_missing: 0]
[feature_pre_filter: 1]
[pre_partition: 0]
[two_round: 0]
[header: 0]
[label_column: ]
[weight_column: ]
[group_column: ]
[ignore_column: ]
[categorical_feature: ]
[forcedbins_filename: ]
[precise_float_parser: 0]
[parser_config_file: ]
[objective_seed: 5]
[num_class: 1]
[is_unbalance: 0]
[scale_pos_weight: 1.25635]
[sigmoid: 1]
[boost_from_average: 1]
[reg_sqrt: 0]
[alpha: 0.9]
[fair_c: 1]
[poisson_max_delta_step: 0.7]
[tweedie_variance_power: 1.5]
[lambdarank_truncation_level: 30]
[lambdarank_norm: 1]
[label_gain: ]
[lambdarank_position_bias_regularization: 0]
[eval_at: ]
[multi_error_top_k: 1]
[auc_mu_weights: ]
[num_machines: 1]
[local_listen_port: 12400]
[time_out: 120]
[machine_list_filename: ]
[machines: ]
[gpu_platform_id: -1]
[gpu_device_id: -1]
[gpu_use_dp: 0]
[num_gpu: 1]

end of parameters

pandas_categorical:null
