tree
version=v4
num_class=1
num_tree_per_iteration=1
label_index=0
max_feature_idx=29
objective=binary sigmoid:1
feature_names=rsi_14 rsi_7 rsi_slope macd_hist macd_hist_delta macd_signal bb_position bb_width momentum_1bar momentum_3bar momentum_5bar momentum_10bar volume_ratio volume_trend volatility_5bar volatility_20bar vol_ratio atr_14 atr_ratio candle_body_ratio upper_wick_ratio lower_wick_ratio consec_direction close_vs_open hour_sin hour_cos returns_std_10 returns_skew_10 high_low_range close_position_in_range
feature_infos=[-2.128335621862774:2.5156320155389817] [-2.2200495837935548:2.1834089482150283] [-3.343485446396854:3.2778318411375182] [-4.2635327883475282:3.5889654623434746] [-6.5170091803544548:3.5268929969698628] [-3.0687997920935897:2.39449921093559] [-2.9886223016741691:2.7490445014990446] [-1.2102414229809044:3.7749705021370006] [-6.8026792944654773:5.2878379687842809] [-5.2014400541275663:3.2698105480842181] [-4.9728056921711854:3.8880009653388541] [-4.5272410569976191:3.2162599875615312] [-0.91928513792697042:10.289988598589209] [-1.8802509956224387:4.6448745066613988] [-1.6009099984100805:5.1845868184065855] [-1.4515749999214789:2.9756406721381881] [-2.114643575511721:2.9304036767283757] [-1.2285220080328654:3.6290043561301721] [-2.6918570284127528:3.1600085486297935] [-1.7676922278729925:1.6715126370598667] [-1.0265454800153448:3.0039621045355291] [-0.96619665103387942:3.190350710414561] [-3.1669062267922188:5.0707111261355182] [-1.0782371783060589:0.92813110661906784] [-1.3004960958469658:1.6647822468759885] [-1.4320706002952603:1.3195041488349002] [-1.3866621448682708:3.4868260598536867] [-3.0217358793979177:2.9804102680659552] [-1.3068378211984963:3.0757339868634004] [-1.6848324315396841:1.6753924918532763]
tree_sizes=1827 1701 1593 1792 1610 1200 1085 1493 1408 1404

Tree=0
num_leaves=16
num_cat=0
split_feature=11 14 25 26 29 26 17 3 26 16 20 17 11 5 4
split_gain=36.3133 23.6586 26.5988 19.5312 29.5294 21.4664 19.3018 16.8512 15.904 12.8551 12.641 5.98516 5.9116 3.26779 2.50187
threshold=0.20516393811206726 -1.1233308231830679 1.3127978982577992 -0.39005056755600148 0.51782175324647195 -0.48500454785629049 -0.39472891105060992 0.1069377379172345 -0.27986068371782485 -1.5712915456888874 -0.82051407334494686 -0.50811439635915612 0.77576627453844693 -0.12646246848648182 -0.16673644285822561
decision_type=2 2 2 2 2 2 2 2 2 2 2 2 2 2 2
left_child=3 9 6 5 8 10 -3 -6 -5 13 -1 -7 -4 -2 -11
right_child=1 2 12 4 7 11 -8 -9 -10 14 -12 -13 -14 -15 -16
leaf_value=-0.038725833772785594 -0.031095914309046287 0.0088747552151846806 -0.064410800408125357 0.016043138490712788 -0.069435455883058661 -0.021504067623580595 -0.0078933205502956412 -0.015299729362593354 -0.012298282160446497 -0.018676034048054197 -0.017186294194279538 -0.067582138347870691 -0.021955632204539621 -0.066092862846155634 0.0099809051196699007
leaf_weight=31.969363957643509 6.4038140773773193 123.08690187335014 5.3366725742816907 18.735763370990753 11.322176069021227 3.8603759407997158 128.2601657807827 9.3128257393836957 196.17823633551598 5.9128891229629517 99.545976489782333 12.700624734163283 6.952363133430481 6.567176818847658 3.435915529727934
leaf_count=44 6 147 8 21 14 5 161 10 223 5 128 15 7 7 5
internal_value=-0.0123591 -0.00428129 -0.00174646 -0.0183775 -0.0130294 -0.0268828 0.000404826 -0.0464142 -0.00966645 -0.0332581 -0.0226055 -0.0581532 -0.043159 -0.0516182 -0.00730743
internal_weight=669.581 285.956 263.636 383.625 235.549 148.076 251.347 20.635 214.914 22.3198 131.515 16.561 12.289 12.971 9.3488
internal_count=806 346 323 460 268 192 308 24 244 23 172 20 15 13 10
is_linear=0
shrinkage=1


Tree=1
num_leaves=15
num_cat=0
split_feature=2 25 18 19 7 25 14 29 19 29 25 3 2 24
split_gain=53.0735 25.0628 25.4815 19.5906 18.9395 20.7131 16.9661 16.556 14.3558 13.6156 13.0423 13.9622 10.8098 7.51977
threshold=0.8279882383480589 0.95805362580615527 0.21963439578302121 -1.2823921144343524 -0.22195005750519381 1.2958358137228394 -0.26074366113117359 1.6555097271083168 1.2105796398774165 1.5914458621417042 -0.4842530259639391 1.6862111913477265 1.1531893556311383 -0.92176862891996969
decision_type=2 2 2 2 2 2 2 2 2 2 2 2 2 2
left_child=3 10 8 4 5 -1 -6 9 -3 -5 11 -2 -4 -12
right_child=1 2 12 7 6 -7 -8 -9 -10 -11 13 -13 -14 -15
leaf_value=0.037775611912433518 0.01957956058417968 -0.053213089157463263 0.030443170524531118 -0.003754913369954553 -0.048921844379594959 -0.028026898102036998 0.0074444498357452982 -0.049628096469619062 0.010718021453003183 0.034138534820347718 0.015646268189018906 -0.030530398823964522 -0.016942759462665342 0.043043943560191512
leaf_weight=29.55600368976593 51.227312207221985 9.4202356040477735 14.390350282192232 452.15278300642967 5.0636905133724239 4.160375863313674 21.930765569210052 5.9958594441413871 3.9140414595603934 7.6780637502670279 14.631325602531431 4.5552285909652701 5.1086882650852194 39.75803729891777
leaf_count=38 52 13 13 557 9 6 25 6 5 10 19 6 7 40
internal_value=0.00275355 0.0188962 -0.00386575 -0.00164686 0.0142228 0.0289098 -0.00428442 -0.00375404 -0.0345901 -0.00303646 0.0257074 0.0149163 0.0175146 0.0361975
internal_weight=669.543 143.005 32.8333 526.538 60.7108 33.7164 26.9945 465.827 13.3343 459.831 110.172 55.7825 19.499 54.3894
internal_count=806 155 38 651 78 44 34 573 18 567 117 58 20 59
is_linear=0
shrinkage=0.03


Tree=2
num_leaves=14
num_cat=0
split_feature=2 19 24 1 1 17 29 18 27 21 9 12 20
split_gain=49.9928 18.4005 17.5822 17.0368 17.8544 16.197 15.75 15.299 15.2852 14.6359 11.4938 10.0692 2.61374
threshold=0.8279882383480589 -1.2823921144343524 1.3872297095063948 1.4912157693899719 0.67629473778021609 -0.28064046300300105 1.6555097271083168 -0.54394242437001339 0.99804280909346288 -0.87433490797248847 1.1792438296265273 0.61076761516263944 -0.98448601430126637
decision_type=2 2 2 2 2 2 2 2 2 2 2 2 2
left_child=1 5 3 4 -2 9 8 -7 -3 -1 -5 12 -4
right_child=2 6 11 10 -6 7 -8 -9 -10 -11 -12 -13 -14
leaf_value=-0.016976326247174153 0.0020313742171910003 -0.005148836785961175 0.027938100520664332 0.002774164406771109 0.028812138624898172 -0.047723106883640558 -0.048417315717027842 0.0072441708921038754 0.010569624820749014 0.034723171198366189 -0.048719774262679198 -0.0070976877740131609 0.050438866301717178
leaf_weight=5.06772756576538 41.808675616979599 396.20321321487427 15.786548197269438 9.5963361859321576 49.013612449169159 4.7322404682636288 5.9865564703941336 20.9785196185112 63.610829949378967 29.918582648038864 5.2476463913917533 3.8601419329643241 17.6523357629776
leaf_count=8 54 489 13 10 46 8 6 24 78 38 7 5 20
internal_value=0.00266981 -0.00160049 0.0183396 0.0118029 0.0167057 0.0137809 -0.00364287 -0.0040562 -0.0029431 0.0268042 -0.0169773 0.0359093 0.0411101
internal_weight=669.463 526.498 142.965 105.666 90.8223 60.6971 465.801 25.7108 459.814 34.9863 14.844 37.299 33.4389
internal_count=806 651 155 117 100 78 573 32 567 46 17 38 33
is_linear=0
shrinkage=0.03


Tree=3
num_leaves=16
num_cat=0
split_feature=2 25 18 19 20 21 28 13 15 27 12 25 12 2 13
split_gain=47.1523 23.0559 23.8837 17.297 15.8196 18.4844 14.4159 20.8484 13.8062 13.3817 14.0603 12.8254 11.0169 10.0975 2.60061
threshold=0.8279882383480589 0.95805362580615527 0.21963439578302121 -1.2823921144343524 -0.42712575988843154 -0.87433490797248847 1.3717732245855998 -0.41289985368102827 -0.54137980920829543 -1.4918889327310267 0.22042940298126443 -1.1385035930302376 -0.24786688163495046 1.1531893556311383 1.5958936388135878
decision_type=2 2 2 2 2 2 2 2 2 2 2 2 2 2 2
left_child=3 6 8 4 14 -6 12 -8 -3 11 -11 -5 -2 -4 -1
right_child=1 2 13 9 5 -7 7 -9 -10 10 -12 -13 -14 -15 -16
leaf_value=-0.035483692650548522 0.041186954572544114 0.010628289068818512 0.02920233552297637 0 -0.024380158832698201 0.026710345333901347 -0.038728345867801571 0.029857603329770672 -0.052048093485446714 -0.0018077346437358839 -0.014293731835079404 0.037616093079545221 0.019494319299772498 -0.016573881500361896 -0.0026807394966156953
leaf_weight=4.4283702075481397 37.944754242897034 3.9120407700538626 14.382292807102205 21.172306001186371 6.4738931953907004 45.118773519992828 6.8015257120132446 7.1348580121994001 9.4108073115348798 324.23682352900505 108.12330466508865 12.2306872010231 58.199184030294418 5.1074470579624167 4.6474639773368835
leaf_count=8 38 5 13 21 10 56 9 9 13 399 137 16 61 7 4
internal_value=0.00259013 0.0178128 -0.00401275 -0.00155642 0.0133597 0.0198437 0.02435 -0.00356531 -0.0337682 -0.00353666 -0.00496982 0.0144447 0.0284533 0.01669 -0.0212149
internal_weight=669.325 142.893 32.8126 526.432 60.6685 51.5927 110.08 13.9364 13.3228 465.763 432.36 33.403 96.1439 19.4897 9.07583
internal_count=806 155 38 651 78 66 117 18 18 573 536 37 99 20 12
is_linear=0
shrinkage=0.03


Tree=4
num_leaves=14
num_cat=0
split_feature=2 25 18 14 19 7 24 28 13 19 13 2 1
split_gain=44.4474 21.7762 22.5806 17.1814 14.3665 16.8746 15.0386 13.6146 19.7795 13.2824 10.2278 9.57397 0.964903
threshold=0.8279882383480589 0.95805362580615527 0.21963439578302121 -1.2850223538935408 -1.2823921144343524 -0.22195005750519381 0.036827669851505707 1.3717732245855998 -0.41289985368102827 1.2105796398774165 -0.77410591593052769 1.1531893556311383 0.7829136909774449
decision_type=2 2 2 2 2 2 2 2 2 2 2 2 2
left_child=3 7 9 12 5 -5 -6 10 -9 -3 -2 -4 -1
right_child=1 2 11 4 6 -7 -8 8 -10 -11 -12 -13 -14
leaf_value=-0.020244592630580149 0.044844131394851813 -0.050844229306010659 0.028405572241710798 0.026825414992109334 0.0027259666352664742 -0.0045087984941766185 -0.0081731813805865153 -0.037739063342200292 0.029076531906495184 0.010607548088339558 0.021321289206427001 -0.016163560344368826 -0.046695416020560911
leaf_weight=6.4522072672843915 23.939870774745941 9.3908977806568128 14.370357036590578 33.656901746988297 236.33092167973518 26.974877804517746 217.40623363852501 6.7966998815536499 7.1335968971252424 3.9109372496604911 72.109100520610809 5.1054043173789969 5.5457128882408142
leaf_count=7 22 13 13 44 282 34 278 9 9 5 77 7 6
internal_value=0.00251305 0.017301 -0.00391696 -0.00151145 -0.000637533 0.0129406 -0.00248961 0.0236571 -0.00346566 -0.0328786 0.0276478 0.0162103 -0.0355843
internal_weight=669.124 142.757 32.7776 526.367 514.369 60.6318 453.737 109.979 13.9303 13.3018 96.049 19.4758 11.9979
internal_count=806 155 38 651 638 78 560 117 18 18 99 20 13
is_linear=0
shrinkage=0.03


Tree=5
num_leaves=10
num_cat=0
split_feature=25 8 11 10 17 7 21 3 14
split_gain=26.5035 24.7569 18.6208 32.2218 29.5988 21.4773 18.9509 18.6624 14.7202
threshold=1.3095305155639088 0.61277559620840993 0.18855217397036833 -0.24990318561276861 -0.38380293091153178 0.16954600467807288 2.3904925684951315 -0.11646953878515227 -0.4822621665885421
decision_type=2 2 2 2 2 2 2 2 2
left_child=2 -2 3 8 6 -5 -4 -6 -1
right_child=1 -3 4 5 7 -7 -8 -9 -10
leaf_value=-0.0066972312954082878 -0.050020114105983393 0.021476293072885781 0.021412964656081439 -0.015039903105521907 0.038130361941584597 0.0090615596722309864 -0.031417132594630429 -0.0040185329792078398 0.012212523133276988
leaf_weight=47.458382815122604 14.585222691297533 5.2584679722785941 136.04308265447617 143.75371834635735 9.2548062801361066 42.140784800052643 5.4492666125297538 119.42264112830162 154.71531829237938
leaf_count=58 21 7 159 171 14 48 7 145 179
internal_value=0.00261941 -0.0306647 0.00367691 -0.000521809 0.0097097 -0.00952494 0.01913 -0.000670146 0.00773299
internal_weight=678.082 19.8437 658.238 388.068 270.17 185.895 141.492 128.677 202.174
internal_count=809 28 781 456 325 219 166 159 237
is_linear=0
shrinkage=0.03


Tree=6
num_leaves=9
num_cat=0
split_feature=3 29 11 4 11 21 17 19
split_gain=16.4394 17.8899 29.7237 20.4967 16.6796 14.9971 12.7277 0.595087
threshold=2.3828862849319523 1.2568561039167745 0.96227151692316826 1.1937322530339005 1.3981255178409835 2.4137531323162267 -0.43423031021115427 -0.46084714908583285
decision_type=2 2 2 2 2 2 2 2
left_child=1 2 3 -1 -4 6 -3 -2
right_child=7 5 4 -5 -6 -7 -8 -9
leaf_value=0.0039163928606943312 -0.020247218366821671 0.024636909133179598 -0.050658229269754704 -0.019200715082011877 0.0082532120998580275 -0.035936287994935562 0.0031236093394851265 -0.045146517526141149
leaf_weight=500.88457953929901 7.1473119854927063 65.178984820842743 14.171476572752001 36.020091652870178 5.4706280827522269 4.1617139279842368 41.159876316785812 3.7445353865623456
leaf_count=609 6 70 19 42 7 5 46 5
internal_value=0.00254086 0.00316782 0.000957065 0.00232154 -0.0343549 0.0141402 0.0164725 -0.0323885
internal_weight=677.939 667.047 556.547 536.905 19.6421 110.501 106.339 10.8918
internal_count=809 798 677 651 26 121 116 11
is_linear=0
shrinkage=0.03


Tree=7
num_leaves=13
num_cat=0
split_feature=26 28 4 17 21 5 27 0 2 4 21 13
split_gain=19.927 22.4631 18.774 16.9394 15.8826 27.6082 19.4086 13.0097 10.0784 7.63642 6.97466 2.22057
threshold=-1.058312973598641 -0.96116291023592193 0.12065343376701436 -1.0298645071467825 0.15555560940441546 -0.95867740959019987 -1.001950356967128 0.30775719642961735 0.47473508713526186 0.27739514283520572 -0.20456434322880584 -0.84333872736862758
decision_type=2 2 2 2 2 2 2 2 2 2 2 2
left_child=2 7 3 10 5 -3 -6 -2 -4 -9 -1 -5
right_child=1 4 8 11 6 -7 -8 9 -10 -11 -12 -13
leaf_value=-0.021659979759132138 0.054496684962134403 0.01626445799192814 0.045559510612381303 -0.021294230387056204 0.025578120456375582 -0.0047929829831095134 0.004171954788173466 -0.001385845268038665 -0.010829637783155294 0.044459804571597594 0.023741356961290268 -0.054275933998921451
leaf_weight=5.1598052382469177 10.787191808223726 66.773497015237808 4.3912267088890058 5.0879102945327785 48.115441352128983 321.64710092544556 177.59085294604301 11.586383759975432 5.1482795774936676 3.4050184190273276 5.0112744271755201 13.14305701851845
leaf_count=6 15 73 6 4 54 386 212 13 8 5 6 21
internal_value=0.00245865 0.00372906 -0.0183591 -0.030405 0.00254128 -0.00112511 0.00885442 0.0306501 0.016418 0.010781 0.000294918 -0.0469693
internal_weight=677.847 639.905 37.9416 28.402 614.127 388.421 225.706 25.7786 9.53951 14.9914 10.1711 18.231
internal_count=809 758 51 37 725 459 266 33 14 18 12 25
is_linear=0
shrinkage=0.03


Tree=8
num_leaves=12
num_cat=0
split_feature=25 11 27 17 26 29 20 21 7 26 26
split_gain=24.0615 17.3346 33.5795 26.6036 22.6391 17.5787 17.34 17.3227 14.8601 15.1419 0.200039
threshold=1.3095305155639088 0.18855217397036833 -0.088474153776865003 -0.38380293091153178 -0.36190653408699003 1.520225881793303 1.2333185245250489 2.3904925684951315 -0.7051749930516078 -1.0382085831012564 1.0000000180025095e-35
decision_type=2 2 2 2 2 2 2 2 2 2 2
left_child=1 2 4 7 -1 -5 -4 -3 9 -2 -10
right_child=8 3 6 5 -6 -7 -8 -9 10 -11 -12
leaf_value=-0.0088351427108223912 -0.038100029497869954 0.020348211692089072 -0.017306256981215348 0.0032690826119527116 0.010920224598345374 -0.031485679524055961 0.01579708483951299 -0.030133961633969499 -0.050831793040294629 0.04504310687315765 -0.022702598311005382
leaf_weight=70.746541351079941 2.534709632396698 135.85515534877777 112.47249215841293 114.89726275205612 189.47177684307098 13.759063839912413 15.303579807281492 5.4515630304813376 10.037328273057936 3.4347205758094814 3.776898741722106
leaf_count=85 5 159 143 144 211 15 17 7 13 5 5
internal_value=0.00238969 0.00339687 -0.000653304 0.00922091 0.00551303 -0.000615639 -0.013203 0.0181604 -0.0293699 0.00847717 -0.0455977
internal_weight=677.741 657.957 387.994 269.963 260.218 128.656 127.776 141.307 19.7837 5.96943 13.8142
internal_count=809 781 456 325 296 159 160 166 28 10 18
is_linear=0
shrinkage=0.03


Tree=9
num_leaves=12
num_cat=0
split_feature=25 11 17 26 25 29 3 21 7 26 20
split_gain=22.8413 16.303 25.0719 23.072 26.1361 20.6657 17.4731 16.415 14.1293 14.4902 0.201419
threshold=1.3095305155639088 0.18855217397036833 -0.38380293091153178 -0.36190653408699003 0.78124306242221386 0.51782175324647195 -0.11646953878515227 2.3904925684951315 -0.7051749930516078 -1.0382085831012564 -0.76934984984563271
decision_type=2 2 2 2 2 2 2 2 2 2 2
left_child=1 3 7 4 -1 -5 -4 -3 9 -2 -10
right_child=8 2 6 5 -6 -7 -8 -9 10 -11 -12
leaf_value=-0.02060836028252511 -0.03737464082735889 0.019760212196554706 0.036944686904428647 0.0071484421530414073 0.006160153487106833 -0.026104809149157165 -0.0038444144340248881 -0.029376176212630202 -0.022063212014210579 0.044016918342018416 -0.049676266550146259
leaf_weight=85.483145952224731 2.5259260237216949 135.73241004347801 9.2522500455379468 233.51706671714783 51.853419959545135 17.083283841609955 119.39822062849998 5.4502350986003867 3.769113540649415 3.4326878786087063 9.9997081458568537
leaf_count=107 5 159 14 266 62 21 145 7 5 5 13
internal_value=0.00231342 0.00329396 0.00894382 -0.000633315 -0.0104867 0.00476299 -0.000602346 0.0176279 -0.0286728 0.00823915 -0.0445294
internal_weight=677.497 657.77 269.833 387.937 137.337 250.6 128.65 141.183 19.7274 5.95861 13.7688
internal_count=809 781 325 456 169 287 159 166 28 10 18
is_linear=0
shrinkage=0.03


end of trees

feature_importances:
hour_cos=11
returns_std_10=9
rsi_slope=8
atr_14=8
lower_wick_ratio=8
momentum_10bar=7
candle_body_ratio=7
close_position_in_range=7
macd_hist=5
bb_width=5
volume_trend=5
upper_wick_ratio=5
macd_hist_delta=4
volatility_5bar=4
atr_ratio=4
returns_skew_10=4
rsi_7=3
volume_ratio=3
hour_sin=3
high_low_range=3
macd_signal=2
rsi_14=1
momentum_1bar=1
momentum_3bar=1
momentum_5bar=1
volatility_20bar=1
vol_ratio=1

parameters:
[boosting: gbdt]
[objective: binary]
[metric: binary_logloss]
[tree_learner: serial]
[device_type: cpu]
[data_sample_strategy: bagging]
[data: ]
[valid: ]
[num_iterations: 500]
[learning_rate: 0.03]
[num_leaves: 31]
[num_threads: 0]
[seed: 0]
[deterministic: 0]
[force_col_wise: 0]
[force_row_wise: 0]
[histogram_pool_size: -1]
[max_depth: 4]
[min_data_in_leaf: 5]
[min_sum_hessian_in_leaf: 0.001]
[bagging_fraction: 0.75]
[pos_bagging_fraction: 1]
[neg_bagging_fraction: 1]
[bagging_freq: 5]
[bagging_seed: 3]
[bagging_by_query: 0]
[feature_fraction: 0.75]
[feature_fraction_bynode: 1]
[feature_fraction_seed: 2]
[extra_trees: 0]
[extra_seed: 6]
[early_stopping_round: 0]
[early_stopping_min_delta: 0]
[first_metric_only: 0]
[max_delta_step: 0]
[lambda_l1: 0.2]
[lambda_l2: 1]
[linear_lambda: 0]
[min_gain_to_split: 0.01]
[drop_rate: 0.1]
[max_drop: 50]
[skip_drop: 0.5]
[xgboost_dart_mode: 0]
[uniform_drop: 0]
[drop_seed: 4]
[top_rate: 0.2]
[other_rate: 0.1]
[min_data_per_group: 100]
[max_cat_threshold: 32]
[cat_l2: 10]
[cat_smooth: 10]
[max_cat_to_onehot: 4]
[top_k: 20]
[monotone_constraints: ]
[monotone_constraints_method: basic]
[monotone_penalty: 0]
[feature_contri: ]
[forcedsplits_filename: ]
[refit_decay_rate: 0.9]
[cegb_tradeoff: 1]
[cegb_penalty_split: 0]
[cegb_penalty_feature_lazy: ]
[cegb_penalty_feature_coupled: ]
[path_smooth: 0]
[interaction_constraints: ]
[verbosity: -1]
[saved_feature_importance_type: 0]
[use_quantized_grad: 0]
[num_grad_quant_bins: 4]
[quant_train_renew_leaf: 0]
[stochastic_rounding: 1]
[linear_tree: 0]
[max_bin: 255]
[max_bin_by_feature: ]
[min_data_in_bin: 3]
[bin_construct_sample_cnt: 200000]
[data_random_seed: 1]
[is_enable_sparse: 1]
[enable_bundle: 1]
[use_missing: 1]
[zero_as_missing: 0]
[feature_pre_filter: 1]
[pre_partition: 0]
[two_round: 0]
[header: 0]
[label_column: ]
[weight_column: ]
[group_column: ]
[ignore_column: ]
[categorical_feature: ]
[forcedbins_filename: ]
[precise_float_parser: 0]
[parser_config_file: ]
[objective_seed: 5]
[num_class: 1]
[is_unbalance: 0]
[scale_pos_weight: 1.07373]
[sigmoid: 1]
[boost_from_average: 1]
[reg_sqrt: 0]
[alpha: 0.9]
[fair_c: 1]
[poisson_max_delta_step: 0.7]
[tweedie_variance_power: 1.5]
[lambdarank_truncation_level: 30]
[lambdarank_norm: 1]
[label_gain: ]
[lambdarank_position_bias_regularization: 0]
[eval_at: ]
[multi_error_top_k: 1]
[auc_mu_weights: ]
[num_machines: 1]
[local_listen_port: 12400]
[time_out: 120]
[machine_list_filename: ]
[machines: ]
[gpu_platform_id: -1]
[gpu_device_id: -1]
[gpu_use_dp: 0]
[num_gpu: 1]

end of parameters

pandas_categorical:null
